%YAML:1.0
---
opencv_ml_svm:
   format: 3
   svmType: C_SVC
   kernel:
      type: LINEAR
   C: 1.5000000000000000e+00
   term_criteria: { iterations:10000000 }
   var_count: 13572
   class_count: 2
   class_labels: !!opencv-matrix
      rows: 2
      cols: 1
      dt: i
      data: [ 47, 48 ]
   sv_total: 1
   support_vectors:
      - [ 5.69152820e-04, -4.99897636e-04, -1.98000402e-04,
          3.77302000e-04, 9.60799342e-04, 5.16483502e-04, 8.13111488e-04,
          7.40109477e-04, 9.03019099e-04, 5.97505823e-05,
          -1.09668099e-03, -6.79570949e-04, 6.79063553e-04,
          1.23769487e-03, 7.91402417e-04, 1.13565673e-03, 8.96130456e-04,
          8.08725308e-04, 9.15353186e-04, -4.24504513e-04,
          -1.33734022e-03, -1.45674369e-03, -1.09295077e-04,
          6.95424853e-04, 1.03997253e-03, 9.78430966e-04, 1.22039940e-03,
          6.82475511e-04, -9.54080140e-04, -1.18418469e-03,
          -7.82965508e-04, 5.22596936e-04, 7.10979977e-04,
          1.24169514e-03, 1.18394464e-03, 1.16487429e-03, 2.33097424e-04,
          -1.12589647e-03, -4.69065562e-04, 6.42083469e-04,
          1.12091831e-03, 6.97109092e-04, 1.00304210e-03, 8.19145469e-04,
          7.58033013e-04, -1.16811169e-03, -1.26452383e-03,
          -4.61884556e-05, 7.86698016e-04, 1.29323697e-03,
          8.52922443e-04, 1.07582496e-03, 8.42444540e-04, 4.97893430e-04,
          7.17989693e-04, -1.00865704e-03, -1.23662339e-03,
          -6.20023755e-04, 4.93702537e-04, 6.49331370e-04,
          1.12663396e-03, 1.07468385e-03, 1.08665344e-03,
          -1.38471471e-04, -1.03275524e-03, -4.52005479e-04,
          5.15212829e-04, 1.12955121e-03, 7.93104933e-04, 1.09181355e-03,
          1.02970528e-03, 9.20703169e-04, -1.21022889e-03,
          -1.35578483e-03, -1.18600394e-04, 6.96491334e-04,
          1.18315441e-03, 7.74674700e-04, 9.73815855e-04, 7.77531182e-04,
          5.34765888e-04, -1.20764575e-03, -7.39071460e-04,
          6.41330960e-04, 7.97927205e-04, 1.40691607e-03, 9.21105384e-04,
          1.06456527e-03, 9.28858062e-04, -9.27687448e-04,
          -2.12783834e-05, -1.15286605e-03, -5.69640717e-04,
          4.08508175e-04, 1.02149206e-03, 7.03850412e-04, 9.95355658e-04,
          9.65032959e-04, 8.82680470e-04, -1.06646726e-03,
          -5.44899201e-04, 1.04619749e-03, 8.31206562e-04,
          1.19798351e-03, 7.97122542e-04, 9.09292430e-04, 9.61999816e-04,
          3.65610264e-04, -1.54375692e-03, -9.07677517e-04,
          5.20097848e-04, 7.00387405e-04, 1.21521321e-03, 7.82718358e-04,
          9.27596120e-04, 7.95375963e-04, -8.32862046e-04,
          -1.34758186e-03, 6.34462747e-04, 9.24787251e-04,
          8.82133842e-04, 1.45950436e-03, 9.37296310e-04, 8.66196991e-04,
          9.09257971e-04, -1.33829250e-03, -1.21498632e-03,
          -7.11783534e-04, 7.75281515e-04, 6.97241165e-04,
          1.04923709e-03, 7.08121457e-04, 8.00601556e-04, 8.23727984e-04,
          3.38781654e-04, -1.42856920e-03, 6.20858686e-04,
          1.55997893e-03, 1.06468087e-03, 1.10505649e-03, 6.90352696e-04,
          8.87697621e-04, 1.05833204e-03, -3.98371165e-04,
          -1.56734372e-03, 5.15753694e-04, 7.77243462e-04,
          7.38843926e-04, 1.21467269e-03, 7.86814664e-04, 7.77033507e-04,
          7.62223091e-04, -1.44990184e-03, -1.47690298e-03,
          8.20477784e-04, 9.46011220e-04, 1.09785469e-03, 1.56011595e-03,
          8.84477689e-04, 8.37985775e-04, 8.98673316e-04,
          -1.44958717e-03, -1.61143555e-03, 4.99330054e-04,
          1.30226673e-03, 8.84140434e-04, 9.53646435e-04, 6.09082810e-04,
          7.40042655e-04, 8.62396148e-04, -3.17717931e-04,
          -1.53388979e-03, 7.88864971e-04, 1.26605306e-03,
          1.12808903e-03, 1.27274333e-03, 6.89166773e-04, 9.26219684e-04,
          1.07789470e-03, -6.87833177e-04, -1.49190449e-03,
          7.12338428e-04, 8.31401790e-04, 9.20572726e-04, 1.33131060e-03,
          7.65835051e-04, 7.11366883e-04, 7.62733282e-04,
          -1.40780478e-03, -1.43233524e-03, 7.53636297e-04,
          8.12473125e-04, 1.08736719e-03, 1.45051000e-03, 9.97756142e-04,
          1.14163512e-03, 1.04961055e-03, -1.48446637e-03,
          -1.54085306e-03, 6.94656279e-04, 1.12059305e-03,
          9.76432057e-04, 1.08960900e-03, 6.07662369e-04, 7.83883035e-04,
          9.17019963e-04, -5.46983269e-04, -1.26199098e-03,
          7.62852025e-04, 9.07020527e-04, 9.12803516e-04, 1.31687860e-03,
          7.81562878e-04, 1.09087059e-03, 1.08325575e-03,
          -1.14656030e-03, -1.47747493e-03, 6.73750881e-04,
          7.20143784e-04, 9.45930195e-04, 1.30871823e-03, 8.62676243e-04,
          9.76828858e-04, 9.09740862e-04, -1.53965328e-03,
          -1.23787962e-03, 7.25458725e-04, 8.96617596e-04,
          9.39610240e-04, 1.20260241e-03, 8.84123263e-04, 1.16980670e-03,
          1.01615454e-03, -1.35184929e-03, -1.21430366e-03,
          6.75395597e-04, 8.00778274e-04, 8.17313616e-04, 1.18613895e-03,
          6.56667456e-04, 9.40135855e-04, 9.62657330e-04,
          -1.00212579e-03, -8.48575728e-04, 8.90026276e-04,
          1.03034836e-03, 8.74870108e-04, 1.10380386e-03, 9.62352904e-04,
          1.11272326e-03, 9.36555967e-04, -1.15359970e-03,
          -1.33801566e-03, 6.41982071e-04, 8.10819853e-04,
          8.71032360e-04, 1.06777169e-03, 7.89063051e-04, 1.04726886e-03,
          9.09733586e-04, -1.44484884e-03, -1.09442323e-03,
          9.53837705e-04, 1.00865460e-03, 7.73903332e-04, 1.11566857e-03,
          8.33480211e-04, 9.85497958e-04, 7.94386957e-04,
          -1.28896767e-03, -7.01005978e-04, 7.74857122e-04,
          9.05303692e-04, 7.77500623e-04, 9.80851124e-04, 8.34531966e-04,
          9.97102237e-04, 8.48630618e-04, -1.26410101e-03,
          -1.06362661e-03, 9.20400606e-04, 1.13625720e-03,
          9.53314768e-04, 1.27140654e-03, 1.01088732e-03, 9.74143099e-04,
          8.55605234e-04, -1.01413263e-03, -1.20058656e-03,
          8.23828625e-04, 9.11992684e-04, 7.01792946e-04, 1.00196654e-03,
          7.42057338e-04, 8.95682548e-04, 7.29174353e-04,
          -1.40779209e-03, -1.08084187e-03, 1.15260261e-03,
          1.05327822e-03, 7.73160195e-04, 1.08106795e-03, 8.07905453e-04,
          8.79124796e-04, 5.65162860e-04, -1.16502307e-03,
          -1.07400597e-03, 7.95057043e-04, 1.01796619e-03,
          8.60609231e-04, 1.13896735e-03, 8.96127778e-04, 8.55605875e-04,
          7.62681069e-04, -1.07086927e-03, -8.58364219e-04,
          1.01099326e-03, 9.66075459e-04, 9.03956417e-04, 1.31476123e-03,
          9.81052406e-04, 8.91706790e-04, 6.00943982e-04,
          -1.00756856e-03, -1.26253499e-03, 9.63271013e-04,
          9.07605514e-04, 6.62418024e-04, 9.17994301e-04, 7.28357059e-04,
          7.48796680e-04, 4.96692199e-04, -1.31996279e-03,
          -1.79418552e-04, 1.23720197e-03, 8.21891765e-04,
          7.81406066e-04, 1.32940430e-03, 6.94213901e-04, 7.15227157e-04,
          -2.39356086e-04, -1.13482436e-03, -9.11741867e-04,
          8.47434043e-04, 8.65593203e-04, 8.07222037e-04, 1.14548532e-03,
          8.74405552e-04, 7.69620237e-04, 5.33047074e-04,
          -1.15031027e-03, 1.66994723e-04, 9.79851582e-04,
          5.81518689e-04, 5.39366330e-04, 1.03920838e-03, 6.30767143e-04,
          3.83888604e-04, -1.92865555e-04, -9.22339736e-04,
          -3.96563526e-04, 1.08338776e-03, 7.37087859e-04,
          6.88707340e-04, 1.14688079e-03, 6.11484982e-04, 6.25910936e-04,
          -2.38065375e-04, -1.15381973e-03, -2.65611627e-04,
          7.97445886e-04, 4.43493365e-04, 2.90370459e-04, 1.39308721e-03,
          7.65310251e-04, 5.48780547e-04, -3.70340509e-04,
          -1.19976013e-03, 4.18105519e-05, 8.76344217e-04,
          5.26152784e-04, 5.01788862e-04, 9.22358187e-04, 5.69954806e-04,
          3.51184193e-04, -2.01251270e-04, -9.74759751e-04,
          5.04074706e-05, 6.45056658e-04, 2.88685667e-04, 5.13701998e-05,
          7.37217546e-04, 5.17294568e-04, 3.43103420e-05,
          -3.50646384e-04, -4.64906509e-04, -3.17193859e-04,
          7.32136948e-04, 4.10519249e-04, 3.50052986e-04, 1.25150604e-03,
          6.61718776e-04, 4.25016333e-04, -4.25686565e-04,
          -1.22393132e-03, -3.54893884e-04, 3.88858229e-04,
          -7.02939651e-05, -2.18531219e-04, 1.14584202e-03,
          7.66745303e-04, 7.89254322e-04, 6.90799556e-04,
          -4.23578691e-04, 5.18288070e-05, 5.76443446e-04,
          2.40110123e-04, 5.94884914e-05, 6.22455089e-04, 3.71005357e-04,
          -5.82570392e-05, -4.05590719e-04, -5.32097009e-04,
          -1.59976058e-04, 6.23938104e-04, 2.44600997e-05,
          -1.62913020e-05, 7.46443809e-04, 5.24041185e-04,
          2.93806574e-04, 3.81428545e-04, 4.75897323e-05,
          -5.07611723e-04, 2.12574596e-04, -2.43445611e-04,
          -3.85849853e-04, 9.53200040e-04, 6.61498925e-04,
          6.46140077e-04, 4.87102690e-04, -5.90914511e-04,
          -2.71533441e-04, 6.66376785e-04, 1.33108377e-04,
          -1.13248916e-05, 9.71119094e-04, 3.89576249e-04,
          2.52011319e-04, 1.63570992e-04, -6.17104466e-04,
          -2.27834273e-04, 4.29762586e-04, -1.42637466e-04,
          -1.62474302e-04, 5.51185862e-04, 3.75245087e-04,
          1.55001631e-04, 2.05124146e-04, -1.76261856e-05,
          -1.43681435e-04, 7.92112492e-04, 2.83370784e-04,
          3.57704237e-04, 9.98292468e-04, 4.60310752e-04, 4.35795926e-04,
          6.63342653e-04, -3.00369255e-04, -3.99830402e-04,
          4.63286589e-04, -1.61433200e-04, -3.42215411e-04,
          7.88569159e-04, 3.41953855e-04, 2.40283349e-04, 1.47840794e-04,
          -6.38814934e-04, -6.98065269e-04, 9.68521927e-04,
          9.95384762e-04, 9.77695337e-04, 9.49866953e-04, 2.52968777e-04,
          -2.13977561e-04, -3.53618583e-04, -1.21255754e-03,
          -1.53389439e-04, 5.76723542e-04, 5.71961464e-05,
          1.16038653e-04, 7.27819977e-04, 3.44279193e-04, 3.16802674e-04,
          4.91271901e-04, -3.11431009e-04, -5.31104102e-04,
          1.28078170e-03, 1.14594144e-03, 1.05868804e-03, 1.33785466e-03,
          6.34963682e-04, 6.11314026e-04, 3.94054310e-04,
          -1.04842859e-03, -5.70924371e-04, 8.57330160e-04,
          8.65332608e-04, 8.49395234e-04, 8.34199484e-04, 2.29572281e-04,
          -7.73175198e-05, -5.64725371e-04, -1.44435442e-03,
          -9.56147385e-04, 9.77099524e-04, 9.88512184e-04,
          8.81141576e-04, 9.90936765e-04, 7.33866240e-04, 5.81874687e-04,
          -8.09010526e-05, -1.43720279e-03, -3.14381236e-04,
          1.08815660e-03, 9.95842041e-04, 9.23830259e-04, 1.15322485e-03,
          5.43930975e-04, 5.44965733e-04, 4.65003890e-04,
          -1.26245525e-03, -7.43207871e-04, 1.19844906e-03,
          1.12230121e-03, 1.02731283e-03, 1.21943920e-03, 9.49402049e-04,
          8.77545506e-04, 5.98289538e-04, -1.35149993e-03,
          -8.96036683e-04, 9.28986759e-04, 9.61351267e-04,
          8.23389331e-04, 8.84680951e-04, 6.02694694e-04, 4.98297915e-04,
          -4.01456491e-05, -1.58650789e-03, -1.17984449e-03,
          6.88206288e-04, 7.55105575e-04, 8.53675592e-04, 1.07974792e-03,
          8.99186882e-04, 9.53042996e-04, 6.77628152e-04,
          -1.41162856e-03, -5.39826520e-04, 1.16678339e-03,
          1.08657032e-03, 9.41040984e-04, 1.10038137e-03, 8.10066820e-04,
          7.79076014e-04, 5.67168056e-04, -1.47054298e-03,
          -7.82738032e-04, 8.87857983e-04, 9.43398220e-04,
          1.08203921e-03, 1.19715719e-03, 9.79741919e-04, 1.00159284e-03,
          8.87908507e-04, -1.21223484e-03, -1.11884438e-03,
          6.12671545e-04, 6.71749818e-04, 7.14225753e-04, 8.94829340e-04,
          7.31061038e-04, 7.86214834e-04, 5.28938079e-04,
          -1.50897109e-03, -1.30854116e-03, 8.14111496e-04,
          7.85987941e-04, 6.62719423e-04, 9.47410939e-04, 7.10043649e-04,
          9.53686656e-04, 8.22371338e-04, -1.36491505e-03,
          -7.89338490e-04, 7.50350184e-04, 8.07362143e-04,
          9.14302538e-04, 1.00684562e-03, 8.32761812e-04, 8.35369457e-04,
          7.03691912e-04, -1.31746463e-03, -2.12403553e-04,
          2.11214158e-03, 1.16091245e-03, 8.05215561e-04, 9.06315399e-04,
          6.40405517e-04, 8.41295347e-04, 7.05815328e-04,
          -1.08496682e-03, -1.56436116e-03, 5.27697906e-04,
          5.26375719e-04, 4.63941251e-04, 6.60462829e-04, 4.97308094e-04,
          6.41149876e-04, 5.57924795e-04, -1.61336723e-03,
          -1.35153520e-03, 7.17735267e-04, 7.43376964e-04,
          4.53006360e-04, 7.20238255e-04, 5.66051400e-04, 7.86648889e-04,
          2.70797464e-04, -1.46616623e-03, -8.64925503e-04,
          1.28647278e-03, 7.58992159e-04, 5.78368665e-04, 6.48526184e-04,
          4.58183960e-04, 5.62683214e-04, 4.67711739e-04,
          -1.26298075e-03, 8.56061990e-04, 2.85936543e-03,
          1.44923152e-03, 4.50783758e-04, 4.28083353e-04, 2.77300685e-04,
          2.97693245e-04, -2.99946987e-05, -1.29245664e-03,
          -1.67474546e-03, 4.26825893e-04, 4.42558114e-04,
          2.80464126e-04, 4.30780579e-04, 3.40010796e-04, 4.58453607e-04,
          9.19945669e-05, -1.74238509e-03, -1.34696881e-03,
          5.58806874e-04, 6.06411486e-04, 3.15317011e-04, 5.57576946e-04,
          3.95594601e-04, 3.94967530e-04, -7.53440190e-06,
          -1.53493078e-03, -6.86451531e-05, 2.22325488e-03,
          8.24587187e-04, 2.66358780e-04, 2.36946915e-04, 1.60611991e-04,
          1.30717133e-04, -1.21954166e-04, -1.59846689e-03,
          1.06708065e-03, 2.59742932e-03, 1.43218355e-03, 1.98898168e-04,
          2.25950338e-04, 7.00142773e-05, -1.48658495e-04,
          -4.94260981e-04, -1.57374039e-03, -1.77197414e-03,
          2.64085917e-04, 3.43667343e-04, 1.84483797e-04, 3.15241021e-04,
          2.31236816e-04, 2.11235907e-04, -1.89108876e-04,
          -1.87856378e-03, -1.29038491e-03, 6.48985850e-04,
          3.89580120e-04, 2.25229596e-04, 3.04998015e-04, 2.11558363e-04,
          2.19240261e-04, 2.55648803e-04, -1.67204207e-03,
          4.06245206e-04, 2.67454190e-03, 7.72370026e-04, 8.71250886e-05,
          8.56480547e-05, 5.65930077e-06, -2.04896758e-04,
          -5.37652813e-04, -1.78636319e-03, 7.85847777e-04,
          2.51015392e-03, 5.80304244e-04, -1.01138139e-05,
          7.59346804e-05, -1.76078847e-05, -1.63629345e-04,
          -2.35954270e-04, -1.21764618e-03, -1.69443584e-03,
          3.06786940e-04, 2.28489400e-04, 1.28560481e-04, 1.82258547e-04,
          1.27465290e-04, 1.29160355e-04, 1.06708860e-04,
          -1.90289877e-03, -1.03843887e-03, 1.05692924e-03,
          2.75679136e-04, 1.62913522e-04, 1.53189671e-04, 1.15014132e-04,
          1.18448443e-04, 1.94390246e-04, -1.81511638e-03,
          5.56652143e-04, 2.46985559e-03, 3.31692165e-04,
          -3.77416109e-05, 3.83293227e-05, -2.70793189e-05,
          -1.54325026e-04, -2.48422788e-04, -1.30779273e-03,
          6.75643736e-04, 2.53909174e-03, 1.36183779e-04, 8.35549599e-06,
          6.06756885e-06, -5.45985358e-06, -6.90225861e-05,
          -1.37899013e-04, -1.46285479e-03, -1.48298161e-03,
          5.93869656e-04, 1.71628039e-04, 1.03131439e-04, 9.95589580e-05,
          7.70303159e-05, 8.15778476e-05, 1.25387989e-04,
          -1.95767428e-03, -7.27721083e-04, 1.83879759e-03,
          2.79952685e-04, 8.69728610e-05, 7.09260275e-05, 5.90799646e-05,
          5.38865061e-05, 1.85580666e-05, -1.98487053e-03,
          5.60079236e-04, 2.29407148e-03, 6.06362773e-05,
          -5.14964677e-06, 8.75307194e-07, -1.22283745e-05,
          -6.84192491e-05, -1.39455646e-04, -1.47988938e-03,
          5.60079236e-04, 2.47518602e-03, 1.37064897e-04,
          -1.17855725e-05, -1.02254353e-05, -1.67703747e-05,
          -4.14998285e-05, -1.66416357e-04, -1.84889324e-03,
          -1.28699199e-03, 1.05779071e-03, 1.67877573e-04,
          5.78007166e-05, 4.47857383e-05, 4.00840327e-05, 3.50392002e-05,
          2.51159327e-06, -2.07127514e-03, -8.01264832e-04,
          2.55071209e-03, 4.01053752e-04, 4.77810136e-05, 2.65182643e-05,
          1.86401721e-05, 1.89786551e-05, -1.27029794e-04,
          -2.13440112e-03, 3.69174959e-04, 2.31594266e-03,
          5.94672383e-05, -1.12488233e-05, -9.61035767e-06,
          -1.37092129e-05, -3.88535045e-05, -1.49754575e-04,
          -1.77552749e-03, 4.45210055e-04, 2.44585820e-03,
          2.33165454e-04, -7.86737564e-06, -1.13536307e-05,
          -2.68489730e-05, -4.59368785e-05, -2.37246568e-04,
          -2.19013821e-03, -1.20639941e-03, 2.19177618e-03,
          2.76854436e-04, 3.57228673e-05, 1.95075991e-05, 1.48093050e-05,
          1.34865604e-05, -1.10085406e-04, -2.17423681e-03,
          -1.94174412e-04, 2.39475723e-03, 3.18209321e-04,
          1.84780820e-05, 5.41286545e-06, 1.72940031e-06,
          -6.07491927e-07, -1.37054012e-04, -2.14364869e-03,
          2.75009254e-04, 2.28810217e-03, 1.50259162e-04,
          -8.37157131e-06, -9.72991529e-06, -2.60015368e-05,
          -4.21782788e-05, -2.02079988e-04, -2.14693928e-03,
          9.16577410e-05, 2.29882170e-03, 2.13623454e-04,
          -9.52273149e-06, -2.52020091e-05, 5.19902915e-06,
          -4.20337055e-05, -2.79429543e-04, -2.17058300e-03,
          -5.50710305e-04, 2.26399140e-03, 2.88457406e-04,
          1.73912831e-05, 5.13575878e-06, 2.02776391e-06, 8.85775542e-09,
          -1.13303955e-04, -2.19677272e-03, 9.18709993e-05,
          2.26095854e-03, 1.01884340e-04, 6.50633774e-06,
          -2.66424337e-07, -4.63412562e-06, -2.48251399e-05,
          -4.54345194e-04, -2.00359151e-03, 9.84610160e-05,
          2.18139915e-03, 1.88698163e-04, -7.28775558e-06,
          -2.22190429e-05, -1.91097738e-09, -3.77714969e-05,
          -2.39541958e-04, -2.22244253e-03, 3.19695624e-04,
          2.14388012e-03, 1.15685158e-04, -4.18547097e-06,
          5.26112262e-06, 3.96831601e-05, -8.57354680e-05,
          -5.70256263e-04, -1.98940863e-03, 8.69837095e-05,
          2.12224829e-03, 1.04818406e-04, 5.97800545e-06, 9.83440145e-07,
          -3.57671729e-06, -1.81617670e-05, -3.38444166e-04,
          -1.99049246e-03, 6.01410284e-04, 1.87134487e-03,
          4.21281366e-05, 8.97961399e-06, 9.00286977e-06, 2.31366403e-06,
          -9.51036563e-05, -1.45156833e-03, -4.85694007e-04,
          3.97345051e-04, 2.02217186e-03, 1.15694682e-04,
          -5.25452242e-06, 1.77687286e-06, 3.96391224e-05,
          -6.30980940e-05, -4.46369901e-04, -1.92920782e-03,
          8.86193186e-04, 1.50822685e-03, 1.63854114e-04, 1.40841512e-04,
          1.40663062e-04, 7.15364877e-05, -1.91027051e-04,
          -1.77333469e-03, -1.08058995e-03, 5.78432984e-04,
          1.84100692e-03, 4.20599899e-05, 7.89282785e-06, 8.89884086e-06,
          2.31360696e-06, -6.75919509e-05, -1.28952693e-03,
          -7.38505973e-04, 1.54207926e-03, 4.73997119e-04,
          9.17382204e-06, 1.36679200e-05, 4.86014033e-05, 8.21041322e-05,
          -3.39162652e-05, -5.04889525e-04, -9.74457580e-05,
          8.41089641e-04, 1.55097735e-03, 1.50652151e-04, 1.21463927e-04,
          1.29171822e-04, 7.17790972e-05, -1.36884657e-04,
          -1.45596045e-03, -1.17479486e-03, 9.56173637e-04,
          7.82422780e-04, 5.33403829e-04, 4.59465693e-04, 4.11520159e-04,
          1.38031537e-04, -3.88773333e-04, -8.87138885e-04,
          3.07370356e-05, 1.35717925e-03, 4.76103800e-04, 9.74748400e-06,
          1.06366115e-05, 3.12305456e-05, 4.72826468e-05,
          -7.47016966e-05, -7.94315129e-04, -2.46123178e-04,
          2.48636003e-04, 4.86937142e-06, -1.42243707e-05,
          2.81241682e-05, 2.98915984e-04, 7.24557322e-04, 6.72332244e-04,
          -3.48195550e-04, 5.15068765e-04, 8.27305077e-04,
          6.80315832e-04, 4.08798456e-04, 3.44233704e-04, 2.83384667e-04,
          9.25486602e-05, -3.36212281e-04, -1.14375132e-03,
          -1.69130682e-04, 1.96543828e-04, 3.82359198e-04,
          8.27950134e-04, 1.30794779e-03, 1.22046773e-03, 2.34628606e-04,
          -6.33896678e-04, -7.37248105e-04, -3.41618143e-04,
          2.97394115e-04, 7.05702996e-06, -1.44543783e-05,
          2.44761868e-05, 2.50810321e-04, 6.05696812e-04, 5.50360361e-04,
          -3.39916092e-04, 2.81410379e-04, -5.06267497e-05,
          -3.72063987e-05, -3.00248666e-05, 3.34669312e-05,
          5.01070870e-04, 1.00972014e-03, 5.53102524e-04,
          -2.06332392e-04, -1.34167116e-04, 2.27123863e-04,
          4.01850120e-04, 7.90844148e-04, 1.16088148e-03, 1.12058932e-03,
          1.36420247e-04, -6.98679418e-04, -6.63341372e-04,
          -3.53640411e-04, -7.76828983e-06, 7.12708352e-05,
          5.15445892e-04, 1.37247355e-03, 6.47105044e-04,
          -3.40957806e-04, -1.00289902e-03, -1.30438269e-03,
          -5.05535572e-04, 8.22607137e-04, -3.12267395e-04,
          -1.01392402e-03, -1.07073842e-03, 1.54255671e-04,
          6.22774067e-04, 9.10679402e-04, 8.63792317e-04, 1.09849637e-03,
          6.06431509e-04, -9.33615607e-04, -1.14879000e-03,
          -4.11217974e-04, 6.46056083e-04, 6.68581109e-04,
          1.11988850e-03, 1.04231411e-03, 1.01687841e-03, 1.16222119e-03,
          9.04146931e-04, 1.80351926e-04, -1.16076518e-03,
          -8.11846403e-04, 4.83677664e-04, 8.59923661e-04,
          8.48948723e-04, 9.98954521e-04, 1.18066312e-03, 4.28355823e-04,
          -2.41478250e-04, -8.34505423e-04, -7.64282187e-04,
          3.24406254e-04, 8.57939827e-04, 1.03683339e-03, 1.03999756e-03,
          5.40285546e-04, -1.13146682e-03, -1.33239466e-03,
          -7.07112078e-04, 4.16826369e-04, 5.75209560e-04,
          9.81902587e-04, 9.26417182e-04, 9.25976841e-04,
          -5.10842074e-04, -1.15451985e-03, -7.16528855e-04,
          3.84708692e-04, 9.71879344e-04, 7.06359162e-04, 9.68946668e-04,
          8.83994973e-04, 7.46154750e-04, 1.04409235e-03, 3.26854642e-04,
          -4.24417638e-04, -1.09282113e-03, -9.66241467e-04,
          2.18447662e-04, 7.58539827e-04, 9.11832845e-04, 9.22195381e-04,
          9.67054279e-04, 6.69501387e-05, 7.98773908e-05, 2.03824500e-04,
          5.40320645e-04, 3.78687284e-04, 7.16341019e-04, 1.00047188e-03,
          8.72117991e-04, -6.83881401e-04, -1.33710727e-03,
          -1.02233689e-03, 1.60359006e-04, 8.18375847e-04,
          6.17641606e-04, 8.75911326e-04, 8.20173242e-04, 6.87574851e-04,
          -1.27136195e-03, -1.14509417e-03, 6.74785173e-04,
          6.67569111e-04, 1.00214803e-03, 6.82093028e-04, 7.87724799e-04,
          8.07986071e-04, -2.01199888e-04, 8.32390215e-04,
          -1.77376831e-04, -2.25934506e-04, -1.32480694e-04,
          9.40458558e-05, 2.59856781e-04, 6.24249107e-04, 9.24270716e-04,
          7.82468240e-04, -5.07331279e-04, -8.30307719e-04,
          2.24477844e-04, 5.56443236e-04, 1.23030925e-03, 6.24828390e-04,
          6.70974492e-04, 8.52574361e-04, 6.72805356e-04,
          -1.48356438e-03, -1.13683240e-03, 5.10269136e-04,
          5.90691459e-04, 9.34116601e-04, 6.35281729e-04, 7.37609691e-04,
          7.30693864e-04, -2.69355241e-05, -1.47796702e-03,
          3.74353549e-04, 1.28439674e-03, 9.45140375e-04, 1.01125112e-03,
          6.13642216e-04, 7.91892002e-04, 9.07447306e-04,
          -9.87519394e-04, -4.70943225e-04, -6.64412975e-04,
          2.04008145e-04, 4.82049276e-04, 1.08704378e-03, 5.61012479e-04,
          6.14901073e-04, 7.87018507e-04, 6.44459506e-04,
          -1.29463791e-03, -8.15704465e-04, 9.13231226e-04,
          7.71356921e-04, 1.16753660e-03, 8.48426076e-04, 9.73692047e-04,
          1.02411909e-03, -1.50246691e-04, -1.63914706e-03,
          3.74812284e-04, 1.12286583e-03, 8.14815750e-04, 9.00703832e-04,
          5.56628976e-04, 6.91381632e-04, 7.81639712e-04,
          -6.91322377e-04, -1.56631216e-03, 6.82163285e-04,
          1.15015777e-03, 1.04733312e-03, 1.20135548e-03, 6.32185140e-04,
          8.52398749e-04, 9.61144222e-04, -9.98280244e-04,
          -1.46319554e-03, -5.72200806e-04, 8.28862074e-04,
          6.81158795e-04, 1.03279215e-03, 7.24375772e-04, 8.06122844e-04,
          8.75501486e-04, 1.10265864e-04, -1.50587060e-03,
          2.34895211e-04, 9.41185630e-04, 8.29601020e-04, 1.17867684e-03,
          9.32323630e-04, 1.27293123e-03, 1.18204264e-03,
          -8.64692789e-04, -1.52475073e-03, 6.40684448e-04,
          1.05298683e-03, 9.37193807e-04, 1.04919716e-03, 5.55270351e-04,
          7.24510057e-04, 8.36374355e-04, -7.77221750e-04,
          -1.29670254e-03, 7.05428713e-04, 8.53015750e-04,
          8.67357070e-04, 1.23826496e-03, 7.45350204e-04, 1.05075398e-03,
          1.00852270e-03, -1.27800368e-03, -1.50344032e-03,
          2.24185613e-04, 8.62581830e-04, 7.40843243e-04, 1.05052383e-03,
          8.20280402e-04, 1.09486724e-03, 1.03401148e-03,
          -6.49588241e-04, -1.30849355e-03, 7.19096337e-04,
          9.93996393e-04, 1.05016143e-03, 1.20278075e-03, 9.08759830e-04,
          1.20878383e-03, 1.02276879e-03, -1.06418075e-03,
          -1.30138127e-03, 6.30364113e-04, 7.61354982e-04,
          7.85075128e-04, 1.11471070e-03, 6.27023866e-04, 8.87669623e-04,
          8.90293159e-04, -1.15188770e-03, -9.73845017e-04,
          8.24683695e-04, 9.64582025e-04, 8.08182289e-04, 1.02699467e-03,
          9.11079580e-04, 1.06693932e-03, 8.83453293e-04,
          -1.18214230e-03, -1.36662321e-03, 6.22998574e-04,
          8.51644611e-04, 9.08730726e-04, 1.06152787e-03, 7.85178388e-04,
          1.06938148e-03, 9.27241985e-04, -1.13979192e-03,
          -1.08463399e-03, 8.80164967e-04, 1.24171143e-03,
          1.19957048e-03, 1.24161155e-03, 1.01144006e-03, 1.13992800e-03,
          8.01436196e-04, -1.22793845e-03, -9.40754137e-04,
          7.09597778e-04, 8.40445631e-04, 7.17575545e-04, 8.94493889e-04,
          7.80785049e-04, 9.31888877e-04, 7.83106487e-04,
          -1.30507280e-03, -1.11512723e-03, 8.52171681e-04,
          1.06421486e-03, 8.73249315e-04, 1.17228564e-03, 9.39611869e-04,
          8.88695358e-04, 7.56092370e-04, -1.10342889e-03,
          -1.24893640e-03, 7.53068889e-04, 1.05357077e-03,
          1.03633374e-03, 1.08395109e-03, 8.90341180e-04, 1.00463303e-03,
          7.02059246e-04, -1.34736486e-03, -1.12598552e-03,
          7.81997049e-04, 1.17081509e-03, 1.22368522e-03, 1.40049483e-03,
          9.05613706e-04, 9.31604533e-04, 8.82119581e-04,
          -1.22991018e-03, -1.17757078e-03, 7.33639288e-04,
          9.42843792e-04, 7.80713919e-04, 1.04315975e-03, 8.28766322e-04,
          7.87024153e-04, 6.77313714e-04, -1.18184462e-03,
          -1.03942829e-03, 9.67377564e-04, 9.12386517e-04,
          8.38567212e-04, 1.18902931e-03, 8.92701268e-04, 7.89132959e-04,
          4.30621119e-04, -1.07514253e-03, -1.22276659e-03,
          6.89926383e-04, 1.03789859e-03, 1.08444935e-03, 1.24299200e-03,
          8.18094064e-04, 8.34925740e-04, 7.81594135e-04,
          -1.33513135e-03, -1.17116375e-03, 7.49822648e-04,
          8.23028560e-04, 1.08362711e-03, 1.36591948e-03, 9.58590244e-04,
          9.79436794e-04, 9.87643958e-04, -1.08024117e-03,
          -1.06677762e-03, 8.07496486e-04, 8.05334072e-04,
          7.38441769e-04, 1.04174600e-03, 8.02048482e-04, 6.97142270e-04,
          4.00726101e-04, -1.11321337e-03, 5.07160330e-05,
          9.49342328e-04, 5.52332611e-04, 5.24005387e-04, 9.78723750e-04,
          5.41920250e-04, 2.78332998e-04, -3.76374053e-04,
          -8.97282327e-04, -1.23748172e-03, 6.41471415e-04,
          7.45835423e-04, 9.61713726e-04, 1.21124566e-03, 8.28906312e-04,
          8.34087492e-04, 8.40490800e-04, -1.14800071e-03,
          -8.00316106e-04, 2.08147438e-04, 2.34897176e-04,
          3.66123306e-04, 8.45263537e-04, 8.23500741e-04, 9.18725797e-04,
          7.91142404e-04, -8.05600605e-04, -1.83927750e-05,
          8.46123614e-04, 5.00435766e-04, 4.89821599e-04, 8.71299533e-04,
          5.09733160e-04, 2.83958449e-04, -2.95370846e-04,
          -8.40372930e-04, -8.98901053e-05, 6.01152889e-04,
          2.63482652e-04, 6.32250449e-05, 7.33034976e-04, 4.90711827e-04,
          4.36791088e-05, -4.29826090e-04, -6.14343444e-04,
          -7.77237816e-04, 2.47713702e-04, 2.47133168e-04,
          3.74484807e-04, 7.66846351e-04, 7.46021280e-04, 8.40800407e-04,
          7.08987005e-04, -7.85561162e-04, -3.84080806e-04,
          -1.43968340e-04, -9.36459764e-05, -2.04802447e-04,
          7.02270016e-04, 6.18500169e-04, 4.12122114e-04, 1.63185628e-04,
          -5.81188360e-05, -1.57441871e-04, 4.58404480e-04,
          1.67965860e-04, 8.70116219e-06, 5.12781437e-04, 3.07317619e-04,
          -9.91201523e-05, -4.67295788e-04, -7.11524277e-04,
          -2.76489940e-04, 4.18782554e-04, -4.66002602e-05,
          -1.41181750e-04, 6.07349211e-04, 4.13740665e-04,
          2.66570336e-04, 3.07563954e-04, -1.62430122e-04,
          -5.74335747e-04, -3.58367746e-04, -2.35972169e-04,
          -3.38552229e-04, 4.59661853e-04, 4.37228417e-04,
          3.39526596e-04, 1.63130011e-04, -2.09229504e-04,
          3.53953423e-04, 1.23374071e-03, 7.06910971e-04, 3.41391395e-04,
          8.59431690e-04, 3.03901819e-04, -2.82700814e-04,
          -7.80964561e-04, -4.01455705e-04, -5.20424859e-04,
          1.92886626e-04, -3.64041422e-04, -3.79814825e-04,
          3.71473579e-04, 2.30369420e-04, 9.31378163e-05, 1.08292013e-04,
          -2.90182536e-04, -3.67303175e-04, 4.81998519e-04,
          7.55286965e-05, 1.47270242e-04, 6.93715527e-04, 3.04111891e-04,
          3.06352274e-04, 3.64714739e-04, -4.99108399e-04,
          -3.81611499e-05, 6.34614029e-04, 3.08467395e-04,
          6.89636800e-05, 5.95380785e-04, 1.22389771e-04,
          -5.13668230e-04, -1.01874350e-03, -7.07445724e-04,
          3.62116843e-04, 1.23336923e-03, 7.17711635e-04, 5.56274375e-04,
          7.36545888e-04, 2.20253161e-04, 6.10893403e-05, 1.49568796e-05,
          -1.52574794e-04, -4.25673294e-04, 3.35000019e-04,
          -1.11242567e-04, -5.34862047e-05, 5.03691845e-04,
          2.13339590e-04, 2.16958317e-04, 2.68888893e-04,
          -5.50966302e-04, -7.30041007e-04, 8.82793509e-04,
          8.87950882e-04, 8.16708489e-04, 9.33445583e-04, 4.51497472e-04,
          4.58630675e-04, 7.47702215e-05, -1.41091226e-03,
          7.34808345e-05, 1.02527684e-03, 5.95670776e-04, 4.27700550e-04,
          5.60701708e-04, 1.04860497e-04, -1.17231051e-04,
          -4.95651562e-04, -7.12422363e-04, -6.35826669e-04,
          1.14220730e-03, 5.96355356e-04, 5.59046690e-04, 8.38751905e-04,
          5.04982832e-04, 8.78193008e-04, 1.07939518e-03,
          -5.46073948e-04, -6.72494061e-04, 7.39994633e-04,
          7.48044229e-04, 7.03199767e-04, 7.97635003e-04, 3.67068773e-04,
          3.58391553e-04, 8.18828630e-05, -1.54528685e-03,
          -1.10975758e-03, 8.58849904e-04, 8.47536663e-04,
          7.63605465e-04, 8.75040831e-04, 6.89684704e-04, 6.33919029e-04,
          2.83873844e-04, -1.66728988e-03, -6.09293813e-04,
          9.76078445e-04, 5.07839606e-04, 4.83312848e-04, 7.17782939e-04,
          4.23898629e-04, 7.42709497e-04, 9.47611465e-04,
          -7.48658727e-04, -3.91404465e-04, 1.69830187e-03,
          9.06045432e-04, 6.74998912e-04, 7.31321808e-04, 5.16652537e-04,
          7.67518242e-04, 7.19880103e-04, -1.00405107e-03,
          -1.09623175e-03, 6.94610993e-04, 7.05358514e-04,
          6.15445431e-04, 6.69542118e-04, 5.00122958e-04, 4.48619423e-04,
          1.54218462e-04, -1.72630011e-03, -1.34870585e-03,
          4.19453718e-04, 5.30764344e-04, 6.60289836e-04, 7.68582278e-04,
          6.20196224e-04, 5.99702529e-04, 4.41711571e-04,
          -1.57907617e-03, -6.72764494e-04, 1.21929951e-03,
          6.50644070e-04, 5.09501493e-04, 5.83012763e-04, 4.06850362e-04,
          5.96115133e-04, 5.75055019e-04, -1.22920610e-03,
          2.98870844e-04, 2.62710103e-03, 1.50785397e-03, 7.04199600e-04,
          4.30216431e-04, 3.13315075e-04, 4.33732581e-04, 2.18664005e-04,
          -1.07393414e-03, -1.49039703e-03, 2.12549494e-04,
          3.21277621e-04, 4.11236513e-04, 4.71520209e-04, 3.85337131e-04,
          3.61231301e-04, 2.02951793e-04, -1.80469896e-03,
          -1.34533318e-03, 7.35535868e-04, 4.75492707e-04,
          3.56182893e-04, 4.32087429e-04, 3.09889176e-04, 3.62931693e-04,
          2.45686650e-04, -1.68665557e-03, -5.87334216e-04,
          2.10813782e-03, 8.58823245e-04, 4.35348542e-04, 2.71843659e-04,
          1.98651935e-04, 2.72806006e-04, 4.27441737e-05,
          -1.47050084e-03, 8.48651864e-04, 3.04122898e-03,
          1.49207201e-03, 2.85378570e-04, 1.99520873e-04, 1.41215161e-04,
          8.85599438e-05, -2.63220445e-05, -1.57606392e-03,
          -1.70597259e-03, 2.96586513e-04, 2.28687641e-04,
          1.96913257e-04, 2.39589353e-04, 1.70688581e-04, 1.72228873e-04,
          8.75840706e-05, -1.86263211e-03, -1.06021005e-03,
          1.13633950e-03, 4.67428617e-04, 1.36956281e-04, 9.83082064e-05,
          7.08982698e-05, -4.49527033e-05, -4.00391640e-04,
          -1.84339494e-03, -3.51482420e-04, 2.95726187e-03,
          7.88969686e-04, 1.65937876e-04, 1.08688109e-04, 7.06544088e-05,
          2.07310095e-05, -1.02931263e-04, -1.82687759e-03,
          9.14706092e-04, 2.66551576e-03, 6.71409885e-04, 4.75898332e-06,
          -2.80772565e-05, 1.19459137e-05, -9.11509196e-05,
          -1.59158095e-04, -1.90232520e-03, -1.55368925e-03,
          5.11176419e-04, 2.16923858e-04, 5.83108049e-05, 1.42453946e-05,
          1.98817925e-05, -9.96649833e-05, -3.84599727e-04,
          -1.90446642e-03, -8.85938061e-04, 1.56727177e-03,
          3.32806609e-04, -1.83355696e-05, 1.36721127e-07,
          -4.66753336e-05, -2.93875404e-04, -7.33409543e-04,
          -1.92660687e-03, 5.45913645e-04, 2.43874011e-03,
          3.40579980e-04, -1.72925229e-05, -4.18614654e-05,
          -5.41038435e-06, -9.78161406e-05, -1.58764931e-04,
          -1.97227043e-03, 6.56743010e-04, 2.10974249e-03,
          5.55278966e-04, -1.05434294e-04, -9.14400298e-05,
          -7.47289741e-05, -2.46929732e-04, -5.96961996e-04,
          -1.96892815e-03, -1.19074387e-03, 8.20055779e-04,
          1.72745960e-04, -4.19831340e-05, -4.57177048e-05,
          -6.20069259e-05, -2.93339428e-04, -7.08763604e-04,
          -2.01481790e-03, -2.16576649e-04, 1.76899123e-03,
          6.61290032e-05, -8.49745556e-05, 9.26570010e-06,
          -5.31809055e-05, -1.98374575e-04, -3.24457535e-04,
          -1.75747648e-03, 2.16875531e-04, 1.96085311e-03,
          2.94397381e-04, -1.02676517e-04, -9.72289054e-05,
          -7.11126268e-05, -2.20838992e-04, -4.99038433e-04,
          -1.99273368e-03, 5.41027810e-04, 2.13964749e-03,
          4.28339117e-04, -1.01844598e-04, -2.84013749e-05,
          -9.30506139e-05, -2.70018529e-04, -7.76888919e-04,
          -1.92204874e-03, -7.91202299e-04, 1.16752437e-03,
          2.89144918e-05, -8.40341017e-05, -1.64022183e-08,
          -4.97297988e-05, -1.82679505e-04, -3.08903836e-04,
          -1.70013460e-03, 2.05693621e-04, 1.72687811e-03,
          -1.64893095e-06, -1.43171010e-05, -7.27526049e-06,
          -1.69177511e-05, -7.91228158e-05, -1.79884213e-04,
          -1.87797961e-03, 2.56591506e-04, 2.02228990e-03,
          3.02666740e-04, -9.39601377e-05, -2.87778239e-05,
          -8.00573762e-05, -2.36492357e-04, -6.77437696e-04,
          -2.02155858e-03, 2.05693621e-04, 2.03731772e-03,
          8.12470753e-05, -2.58425862e-05, -1.87835594e-05,
          -3.56492892e-05, -1.06599138e-04, -3.82238650e-04,
          -1.88635127e-03, 9.12045016e-06, 1.37712213e-03,
          -1.10825667e-05, -1.64097291e-05, -5.76834373e-06,
          -1.69197774e-05, -7.04460763e-05, -1.56361159e-04,
          -1.84848183e-03, 7.13123954e-05, 1.93052785e-03,
          4.06525942e-05, -1.45833710e-05, -1.15444891e-05,
          -1.82615913e-05, -4.06304862e-05, -1.76726200e-04,
          -2.00320361e-03, 7.13123954e-05, 1.86240429e-03,
          6.95746494e-05, -2.57208230e-05, -1.62246888e-05,
          -3.36112935e-05, -9.61990227e-05, -3.34626879e-04,
          -1.92879408e-03, 7.24563433e-05, 2.05347990e-03,
          1.96351666e-05, -1.10941328e-05, -6.04688557e-06,
          -1.66677364e-05, -3.37819110e-05, -2.14340340e-04,
          -2.01860163e-03, -2.18641617e-05, 1.93209632e-03,
          2.55177165e-05, -1.17138552e-05, -9.58664168e-06,
          -1.40129841e-05, -3.68379078e-05, -1.54455614e-04,
          -1.92912202e-03, -1.38751464e-04, 2.07994180e-03,
          1.56938826e-04, -7.94984044e-06, -1.12217958e-05,
          -2.60235647e-05, -4.44304096e-05, -2.46493059e-04,
          -2.18116376e-03, 3.89777633e-05, 2.04507704e-03,
          1.30586423e-05, -9.72746966e-06, -5.85805037e-06,
          -1.36262706e-05, -3.20104773e-05, -1.92226478e-04,
          -2.04540556e-03, -8.41751025e-05, 2.10876949e-03,
          9.84565995e-05, 6.03416140e-07, 9.43588748e-06,
          -2.03530944e-05, -3.04132391e-05, -2.77305691e-04,
          -2.10483326e-03, -8.20201167e-05, 2.21508369e-03,
          1.47055151e-04, -7.85212342e-06, -9.45516786e-06,
          -2.56961539e-05, -4.16715920e-05, -2.16021261e-04,
          -2.17817584e-03, -1.05458530e-04, 2.23689177e-03,
          2.02817944e-04, -1.23089658e-05, -2.99361054e-05,
          2.37108281e-07, -4.41385710e-05, -2.99627922e-04,
          -2.14645686e-03, 7.20381649e-05, 2.24865088e-03,
          9.27009023e-05, 2.93859955e-07, 9.70475230e-06,
          -2.08892961e-05, -2.79916931e-05, -2.33617553e-04,
          -2.10752268e-03, -6.38255791e-04, 2.12391187e-03,
          2.56828062e-04, 1.08848129e-04, 4.89702215e-05, 3.90515561e-05,
          -1.92268635e-05, -3.99476994e-04, -2.07348634e-03,
          2.35496145e-06, 2.26662494e-03, 2.35904721e-04,
          -9.23254629e-06, -2.53360486e-05, -1.62283652e-06,
          -3.96093819e-05, -2.65137496e-04, -2.14947271e-03,
          2.06473633e-04, 2.22800649e-03, 1.29677836e-04,
          -7.53274571e-06, 2.08167353e-06, 3.92991642e-05,
          -9.27885703e-05, -6.76228665e-04, -1.89395179e-03,
          -3.93000926e-04, 2.17503519e-03, 2.75682803e-04,
          1.07732965e-04, 5.18688976e-05, 3.43543652e-05,
          -1.23775444e-05, -3.58360558e-04, -2.06671096e-03,
          -3.76275333e-04, 1.80163851e-03, 5.15544845e-04,
          2.40508161e-04, 9.70244582e-05, 8.68451680e-05,
          -3.24753288e-04, -8.18139000e-04, -1.77443249e-03,
          5.22761802e-05, 2.00230349e-03, 1.37115756e-04,
          -9.96526160e-06, -4.56467160e-06, 4.07092666e-05,
          -7.63939461e-05, -5.74018690e-04, -1.90380728e-03,
          6.81201869e-04, 1.80858735e-03, 1.71054024e-04, 1.44867008e-04,
          1.52440960e-04, 7.80871633e-05, -2.42005786e-04,
          -1.80037308e-03, -7.63364660e-04, -3.80863348e-04,
          1.71137648e-03, 5.04112046e-04, 2.36055712e-04, 1.00738805e-04,
          9.86943051e-05, -2.59641471e-04, -7.19500124e-04,
          -1.79497630e-03, 7.73783890e-04, 1.74242363e-03,
          9.19040060e-04, 4.11333371e-04, 1.26295490e-04,
          -8.24468661e-05, -7.54995446e-04, -1.27256266e-03,
          -9.65153682e-04, 4.27519495e-04, 1.68711168e-03,
          1.36381626e-04, 1.10288362e-04, 1.17215423e-04, 6.41542792e-05,
          -1.88748119e-04, -1.83746754e-03, -1.20471593e-03,
          1.06646598e-03, 7.63257267e-04, 4.76371031e-04, 4.29350766e-04,
          3.97217489e-04, 1.38740637e-04, -5.30853460e-04,
          -7.36489426e-04, -2.34324936e-04, 6.30346010e-04,
          1.52239716e-03, 7.71372870e-04, 3.34833021e-04, 1.15774790e-04,
          -5.21108377e-05, -6.42678060e-04, -1.10232073e-03,
          -9.95252049e-04, 1.32411998e-03, 1.84474350e-03,
          1.63107645e-03, 6.03653200e-04, -2.47442978e-04,
          -4.58951457e-04, -9.75818606e-04, -1.79758633e-03,
          -3.17416241e-04, 8.48193478e-04, 5.88107039e-04,
          3.16180172e-04, 2.77197221e-04, 2.38952794e-04, 8.96875645e-05,
          -3.30468814e-04, -1.08698825e-03, -1.46431950e-04,
          1.87665806e-04, 2.71572237e-04, 6.19744940e-04, 1.09165930e-03,
          1.19654613e-03, 3.17796104e-04, -5.80620137e-04,
          -6.51843729e-04, -2.88912997e-04, 1.02671923e-03,
          1.69949350e-03, 1.20312651e-03, 4.21718607e-04,
          -9.10361487e-05, -2.62552436e-04, -6.31977571e-04,
          -1.26388052e-03, -2.07564342e-04, 5.84439142e-04,
          1.77749840e-03, 1.78862375e-03, 1.21765642e-03,
          -8.76405858e-04, -1.49606273e-03, -1.37001567e-03,
          -1.28981692e-03, -4.29047097e-04, 1.98957787e-04,
          2.63574882e-04, 5.42994123e-04, 8.86005699e-04, 1.08036376e-03,
          3.79885809e-04, -4.67696518e-04, -5.92502009e-04,
          -1.83890908e-04, -5.43414717e-06, 4.08869055e-05,
          3.48358502e-04, 1.13773858e-03, 1.06730836e-03, 3.02982262e-05,
          -8.06928321e-04, -9.78978467e-04, -3.79050558e-04,
          5.69018070e-04, 1.68336136e-03, 1.71825697e-03, 1.22457230e-03,
          -8.30947014e-04, -1.15173124e-03, -1.10383250e-03,
          -1.08946848e-03, -3.64444597e-04, 9.54924035e-05,
          8.73143843e-04, 1.70020422e-03, 1.15708169e-03,
          -5.50136494e-04, -1.54098135e-03, -1.04118674e-03,
          -3.24056105e-04, -8.28763878e-05, 1.00589520e-03,
          7.30893167e-04, 2.50701050e-05, -1.44680741e-03,
          -1.19655405e-03, 4.22189187e-04, 7.83516327e-04,
          7.57304661e-04, 8.67428491e-04, 1.00609928e-03, 1.88015125e-04,
          -4.29225795e-04, -1.04736665e-03, -1.11682748e-03,
          2.96114886e-04, 7.89165322e-04, 9.17628990e-04, 9.12639138e-04,
          1.24103494e-03, 1.12882024e-03, 1.03807775e-03,
          -4.03983606e-04, -1.13463751e-03, 2.83167319e-04,
          8.08409415e-04, 7.93488056e-04, 1.04690890e-03, 1.29001611e-03,
          1.30615896e-03, 1.13563566e-03, -3.67637171e-04,
          -1.01726537e-03, 1.72242566e-04, 6.97930984e-04,
          9.12268646e-04, 9.38884972e-04, 8.84289213e-04,
          -8.45159229e-05, -8.84364243e-04, -1.34151801e-03,
          -1.23816531e-03, 1.52319975e-04, 6.81663863e-04,
          8.08806741e-04, 8.08942656e-04, 7.25919730e-04,
          -3.65176558e-04, -2.25992466e-04, 3.78395816e-05,
          3.48452071e-04, 3.31990304e-04, 6.22693158e-04, 8.64529167e-04,
          7.47006736e-04, 1.15571078e-03, 1.16603670e-03, 1.00466190e-03,
          -8.15861567e-04, -1.13041396e-03, -9.98798932e-05,
          5.98893792e-04, 8.02133582e-04, 8.35104729e-04, 1.20562757e-03,
          9.00582119e-04, 2.24435862e-04, -6.63327752e-04,
          -6.82761776e-04, 3.40426806e-04, 6.60018588e-04,
          8.73514859e-04, 7.63268094e-04, 6.50165137e-04,
          -4.14967741e-04, -3.83991370e-04, -1.78967020e-04,
          4.19491225e-05, 2.50326062e-04, 5.53182384e-04, 7.92490318e-04,
          6.84309052e-04, -7.45458645e-04, -8.67264520e-04,
          2.81683897e-04, 5.25434152e-04, 1.02375261e-03, 5.64610120e-04,
          5.84081630e-04, 7.23946840e-04, 5.32241131e-04, 1.09215488e-03,
          8.70141084e-04, 2.92542391e-04, -6.93531299e-04,
          -7.82067538e-04, 2.16781598e-04, 5.64098649e-04,
          7.83198746e-04, 6.88230502e-04, -3.07783106e-04,
          -8.57429230e-04, -8.22903647e-04, -9.85697494e-04,
          1.53096655e-04, 6.58502628e-04, 9.27689543e-04, 9.32177878e-04,
          7.89604383e-04, -1.94817811e-04, -3.57048382e-04,
          4.24298632e-04, 5.34362625e-04, 9.77661693e-04, 5.24086936e-04,
          5.67095471e-04, 7.01437064e-04, 6.04268338e-04,
          -1.29449950e-03, -3.45144625e-04, 1.00321416e-03,
          7.47544691e-04, 1.04327523e-03, 7.50887499e-04, 8.59443157e-04,
          9.11671203e-04, 7.30035317e-05, 1.75503388e-04,
          -6.17966463e-04, -9.58462129e-04, -9.80234705e-04,
          4.17418312e-04, 6.13096752e-04, 8.52504221e-04, 8.78093240e-04,
          7.70252955e-04, -1.05328718e-03, -1.41231972e-03,
          -6.65532483e-04, -3.42522399e-04, 1.05096062e-03,
          1.00105035e-03, 1.10661413e-03, 1.14713493e-03, 3.60556936e-04,
          -1.43292081e-03, -9.79620818e-05, 9.41475213e-04,
          6.75057003e-04, 9.47025197e-04, 6.53961906e-04, 7.39114126e-04,
          8.11917300e-04, 3.40145663e-04, -1.50739797e-03,
          3.98117118e-04, 9.02493368e-04, 7.83942465e-04, 1.09832815e-03,
          8.34052917e-04, 1.14483887e-03, 1.10615895e-03,
          -4.21837583e-04, -1.26089144e-03, -1.43236399e-03,
          -3.70865280e-04, -1.54603506e-04, 9.81699093e-04,
          8.46180192e-04, 9.58624994e-04, 1.00727950e-03, 5.64482121e-04,
          -1.26695191e-03, -1.90975261e-04, 7.91133440e-04,
          7.61978969e-04, 1.20903784e-03, 1.00034056e-03, 1.34737091e-03,
          1.30010466e-03, -7.16292823e-04, -1.63915800e-03,
          3.54540767e-04, 8.14705272e-04, 6.87889406e-04, 9.56504315e-04,
          7.17048300e-04, 9.71357047e-04, 9.45118896e-04,
          -1.75985726e-04, -1.44691323e-03, 6.52398856e-04,
          8.84999637e-04, 9.09423397e-04, 1.09316944e-03, 7.99297180e-04,
          1.08270661e-03, 9.66942636e-04, -1.08774786e-03,
          -1.41358888e-03, -2.06754965e-04, 6.73258910e-04,
          6.25899411e-04, 1.05101464e-03, 8.64185102e-04, 1.13343063e-03,
          1.12423522e-03, -5.20743139e-04, -1.21636002e-03,
          1.08675647e-03, 1.05015398e-03, 1.26055826e-03, 1.08259253e-03,
          1.02169963e-03, 1.24296790e-03, 1.13059266e-03,
          -1.22580305e-03, -1.46682758e-03, 5.64482296e-04,
          7.51726795e-04, 7.88795936e-04, 9.55731666e-04, 6.82779530e-04,
          9.42535000e-04, 8.65894661e-04, -9.96492105e-04,
          -1.08626590e-03, 7.86163437e-04, 1.08092290e-03,
          1.03947346e-03, 1.10319548e-03, 9.01567400e-04, 1.02370861e-03,
          7.53060856e-04, -1.31233106e-03, -1.27164111e-03,
          9.21316328e-04, 8.93649820e-04, 1.04754942e-03, 9.17713449e-04,
          8.73773359e-04, 1.12530577e-03, 1.01540610e-03,
          -1.26656704e-03, -1.07482064e-03, 1.21736282e-03,
          1.37295353e-03, 1.30136288e-03, 1.13529246e-03, 9.63802449e-04,
          1.00345095e-03, 9.05077613e-04, -1.29487785e-03,
          -1.00335025e-03, 6.82058628e-04, 9.39190795e-04,
          9.11276496e-04, 9.76784504e-04, 8.02529335e-04, 9.10450937e-04,
          6.76552940e-04, -1.40223943e-03, -1.19888305e-03,
          7.47014128e-04, 1.04620715e-03, 1.10233075e-03, 1.26076723e-03,
          8.36164108e-04, 8.61299515e-04, 8.22455913e-04,
          -1.31363689e-03, -1.20327109e-03, 1.08829851e-03,
          1.17926905e-03, 1.17145071e-03, 9.88343847e-04, 8.76258418e-04,
          9.06236703e-04, 8.20539892e-04, -1.38607575e-03,
          -1.21911790e-03, 8.31205456e-04, 1.36616372e-03,
          1.15151936e-03, 1.31509360e-03, 8.28578137e-04, 9.96043673e-04,
          9.51525348e-04, -1.24624278e-03, -1.15287409e-03,
          6.48089685e-04, 9.04499029e-04, 9.49736102e-04, 1.09145092e-03,
          7.38909177e-04, 7.53697706e-04, 7.08116451e-04,
          -1.42211176e-03, -1.32963574e-03, 7.13232090e-04,
          7.46221514e-04, 9.63610131e-04, 1.20870362e-03, 8.58994375e-04,
          8.91869713e-04, 8.73145356e-04, -1.12127769e-03,
          -1.33361854e-03, 7.51667481e-04, 1.19849725e-03,
          9.88876098e-04, 1.11646601e-03, 7.08406966e-04, 8.57000996e-04,
          8.33175378e-04, -1.38813932e-03, -1.16720330e-03,
          7.72910309e-04, 9.83971055e-04, 1.17704098e-03, 1.33193715e-03,
          1.18828646e-03, 1.37328799e-03, 1.25731889e-03,
          -1.14763551e-03, -1.43965171e-03, 5.79524494e-04,
          6.39102771e-04, 8.20243964e-04, 1.03564898e-03, 7.28984131e-04,
          7.41675205e-04, 7.17822462e-04, -1.26116863e-03,
          -9.39322752e-04, 3.69798858e-04, 3.23341723e-04,
          3.60619277e-04, 7.54599518e-04, 7.17774092e-04, 7.74753105e-04,
          6.34386612e-04, -6.00745960e-04, -1.33851683e-03,
          6.12624688e-04, 8.37714586e-04, 9.73450369e-04, 1.13234669e-03,
          9.70456866e-04, 1.09786168e-03, 1.02163875e-03,
          -1.28946605e-03, -9.61406040e-04, 2.19323265e-04,
          8.19079694e-04, 1.06988975e-03, 1.05718581e-03, 1.09844143e-03,
          1.45327521e-03, 1.18651858e-03, -1.24879414e-03,
          -1.12651160e-03, 2.29354089e-04, 1.92325606e-04,
          2.34853869e-04, 5.32173610e-04, 5.59064851e-04, 5.90587617e-04,
          4.93402767e-04, -8.85707152e-04, -4.30620828e-04,
          -9.11857496e-05, -1.44387290e-04, -2.88840878e-04,
          4.55188449e-04, 4.39417287e-04, 2.52393482e-04, 1.21518467e-04,
          2.69370207e-06, -1.09479355e-03, 1.00568403e-04,
          5.80118620e-04, 8.01243354e-04, 8.14411091e-04, 8.70034273e-04,
          1.11038692e-03, 9.56384465e-04, -1.29332941e-03,
          -7.85956043e-04, -1.25097824e-04, 1.20760582e-03,
          1.41538982e-03, 1.21023646e-03, 6.59437792e-04, 8.17608670e-04,
          3.28338705e-04, -1.08502968e-03, -7.34328234e-04,
          -3.71517992e-04, -3.83430452e-04, -4.77643538e-04,
          1.53870875e-04, 2.14602376e-04, 9.74379218e-05, 4.40843542e-05,
          -2.02671043e-04, -3.34060569e-05, 5.10729966e-04,
          2.45533913e-04, 3.38090431e-05, 4.90620791e-04, 5.22006230e-05,
          -4.86127799e-04, -9.01569088e-04, -7.39770767e-04,
          -1.06801884e-03, -6.15047931e-04, 4.35467955e-04,
          6.65351283e-04, 7.65304023e-04, 4.44055971e-04, 5.70988050e-04,
          2.60922214e-04, -1.23100483e-03, 3.82322789e-04,
          1.32721884e-03, 1.57221814e-03, 1.50761858e-03, 1.00955763e-03,
          4.43861500e-04, 1.01556056e-04, -5.63621346e-04,
          -6.86711457e-04, -2.80724722e-04, 1.44766658e-04,
          2.76455921e-07, -1.23288759e-04, 2.68610020e-04,
          -4.53628563e-05, -4.61551244e-04, -7.92440609e-04,
          -7.46249047e-04, -4.59878793e-04, 5.11738821e-04,
          3.30485986e-04, 2.77303974e-04, 3.93492111e-04, 4.46027079e-05,
          -1.29943161e-04, -4.04613733e-04, -1.27657107e-03,
          -3.71960399e-04, 6.70305977e-04, 1.06985483e-03,
          9.67518485e-04, 6.93905808e-04, 3.04386223e-04, 2.27131550e-05,
          -8.76923499e-04, -1.37489731e-03, 4.93691245e-04,
          2.01998814e-03, 1.24378793e-03, 6.85500388e-04, 4.13534668e-04,
          2.41059926e-04, 7.98951776e-04, 3.10106640e-04,
          -3.65192682e-04, -3.84794112e-04, 3.92644171e-04,
          2.41882401e-04, 1.74703164e-04, 2.43971546e-04,
          -3.09776988e-05, -2.08552490e-04, -4.67524602e-04,
          -1.39888702e-03, -1.00301614e-03, 4.90208273e-04,
          2.85538117e-04, 2.85221206e-04, 4.37529379e-04, 2.45922653e-04,
          3.78951023e-04, 3.89725406e-04, -1.62119139e-03,
          2.07149104e-04, 1.57211337e-03, 1.03740848e-03, 5.65453141e-04,
          3.12997348e-04, 1.69554405e-04, 5.32736012e-04, 1.65635080e-04,
          -9.13808413e-04, 9.81978228e-05, 1.63391547e-03,
          6.75037678e-04, 2.37154381e-04, 1.71919164e-04, 1.54284673e-04,
          1.02257810e-03, 1.15535583e-03, -5.24294097e-04,
          -8.79296684e-04, 3.65327491e-04, 2.17329696e-04,
          2.19960857e-04, 3.24821071e-04, 1.69139501e-04, 2.65876180e-04,
          2.81996909e-04, -1.70404767e-03, -9.18773469e-04,
          6.21565967e-04, 3.68621812e-04, 2.97271181e-04, 3.29243223e-04,
          2.30280595e-04, 3.25296511e-04, 2.19439476e-04,
          -1.76016730e-03, -2.86194554e-04, 1.40985707e-03,
          4.41183889e-04, 1.66249127e-04, 1.26443250e-04, 1.23633159e-04,
          1.01151678e-03, 1.19106926e-03, -7.18213269e-04,
          2.87744449e-04, 2.55619222e-03, 7.81864277e-04, 2.35369444e-04,
          1.61413409e-04, 7.94075386e-05, 3.74094525e-04, 5.57558204e-04,
          -8.65461247e-04, -1.02470675e-03, 3.45333421e-04,
          2.09008227e-04, 1.89511717e-04, 2.18116780e-04, 1.50285166e-04,
          2.02758121e-04, 9.65604777e-05, -1.90617004e-03,
          -1.05670583e-03, 1.11672760e-03, 4.74363565e-04,
          2.61366396e-04, 1.65092017e-04, 1.10932851e-04, 1.41997094e-04,
          -4.17200608e-05, -1.87100598e-03, 2.65168579e-04,
          2.43676407e-03, 4.60882235e-04, 1.50027045e-04, 1.08863387e-04,
          5.78686377e-05, 3.13819415e-04, 4.55495727e-04,
          -1.32475677e-03, 4.16261115e-04, 2.83027580e-03,
          1.30881357e-03, 1.50871871e-04, 6.46110420e-05, 2.21591108e-05,
          5.69988661e-05, -1.11416077e-04, -1.78629428e-03,
          -1.16292259e-03, 4.83232609e-04, 2.23497918e-04,
          1.39082040e-04, 8.49082280e-05, 5.60558728e-05, 6.74092589e-05,
          -1.14383700e-04, -1.89919770e-03, -1.05097552e-03,
          2.36380426e-03, 4.37500712e-04, 9.16343415e-05, 6.63516839e-05,
          3.95061070e-05, -8.31130819e-06, -1.06955551e-04,
          -2.01829523e-03, -3.03441746e-04, 2.84188217e-03,
          6.74613751e-04, 8.83559696e-05, 3.92463262e-05, 1.19957404e-05,
          3.29869035e-05, -1.38179210e-04, -1.96500146e-03,
          -5.78803520e-05, 2.92700762e-03, 1.28191849e-03,
          2.82827496e-05, 9.42939096e-06, 3.91521235e-06,
          -6.68834264e-06, -7.94399530e-05, -2.20449432e-03,
          -1.33132725e-03, 1.33709249e-03, 2.60459579e-04,
          6.09391864e-05, 3.95217467e-05, 1.98010785e-05,
          -2.16181124e-05, -1.15423711e-04, -1.83802075e-03,
          -2.96510465e-04, 2.37609632e-03, 2.16166431e-04,
          -2.01594939e-05, -4.48084756e-05, -1.38567448e-05,
          -9.23637854e-05, -1.54782450e-04, -1.79525011e-03,
          -8.33349826e-04, 2.60963780e-03, 7.98843452e-04,
          2.10040525e-05, 6.48865398e-06, 8.61935064e-07,
          -7.94481275e-06, -7.94491352e-05, -2.25097267e-03,
          3.23661021e-04, 2.46782671e-03, 4.88892081e-04,
          -2.54347492e-06, 4.70111036e-06, 3.54186272e-06,
          2.88428555e-06, -5.87008544e-05, -2.21872400e-03,
          -8.34417937e-04, 1.86248054e-03, 1.52004912e-04,
          -2.02463925e-05, -3.98442608e-05, -1.30983381e-05,
          -8.35354003e-05, -1.35311391e-04, -1.72595738e-03,
          -1.97003596e-04, 1.94177602e-03, 2.47880380e-04,
          -8.59640350e-05, -7.14317430e-05, -5.99128907e-05,
          -1.92275213e-04, -4.21364821e-04, -1.85805978e-03,
          -2.60448960e-05, 2.23558513e-03, 3.87746200e-04,
          -2.47338062e-06, 2.65727635e-06, 2.30510159e-06,
          -8.60582475e-07, -4.82477735e-05, -2.24917801e-03,
          9.53416838e-06, 2.11748364e-03, 4.02889389e-04, 1.27403882e-05,
          2.11970291e-05, 8.43993439e-06, 2.06992308e-06,
          -2.94440368e-04, -2.13067862e-03, -3.19217535e-04,
          1.90462195e-03, 1.90774212e-04, -7.90503982e-05,
          -7.29953681e-05, -5.53617465e-05, -1.72958316e-04,
          -3.57404351e-04, -1.66833191e-03, 3.14078265e-04,
          2.00215541e-03, 2.49712786e-04, -8.17583350e-05,
          -2.16736498e-05, -7.09035521e-05, -2.02396739e-04,
          -5.24476753e-04, -1.95503305e-03, -9.11338866e-05,
          2.06427136e-03, 3.18159611e-04, 7.20097478e-06, 1.53551027e-05,
          6.35607967e-06, 2.13727139e-06, -2.42595284e-04,
          -2.20103189e-03, -5.25236246e-04, 2.11394206e-03,
          6.08997943e-04, 5.57099847e-05, 3.88122535e-05, 1.15506036e-05,
          -2.72903594e-06, -3.76877404e-04, -2.21250113e-03,
          4.08768421e-04, 2.02390086e-03, 2.52502912e-04,
          -7.14972484e-05, -2.02607334e-05, -5.83848887e-05,
          -1.70818443e-04, -4.43300582e-04, -1.80296297e-03,
          -1.04749442e-05, 2.00068345e-03, 6.14690580e-05,
          -2.09980408e-05, -1.55713042e-05, -2.69440279e-05,
          -7.84281947e-05, -2.64828996e-04, -1.87964377e-03,
          -5.87174611e-04, 2.12458195e-03, 5.63626993e-04,
          4.90205821e-05, 3.38169120e-05, 1.14188815e-05,
          -5.57356032e-07, -3.24036257e-04, -2.18030554e-03,
          -5.04753116e-05, 1.95559650e-03, 3.33260366e-04,
          5.10005048e-05, 5.27757365e-05, 1.14508730e-05, 2.14851461e-05,
          -8.52695885e-05, -2.07122741e-03, 2.20976217e-04,
          1.97044597e-03, 7.78325702e-05, -2.04478583e-05,
          -1.32519772e-05, -2.62185604e-05, -7.35438880e-05,
          -2.36355903e-04, -1.59864931e-03, 1.71899359e-04,
          2.12132139e-03, 3.48363610e-05, -8.58815565e-06,
          -5.11086728e-06, -1.40760230e-05, -2.62237136e-05,
          -1.56648573e-04, -1.97363133e-03, -1.25417195e-04,
          1.93316117e-03, 3.45019216e-04, 4.96451321e-05, 4.95911227e-05,
          1.13079723e-05, 2.06288951e-05, -8.14008017e-05,
          -2.09056260e-03, -8.70199365e-05, 1.77497196e-03,
          1.83208584e-04, 4.80438284e-05, 5.65510891e-05, 1.76566955e-05,
          4.37871349e-05, -2.25548465e-05, -2.00772705e-03,
          3.45704844e-04, 2.15508044e-03, 4.02406513e-05,
          -6.20537730e-06, -4.17814863e-06, -1.09251141e-05,
          -2.32650345e-05, -1.36484843e-04, -1.88138860e-03,
          4.30803106e-04, 2.20342004e-03, 1.36248098e-04, 3.78325353e-06,
          1.28179663e-05, -1.40012944e-05, -1.81213145e-05,
          -1.82001226e-04, -2.19711009e-03, -4.64394871e-05,
          1.78777322e-03, 1.89035767e-04, 4.78726724e-05, 5.77394603e-05,
          1.76201429e-05, 4.33915266e-05, -8.64049616e-06,
          -2.00248254e-03, -2.83603033e-04, 2.08700122e-03,
          2.75492319e-04, 3.41995874e-05, 5.50355035e-05, 1.33342392e-05,
          4.43356475e-05, -2.02962023e-04, -2.05018208e-03,
          5.44364098e-04, 2.20630318e-03, 1.28797328e-04, 2.82018732e-06,
          1.25673587e-05, -1.59703250e-05, -1.77217262e-05,
          -1.57106915e-04, -2.22877902e-03, 3.61716753e-04,
          2.13842094e-03, 3.28847062e-04, 1.25633946e-04, 6.65801126e-05,
          4.86587087e-05, 1.83337750e-06, -2.43581599e-04,
          -2.12191185e-03, -3.37180798e-04, 2.08445918e-03,
          2.54673127e-04, 3.38886130e-05, 5.53263963e-05, 1.32462847e-05,
          4.69340994e-05, -1.62020166e-04, -2.09244341e-03,
          -5.91452233e-04, 2.25966773e-03, 1.15613826e-03,
          3.42562504e-04, 9.32758630e-05, -1.42631216e-05,
          -1.03091123e-04, -6.31283969e-04, -2.20521237e-03,
          2.25094031e-04, 2.19198479e-03, 2.60738394e-04, 9.02752727e-05,
          4.64060286e-05, 3.17081540e-05, -5.12613542e-06,
          -2.44080526e-04, -2.10339227e-03, 2.41528352e-04,
          1.90182659e-03, 4.81320138e-04, 2.07407065e-04, 1.09494125e-04,
          1.07761152e-04, -1.69196355e-04, -5.19558089e-04,
          -1.65148149e-03, -7.03792321e-04, 2.31538783e-03,
          9.06958187e-04, 2.42162845e-04, 7.68190366e-05,
          -6.16865964e-06, -6.47205379e-05, -5.67163283e-04,
          -2.10434175e-03, 3.90343863e-04, 2.26606219e-03,
          1.25988584e-03, 5.29785757e-04, -1.98343005e-05,
          -7.46220816e-04, -1.57872820e-03, -1.75162056e-03,
          -1.98748754e-03, -3.12514399e-04, 1.61286106e-03,
          3.15428420e-04, 1.37217037e-04, 5.75158228e-05, 7.77702517e-05,
          -1.80153133e-04, -5.57342602e-04, -1.67735340e-03,
          6.30634197e-04, 1.43948628e-03, 6.67777378e-04, 3.05593101e-04,
          9.81245103e-05, -5.19354980e-05, -5.40911220e-04,
          -1.15065649e-03, -8.79313331e-04, -2.26361211e-04,
          2.27647275e-03, 1.10240118e-03, 4.75507666e-04,
          -2.76920491e-05, -7.28279410e-04, -1.55907066e-03,
          -1.71854871e-03, -1.87544723e-03, 1.85202959e-03,
          2.28567072e-03, 1.26653607e-03, 2.61178619e-04,
          -3.60846665e-04, -1.73934328e-03, -2.01609475e-03,
          -1.54165144e-03, -6.01055159e-04, 1.38275238e-04,
          1.05688500e-03, 4.62451717e-04, 2.12324681e-04, 2.29200796e-05,
          -9.64101200e-05, -6.41725725e-04, -1.33607339e-03,
          -1.16765033e-03, 8.91123433e-04, 1.93840102e-03,
          1.34207495e-03, 4.18845419e-04, -3.49780748e-04,
          -5.47133328e-04, -1.17748394e-03, -1.75531232e-03,
          -8.00970767e-04, 1.49292091e-03, 2.10217689e-03,
          1.04304135e-03, 2.17421737e-04, -4.13257658e-04,
          -1.92632165e-03, -1.98003161e-03, -1.76475209e-03,
          -1.00314419e-03, 1.74123014e-03, 2.17929995e-03,
          1.09117338e-03, -3.81424034e-04, -1.39064027e-03,
          -1.44041982e-03, -1.52871269e-03, -5.49432763e-04,
          2.73780141e-04, 7.28029292e-04, 1.64682313e-03, 1.02797558e-03,
          3.36421916e-04, -1.35187598e-04, -2.98070809e-04,
          -7.34743138e-04, -1.68440340e-03, -5.16548636e-04,
          4.15850140e-04, 1.84371509e-03, 1.87770044e-03, 1.23287190e-03,
          -1.09376910e-03, -1.77781936e-03, -1.64331566e-03,
          -1.73367385e-03, -6.31804462e-04, 1.55804644e-03,
          1.95935369e-03, 8.68030533e-04, -1.78709379e-04,
          -8.11480684e-04, -1.06707728e-03, -1.23405503e-03,
          -4.22372977e-04, 2.56363041e-04, 1.13708980e-03,
          1.98116852e-03, 1.74819340e-03, -9.14122502e-04,
          -2.27259449e-03, -1.18021353e-03, -3.23190907e-04,
          -1.41718789e-04, 5.70443190e-05, 4.89952741e-04,
          1.79506245e-03, 1.80780049e-03, 1.33139687e-03,
          -7.88152334e-04, -1.08034071e-03, -1.07736897e-03,
          -1.15516339e-03, -4.02500475e-04, 7.59037357e-05,
          7.39344687e-04, 1.66131568e-03, 1.41976238e-03,
          -7.07467261e-04, -1.61287445e-03, -1.04681589e-03,
          -3.62652412e-04, -1.00075624e-04, 1.23974693e-03,
          1.89787545e-03, 1.72792817e-03, -4.80886694e-04,
          -2.26011919e-03, -7.17601273e-04, -2.33443934e-04,
          -1.00538957e-04, 8.21217400e-05, 3.74444760e-04,
          1.66928989e-03, 1.74278230e-03, -1.94076958e-04,
          -2.09869724e-03, -1.25425460e-03, -7.58947281e-05,
          1.24897451e-05, 9.64331048e-05, 1.06668717e-03, 9.60849924e-04,
          8.64468922e-04, -5.56009705e-04, -1.63833390e-03,
          2.18533518e-04, 6.97782671e-04, 6.87592488e-04, 8.76591657e-04,
          1.10773509e-03, 1.09421706e-03, 8.85242654e-04,
          -4.89378406e-04, -1.53453520e-03, 1.11357309e-04,
          6.04648259e-04, 7.86721357e-04, 7.95810600e-04, 1.09841698e-03,
          9.14127391e-04, 1.16541493e-03, -4.00851801e-04,
          -1.50608656e-03, -4.29315005e-05, 7.99278263e-04,
          9.25264030e-04, 9.58281336e-04, 1.12717948e-03, 1.27593742e-03,
          1.39418012e-03, -1.69874533e-04, -1.38252683e-03,
          -7.03604164e-05, 7.06260907e-04, 1.11162872e-03,
          9.65411076e-04, 9.93522699e-04, 9.91380424e-04, 7.86519726e-04,
          -9.33297619e-04, -1.52760802e-03, -6.57193377e-05,
          5.24548057e-04, 6.95531664e-04, 7.08728388e-04, 1.01552915e-03,
          7.32049753e-04, 1.53811445e-04, -5.27987024e-04,
          -5.57597261e-04, 2.84924405e-04, 5.62034373e-04,
          7.53596716e-04, 6.56547491e-04, 1.00956787e-03, 1.12725014e-03,
          1.26637786e-03, -4.65640565e-04, -1.39521179e-03,
          -3.63742205e-04, 6.29725284e-04, 9.81330290e-04,
          8.55220074e-04, 1.14033045e-03, 1.07996806e-03, 7.76064640e-04,
          -9.12908348e-04, -1.31660991e-03, 2.74752674e-04,
          6.76039606e-04, 9.36148979e-04, 8.65071022e-04, 9.64086037e-04,
          7.75843160e-04, 3.65978020e-04, -3.00428161e-04,
          -5.31021156e-04, 2.51856283e-04, 5.17685898e-04,
          6.86813786e-04, 6.06634014e-04, -2.77607091e-04,
          -9.65548912e-04, -1.06188317e-03, -9.39278922e-04,
          4.91255661e-04, 5.70445904e-04, 7.93403015e-04, 8.10510130e-04,
          6.90378482e-04, 1.04103389e-03, 1.03628181e-03, 8.53735371e-04,
          -4.60352167e-04, -1.08365226e-03, 2.70612014e-04,
          6.02830958e-04, 8.54010868e-04, 7.87720666e-04, 8.85794347e-04,
          1.98907219e-04, -3.90153698e-04, -9.67359054e-04,
          -9.57508921e-04, 5.76914172e-04, 1.11183105e-03,
          1.04638771e-03, 1.03575818e-03, 2.13383959e-04,
          -3.41849111e-04, -5.12575149e-04, -4.34725313e-04,
          5.76692109e-04, 5.02532639e-04, 7.00924022e-04, 7.27922888e-04,
          6.44609623e-04, -1.02500583e-03, -1.30169513e-03,
          -2.72652163e-04, -3.21715925e-05, 9.60249803e-04,
          8.34041391e-04, 9.39874910e-04, 9.88870510e-04, 3.40044149e-04,
          8.87969742e-04, 4.21558972e-04, 6.64504623e-05,
          -8.76255159e-04, -9.17240221e-04, 5.71385492e-04,
          9.83495847e-04, 9.14602890e-04, 9.01296153e-04,
          -2.69446289e-04, -5.36306761e-04, -1.32043599e-04,
          -1.04129361e-03, -5.39714936e-04, 9.85038118e-04,
          1.07884104e-03, 1.34858419e-03, 1.23691349e-03,
          -1.30503427e-03, -1.33600738e-03, -3.07640119e-04,
          -8.35073952e-05, 8.26584408e-04, 6.76500611e-04,
          7.80064205e-04, 8.18211061e-04, 3.68536450e-04,
          -1.32486469e-03, -2.02442054e-04, 6.28400827e-04,
          6.38934551e-04, 9.78331082e-04, 8.21792288e-04, 1.11338624e-03,
          1.05771387e-03, -7.90265331e-04, -7.08836669e-05,
          -4.19797288e-04, -1.32479137e-04, -1.14234537e-03,
          -8.23326816e-04, 8.22939852e-04, 9.36490949e-04,
          1.11361174e-03, 1.08708465e-03, -1.01751275e-03,
          9.42284605e-05, 7.00382283e-04, 3.27854214e-04, 9.66261374e-04,
          1.07671670e-03, 1.12002145e-03, 1.42483553e-03, 5.90066309e-04,
          -1.61851419e-03, -3.37852485e-04, 5.05527190e-04,
          5.14338259e-04, 8.55538354e-04, 7.05433136e-04, 9.34790703e-04,
          8.99243343e-04, -7.96687149e-04, -1.46430044e-03,
          8.07542703e-04, 8.49778124e-04, 1.02613308e-03, 8.74981750e-04,
          8.25361931e-04, 1.01491017e-03, 8.86077934e-04,
          -1.44319679e-03, -1.29052415e-03, -3.12528573e-05,
          5.59468113e-04, 1.78305447e-04, 7.63867167e-04, 9.23732587e-04,
          9.27340356e-04, 1.21042796e-03, 5.98588493e-04,
          -1.14603352e-03, 9.45501728e-04, 7.72632193e-04,
          8.78415885e-04, 1.00150541e-03, 1.03967229e-03, 1.24868623e-03,
          1.31695566e-03, -7.08292879e-04, -1.52238971e-03,
          6.85720122e-04, 7.33127643e-04, 8.69412848e-04, 7.57600879e-04,
          7.21802877e-04, 9.34190000e-04, 8.13560851e-04,
          -1.49334385e-03, -1.35946297e-03, 9.62905586e-04,
          1.13602658e-03, 1.09880650e-03, 9.44336003e-04, 7.89069221e-04,
          8.29341880e-04, 7.11797969e-04, -1.51527370e-03,
          -1.11569138e-03, 8.26142554e-04, 6.96311297e-04,
          7.44198449e-04, 8.71016760e-04, 9.10568167e-04, 1.11879199e-03,
          1.18197757e-03, -4.33315698e-04, -7.70878512e-04,
          1.10235903e-03, 8.70180840e-04, 9.09698196e-04, 1.12751883e-03,
          9.45650332e-04, 1.18766259e-03, 1.03671686e-03,
          -1.08818361e-03, -1.42329419e-03, 8.67944618e-04,
          9.90452827e-04, 9.90009517e-04, 8.29709636e-04, 7.26205879e-04,
          7.60075462e-04, 6.57027995e-04, -1.54776743e-03,
          -1.40616670e-03, 6.68235181e-04, 1.14015362e-03,
          1.01956492e-03, 1.11408904e-03, 6.85524603e-04, 8.05789197e-04,
          7.69539212e-04, -1.42762798e-03, -5.92795725e-04,
          1.00928731e-03, 7.71915773e-04, 8.28702119e-04, 9.92516172e-04,
          8.55902326e-04, 1.06707250e-03, 9.83842183e-04,
          -1.05473446e-03, -9.66439198e-04, 9.97312367e-04,
          9.86681436e-04, 9.48222529e-04, 1.15967891e-03, 8.80667299e-04,
          1.27563067e-03, 8.87724920e-04, -1.15019479e-03,
          -1.51055341e-03, 5.86608832e-04, 9.63640749e-04,
          8.41468165e-04, 9.13775584e-04, 5.72395220e-04, 6.73057686e-04,
          6.53666677e-04, -1.54866662e-03, -1.37512875e-03,
          6.03581546e-04, 7.98699912e-04, 9.68965061e-04, 1.09895901e-03,
          9.45837412e-04, 1.07102003e-03, 9.71233647e-04,
          -1.37143699e-03, -1.00368191e-03, 8.51895777e-04,
          8.28098622e-04, 7.85307493e-04, 9.77908261e-04, 7.09244749e-04,
          1.04739505e-03, 7.44883961e-04, -1.12720579e-03,
          -9.63658444e-04, 1.06597238e-03, 8.77275306e-04,
          1.03735446e-03, 1.06249633e-03, 1.08487392e-03, 1.50698179e-03,
          1.13937678e-03, -1.10717164e-03, -1.52083323e-03,
          4.36333707e-04, 6.30901894e-04, 7.53483444e-04, 8.71462398e-04,
          7.25160062e-04, 8.11816950e-04, 7.45541358e-04,
          -1.49474514e-03, -1.24975247e-03, -3.84535560e-05,
          5.25940617e-04, 7.49824860e-04, 7.84057775e-04, 8.29502533e-04,
          1.09990267e-03, 8.58646585e-04, -1.46010658e-03,
          -1.14726613e-03, 7.43413344e-04, 6.83115388e-04,
          8.06533324e-04, 8.20022600e-04, 8.36491876e-04, 1.18280645e-03,
          8.54193117e-04, -1.24577968e-03, -3.70478083e-04,
          1.29108992e-03, 1.23931549e-03, 1.21715234e-03, 1.06732186e-03,
          7.86376477e-04, 1.10149360e-03, 7.47159880e-04,
          -1.16071291e-03, -1.48608279e-03, -2.43420684e-04,
          2.19242705e-04, 4.09905188e-04, 4.59011324e-04, 5.20637550e-04,
          6.55470649e-04, 5.33860642e-04, -1.60383235e-03,
          -1.33767130e-03, -7.62295909e-04, 3.42219981e-04,
          6.38149446e-04, 6.76034077e-04, 3.95011331e-04, 4.28353611e-04,
          2.11465795e-05, -1.35247048e-03, -9.19110840e-04,
          6.43698673e-04, 6.71180082e-04, 7.06639083e-04, 6.24913548e-04,
          4.77006979e-04, 6.65568165e-04, 4.02271573e-04,
          -1.41684490e-03, -4.28126863e-04, 1.04908540e-03,
          2.18765065e-03, 1.88554346e-03, 9.44911211e-04, 2.68518372e-04,
          3.77822318e-04, 1.52493230e-04, -8.83878150e-04,
          -1.61928672e-03, -1.16291468e-03, -3.05061170e-04,
          8.04519368e-05, 2.86537019e-04, 1.99792164e-04, 1.93654923e-04,
          -7.21443503e-05, -1.58366433e-03, -7.36041693e-04,
          4.04317398e-04, 8.29668716e-04, 6.85612205e-04, 4.29028500e-04,
          1.22102385e-04, -3.19580693e-04, -1.05438626e-03,
          -1.43340370e-03, -9.85558960e-04, 3.84112995e-04,
          1.15212670e-03, 1.25054026e-03, 4.22951009e-04, 1.24429687e-04,
          1.86245481e-04, 2.38552802e-05, -1.18230726e-03,
          2.07125806e-04, 1.89218286e-03, 1.76821824e-03, 1.45964720e-03,
          3.82319529e-04, 8.15467720e-05, 1.21911704e-04,
          -1.26269733e-04, -1.10331189e-03, -1.07785733e-03,
          -1.10266687e-04, 3.19710700e-04, 3.40223662e-04,
          2.44192663e-04, 4.64622099e-05, -2.99468753e-04,
          -1.24894176e-03, -1.88431004e-03, -8.40796856e-04,
          7.25342543e-04, 4.99500835e-04, 2.73515878e-04, 1.48843712e-04,
          3.14503559e-05, 1.24800616e-04, -5.31721336e-04,
          -1.29966286e-03, -9.69096582e-05, 1.43094931e-03,
          1.23454945e-03, 1.06794457e-03, 2.28806806e-04, 3.78807563e-05,
          4.04861348e-05, -2.27043885e-04, -1.49509287e-03,
          2.14628337e-04, 1.84989034e-03, 1.16086227e-03, 9.22722684e-04,
          3.78769801e-05, 2.64128976e-05, 7.39599054e-04, 6.49610825e-04,
          -5.92454977e-04, -8.66723538e-04, 5.62581641e-04,
          4.16070019e-04, 2.24380565e-04, 1.09372224e-04, 1.13819460e-05,
          3.59594851e-05, -5.43782779e-04, -1.64779613e-03,
          -1.35476014e-03, 6.34743250e-04, 2.10816477e-04,
          8.76774357e-05, 7.27120787e-05, 6.31027360e-05, 4.61919321e-04,
          6.15363708e-04, -1.48206111e-03, 3.18337698e-04,
          1.71379093e-03, 1.04515743e-03, 8.52381869e-04, 3.59075857e-05,
          1.67645503e-05, 5.33756742e-04, 6.70040376e-04,
          -1.06704491e-03, 1.87926446e-04, 1.63263432e-03,
          3.09921103e-04, 3.41655468e-05, -1.91873314e-05,
          -2.74184617e-06, 7.48855411e-04, 7.94531952e-04,
          -6.97271607e-04, -1.57685112e-03, 3.87973298e-04,
          1.43468598e-04, 6.12735166e-05, 5.31214610e-05, 4.73688851e-05,
          4.10924753e-04, 5.39201312e-04, -1.66118203e-03,
          -7.91655388e-04, 1.44177058e-03, 2.69117008e-04,
          9.67281740e-05, 7.02449906e-05, 3.53772521e-05, 1.53637971e-04,
          8.44231035e-05, -1.78281532e-03, 4.87205281e-04,
          1.50073832e-03, 2.35151165e-04, 3.66381792e-05,
          -1.77989568e-05, 2.69722378e-08, 7.28360610e-04,
          9.99412150e-04, -6.12229691e-04, 7.10822525e-04,
          2.37684324e-03, 3.03770794e-04, -7.23523681e-06,
          -1.07564010e-05, -2.03611216e-05, 8.86344496e-05,
          1.05092149e-04, -1.40417111e-03, -1.17005408e-03,
          8.72378878e-04, 1.69917228e-04, 6.46239932e-05, 4.86860299e-05,
          2.62981612e-05, 1.23015227e-04, 6.59288271e-05,
          -1.90299971e-03, -8.70295567e-04, 2.32608267e-03,
          5.09211386e-04, 6.61799641e-05, 2.83063164e-05, 7.15688475e-06,
          1.97446534e-05, -1.76843299e-04, -2.06922367e-03,
          9.52609349e-04, 2.46326346e-03, 1.88281963e-04,
          -8.45385330e-06, -1.15882849e-05, -1.76364174e-05,
          8.83800676e-05, 9.68258246e-05, -1.53372530e-03,
          3.13389784e-04, 2.43428280e-03, 6.60098274e-04,
          -1.94197019e-05, -1.06915586e-05, -2.22157705e-05,
          -3.41518207e-05, -2.09279242e-04, -2.13874830e-03,
          -1.14391628e-03, 2.04106024e-03, 3.44330125e-04,
          5.06924771e-05, 2.21450828e-05, 5.59957471e-06, 1.58929306e-05,
          -1.59945543e-04, -2.06438010e-03, -1.00185513e-03,
          2.54329015e-03, 6.48116344e-04, 1.65998154e-05, 4.91421406e-06,
          4.08785183e-07, -1.03148232e-05, -8.11916034e-05,
          -2.18222663e-03, 5.22050890e-04, 2.49964325e-03,
          4.29845008e-04, -1.78857645e-05, -9.63915681e-06,
          -1.98447578e-05, -2.90085845e-05, -1.84846722e-04,
          -2.11047661e-03, -7.84893346e-04, 2.42949580e-03,
          9.05118301e-04, -9.39048505e-07, -1.15289786e-05,
          -1.29633981e-05, -2.81654084e-05, -1.01354301e-04,
          -2.14437605e-03, -1.24300644e-03, 2.45526223e-03,
          5.53991820e-04, 1.70263102e-05, 4.69477664e-06,
          -2.76282890e-08, -8.85340432e-06, -7.68522441e-05,
          -2.19741557e-03, 1.26148909e-04, 2.31139991e-03,
          3.32383468e-04, -5.74068326e-06, -3.02447233e-07,
          1.87082082e-06, -2.70463988e-06, -5.51147641e-05,
          -2.18476844e-03, -8.84923385e-04, 2.35636113e-03,
          7.71528808e-04, -3.64006883e-06, -1.13038950e-05,
          -1.30776416e-05, -2.76817445e-05, -9.54462375e-05,
          -1.99380447e-03, -5.65887603e-04, 2.33453792e-03,
          4.71889973e-04, 3.10731157e-05, 5.79415864e-05, 2.12239138e-05,
          1.97991521e-05, -6.15215395e-05, -1.86358090e-03,
          -4.92751678e-05, 2.20283912e-03, 3.49843816e-04,
          -4.33800051e-06, 3.20601643e-08, 1.81650398e-06,
          -3.52088318e-06, -4.26560291e-05, -2.18486600e-03,
          2.91988090e-05, 2.08290480e-03, 3.80161044e-04, 4.59280909e-06,
          1.25668967e-05, 4.03176045e-06, -4.45409478e-06,
          -2.73492129e-04, -2.08134693e-03, -6.73375966e-04,
          2.20709038e-03, 4.96236666e-04, 2.92136028e-05, 4.76583991e-05,
          1.73654462e-05, 1.61397438e-05, -5.11123762e-05,
          -1.76821218e-03, -4.33490233e-04, 2.18348950e-03,
          3.08995106e-04, 7.98291003e-05, 1.42127465e-04, 4.92555337e-05,
          4.03870799e-05, -1.08221851e-04, -1.95216713e-03,
          9.54645730e-05, 2.09342013e-03, 3.67640983e-04, 3.54418648e-06,
          1.10695319e-05, 4.47078719e-06, -9.53804602e-07,
          -2.13982377e-04, -2.07406376e-03, -1.53189190e-04,
          2.15707324e-03, 6.86707092e-04, 5.35275285e-05, 3.57833269e-05,
          6.89747640e-06, -5.62082596e-06, -3.45055334e-04,
          -2.07376946e-03, -2.07765144e-04, 2.22406327e-03,
          3.12982505e-04, 8.17830296e-05, 1.48048493e-04, 5.62469686e-05,
          5.18554880e-05, -7.33329362e-05, -1.91971217e-03,
          -8.40202440e-04, 2.12347275e-03, 5.30898629e-04,
          1.11036235e-04, 1.38772666e-04, 5.82477223e-05, 5.91528806e-05,
          -7.54765570e-05, -1.89915823e-03, -1.02821003e-04,
          2.12578056e-03, 6.97378942e-04, 5.09417587e-05, 3.30556613e-05,
          8.22193942e-06, -2.94679580e-06, -3.10883828e-04,
          -2.12091487e-03, 1.03103830e-05, 2.08038324e-03,
          3.98082659e-04, 5.58754691e-05, 5.54354883e-05, 1.11694353e-05,
          2.33932369e-05, -8.08967015e-05, -1.98596041e-03,
          -6.35738135e-04, 2.10970780e-03, 5.26883465e-04,
          1.12550377e-04, 1.42806748e-04, 6.42677987e-05, 6.36136028e-05,
          -5.56794512e-05, -1.91240315e-03, -1.02719547e-04,
          2.07434269e-03, 3.89940978e-04, 5.08176272e-05, 7.77694659e-05,
          1.07024080e-05, 2.73619262e-05, -3.73118273e-05,
          -1.69871061e-03, -3.30872208e-05, 1.98592362e-03,
          3.76394863e-04, 4.83636068e-05, 4.66577949e-05, 9.39512665e-06,
          1.90458122e-05, -8.17658656e-05, -1.97343668e-03,
          -4.46756458e-05, 2.06603226e-03, 2.00129813e-04,
          4.93815169e-05, 5.67976422e-05, 1.90991705e-05, 4.82644900e-05,
          -1.01992018e-05, -1.93917903e-03, -2.29223457e-04,
          1.98366703e-03, 3.75838950e-04, 4.91584142e-05, 7.39682218e-05,
          1.43420766e-05, 2.82041456e-05, -3.11081712e-05,
          -1.58327422e-03, 1.09587336e-05, 1.99263846e-03,
          9.04566114e-05, 9.71852660e-06, 1.91617128e-05,
          -2.03254604e-05, -2.37269178e-05, -1.17566640e-04,
          -1.53434987e-03, -2.98533414e-05, 1.85761380e-03,
          1.72370128e-04, 4.14177630e-05, 4.86187237e-05, 1.51863969e-05,
          3.80376623e-05, -1.10138026e-05, -2.01001018e-03,
          -4.17548901e-04, 2.03189161e-03, 2.54251034e-04,
          3.10892392e-05, 5.12297192e-05, 1.22388001e-05, 4.37740018e-05,
          -1.79021707e-04, -2.04681396e-03, 2.12123152e-04,
          1.88368652e-03, 8.51512159e-05, 7.65920504e-06, 1.89537786e-05,
          -1.78231567e-05, -1.97008630e-05, -9.47824301e-05,
          -1.47226744e-03, 5.10184153e-04, 2.32831342e-03,
          1.38807503e-04, -1.62814522e-05, -2.45036990e-05,
          -3.96120413e-05, -8.19054694e-05, -3.42147803e-04,
          -2.03405460e-03, -8.66000424e-04, 1.58986205e-03,
          1.81422773e-04, 2.41392936e-05, 3.98991360e-05, 8.80794414e-06,
          3.20021172e-05, -1.57194067e-04, -2.16123858e-03,
          -1.06696645e-03, 2.27670185e-03, 8.17619031e-04,
          2.58420507e-04, 7.45964935e-05, -7.12013525e-06,
          -8.18219196e-05, -5.57407853e-04, -2.23214063e-03,
          6.88483589e-04, 2.36678496e-03, 7.58258830e-05,
          -1.57843515e-05, -2.24144824e-05, -3.50254813e-05,
          -7.16367140e-05, -2.96993065e-04, -2.13602209e-03,
          1.32690859e-03, 2.45674956e-03, 1.01416674e-03, 7.91817292e-05,
          -2.00281938e-04, -3.69841378e-04, -3.97881347e-04,
          -8.04509036e-04, -2.30516889e-03, -1.03429845e-03,
          1.99648202e-03, 5.62271103e-04, 1.72234679e-04, 5.45386902e-05,
          -8.58151964e-07, -4.32598317e-05, -4.40178439e-04,
          -1.97943440e-03, -9.81696576e-05, 2.22824700e-03,
          1.00127212e-03, 4.36019618e-04, -1.70563771e-06,
          -5.17228968e-04, -1.17978989e-03, -1.37037528e-03,
          -1.87884411e-03, 1.27289584e-03, 2.39964155e-03,
          6.81995996e-04, 4.27815685e-05, -1.33393885e-04,
          -2.48256925e-04, -2.85453716e-04, -6.53049094e-04,
          -2.03529210e-03, 1.45640702e-03, 2.42510834e-03,
          1.09688367e-03, 2.03669071e-04, -1.65213272e-03,
          -1.94793229e-03, -1.55359902e-03, -1.20248029e-03,
          -1.78290706e-03, -4.36728704e-04, 2.07462115e-03,
          8.57517938e-04, 3.56001838e-04, 3.60500417e-06,
          -4.30200453e-04, -1.00028701e-03, -1.24366279e-03,
          -1.78136164e-03, 1.53136777e-03, 2.09587254e-03,
          9.32790048e-04, 1.97852161e-04, -1.99568618e-04,
          -1.17280183e-03, -1.72766706e-03, -1.08653074e-03,
          -3.79667559e-04, 1.12604792e-03, 2.28087394e-03,
          9.65374173e-04, 1.54799258e-04, -1.40301639e-03,
          -1.72257225e-03, -1.37398043e-03, -1.14979944e-03,
          -1.79152179e-03, 2.06739758e-03, 2.25921092e-03,
          7.50343839e-04, -1.86069042e-06, -1.90432591e-03,
          -1.91633462e-03, -1.65208045e-03, -6.04881207e-04,
          -6.70753507e-05, 1.29884947e-03, 1.94782845e-03,
          8.70352727e-04, 1.94230306e-04, -2.32727092e-04,
          -1.42443995e-03, -1.99292577e-03, -1.46796729e-03,
          -8.79819039e-04, 1.59560994e-03, 2.08322564e-03,
          1.02602481e-03, -2.30098784e-04, -1.05157401e-03,
          -1.00366620e-03, -1.16213714e-03, -4.42092278e-04,
          2.27822806e-04, 1.96730369e-03, 2.14004028e-03, 7.41790864e-04,
          -1.08919185e-05, -2.09455751e-03, -2.10432219e-03,
          -1.94519165e-03, -8.49353906e-04, -2.56786559e-04,
          1.68847409e-03, 2.07490381e-03, 4.24621830e-04,
          -5.62699977e-04, -1.94849586e-03, -1.92818581e-03,
          -9.90312081e-04, -2.40323978e-04, 1.90589490e-04,
          1.68059033e-03, 2.14134296e-03, 1.01913104e-03,
          -1.09415880e-04, -7.07641477e-04, -9.35519114e-04,
          -1.13483274e-03, -4.24653408e-04, 2.83820322e-04,
          1.19805802e-03, 2.16861395e-03, 1.95552758e-03,
          -7.91850151e-04, -2.67121033e-03, -1.25071104e-03,
          -3.64930020e-04, -1.70120518e-04, 3.44869404e-05,
          1.79130945e-03, 2.09873728e-03, 4.96500172e-04,
          -4.11219895e-04, -2.19126930e-03, -2.09522224e-03,
          -9.79851000e-04, -2.23412921e-04, 2.16219807e-04,
          1.05786382e-03, 1.97046320e-03, 6.81179576e-04,
          -1.44267618e-03, -2.72624381e-03, -8.30068719e-04,
          -1.43400524e-04, -4.49471045e-05, 1.53192595e-04,
          1.56867749e-03, 2.23913323e-03, 2.13035708e-03,
          -9.69351458e-05, -2.53714924e-03, -7.29769352e-04,
          -2.51540827e-04, -1.09128872e-04, 1.04877850e-04,
          4.66956728e-04, 2.17785710e-03, 2.23490479e-03, 3.93811351e-04,
          -2.29680608e-03, -1.24397432e-03, -9.67952146e-05,
          1.26158620e-05, 1.17978569e-04, 1.38496608e-03, 2.23649223e-03,
          9.89362714e-04, -9.37661156e-04, -2.58504599e-03,
          -4.82305913e-04, -9.39702222e-05, -6.90152774e-06,
          2.24567368e-04, 5.34406223e-04, 1.18708704e-03, 7.20579003e-04,
          -9.57478129e-04, -2.49378523e-03, -7.12528883e-04,
          8.70345175e-05, 1.18724849e-04, 2.56583648e-04, 9.48140572e-04,
          8.02773808e-04, 9.91826179e-04, -4.20049910e-04,
          -1.74539688e-03, -3.67431676e-05, 6.87362393e-04,
          8.00967740e-04, 8.20864807e-04, 9.60119592e-04, 1.11029600e-03,
          1.17221952e-03, -2.25041993e-04, -1.62938656e-03,
          -6.72239039e-05, 6.07592228e-04, 9.51250142e-04,
          8.13262071e-04, 9.00712039e-04, 9.69012151e-04, 1.05801551e-03,
          -2.70728895e-04, -1.52864202e-03, -1.25538369e-04,
          1.03417237e-03, 1.00062101e-03, 8.26439646e-04, 1.04537979e-03,
          1.08871993e-03, 1.24384090e-03, 3.66121203e-05,
          -1.45843218e-03, 1.16314141e-05, 9.43394902e-04,
          1.26045954e-03, 1.02067611e-03, 8.72166071e-04, 9.93361813e-04,
          1.08643551e-03, -4.57639428e-04, -1.53230724e-03,
          -2.18316491e-04, 5.55889565e-04, 8.52245837e-04,
          7.27884995e-04, 9.82132391e-04, 9.52174247e-04, 6.72910537e-04,
          -7.28792045e-04, -1.40182767e-03, 2.91258795e-04,
          5.99271210e-04, 7.96571723e-04, 7.38209172e-04, 9.39565012e-04,
          9.78745054e-04, 1.14405749e-03, -2.24507196e-04,
          -1.38885691e-03, -2.19205045e-04, 8.65061244e-04,
          1.11921935e-03, 9.22068546e-04, 1.10049604e-03, 8.85508722e-04,
          7.85390963e-04, -5.12414786e-04, -1.12103974e-03,
          6.88079090e-05, 8.00159236e-04, 1.06003601e-03, 1.10561843e-03,
          9.06921632e-04, 9.22944397e-04, 7.80572882e-04,
          -2.37549335e-04, -1.14737987e-03, 3.21202126e-04,
          5.48046781e-04, 7.34185800e-04, 6.77736476e-04, 7.48622464e-04,
          1.91745057e-04, -3.08420422e-04, -1.35629531e-03,
          -1.33505056e-03, 5.64378744e-04, 9.80668236e-04,
          8.92996264e-04, 8.79614265e-04, 9.94265312e-04, 8.37443513e-04,
          7.93323154e-04, -9.96277813e-05, -1.14805845e-03,
          2.47649237e-04, 7.47910701e-04, 1.00404595e-03, 1.00325607e-03,
          1.13132957e-03, 7.80347502e-04, 8.12178128e-04,
          -5.88648138e-04, -9.12100193e-04, 5.64134389e-05,
          1.05098949e-03, 9.76181473e-04, 1.21054181e-03, 6.96628354e-04,
          2.98940518e-04, -5.75957019e-05, -1.15088152e-03,
          -1.22463610e-03, 4.90920560e-04, 8.18863104e-04,
          7.34616246e-04, 7.29296007e-04, -5.33888524e-04,
          -6.38353406e-04, -2.41585803e-04, -1.07971637e-03,
          -4.76201036e-04, 8.24594870e-04, 9.11523763e-04,
          1.10018917e-03, 9.63032246e-04, 9.49588546e-04, 6.73390692e-04,
          6.89512817e-04, -5.14589774e-04, -8.79515836e-04,
          3.93559822e-05, 8.73488141e-04, 8.18350236e-04, 1.01849006e-03,
          1.14959059e-03, 7.60360505e-04, 8.84981593e-04,
          -3.97657277e-04, -5.51419507e-04, 2.86755472e-04,
          1.03711174e-03, 1.26833038e-03, 1.34301453e-03,
          -8.26434058e-04, -9.85567225e-04, -7.02235673e-04,
          -1.48234970e-03, -1.15975342e-03, 6.22839434e-04,
          7.63398712e-04, 8.80858861e-04, 7.81796232e-04,
          -1.24115776e-03, -4.31389228e-04, 3.57707409e-04,
          1.13439586e-04, 7.03839993e-04, 8.21628491e-04, 9.22348408e-04,
          1.13500620e-03, -5.59821710e-05, 9.40602913e-04,
          5.94739278e-04, 6.31136296e-04, -7.94071646e-04,
          -8.57894483e-04, -1.34514630e-05, 8.70649528e-04,
          1.04416767e-03, 1.11652387e-03, 8.79734929e-04, 6.61725004e-04,
          6.21540588e-04, -9.12365067e-06, 2.26800839e-04,
          5.61916037e-04, 9.06066736e-04, 1.27916888e-03, 1.16236706e-03,
          -1.72906567e-03, -1.14234141e-03, -4.65759767e-05,
          -3.21135682e-04, 3.61003564e-04, 6.81191625e-04,
          7.75069464e-04, 9.76294628e-04, -4.05656989e-04,
          -1.56063261e-03, 3.50951741e-04, 4.99927904e-04,
          6.35760080e-04, 7.88666599e-04, 8.33992730e-04, 1.01662974e-03,
          9.90669010e-04, -1.56571588e-03, 6.67237153e-04,
          4.48834006e-04, 3.54653283e-04, -5.61418361e-04,
          -5.94491896e-04, 2.57940730e-04, 7.57618574e-04,
          1.10058300e-03, 9.70842666e-04, 4.91628191e-04, 6.85658830e-04,
          4.17325180e-04, 2.85211514e-04, 6.95500872e-04, 6.04615023e-04,
          8.71813449e-04, 1.06019282e-03, 6.98812248e-04,
          -2.01231474e-03, 1.40811608e-04, 3.87368025e-04,
          4.81455820e-04, 6.50718517e-04, 7.04700418e-04, 8.94553552e-04,
          8.57100822e-04, -1.96565688e-03, -1.71547569e-03,
          5.98985469e-04, 6.20374631e-04, 7.04645470e-04, 9.01365769e-04,
          7.51254673e-04, 8.94249184e-04, 6.03452383e-04,
          -1.95987266e-03, 3.48685629e-04, 5.28973527e-04,
          3.05746507e-04, 1.50727617e-04, 5.43976959e-04, 4.99365968e-04,
          7.30618834e-04, 8.93647491e-04, 5.56519721e-04, 8.07209406e-04,
          1.10330305e-03, 5.27713797e-04, 5.39206201e-04, 6.45162130e-04,
          5.25688520e-04, 9.27174930e-04, 8.39231943e-04, 6.36597048e-04,
          -2.00633379e-03, 4.00070305e-04, 4.34903282e-04,
          5.24355040e-04, 6.53904513e-04, 5.68468822e-04, 6.70417212e-04,
          4.59365692e-04, -2.19749054e-03, -2.05556396e-03,
          2.12902814e-04, 5.77674946e-04, 6.20992156e-04, 7.90715450e-04,
          5.79021929e-04, 8.11132428e-04, 3.34235694e-04,
          -2.16149865e-03, 4.83449432e-04, 7.32432818e-04,
          3.24955472e-04, 3.58617894e-04, 4.64316574e-04, 3.77100921e-04,
          6.58606470e-04, 6.02797838e-04, 3.76870827e-04, 1.69756799e-03,
          1.73891336e-03, 7.28052692e-04, 5.45443036e-04, 4.01733152e-04,
          2.88619689e-04, 5.39254979e-04, 4.14917740e-04, 6.93599985e-04,
          -2.26218556e-03, 8.97288919e-05, 3.95200710e-04,
          4.28518892e-04, 5.64408896e-04, 3.96149087e-04, 5.60534594e-04,
          1.82609787e-04, -2.36256910e-03, -2.23729922e-03,
          1.68406186e-04, 4.14223643e-04, 5.73178404e-04, 5.95038058e-04,
          6.06586342e-04, 8.50172888e-04, 3.40933359e-04,
          -2.22153543e-03, 1.02309801e-03, 1.14763214e-03,
          4.29202890e-04, 3.59018974e-04, 2.75468803e-04, 1.83495620e-04,
          3.56942939e-04, 2.33743325e-04, 3.75056930e-04, 2.12045689e-03,
          1.91221817e-03, 6.88735861e-04, 4.48379316e-04, 1.19332166e-04,
          7.04423073e-05, 2.80600856e-04, 1.58652285e-04, 4.92780586e-04,
          -2.41817697e-03, -3.88133703e-05, 2.46184034e-04,
          3.53755575e-04, 3.74167284e-04, 3.80975747e-04, 5.47791948e-04,
          1.21504694e-04, -2.38957023e-03, -2.10239063e-03,
          -3.31350398e-04, 4.34341579e-04, 5.54771570e-04,
          4.84163378e-04, 3.61910497e-04, 5.19473222e-04,
          -1.26348850e-05, -2.35917512e-03, 1.68923801e-03,
          1.63817871e-03, 3.96973279e-04, 2.47755612e-04, 1.10950414e-05,
          -5.89860701e-06, 1.30282366e-04, 6.13600423e-06,
          1.70717409e-04, 1.99212460e-03, 1.84403162e-03, 1.10170769e-03,
          6.90146873e-04, 8.92711178e-05, -8.02335562e-05,
          3.07133196e-05, -2.15019230e-04, 1.92993510e-04,
          -2.27552373e-03, -4.85108321e-04, 1.49247091e-04,
          2.68515258e-04, 2.31458733e-04, 1.78116781e-04, 2.54646206e-04,
          -1.94090215e-04, -2.39998312e-03, -2.02835235e-03,
          -1.07238465e-03, 1.02981774e-03, 1.46765541e-03,
          4.22236655e-04, 7.85714292e-05, 1.12562986e-04,
          -3.30807728e-04, -2.36454583e-03, 1.45197904e-03,
          1.46424049e-03, 4.21930657e-04, 2.16497894e-04,
          -7.95282685e-05, -1.28097410e-04, -7.34002169e-05,
          -3.00867396e-04, -3.01706343e-04, 1.02896313e-03,
          1.38626306e-03, 1.63547811e-03, 1.31830724e-03, 1.11139685e-04,
          -2.05128556e-04, -2.31066995e-04, -4.28302912e-04,
          -3.65278072e-04, -2.26113410e-03, -1.41575001e-03,
          2.42548471e-04, 5.60345594e-04, 1.69015897e-04, 9.99192162e-06,
          2.67297401e-05, -3.41023639e-04, -2.43779365e-03,
          -1.43513991e-03, 3.63767263e-04, 1.24375091e-03,
          1.26437168e-03, 1.53927540e-04, -1.12074113e-05,
          -5.88500661e-05, -1.01958343e-03, -2.24306481e-03,
          5.69032389e-04, 1.12001400e-03, 9.54820134e-04, 1.11689989e-03,
          -8.45743416e-05, -2.08103025e-04, -2.43874427e-04,
          -4.43358411e-04, -5.50177821e-04, 5.71582583e-04,
          1.22440665e-03, 1.39130536e-03, 1.01987144e-03,
          -1.40385629e-04, -1.87984479e-04, -2.67089141e-04,
          -3.65715096e-04, -6.16390083e-04, -1.88193005e-03,
          -1.10653440e-04, 8.45263305e-04, 9.81444260e-04,
          1.03473445e-04, -2.11917504e-05, -7.10202658e-05,
          -8.61160748e-04, -2.59457226e-03, -1.09872327e-03,
          7.70333572e-04, 6.85521052e-04, 5.23563824e-04,
          -1.89030725e-05, -6.62313960e-06, 3.87195469e-04,
          -7.62631171e-05, -1.92274991e-03, 4.81402472e-04,
          1.05146773e-03, 1.02502445e-03, 7.80510891e-04,
          -1.35545532e-04, -1.68171071e-04, -2.49865523e-04,
          -3.57897952e-04, -5.88390685e-04, 7.30290078e-04,
          1.21238769e-03, 8.12139886e-04, 8.13530874e-04,
          -3.31132906e-04, -1.25000835e-04, 7.25267746e-05,
          2.07987949e-04, 8.18757617e-05, -1.32602523e-03,
          6.34466298e-04, 6.74728770e-04, 5.27971424e-04,
          -8.04081810e-06, -6.60783326e-06, 2.94178171e-04,
          -1.26367391e-04, -2.23740423e-03, -1.00133906e-03,
          8.44455149e-04, 9.55885553e-05, -1.05058571e-05,
          -4.17526062e-05, -2.11151382e-05, 4.74444736e-04,
          4.91269282e-04, -1.83994463e-03, 7.05844606e-04,
          1.15590799e-03, 7.95260887e-04, 7.84829666e-04,
          -2.61829788e-04, -1.04837090e-04, 3.91367576e-05,
          1.48210631e-04, -5.57261183e-06, 1.14203501e-03,
          1.41127838e-03, -2.34801773e-05, -1.21838391e-04,
          -2.73493555e-04, -1.13852242e-04, 9.09921291e-05,
          3.10904987e-04, 2.53055186e-04, -1.24386721e-03,
          6.63503772e-04, 9.09720256e-05, 1.99780160e-07,
          -3.50784139e-05, -1.46603234e-05, 4.35268303e-04,
          5.56005631e-04, -1.98879302e-03, -7.30861851e-04,
          1.97474100e-03, 1.22029509e-04, -3.14410718e-05,
          -2.42351089e-05, -3.53432952e-05, 2.20459369e-05,
          -2.85647635e-04, -2.33737053e-03, 1.36021455e-03,
          1.23055629e-03, 1.17789805e-05, -7.48574239e-05,
          -2.31326034e-04, -9.33385600e-05, 1.03169332e-04,
          3.38009355e-04, 4.35541820e-04, 1.38118467e-03, 1.86045666e-03,
          3.01207747e-05, -1.10459128e-04, -1.84065488e-04,
          -1.25730628e-04, -1.63881181e-04, -3.43530788e-04,
          -5.94128738e-04, -6.03268505e-04, 1.83076400e-03,
          9.48236921e-05, -2.47978278e-05, -2.20882266e-05,
          -2.99485728e-05, 3.54898111e-05, -2.03022457e-04,
          -2.42525316e-03, -8.81232787e-04, 1.99758937e-03,
          4.03841870e-04, -4.47974417e-05, -2.09020363e-05,
          -3.49508882e-05, -5.83355904e-05, -4.17386473e-04,
          -2.79617729e-03, 1.55107246e-03, 1.95559696e-03,
          5.34579249e-06, -9.33940755e-05, -1.58461451e-04,
          -1.06450374e-04, -1.25559905e-04, -2.66857533e-04,
          -4.41699958e-04, 1.05543609e-03, 1.76967739e-03,
          2.32762468e-04, -1.10098423e-04, -1.33122085e-04,
          -1.30011613e-04, -1.90132443e-04, -3.88183369e-04,
          -1.07688468e-03, -7.67246529e-04, 2.24590721e-03,
          3.52413277e-04, -3.60291451e-05, -1.70797739e-05,
          -3.05844442e-05, -4.82124524e-05, -3.61602521e-04,
          -2.75006122e-03, -1.54801598e-03, 2.11428758e-03,
          7.79054768e-04, -2.45642586e-05, -2.81193315e-05,
          -2.61656551e-05, -5.59442524e-05, -1.97421643e-04,
          -2.83844327e-03, 1.33478851e-03, 2.06199498e-03,
          2.24110932e-04, -8.89172516e-05, -1.13624366e-04,
          -1.12486967e-04, -1.60174139e-04, -3.36942350e-04,
          -8.91927921e-04, -2.16084754e-05, 1.91275356e-03,
          4.10810084e-04, -6.24595050e-05, -1.21205121e-04,
          -8.44089955e-05, -1.57202274e-04, -2.51290709e-04,
          -8.50835466e-04, -1.42932055e-03, 2.25123181e-03,
          8.59552121e-04, -2.00663508e-05, -2.40411973e-05,
          -2.37830336e-05, -4.97849323e-05, -1.82794931e-04,
          -2.84284516e-03, -8.71843658e-04, 2.20993324e-03,
          5.09944337e-04, 1.99936926e-06, 4.06927720e-05, 8.23733899e-06,
          -1.04906831e-05, -1.57099523e-04, -2.70787627e-03,
          2.91587930e-04, 2.07326631e-03, 4.96399123e-04,
          -4.88842416e-05, -9.73969582e-05, -7.45892248e-05,
          -1.39586380e-04, -2.23160707e-04, -7.33612280e-04,
          -9.69025787e-05, 1.98316341e-03, 5.86654060e-04,
          1.82471747e-04, 4.13256275e-05, -9.31424220e-05,
          -1.24697966e-04, -2.28840843e-04, -7.51239306e-04,
          -8.95203266e-04, 2.02723267e-03, 5.99181629e-04,
          1.00839834e-05, 4.15453906e-05, 1.19376418e-05,
          -1.91844993e-06, -1.23744496e-04, -2.71070865e-03,
          -7.53454748e-04, 2.07141950e-03, 3.71732167e-04,
          7.34468558e-05, 1.50985186e-04, 4.06471954e-05, 1.22516285e-05,
          -2.93479970e-04, -2.51721987e-03, -2.31313084e-06,
          1.86816929e-03, 6.53625641e-04, 2.04725642e-04, 5.62846071e-05,
          -6.83754115e-05, -9.53506969e-05, -1.92501859e-04,
          -6.31709700e-04, 1.03364780e-03, 1.83827628e-03,
          5.95613499e-04, 2.39931251e-04, 1.21005462e-04,
          -1.35370035e-04, -1.87045182e-04, -2.56146537e-04,
          -8.54235142e-04, -8.78819672e-04, 2.10429123e-03,
          3.13031749e-04, 6.12345466e-05, 1.31714391e-04, 3.76998687e-05,
          1.31782845e-05, -2.38730267e-04, -2.53763027e-03,
          -1.54700479e-03, 1.91443297e-03, 5.54361206e-04,
          1.07296568e-04, 1.27834413e-04, 4.26669940e-05, 3.93105438e-05,
          -2.55890598e-04, -2.60747527e-03, 1.00931840e-03,
          1.91236264e-03, 5.48537297e-04, 2.61010311e-04, 1.28296175e-04,
          -1.15166986e-04, -1.54740963e-04, -2.13787760e-04,
          -7.14182621e-04, 1.02828501e-03, 1.92942820e-03,
          5.72350807e-04, -5.41398076e-05, -7.74430591e-05,
          -9.91319757e-05, -1.33615031e-04, -1.86537844e-04,
          -9.28582391e-04, -1.88706606e-03, 1.81973341e-03,
          4.00653691e-04, 7.58191818e-05, 8.71456505e-05, 2.60732668e-05,
          2.00660488e-05, -2.50030367e-04, -2.67367344e-03,
          -7.89130107e-04, 1.77902309e-03, 2.51370919e-04,
          2.29383950e-05, 4.58628019e-05, -1.00501684e-05,
          2.64475466e-06, -1.34769580e-04, -2.54837354e-03,
          9.75205505e-04, 2.11187615e-03, 3.67659901e-04,
          -4.36728296e-05, -7.01059471e-05, -9.79228280e-05,
          -1.35515453e-04, -1.87201629e-04, -8.37381522e-04,
          1.22805056e-03, 2.03970238e-03, 3.04178102e-04,
          -2.16530869e-04, -2.98732280e-04, -1.36351562e-04,
          -1.66077094e-04, -2.67348747e-04, -6.70623558e-04,
          -1.47264590e-03, 1.36787375e-03, 1.99954098e-04,
          1.55717371e-05, 3.13461460e-05, -8.41162273e-06,
          -1.14791689e-07, -1.34116053e-04, -2.62729730e-03,
          -4.14945331e-04, 1.40003464e-03, -1.60341278e-05,
          -1.86405414e-05, -1.53171222e-05, -6.12228105e-05,
          -8.79583822e-05, -2.88691605e-04, -2.53038038e-03,
          1.18600461e-03, 2.08411226e-03, 2.17555673e-04,
          -1.86543330e-04, -2.53494945e-04, -1.19191878e-04,
          -1.50544744e-04, -2.39825065e-04, -6.67251181e-04,
          1.40493352e-03, 2.13213917e-03, -1.55918460e-04,
          -2.55157589e-04, -3.36810073e-04, -2.06756988e-04,
          -2.75157188e-04, -3.45121196e-04, -5.41879563e-04,
          -5.97207574e-04, 1.05039694e-03, -1.44634669e-05,
          -1.76478570e-05, -1.36021617e-05, -5.04716227e-05,
          -7.08827865e-05, -2.30056976e-04, -2.59487773e-03,
          -5.42895286e-04, 2.01628404e-03, 4.04780840e-05,
          -3.64096450e-05, -6.09434974e-05, -7.83003779e-05,
          -1.76207730e-04, -7.17313727e-04, -2.71217991e-03,
          1.37454818e-03, 1.95923098e-03, -1.28567088e-04,
          -2.25645490e-04, -3.01480235e-04, -1.71835272e-04,
          -2.32652630e-04, -2.91571370e-04, -4.88188351e-04,
          1.52032904e-03, 2.07031029e-03, -1.79138253e-04,
          -2.46499258e-04, -2.57223874e-04, -2.47952557e-04,
          -3.66572902e-04, -4.69740044e-04, -9.30828566e-04,
          -5.05148200e-04, 1.81524921e-03, 1.77304428e-05,
          -2.85196820e-05, -4.54490546e-05, -5.88762341e-05,
          -1.30578177e-04, -5.42397029e-04, -2.58414657e-03,
          -2.20561909e-04, 2.18524900e-03, 6.93260692e-04,
          4.93635271e-05, -2.99122999e-04, -5.83347282e-04,
          -6.73724455e-04, -1.45119894e-03, -2.69833114e-03,
          1.55622209e-03, 1.97502389e-03, -1.55722402e-04,
          -2.04449316e-04, -2.10186787e-04, -1.86886682e-04,
          -2.81490298e-04, -3.66284658e-04, -7.06686289e-04,
          1.85543753e-03, 2.06253002e-03, 2.27815195e-04,
          -2.55269842e-04, -1.44667004e-03, -9.78690921e-04,
          -5.76515915e-04, -6.06870337e-04, -9.91673442e-04,
          6.78615877e-04, 2.27374001e-03, 6.01572043e-04, 4.34918875e-05,
          -1.31538123e-04, -2.60743516e-04, -3.16624704e-04,
          -7.89484358e-04, -2.23638723e-03, 1.00657449e-03,
          2.29925942e-03, 1.00307877e-03, 1.89908824e-04,
          -1.68765546e-03, -2.16816855e-03, -1.94935279e-03,
          -1.54041674e-03, -2.12190067e-03, 2.04843748e-03,
          2.19887751e-03, 2.29017649e-04, -1.39162294e-04,
          -6.59795362e-04, -4.87037789e-04, -3.12277494e-04,
          -3.52457864e-04, -5.60476270e-04, 1.28495134e-03,
          2.27993191e-03, 7.68297061e-04, -3.56841483e-04,
          -2.25780183e-03, -2.03780062e-03, -4.88579448e-04,
          -2.47920951e-04, -1.41408178e-04, 1.30324275e-03,
          2.42055580e-03, 1.06787658e-03, 2.19810681e-04,
          -1.01618667e-03, -1.55073206e-03, -1.24747411e-03,
          -1.06314220e-03, -1.91147055e-03, 2.24823621e-03,
          2.42542056e-03, 8.46855808e-04, 6.31548319e-05,
          -1.94124389e-03, -2.16734107e-03, -1.68592134e-03,
          -5.79026411e-04, -1.87463793e-05, 1.54190219e-03,
          2.40465906e-03, 8.43762071e-04, -1.97065325e-04,
          -2.14760960e-03, -1.44709670e-03, -3.39006510e-04,
          -1.81775336e-04, -6.94049886e-05, 9.78363096e-04,
          1.91298686e-03, 6.27883361e-04, -4.03867831e-04,
          -2.09841342e-03, -1.93795399e-03, -2.01985997e-04,
          2.90506978e-05, 2.00059731e-04, 2.40282598e-03, 2.52813078e-03,
          9.76537762e-04, 1.30958506e-04, -2.08837702e-03,
          -2.28701485e-03, -1.82225998e-03, -6.85648760e-04,
          -7.15906281e-05, 2.11108220e-03, 2.47995346e-03,
