%YAML:1.0
---
opencv_ml_svm:
   format: 3
   svmType: C_SVC
   kernel:
      type: LINEAR
   C: 1.5000000000000000e+00
   term_criteria: { iterations:10000000 }
   var_count: 945
   class_count: 10
   class_labels: !!opencv-matrix
      rows: 10
      cols: 1
      dt: i
      data: [ 48, 49, 50, 51, 52, 53, 54, 55, 56, 57 ]
   sv_total: 45
   support_vectors:
      - [ 1.36041604e-02, -5.80333266e-03, -5.72098652e-03,
          1.47427265e-02, 2.54923245e-03, 3.78138997e-04, 1.07182219e-04,
          3.40361672e-04, 9.83109116e-04, 1.95688270e-02,
          -3.57464771e-03, -1.59798265e-02, 1.03893308e-02,
          1.29608507e-03, 5.81269909e-04, 6.55431184e-04, 9.49312933e-04,
          4.39199852e-03, -1.44793070e-04, -3.54486145e-03,
          2.62326817e-03, 6.74958387e-03, -2.51785084e-03,
          -8.12373997e-04, 8.01137532e-04, -2.94557540e-04,
          1.69397227e-03, 1.60398353e-02, 2.28554606e-02, 6.76773209e-03,
          -1.44812344e-02, -2.04201303e-02, -2.13652905e-02,
          -1.38310948e-02, -9.41149052e-03, 6.45640865e-03,
          3.47704180e-02, 2.62667537e-02, 5.28728543e-03,
          -1.70842391e-02, -3.03999931e-02, -3.17794383e-02,
          -1.65776704e-02, -9.37088509e-04, 3.07815019e-02,
          3.39740664e-02, 2.25045178e-02, -4.50947882e-05,
          -1.05910404e-02, -2.94568576e-02, -3.15127075e-02,
          -1.91807617e-02, -7.95665290e-03, 1.81504916e-02,
          1.61659513e-02, -2.71287718e-04, -1.37280170e-02,
          -6.28135353e-03, -1.85195636e-02, -1.48103982e-02,
          -1.72849000e-02, -1.18768029e-02, 1.11225182e-02,
          1.27583863e-02, -3.27550666e-03, -8.22621118e-03,
          -3.00980266e-03, -1.29360873e-02, -8.97950400e-03,
          -1.77232195e-02, -1.47511363e-02, 1.21801365e-02,
          1.05584422e-02, -7.23181153e-03, -1.21139036e-02,
          -1.21520401e-03, -9.60364379e-03, -2.92771426e-03,
          -1.28429579e-02, -7.69629376e-03, 8.50736722e-03,
          7.46281259e-03, -9.25224926e-03, -1.12377265e-02,
          -5.54313743e-03, -1.22596314e-02, -4.70987894e-03,
          -1.18150292e-02, 3.85784195e-03, 1.08427173e-02,
          1.44787168e-03, -9.66709387e-03, -1.79982651e-02,
          -3.95153090e-03, -2.04763133e-02, 3.66365933e-03,
          -5.09611238e-03, 2.00299942e-03, 6.83265273e-03,
          -3.77400266e-03, -1.31904557e-02, -1.87359322e-02,
          -6.28313236e-03, -1.61252860e-02, 7.73863960e-03,
          1.34713994e-03, 5.18441247e-03, 1.24252378e-03,
          -2.08134274e-03, 2.91084201e-04, -6.54371036e-03,
          5.35496697e-03, -1.17046740e-02, 6.75276667e-03,
          -8.47411063e-03, -1.55597064e-03, 3.45641118e-03,
          1.05319523e-04, 1.77640730e-04, -1.37876971e-02,
          -2.16369794e-04, -1.86306387e-02, -5.79218147e-03,
          -1.29277688e-02, 9.53003007e-04, 1.15348892e-02,
          -9.33199190e-03, -1.56100607e-02, -1.89717989e-02,
          -6.12436188e-03, -1.96510386e-02, 2.43230839e-03,
          -5.61665418e-03, 1.50249461e-02, 2.47463281e-03,
          8.39147065e-03, -1.32730333e-02, -6.08164119e-03,
          8.22473969e-03, 1.08820731e-02, 6.35499600e-03, 4.94556036e-03,
          3.74123524e-03, 3.65293561e-03, 1.09259980e-02,
          -1.40214106e-02, -9.01388377e-03, 5.62864495e-03,
          1.07300188e-02, 7.36117270e-03, 9.08476021e-03, 5.20118419e-03,
          6.08617300e-03, 4.44465550e-03, 3.08617461e-03, 6.16632123e-03,
          1.11207627e-02, 8.95452220e-04, -5.50087541e-03,
          -7.56495865e-03, -5.45139518e-03, -7.05213845e-03,
          3.41355205e-02, 2.69506350e-02, 1.15342103e-02,
          -8.43057316e-03, -2.68216375e-02, -2.91378554e-02,
          -2.66723260e-02, -1.36461053e-02, 1.22829806e-02,
          3.77479196e-02, 2.38341857e-02, 5.29186940e-03,
          -1.49239209e-02, -2.09535137e-02, -2.70633698e-02,
          -2.31619384e-02, -2.05636341e-02, 1.26173981e-02,
          2.09693555e-02, 1.29773580e-02, 8.25098902e-03, 2.61762063e-03,
          -8.07075948e-03, -1.25481384e-02, -1.40744857e-02,
          -2.70256028e-02, 2.93642457e-04, -1.98172149e-03,
          7.18350708e-03, 7.47449137e-03, 3.94485658e-03, 4.44205198e-03,
          1.22574088e-03, 1.45079603e-03, -9.21645202e-03,
          -6.53226441e-03, -2.71367305e-03, 1.00218067e-02,
          4.47821384e-03, 2.14766804e-03, 6.57292595e-03, 1.19266589e-03,
          3.21983499e-03, -2.90164654e-03, -4.81788861e-03,
          -2.62170704e-03, 5.73673518e-03, 4.43649944e-03,
          5.53192617e-03, -1.13256706e-03, 4.65482253e-06,
          -8.47154733e-05, 3.10024689e-06, -2.75421119e-03,
          -7.04013044e-03, 2.32917001e-03, 3.84920556e-03,
          5.41096088e-03, 3.66260344e-03, 5.17279329e-03, 2.64589163e-03,
          4.03455691e-03, -5.67069184e-03, -1.82397272e-02,
          3.41016194e-03, 2.78438954e-03, 6.53704023e-03, 6.44621020e-03,
          8.83491524e-03, 8.97984672e-03, 1.41362124e-03,
          -1.11030573e-02, -2.88579203e-02, -3.89931700e-03,
          2.14633811e-03, 9.72882845e-03, 9.54154972e-03, 1.44759025e-02,
          2.05399729e-02, 1.25380857e-02, -1.73437707e-02,
          -3.29043008e-02, -7.01995334e-04, 1.63647626e-03,
          1.30655402e-02, 1.78806391e-02, 2.75096186e-02, 1.36132538e-02,
          2.16899277e-03, -2.50287484e-02, -1.14695849e-02,
          8.46026279e-03, 7.66600342e-03, 1.67866070e-02, 1.56743731e-02,
          1.47026554e-02, 7.92247895e-03, -8.40521976e-03,
          -2.03833058e-02, -3.07172770e-03, 2.08729575e-03,
          -5.04407845e-03, 7.58534623e-03, 5.27894497e-03,
          6.02765614e-03, -5.54663269e-03, -1.07198255e-02,
          -8.22895113e-03, 8.72311369e-03, 7.87589420e-03,
          2.06254888e-03, 4.66342736e-03, 2.69363471e-03,
          -9.15309321e-03, -1.14936726e-02, -5.27909026e-03,
          -5.26046613e-04, -7.69783230e-03, -2.67253583e-03,
          -5.92090795e-03, 5.03436349e-05, 6.06154650e-03,
          6.89537358e-03, 1.12149771e-03, -7.23244809e-03,
          -1.73270684e-02, -1.59053728e-02, -2.77376268e-03,
          7.83986412e-03, 9.00460966e-03, 1.08283507e-02, 3.23208515e-03,
          4.06304654e-03, -7.97925983e-03, -1.67927835e-02,
          1.02662537e-02, 6.84291869e-03, 4.18207049e-03, 3.04752286e-03,
          -3.76153132e-03, -1.96912028e-02, -1.93747375e-02,
          6.36777317e-04, 1.08846566e-02, 2.21539028e-02, 9.60726384e-03,
          9.46723507e-04, -2.84485938e-03, -2.92274728e-03,
          -1.26287052e-02, -2.29411069e-02, -2.08843555e-02,
          7.79706193e-03, 9.33644269e-03, 1.01164337e-02, 3.25238518e-03,
          1.20418391e-03, 4.25964827e-03, -3.66686931e-04,
          7.06056599e-04, -2.10252628e-02, -9.36515746e-04,
          -9.90019180e-04, 9.99402720e-03, 4.65860078e-03,
          1.26563385e-03, 7.18722632e-03, 1.13489560e-03, 3.95007199e-03,
          7.04469276e-05, -2.28324230e-03, -2.71216710e-03,
          1.74476653e-02, 5.05064288e-03, 9.11769457e-04, 4.18149633e-03,
          1.51263631e-03, 3.00295465e-03, 2.22185254e-03,
          -6.13620784e-03, -3.28422547e-03, 1.61778890e-02,
          6.25211932e-03, 1.44908403e-03, 2.11007264e-03,
          -5.17592242e-04, 2.95856665e-03, 3.85297113e-04,
          -4.85471217e-03, -5.39834285e-03, 2.00994443e-02,
          4.15677857e-03, 9.48355126e-04, 1.77171093e-03, 3.65044369e-04,
          6.77640457e-03, 2.87973345e-03, -1.23686427e-02,
          -7.92030990e-03, 2.06064899e-02, 9.93343722e-03,
          4.53341659e-03, 4.77753300e-03, 5.19600371e-03, 4.15615039e-03,
          4.21241811e-03, -1.88113581e-02, -2.54502874e-02,
          2.06096396e-02, 1.82376839e-02, 1.87567286e-02, 1.40495915e-02,
          1.36438739e-02, 1.19529031e-02, 5.65544050e-03,
          -2.85665151e-02, -2.87319515e-02, 9.64785926e-03,
          1.98119525e-02, 2.30755378e-02, 2.29549631e-02, 1.24434205e-02,
          4.55531478e-03, -1.29859215e-02, -3.27186324e-02,
          -1.16760712e-02, 7.59469811e-03, 1.82602536e-02,
          1.89025905e-02, 1.76700391e-02, 8.43362603e-03,
          -7.02545093e-03, -2.13813242e-02, -2.37784404e-02,
          2.95887329e-03, 9.42001306e-03, 1.58438832e-02, 2.35261247e-02,
          1.03051597e-02, -2.86193378e-03, -1.95696075e-02,
          -2.28252150e-02, -1.10092359e-02, 3.64347547e-03,
          4.21864726e-03, 9.21698008e-03, 1.65449325e-02, 1.98405571e-02,
          1.30146975e-02, 3.68710398e-03, -1.67122781e-02,
          -1.72709227e-02, -1.20201157e-02, 2.45114765e-03,
          3.25737521e-03, 6.13076473e-03, 1.23732705e-02, 2.03113481e-02,
          2.02553626e-02, -4.21597529e-03, -2.38486044e-02,
          -3.53083909e-02, 7.03706464e-05, 1.41374127e-03,
          2.67735310e-03, 6.54513342e-03, 1.69405565e-02, 3.00790630e-02,
          2.06961185e-02, -1.83805879e-02, -1.97229851e-02,
          -6.54518884e-03, -3.05364927e-04, -5.38746594e-04,
          -1.29749142e-05, -2.44370109e-04, 5.92081994e-03,
          2.73446310e-02, -1.28372689e-03, -6.59218291e-04,
          -1.02790985e-02, -1.81907183e-03, -1.93046231e-03,
          -1.21393365e-04, -9.24774271e-04, -4.37245937e-03,
          5.63991372e-04, 6.54856488e-03, 9.21627099e-04,
          -4.34768526e-03, -1.28314830e-03, 5.43018861e-04,
          1.13542669e-03, 8.17433320e-05, -1.27778170e-04,
          -2.99429684e-03, 9.21627099e-04, 1.48095554e-04,
          -2.10374617e-03, -7.04415317e-04, 1.37104566e-04,
          2.16467143e-03, -4.24361700e-04, -6.72211056e-04,
          -1.08351687e-03, 1.48095554e-04, 4.04134596e-04,
          -1.65570795e-03, 9.09344908e-06, -1.18672615e-03,
          2.75130413e-04, 5.55405626e-04, 3.25176836e-04,
          -1.47325452e-03, 4.04134596e-04, 2.74520810e-03,
          1.53783616e-03, 7.42740696e-04, -5.30317368e-04,
          1.65404708e-04, -6.39054342e-05, 9.99538926e-04,
          3.14062316e-04, -4.18859581e-03, 8.41926900e-04,
          1.28303003e-02, 1.46639557e-03, 1.67784983e-05,
          -3.20073712e-04, -4.28498053e-04, -1.14346936e-03,
          -5.08043868e-03, -1.23188579e-02, -1.21863978e-03,
          1.92495827e-02, 2.41625635e-03, 2.77686282e-03, 1.88040303e-03,
          1.10693066e-03, -1.54848804e-03, -5.19525912e-03,
          -2.15805955e-02, -5.29054087e-03, 2.81919576e-02,
          1.21391751e-02, 5.14486013e-03, 3.52508272e-03, 1.60407741e-03,
          -7.24954822e-04, -5.39715914e-03, -3.53377089e-02,
          -1.00845182e-02, 6.49292255e-03, 1.72650442e-02,
          1.55486912e-02, 5.10465028e-03, 9.04810964e-04,
          -8.93090793e-04, -5.40457573e-03, -2.53143106e-02,
          -1.22633958e-02, 3.27147031e-03, 9.48442146e-03,
          5.70843276e-03, -4.47991723e-03, -2.32343329e-03,
          -5.21459989e-03, -1.08264089e-02, -9.20965429e-03,
          3.69821768e-03, 4.23812307e-03, 5.75506268e-03, 6.42239582e-03,
          -1.03846341e-02, -2.03340352e-02, -1.43650994e-02,
          -7.85973389e-03, -1.68686139e-03, -1.97129394e-03,
          6.15881581e-04, 1.35711243e-03, 1.85536884e-03, 1.81106734e-03,
          9.64755844e-03, 1.63774099e-02, -1.32469344e-03,
          -1.74579490e-02, -1.30850514e-02, 1.44032249e-03,
          9.73277551e-04, 6.45125925e-04, 1.87005603e-03, 4.55869548e-03,
          1.89439375e-02, -7.59720919e-04, -2.88247736e-03,
          -1.94585398e-02, 2.46341783e-03, 2.01383489e-03,
          8.83713481e-04, 1.76416524e-03, 5.04172221e-03, 1.78375933e-02,
          2.41472088e-02, -5.77720255e-03, -1.12883803e-02,
          -2.28284579e-03, 1.03188824e-04, 3.98408767e-04,
          2.93855963e-04, 1.02943461e-03, 4.04017325e-03, 2.76185852e-02,
          -2.79422174e-03, -4.07980336e-03, -4.35377471e-03,
          2.33675877e-04, 1.93504806e-04, 6.72370952e-05, 3.32543539e-04,
          4.81710245e-04, 1.07626049e-02, 3.21837794e-03,
          -5.91389835e-04, -1.30572822e-03, 5.94098412e-04,
          1.53985806e-04, 7.11297034e-05, 3.08707211e-04, 8.99882696e-04,
          3.57886474e-03, -5.91389835e-04, -1.01069083e-04,
          -8.19898778e-05, 6.86725019e-04, 2.70398275e-04,
          3.13819939e-04, 1.11004141e-04, 1.45221490e-03, 1.47473195e-03,
          -1.01069083e-04, -6.34542550e-04, 4.04391531e-03,
          1.21628027e-03, 1.48316860e-04, 5.27005213e-05, 5.85447160e-05,
          1.86959747e-03, 8.70546617e-04, -6.34542550e-04,
          -1.00221206e-03, 1.76246173e-03, 2.67719990e-03,
          6.80925557e-04, 3.55357392e-04, 3.52840543e-05, 1.33357558e-03,
          5.18374983e-03, -1.00221206e-03, -5.58980566e-04,
          2.91006966e-03, 5.93566918e-04, 2.32688690e-04,
          -1.73309134e-04, 1.05526393e-04, 8.67014169e-05,
          2.29095016e-03, -5.58980566e-04, -1.44910801e-03,
          1.46203525e-02, 4.96111717e-03, 6.65553147e-04,
          -2.52491707e-04, 1.63893434e-04, 2.63662369e-04,
          -3.04496638e-03, -7.64574902e-03, -5.42454794e-03,
          2.98289284e-02, 8.35191179e-03, 3.86580499e-03, 5.48110947e-05,
          -2.86730909e-04, -1.87292593e-04, -1.62794744e-03,
          -2.26449594e-02, -1.01803744e-03, 1.81797128e-02,
          9.91707016e-03, 4.73086722e-03, 1.70099945e-03, 7.79485912e-04,
          3.64464126e-04, 4.74925793e-04, -2.74286307e-02,
          -6.61713956e-03, -9.02500935e-04, 1.42208133e-02,
          2.34997505e-03, -1.22318137e-03, -5.68331510e-04,
          -3.45235877e-03, -5.57988300e-04, -1.19010806e-02,
          -8.84858053e-03, 3.91477346e-03, 1.69541722e-03,
          -6.44659903e-03, -8.15621857e-03, -2.59853853e-03,
          -5.18797105e-03, -1.27039279e-03, -4.39698389e-03,
          -1.84626170e-02, -8.86959024e-03, -6.19548652e-03,
          -1.43780780e-03, -8.89244396e-03, -8.66452605e-03,
          3.10475170e-03, 8.78730230e-03, 3.50819522e-04,
          -2.64772605e-02, -1.29769277e-02, -6.36592600e-03,
          -1.52696413e-03, -5.82725788e-03, -2.51319632e-03,
          1.97999040e-03, 1.08307311e-02, 8.56327172e-03,
          -9.71222017e-03, -9.97867342e-03, -3.60662933e-03,
          -7.51432206e-04, -6.02004910e-03, -7.94369495e-04,
          -3.53759248e-03, 5.23735071e-03, 4.67472663e-03,
          -5.63189900e-03, -1.79362874e-02, -8.32486432e-03,
          -2.44249520e-03, -4.19967994e-03, -1.63799408e-03,
          -8.10999610e-03, 9.46737826e-03, 8.10078904e-03,
          4.85177524e-03, -2.12555416e-02, -9.06245317e-03,
          -2.21471116e-03, -4.39205579e-03, -2.09259591e-03,
          -4.49924450e-03, -1.97674613e-03, 7.67516717e-03,
          6.50697714e-03, -2.11904682e-02, -4.35749069e-03,
          -2.44034384e-03, -8.21761321e-03, -5.29976794e-04,
          -3.10094864e-03, -8.93296674e-03, 6.50697714e-03,
          6.08827639e-03, -1.36829717e-02, -6.30162191e-03,
          -2.61750328e-03, -7.45016569e-03, -3.63152614e-03,
          -1.54892728e-03, -1.30743152e-02, 6.62881555e-03,
          6.58912491e-03, -1.20600648e-02, -6.26337435e-03,
          -2.44697835e-03, -2.66555743e-03, -3.17339227e-03,
          -5.81087079e-03, -1.79088414e-02, 6.58912491e-03,
          8.06785189e-03, -1.37012880e-02, -8.94846302e-03,
          -1.57993787e-03, -3.89241427e-03, -3.77564318e-03,
          -8.90977122e-03, -1.36965141e-02, 8.04695021e-03,
          6.00475026e-03, -3.76401749e-03, -9.60330945e-03,
          -2.68050353e-03, -1.19042043e-02, -5.32119954e-03,
          -7.93854706e-03, -8.03856459e-03, 6.63300417e-03,
          6.15206454e-03, -5.25020994e-03, -5.92471845e-03,
          -2.37350026e-03, -1.30905369e-02, -2.65683583e-03,
          -7.11152889e-03, -9.61932354e-03, 6.39210455e-03,
          7.07364269e-03, 6.05635159e-03, -7.98456557e-03,
          -3.34276562e-03, -1.26997139e-02, -4.66916943e-03,
          -8.62034410e-03, -1.21259652e-02, -1.56133017e-03,
          9.79188178e-03, 1.52484933e-02, -6.83173817e-03,
          -2.74612545e-03, -8.30441620e-03, -1.21617282e-03,
          -1.11050885e-02, -1.44278333e-02, -1.66415311e-02,
          5.63292112e-03, 1.60032175e-02, -6.24200143e-03,
          -2.63084751e-03, -7.68706482e-03, -3.24796746e-03,
          -9.59720649e-03, -1.28700426e-02, -1.92652810e-02,
          4.06061765e-03, 9.72421188e-03, -1.52494153e-03,
          -1.45323935e-03, -1.23974886e-02, -4.12591081e-03,
          -9.93978791e-03, -8.09563231e-03, -1.20620197e-02,
          -1.12702716e-02, -1.22336643e-02, -1.49372937e-02,
          -2.90331547e-03, -1.30266631e-02, -1.55930151e-03,
          5.90419583e-03, 1.29133938e-02, 8.33199453e-03,
          -1.14233717e-02, -1.91480871e-02, -2.02076789e-02,
          -5.64089091e-03, -1.31512564e-02, -2.94571719e-03,
          5.25498763e-04, 1.96551159e-02, 1.10751828e-02, 1.55707903e-03,
          -6.11220999e-03, -1.83758568e-02, -6.05944917e-03,
          -1.81635693e-02, -2.62997369e-03, -1.15484325e-02,
          8.72223545e-03, 1.71290953e-02, 6.87880116e-03,
          -6.65528886e-03, -1.72440354e-02, -5.13716228e-03,
          -1.57484580e-02, -7.67690269e-03, -1.32930987e-02,
          -3.95821728e-04, 1.52666392e-02, 1.46500850e-02,
          -4.94793942e-03, -1.39410608e-02, -9.54956841e-03,
          -1.39795570e-02, -8.19622446e-03, -1.76738035e-02,
          -1.33191785e-02, 1.40324319e-02, 1.28956726e-02,
          -1.30820079e-02, -1.73700172e-02, -9.31075681e-03,
          -1.86828524e-02, -4.21988964e-03, -1.24875642e-02,
          -1.12026101e-02, 1.41676888e-02, 1.58489514e-02,
          -2.05376428e-02, -2.20383182e-02, -9.25007835e-03,
          -1.68272238e-02, -6.16795802e-03, -1.05656935e-02,
          -1.25587611e-02, 1.63747873e-02, 1.54038891e-02,
          -2.08185855e-02, -1.65940020e-02, -4.07561101e-03,
          -1.08254459e-02, -4.19426057e-03, -1.52274091e-02,
          -1.80403870e-02, 1.58616453e-02, 1.49456086e-02,
          -1.83989163e-02, -1.79121960e-02, -6.53786911e-03,
          -1.44990869e-02, -4.61555226e-03, -1.14348792e-02,
          -1.28339911e-02, 1.43320076e-02, 1.74301099e-02,
          -1.23008303e-02, -2.25669686e-02, -8.18719994e-03,
          -1.99293569e-02, -7.63999205e-03, -1.22432820e-02,
          -8.25581793e-03, 1.34480577e-02, 1.32920835e-02,
          -6.22837199e-03, -1.97407771e-02, -5.49642136e-03,
          -1.71256680e-02, -3.36192688e-03, -1.49152344e-02,
          -1.52372997e-02, 1.34901144e-02, 1.56986546e-02,
          -6.29228679e-03, -1.89321022e-02, -3.23935528e-03,
          -1.93807427e-02, -2.62645329e-03, -1.66548770e-02,
          -1.12720681e-02, 1.54021150e-02, 1.24049503e-02,
          1.21117383e-02, -8.03089328e-03, -3.31723550e-03,
          -1.13873268e-02, -5.55820204e-03, -1.65697131e-02,
          -1.23587511e-02, -2.11350061e-03, 1.19179115e-02,
          1.27785681e-02, -4.40233713e-03, -4.61809011e-03,
          -1.29968980e-02, -7.56879710e-03, -1.22030461e-02,
          -1.01846028e-02, -1.11022405e-03, 6.54224632e-03,
          1.43202441e-02, -2.91746063e-03, -1.14291871e-03,
          -1.50089990e-02, -2.86062877e-03, -8.77588056e-03,
          -3.51263443e-03, -3.97141278e-03 ]
      - [ 1.13715720e-03, 4.44784947e-03, 2.25413498e-03,
          -1.29337013e-02, -7.21527555e-04, 1.82428004e-04,
          4.45067099e-06, 8.92790777e-05, -1.08728895e-03,
          -1.59411121e-03, 7.33017782e-03, 1.88455789e-03,
          -1.33829669e-03, -2.20575207e-03, -1.82440889e-03,
          -3.06173670e-03, -7.92943873e-03, -1.25794252e-02,
          1.42591763e-02, 1.85208749e-02, 6.67094672e-03,
          -9.67166666e-03, -1.06295720e-02, -1.16539793e-02,
          -1.16534568e-02, -9.37013887e-03, -4.59858449e-03,
          1.95696969e-02, 1.82667803e-02, 3.21383891e-03,
          -1.34010864e-02, -1.63798723e-02, -1.73204206e-02,
          -9.47238691e-03, 1.71359023e-03, 1.46323023e-02,
          1.45823220e-02, 6.78030076e-03, -3.72491474e-03,
          -9.10490565e-03, -1.70676149e-02, -1.76667254e-02,
          -6.08265633e-03, -7.21102697e-04, 1.48172630e-02,
          1.07542397e-02, 7.93847372e-04, -1.15643451e-02,
          -8.51766765e-03, -1.26231294e-02, -4.47230693e-03,
          -7.72677548e-03, -6.13730866e-03, 6.22184202e-03,
          8.46919976e-03, -5.58708701e-03, -9.89903603e-03,
          -7.06677977e-03, -1.28929224e-02, -1.74484216e-03,
          -5.58593171e-03, -5.21902554e-03, 9.01891105e-03,
          7.44231464e-03, -9.79228970e-03, -1.33775184e-02,
          -4.96253511e-03, -5.15114190e-03, -5.10902784e-04,
          -4.24823351e-03, -2.99499254e-04, 1.01563828e-02,
          1.09766610e-02, -1.40586849e-02, -1.88979022e-02,
          -3.75801465e-04, -1.14460383e-03, 1.54581474e-04,
          7.78453425e-04, 5.21370163e-03, 1.64443981e-02,
          -4.92651307e-04, -1.54599696e-02, -1.11937998e-02,
          6.74810377e-04, 1.36618747e-03, 1.27629528e-03, 4.59350506e-03,
          1.22561706e-02, 1.84247494e-02, -6.02905592e-03,
          -2.02621631e-02, -3.09689855e-03, 1.30254030e-03,
          2.36452371e-03, 7.43454043e-03, 9.88145918e-03, 1.37640964e-02,
          1.52072683e-02, -1.05349310e-02, -1.68230906e-02,
          -6.31925184e-04, 2.31651682e-03, 4.92204260e-03,
          7.09295319e-03, 8.34631082e-03, 1.00215515e-02, 9.43668094e-03,
          -7.41920667e-03, -9.16725025e-03, 4.73612407e-03,
          4.64495504e-03, 4.84973984e-03, 4.81351558e-03, 3.32755549e-03,
          7.18867965e-03, 1.25228136e-03, -4.79299063e-03,
          -2.14791670e-03, 2.62981077e-04, -1.74901495e-03,
          -2.24887626e-03, -3.40326759e-03, -2.13219901e-03,
          2.46338290e-03, 5.39548788e-03, -3.01828957e-03,
          -2.95830192e-03, -4.31718305e-04, -5.41417277e-04,
          -3.09139164e-03, -5.05834166e-03, -7.28301064e-04,
          6.39219489e-03, 3.69624281e-03, 2.44548614e-03, 1.31777618e-02,
          1.50165032e-03, -3.69035034e-03, -9.26429965e-03,
          2.26483407e-05, 1.30573486e-03, 9.55109019e-04, 5.28641627e-04,
          6.11011591e-03, 6.68969937e-03, 4.55337763e-03,
          -6.11525588e-03, -9.81028005e-03, -1.44753337e-03,
          -1.85567460e-05, -7.88130041e-04, -2.10352242e-03,
          1.48667600e-02, 1.70977227e-02, -4.05780011e-04,
          -1.10272439e-02, -1.21942973e-02, -4.90978826e-04,
          9.11219278e-04, 2.15628053e-04, 7.80182076e-04, 2.07934082e-02,
          2.02550758e-02, -6.73801079e-03, -1.72956418e-02,
          -1.72756147e-02, -2.78470526e-03, 6.44388201e-05,
          6.97137089e-04, 3.86119843e-03, 1.51948072e-02, 1.05121648e-02,
          -1.14253443e-02, -1.54899023e-02, -1.38632311e-02,
          -1.01557141e-02, -5.26033156e-03, -3.68657475e-03,
          8.10335204e-03, 8.01804196e-03, -3.46816215e-03,
          -7.53356703e-03, -5.15594753e-03, -6.79838704e-03,
          -2.73276097e-03, -7.72992382e-03, -1.07341902e-02,
          6.63282350e-03, 6.21962082e-03, -1.11107044e-02,
          -1.32257855e-02, -5.56422630e-03, -3.95865273e-03,
          -7.23534904e-04, -2.24314118e-03, -1.96541194e-03,
          1.43228732e-02, 1.06181474e-02, -1.57634169e-02,
          -1.87127627e-02, -1.15385500e-03, 2.79613095e-03,
          1.06085336e-03, 1.66619627e-03, 2.96338229e-03, 1.95085406e-02,
          1.60679221e-02, -1.79320797e-02, -1.89846382e-02,
          -5.34545572e-04, 7.51184532e-04, 1.14861107e-03,
          1.85727607e-03, 6.71350351e-03, 2.01308690e-02, 6.93751872e-03,
          -1.72094107e-02, -1.77187156e-02, 8.09006626e-04,
          1.73804199e-03, 3.08649126e-03, 4.26771911e-03, 8.30846280e-03,
          1.90017875e-02, -6.93961466e-03, -1.81072988e-02,
          -1.19162090e-02, 1.94934045e-03, 4.51725023e-03,
          7.18297018e-03, 8.96719564e-03, 8.08995310e-03, 1.08934594e-02,
          -1.40421335e-02, -1.55476667e-02, -3.79236205e-03,
          3.53698689e-03, 8.87661055e-03, 9.92507394e-03, 9.13202018e-03,
          2.08108872e-03, -1.05674833e-03, -1.11929569e-02,
          -4.72177565e-03, 1.91611622e-03, 7.76447263e-03,
          1.19148772e-02, 9.57166217e-03, 2.90983520e-03,
          -5.48684783e-03, -1.07789645e-02, 1.26222242e-03,
          1.73322787e-03, 2.19314988e-03, 4.31743124e-03, 3.73682706e-03,
          1.29676261e-03, -1.79350632e-03, -4.10425244e-03,
          -5.57073345e-03, 3.66619811e-03, 1.34234945e-03,
          8.26302639e-05, -1.86988327e-03, -5.83836762e-03,
          -3.52735119e-03, -4.11929702e-03, 4.74169338e-03,
          5.86505327e-03, 3.03398375e-03, 4.76894528e-03, 1.18105905e-02,
          4.44902806e-03, -7.05079408e-03, -6.04719948e-03,
          -1.30145310e-03, 3.35769705e-03, 2.94509903e-03,
          5.70131990e-04, 3.95084126e-03, 2.55675777e-03,
          -5.14883501e-03, -4.02507186e-03, -1.41198514e-04,
          1.64554769e-03, 4.07849206e-03, -2.94338213e-04,
          6.15640311e-03, 9.53887776e-03, 2.55231606e-03,
          -9.01493989e-03, -9.63416975e-03, -5.32435346e-03,
          6.24287128e-03, 6.66875578e-03, 4.83620772e-03, 1.28133008e-02,
          1.14856083e-02, -5.05467504e-03, -1.20856501e-02,
          -9.04415455e-03, -8.14664736e-03, -2.97768996e-03,
          4.87953937e-03, 7.61233224e-03, 4.15318087e-03,
          -4.13051993e-03, -4.65052947e-03, -5.97498845e-03,
          -4.73482627e-03, -2.53084954e-03, -2.55948980e-03,
          -8.42854555e-04, 5.59337344e-03, 3.91274039e-03,
          -8.24419875e-03, -7.41979294e-03, -2.32478394e-03,
          4.39709891e-03, -2.26036253e-04, 6.90808578e-04,
          -1.38335314e-03, 1.15930531e-02, 9.07031354e-03,
          -1.05983252e-02, -1.27028478e-02, -5.68106212e-03,
          2.70220987e-03, 2.34507199e-04, 2.81264749e-03, 5.72507782e-03,
          1.94259845e-02, 1.23668965e-02, -8.19551200e-03,
          -1.56508368e-02, -2.45457678e-03, 5.12301596e-03,
          7.11267581e-04, 3.44318850e-03, 7.47589115e-03, 1.72197148e-02,
          1.42989634e-02, -6.07270654e-03, -1.35714235e-02,
          -3.79667873e-03, 5.87644230e-04, -1.08257588e-03,
          2.65490194e-03, 4.22387244e-03, 1.51665015e-02, 1.03735477e-02,
          -8.40851851e-03, -1.52395703e-02, -2.40240409e-03,
          2.88888323e-03, 1.83071359e-03, 4.47561359e-03, 6.91331225e-03,
          9.84500442e-03, 2.38911787e-04, -9.14211012e-03,
          -8.70766770e-03, 4.93515935e-03, 6.89836405e-03,
          5.45065571e-03, 7.71022681e-03, 7.59964995e-03, 5.14484663e-03,
          -1.43527417e-02, -5.19758370e-03, 7.45203719e-03,
          1.27014406e-02, 1.20205544e-02, 1.05978018e-02, 1.90804934e-03,
          -4.82988637e-03, -6.48174807e-03, -5.63604943e-03,
          1.71252328e-03, 1.38433222e-02, 1.64238568e-02, 1.57584697e-02,
          4.13072994e-03, -1.10120941e-02, -1.61449239e-02,
          -1.09580318e-02, -2.31293263e-03, -8.53666861e-04,
          6.83509884e-03, 1.20707359e-02, 1.04650138e-02,
          -2.73429882e-03, -9.70332045e-03, -1.03169018e-02,
          -6.07813243e-03, 1.95449102e-03, 1.86036306e-03,
          9.74892057e-04, 4.77200281e-03, 4.13984992e-03,
          -3.45083792e-03, -9.74376278e-04, 1.13128836e-03,
          2.91163754e-03, 2.35585566e-03, 2.00013490e-03, 4.66880016e-03,
          8.85749981e-03, 3.65195377e-03, -5.32636745e-03,
          -4.37528780e-03, 3.52139235e-03, 4.18249005e-03,
          2.12403573e-03, 4.56645008e-04, -2.57374311e-04,
          -4.53987252e-03, -6.63327286e-03, -4.06229915e-03,
          3.79742216e-03, 6.99570682e-03, 2.68165395e-03, 1.09908148e-03,
          9.36316326e-04, 6.60646241e-04, -1.48140965e-03,
          -1.19958641e-02, -7.91736692e-03, 3.12808435e-04,
          9.26271733e-03, 1.21540194e-02, -4.37940750e-03,
          -1.13975941e-04, -1.38987583e-04, -2.26572924e-03,
          -5.68838464e-03, -8.94415751e-03, -1.03766648e-02,
          4.09923075e-03, 7.00465171e-03, -2.37300148e-04,
          -1.75309740e-02, -1.90603576e-04, 2.10246566e-04,
          8.65111302e-04, 7.01871750e-06, 6.80351281e-04, 5.33498917e-03,
          7.67102838e-03, -6.08915172e-04, -1.96561124e-02,
          -1.97712355e-03, 7.26291735e-04, 1.34357088e-03,
          3.06190836e-04, 9.18400125e-04, 3.47625185e-03, 2.10190974e-02,
          3.94740328e-03, -1.77640282e-02, -9.66795068e-03,
          6.77051838e-04, 1.03941560e-03, -7.84308286e-05,
          8.02569557e-04, 2.46970914e-03, 2.02812422e-02, 8.57221428e-03,
          -1.43940644e-02, -1.33030899e-02, -5.00569167e-03,
          -2.07045255e-03, -2.83403741e-03, -1.10556057e-03,
          1.05805125e-03, 1.72417443e-02, 1.52478023e-02,
          -9.09184106e-03, -1.77054461e-02, -4.50193742e-03,
          -1.03081285e-03, -1.04854873e-03, -4.53101093e-04,
          7.43603508e-04, 1.34004243e-02, 1.34991091e-02,
          -7.54988659e-03, -1.44088836e-02, 6.86819549e-04,
          6.39337406e-04, 4.97277069e-04, 6.81845588e-04, 1.06142159e-03,
          1.01130474e-02, 7.11828750e-03, -2.59416294e-03,
          -9.31896735e-03, 3.33891204e-03, 2.58092093e-03,
          8.40471184e-04, -1.94888533e-04, -7.91549275e-04,
          3.32395383e-03, 2.44925322e-04, 8.46658181e-03, 2.39236141e-03,
          4.42540925e-03, 4.99552756e-04, -4.61358717e-03,
          -8.05328880e-03, -8.70559271e-03, -9.17867385e-03,
          3.92014533e-03, 1.30025698e-02, 1.67429540e-02, 1.32881356e-02,
          -3.13004269e-03, -1.17128976e-02, -1.67293157e-02,
          -1.27877677e-02, -3.24760866e-03, 4.68720245e-04,
          6.32576644e-03, 1.64200850e-02, 1.52368378e-02,
          -1.66765030e-03, -1.05904490e-02, -1.51460655e-02,
          -3.85802449e-03, -2.98076821e-03, 1.17780070e-03,
          4.47774492e-03, 1.07838083e-02, 8.15032609e-03, 1.07860178e-04,
          -1.03404839e-02, -6.74060639e-03, -2.81175016e-03,
          7.77516252e-05, 1.42706209e-03, 2.20363232e-04, 1.33467140e-04,
          7.25373742e-04, 3.00450646e-03, -6.20977441e-03,
          -4.58825519e-03, 2.52320664e-03, 8.81923456e-03,
          4.60526580e-03, 4.54929774e-04, 4.58127091e-04,
          -9.87386447e-04, -2.74464791e-03, -3.44306091e-03,
          -5.44470595e-03, -2.62948894e-03, 7.73365051e-03,
          3.97509802e-03, -3.45882261e-04, -2.18678615e-04,
          -4.14839451e-04, -1.88907888e-03, -1.01579260e-02,
          -6.68312749e-03, -5.00225637e-04, 8.41249246e-03,
          -4.95579187e-03, -3.45829711e-03, -8.34607054e-05,
          -5.87863942e-05, 9.84266153e-05, -1.28255878e-03,
          -9.79787670e-03, 2.91045615e-03, 4.90796333e-03,
          -2.19501555e-03, -1.46004288e-02, -5.34222519e-04,
          -2.89898366e-04, -2.47606549e-05, -2.61056630e-05,
          3.04006069e-04, 5.55149931e-03, 7.85954110e-03, 8.81128799e-05,
          -2.15640869e-02, -2.32938444e-03, -3.83972452e-04,
          4.08550341e-06, -8.51533914e-05, 1.44791469e-04,
          1.13243866e-03, 1.93450991e-02, 3.81175452e-03,
          -1.86991319e-02, -1.27963871e-02, -3.25446925e-03,
          -1.53205078e-03, -6.94327580e-04, -7.43784360e-04,
          2.86840764e-03, 1.65744647e-02, 1.40887657e-02,
          -1.65703800e-02, -1.75018962e-02, -5.91073604e-03,
          -4.55798209e-03, -1.27945619e-03, 1.70727819e-03,
          4.07586759e-03, 2.07574610e-02, 1.92456003e-02,
          -1.30032795e-02, -1.91015266e-02, -5.92997577e-03,
          -6.89424865e-04, 1.57246046e-04, 1.31990714e-03,
          3.95118585e-03, 1.76989194e-02, 1.76314637e-02,
          -9.65706538e-03, -2.13644952e-02, -1.20329193e-03,
          -5.83406771e-04, 7.76813322e-05, -6.02010812e-04,
          6.97655778e-04, 1.36755910e-02, 7.10306410e-03, 4.21390310e-03,
          -1.23089571e-02, -4.10876144e-03, -6.34799758e-03,
          -2.75146984e-03, -5.05359517e-03, -4.94031888e-03,
          1.10732042e-04, 9.56977531e-03, 1.42838890e-02, 1.71784882e-03,
          1.04863022e-03, -8.08713306e-03, -9.13384277e-03,
          -1.21495528e-02, -1.23994313e-02, -7.34724989e-03,
          1.53575251e-02, 1.69425011e-02, 9.68748331e-03, 1.24520028e-03,
          -5.53231547e-03, -1.78710185e-02, -1.77743677e-02,
          -9.53635108e-03, 2.70240917e-03, 9.26848967e-03,
          1.67679694e-02, 1.36099206e-02, 6.66629896e-03,
          -3.27135553e-03, -1.74841024e-02, -1.60070229e-02,
          -1.22990562e-02, -1.60969293e-03, 2.96461582e-03,
          9.82427504e-03, 1.00887045e-02, 1.11859641e-03,
          -8.54762644e-03, -1.15611376e-02, -9.21260007e-03,
          -7.86592159e-03, -5.54627273e-03, 1.26095349e-03,
          -2.01306848e-05, 3.99132623e-05, 0., 1.80780207e-05,
          -5.85015398e-04, -9.27967113e-03, -1.63627858e-03,
          1.42740319e-02, 3.35439458e-03, 2.56935949e-04, 1.23009711e-04,
          2.34855997e-05, 1.10714886e-04, 3.02164990e-04,
          -1.30636403e-02, -1.23569393e-03, 8.73478409e-03,
          7.52176577e-03, 6.18765655e-04, 1.76162226e-04, 2.17789948e-05,
          7.96525419e-05, -3.76332573e-05, -4.86172177e-03,
          -5.71155734e-03, 2.37040734e-03, -7.26376136e-04,
          8.76440201e-04, 3.36344063e-04, 3.47143563e-04, 4.86471021e-04,
          3.39129037e-04, 2.25103620e-04, -2.19235546e-03,
          1.35348749e-03, -3.04143410e-04, -1.42503725e-02,
          -3.57803045e-04, -9.56937583e-05, 2.14822168e-04,
          3.07042850e-04, 3.83371051e-04, 4.24482441e-03, 6.46752818e-03,
          5.90191667e-05, -1.92618612e-02, -1.49465946e-03,
          -1.64919620e-04, 1.12743721e-04, -3.09178813e-06,
          1.93249187e-04, 1.24873058e-03, 1.98937934e-02, 3.72990058e-03,
          -1.64595321e-02, -1.09612029e-02, -1.22548128e-03,
          3.38617305e-04, 6.45321270e-04, 4.97256347e-04, 2.64401734e-03,
          2.12407354e-02, 1.38099454e-02, -1.67489052e-02,
          -1.52778896e-02, -4.31591179e-03, 1.39522797e-03,
          1.30330131e-03, 1.45435182e-03, 3.62518476e-03, 1.87761188e-02,
          1.13273188e-02, -1.04910526e-02, -1.83556750e-02,
          -7.96185993e-03, -1.94942195e-03, 3.55700671e-04,
          1.38795062e-03, 3.96725815e-03, 1.88598167e-02, 7.57175684e-03,
          -8.67431890e-03, -1.54644810e-02, -7.69425696e-03,
          -7.51581974e-03, -5.03126066e-04, -4.21752268e-03,
          -7.58017297e-04, 1.32579627e-02, 1.01947840e-02,
          -1.48031616e-03, -1.16943568e-02, -6.74882066e-03,
          -1.30953994e-02, -6.54530758e-03, -7.82033335e-03,
          -5.81296207e-03, 1.03008831e-02, 1.11110723e-02,
          4.75836033e-03, -6.18893281e-03, -2.18757684e-03,
          -9.08667967e-03, -8.42869468e-03, -1.24039967e-02,
          -1.11867366e-02, 2.73110694e-03, 1.57509092e-02,
          1.17425555e-02, -3.65715753e-03, -3.11964750e-03,
          -7.11272564e-03, -1.23593705e-02, -1.55059760e-02,
          -1.11241415e-02, -6.41087303e-04, 1.35962255e-02,
          1.90609768e-02, 6.20914670e-03, -5.03434159e-04,
          -3.44230817e-03, -1.28421439e-02, -1.61924791e-02,
          -1.54892327e-02, -8.09031352e-03, 3.84593499e-03,
          1.13459164e-02, 3.65107832e-03, 3.25212791e-03, 6.63560524e-04,
          -2.76405714e-03, -7.32278312e-03, -1.21867228e-02,
          -1.10137826e-02, 1.93545583e-03, -1.46444631e-03,
          3.45074077e-04, 3.31520569e-04, 1.93348562e-03,
          -6.08823728e-04, -6.44232007e-03, 1.06477493e-03,
          3.38555267e-03, 2.31816433e-03, 1.15958590e-03, 1.00596796e-03,
          6.37428719e-04, 1.01945666e-03, 2.54106184e-04,
          -2.90247903e-04, -1.21973769e-03, -1.10710913e-03,
          5.74905053e-03, 5.50827710e-03, 1.40773249e-03, 3.48656846e-04,
          1.25672377e-03, 3.30643408e-04, 8.90222145e-04,
          -3.86626087e-03, -1.10536977e-03, -1.99641893e-03,
          3.19616403e-03, 1.71482784e-03, 4.74650849e-04, 1.03547971e-03,
          1.20079285e-03, 1.18327071e-03, 2.83617619e-03,
          -1.10455870e-03, -1.32823258e-03, -7.26413075e-03,
          6.96000003e-04, 2.40768827e-06, 2.13583442e-03, 4.61234769e-04,
          1.22408627e-03, 4.89435857e-03, 3.36657232e-03,
          -9.85438121e-04, -1.51457982e-02, -2.04410264e-03,
          -2.88804207e-04, 7.05912942e-04, 2.26745196e-05,
          4.89701226e-04, 1.68048439e-03, 1.59564707e-02, 1.90354185e-03,
          -1.60513446e-02, -1.07284700e-02, -2.13530031e-03,
          -6.23808999e-04, -4.95951354e-05, -6.48230198e-05,
          1.26010960e-03, 1.75523981e-02, 6.79378211e-03,
          -1.39088668e-02, -1.70706902e-02, -5.23956772e-03,
          -2.69565894e-03, -7.89129845e-05, -1.01233867e-03,
          1.38748530e-03, 1.74475163e-02, 1.07412878e-02,
          -1.23532666e-02, -1.63048413e-02, -4.81313793e-03,
          -1.05433166e-02, -3.00043263e-03, -5.03727049e-03,
          -1.75656984e-03, 1.33594330e-02, 7.15934997e-03,
          -7.91871361e-03, -1.12536587e-02, -2.53671571e-03,
          -1.01718754e-02, -4.23428789e-03, -6.25695009e-03,
          -1.14253361e-03, 8.07801168e-03, 8.70725419e-03,
          -2.87726964e-03, -9.13406722e-03, -3.58563941e-03,
          -1.15145808e-02, -6.52665319e-03, -1.05623621e-02,
          -7.37016695e-03, 8.55213217e-03, 9.23473295e-03,
          5.95114054e-03, -8.29520077e-03, -2.14916514e-03,
          -1.00895464e-02, -5.15819853e-03, -1.19364066e-02,
          -5.92201343e-03, 4.37108520e-03, 1.03119202e-02,
          7.82904588e-03, -3.92607274e-03, -2.88881804e-03,
          -4.59137838e-03, -5.78868808e-03, -1.24725280e-02,
          -9.20766219e-03, -3.03506874e-03, 9.68237128e-03,
          1.50950486e-02, 4.65594651e-03, 9.19739075e-04,
          -3.34393815e-03, -4.21534432e-03, -1.17331920e-02,
          -1.34946099e-02, -7.44927023e-03, 1.66323583e-03,
          5.84593881e-03, 3.44052026e-03, 1.28559337e-03, 2.84104515e-03,
          -2.83886609e-03, -2.23749317e-03, -7.35967094e-03,
          -4.22009546e-03 ]
      - [ -7.21058669e-03, 9.60608944e-03, 8.99554417e-03,
          8.50858283e-04, -2.85826856e-04, -6.27137162e-03,
          -1.10062519e-02, -1.55594200e-02, -1.61119867e-02,
          1.14580467e-02, 2.53386386e-02, 2.18474716e-02, 1.01002790e-02,
          -8.16541072e-03, -2.33631954e-02, -2.10687630e-02,
          -1.68851148e-02, -5.80724236e-03, 1.78482365e-02,
          1.97935216e-02, 1.59134045e-02, -2.13628213e-04,
          -1.60977710e-02, -2.29776744e-02, -1.88981704e-02,
          -9.48647689e-03, -5.26716746e-03, 8.87925178e-03,
          9.12399776e-03, -7.21068867e-03, -3.84912197e-03,
          -8.27115122e-03, -6.25306508e-03, -1.00107463e-02,
          -8.29043519e-03, -1.22097845e-03, 4.83478652e-03,
          1.88621937e-03, -1.92807883e-03, -2.92062177e-03,
          -6.33326638e-03, -3.19281756e-03, -6.62318710e-03,
          -6.85771881e-03, 1.07848202e-03, 4.04600892e-03,
          -8.36373586e-03, -3.52736376e-03, -1.60478696e-03,
          -5.62378345e-03, -4.52927127e-03, -5.49593614e-03,
          -2.72191362e-03, 7.04217702e-03, 2.97981268e-03,
          -4.32614749e-03, -9.70286692e-06, -1.25723498e-04,
          -2.16902886e-03, -2.03030114e-03, -3.82113643e-03,
          -8.13787710e-03, 2.88651278e-03, 1.20124854e-02,
          3.51609197e-03, -8.33260245e-04, -8.54176033e-05,
          -8.36435414e-04, -2.44211801e-03, -1.24299843e-02,
          -1.75523143e-02, 3.59854009e-03, 1.73284132e-02,
          9.10722301e-05, -6.51255995e-03, -7.18558091e-04,
          -7.63903977e-03, -1.25646433e-02, -1.74578987e-02,
          -1.48066785e-02, 1.06782336e-02, 6.05308218e-03,
          -1.02132028e-02, -1.07277976e-02, -2.57377746e-03,
          -1.71272084e-02, -3.05662747e-03, -1.21388966e-02,
          9.24431370e-04, 1.24630639e-02, -5.05759800e-03,
          -9.05997958e-03, -1.11654494e-02, -3.05962726e-03,
          -1.41399056e-02, 7.13308342e-03, 3.12582566e-03,
          3.47334193e-03, 3.77605390e-03, -8.02197494e-04,
          -5.33823948e-03, -1.11710643e-02, -1.15287127e-02,
          -8.69766157e-03, 2.31877342e-03, 9.46787465e-03,
          4.47247224e-03, 1.48600631e-03, 1.82597432e-02, 1.20660970e-02,
          -4.02618572e-03, -1.72185097e-02, -1.39501411e-02,
          7.34026544e-03, 8.24219547e-03, 1.07426485e-02, 1.79732554e-02,
          1.72868017e-02, 5.96068241e-03, -1.46090109e-02,
          -1.95206366e-02, -1.84804853e-02, -2.92107998e-03,
          7.61940470e-03, 1.52867148e-02, 2.34949514e-02,
          -8.38837679e-03, -1.75605062e-02, -1.87423490e-02,
          -1.89479049e-02, -1.08362623e-02, 8.76596756e-03,
          1.23944907e-02, 2.29954664e-02, 3.78124882e-03,
          -1.58537924e-03, 6.03039237e-03, 7.47377053e-03,
          1.74380839e-03, -4.55224840e-03, -9.89580434e-03,
          -9.49925464e-03, -5.18379500e-03, -2.84682913e-03,
          5.47205145e-03, 1.46201923e-02, 1.97818372e-02, 1.83275472e-02,
          -1.20174922e-02, -1.85257010e-02, -1.09879170e-02,
          -2.56413873e-03, 1.44888111e-03, 1.18184267e-02,
          1.51655599e-02, 2.00879220e-02, 1.43333264e-02,
          -1.61050260e-02, -1.99151542e-02, -1.23736067e-02,
          -7.41690304e-03, -5.28081832e-03, 2.30233045e-03,
          6.18168036e-04, 9.80032259e-04, 1.85570843e-03,
          -2.62353639e-03, -3.71141592e-03, -4.38196678e-03,
          -3.92464222e-03, -1.53009722e-03, -1.41070632e-03,
          -2.43753125e-03, -1.97665975e-03, -2.80838081e-04,
          2.25935550e-03, -1.94774315e-04, 1.91094214e-03,
          7.00365170e-04, 1.13236653e-02, -5.03395777e-03,
          -1.52216442e-02, 6.62237685e-03, 3.77114513e-03,
          4.57271980e-03, 1.32626307e-03, 1.84711430e-03, 1.77418592e-03,
          2.00973954e-02, 3.72552255e-04, -6.81545539e-03,
          6.99457573e-03, 3.97201441e-03, 5.61385741e-03, 1.39356125e-03,
          2.40385626e-03, -4.81878500e-03, -1.88978389e-03,
          1.72703471e-02, 1.06529137e-02, 3.70139256e-03, 1.60773459e-03,
          5.56485681e-03, 1.21956517e-03, -1.71430241e-02,
          -1.49355549e-02, -3.74200637e-04, 2.31237486e-02,
          9.32686683e-03, 2.58194096e-03, 3.21460422e-03,
          -4.66854312e-04, -9.09726415e-03, -2.40317136e-02,
          -1.70207415e-02, 1.72229726e-02, 1.15011036e-02,
          5.13014442e-04, -3.33934138e-03, -2.74903025e-03,
          -1.21163623e-02, -6.17374340e-03, -1.23991594e-02,
          -9.00559500e-03, 1.18857035e-02, 1.01519155e-03,
          -7.70370057e-03, -1.19931418e-02, -3.33732902e-03,
          -1.21514322e-02, -1.02443948e-06, -3.59246437e-03,
          -1.66282535e-03, 4.91586607e-03, -2.62388308e-03,
          -8.77902191e-03, -1.44880442e-02, -1.24350945e-02,
          -7.91599229e-03, 2.33868090e-03, 7.33343046e-03,
          8.49949103e-03, 5.59336692e-03, 2.06518034e-03, 3.01000499e-03,
          -1.28707988e-03, -1.49949351e-02, -6.94862287e-03,
          1.07099665e-02, 1.23334639e-02, 8.67622159e-03, 4.44419030e-03,
          1.15448982e-02, 1.09333135e-02, 1.11638978e-02,
          -9.80876852e-03, -1.18020670e-02, 5.96760726e-03,
          1.12425378e-02, 8.39059521e-03, 9.26354341e-03, 2.86474731e-03,
          -2.12145317e-03, -9.76947974e-03, -1.65512227e-02,
          -1.04758209e-02, 9.24534723e-03, 9.04394407e-03,
          1.24395713e-02, 1.00594489e-02, -1.23679027e-04,
          8.78338004e-04, 5.31558366e-03, -3.00168199e-03,
          -4.97016823e-03, 2.01960863e-03, 2.85267178e-03,
          1.56656059e-03, 9.67258471e-04, -3.86745692e-03,
          2.54316721e-03, 6.82631787e-03, 1.11573068e-02, 4.02181002e-04,
          -2.97614699e-03, -1.26278750e-03, -4.39950643e-04,
          -6.04542345e-03, -1.61629990e-02, -5.48536004e-03,
          1.01697585e-02, 1.26403077e-02, 5.42474585e-03, 1.19472702e-03,
          4.73156897e-03, -2.77516461e-04, -8.77322163e-03,
          -7.65879080e-03, -1.51385814e-02, 1.22980226e-03,
          4.03250707e-03, 4.56007384e-03, 3.63027025e-03, 7.19743688e-03,
          1.70509275e-02, 1.40678482e-02, 4.27965960e-03,
          -2.10915785e-02, -4.22000233e-03, 2.36626063e-03,
          2.85750953e-03, 8.48257798e-04, 4.15600417e-03, 1.07828695e-02,
          2.46843565e-02, -2.51806923e-03, -1.56782847e-02,
          1.64743024e-03, 1.22259243e-03, 5.69198374e-03, 3.56194447e-04,
          3.75722838e-03, 6.55291369e-03, 1.67575199e-02, 1.95359788e-03,
          -3.77362641e-03, 4.80800355e-03, 1.70898755e-04,
          6.27099490e-03, -3.33895296e-04, 4.57475102e-03,
          -8.54931027e-03, 1.95359788e-03, 2.01488994e-02,
          1.37644568e-02, 4.14110813e-03, 4.85962490e-04, 6.43223152e-03,
          -7.73115829e-03, -1.77164190e-02, -1.36450185e-02,
          3.38841765e-03, 2.55264118e-02, 1.63941700e-02, 7.66476849e-03,
          2.28873361e-03, 5.25899371e-03, -1.20721767e-02,
          -3.12102251e-02, -9.22971871e-03, 2.37822253e-02,
          2.38759331e-02, 1.91466175e-02, 5.28529519e-03,
          -8.71062948e-05, -1.30173517e-03, -1.01653766e-02,
          -2.14417987e-02, -1.87139660e-02, 6.03116024e-03,
          3.57514923e-03, 5.83839603e-03, -1.17597061e-04,
          1.82562729e-03, 2.92383018e-04, 3.17101879e-03,
          -5.44631761e-03, -1.25360135e-02, -7.37797003e-03,
          -1.42556326e-02, -1.40758732e-03, -1.41120655e-03,
          2.39437050e-03, 5.35846781e-03, 5.15400199e-03, 5.22351963e-03,
          3.85802216e-03, -1.69930723e-03, -1.99391227e-03,
          -1.53137464e-03, 5.14828076e-04, -2.20619678e-03,
          1.26495364e-03, 7.32510258e-03, 3.36335087e-03, 7.79410766e-04,
          4.23210033e-04, 4.75213444e-03, 6.19262969e-03, 1.51621539e-03,
          -3.59712471e-03, -3.71499686e-03, 1.23252263e-02,
          3.93298967e-03, 2.71862210e-03, 4.13878821e-03, 3.70940380e-03,
          2.98110396e-03, -6.48598326e-03, -4.04922431e-03,
          -2.03042384e-03, 5.92624629e-03, 3.60510102e-03,
          4.29323409e-03, 5.89412451e-03, -9.12279880e-04,
          -5.36101917e-03, -5.34118619e-03, -1.02884779e-02,
          -2.93748640e-03, 6.19216682e-03, 1.17637347e-02,
          7.57880555e-03, 1.84555468e-03, -5.19745843e-03,
          -2.00748933e-03, 6.62716502e-06, 1.18534430e-03,
          9.13534197e-04, 3.02538928e-03, 7.72270374e-03,
          -6.51909504e-05, -4.63372748e-03, -2.15879288e-02,
          -1.35332057e-02, -1.37612908e-04, 9.71332251e-04,
          2.44156946e-03, 6.78174663e-03, 1.05077121e-02, 1.01350676e-02,
          -1.01878576e-03, -1.21938102e-02, -2.87668686e-02,
          -5.98131306e-03, -6.20544597e-05, -1.67179634e-04,
          -5.74839323e-05, 4.84181708e-03, 1.92967243e-02,
          2.16150265e-02, -1.76870544e-03, -2.83995606e-02,
          -1.04989819e-02, -7.04324862e-04, 1.18220261e-04,
          -5.87597315e-04, 4.53949644e-04, 4.93788905e-03,
          2.87132096e-02, 2.97105638e-03, -2.11591609e-02,
          -2.58788187e-03, -6.13720156e-04, 5.65457922e-05,
          -4.81632218e-04, 2.49472097e-04, -2.43622856e-03,
          7.81325437e-03, 1.34594543e-02, -1.33059383e-03,
          1.32269488e-04, -2.70747150e-05, -2.87119357e-04,
          -7.18092546e-04, -2.02576094e-03, -2.56616641e-02,
          3.00276559e-03, 2.58022975e-02, 1.71710434e-03,
          -1.59449689e-03, -1.45290175e-03, -2.73695565e-03,
          -1.30527839e-02, -2.28354931e-02, -1.97906382e-02,
          8.20937753e-03, 3.22305784e-02, 7.97053892e-03, 9.91358189e-04,
          7.77078894e-05, 9.67406959e-05, -1.21387076e-02,
          -2.95818411e-02, -2.47579180e-02, 2.28676759e-02,
          2.84955632e-02, 1.67489219e-02, 5.25971234e-04, 2.73526763e-04,
          2.50396086e-04, -2.19472032e-03, -2.68591288e-02,
          -2.63455398e-02, 1.08654227e-03, 4.57265414e-03,
          1.48183769e-02, 1.14612596e-03, 5.38616965e-04, 4.91788494e-04,
          5.45284784e-05, -3.63679975e-03, -2.00485345e-02,
          -1.13315815e-02, -5.26608992e-03, 7.55891379e-05,
          9.27657168e-03, 1.23221485e-03, 9.48369619e-04, 3.88850429e-04,
          2.97031947e-04, -1.55716480e-04, -6.64325990e-03,
          -4.01019771e-03, -2.47280835e-03, 1.38372020e-03,
          4.20934614e-03, 9.33232601e-04, 2.01954995e-03, 1.15647248e-03,
          1.45396090e-03, 3.83016374e-03, 2.32191966e-03, 8.70746654e-03,
          -2.63015856e-04, -5.26086194e-03, -3.52327200e-03,
          -5.51950012e-04, 1.06302823e-03, 1.11920771e-03,
          1.60823844e-03, -3.62118636e-03, -3.11419694e-03,
          1.61688635e-03, 3.37523664e-03, -1.27539074e-03,
          -2.24156538e-03, -1.81082776e-03, -1.03870477e-03,
          -6.02775719e-04, 7.06206542e-04, -1.89228880e-03,
          -4.54960996e-03, -7.54685234e-03, -1.37435524e-02,
          -8.61400180e-03, 3.47333122e-03, 8.67526047e-03,
          5.37615176e-03, -6.79831021e-03, -7.39335641e-03,
          -5.40740497e-04, -9.34652577e-04, -3.88493499e-04,
          1.88127422e-04, -1.13176284e-05, 1.83499919e-03,
          2.68408400e-03, -1.12543674e-02, -2.26928517e-02,
          -1.40503456e-03, 1.07391032e-04, 4.35856258e-04,
          1.06750021e-03, 8.78564548e-03, 1.51597867e-02, 9.76680778e-03,
          -6.33806270e-03, -2.81124394e-02, -8.17229971e-03,
          -4.91188373e-04, -4.20055934e-04, 3.29803064e-04,
          2.17572669e-03, 1.98494960e-02, 2.39693671e-02,
          -1.69767416e-03, -2.77156830e-02, -1.24207081e-03,
          2.19271460e-05, 5.42387825e-05, 1.04054634e-04, 5.49064600e-04,
          1.12429839e-02, 2.66717337e-02, 2.36907904e-03,
          -1.21890055e-02, 3.68323264e-04, 2.74566846e-04,
          1.53118905e-04, 2.47251046e-05, 7.59996125e-04,
          -1.61436794e-03, 2.36907904e-03, 1.38920881e-02,
          1.76633673e-03, 4.41352138e-04, 3.22602689e-04, 5.26068092e-04,
          5.30514633e-04, -7.56349741e-03, -2.05397103e-02,
          3.42428987e-03, 2.46188231e-02, 6.02780608e-03, 5.21628594e-04,
          1.93881511e-04, 1.81203519e-04, -1.62515463e-03,
          -1.74758453e-02, -2.36392822e-02, 9.52433981e-03,
          2.07860544e-02, 6.35454990e-03, 1.55307236e-03,
          -1.85839296e-03, -2.66031711e-03, -1.13772117e-02,
          -1.73523463e-02, -1.70303099e-02, 7.37649808e-03,
          2.30761152e-02, 8.67141970e-03, 4.61753254e-04,
          -6.86875952e-04, -5.31686353e-04, -3.11396387e-03,
          -1.95466038e-02, -2.44659595e-02, 2.88660196e-03,
          1.24583521e-05, 1.79681201e-02, 2.02993699e-03, 7.14815629e-04,
          1.49034240e-04, 1.89954008e-04, 5.83050678e-05,
          -1.44909471e-02, -5.61882835e-03, 1.37018529e-03,
          -1.65241101e-04, 6.24678051e-03, 2.45002774e-03,
          6.92128087e-04, 4.35173337e-04, 8.31641024e-04, 1.09933212e-03,
          -8.74869246e-03, -2.97485210e-04, -2.97485210e-04,
          -5.61989844e-03, 1.63050578e-03, 5.57708147e-04,
          2.31199709e-04, 4.84654505e-04, 1.01086334e-03, 5.82041079e-03,
          -2.49883602e-03, 3.57363326e-03, -7.76345376e-04,
          -6.50613569e-03, -2.71122041e-03, -6.41718158e-04,
          1.00089426e-04, -8.63842433e-04, 1.55882735e-03,
          1.60048157e-03, -1.30407431e-03, -4.33060341e-03,
          4.33436269e-03, -1.32524711e-03, -1.28938828e-03,
          -8.70066870e-04, -8.66920571e-04, -1.58419483e-03,
          -1.49726833e-03, 2.68208419e-06, 4.25465551e-05,
          -1.81534371e-04, -3.51616670e-03, -6.95995521e-03,
          -6.34422386e-03, 4.11455194e-03, 1.57060858e-03,
          -1.98168941e-02, -9.47056711e-03, -1.32460264e-04,
          -4.04499006e-04, -1.71742970e-04, -2.35026004e-04,
          3.28142941e-03, 1.28126722e-02, 2.86607957e-03,
          -1.00728683e-02, -2.94294916e-02, -1.97185553e-03,
          -1.64544181e-04, -3.16816840e-05, 4.96779612e-05,
          1.36855454e-03, 1.30809173e-02, 2.46146154e-02,
          -5.54979220e-03, -2.97688097e-02, -3.49374535e-03,
          1.30355344e-04, -1.63990626e-05, 1.67961465e-04,
          1.15080772e-03, 1.26010105e-02, 2.93177906e-02,
          -4.77201742e-04, -2.84459181e-02, -4.81338007e-03,
          -2.56765547e-04, -1.45619176e-03, 1.35212234e-04,
          1.80058443e-04, 4.45180759e-03, 2.66823247e-02, 6.23530988e-03,
          -1.78446118e-02, -2.79661035e-03, -2.32475242e-04,
          -1.55040144e-03, -3.91533511e-04, -2.25419668e-03,
          -1.31354909e-02, 6.23530988e-03, 2.24236809e-02,
          3.86730814e-03, 1.63790071e-03, 3.32024385e-04, 5.32891077e-04,
          -1.69133500e-03, -1.72445253e-02, -2.41490863e-02,
          3.69932200e-03, 2.87982076e-02, 4.52856999e-03, 3.34750535e-03,
          9.88360844e-04, 1.89734227e-03, 2.39636487e-04,
          -1.99764613e-02, -2.54646521e-02, 5.11795515e-03,
          2.69446112e-02, 3.65426065e-03, 5.09314938e-04, 1.70262138e-04,
          6.69262139e-04, 1.76119793e-04, -2.41757836e-03,
          -2.58825719e-02, -8.61836423e-04, 2.11566836e-02,
          2.05715420e-03, 8.63050227e-05, 5.12236846e-04, 3.40124621e-04,
          -2.06724697e-04, -1.58036104e-03, -1.85539965e-02,
          -4.06187493e-03, 6.38986472e-04, 4.76211030e-03,
          2.36650303e-04, 2.90910830e-04, 4.54112233e-05, 1.57664850e-04,
          2.70096149e-04, -5.89065393e-03, -2.95165693e-04,
          1.16694591e-03, -3.07413247e-05, -6.84499042e-04,
          -1.02564249e-04, -3.63143306e-04, 1.45803817e-04,
          1.18300748e-04, -1.27219269e-03, -5.24704671e-03,
          -2.27040448e-03, -4.74191271e-03, -1.00236293e-03,
          -2.84028501e-04, -3.46532150e-04, 1.14741943e-05,
          -1.89068873e-04, -7.04051461e-04, 6.73600147e-03,
          -1.14929839e-03, 3.90764151e-04, 1.76456495e-04,
          2.27685712e-04, -3.60355079e-05, 1.77912807e-05,
          -1.01838545e-04, 4.76006069e-04, 5.49886050e-03,
          -1.71406835e-03, -3.17084091e-03, -2.90373596e-03,
          7.06583401e-03, 4.64951294e-03, 3.23710236e-04, 2.44444178e-04,
          1.17769476e-03, 4.81737591e-03, -4.59941570e-03,
          1.98343256e-03, 3.19879362e-03, 3.29503411e-04, 7.44578755e-03,
          9.71677830e-04, 5.85751142e-03, -1.88348326e-03,
          -1.83877640e-03, -1.44717516e-02, -5.97032206e-03,
          1.16017659e-03, 6.42991043e-04, 4.18864330e-03, 1.68553449e-03,
          1.09515795e-02, 1.82932615e-02, -3.49719590e-03,
          -5.26292901e-03, -1.46941328e-02, -1.83427858e-03,
          -4.45994519e-04, 3.22404457e-03, 1.06201787e-03,
          2.73882342e-03, 1.61973443e-02, 1.17331473e-02,
          -1.35892059e-03, -2.10128855e-02, -6.02694694e-03,
          -3.73793097e-04, -3.09928763e-03, 1.27089990e-03,
          -3.09733325e-04, 1.10252090e-02, 1.64818019e-02,
          4.31797886e-03, -1.51847247e-02, -5.42606739e-03,
          -3.69576784e-03, -6.78857369e-03, -1.54621468e-03,
          -4.32508206e-03, -3.46862548e-03, 1.20593943e-02,
          9.35051590e-03, -1.17092617e-02, -8.06775689e-03,
          -3.00529809e-03, -6.40933355e-03, -5.19238785e-03,
          -1.22469421e-02, -1.26644736e-02, 9.35051590e-03,
          1.59498565e-02, 3.21463076e-03, -2.64230720e-03,
          -3.44923628e-03, -5.54720731e-03, -6.43670280e-03,
          -2.09071320e-02, -2.06452683e-02, 9.61702876e-03,
          1.77403763e-02, 4.02670773e-03, -8.73691897e-05,
          -7.73335341e-04, -4.31925710e-03, -3.42763495e-03,
          -1.90549232e-02, -1.93862673e-02, 6.11402374e-03,
          2.08719354e-02, 3.73103481e-04, -2.24760175e-03,
          -3.89050314e-04, 8.99625593e-04, 5.61602865e-05,
          -3.58632329e-04, -2.36719847e-02, 2.36756940e-04,
          1.24771725e-02, 3.47366743e-03, 8.27021024e-04, 5.61482972e-04,
          1.54853310e-03, 6.45607652e-04, 1.03866635e-03,
          -9.95975547e-03, -3.80763109e-03, -1.75621826e-03,
          8.43560789e-03, 4.40598786e-04, 1.51647371e-04, 1.67704001e-03,
          5.32605445e-05, 9.39374324e-04, 2.80179805e-03,
          -1.75621826e-03, -4.51029232e-03, 1.12762945e-02,
          1.19162456e-03, 7.00748409e-04, 3.31515213e-03, 1.70298759e-03,
          2.03983253e-03, 6.70658937e-03, -2.81866384e-03,
          -5.56779420e-03, -2.09841441e-04, 6.03942433e-03,
          2.53865984e-03, 7.20585836e-03, 4.78933856e-04, 1.69742096e-03,
          4.35236422e-03, -5.12116938e-04, -4.32205247e-03,
          -6.91638701e-03, 7.21432455e-03, 3.38189001e-03,
          6.08206633e-03, -1.70035346e-04, 7.55368499e-04,
          4.54716897e-03, 9.61001962e-03, -4.08916036e-03,
          -4.89569083e-03, -4.29934415e-04, 4.24705958e-03,
          4.62754676e-03, -7.41937984e-05, 2.25076918e-03,
          7.99263641e-03, 4.70987707e-03 ]
      - [ -1.19046830e-02, 1.30556105e-03, 1.64415576e-02,
          6.14516484e-03, -2.88989308e-04, -2.11606314e-03,
          -3.23504047e-03, -5.12819737e-03, -1.13940965e-02,
          -7.04986090e-03, -7.63334276e-04, 9.67713911e-03,
          6.10149605e-03, -2.24782532e-04, 9.50422109e-05,
          -1.63468253e-03, -1.34158228e-03, -8.06952361e-03,
          -1.67208863e-03, -1.99430878e-03, 6.06673863e-03,
          1.38566713e-03, -5.50725847e-04, 4.51899221e-04,
          2.56910484e-04, 5.09129779e-04, 1.57371257e-03,
          -2.33064475e-03, -3.62865906e-03, 1.69099635e-03,
          7.32693821e-04, 1.25130150e-03, 2.92341516e-04, 4.79753275e-04,
          2.95693264e-03, 1.22518614e-02, -2.57295626e-03,
          -7.13188294e-03, 2.78801098e-03, 5.23241994e-04,
          7.78956455e-04, 2.17159468e-04, 1.73006661e-03, 3.06403241e-03,
          1.63661819e-02, -1.21226592e-03, -8.61775782e-03,
          3.12929013e-04, 1.01171352e-03, 1.93086846e-04, 3.33030985e-05,
          5.29138488e-04, 2.16206745e-03, 1.41569329e-02,
          -4.69288236e-04, -1.43558402e-02, -9.36066033e-04,
          2.42898008e-04, 9.05530687e-05, 5.14802341e-05,
          -2.39875197e-04, 1.12704537e-03, 1.81423053e-02,
          3.03969544e-04, -1.45907765e-02, -1.19900459e-03,
          -9.31705348e-04, -8.78721417e-04, -3.10053583e-05,
          -1.90497783e-03, 1.02544983e-03, 1.51294572e-02,
          2.68650497e-03, -9.00929328e-03, -2.08710320e-03,
          -1.69905112e-03, -2.11011409e-03, -2.77588447e-03,
          -3.99222970e-03, 2.59824144e-03, 5.49952639e-03,
          6.63576475e-06, 3.18348571e-03, 1.52851758e-03, 4.56038106e-04,
          -1.30848828e-04, -4.75031848e-04, 1.38044171e-03,
          -6.28810329e-03, 1.12311682e-03, 9.42704082e-03,
          3.46387154e-03, 1.47639075e-03, 1.57862238e-03, 1.53092609e-03,
          2.46802089e-03, -7.16298399e-03, -3.47935176e-03,
          2.68643955e-04, 8.55576340e-03, 4.56448551e-03, 2.59857578e-03,
          2.79353932e-03, 5.62000601e-03, -1.08392611e-02,
          -9.66300350e-03, 1.37809559e-03, 1.17265433e-02,
          9.26690549e-03, 5.25930244e-03, 4.63157892e-03, 4.95098671e-03,
          -3.34638776e-03, -1.33021520e-02, -1.59097183e-02,
          6.42258115e-03, 1.37211857e-02, -4.94958600e-03,
          -6.48513343e-03, -7.55885243e-03, -1.15659158e-03,
          -9.82031599e-03, -3.88320535e-03, -4.70864819e-03,
          8.22477415e-03, 5.54083753e-03, -1.04537131e-02,
          -7.75876315e-03, -1.08053805e-02, -3.76575557e-03,
          -9.00811423e-03, 6.10932242e-03, 4.26964927e-03,
          5.91501687e-03, -1.63201650e-03, -1.78112090e-02,
          -8.37343372e-03, 1.48685221e-02, 1.55192325e-02,
          1.09199677e-02, 5.01317019e-03, 2.80579389e-03, 1.64263265e-03,
          -2.45011668e-03, -1.41998883e-02, -8.53868015e-03,
          1.72560327e-02, 1.10032307e-02, 7.23003130e-03, 4.25155135e-03,
          3.08849150e-03, 6.42727478e-04, -1.21839007e-03,
          -5.65764308e-03, -2.07862607e-03, 1.09113352e-02,
          6.83831982e-03, 3.44012235e-03, 1.94765988e-03, 1.87451707e-03,
          1.51055661e-04, -3.34472535e-03, -5.38321736e-04,
          -1.84513698e-03, 1.99613231e-03, 1.81890326e-03,
          1.55099167e-03, 8.33287340e-05, 2.19384194e-04, 3.28528782e-04,
          1.09696214e-03, -3.89945402e-04, -3.34538170e-03,
          -2.40412727e-03, -3.94479954e-04, 1.84521032e-03,
          -6.85679610e-04, 8.62819201e-04, -1.05014292e-03,
          4.64957254e-03, -4.92773717e-04, -9.11441259e-03,
          3.60624027e-03, 2.02208129e-03, 2.31366558e-03, 5.83200890e-04,
          9.27950838e-04, -1.36840797e-03, 1.74277939e-03,
          -9.46280579e-06, -4.06462792e-03, 4.08143410e-03,
          2.15678243e-03, 3.51871666e-03, 2.25188269e-04, 5.93248638e-04,
          -5.82005316e-03, 1.82711519e-03, 7.34557165e-03,
          2.45701498e-03, 2.12907209e-03, -5.15967549e-04,
          1.77139207e-03, -2.56985915e-03, -5.68199577e-03,
          -8.04843102e-03, -6.30538561e-04, 1.21571654e-02,
          5.57176024e-03, 2.48035649e-03, 7.01866928e-04,
          -6.98736962e-03, -9.86753590e-03, -1.32203288e-02,
          -9.53482836e-03, 7.36544747e-03, 1.19426921e-02,
          2.90342304e-03, 1.40129111e-03, -7.13355257e-04,
          -7.43220048e-03, -1.20127378e-02, -9.74738318e-03,
          -1.22743659e-03, 6.11699978e-03, 6.08465960e-03,
          3.37896496e-03, 1.74479140e-03, 2.71626469e-03,
          -2.30612513e-03, -8.27128533e-03, -4.56557563e-03,
          -4.01289435e-03, 9.37233400e-03, 2.53665028e-03,
          1.82597630e-03, 3.19873518e-03, 7.84069672e-03, 5.45563363e-03,
          -6.62914896e-03, -5.99150732e-03, 6.50278851e-03,
          5.45524573e-03, 4.21907986e-03, 3.70708597e-03, 4.49695345e-03,
          1.24860732e-02, 1.05166640e-02, -4.90998337e-03,
          -1.21482359e-02, -9.38964542e-03, 1.68809245e-04,
          -4.99767065e-03, 3.86610162e-03, 4.84249927e-03,
          7.46659841e-03, 6.13526162e-03, 5.57170622e-03,
          -1.49550638e-03, -6.21820521e-03, -6.15158910e-03,
          -5.38855745e-03, -4.73749405e-03, -7.18019996e-03,
          7.53539614e-04, 3.84477968e-03, 1.27987321e-02, 6.66653551e-03,
          -6.64315652e-03, -1.17594628e-02, -1.14083728e-02,
          -9.26446449e-03, -1.13864398e-05, 6.02809992e-03,
          7.52763217e-03, 8.32939893e-03, 3.44433892e-03, 9.79776378e-04,
          -4.36895201e-03, -2.03835145e-02, -1.48769729e-02,
          7.78867910e-03, 1.09014194e-02, 1.17586832e-02, 1.30679179e-02,
          7.97865540e-03, 5.86329494e-03, -2.77929381e-03,
          -1.43118603e-02, -1.13137970e-02, 8.61642882e-03,
          7.68299075e-03, 6.57553971e-03, 6.22585043e-03, 8.63908231e-03,
          7.72662740e-03, 2.73875822e-03, -3.85438767e-03,
          -6.06181566e-03, 3.56064527e-03, 2.14362820e-03,
          2.48462521e-03, 7.01879326e-04, 2.33300822e-03, 8.71831831e-03,
          5.57722850e-03, -2.76996498e-03, -2.93825613e-03,
          2.91382289e-03, 1.30768586e-03, 3.21218907e-03, 3.49487440e-04,
          2.21790886e-03, 5.12958644e-03, 6.50953269e-03,
          -1.90094975e-03, 1.00611860e-03, 2.98926933e-03,
          2.01428498e-04, 4.75507509e-03, -2.63575930e-04,
          2.76089180e-03, 2.71327118e-03, -1.75328483e-03,
          2.37464043e-03, 7.73515599e-03, 1.97303738e-03,
          -6.40303502e-03, -3.09965806e-03, -6.18187059e-03,
          -1.75995787e-03, -2.41866661e-03, 2.31918483e-03,
          1.02670891e-02, 1.24502052e-02, -7.87327159e-03,
          -1.20921433e-02, -7.63099687e-03, -6.94015389e-03,
          -4.02414100e-03, -3.25174304e-03, 7.33605679e-03,
          1.72516778e-02, 1.16441557e-02, -6.24688948e-03,
          -1.28605859e-02, -9.52104107e-03, -1.23427762e-02,
          -4.60787723e-03, -1.17704854e-03, 1.27403280e-02,
          1.64536610e-02, 1.27878692e-02, 2.47815344e-03,
          -9.86329094e-03, -1.07958596e-02, -1.40117053e-02,
          -4.44258144e-03, 3.46615049e-03, 1.12462621e-02,
          1.03905853e-02, 8.75146128e-03, 4.04087966e-03, 5.54071390e-04,
          -8.40436667e-03, -9.40802507e-03, -8.53084307e-03,
          -1.75011193e-03, 3.85875348e-03, 2.29489408e-03,
          8.56741518e-03, 9.66226589e-03, 1.46531761e-02, 6.72880094e-03,
          -6.89068809e-03, -1.34100048e-02, -1.36887850e-02,
          1.00956648e-03, 1.35855938e-04, 6.39820611e-03, 1.35865584e-02,
          1.71222594e-02, 1.68096665e-02, 2.07072683e-03,
          -1.59026701e-02, -1.68074276e-02, -1.63091253e-02,
          -4.00949270e-03, 7.31106102e-03, 1.06273144e-02,
          1.42525993e-02, 1.41483927e-02, 8.99888296e-03, 5.40687004e-03,
          -1.41520649e-02, -1.41668739e-02, 5.58783591e-04,
          1.95119053e-03, 6.99465442e-03, 1.57290343e-02, 1.63000673e-02,
          3.68507789e-03, -8.38129688e-03, -1.41167650e-02,
          -1.41555630e-02, -1.38791231e-02, -4.31775162e-03,
          4.25962498e-03, 8.81444942e-03, 1.24469064e-02, 1.22084366e-02,
          7.63469283e-03, -5.39399777e-03, -1.19284904e-02,
          -1.83498953e-02, -2.07479615e-02, 2.44663027e-03,
          4.19816235e-03, 9.08634719e-03, 1.28067322e-02, 1.74657498e-02,
          1.42945219e-02, 2.98896199e-03, -2.00863015e-02,
          -2.12263968e-02, 1.00624119e-03, 2.34253076e-03,
          3.86562524e-03, 7.83178583e-03, 1.47118997e-02, 1.79065838e-02,
          1.55200707e-02, -9.65516455e-03, -1.71900578e-02,
          5.21343900e-04, 4.84888762e-04, 6.59530284e-04, 3.13194003e-04,
          2.26197089e-03, 1.54802958e-02, 1.07231308e-02, 6.14952703e-04,
          -7.94184115e-03, 6.55726995e-04, 3.54733114e-04,
          1.23657042e-03, 4.85325290e-04, 1.27869309e-03, 2.32938374e-03,
          7.29547988e-04, 5.04586753e-03, 1.92859548e-03, 1.93429238e-03,
          2.57291191e-04, -7.58225331e-03, -9.56088398e-03,
          -7.93574098e-03, -6.06596284e-03, 4.82804421e-03,
          1.59569532e-02, 4.88134474e-03, 8.26730626e-04,
          -8.94090813e-03, -1.56526063e-02, -1.71413105e-02,
          -8.41527618e-03, -1.18442508e-03, 1.48371980e-02,
          2.04078201e-02, 4.04306734e-03, -1.20953610e-02,
          -1.43333441e-02, -1.29261240e-02, -1.42531255e-02,
          -9.30529740e-03, -1.62874092e-03, 2.04805899e-02,
          2.24692766e-02, 6.53014798e-03, -1.32022575e-02,
          -1.28133548e-02, -1.29291862e-02, -1.08311521e-02,
          -8.28458369e-03, -4.21659462e-03, 1.74128804e-02,
          2.11577658e-02, 1.51013238e-02, -3.44969868e-03,
          -1.14851194e-02, -1.67358797e-02, -1.48172220e-02,
          -1.02216536e-02, -2.09764508e-03, 9.66485683e-03,
          8.17205943e-03, 8.99429340e-03, -8.83853645e-04,
          -2.40447884e-03, -4.18402534e-03, -1.11011127e-02,
          -1.23186465e-02, -1.12168174e-02, -3.52562615e-03,
          7.82112591e-03, 9.46762413e-03, 7.85451289e-03, 5.20128012e-03,
          3.55661102e-03, -1.07423011e-02, -1.75308771e-02,
          -1.76020376e-02, -6.55630647e-05, 1.22146262e-03,
          5.70286717e-03, 9.88848135e-03, 1.42289028e-02, 6.27858378e-03,
          -3.90984677e-03, -1.40844136e-02, -1.44448802e-02,
          -1.24795726e-02, -3.40999127e-03, 2.62987590e-03,
          9.88441706e-03, 1.11348704e-02, 3.56738269e-03, 4.89156882e-05,
          -5.13568055e-03, -1.32710114e-02, -1.39312297e-02,
          1.01454649e-03, 5.65024372e-03, 8.81102215e-03, 9.42825805e-03,
          -3.81801324e-03, -1.20851044e-02, -1.27989380e-02,
          -1.03674354e-02, -4.07929113e-03, -1.79426279e-02,
          -8.24727956e-03, 3.13535187e-04, 1.21251284e-03,
          4.44869976e-03, 1.04397470e-02, 1.43074077e-02, 9.26539674e-03,
          -9.18341428e-03, -1.24359671e-02, -1.86024085e-02,
          -1.90413301e-03, 5.87019080e-04, 2.63818711e-05,
          4.62429365e-03, 1.25728324e-02, 1.19144665e-02, 5.59899351e-03,
          -9.61797405e-03, -1.76845472e-02, -4.82536014e-03,
          -1.16021198e-03, -2.79112812e-03, -3.53696756e-04,
          3.07268486e-03, 1.19265635e-02, 7.81327020e-03,
          -2.73649488e-03, -1.35723809e-02, -4.47263150e-03,
          -1.01609156e-03, -6.23624912e-03, -3.69106862e-03,
          -7.73521559e-03, 8.12773220e-03, 5.98489353e-03,
          7.88454898e-03, -7.65850721e-03, -3.93063342e-03,
          -2.50765239e-03, -1.28843337e-02, -5.15209604e-03,
          -8.94176867e-03, -6.95881387e-03, 7.60493334e-03,
          1.72134098e-02, -1.47473137e-03, -3.91524611e-03,
          -4.31245705e-03, -1.37172388e-02, -1.37592116e-02,
          -1.33477245e-02, -1.17351022e-02, 1.07873892e-02,
          2.08219308e-02, 1.47845154e-03, 3.58120364e-04,
          -6.50873291e-04, -1.40756592e-02, -1.63553599e-02,
          -1.56005081e-02, -1.19364290e-02, 2.13568546e-02,
          2.00070217e-02, 2.97766807e-03, 3.76293407e-04,
          -1.31877232e-03, -3.59833403e-03, -1.20290136e-02,
          -1.72255971e-02, -1.58078242e-02, 2.12236904e-02,
          2.24842038e-02, 8.27845559e-03, 1.17049960e-03,
          -2.25794129e-03, -2.76404107e-03, -6.81913132e-03,
          -1.97851863e-02, -1.75559409e-02, 1.73679516e-02,
          2.11419966e-02, 1.35374535e-02, 2.05968448e-04,
          -2.61147041e-03, -5.04311966e-03, -1.12395929e-02,
          -1.72420330e-02, -1.64652523e-02, 1.11647125e-03,
          4.03684191e-03, 8.03523883e-03, 3.71157122e-03, 3.10341624e-04,
          -9.47891094e-04, -2.10347236e-03, -5.44488663e-03,
          -1.49146682e-02, -7.34983850e-03, 2.88971118e-03,
          -3.20993131e-03, -1.04650401e-03, 1.64689717e-03,
          -5.20804082e-04, -8.74207471e-04, -2.19798018e-03,
          -6.38313533e-04, 1.90418214e-03, -2.82465457e-03,
          -2.38668942e-03, 2.69773859e-03, 4.18438995e-03,
          1.76839030e-03, 3.85262174e-05, -7.29566045e-06,
          -6.01136009e-04, 2.89332471e-03, -9.16123576e-03,
          -2.06385087e-03, 9.22744628e-03, 5.85718220e-03,
          3.21758387e-04, -8.05050251e-04, -3.29274393e-04,
          -1.05983228e-03, -8.15076928e-04, -7.65245827e-03,
          -3.60700360e-04, 5.42914914e-03, -3.39390151e-03,
          -8.11723061e-03, -3.25240614e-03, -9.75111965e-04,
          -3.21661966e-04, 3.54922784e-04, -1.18891234e-02,
          -1.24441311e-02, -8.09535477e-03, -3.48995952e-03,
          -1.13719087e-02, 3.73432966e-04, 3.95851955e-03,
          8.59068241e-03, 4.74098185e-03, -7.75020011e-03,
          -9.72042140e-03, -1.33912964e-02, -5.67831285e-03,
          -1.24233840e-02, -9.91495210e-04, -2.21305131e-03,
          1.05298264e-02, 1.04692951e-02, 2.92342319e-03,
          -8.42478778e-03, -1.19122090e-02, -3.80095816e-03,
          -1.32882344e-02, -4.76949336e-03, -1.14125730e-02,
          3.13225621e-03, 1.20222941e-02, 6.71692239e-03,
          -7.48456549e-03, -9.00070649e-03, -3.38143832e-03,
          -1.03830043e-02, -6.09848136e-03, -9.24778916e-03,
          -4.79541108e-04, 8.79115984e-03, 9.40232631e-03,
          -5.21514798e-03, -5.71394991e-03, -2.13789311e-03,
          -1.50696486e-02, -4.19321842e-03, -1.04138125e-02,
          -5.62885823e-03, 8.33458081e-03, 1.22214528e-02,
          -3.46683245e-03, -1.36666128e-03, -8.36447231e-04,
          -1.08296005e-02, -8.34792294e-03, -1.46408733e-02,
          -1.32574905e-02, 8.79696012e-03, 2.07122155e-02,
          2.44779303e-03, 8.94509212e-05, 9.89453747e-06,
          -8.33493017e-04, -5.97221125e-03, -1.98363774e-02,
          -1.82654280e-02, 1.11267064e-02, 2.12220754e-02,
          5.34430426e-03, 2.32887734e-03, 6.22295251e-04, 1.24496466e-03,
          1.55315109e-04, -2.07325630e-02, -1.95328835e-02,
          1.52523387e-02, 2.06341874e-02, 7.25712953e-03, 1.04725407e-03,
          1.37764597e-04, 5.23971743e-04, 5.89310075e-04,
          -2.09767278e-02, -1.84352584e-02, 1.58304255e-02,
          1.78214628e-02, 7.26729166e-03, 1.07707875e-03, 5.05462580e-04,
          6.32069656e-04, 3.61033686e-04, -1.02428235e-02,
          -1.78893749e-02, -1.18882803e-04, 2.29497603e-03,
          -5.39457146e-03, 1.60648150e-03, 4.89241560e-04,
          2.67905998e-04, 5.16081462e-04, 4.55533474e-04,
          -4.92939120e-03, 8.88453447e-04, 1.44736469e-03,
          -5.13223605e-03, -7.33092474e-03, 3.21501197e-04,
          2.18977977e-04, 2.29151236e-04, 2.98358529e-04, 7.00182165e-04,
          1.08681750e-02, 1.05143408e-03, -2.41769268e-03,
          -4.58588218e-03, 1.76112502e-04, 1.16125288e-04,
          4.51197920e-05, 1.12850415e-04, 9.31324830e-05, 2.83039222e-03,
          -6.42275391e-03, 1.41969183e-03, 8.24361946e-03,
          6.15364581e-04, 3.81896862e-05, 2.87725538e-06,
          -6.79262348e-06, 4.65738151e-04, -4.50991938e-04,
          -8.59883334e-03, -7.62792595e-04, 1.87801357e-04,
          6.60908176e-03, 1.86981563e-03, 6.98798467e-05,
          -3.67137021e-04, 2.28355333e-04, 1.85247278e-03,
          -4.96617984e-03, -6.28910214e-03, -7.99444411e-03,
          -4.25654510e-03, -8.34391732e-03, -3.34629579e-03,
          -6.43546355e-06, 7.78556010e-03, 5.01299649e-03,
          -4.68603708e-03, -8.06668960e-03, -1.13207959e-02,
          -6.06746320e-03, -1.10680563e-02, -3.33231851e-03,
          -4.26329253e-03, 9.74089652e-03, 8.21993873e-03,
          2.24513467e-03, -4.91756620e-03, -9.77602042e-03,
          -5.13111101e-03, -8.28446355e-03, -4.63567395e-03,
          -1.16748838e-02, 1.51233969e-03, 1.13561833e-02,
          6.27318211e-03, -8.97885207e-03, -9.95030534e-03,
          -4.09988593e-03, -7.85819627e-03, -2.67883809e-03,
          -8.01094901e-03, -1.75188587e-03, 1.00671193e-02,
          6.83298521e-03, -5.77161601e-03, -8.83844029e-03,
          -2.85282591e-03, -1.21740708e-02, -2.92695919e-03,
          -6.14048587e-03, -8.38854467e-04, 6.96365070e-03,
          8.40861071e-03, -4.64497227e-03, -7.34632509e-03,
          -4.33070818e-03, -1.12174451e-02, -6.02043327e-03,
          -1.18081924e-02, -8.17441195e-03, 8.76913965e-03,
          1.12174591e-02, -3.59360967e-03, -6.47442276e-03,
          -1.15963386e-03, -7.27725727e-03, -6.42209733e-03,
          -1.47084845e-02, -1.34068057e-02, 7.74240121e-03,
          1.57554112e-02, 2.55247438e-03, -1.80334551e-04,
          3.79794983e-05, -5.12187695e-03, -9.76495631e-03,
          -1.60679817e-02, -1.39944209e-02, 8.49561021e-03,
          1.35259228e-02, 1.69065082e-03, -3.69897789e-05,
          -4.45893529e-05, 3.22961510e-04, -1.75357424e-03,
          -1.17663378e-02, -1.54991429e-02, 3.31187365e-03,
          1.26610063e-02, 4.99306293e-03, 3.87618638e-04, 9.24927826e-06,
          1.22321909e-03, 5.13342093e-04, 7.40997202e-04,
          -1.56679135e-02, -1.31882005e-03, 1.01526990e-03,
          -6.28876267e-03, 1.38077768e-04, -5.67530042e-05,
          9.54086834e-04, 4.60388910e-05, 6.32590672e-04, 1.90762716e-04,
          7.10468506e-04, -6.25013432e-04, -8.64079129e-03,
          -4.85332496e-03, 1.03754028e-04, 2.05457537e-03,
          1.32106454e-03, 1.36008847e-03, 3.28765367e-03, 1.36636253e-02,
          2.27216305e-03, -9.87452571e-04, -7.04378169e-03,
          1.54240534e-03, 4.73172124e-03, 2.36742082e-04, 6.05480745e-04,
          4.78906702e-04, -3.91727779e-03, 1.43538869e-03,
          2.69895629e-03, 1.64236315e-03, -2.72340374e-03,
          -1.06037318e-04, -5.86875307e-04, -8.66014336e-04,
          5.50507684e-04, -8.49042367e-03, 5.72383869e-04,
          2.65840837e-03, 2.71367957e-03, 7.72406711e-05,
          -1.69957755e-03, -1.98727466e-05, -1.76119711e-03,
          -3.76152527e-03, -1.84694352e-03 ]
      - [ -8.58539995e-03, 1.12891197e-03, 3.85382050e-03,
          -1.50178140e-03, 1.32369518e-03, 2.39488741e-04,
          1.13002352e-04, 2.39754401e-04, -2.66397197e-04,
          -4.94482880e-03, 3.64066684e-03, 8.72410648e-03,
          5.57305245e-03, 1.79472542e-03, 3.26875015e-04, 3.49051406e-04,
          6.44586107e-04, -9.00758244e-03, -2.36525782e-03,
          1.44384904e-02, 6.97279070e-03, 2.02669739e-03, 1.14812469e-03,
          5.86185139e-04, 6.65462227e-04, 1.01556198e-03,
          -1.31395627e-02, -6.52671384e-04, 1.53350020e-02,
          2.51033995e-03, 9.16917692e-04, 9.89689142e-04, 3.27925780e-04,
          5.40625369e-05, -2.51419935e-03, -7.39819044e-03,
          3.74844624e-03, 9.38858930e-03, 1.60561281e-03, 2.64376256e-04,
          1.37046256e-04, -1.43491139e-04, 2.06472570e-04,
          -7.52189290e-03, -4.47408529e-03, 1.89674906e-02,
          1.06577268e-02, 7.78292655e-04, 2.68641510e-04, 2.56696396e-04,
          1.83217679e-04, -6.82028523e-03, -1.85085908e-02,
          -4.16130526e-03, 2.00907309e-02, 1.06967911e-02,
          6.67038374e-04, 3.86982400e-04, 5.30828082e-04,
          -3.58474255e-03, -1.96239818e-02, -1.87480301e-02,
          1.11913253e-02, 1.79059356e-02, 3.00680194e-03,
          -1.34933434e-04, 5.43657225e-04, -2.51753931e-03,
          -1.73721872e-02, -1.67630259e-02, -9.61949863e-03,
          1.67408008e-02, 1.17717525e-02, -8.05591047e-03,
          -7.46710971e-03, -3.46539170e-03, -9.35409684e-03,
          -7.68120494e-03, -1.13785677e-02, -3.51937534e-03,
          1.12271067e-02, 8.83641373e-03, -4.32182010e-03,
          -1.17980959e-02, -3.53244925e-03, -1.37818651e-02,
          -4.47635353e-03, -6.86794007e-03, 4.98336833e-03,
          1.27038276e-02, 2.78249499e-04, -7.15853786e-03,
          -1.20559521e-02, -7.92386290e-03, -1.10519119e-02,
          -7.37170747e-04, 2.30561185e-04, 8.07515811e-03,
          5.89319412e-03, 2.78052315e-03, -8.49287212e-03,
          -1.17629739e-02, -1.17356768e-02, -9.34094284e-03,
          3.36718350e-03, 6.31651795e-03, 7.23535148e-03, 6.12541754e-03,
          1.34936068e-02, 3.37266014e-03, -1.20751793e-02,
          -1.18204542e-02, -8.03021435e-03, 4.61108051e-03,
          6.13127649e-03, 7.51798274e-03, 1.42575270e-02, 1.41609712e-02,
          -1.00156025e-03, -1.68455821e-02, -1.72500014e-02,
          -9.17022489e-03, 6.97159732e-04, 2.73628323e-03,
          1.44926999e-02, 1.78761315e-02, -1.02569871e-02,
          -1.38044786e-02, -1.38635840e-02, -1.38841663e-02,
          -1.75528228e-03, 2.59820349e-03, 7.98105076e-03,
          1.60547066e-02, 7.02178711e-03, -1.90948864e-04,
          2.18410953e-03, 5.20378817e-04, 7.24646525e-05,
          -4.03703330e-03, -4.25279886e-03, 1.94269978e-03,
          1.81386305e-03, 2.18170392e-03, -8.49045161e-03,
          -2.52168882e-03, 3.94287566e-03, 2.02972395e-03,
          3.63783608e-03, 1.84132101e-03, 1.74588955e-03,
          -1.55522267e-03, -6.24898868e-03, -3.85081582e-03,
          -1.02034525e-03, 5.07269241e-03, 5.19107468e-03,
          3.29293869e-03, 3.56716802e-03, 2.74775247e-03,
          -4.15916322e-04, -1.15978532e-02, 3.28688533e-03,
          1.36157097e-02, 3.70646501e-03, 1.38629868e-03, 9.55390045e-04,
          -1.35151743e-06, -9.60616861e-04, -1.54533265e-02,
          -1.18612712e-02, 1.12674357e-02, 1.13174496e-02,
          2.51129852e-03, -3.02949862e-04, -3.50470305e-04,
          -3.91400885e-03, -1.47817628e-02, -1.54300388e-02,
          -2.07828800e-03, 1.72551777e-02, 7.74725340e-03,
          3.35393497e-03, 9.71140689e-04, 1.45662331e-03,
          -3.48092034e-03, -1.48877585e-02, -1.49879185e-02,
          8.32328165e-04, 1.85306184e-02, 6.55271765e-03, 4.19090874e-03,
          1.68494694e-03, 3.07930051e-03, -1.48311937e-02,
          -1.52181666e-02, -1.15891034e-02, 1.55839277e-02,
          1.74551122e-02, 6.37523038e-03, 2.41202116e-03, 6.60714693e-04,
          2.27427910e-04, -1.95019115e-02, -1.64760184e-02,
          1.58919708e-03, 1.73557047e-02, 1.14705823e-02,
          -1.30379817e-03, -5.50258718e-03, -3.90784349e-03,
          -1.11226132e-02, -1.32259224e-02, -9.04830266e-03,
          4.99445654e-04, 1.11107873e-02, 3.79538443e-03,
          -3.59991100e-03, -7.68194767e-03, -1.74427667e-04,
          -1.03437603e-02, -7.68685888e-04, -3.96974990e-03,
          2.37657363e-03, 5.39608812e-03, -2.73790630e-03,
          -8.48421734e-03, -8.51835497e-03, -2.53019016e-03,
          -2.88633746e-03, 6.22064667e-03, 1.80351187e-03,
          9.14773031e-04, -1.17259484e-03, -5.21023758e-03,
          -9.61192697e-03, -1.10890614e-02, -8.03316664e-03,
          -2.63563776e-03, 6.98010391e-03, 9.97744128e-03,
          1.57942472e-03, 1.09631591e-03, 2.35478324e-03, 2.11216230e-03,
          -1.20946122e-02, -1.14856381e-02, 3.35069024e-03,
          1.46020288e-02, 8.39564390e-03, 6.03740150e-03, 3.26163974e-03,
          9.91298258e-03, 7.67563609e-03, -3.95195372e-03,
          -1.27789639e-02, -1.32997415e-03, 8.17552395e-03,
          5.35415160e-03, 8.34574923e-03, 1.09871980e-02, 2.72799982e-03,
          -7.06830621e-03, -1.47313364e-02, -1.22138951e-02,
          2.56418274e-03, 7.12308381e-03, 1.60746207e-03, 6.26289193e-03,
          4.04964620e-03, -3.10210069e-03, -4.34905989e-03,
          1.42417115e-03, 7.34827947e-03, -7.21343735e-04,
          2.23788564e-04, -4.55843750e-03, -1.11230940e-03,
          -1.12438295e-03, -5.35457628e-03, -1.09624444e-02,
          -1.09764570e-02, 1.93425745e-04, 9.29358322e-03,
          1.28965667e-02, 9.38288774e-03, 4.45951475e-03,
          -1.01867854e-03, -1.14863226e-02, -8.71567521e-03,
          -5.61349373e-03, 4.71928297e-03, 6.08094130e-03,
          9.13983863e-03, 1.12786395e-02, 8.04987736e-03,
          -2.84343655e-03, -1.08796172e-03, 5.33920666e-03,
          4.77827154e-03, 2.96311523e-03, 2.36307620e-03, 1.85865466e-03,
          -2.28094007e-03, -4.97633312e-03, -4.07989463e-03,
          1.81691889e-02, 8.71117134e-03, 3.08152474e-03, 1.04020059e-03,
          1.57671922e-03, -4.32771514e-04, -1.90832410e-02,
          -1.38125950e-02, 1.17861256e-02, 1.80931687e-02,
          5.29515371e-03, 2.70275609e-03, 5.73101570e-04, 2.36334023e-03,
          -5.39562246e-03, -1.78859010e-02, -1.30896997e-02,
          1.74910072e-02, 1.84319671e-02, 5.54765528e-03, 2.22341553e-03,
          -7.55342844e-05, -1.83480186e-03, -1.90250985e-02,
          -1.61756687e-02, 1.00825724e-04, 1.81872174e-02,
          1.78125054e-02, 9.16961953e-03, 2.94986600e-03, 9.68929729e-04,
          1.82231620e-03, -1.93020869e-02, -1.61676127e-02,
          4.22469294e-03, 1.77381486e-02, 1.46446889e-02, 6.50387909e-03,
          2.97178118e-03, 4.06177132e-04, 1.23907602e-03,
          -1.32978456e-02, -1.33271236e-02, -1.11900941e-02,
          8.32492299e-03, 2.33656028e-03, 6.61689369e-03, 4.59731062e-04,
          1.09504978e-03, -4.57156508e-04, 1.83787692e-04,
          -5.44658536e-03, -9.32914950e-03, -1.15697866e-03,
          -9.56494303e-04, -1.86309940e-03, -3.85451154e-03,
          -2.90225097e-03, 1.66795787e-03, 4.00607800e-03,
          3.44210537e-03, 3.66779952e-03, -4.78186226e-03,
          -5.08457888e-03, -5.00916969e-03, -4.43415623e-03,
          -2.48194928e-03, 9.63961147e-03, 8.08376633e-03,
          4.95905569e-03, 3.84050631e-03, 3.29734734e-03, 5.57785155e-04,
          -2.89811031e-03, -5.52150281e-03, -4.38694051e-03,
          1.49202002e-02, 8.57756380e-03, 3.50829400e-03, 9.97897470e-04,
          5.17895911e-04, 4.32729535e-03, 5.95425162e-03,
          -8.51233304e-03, -6.39890367e-03, 1.29250344e-02,
          9.64292604e-03, 3.13715334e-03, 2.34244647e-03, 3.69449239e-03,
          3.20786698e-04, 1.42681471e-03, -7.12155411e-03,
          -3.48837767e-03, 1.45713391e-03, 3.00624711e-03,
          1.85341272e-03, 3.65480944e-03, 1.12575002e-03,
          -2.70277518e-03, -8.29749275e-03, -9.08202585e-03,
          -7.30902096e-03, 6.51394774e-04, 2.90286448e-03,
          4.29381384e-03, -4.45278529e-05, -2.57878797e-03,
          1.50017743e-03, -5.53460512e-03, -1.64463203e-02,
          -1.51371332e-02, -5.02758287e-03, 1.14551531e-02,
          1.62825231e-02, 1.39368651e-02, 5.56594878e-03,
          -6.73950976e-03, -1.34261921e-02, -1.39731076e-02,
          -1.28300823e-02, -7.41344225e-03, 5.86524419e-03,
          1.48471883e-02, 1.45967212e-02, 7.69613590e-03, 8.45517730e-04,
          -3.38181760e-03, -1.64078688e-03, -2.20989785e-03,
          -1.22391502e-03, -1.11567276e-03, -1.23204011e-02,
          1.61229784e-03, 3.85327125e-03, 1.68272424e-02, 1.24475802e-03,
          5.17558947e-04, -1.37992936e-06, -1.11474641e-04,
          -8.84218980e-03, -1.87668223e-02, -1.10055478e-02,
          2.01803930e-02, 2.00201105e-02, 2.48815189e-03, 8.16224492e-04,
          3.67149216e-04, 6.64966356e-04, -1.19468849e-02,
          -2.38552522e-02, -2.76126456e-03, 1.99474916e-02,
          1.93271525e-02, 2.94240704e-03, 8.43788730e-04,
          -9.79807926e-04, -2.48771207e-03, -1.76776741e-02,
          -1.74147375e-02, -1.18791824e-02, 1.85189415e-02,
          1.99917629e-02, 2.80605583e-03, 8.11727718e-04, 6.22584485e-05,
          -1.18814161e-04, -1.85960792e-02, -1.79953370e-02,
          -1.05542298e-02, 1.99653860e-02, 2.11080015e-02,
          6.05408521e-03, 8.43019690e-04, 3.95645358e-04, 5.72362915e-04,
          -4.68800822e-03, -1.70864966e-02, -1.65628195e-02,
          4.51166090e-03, 3.40120727e-03, 7.90832099e-03, 5.24118252e-04,
          2.45149655e-04, 2.87255010e-04, 2.44286464e-04,
          -8.37077387e-04, -1.11338058e-02, -4.57996735e-03,
          1.02382456e-03, 3.46076768e-03, 2.03584204e-03, 1.37436017e-03,
          1.04736793e-03, 5.20635862e-04, 1.35368944e-04, 2.56330182e-04,
          -9.68960300e-03, -1.43404497e-04, 2.67706404e-04,
          -4.34592878e-03, 2.64616031e-03, 2.22134730e-03,
          5.03402378e-04, 2.46224896e-04, 3.51407536e-04, 1.13238103e-03,
          7.37447012e-03, -4.15230682e-03, -3.38814431e-03,
          7.44879292e-03, 3.79955070e-03, 1.16029009e-03, 5.80006395e-04,
          6.46805041e-04, 1.69582525e-03, 7.15922099e-04,
          -8.35272367e-04, -6.68719877e-04, -2.49293866e-03,
          2.37854081e-03, 1.16435881e-03, 6.32773677e-04, 1.03478378e-03,
          1.05893682e-03, 4.05833067e-04, -3.52880917e-04,
          -1.68951531e-03, -2.40500155e-03, 4.86954534e-03,
          1.48912414e-03, 1.24350260e-03, 1.44907495e-03, 6.24824665e-04,
          -8.69723409e-03, -1.06598372e-02, -1.07617211e-02,
          -8.74567684e-03, -1.56548969e-03, 1.51542714e-03,
          6.42503425e-03, 5.25672082e-03, -3.73450783e-03,
          2.68208259e-03, -9.17840190e-03, -1.48063023e-02,
          -1.66009199e-02, -1.16672693e-02, 5.59795275e-03,
          1.04721077e-02, 1.59879085e-02, 1.55091705e-02, 5.86416665e-03,
          -1.61230832e-03, -9.26831737e-03, -1.66738071e-02,
          -1.63561068e-02, -1.66665530e-03, 3.12578469e-03,
          9.61339846e-03, 1.37862014e-02, 1.57702714e-03,
          -6.77133771e-03, -5.71233360e-03, -7.43975304e-03,
          -8.14049318e-03, -9.36313719e-03, -9.49091278e-03,
          6.21906295e-03, 8.20215605e-03, 1.37852896e-02, 2.23672716e-04,
          9.03290056e-05, -1.21727353e-03, -3.48253478e-03,
          -1.49686011e-02, -1.38929859e-02, -4.55443794e-03,
          1.17547270e-02, 1.90240256e-02, 3.73501657e-03, 1.11353036e-03,
          3.17104947e-04, 4.47021885e-04, -1.72942933e-02,
          -1.89517438e-02, -3.96138057e-03, 1.88995339e-02,
          1.96028519e-02, 6.25392376e-03, 1.41212158e-03, 9.21831350e-04,
          1.49044281e-04, -5.03794244e-03, -1.91662870e-02,
          -1.75310709e-02, 1.71449035e-02, 1.84001308e-02,
          3.93599598e-03, 1.35381438e-03, 2.92335335e-05,
          -2.20429851e-04, -4.78228694e-03, -1.74299106e-02,
          -1.50938090e-02, 8.79130419e-03, 1.65695623e-02,
          4.70109051e-03, 1.01399201e-03, 6.61467551e-04, 3.55654862e-04,
          -5.50899713e-04, -8.63343477e-03, -1.53147569e-02,
          -5.91105316e-04, 2.51460169e-03, 5.93320560e-03,
          7.03321188e-04, 1.43944577e-04, 9.67851738e-05, 5.86457099e-05,
          -3.06323818e-05, -7.28977984e-03, -2.34828680e-03,
          1.25028333e-03, -4.18212381e-04, 1.48284470e-03,
          2.86139286e-04, -8.30666759e-05, 2.72009667e-04,
          5.08613884e-05, 3.81664402e-04, -2.43282737e-03,
          5.23412251e-04, -2.48157629e-03, -3.07821343e-03,
          -1.28341388e-04, -1.98525755e-04, 3.72633222e-04,
          -1.95259679e-04, -7.47456332e-04, 1.25866022e-03,
          2.08496512e-03, 2.09045410e-03, -7.96881411e-03,
          -2.17275415e-03, 1.20388642e-04, 1.40536315e-04,
          -6.10262970e-04, 2.23703973e-04, 1.93365838e-03,
          2.53006769e-03, -6.90803863e-04, -1.75390113e-03,
          6.47359004e-04, -6.43231906e-04, -1.32241301e-04,
          -2.45912408e-04, 2.46037016e-05, -9.71449772e-05,
          3.85496486e-03, -1.24759437e-03, -6.85258186e-04,
          -4.76572633e-04, 4.51826374e-04, 4.60043957e-05,
          5.56663617e-05, 3.90570967e-05, 2.31453523e-04,
          -1.09448340e-02, -1.40162148e-02, -4.49241512e-03,
          -7.59381102e-04, 9.88521264e-04, 3.36976675e-03,
          9.17210989e-03, 4.36541857e-03, -1.41740544e-03,
          -9.30652581e-03, -1.46546047e-02, -1.47417802e-02,
          -1.38777131e-02, -5.15785720e-03, -3.91958747e-04,
          4.42298502e-03, 1.88910589e-02, 1.84958819e-02, 5.12551703e-03,
          -9.62453615e-03, -1.18427752e-02, -1.20974332e-02,
          -1.20022111e-02, -8.62702634e-03, -8.88611283e-03,
          6.00016350e-03, 1.66998617e-02, 4.53098118e-03,
          -9.34549514e-03, -3.76851065e-03, -2.76365201e-03,
          -9.05512553e-03, -7.47651700e-03, -1.06267733e-02,
          -1.44350051e-03, 1.00646932e-02, 1.43482015e-02,
          -1.35204336e-03, -2.27315730e-04, -1.42102828e-03,
          -8.78698286e-03, -1.07533038e-02, -1.30010778e-02,
          -1.02936402e-02, 8.15881509e-03, 1.89750642e-02,
          4.28717537e-03, 4.26315004e-04, 3.33698699e-04,
          -1.26587023e-04, -4.78304643e-03, -1.84840523e-02,
          -1.60855930e-02, 1.32662868e-02, 1.68955736e-02,
          2.63876561e-03, 9.58140183e-04, 9.09224211e-04, 5.82090870e-04,
          6.51129114e-04, -1.78453065e-02, -1.42796403e-02,
          1.31190354e-02, 1.92798618e-02, 2.42135604e-03, 9.25000524e-04,
          2.81918765e-04, 5.08261321e-04, 8.19091394e-04,
          -6.35386398e-03, -1.54380649e-02, 4.77623631e-04,
          1.29170530e-02, 3.54096852e-03, 4.94719250e-04, 8.68780044e-05,
          2.00465613e-04, 1.29627486e-04, -4.94248525e-04,
          -1.76761840e-02, 1.43658937e-04, 1.46893930e-04,
          2.07825354e-03, 3.88427317e-04, 1.50420601e-04, 1.49255939e-04,
          1.04766281e-04, 9.66689840e-05, -2.82177981e-03,
          -1.77182337e-05, 2.98395957e-04, -3.50898161e-04,
          3.54798947e-04, 1.04872262e-04, -6.15608369e-05,
          1.22050878e-04, 1.06189500e-05, 6.71866583e-04,
          -2.56265223e-04, -5.39852830e-04, 3.99325712e-04,
          2.00515242e-05, -1.22394980e-04, 9.56198128e-05,
          1.46302089e-04, -2.94418169e-05, -3.80496844e-04,
          3.08349292e-04, -6.15154160e-04, -4.30593034e-03,
          4.12810914e-04, 1.82182266e-05, 3.84194209e-05, 4.10552821e-05,
          5.74995192e-06, 1.72344153e-04, 6.52200403e-03,
          -4.53369605e-04, 8.56504892e-04, -4.75949608e-03,
          2.56432744e-04, 6.57022028e-05, -3.20769891e-06,
          6.93615050e-07, 2.23565818e-04, 2.18255795e-03, 3.58903408e-03,
          -3.36574321e-03, -2.16030004e-03, 1.63017109e-03,
          1.52484223e-03, 9.92441346e-05, 1.41092954e-04, 3.08112096e-04,
          3.36774089e-03, -5.09801600e-03, -7.69677805e-03,
          5.34725757e-07, 2.22716058e-04, 2.15812633e-03, 1.68821216e-03,
          8.92363023e-03, 1.39095820e-03, 1.11399428e-03,
          -5.26407780e-03, -1.09983152e-02, -1.00986976e-02,
          -1.82019221e-03, -3.38947168e-03, -3.01845110e-04,
          -7.66929472e-04, 1.32059008e-02, 4.45912452e-03,
          3.88434972e-03, -4.82533546e-03, -7.62699917e-03,
          -3.76869785e-03, -1.05421590e-02, -6.25466835e-03,
          -9.71364696e-03, 1.42263714e-03, 8.19884054e-03,
          6.89086178e-03, -6.82411436e-03, -6.63363468e-03,
          -1.40872016e-03, -9.68742371e-03, -3.99598246e-03,
          -1.00943577e-02, -3.49419820e-03, 1.00453570e-02,
          8.71747360e-03, -4.00041463e-03, -7.33766565e-03,
          -5.24091127e-04, -8.81574862e-03, -7.16407271e-03,
          -1.11983642e-02, -7.58489128e-03, 7.61215575e-03,
          1.63611080e-02, -2.29961169e-03, -5.60055021e-03,
          -1.41202530e-03, -9.23687872e-03, -1.23858452e-02,
          -1.26182567e-02, -1.08608231e-02, 9.65565536e-03,
          1.68747269e-02, 1.02284527e-03, -1.22884661e-03,
          -4.54582128e-04, -2.41533597e-03, -3.80629976e-03,
          -1.68150570e-02, -1.33382734e-02, 5.26549434e-03,
          1.59757100e-02, 1.56022096e-03, 3.33167467e-04, 2.78384134e-04,
          5.25591895e-04, 9.88113970e-05, -7.48830673e-04,
          -1.66795235e-02, -1.69144856e-04, 4.07910580e-03,
          2.54388340e-03, 1.19091099e-04, 1.27624362e-05, 4.26312588e-04,
          9.25286149e-05, 2.72621983e-04, -1.07099926e-02,
          5.33886952e-04, -5.39591594e-04, 1.86754111e-03,
          1.27911873e-04, 2.51225014e-08, 6.08309929e-04, 2.39589819e-04,
          6.00981468e-04, 9.79058561e-04, -5.53666381e-04,
          -4.59318806e-04, 1.03483023e-03, 7.15528004e-05, 0.,
          6.97183073e-04, 9.54458883e-05, 4.35398717e-04, 1.82709389e-03,
          -5.03084331e-04, -2.21809465e-03, -6.70616806e-04,
          4.71042003e-04, 4.72481741e-04, 1.93907123e-03, 7.88017467e-04,
          8.93407036e-04, 4.38226853e-03, 1.97202223e-03,
          -1.10674347e-03, -8.65864474e-03, 2.07961048e-03,
          1.08535751e-03, 3.08222114e-03, 1.58851675e-04, 6.17299054e-04,
          3.80053977e-03, 7.14790355e-03, -3.32533591e-03,
          -2.66759610e-03, 1.10045774e-03, 1.41007756e-03,
          3.66057712e-03, 4.50582389e-04, 2.01894599e-03, 2.01143650e-03,
          4.15711338e-03, 5.74294943e-04, -3.13470722e-04,
          -4.83350828e-03, -2.23731669e-03, -7.93620129e-04,
          -2.22636759e-03, 4.65548714e-04, 2.61173490e-03,
          2.95193959e-03 ]
      - [ 3.24547989e-03, -5.75635396e-03, 3.64162354e-03,
          1.30870054e-02, -3.54628544e-03, -1.15847308e-03,
          -4.96103009e-03, -8.05259962e-03, -9.40503553e-03,
          -3.79270874e-03, -3.35582090e-03, -6.93231076e-03,
          1.13451034e-02, 1.64490438e-03, 1.30283988e-05, 1.56429975e-04,
          1.37237017e-04, 2.67875497e-03, -1.84885389e-03,
          -3.66536574e-03, -2.08407943e-03, 2.45649600e-03,
          1.26607611e-03, 9.75966628e-04, 1.35528133e-03, 2.53911316e-03,
          1.10787898e-02, -1.26099808e-03, -3.40462802e-03,
          -6.66084327e-03, 4.00087389e-04, 3.02743656e-03,
          4.57307615e-04, 1.00388285e-03, 7.96610117e-03, 1.26068667e-02,
          6.33670343e-03, -7.03402702e-03, -1.07683074e-02,
          -6.07032236e-03, -1.52654888e-03, -4.39842511e-03,
          -5.27394644e-04, -5.43389982e-03, 2.30953619e-02,
          1.77102294e-02, -6.20141579e-03, -1.36871114e-02,
          -8.13117623e-03, -9.29095596e-03, -1.16875647e-02,
          -9.39408224e-03, -3.55699775e-03, 2.29286049e-02,
          1.06338030e-02, -8.11369345e-03, -1.08211357e-02,
          -1.02498196e-02, -8.52584001e-03, -1.07873818e-02,
          -1.05452789e-02, -6.15954353e-03, 2.11008713e-02,
          1.27742309e-02, -1.09793376e-02, -1.52121382e-02,
          -4.88270773e-03, -3.30163818e-03, -9.69212223e-03,
          -1.44664133e-02, -9.38112568e-03, 7.34223332e-03,
          1.71848647e-02, -6.23021368e-03, -9.99036618e-03,
          -3.76299466e-03, -3.21892649e-03, -2.93886103e-03,
          -1.41410949e-02, -2.19372306e-02, 7.64573924e-03,
          1.87134389e-02, -7.15305423e-03, 5.17356500e-04,
          -3.09806759e-03, -4.60610521e-04, 1.75662665e-03,
          -1.39212366e-02, -1.04248151e-02, 6.19172584e-03,
          4.11591725e-03, 4.16465895e-03, 1.77379570e-03, 1.22296193e-03,
          2.53570476e-03, 9.65330843e-03, 3.07364017e-03,
          -3.22190695e-03, -6.72623422e-03, 7.34321633e-03,
          4.45590448e-03, -2.93766055e-03, 3.15481983e-03,
          -3.27411364e-03, 8.69186595e-03, 6.03652140e-03,
          -9.72435344e-03, -5.67486603e-03, 6.28773309e-03,
          8.77342559e-03, 3.57502635e-04, 4.72494261e-03,
          -4.24281880e-03, 2.83992558e-04, -4.96630184e-03,
          -8.51496775e-03, -1.84540602e-03, 1.15983402e-02,
          -8.21252179e-04, -4.60192049e-03, -5.64317359e-03,
          -7.73744239e-03, -1.46279363e-02, -1.30276876e-02,
          -1.54111511e-03, 1.29611809e-02, -9.07653756e-03,
          -1.26714110e-02, -1.32702049e-02, -8.43033381e-03,
          -7.25765154e-03, -7.82614853e-03, -1.89723866e-03,
          7.42534595e-03, 1.17870457e-02, -1.20426342e-02,
          -1.15304170e-02, 1.40040331e-02, 2.21203901e-02,
          1.35758817e-02, -1.94261118e-03, -6.56954711e-03,
          -9.43113863e-03, -1.41396467e-03, 3.95513559e-03,
          -1.45476926e-02, 2.08668169e-02, 8.49595666e-03,
          2.97907111e-03, -2.89739016e-03, -4.54689562e-03,
          1.20992400e-03, 4.46108961e-03, 7.41609186e-03,
          -2.53643095e-03, 2.15303944e-03, -2.07070145e-03,
          -4.45428211e-03, 3.60525865e-03, 5.28902467e-03,
          1.18581532e-03, 2.12363806e-03, 2.20258124e-02, 6.27112715e-03,
          -1.68427285e-02, -1.63520742e-02, -1.11530041e-02,
          -2.57059210e-03, -1.33638241e-04, -8.74015968e-04,
          3.38649639e-04, 2.39900984e-02, -7.01318821e-03,
          -1.65551249e-02, -1.83669366e-02, 1.35825900e-03,
          -1.05135306e-03, 7.36405491e-04, -2.34547770e-03,
          1.62750017e-02, 1.44852493e-02, -2.59513557e-02,
          -2.61816327e-02, -2.65746005e-03, 2.21440522e-03,
          8.58385465e-04, 1.98885845e-03, -9.31931427e-04,
          2.68099792e-02, 1.04375798e-02, -2.04071887e-02,
          -1.51537089e-02, -1.39412936e-02, 2.66988715e-03,
          2.86672381e-03, 4.37230431e-03, 2.17642123e-03, 9.54635069e-03,
          1.99960675e-02, -1.03898691e-02, -1.80128757e-02,
          -1.34612136e-02, 4.08229278e-03, 1.18053472e-03,
          1.45444099e-03, -9.46033653e-03, 2.14366056e-02,
          1.62476990e-02, -6.73223753e-03, -8.63034837e-03,
          -1.32213172e-03, -1.26565695e-02, -1.28021678e-02,
          -1.08942697e-02, -4.35380591e-03, 2.63378471e-02,
          8.78432300e-03, -1.47534963e-02, -1.14345799e-04,
          -6.08547498e-03, -8.68255273e-03, -3.77045525e-03,
          9.68505454e-04, 5.74441254e-03, 3.58817261e-03,
          -6.06781803e-03, 5.26140025e-03, 4.20457125e-03,
          6.58754352e-03, 9.46101360e-03, 9.97041352e-03, 5.75165637e-03,
          -1.21862777e-02, 4.50511434e-04, 2.35395064e-03,
          1.70578889e-03, 4.76316921e-03, 1.29184527e-02, 1.79611407e-02,
          5.85960364e-03, 7.86688365e-03, -1.81942452e-02,
          -1.14072664e-02, -1.92739710e-03, -6.91407360e-03,
          -1.16327906e-03, 1.39845405e-02, 1.04522165e-02,
          1.22143840e-02, -1.55807445e-02, -1.24275377e-02,
          -1.56824924e-02, -1.15919742e-03, -2.12093437e-04,
          1.44234393e-03, 6.96459087e-03, -2.56526866e-03,
          -1.77107670e-03, -9.21659637e-03, -3.34628695e-03,
          -6.22616673e-04, -4.32426808e-03, -1.28928944e-02,
          -1.31265540e-02, 3.36937304e-03, -1.40561443e-03,
          5.12758829e-03, -5.95395872e-03, 1.01884240e-02,
          5.87115902e-03, -1.11009851e-02, -6.99963048e-03,
          6.75632665e-03, 1.74845997e-02, 2.48204488e-02, 2.00893786e-02,
          -5.46720717e-03, -9.42933187e-03, -1.31376376e-02,
          -2.13528648e-02, -9.42424405e-03, 1.25813894e-02,
          2.07646266e-02, 1.60881039e-02, 7.87042174e-03,
          -5.76693751e-03, 3.03136301e-03, -8.01567745e-04,
          -6.95148855e-03, -5.27786324e-03, 1.11414874e-02,
          3.80780478e-03, -1.60437264e-03, 9.43312363e-04,
          2.29504239e-03, 9.50155221e-03, 1.31111848e-03, 1.70569010e-02,
          1.24992337e-02, 3.78764514e-03, -1.29742809e-02,
          -1.32349608e-02, -1.60556640e-02, 3.08311661e-03,
          1.20173721e-02, 6.18995493e-03, 3.01341489e-02, 1.45775974e-02,
          -1.17282523e-02, -1.41986581e-02, -1.24711134e-02,
          -1.86517388e-02, -1.02623245e-02, -3.89692420e-03,
          2.39084382e-02, 3.32887582e-02, -3.95175582e-03,
          -1.52680045e-02, -1.96982734e-02, -1.07417814e-02,
          -2.48710606e-02, -2.10021213e-02, -5.82089787e-03,
          3.04032061e-02, 2.40701959e-02, -2.42811115e-03,
          -2.11218502e-02, -1.97275877e-02, -1.18901376e-02,
          -1.56049663e-02, -3.02949734e-03, -2.02920637e-03,
          2.22116746e-02, 2.73284800e-02, 3.52009735e-03,
          -1.78278405e-02, -2.04326473e-02, -1.61702465e-02,
          -2.08892860e-02, -5.64826373e-03, 3.36880423e-03,
          2.68675666e-02, 2.66114138e-02, 3.67712881e-03,
