%YAML:1.0
---
opencv_ml_svm:
   format: 3
   svmType: C_SVC
   kernel:
      type: LINEAR
   C: 1.5000000000000000e+00
   term_criteria: { iterations:10000000 }
   var_count: 945
   class_count: 10
   class_labels: !!opencv-matrix
      rows: 10
      cols: 1
      dt: i
      data: [ 48, 49, 50, 51, 52, 53, 54, 55, 56, 57 ]
   sv_total: 45
   support_vectors:
      - [ 1.42810121e-02, -2.51844316e-03, -2.51844316e-03,
          7.82023242e-04, -3.21974279e-04, 2.91828201e-05,
          3.11431009e-04, 6.53636060e-04, 8.91315693e-04, 1.65887401e-02,
          -4.29684483e-03, -1.09701790e-02, -1.13147055e-03,
          5.75761078e-04, 1.85705535e-03, 3.62362177e-03, 5.35223261e-03,
          1.07805533e-02, 1.44255976e-03, -2.33483734e-03,
          -2.01353151e-02, -4.08651261e-03, 3.99127789e-03,
          7.77222449e-03, 6.50598388e-03, 7.69180246e-03, 8.73566885e-03,
          1.99683197e-02, 3.02669103e-03, -1.38079319e-02,
          -1.82992052e-02, -1.32990070e-02, -3.96521762e-03,
          5.63307386e-03, 3.87342507e-03, 1.88053437e-02, 2.50424575e-02,
          1.43350940e-02, -1.89398956e-02, -2.55063009e-02,
          -1.93472970e-02, -9.18994565e-03, 3.76700633e-03,
          1.27074951e-02, 2.50329208e-02, 9.01510753e-03, 1.54344942e-02,
          -8.51040054e-03, -7.75183691e-03, -1.73080713e-02,
          -1.42968388e-03, -1.11870635e-02, -2.64374772e-03,
          6.74392562e-03, 6.66565169e-03, 3.37142125e-03,
          -5.21774683e-03, -2.18319125e-03, -9.03508719e-03,
          -8.46887659e-03, -9.96113196e-03, 2.93131615e-03,
          7.17933057e-03, 8.37006513e-03, -4.29752981e-03,
          -5.82465297e-03, -1.93420902e-03, -1.12999976e-02,
          -6.65497780e-03, -1.17160697e-02, 1.39395043e-03,
          9.15848557e-03, 5.67901693e-03, 4.60785627e-03, 3.99375614e-03,
          3.09777516e-03, -1.39840590e-02, 7.46756617e-04,
          -1.37897171e-02, -1.92447065e-03, 4.88555478e-03,
          6.23582723e-03, 2.81146448e-03, -3.26987053e-03,
          -4.99759242e-03, -1.61804724e-02, -2.44379044e-03,
          -1.16600618e-02, -1.51313457e-03, 7.68482918e-03,
          2.89105601e-03, -3.16143548e-03, -1.17611866e-02,
          -8.55990592e-03, -4.90086246e-03, -4.15672455e-03,
          -4.93701361e-03, 8.14553909e-03, 5.64847514e-03,
          4.59156185e-03, -1.10554020e-03, -9.17323213e-03,
          -1.11911318e-03, -8.42579547e-03, 7.00216449e-04,
          -6.26262976e-03, 7.87221361e-03, 5.68558462e-03,
          2.83877552e-03, -1.64728658e-03, -1.15403319e-02,
          -6.03580987e-03, -7.87357986e-03, 7.82377366e-03,
          3.22771986e-04, 7.92609341e-03, 3.13897245e-03, 6.55060168e-03,
          -6.13456266e-03, -1.21321473e-02, -5.16777206e-03,
          -1.72977298e-02, -2.25061621e-03, 1.27047137e-03,
          1.28467064e-02, 6.61766063e-03, -1.39163556e-02,
          -1.03409961e-02, -1.64894685e-02, -5.79879060e-03,
          -1.78284999e-02, -2.62509799e-03, 1.21552432e-02,
          1.46708069e-02, 2.07671756e-03, 5.40669367e-04,
          -4.76102764e-03, -5.18948771e-03, 1.42465802e-02,
          5.48234163e-03, 1.18054762e-04, 2.25673662e-04, 2.59346591e-04,
          -2.23695912e-04, -1.83597207e-03, 2.88379146e-03,
          2.88379146e-03, 6.55406108e-03, -3.78050748e-03,
          -1.12001747e-02, -1.88508350e-03, -3.73505522e-04,
          -2.96387565e-03, 2.23951768e-02, 6.68459712e-03,
          1.47591834e-03, -8.28265119e-03, -1.58795677e-02,
          -1.55235603e-02, -6.82415348e-03, -2.95370701e-03,
          3.02253477e-03, 2.18604673e-02, 6.42009266e-03,
          -1.94464419e-02, -1.89101808e-02, -1.01437513e-02,
          -4.47322149e-03, -4.75935265e-03, -1.02702286e-02,
          5.02078934e-03, 7.56018143e-03, 1.44761214e-02,
          -1.72058921e-02, -1.53856743e-02, -8.51930957e-03,
          -3.61658493e-03, -4.12260788e-03, -1.02051618e-02,
          3.39393062e-03, 3.29290808e-04, 9.88301169e-03,
          -2.79680034e-03, -3.21736909e-03, -5.37647679e-03,
          -1.67185487e-03, -3.67285544e-03, -5.33570116e-03,
          3.29290808e-04, 1.46729487e-03, -8.07627279e-04,
          -2.44462676e-03, -2.44817859e-03, -5.11168642e-03,
          -2.09524320e-03, -2.17483263e-03, 3.06043727e-03,
          1.46729487e-03, 3.60858953e-03, -2.24831770e-03,
          -2.59494036e-03, -2.80644093e-03, -2.08051875e-03,
          -3.91632505e-03, -7.88197946e-03, -7.38904672e-03,
          3.60858953e-03, 2.22469703e-03, -6.73328526e-03,
          -1.70075509e-03, -3.61627759e-03, -3.17347795e-03,
          -1.18147058e-03, -4.16160608e-03, -7.82452349e-04,
          2.22469703e-03, 1.09908124e-03, -1.69487786e-03,
          -1.98509102e-03, -1.75049121e-03, -4.85965656e-03,
          -1.67674792e-03, -8.31752084e-04, -6.35783537e-04,
          1.09908124e-03, -5.08912932e-03, -1.12660266e-02,
          -6.00879453e-03, -4.04894585e-03, -2.11587525e-03,
          -7.07929139e-04, -1.34522573e-03, 1.64312460e-02,
          4.34176269e-04, -5.95283788e-03, -4.69174655e-03,
          -1.82774395e-03, -8.66306771e-04, -2.18464457e-03,
          7.50845298e-04, -2.49796617e-03, 4.67013195e-03,
          1.87473733e-03, -2.33998448e-02, -6.12035533e-03,
          1.88527699e-03, 5.66061586e-03, 4.89280885e-03, 1.79469269e-02,
          1.46510340e-02, 9.37605556e-03, -8.87880195e-03,
          -9.05427616e-03, 5.27824741e-03, 9.69514716e-03,
          1.05115520e-02, 1.46321729e-02, 1.18998308e-02,
          -4.42307530e-04, -9.08025820e-03, -1.14455884e-02,
          -8.46527808e-04, -5.88893984e-03, -6.26144093e-03,
          -1.62266847e-03, -1.53844664e-02, -1.58735306e-03,
          6.39550108e-03, 6.39550108e-03, -2.45123729e-03,
          -9.66956094e-03, -4.72003920e-03, -4.63442504e-03,
          1.24017568e-02, 1.24017568e-02, -1.08941672e-02,
          -1.28401928e-02, -1.57678574e-02, -1.39720272e-02,
          -1.59694050e-02, -8.50566255e-04, 1.06907357e-02,
          1.06787952e-02, 6.69491757e-03, -1.36940544e-02,
          -9.00669396e-03, -1.29822958e-02, -1.56251024e-02,
          1.72824897e-02, 1.74836870e-02, 1.65771581e-02, 4.16295743e-03,
          -6.30063005e-03, -1.57085732e-02, -1.46134887e-02,
          -1.41818067e-02, -4.70090844e-03, 4.86160489e-03,
          2.08893884e-02, 9.79140773e-03, -2.34353531e-04,
          6.49011740e-03, -4.27584583e-03, -3.16716474e-03,
          -1.56599730e-02, -2.86899204e-03, -4.03342629e-03,
          1.73095651e-02, 1.09884320e-02, 3.59093514e-03, 1.40407812e-02,
          -1.69268588e-03, 4.32058703e-04, -9.23728850e-03,
          -7.73421209e-03, -1.04977023e-02, 8.26403126e-03,
          1.38524370e-02, 4.27718321e-03, 1.58821885e-02, 2.83597689e-03,
          9.47136339e-03, 9.93817206e-03, -1.27497809e-02,
          -1.19524403e-02, 1.31014502e-02, 9.40584205e-03,
          2.68249703e-03, 1.48823466e-02, 2.96288496e-03, 1.23417005e-02,
          1.31513821e-02, -1.21598886e-02, -9.50586703e-03,
          1.60069168e-02, 1.69933047e-02, 7.28417654e-03, 7.30228191e-03,
          6.09494862e-04, 4.47284849e-03, 6.03571476e-04,
          -9.43521410e-03, -9.46347136e-03, 1.01078013e-02,
          1.37209138e-02, -9.96505696e-05, 1.40352855e-02,
          4.99968790e-03, 9.21195932e-03, 4.01080912e-03,
          -1.08810579e-02, -8.60344991e-03, -1.56560319e-03,
          4.41799080e-03, 1.34564808e-03, 1.60813592e-02, 1.90159259e-03,
          1.78027134e-02, 8.48038681e-03, -8.33512284e-03,
          -7.81022012e-03, -2.25632521e-03, 4.41432232e-03,
          2.71582650e-03, 9.21400357e-03, 6.59900112e-03, 1.32955573e-02,
          9.00427811e-03, -6.15987601e-03, -9.91719682e-03,
          6.61093555e-03, 5.09657431e-03, 8.08758312e-04, 4.18223115e-03,
          1.20953228e-02, 1.22826463e-02, 1.37866270e-02,
          -9.91719682e-03, -2.87641902e-02, -4.59242100e-03,
          -1.70518109e-03, 1.88680191e-03, 2.53605340e-02,
          2.51267552e-02, 1.18990717e-02, 4.76122630e-04,
          -2.57277321e-02, -9.70604643e-03, 3.31080228e-04,
          1.07919378e-03, -1.45506274e-04, 1.32878041e-02,
          1.08344126e-02, -1.00652333e-02, -1.63344797e-02,
          -1.81943793e-02, 1.28032465e-03, -6.62600796e-04,
          -1.99644919e-03, -6.24792743e-03, -3.71786358e-04,
          -2.91382545e-04, 1.70710252e-03, 4.75557288e-03,
          -1.57301489e-03, -1.24993138e-02, -1.98337148e-04,
          7.28426035e-04, 2.27889735e-02, 2.50320416e-02, 2.26704367e-02,
          -8.17587879e-03, -2.54366063e-02, -2.71833818e-02,
          -2.86650937e-02, -5.35832765e-03, 3.20855790e-04,
          1.87935513e-02, 2.29285285e-02, 2.41945256e-02, 1.60100982e-02,
          -9.63179953e-03, -2.81850547e-02, -1.36966100e-02,
          -8.72528087e-03, 7.74042122e-03, 4.28226637e-03,
          8.75787903e-03, 6.89594913e-03, 9.38558765e-03, 1.37685025e-02,
          -5.88178867e-03, -5.60973538e-03, 2.48932466e-03,
          1.12990160e-02, 6.73864910e-04, 9.74617898e-03,
          -2.51115346e-03, 2.89221271e-03, 2.73889722e-03,
          -4.97916900e-03, -7.39854667e-03, 2.93479650e-04,
          1.26353186e-02, 8.88923742e-03, 9.04746540e-03, 8.71455413e-04,
          3.02949920e-03, -3.17818922e-04, -7.63552403e-03,
          -8.83431267e-03, -3.18931718e-03, 5.51743805e-03,
          4.72495751e-03, 1.22368233e-02, 1.03461044e-02, 7.80516118e-03,
          3.10460920e-03, -8.49079154e-03, -9.20293480e-03,
          4.78622358e-04, 1.12096146e-02, 8.13398417e-03, 1.39902746e-02,
          7.34235113e-03, 1.17321499e-02, 4.90154931e-03,
          -1.02116056e-02, -8.25598557e-03, -4.24095546e-04,
          1.24183791e-02, 2.52812845e-03, 8.87677446e-03, 5.36804134e-03,
          1.38457092e-02, 4.90887323e-03, -1.05403401e-02,
          -9.87281092e-03, 9.86771099e-03, 1.79700479e-02,
          6.08132407e-03, 1.51788490e-02, 3.39438580e-03, 3.14382371e-03,
          -8.53365660e-03, -1.60576366e-02, -1.14396224e-02,
          2.47414014e-03, 1.72803029e-02, 1.04434825e-02, 1.91697869e-02,
          5.19720046e-03, 6.86322479e-03, -5.16122486e-03,
          -1.34619083e-02, -6.95711188e-03, -2.95106554e-04,
          8.21131282e-03, 4.88690380e-03, 1.17524080e-02,
          -7.56346446e-04, 7.06284260e-03, 5.72083006e-03,
          -9.37710796e-03, -7.17327977e-03, 8.81407037e-03,
          1.18516888e-02, 8.25152360e-03, 8.03053007e-03, 2.57633813e-03,
          8.26318748e-03, 1.46401860e-03, -1.19209467e-02,
          -2.12319605e-02, -3.60249192e-03, 1.73472594e-02,
          1.90856885e-02, 1.84729230e-02, 1.57787818e-02, 6.60017191e-04,
          -3.89185059e-03, -2.60320734e-02, -1.97888128e-02,
          -1.73807852e-02, 5.58502506e-04, 6.86235912e-03,
          6.87095989e-03, 6.46466576e-03, -1.81223371e-03,
          -1.25647173e-03, -4.63299640e-03, 1.34820619e-03,
          -9.64391511e-03, -7.28539238e-03, -6.13800308e-04,
          -6.13800308e-04, 3.84553126e-03, 1.17107341e-02,
          2.43423646e-03, 7.09705637e-04, -1.81415733e-02,
          -2.11956562e-03, -1.11912617e-04, 3.69401718e-03,
          2.15597898e-02, 2.63966043e-02, 2.40203291e-02,
          -1.47518730e-02, -2.59061083e-02, -2.96569187e-02,
          -8.88175622e-04, 4.54685505e-04, 3.48379067e-03,
          1.51212597e-02, 2.39227768e-02, 2.27243248e-02, 1.58507470e-02,
          -2.34976765e-02, -1.93110574e-02, -1.26042496e-02,
          -1.39366055e-03, -4.28275293e-04, -4.95333516e-05,
          4.98153549e-03, 1.93749517e-02, 2.43042223e-02,
          -6.51281420e-03, -6.89352350e-03, -1.45347547e-02,
          -9.79856472e-04, -3.21927189e-04, 7.89247744e-04,
          1.39853556e-03, 9.72680654e-03, 1.60510559e-02, 6.01760286e-04,
          2.56499113e-03, -6.92575378e-03, 1.31197693e-03,
          1.32000062e-03, 4.23023105e-03, 5.25044452e-04, 1.00828137e-03,
          -4.38800175e-03, 2.56499113e-03, -2.18597427e-03,
          4.89764521e-03, 1.96533999e-03, 1.10253040e-03, 2.04225513e-03,
          1.35113636e-03, 6.72447030e-04, 2.23460281e-03, 9.46207729e-04,
          -1.85005402e-03, 1.28058181e-03, 1.48911192e-03,
          8.42864858e-04, 2.66981451e-03, 2.61125941e-04, 4.89714835e-03,
          1.17522860e-02, -1.85005402e-03, -1.69581466e-03,
          2.55849422e-03, 1.60282376e-04, 2.47515447e-04, 2.43403786e-03,
          -1.02620819e-04, 1.35277759e-03, 2.14611110e-03,
          -1.69581466e-03, 3.83840920e-03, -5.20602381e-03,
          1.66754820e-03, 9.49393492e-04, -4.57535614e-04,
          -3.23093031e-04, -3.18424730e-03, -9.14231967e-03,
          3.83840920e-03, 1.92141370e-03, -3.28477449e-03,
          9.96417017e-04, 8.96164682e-04, 1.53751741e-03, 2.01828638e-03,
          -1.57193968e-03, -4.03324934e-03, 3.40412534e-03,
          -2.74572056e-03, 9.33382101e-03, -2.86249607e-03,
          -5.38448920e-04, -1.28232304e-03, -4.21341392e-04,
          -1.16619398e-03, -1.65490224e-03, -2.02612649e-03,
          2.44263490e-03, 1.79644637e-02, -1.80158590e-03,
          -1.10367045e-03, -4.83719260e-03, -2.47603602e-04,
          -7.16122624e-04, -4.80204821e-03, -2.12189797e-02,
          -6.95372745e-03, 1.16068590e-02, 2.23979037e-02,
          1.01544829e-02, -2.89682345e-03, -1.35276263e-04,
          -3.47693195e-03, -8.39841366e-03, -2.71923207e-02,
          -2.00136155e-02, -2.93780793e-03, 8.94434657e-03,
          1.88980214e-02, 9.80526581e-03, 1.84969045e-03,
          -2.35548083e-04, -2.35456089e-03, -1.36134271e-02,
          -7.29929656e-03, 9.28667214e-05, 5.71227120e-03,
          8.48532375e-03, -4.94647259e-03, 1.11280940e-03,
          -5.44165494e-03, -6.75526867e-03, -7.05416314e-03,
          -1.75946932e-02, -1.64888557e-02, -1.41029609e-02,
          -4.58573597e-03, -7.79723795e-03, 1.65962204e-02,
          1.12535711e-02, 9.48650017e-03, -8.57772399e-03,
          -1.32028582e-02, -3.78762069e-03, -8.71434994e-03,
          -7.19710439e-03, -1.23200659e-02, 6.49351813e-03,
          1.07132830e-02, 8.82207602e-03, 2.61372048e-03,
          -4.98547219e-03, -1.32950507e-02, -1.21098505e-02,
          -5.89324581e-03, -1.08315544e-02, 4.15589148e-03,
          7.07386434e-03, 1.11595746e-02, 3.65959108e-03,
          -2.62455520e-04, -6.81948103e-03, -4.89936955e-03,
          -1.62419991e-03, -4.17102268e-03, 3.22108227e-03,
          -9.40731901e-04, 7.69092469e-03, 9.10977251e-04,
          1.03047295e-02, -7.34597351e-03, -1.23550091e-02,
          -6.42864965e-03, -1.51001820e-02, -4.18191357e-03,
          -6.97382726e-03, 4.13297676e-04, 1.10520627e-02,
          8.37522652e-03, 3.10636801e-03, -9.70693585e-03,
          -1.31318881e-03, -1.48823475e-02, -1.20270380e-03,
          -1.35253612e-02, -1.05672488e-02, 7.72475637e-03,
          8.21139943e-03, -3.95998778e-03, -1.64142009e-02,
          -2.81297509e-03, -1.28300879e-02, -2.86451587e-03,
          -6.39493531e-03, -3.11088422e-03, 8.93464405e-03,
          8.32437072e-03, -2.71671475e-03, -8.24058149e-03,
          -2.99702282e-03, -9.85685457e-03, -8.28960631e-03,
          -1.19723286e-02, -6.40370417e-03, 8.32437072e-03,
          9.36864968e-03, 7.54997460e-03, -8.29144381e-03,
          -8.31182115e-03, -1.70471836e-02, -1.16920602e-02,
          -1.33831836e-02, -8.35881475e-03, 8.60147085e-03,
          4.91652032e-03, 6.25497196e-03, -1.03654470e-02,
          -4.84126154e-03, -1.58729516e-02, -3.16708861e-03,
          -1.37141887e-02, -2.36673141e-03, 4.76834783e-03,
          6.52041659e-03, 9.81793832e-03, -5.64823858e-03,
          -5.23082772e-03, -1.33496122e-02, -4.47162054e-03,
          -9.62933432e-03, -1.40697192e-02, 6.19933801e-03,
          4.92662657e-03, 8.76765512e-03, -4.45434498e-03,
          -1.11661537e-03, -7.76414713e-03, -3.77353467e-03,
          -6.62641134e-03, -4.67429822e-03, -2.11916296e-04,
          4.11167834e-03, 5.89200342e-03, 4.85774456e-03, 4.15602524e-04,
          -1.13023380e-02, -2.75079650e-03, -8.79415497e-03,
          -5.46061853e-03, 5.05059317e-04, 9.67845879e-03,
          1.59173775e-02, 4.72931238e-03, -5.31258853e-03,
          -1.62319709e-02, -4.01546154e-03, -1.14512434e-02,
          -1.00851646e-02, -9.57822800e-03, -9.13848821e-03,
          1.74944829e-02, 1.53516419e-02, 9.75160766e-03,
          -1.64418425e-02, -5.80370799e-03, -1.55058857e-02,
          -1.79974716e-02, -1.83409359e-02, -8.91842414e-03,
          -9.78048332e-03, -1.43817076e-02, -1.15923248e-02,
          -1.49241146e-02, 6.37599779e-03, 2.58869748e-03,
          1.28355464e-02, 1.08995801e-02, -9.91583057e-03,
          -6.94125658e-03, -1.33162271e-02, -1.47425374e-02,
          -1.77645627e-02, -6.88589970e-03, -6.96625374e-03,
          1.56067489e-02, 1.34411566e-02, 8.15730263e-03,
          -3.48536111e-03, -1.05921505e-02, -7.13903084e-03,
          -1.61222033e-02, -9.83144902e-03, -1.65021811e-02,
          7.77777052e-03, 7.44941458e-03, 4.13444964e-03, 1.07069686e-03,
          -6.52618380e-03, -3.62689630e-03, -1.44693339e-02,
          -3.59913264e-03, -1.34472949e-02, -2.74596643e-03,
          1.02465097e-02, 1.12738525e-02, -6.44869264e-03,
          -9.81754065e-03, -3.53288534e-03, -1.87234767e-02,
          -5.33115724e-03, -1.43069429e-02, 1.04041304e-02,
          9.73660685e-03, 4.83416766e-03, -1.56675419e-03,
          -7.89575372e-03, -3.71054281e-03, -2.01683287e-02,
          -2.12046527e-03, -8.52629542e-03, 7.56158354e-03,
          9.11094435e-03, 1.19923679e-02, -4.68318397e-03,
          -1.23586748e-02, -4.92648222e-03, -1.53141776e-02,
          -2.28303601e-03, -1.16392178e-02, -7.06867035e-03,
          1.12220030e-02, 1.27538219e-02, -8.32157210e-03,
          -1.12345126e-02, -3.47412680e-03, -1.50376223e-02,
          -6.22489769e-03, -1.34423040e-02, -5.80855506e-03,
          1.11176195e-02, 1.14818299e-02, -3.37309856e-03,
          -1.03863319e-02, -5.56137459e-03, -1.80756468e-02,
          -1.35590024e-02, -1.19784540e-02, -4.71066963e-03,
          1.09062605e-02, 1.30994180e-02, -7.20056472e-03,
          -9.74492449e-03, -3.22584808e-03, -1.80393197e-02,
          -4.41720430e-03, -1.29228802e-02, -4.60838759e-03,
          9.35515296e-03, 1.33362580e-02, -2.74631684e-03,
          -1.39104240e-02, -7.59022916e-03, -1.73806250e-02,
          -9.25645791e-03, -1.52671626e-02, -9.42348782e-03,
          1.32017061e-02, 1.16096791e-02, -7.70241080e-04,
          -1.54836597e-02, -5.39466599e-03, -1.67142227e-02,
          -7.77144311e-03, -1.43335294e-02, -8.46619532e-03,
          1.06997536e-02, 1.59843396e-02, 9.29066446e-03,
          -1.53282164e-02, -7.01562455e-03, -2.04882286e-02,
          -8.57503992e-03, -1.64205264e-02, -1.05970502e-02,
          2.33632559e-03, 1.12954993e-02, 1.18909637e-02,
          -6.88068848e-03, -8.01331364e-03, -2.08049249e-02,
          -3.88847780e-03, -1.26411496e-02, -1.17353406e-02,
          -2.12361454e-03, 3.11276945e-03, 6.59751240e-03,
          7.74619309e-03, 5.34021342e-03, -1.16583919e-02,
          -1.15935842e-03, -1.42941708e-02, -1.02501931e-02,
          -9.50150378e-03 ]
      - [ 1.16943261e-02, 4.33275430e-03, 8.87645176e-04,
          -1.82638802e-02, -1.80514459e-03, -4.54816385e-04,
          -1.41682922e-05, -1.83845652e-04, -4.81583760e-04,
          9.93715227e-03, 9.20324959e-03, 3.99912853e-04,
          -1.31885232e-02, -1.12435436e-02, -8.15799646e-03,
          -6.23737276e-03, -4.55332268e-03, -4.28356649e-03,
          1.72608458e-02, 1.73785258e-02, -6.89475331e-03,
          -1.25748003e-02, -9.08635464e-03, -9.37126111e-03,
          -2.22948351e-04, 4.94519016e-03, 9.24104732e-03,
          1.46410475e-02, 1.38284322e-02, -2.82140495e-03,
          -1.12284133e-02, -1.11960657e-02, -1.14619117e-02,
          -4.16220166e-03, -5.83844818e-03, 1.21440357e-02,
          7.81101221e-03, 2.48240051e-03, -9.74398293e-03,
          -3.19800735e-03, -1.07617732e-02, -6.48675021e-03,
          -3.30609176e-03, 1.75359892e-03, 6.56594615e-03,
          5.34507819e-03, 5.98741788e-03, -4.65182820e-03,
          -6.64396537e-03, -8.08604527e-03, -6.22555194e-03,
          -1.07719107e-02, -1.42647524e-03, 5.31804096e-03,
          5.36031695e-03, -3.19233909e-03, -5.37293311e-03,
          -5.26644615e-03, -7.65391672e-03, -4.37857257e-03,
          -3.84541531e-03, 4.68206545e-03, 6.27953233e-03,
          5.47024375e-03, -9.95359384e-03, -1.46176917e-02,
          -5.73981553e-03, -4.84479219e-03, -2.54179085e-05,
          2.31620879e-03, 1.00318696e-02, 1.39846038e-02, 1.10289650e-02,
          -1.19171087e-02, -1.16789341e-02, 3.94242164e-03,
          2.79237214e-03, 3.72801605e-03, 4.38175770e-03, 7.97636528e-03,
          1.80773828e-02, 1.16676614e-02, -1.22125866e-02,
          -1.34590836e-02, 1.68205192e-03, 1.75044022e-03,
          2.10713060e-03, 3.74146993e-03, 6.62249839e-03, 2.04659514e-02,
          -4.79493244e-03, -1.02437986e-02, -1.40359001e-02,
          1.03583769e-03, 5.75162750e-03, 3.00091039e-03, 8.17009341e-03,
          1.53695093e-02, 1.37254596e-02, -1.71207311e-03,
          -9.09408927e-03, -6.55022264e-03, -1.89961249e-03,
          1.72091124e-03, 4.58499137e-03, 6.66836463e-03, 1.12140132e-02,
          3.81281250e-04, -7.11587432e-04, 1.02099031e-03,
          9.81526216e-04, 8.82654684e-04, 1.55369064e-03, 4.21580765e-03,
          -3.20872897e-03, -6.01829437e-04, -7.11587432e-04,
          3.13764135e-03, 2.65804748e-03, -1.67490740e-03,
          -4.00298880e-03, -9.03652981e-03, -1.20230364e-02,
          -5.32336906e-03, 4.42827959e-03, 4.16166987e-03,
          -9.67515400e-04, -5.75299142e-04, -6.74776500e-04,
          -8.83922155e-04, -1.82742253e-02, -1.73779763e-02,
          3.53043829e-03, 9.64100473e-03, 9.31861345e-03, 2.24341848e-03,
          1.70671642e-02, -2.16611879e-04, -2.97734310e-04,
          -1.46252960e-02, -3.90216312e-03, -4.17362404e-04,
          -1.13781902e-03, -5.84063004e-04, 9.11778025e-03,
          1.71135496e-02, -5.96187497e-03, -5.96187497e-03,
          1.21862954e-03, 2.17023818e-03, 4.27307095e-03, 4.10546828e-03,
          3.04702600e-03, 1.88192409e-02, 1.33369928e-02,
          -7.93498755e-03, -1.27281817e-02, -3.33891157e-03,
          -2.69961220e-05, 3.34284734e-04, 5.95295394e-04,
          4.25125659e-03, 1.24437697e-02, 1.17732147e-02,
          -1.51612461e-02, -1.56278498e-02, -1.66489817e-02,
          -6.14939723e-03, -7.44904298e-03, -3.71108414e-03,
          1.00300182e-02, 9.84807312e-03, 5.16091613e-03,
          -1.07172420e-02, -5.39474702e-03, -1.46095231e-02,
          -9.76667274e-03, -9.64218378e-03, -6.45891158e-03,
          8.32590461e-03, 7.75110349e-03, 4.56581241e-04,
          -1.15212910e-02, -8.72138143e-03, -1.16860326e-02,
          -4.17892728e-03, -4.74684453e-03, -4.24549915e-03,
          8.99845175e-03, 1.35613121e-02, -1.56737473e-02,
          -1.88816171e-02, -9.88801196e-03, -8.12058151e-03,
          -3.31230625e-03, -1.84018072e-03, 3.81888286e-03,
          1.73149984e-02, 2.28066929e-02, -2.05609258e-02,
          -2.30327696e-02, -9.26419720e-03, 1.13413589e-04,
          1.46478735e-04, 7.50604027e-04, 4.63419361e-03, 2.47124080e-02,
          2.10073870e-02, -1.74346324e-02, -2.28592288e-02,
          -7.81802833e-03, 3.39649239e-04, 2.76050821e-04,
          2.29586876e-04, 3.90266581e-03, 2.45832074e-02, 1.29705202e-02,
          -1.67656168e-02, -2.15525292e-02, -6.18745945e-03,
          -1.39847209e-04, -1.20254105e-03, 1.10016546e-04,
          5.26718516e-03, 2.24702135e-02, 2.96586193e-03,
          -2.30505820e-02, -1.89005416e-02, -5.42399648e-04,
          1.09097210e-03, 1.40780245e-03, 2.08271202e-03, 2.04171333e-02,
          2.10335236e-02, -6.92251278e-03, -2.07296573e-02,
          -8.00194312e-03, -2.69160635e-04, 3.68779874e-04,
          1.11363479e-03, 3.02973017e-03, 1.89342070e-02, 1.01476880e-02,
          -1.53777720e-02, -2.97493720e-03, 2.15072068e-03,
          3.70625150e-03, 2.20102747e-03, 6.21907134e-03, 4.32732841e-03,
          4.78078437e-04, -1.43149414e-03, 8.34206678e-03,
          6.68971706e-03, 8.62303469e-03, 5.04412176e-03, 3.88578046e-03,
          -3.73138627e-03, -3.43985064e-03, -3.44043458e-03,
          1.41140074e-03, 4.59895609e-03, 5.59322594e-04, 3.81558581e-04,
          -1.25486236e-02, -1.72933433e-02, -5.08553721e-03,
          1.23013286e-02, 2.06694473e-02, 7.95776676e-03, 1.62368946e-04,
          -3.63652507e-04, 9.24535096e-03, 1.38604548e-04,
          1.38604548e-04, -9.60516185e-03, -3.65732645e-04,
          -1.08906228e-04, 3.19901301e-04, 9.39958263e-04,
          5.89436013e-03, 4.40041861e-03, -1.25839992e-03,
          -1.25839992e-03, -6.05671806e-03, 7.84361473e-05,
          1.20228207e-04, 2.93616322e-04, 9.14732181e-03, 1.10973874e-02,
          -1.95818790e-03, -5.04595647e-03, -6.56353869e-03,
          -1.18784758e-03, -1.07124494e-03, -1.34182139e-03,
          2.33696331e-03, 2.13388936e-03, 6.20826706e-03, 1.52488321e-03,
          -1.70052564e-03, -3.25201731e-03, -6.37486693e-04,
          -5.03867818e-03, -2.40199082e-03, 1.16177846e-03,
          5.12625836e-03, 2.04782141e-03, -4.81087435e-03,
          -2.66422145e-03, -3.29638890e-04, -4.01522731e-03,
          -7.92873651e-03, -4.04665573e-03, 5.92971081e-03,
          1.69284688e-03, -1.66641781e-03, -3.15124425e-03,
          -1.19511671e-02, 2.36541661e-03, 1.73071492e-03,
          6.76450320e-03, 6.97972160e-03, 4.25403565e-03, 1.11908177e-02,
          -1.16909081e-02, -1.48593979e-02, -5.46401879e-03,
          1.17710866e-02, 2.70189159e-03, 1.26067214e-02, 1.35317584e-02,
          1.43612400e-02, 1.49947824e-02, -9.59227141e-03,
          -9.59693361e-03, -4.99412417e-04, 8.28994717e-03,
          2.34449469e-03, 7.40882102e-03, 7.52466591e-03, 1.63855292e-02,
          1.35153532e-02, -9.17811692e-03, -1.10464636e-02,
          -7.01690698e-03, 1.25059281e-02, 5.25096804e-03,
          6.87124114e-03, 4.70059039e-03, 1.53090917e-02, 1.43675106e-02,
          -1.84640177e-02, -1.75685808e-02, -3.22378270e-04,
          1.46170426e-02, 2.50874367e-03, 1.41832260e-02, 1.16306571e-02,
          1.73508171e-02, 8.06586235e-04, -1.64539982e-02,
          -1.61007550e-02, 4.36742812e-05, 7.75190629e-03,
          6.33509364e-03, 8.71687848e-03, 1.58857387e-02, 1.55396592e-02,
          -4.66415891e-04, -3.39442585e-03, -8.81994795e-03,
          -8.34511407e-03, -3.71694402e-03, 6.55651418e-03,
          2.48340145e-03, 8.63103755e-03, 6.80334447e-03,
          -6.70583220e-03, -3.33133759e-03, -6.52344245e-03,
          -8.75748601e-03, 6.46867848e-04, 6.23331498e-03,
          4.31959936e-03, 2.24261847e-03, -5.03685744e-03,
          1.97839952e-04, 4.08707594e-04, 9.75699862e-04,
          -1.30226836e-04, 1.17652613e-04, 1.17652613e-04,
          8.28872842e-04, 7.81223236e-04, 2.48729310e-04, 1.83872599e-03,
          8.26931500e-04, 7.48277409e-04, -1.46157742e-02,
          -5.06989704e-03, 4.58766054e-03, 1.65827032e-02,
          1.12523567e-02, 2.21203710e-03, -5.96059952e-04,
          -1.62416196e-03, -5.56751504e-04, 1.09767225e-02,
          3.78999714e-04, 3.78999714e-04, -1.01589700e-02,
          -5.35466359e-04, -1.17511896e-03, 2.55377032e-04,
          1.51734581e-04, 1.51506835e-03, 9.77909751e-03,
          -2.26209150e-03, -2.26209150e-03, -3.03341629e-04,
          -1.56048825e-03, 2.14302170e-04, 1.88295860e-04,
          2.75826873e-03, 8.37851595e-03, 5.86082786e-03,
          -5.27659780e-04, -3.95921618e-03, -2.53945682e-03,
          -2.34090327e-03, 8.25342024e-04, -2.36094696e-03,
          2.80305190e-04, 5.54922968e-03, 6.83426391e-04, 6.50406408e-04,
          1.91150908e-03, 1.57011359e-03, 3.57857323e-03,
          -2.84675485e-03, -4.58991714e-03, -1.03829531e-02,
          6.05631853e-03, 6.97086006e-03, 6.34610560e-03, 1.25838362e-03,
          2.93870200e-03, 2.36553373e-03, 8.00241157e-03,
          -1.41129782e-03, -1.33262202e-02, -1.13642914e-02,
          5.13657508e-03, 1.21717751e-02, 8.47717095e-03, 1.11561846e-02,
          1.40399728e-02, 1.21713048e-02, 1.16962856e-02,
          -1.24964509e-02, -1.43075092e-02, 4.70198691e-03,
          1.23853721e-02, 4.10697469e-03, 1.34952581e-02, 1.05966106e-02,
          1.37426266e-02, 1.28165474e-02, -1.01856533e-02,
          -1.08073745e-02, -9.60882008e-03, 1.04430066e-02,
          5.58138452e-03, 1.40218958e-02, 1.29616112e-02, 1.22998469e-02,
          1.20336767e-02, -6.22120872e-03, -6.94349781e-03,
          -3.69041087e-03, 1.41279148e-02, 4.60270233e-03,
          5.90096926e-03, 6.12402149e-03, 9.74558666e-03, 4.79156105e-03,
          -1.08528035e-02, -7.11291330e-03, -7.57706992e-04,
          1.09744687e-02, 5.18020801e-03, 4.95042047e-03, 7.75547698e-03,
          8.46032891e-03, 2.24253023e-03, 7.62684271e-04, 4.67807367e-05,
          2.05101352e-03, -6.39820413e-04, -8.17709137e-03,
          -5.83310798e-03, 1.88078091e-03, 1.71330560e-03,
          8.92666634e-03, 9.91412438e-03, -9.35027085e-04,
          -3.47083574e-03, -7.26763252e-03, -9.75735765e-03,
          -5.93723916e-03, -3.11723119e-03, 5.89607144e-03,
          1.18555932e-03, 1.00746956e-02, 7.70878792e-03,
          -2.66656233e-03, -2.66656233e-03, -1.53049754e-04,
          -6.39071967e-03, -6.73317956e-03, -4.52575507e-03,
          1.04957304e-04, 1.53861637e-03, 1.11233136e-02,
          -2.34052585e-03, -2.47382605e-03, -4.20186727e-04,
          8.29082506e-04, 6.46547007e-04, 2.27202589e-04, 5.89286583e-03,
          1.88386859e-03, 5.46196243e-03, -5.46588330e-03,
          -8.29585176e-03, 6.96491217e-03, 1.50189856e-02,
          6.41035195e-03, 2.66563985e-03, -1.66102109e-04,
          -1.58684736e-04, 4.18767770e-04, 5.46776049e-04,
          9.38062277e-03, -8.82291642e-04, -8.82291642e-04,
          -2.56631151e-03, -1.99437817e-03, -1.65249454e-03,
          -1.12639193e-03, -1.46150321e-03, -5.73385973e-04,
          -1.99239847e-04, 8.81276617e-04, 8.81276617e-04,
          8.97381047e-04, -1.91248918e-03, -5.95793268e-03,
          -6.17087528e-04, -2.34968436e-04, -2.76901817e-04,
          -2.00201105e-03, -2.90884590e-03, 1.70546700e-03,
          3.40960152e-03, -7.72383413e-04, -4.37144749e-03,
          -1.38249509e-02, -1.25564067e-04, 1.59896750e-04,
          4.38466639e-04, 1.36032293e-03, 7.61186564e-03, 1.04751354e-02,
          1.17966288e-03, -8.06964643e-04, -1.67398024e-02,
          -1.15638727e-03, 1.12184242e-03, 2.15963973e-03,
          1.72205720e-04, 7.51423766e-04, 3.73778073e-03, 2.05055624e-02,
          3.20603070e-03, -1.12132598e-02, -1.62274893e-02,
          -3.18429578e-04, 1.04486803e-03, 1.23121880e-03,
          1.13045773e-03, 8.01250432e-03, 2.14228537e-02, 1.65918358e-02,
          -1.53503316e-02, -2.28845105e-02, -4.96006757e-03,
          7.89072423e-04, -3.34386481e-04, 3.51687777e-03,
          1.13917049e-02, 2.21319254e-02, 2.24694815e-02,
          -1.48893977e-02, -2.50224061e-02, -1.08174095e-02,
          1.70193694e-03, 3.71778762e-04, 2.55133677e-03, 1.14460345e-02,
          2.27324106e-02, 1.87872183e-02, -1.17226802e-02,
          -1.72852874e-02, -1.11149075e-02, -3.93287605e-03,
          -2.62761116e-03, -7.89578352e-03, -1.26418087e-03,
          1.98363774e-02, 1.34099619e-02, -5.10477554e-03,
          -9.37234983e-03, -8.41360074e-03, -1.23367198e-02,
          -8.52288771e-03, -1.12276906e-02, -2.27576913e-03,
          1.58397146e-02, 8.75603966e-03, 7.82065187e-03,
          -1.36124548e-02, -9.09810606e-03, -1.55805359e-02,
          -6.60701888e-03, -8.80153012e-03, -5.00324741e-03,
          8.75138585e-03, 1.06529631e-02, 1.19819865e-02,
          -1.17342928e-02, -5.41317742e-03, -1.60071962e-02,
          -5.64417103e-03, -7.74024287e-03, -8.52623954e-03,
          -4.99813166e-03, 1.34551460e-02, 1.57106724e-02,
          1.14005506e-02, -6.27900334e-03, -1.79989412e-02,
          -1.80165861e-02, -9.47927870e-03, -3.20487306e-03,
          -1.15468691e-03, 4.76117665e-03, 1.71302240e-02,
          1.64502617e-02, -1.20884727e-03, -5.82011836e-03,
          -1.73961371e-02, -3.04724788e-03, 1.13843055e-03,
          9.63779050e-04, 8.35176278e-03, 8.55614617e-03, 1.00009162e-02,
          -2.72983988e-03, -9.71245859e-03, -5.62404934e-03,
          -9.28481924e-04, 3.38075566e-04, 9.35288786e-04,
          6.45173946e-04, 4.14601120e-04, 3.05226800e-04, 3.22209788e-04,
          3.61107814e-04, 8.32756609e-03, -2.35738442e-03,
          -2.35738442e-03, -1.75214547e-03, -7.07028341e-03,
          -9.19290062e-04, -1.63457706e-04, 2.95887177e-04,
          -8.09666817e-04, 3.04823718e-03, 1.22946501e-03,
          1.35804396e-04, 1.35804396e-04, -6.68145576e-03,
          -2.33821082e-03, -2.27935416e-05, -5.03521296e-04,
          1.27224426e-03, 5.84405009e-03, 1.86594331e-03,
          -3.96132906e-04, -3.96132906e-04, -4.85922769e-03,
          -9.61692631e-03, 1.19043840e-03, 1.19439012e-03,
          8.73901788e-03, 8.79266486e-03, 8.24272539e-03, 4.01840685e-03,
          -2.47976440e-03, 6.27129339e-04, -1.08202472e-02,
          -6.20313361e-03, -7.74056592e-04, -3.84553307e-04,
          -2.45204210e-05, 3.54889111e-04, 7.47470837e-03,
          9.49412771e-03, 6.25904126e-04, -8.89596343e-03,
          -9.65897646e-03, -2.48330063e-04, 1.48667605e-04,
          4.85936063e-04, 1.19494274e-03, 4.28209594e-03, 2.06503626e-02,
          1.90029722e-02, -1.36204455e-02, -2.42615491e-02,
          -1.11072965e-03, 1.08442828e-03, 8.78432882e-04,
          1.44031434e-03, 5.11461915e-03, 2.34632026e-02, 1.85561962e-02,
          -1.32533042e-02, -2.08678115e-02, -1.20520145e-02,
          -4.73082298e-03, -1.50089141e-03, -1.41328434e-03,
          6.40608091e-03, 2.03892626e-02, 9.40760132e-03, 3.32727889e-03,
          -1.28578022e-02, -1.00922436e-02, -1.52052054e-02,
          -4.24216315e-03, -1.07562784e-02, -1.74086867e-03,
          1.06899263e-02, 6.47521904e-03, 2.12883600e-03,
          -1.27611011e-02, -4.49078251e-03, -1.47041036e-02,
          -3.43005545e-03, -1.20715434e-02, 4.34876885e-03,
          6.21922733e-03, 7.46799679e-03, 7.77706783e-03,
          -1.11683020e-02, -4.41239774e-03, -1.10549917e-02,
          -3.63965007e-03, -1.15173860e-02, -6.17766753e-03,
          7.03285309e-03, 6.54156553e-03, 6.95855170e-03,
          -7.14786304e-03, 1.96750392e-03, -7.16952188e-03,
          -3.01493495e-03, -5.04509686e-03, -4.80224262e-05,
          2.82177026e-03, 1.21660363e-02, 1.02250157e-02, 8.16310756e-03,
          3.93268885e-03, -1.18652266e-02, -9.85983573e-03,
          -1.30062774e-02, -5.33146737e-03, 7.32077844e-03,
          1.64230969e-02, 1.87890623e-02, 1.02587324e-02, 4.03637206e-03,
          -1.32938465e-02, -1.62172709e-02, -1.53475199e-02,
          -1.10715665e-02, -6.86337589e-04, -4.09225421e-03,
          8.84490088e-03, 8.90661590e-03, -3.99469258e-03,
          -1.01247840e-02, -6.28556591e-03, -7.88084138e-03,
          -8.96252040e-03, -1.01318909e-02, 4.59124800e-03,
          4.10905015e-03, 1.64260936e-03, -9.90440021e-05,
          2.57248199e-03, 9.36200563e-03, -2.57474347e-03,
          -2.97697214e-03, 3.62891908e-04, -1.10806124e-02,
          1.11464900e-03, 4.35342896e-04, 1.79916788e-05, 4.22970683e-04,
          5.02717739e-04, 4.70054656e-04, 2.76526390e-03, 2.76526390e-03,
          -2.27787509e-03, 1.33503065e-03, 8.74677557e-04,
          4.67714766e-04, 1.25208206e-03, 7.81258103e-04, 6.57292723e-04,
          8.80764984e-03, -2.51725921e-03, -5.62036363e-03,
          5.77951223e-03, 4.62527527e-03, 1.56192563e-03, 3.43894213e-03,
          3.10864369e-03, 8.31440790e-04, 4.04296163e-03,
          -1.95004267e-03, -2.52363505e-03, -1.94196422e-02,
          -3.15500470e-03, 3.17492377e-04, 6.26081484e-04,
          9.96667077e-04, 2.17666710e-03, 1.86735708e-02, 1.12100989e-02,
          -3.61084100e-03, -2.06992403e-02, -9.89453681e-03,
          3.82377591e-04, -7.40714371e-04, 5.14321437e-04,
          1.84183416e-03, 1.74864512e-02, 2.10729856e-02, 5.94149902e-03,
          -1.72185991e-02, -1.79317445e-02, -1.60866021e-03,
          -4.63550724e-03, 1.35115886e-04, -2.51523498e-03,
          2.51423474e-03, 1.78579725e-02, 9.13711265e-03,
          -1.04589714e-02, -9.61357635e-03, -3.43819591e-03,
          -1.50088929e-02, -2.53851037e-03, -1.12229474e-02,
          -3.32746492e-03, 1.12756509e-02, 8.33493192e-03,
          -8.78175907e-03, -1.08946124e-02, -6.39058184e-03,
          -1.56690087e-02, -2.83365091e-03, -6.89043477e-03,
          -1.08183641e-03, 9.94834304e-03, 8.76371004e-03,
          -9.04651172e-03, -8.33452865e-03, -1.75015815e-03,
          -1.53406095e-02, -1.66471314e-03, -8.29736795e-03,
          -1.76639494e-03, 8.31073523e-03, 1.21926209e-02,
          3.86960013e-03, -9.41121858e-03, -1.79902243e-03,
          -1.62038375e-02, -8.00474640e-03, -1.16629461e-02,
          -1.21951485e-02, 1.13504967e-02, 1.34479059e-02,
          -3.59098380e-03, -1.53421052e-02, -5.14189526e-03,
          -1.67090781e-02, -4.50771768e-03, -7.05304835e-03,
          -5.64839644e-03, 1.29951565e-02, 1.57550219e-02,
          7.55838770e-03, -9.34556685e-03, -4.96844156e-03,
          -1.62461810e-02, -1.17996288e-02, -1.38074942e-02,
          -1.17566595e-02, 7.40438653e-03, 7.39103789e-03,
          1.72345340e-02, 3.45093640e-03, -1.14899524e-03,
          -5.45793492e-03, -9.35005210e-03, -1.69428289e-02,
          -1.64224990e-02, -3.92155815e-03, -2.81169428e-03,
          2.49496009e-03, 8.06437992e-03, 5.92886703e-03, 3.50376382e-03,
          2.76865717e-03, -2.03392166e-03, -7.69662671e-03,
          -1.53590888e-02 ]
      - [ 5.57390321e-03, 1.39338830e-02, 1.27243334e-02,
          -9.31219757e-03, -1.34383179e-02, -1.42591624e-02,
          -1.41142579e-02, -1.37454038e-02, -1.15500307e-02,
          2.17183381e-02, 2.19824556e-02, 1.31096058e-02,
          -4.39628679e-03, -2.14601960e-02, -2.20132899e-02,
          -1.46379098e-02, -3.37984436e-03, 5.68542909e-03,
          1.01684425e-02, 1.11027928e-02, -8.47529154e-03,
          8.81684304e-04, -1.01217516e-02, -6.19343575e-03,
          -5.29581634e-03, -7.55578419e-03, -3.95812234e-03,
          2.59775971e-03, 9.13281366e-03, -4.06677183e-03,
          -3.88648681e-04, -1.15954150e-02, -4.28010797e-04,
          -9.78307799e-04, -2.49421410e-03, 8.59096064e-04,
          4.66488115e-03, 5.84870053e-04, -9.70149320e-03,
          -8.78846459e-03, -9.19529423e-03, -5.71766752e-04,
          -8.11043836e-04, 2.43381644e-03, 8.70666560e-03,
          1.50583277e-03, 2.80752871e-03, -5.24177775e-03,
          -4.85296967e-03, -6.65059173e-03, 2.93714087e-03,
          3.79439094e-04, 2.52823276e-03, 1.65082025e-03, 2.47391406e-03,
          5.31263044e-03, 4.70317388e-03, -3.71858198e-03,
          -8.51551257e-03, -2.43658735e-03, -2.86051887e-03,
          -2.55080918e-03, 2.47391406e-03, 5.03906654e-03,
          7.37125170e-04, -1.92953285e-03, -2.40947213e-03,
          -6.75331056e-03, -3.95460660e-03, -5.74241765e-03,
          -3.37621197e-03, 4.52198181e-03, 3.97912599e-03,
          5.75027848e-03, 5.56920539e-04, 4.23322711e-03,
          -4.86077182e-03, -3.14066932e-03, -8.96094926e-03,
          -5.96863357e-03, 3.09041189e-03, 8.01304635e-03,
          9.46893648e-04, -7.54289795e-03, -2.52687419e-03,
          -1.18131218e-02, -3.28297407e-04, -9.94953327e-03,
          -4.86893533e-03, 7.86623079e-03, 2.39132694e-03,
          -1.12420786e-03, -4.73451661e-03, -2.66651763e-03,
          -8.50508362e-03, -5.47860702e-03, -7.47538731e-03,
          4.62438073e-03, 6.35405397e-03, 1.00010168e-02,
          -2.49521749e-04, -9.85683966e-03, -1.33186709e-02,
          -1.07620629e-02, -8.26159865e-03, 3.21587431e-04,
          1.11501878e-02, 1.06193591e-02, 1.74018349e-02, 9.35087260e-03,
          -2.63101887e-03, -1.80681534e-02, -1.36366459e-02,
          -6.68154471e-03, 1.06374854e-02, 1.75405722e-02,
          1.75039601e-02, 7.90808909e-03, -3.16665112e-03,
          -1.18855545e-02, -1.68884173e-02, -1.61582027e-02,
          -9.31835826e-03, 1.10669844e-02, 1.69709530e-02,
          1.11202197e-02, -4.65075159e-03, -1.93769555e-03,
          -1.24749122e-03, -1.92623655e-03, -9.67343990e-03,
          -1.83235072e-02, 5.49020618e-03, 8.02647229e-03,
          1.75346306e-03, 3.90134566e-03, 1.92028657e-02, 1.64902024e-02,
          2.28282690e-04, -1.66244730e-02, -2.10950170e-02,
          -6.02251105e-03, -1.32398959e-03, 5.93777455e-04,
          8.91875196e-03, 1.89014189e-02, 1.75664332e-02, 1.07797189e-03,
          -1.58451125e-02, -1.54620605e-02, 2.27070390e-03,
          3.54630733e-03, 3.04071186e-03, 6.20625028e-03, 9.51435138e-03,
          5.15191164e-03, 1.12577761e-03, -1.17795002e-02,
          -5.80819510e-03, -8.40235502e-03, -1.18885366e-02,
          -1.06544066e-02, 9.19734687e-03, 6.84581464e-03,
          -1.47335995e-02, -7.21693644e-03, -9.47265886e-03,
          -6.62285183e-03, -6.98452024e-03, -1.11858388e-02,
          4.75490326e-03, 4.00691153e-03, -2.68259225e-03,
          -1.94181763e-02, -7.15416716e-03, -4.30334080e-03,
          -3.33932490e-04, -1.54250156e-04, -2.76146992e-03,
          1.63466875e-02, 1.53138753e-05, -1.13921771e-02,
          -7.91968778e-03, -4.88508493e-04, 1.08770584e-03,
          4.57869435e-04, 1.28552748e-03, 3.61943967e-03, 1.44187128e-02,
          5.41623961e-03, -2.25291261e-03, 1.02993858e-03,
          1.45501530e-04, 3.04607936e-04, -9.70203197e-04,
          -8.77197552e-03, -1.19605763e-02, 5.41623961e-03,
          2.33047269e-02, 3.02025490e-03, 1.33811545e-05,
          -1.52601977e-03, -8.69845133e-03, -1.80866420e-02,
          -1.90363452e-02, -1.29174180e-02, 9.48067289e-03,
          1.49941286e-02, -3.43412091e-03, -7.27227889e-03,
          -4.53465385e-03, -1.60394926e-02, -1.41792269e-02,
          -1.59806535e-02, -8.47905688e-03, 1.28924716e-02,
          1.33505724e-02, -6.20314246e-03, -1.07662193e-02,
          -6.88374089e-03, -1.72377806e-02, -7.16259237e-03,
          -1.26300361e-02, -7.13442219e-03, 1.32082235e-02,
          7.83356652e-03, -9.19875689e-03, -1.24450848e-02,
          -7.81641249e-03, -1.32901948e-02, -8.18827096e-03,
          -1.43558634e-02, 8.64086207e-03, 1.06690815e-02,
          5.07603819e-03, -7.18423212e-03, -8.22466984e-03,
          -9.65114776e-03, -1.59563143e-02, -1.29109016e-02,
          -6.99242251e-03, 8.52920394e-03, 1.09381387e-02,
          4.59128991e-03, 3.28172650e-03, 3.25731328e-03,
          -1.99248130e-03, -1.66137666e-02, -9.49994102e-03,
          1.32104522e-02, 1.83062144e-02, 1.60903428e-02, 9.76843853e-03,
          7.95667619e-03, 8.87928810e-03, -5.99186821e-03,
          -7.89738819e-03, -1.06583517e-02, 1.42468195e-02,
          1.26652420e-02, 9.43198893e-03, 2.46964768e-03,
          -2.58102846e-05, -3.98541917e-04, -1.32829472e-02,
          -1.76553614e-02, -6.54732343e-03, 1.18273245e-02,
          1.37190353e-02, 4.00116993e-03, 8.40355991e-04,
          -1.80319522e-03, 9.21243336e-03, 1.63849921e-03,
          1.59791915e-03, -1.30347339e-02, -1.73419877e-03,
          -3.21925781e-03, 7.84805277e-04, -1.31980772e-03,
          6.57957606e-03, 2.01184731e-02, 5.99555345e-03,
          -6.42664498e-03, -1.59758888e-02, -2.89720786e-03,
          -1.12728681e-03, -1.54451549e-03, -1.97742414e-03,
          -1.42662262e-03, 1.99399469e-03, 9.44892224e-03,
          1.63045799e-04, -7.97551242e-04, -3.87864653e-03,
          -2.77970638e-03, -2.28495081e-03, 3.23345978e-03,
          -6.78245118e-03, -1.11644119e-02, 2.59579136e-03,
          9.50777531e-03, 2.40103924e-03, 5.51560568e-03, 7.33579416e-03,
          1.75700877e-02, 1.26445862e-02, -1.08527681e-02,
          -1.60632282e-02, 2.33159913e-03, 1.34569146e-02,
          6.50128990e-04, 4.16556885e-03, 6.84067979e-03, 2.01024413e-02,
          -3.95697821e-03, -7.27434410e-03, -6.98754145e-03,
          7.55997724e-04, 1.36896260e-02, 1.88477966e-03, 8.39458406e-03,
          1.01947738e-02, 7.20173446e-03, -1.03993213e-03,
          6.26545586e-03, 6.35449588e-03, 3.50731635e-03, 9.72399395e-03,
          -1.03882924e-02, -4.24432801e-03, -3.43066477e-03,
          -1.17635564e-03, 1.71238594e-02, 1.62495654e-02,
          1.55368056e-02, 8.57054163e-03, -8.96583218e-03,
          -1.95270833e-02, -1.42887840e-02, -2.39894027e-03,
          1.50897196e-02, 9.71664395e-03, 9.81345959e-03, 5.98078221e-03,
          -5.01180347e-03, -8.18092935e-03, -1.52937630e-02,
          -5.58664836e-03, 7.61115924e-04, 1.06380852e-02,
          5.58130210e-03, -4.80074761e-03, -5.88736078e-03,
          -5.53847104e-03, -1.77707383e-03, -9.54207871e-03,
          3.25773866e-03, -4.14761249e-04, 7.06342421e-03,
          3.67236394e-03, -1.02786021e-02, -8.71133711e-03,
          -8.40881560e-03, -6.19283877e-03, 1.48347230e-04,
          3.82016157e-03, 1.06733693e-02, 5.89406583e-03, 2.77224416e-03,
          -8.97707301e-04, -8.77926778e-03, -1.07174395e-02,
          -7.91414734e-03, 3.09832627e-03, 4.43870528e-03,
          8.25933088e-03, 3.57476692e-03, 5.88327472e-04, 2.27461394e-04,
          -1.07536968e-02, -1.89071838e-02, -6.13084005e-04,
          6.77478453e-03, 1.24216368e-02, 1.00262184e-02, 3.03727551e-03,
          7.57233182e-04, 2.88193172e-04, -5.84140653e-04,
          -1.75071713e-02, -1.13709399e-03, 1.59728937e-02,
          7.23131374e-03, 3.19026085e-03, 1.20814738e-03, 8.77929095e-04,
          -5.88961586e-04, -4.05024411e-03, -2.09791493e-02,
          -4.83430550e-03, 5.63262776e-03, 1.67531893e-02,
          1.36965811e-02, 1.28877105e-03, -2.69524578e-04,
          -3.61113320e-03, -5.03846258e-03, 2.59117782e-03,
          3.62773566e-03, 3.62773566e-03, -1.09448042e-02,
          -5.43366093e-03, -1.46555621e-03, -1.25168208e-02,
          -1.29409609e-02, 1.23783154e-03, 1.76929887e-02,
          4.93302196e-03, 4.93302196e-03, 3.07892478e-04,
          -1.04968464e-02, -1.36070279e-02, -1.18170669e-02,
          -1.96355823e-02, -2.70718336e-03, 8.40834249e-03,
          1.09166950e-02, 1.06853964e-02, 1.52981086e-02, 1.52513189e-02,
          1.38742458e-02, 3.12882569e-03, -1.07841650e-02,
          -8.46519507e-03, 2.87820026e-03, 1.06718764e-02,
          3.69908614e-03, 8.93819984e-03, 1.37976091e-02, 1.51498457e-02,
          -3.90864117e-03, -8.28463398e-03, -5.29578468e-03,
          4.93921014e-03, 1.10303769e-02, 1.52103661e-03, 5.89229679e-03,
          7.03817233e-03, 6.59313425e-03, -8.06633942e-03,
          -1.79462356e-03, 3.72286397e-03, 6.64597889e-03,
          1.27126062e-02, 6.95930934e-03, 4.33061039e-03, 3.15009966e-03,
          -7.46249175e-03, 2.43790285e-03, 9.13290400e-03,
          9.07874387e-03, 2.15000566e-03, 5.64570166e-03,
          -3.20335780e-03, 2.52424576e-03, -8.21285509e-03,
          -4.38730977e-03, 1.46701513e-02, 1.29802730e-02,
          1.24253221e-02, -7.16411218e-04, -1.01025095e-02,
          -2.00645998e-02, 2.00393202e-04, 7.90631585e-03,
          1.15083614e-02, 1.34522254e-02, 1.87732279e-02, 1.72010269e-02,
          6.51233038e-03, 1.53572636e-03, -1.52622936e-02,
          -1.19640343e-02, -1.23338867e-02, 7.48031714e-04,
          1.88000282e-04, 7.88874086e-03, 5.48485992e-03, 5.27024642e-03,
          5.47390571e-03, 3.76299722e-03, -3.98546038e-03,
          -9.03368182e-03, -7.00753136e-03, -1.84631150e-03,
          -5.39630279e-03, 2.09932029e-03, 3.43438098e-03,
          1.95344863e-03, -1.99666107e-03, 1.66524376e-03,
          4.77381703e-03, -1.43264106e-03, 2.52046343e-03,
          -4.87162452e-03, -8.46420787e-03, -1.83292839e-03,
          6.54348079e-03, 3.06553184e-03, 7.28079677e-03, 6.17064210e-03,
          1.01128221e-02, 3.00876214e-03, -5.48031239e-04,
          -5.87160233e-03, -5.87160233e-03, 1.15776649e-02,
          1.25377085e-02, 1.91896979e-03, 2.79138651e-04, 1.02712668e-03,
          -2.31625419e-03, -3.73897515e-03, -6.25085365e-03,
          4.69524995e-04, 2.00463668e-03, 7.64670782e-03,
          -4.92055202e-04, 3.59438942e-04, -1.46728917e-03,
          2.48481007e-03, -5.47599001e-03, -1.77027564e-02,
          -5.68574760e-03, 6.92871772e-03, 1.76706389e-02,
          1.38460314e-02, 6.30919123e-03, 1.48295565e-03,
          -1.15119037e-03, -1.88091258e-03, -8.83291708e-04,
          -1.14373276e-02, -7.78896967e-04, 3.97455413e-03,
          3.97455413e-03, -4.54104957e-05, -4.48534312e-03,
          -1.62912384e-02, -1.19888317e-02, -8.73120385e-04,
          1.26066420e-03, 8.78942385e-03, 8.57738126e-03, 4.26836638e-03,
          4.27827099e-03, -1.09474575e-02, -1.46172820e-02,
          -2.28860714e-02, -1.77660510e-02, -2.72160955e-03,
          -8.09047837e-04, 2.99072661e-03, 1.63671374e-02,
          2.05610935e-02, 1.06374435e-02, 3.92847927e-03,
          -2.37281211e-02, -2.44104248e-02, -9.95763461e-04,
          1.98800961e-04, 8.14593397e-04, 6.23289216e-03, 1.98513828e-02,
          2.34030262e-02, 8.15626932e-04, -1.89074632e-02,
          -6.97345613e-03, 9.24299064e-04, 3.18457303e-03,
          4.16884053e-04, 1.18039036e-03, 4.81673563e-03, 2.34223083e-02,
          4.43532877e-03, -6.18446479e-03, 2.49019969e-04,
          1.27795734e-03, 1.68575405e-03, -2.87613278e-04,
          -6.15985272e-03, -5.13844378e-03, 4.43532877e-03,
          1.92438960e-02, 1.02200154e-02, 2.78404425e-03, 9.47708322e-04,
          1.77524844e-03, -1.24569554e-02, -1.94482915e-02,
          -1.04859145e-02, 1.03052119e-02, 2.25859210e-02,
          9.32933390e-03, -1.39727068e-04, -2.96955998e-03,
          -1.16243009e-02, -2.05581095e-02, -1.83387790e-02,
          -9.68410447e-03, 1.69198290e-02, 2.55369078e-02,
          8.46629124e-03, 2.85696168e-03, 8.03682546e-04,
          -5.53694845e-04, -9.73946508e-03, -2.05634851e-02,
          -1.76341999e-02, 4.72600525e-03, 6.62177382e-03,
          7.33199576e-03, 2.29421351e-03, 1.07493950e-03, 1.51270325e-03,
          1.48399791e-03, -6.74257579e-04, -1.46857621e-02,
          7.53241038e-05, -9.82630299e-04, 1.71330117e-03,
          2.65226608e-05, 6.91899098e-04, -1.84929922e-05,
          1.28807718e-04, 4.13751870e-04, 1.80518825e-03,
          -6.29182265e-04, 3.14985309e-03, 2.63331993e-03,
          -1.29594021e-02, -4.09296517e-05, -3.92846065e-04,
          -4.52560053e-05, 2.49600736e-04, 4.78025293e-04,
          5.54486038e-03, 4.75916686e-03, 1.15055952e-03, 1.15055952e-03,
          -6.24255603e-03, -4.49149776e-03, -1.93121564e-03,
          -1.45745871e-03, -2.31147511e-03, -2.03131209e-03,
          -7.57901557e-03, -1.75571744e-03, 1.68182087e-04,
          3.51350312e-03, 7.60282855e-03, -6.82647398e-04,
          -3.64245527e-04, -1.47684803e-03, -2.98716687e-03,
          6.52927207e-03, -7.64244003e-03, -2.04934902e-03,
          -2.32773440e-04, 1.23950010e-02, 4.72908840e-03,
          2.64501781e-03, 2.22056266e-03, 3.16552445e-03,
          -1.22704180e-02, -4.34883172e-03, -6.91110035e-04,
          -8.44787690e-04, -6.47981418e-03, 7.90780352e-04,
          4.68972791e-03, 4.68972791e-03, -8.30124505e-03,
          -1.63046457e-02, -1.88972075e-02, -9.31685138e-03,
          4.56811598e-04, 2.12178985e-03, 5.74674457e-03, 1.64842531e-02,
          1.35705909e-02, 6.40155701e-03, 6.86773797e-04,
          -2.62906775e-02, -2.15716735e-02, 2.50163401e-04,
          4.41385247e-03, 9.01251007e-03, 1.32929441e-02, 2.16550212e-02,
          2.09553670e-02, 4.73253522e-03, -1.89486314e-02,
          -1.94962416e-02, 3.66182619e-04, 6.46128831e-03,
          7.16458121e-03, 6.94644498e-03, 1.78254563e-02, 2.06022281e-02,
          3.45594180e-03, -1.11864619e-02, -1.35744605e-02,
          -1.44743407e-03, -1.90290529e-03, -3.62851046e-04,
          -2.44844658e-03, 3.74594796e-03, 1.51099227e-02,
          9.84313060e-03, 7.64471595e-04, -5.96488966e-03,
          -9.09522525e-04, -7.53316237e-03, -7.79932085e-03,
          -1.34233469e-02, -1.27546405e-02, 9.00579151e-03,
          2.49041356e-02, 9.84607823e-03, 1.12866319e-03, 1.51191640e-03,
          -4.63242352e-04, -2.08074506e-02, -2.15867814e-02,
          -1.50298420e-02, 1.90550163e-02, 2.38352474e-02,
          1.09992363e-02, 2.06005387e-03, 2.17541051e-03,
          -7.38262534e-05, -9.72237065e-03, -2.34293379e-02,
          -1.83645375e-02, 1.36984242e-02, 1.48232644e-02,
          1.22588985e-02, 1.64864154e-03, -1.77009695e-03,
          -2.38869293e-03, -5.64005598e-03, -1.72537360e-02,
          -1.74512714e-02, 2.71464302e-03, 1.31067180e-03,
          1.16218273e-02, 8.28030752e-04, -1.65380607e-03,
          -8.97834369e-04, -2.51341308e-03, -8.16184003e-03,
          -1.19548887e-02, 3.18327860e-04, -3.05803376e-04,
          3.44975083e-03, 3.39081953e-03, 1.24244703e-04,
          -8.11650592e-04, -4.57396411e-04, -9.09894181e-04,
          -4.68738610e-03, -1.26098690e-03, -3.21044266e-04,
          -3.21044266e-04, -5.88841597e-03, 1.53858564e-03,
          2.99288705e-03, 2.20070872e-03, -6.38354744e-04,
          1.58918486e-03, 2.91982247e-03, -6.19833311e-03,
          -6.19833311e-03, 3.42633878e-03, 7.65602756e-03,
          4.46386542e-03, 5.68991480e-03, 3.03999451e-03, 3.78820323e-03,
          1.08907269e-02, 5.46067534e-03, -2.17201980e-03,
          -3.96776944e-03, 3.22307483e-03, 1.55830162e-03,
          1.45687943e-03, 1.95316854e-03, 2.93075247e-03, 7.48586189e-03,
          1.79369515e-03, -8.38208536e-04, -1.66393560e-03,
          2.21700594e-03, -3.10255145e-03, -1.33100455e-03,
          -1.58859219e-03, -2.17747129e-03, -1.13944570e-03,
          -1.48545969e-02, -2.09766021e-03, 1.72182790e-03,
          6.35880569e-05, 3.62067833e-03, 8.34673643e-03, 6.92527136e-03,
          1.84294675e-03, 8.08642129e-04, -1.93571635e-02,
          -2.34007780e-02, -5.54607948e-03, -4.70992964e-04,
          3.94457544e-04, 1.69213396e-04, 8.04973859e-03, 2.60845143e-02,
          1.04459804e-02, 5.75794722e-04, -2.29069553e-02,
          -2.10392028e-02, -1.87264569e-03, 7.37911323e-05,
          -5.56233979e-04, -6.16299338e-04, 2.23859940e-02,
          2.11010855e-02, 4.77097509e-03, -1.23367775e-02,
          -1.62574276e-02, -2.91161542e-03, -9.42537561e-03,
          -3.34363780e-04, -8.60245340e-03, 6.13859482e-03,
          1.62716452e-02, 7.89242703e-03, -7.43441051e-03,
          -9.17383283e-03, -2.24234513e-03, -1.40461950e-02,
          -2.60971999e-03, -1.01366937e-02, 5.58021478e-03,
          6.91823522e-03, 5.58283599e-03, -1.05318353e-02,
          -1.06098326e-02, -4.17917501e-03, -1.59017947e-02,
          -2.98130559e-03, -3.14312708e-03, 7.61570269e-03,
          1.10463789e-02, 1.53088514e-02, -3.26825981e-03,
          -3.42857116e-03, -4.32597334e-03, -1.19189443e-02,
          -6.16202783e-03, -1.73425060e-02, -1.12597365e-02,
          1.07051004e-02, 2.20705103e-02, 4.45377640e-03, 2.52696034e-03,
          5.80668740e-04, -2.08146666e-05, -6.93913491e-04,
          -2.16097552e-02, -1.60403606e-02, 6.10883348e-03,
          1.44448131e-02, 6.21016510e-03, 1.73355290e-03, 3.64987878e-04,
          5.49685734e-04, 2.62314483e-04, -5.55287162e-03,
          -1.57757495e-02, -2.90503696e-04, 3.99922905e-03,
          3.66088166e-03, 1.11600629e-03, 7.99631875e-04,
          -1.60080192e-04, 4.75237130e-06, -4.04922711e-03,
          -1.04978597e-02, 2.69282516e-03, 2.74073402e-03,
          -7.68186059e-03, 5.87211398e-04, 5.48879965e-04,
          -1.37246025e-04, 4.31350229e-04, 2.11540842e-04,
          -4.02947236e-03, 2.74073402e-03, 1.68417976e-03,
          -1.64241400e-02, -6.14547590e-03, -7.18574331e-04,
          4.84181161e-04, 5.68388146e-04, 4.00369870e-04, 9.31306742e-04,
          1.76386815e-02, 1.07356790e-03, -4.09352779e-03,
          -1.30922487e-02, -1.03169936e-03, -6.92363130e-04,
          1.95733708e-04, -3.01573629e-04, 4.81477764e-04,
          1.26128625e-02, 2.25708890e-03, 2.25708890e-03,
          -1.36648407e-02, -1.06995774e-03, -2.99519696e-03,
          1.22556070e-04, -1.51324668e-03, -7.87395227e-04,
          4.02215682e-03, 1.66341220e-03, 5.80148306e-03, 7.30049191e-03,
          3.58874677e-03, -7.72890821e-03, -1.19054760e-03,
          -6.10514730e-03, -9.30197071e-03, -1.29216369e-02 ]
      - [ -2.11784523e-03, 6.54241350e-03, 1.29316505e-02,
          -1.52685185e-04, -9.11985990e-03, -5.27022174e-03,
          -8.86397250e-03, -9.66782309e-03, -1.33775845e-02,
          1.83166226e-03, 1.83166226e-03, 6.75959513e-03,
          -2.20442889e-03, -4.03407961e-03, -4.52256529e-03,
          -6.33547548e-04, -2.05072970e-03, -5.70011558e-03,
          -3.84944538e-03, -3.84944538e-03, 2.50455085e-03,
          2.94847554e-03, -2.27798038e-04, 5.67431469e-03,
          4.08769445e-03, 3.62806302e-03, 1.27013586e-03,
          -4.52388311e-03, -4.52388311e-03, 1.61999126e-03,
          1.76014041e-03, 3.50940879e-03, 4.64594318e-03, 7.19103636e-03,
          4.44555376e-03, 6.86007971e-03, -4.25738841e-03,
          -8.82065389e-03, -9.15020530e-04, 1.29424416e-06,
          4.20513051e-03, 8.55212973e-04, 4.91062552e-03, 1.00666033e-02,
          1.64494701e-02, -5.17340377e-03, -7.17238849e-03,
          4.45368374e-03, 1.65504590e-03, 2.85506900e-03, 4.20199288e-03,
          3.17321811e-03, 7.15950178e-03, 1.45582166e-02,
          -4.29388508e-03, -1.30337384e-02, 5.82513958e-03,
          1.75802037e-04, 2.42350390e-03, 1.63340115e-03, 5.07015595e-03,
          1.12034669e-02, 1.35938060e-02, 2.27115443e-03,
          -7.87990168e-03, -8.41240864e-03, -2.23262075e-04,
          -3.73413437e-03, -2.42252136e-03, -2.05273551e-04,
          6.20408403e-03, 7.63669889e-03, 4.50082868e-03,
          -1.19483029e-03, -1.79752547e-04, -6.76648109e-04,
          -5.66542661e-03, -7.29601132e-03, -6.98074000e-03,
          -1.67552952e-03, 6.75716903e-03, 6.45360863e-03,
          -1.79893570e-03, 1.97291462e-04, -5.05241379e-03,
          -5.43820113e-03, -1.01203034e-02, -9.15481709e-03,
          -3.18012480e-03, 6.45360863e-03, 1.44868447e-02,
          7.80012831e-03, 2.77751312e-03, 1.71899213e-03,
          -9.20039415e-03, -1.53758842e-02, -1.06707606e-02,
          3.36799654e-03, 1.33744637e-02, 1.47542413e-02, 5.93978632e-03,
          1.38792931e-03, -4.33892012e-04, -1.41728660e-02,
          -1.55624244e-02, -2.47603422e-03, 1.51581261e-02,
          1.64189637e-02, 3.86178406e-04, -4.77753393e-03,
          -6.50992012e-03, -2.56066537e-03, -6.25159917e-03,
          5.74711338e-03, 9.67433618e-04, 8.98116548e-03, 2.41248589e-03,
          1.15552463e-03, 1.19045214e-03, -5.82249416e-03,
          -2.47750385e-03, -9.57629457e-03, -2.80151470e-03,
          -4.52661002e-03, 6.20164350e-03, 2.65785865e-03,
          -8.66143219e-03, -7.04048341e-03, -8.93814582e-03,
          -2.44063395e-03, -1.49546638e-02, -6.37878804e-03,
          9.93379671e-03, 1.05272895e-02, 1.60013093e-03,
          -1.97133496e-02, -3.69900651e-03, 1.65445060e-02,
          1.83548145e-02, 3.92051181e-03, -3.35664779e-04,
          -5.66715491e-04, -1.85305413e-04, -7.45881721e-03,
          -1.46493372e-02, -5.40862791e-03, 1.62808243e-02,
          1.69179533e-02, 1.00849466e-02, 2.94700032e-03, 3.98919592e-03,
          3.16749909e-03, -6.36685872e-03, -4.45086369e-03,
          -4.45086369e-03, 1.48419933e-02, 8.34344514e-03,
          3.20582977e-03, 9.89960739e-04, 4.78008267e-04,
          -1.89923769e-04, -1.74923392e-03, -6.10454066e-04,
          -1.07669574e-03, -3.30301886e-03, -2.29214877e-03,
          -3.21376632e-04, -1.88939084e-04, -9.63298080e-04,
          -1.98392896e-03, 4.55789641e-03, 2.34739715e-03,
          -9.43957770e-04, -1.37186851e-02, -6.54733460e-03,
          -1.32851198e-03, -3.80608113e-03, -3.18726245e-03,
          -1.09309936e-03, 1.09404586e-02, 4.70039231e-04,
          -8.59739445e-03, -5.79715567e-03, -1.43384188e-03,
          -6.32706448e-04, -1.60976162e-03, -1.49489578e-03,
          1.20500947e-04, 1.26255769e-02, -3.39304068e-04,
          -1.73313860e-02, 5.20664616e-05, -4.64927638e-04,
          3.16342397e-04, -3.71231610e-04, 3.81299964e-04,
          5.57772582e-03, 1.61900427e-02, 2.67970259e-03,
          -1.20250415e-02, 1.69497333e-04, -3.07544949e-04,
          -4.42742225e-04, -7.88302685e-04, -9.82062076e-04,
          1.31601316e-03, 2.67970259e-03, 1.21618919e-02, 5.57375280e-03,
          2.42651528e-04, -3.69387795e-03, -8.77432246e-03,
          -1.43660605e-02, -1.41426083e-02, -9.00128391e-03,
          7.63358409e-03, 2.17600316e-02, 4.17294819e-03, 2.64065486e-04,
          -9.88818519e-03, -1.76220778e-02, -1.81664079e-02,
          -1.55283622e-02, 1.58373278e-03, 2.08340008e-02,
          1.70263145e-02, 6.45738794e-04, -8.39408385e-05,
          -1.50172831e-03, -2.20251698e-02, -2.19639614e-02,
          -3.11405002e-03, 1.72206685e-02, 2.06995308e-02,
          1.43277375e-02, 1.45498535e-03, -2.87385716e-04,
          -2.37525604e-03, -2.20927894e-02, -2.16980875e-02,
          -1.19325146e-03, 1.44306440e-02, 1.97228529e-02,
          -1.08225187e-02, -9.72858816e-03, -3.61438701e-03,
          4.61060740e-03, -5.13848895e-03, 7.24707963e-03,
          2.07327283e-03, 7.49395462e-03, 4.89575381e-04,
          -4.32525389e-03, -9.50492336e-04, -1.91922882e-03,
          4.83106961e-03, 1.29338703e-03, 7.28703197e-03, 1.95131591e-03,
          -2.24450557e-03, -5.22232475e-03, -4.46384354e-03,
          -1.02637820e-02, -1.17102675e-02, -3.36673972e-03,
          -1.11922938e-02, 4.47990093e-03, 6.91263517e-03,
          9.47316457e-03, -2.59109656e-03, -1.84930861e-02,
          -1.83056425e-02, -6.53022085e-04, 1.78960841e-02,
          2.01213565e-02, 9.13989148e-04, -6.23468135e-04,
          -3.67491064e-03, -1.13641806e-02, -1.56802498e-02,
          -9.09522362e-03, 6.06914470e-03, 1.29631134e-02,
          1.69581901e-02, -1.62685034e-03, -3.83153022e-03,
          -9.75111779e-03, -1.39779188e-02, -5.05628716e-03,
          -4.47913166e-03, 2.17994163e-03, 7.25733954e-03,
          7.58558931e-03, 2.51503452e-03, 1.19780819e-03,
          -2.82303430e-04, 2.52418779e-03, -4.50219074e-03,
          -5.32933278e-03, 6.61299238e-03, 1.24048453e-03,
          7.77883921e-03, 1.90556783e-03, 4.53199632e-03, 3.85566009e-03,
          4.86330595e-03, -4.19663545e-03, -6.21544989e-03,
          2.24601896e-03, 2.37146043e-03, 1.07319970e-02, 4.14641778e-04,
          2.75486941e-03, 4.00204025e-03, 8.46241601e-03,
          -7.03931879e-03, -8.37330800e-03, 3.00432206e-03,
          2.02278583e-03, 1.16580725e-02, 2.27795728e-03, 7.76770478e-03,
          8.78203288e-03, 7.70329032e-03, -5.58363926e-03,
          -7.45634595e-03, -7.01148063e-03, -2.16398714e-03,
          1.00196907e-02, 2.14833324e-03, 9.80970357e-03, 1.17872953e-02,
          8.98489635e-03, -6.79558329e-03, -7.45736063e-03,
          6.93616178e-03, 5.55730239e-03, 6.19182549e-03, 8.32848076e-04,
          4.97120805e-03, 6.82058185e-03, 6.60985615e-03, 1.73875107e-03,
          3.58367572e-04, -2.63457326e-03, -1.28323585e-02,
          -2.24768231e-03, -3.41909472e-03, 2.04591383e-03,
          2.78294343e-03, 1.14463549e-02, 1.54653983e-02, 4.31493111e-03,
          -2.31173029e-03, -1.80992186e-02, -8.43803678e-03,
          -1.12255896e-02, 1.14795212e-02, 1.16668604e-02,
          1.57973561e-02, 1.48830526e-02, 3.30627570e-03, 3.82000464e-03,
          -5.60712907e-03, -1.29961278e-02, -1.55741340e-02,
          3.68116912e-03, 1.52794067e-02, 1.60105471e-02, 1.19468500e-03,
          1.20911915e-02, 6.27747923e-03, 1.71192468e-03,
          -7.00214412e-03, -3.89257865e-03, -3.82832182e-03,
          5.92944620e-04, 6.40403538e-04, -2.08082162e-02,
          -5.59405098e-03, 1.60722149e-04, 2.39618914e-03,
          1.89200155e-02, 1.91666391e-02, 9.66231152e-03, 2.63987598e-03,
          -1.86669007e-02, -1.48866931e-02, -1.27868028e-03,
          1.52795354e-03, 6.24090526e-03, 2.06615459e-02, 1.99463647e-02,
          -9.18120425e-03, -1.43553028e-02, -1.57485902e-02,
          -1.64560683e-03, -1.58368703e-03, -2.21960479e-03,
          1.25103816e-03, 7.34360144e-03, 1.47235682e-04, 1.47235682e-04,
          -5.47250547e-03, -4.54077031e-03, -1.83568764e-02,
          -1.87128130e-02, -5.06380247e-03, 1.43940235e-02,
          1.71088260e-02, 1.62044056e-02, 1.99375418e-03,
          -4.68824711e-03, -1.57710481e-02, -2.03859266e-02,
          -2.18375809e-02, -8.00922513e-03, 1.42667526e-02,
          1.76196210e-02, 1.73700769e-02, 1.26069309e-02, 2.39621056e-03,
          -2.77501735e-04, -1.38610033e-02, -1.64083131e-02,
          4.63343551e-03, 6.40164409e-03, 9.75873601e-03, 9.86205786e-03,
          1.18873827e-02, 1.25741540e-02, 1.18939038e-02,
          -5.94218029e-03, -6.35662954e-03, 8.13390873e-03,
          2.89539667e-03, 8.36087670e-03, 2.33116234e-03, 6.63155131e-03,
          8.34112987e-03, -4.50354564e-04, -5.53207193e-03,
          -9.45934746e-03, 3.19445017e-03, 7.70328194e-03,
          5.86148817e-03, 2.26513715e-03, 4.61069960e-03, 4.51735733e-03,
          3.59553867e-03, -6.34347380e-04, -3.04535846e-03,
          -3.33011243e-03, -6.37382455e-03, -1.41894782e-03,
          4.07215703e-04, 6.42762613e-03, 8.03283416e-03, 4.27338388e-03,
          7.85905682e-03, -2.37493636e-03, -5.28842770e-03,
          -9.21610184e-03, -4.09715436e-03, -2.27230671e-03,
          1.08910855e-02, 9.15244129e-03, 1.25681078e-02,
          -3.96317476e-03, -5.30855497e-03, -2.50237668e-03,
          -8.02138075e-03, 9.77935968e-04, 8.90285301e-04,
          1.30279586e-02, 9.95613262e-03, 7.04109995e-03,
          -2.20748223e-03, 1.07472751e-03, 1.60222524e-03,
          -8.91732145e-03, 4.93530359e-04, -5.75663522e-04,
          3.03200446e-03, 2.13012495e-03, 5.56616904e-03, 9.74587537e-03,
          9.23229661e-03, 6.11733925e-03, -7.02396780e-03,
          -1.33547501e-03, -9.57684778e-03, -4.89925686e-03,
          -1.07131782e-03, 6.84135919e-03, 1.04273288e-02,
          4.99190204e-03, -2.16504000e-03, -6.95939129e-03,
          -1.79908075e-03, -1.26882987e-02, -7.21710315e-03,
          4.21349285e-03, 9.71555244e-03, 3.65714449e-03, 1.16716903e-02,
          6.13696035e-03, 3.03354696e-03, 2.07388611e-03,
          -1.11039234e-02, -6.56730309e-03, -7.22284010e-03,
          -2.29757652e-03, -1.40202902e-02, 5.46010304e-03,
          1.25850178e-02, 1.29258819e-02, 1.25943562e-02, 9.58409347e-03,
          -4.50003473e-03, -1.28496867e-02, -1.75007693e-02,
          -7.56009808e-03, -3.12557840e-03, 7.97431637e-03,
          1.03654582e-02, 6.99373521e-03, -3.57227353e-03,
          -1.29527878e-02, -1.33125978e-02, -1.07373772e-02,
          4.56009898e-03, 1.64450682e-03, 5.79023408e-03, 6.92540035e-03,
          -9.66165797e-04, -1.90004846e-03, -5.99995535e-03,
          -3.13351536e-03, 2.17481446e-03, -1.78308133e-02,
          -1.82567332e-02, -1.43023208e-04, 2.43853289e-03,
          1.43938884e-02, 1.84701886e-02, 1.72798205e-02, 5.15641226e-03,
          -1.61887575e-02, -1.98867768e-02, -2.06416585e-02,
          -4.03070543e-03, 3.24588531e-04, 4.80430992e-03,
          1.64487846e-02, 1.21303024e-02, 1.51627837e-02,
          -1.47868739e-03, -6.67784782e-03, -1.39379874e-02,
          -8.64764675e-03, -3.22140893e-03, -1.22715775e-02,
          -2.58616195e-03, 4.79864236e-03, 9.97547805e-03,
          5.35534881e-03, 2.41503655e-03, -7.95234647e-03,
          -9.26827826e-03, -9.25426465e-03, -1.11279273e-02,
          -4.07637376e-03, -4.80356812e-03, 7.32678315e-03,
          7.50600593e-03, 6.83161337e-03, -6.43745903e-03,
          -1.18558425e-02, -5.15416078e-03, -4.42610215e-03,
          -1.54236227e-03, -6.85508922e-03, -3.31808906e-03,
          6.64437003e-03, 1.22887772e-02, 4.86041140e-03,
          -5.05851395e-03, -7.51638692e-03, -1.23154894e-02,
          -1.33046033e-02, -1.31439269e-02, -3.52661544e-03,
          1.08533055e-02, 2.03014053e-02, 7.90636428e-03, 1.44204090e-03,
          -8.50542914e-03, -1.33385062e-02, -1.53052052e-02,
          -1.18030189e-02, -3.69245815e-03, 1.45102870e-02,
          4.36459994e-03, 7.86734466e-03, -5.63101086e-04,
          -2.70907441e-03, -4.25635464e-03, -1.14258695e-02,
          -7.36906147e-03, -8.14339612e-03, 4.30029770e-03,
          1.02521153e-02, 5.80950966e-03, 7.04248145e-04,
          -1.53139839e-03, -1.16019673e-03, -1.02532459e-02,
          -1.54322796e-02, -1.37008857e-02, 6.22042920e-03,
          1.73027832e-02, 5.44044795e-03, 1.11752062e-03,
          -5.50075434e-04, -4.04689787e-03, -1.64809432e-02,
          -1.68794021e-02, -1.08909160e-02, 1.38524780e-02,
          5.05860383e-03, 1.54073117e-03, -1.62943993e-02,
          -1.08432425e-02, -1.76299352e-03, -3.89948115e-03,
          -5.28801885e-03, -3.43985693e-03, 1.25124967e-02,
          6.47165393e-03, 6.47165393e-03, -1.32479044e-02,
          -4.42739995e-03, -8.46132752e-04, -1.23067817e-03,
          -5.58156054e-04, -2.09272397e-03, -1.04237776e-02,
          -4.74921940e-03, 4.41921083e-03, 1.39423236e-02,
          7.39171030e-03, 2.90593336e-04, -3.70346854e-04,
          -6.18780381e-04, -2.70784320e-03, -1.89613514e-02,
          -1.19532943e-02, -1.11007874e-04, 6.20560080e-04,
          5.34434617e-03, 4.69177635e-03, -3.47105961e-04,
          3.94428411e-04, 1.57261069e-03, -2.08460796e-03,
          4.67650220e-03, -1.31568732e-03, 1.30854303e-03,
          1.30854303e-03, -6.75054779e-03, -1.98087702e-03,
          2.11731391e-03, 1.83835183e-03, 3.13245947e-03,
          -1.14416564e-02, -1.01762889e-02, -9.78079718e-03,
          -4.94121341e-03, -1.13567999e-02, 8.74957256e-03,
          6.79150037e-03, 8.02195258e-03, -5.18950541e-03,
          -8.42469186e-03, -8.10582004e-03, -8.28991923e-03,
          -4.98881331e-03, -1.06507074e-02, 5.53781912e-03,
          8.24043807e-03, 7.15773925e-03, 4.88839578e-03,
          -3.46928049e-04, -1.11669851e-02, -7.15538068e-03,
          -2.57590180e-03, -9.12208110e-03, 2.83181132e-03,
          -1.14954892e-03, 4.78003593e-03, 5.95871452e-03,
          2.89864698e-03, -2.32969830e-03, -2.22969544e-03,
          -6.14845334e-03, -5.14997728e-03, -2.07407051e-03,
          -4.13152715e-03, 5.00476500e-03, 3.48149543e-03,
          7.49432947e-03, -3.38668469e-03, -1.05688451e-02,
          -4.25390061e-03, -7.94527400e-03, -4.64823516e-03,
          -9.23439860e-03, -1.86339882e-03, 8.19518138e-03,
          6.17764378e-03, 3.51281604e-03, -7.81453028e-03,
          -2.54877401e-03, -1.09803090e-02, -4.74619213e-03,
          -1.10374819e-02, -7.51903141e-03, 6.17764378e-03,
          1.71662290e-02, 7.77900964e-03, -3.14944005e-03,
          -4.14494047e-04, -3.77537892e-03, -9.51409433e-03,
          -1.64776165e-02, -1.20561011e-02, 5.00141690e-03,
          4.05607698e-03, 8.61872081e-03, 1.87348342e-03, 2.26618606e-03,
          -6.80478697e-04, -1.90168631e-03, -7.39887822e-03,
          -1.27663370e-02, 2.90093967e-03, 1.51104378e-02,
          1.42784324e-02, 1.99583243e-03, 2.04663636e-04,
          -2.94553698e-03, -1.69189349e-02, -1.62356589e-02,
          -1.25200199e-02, 7.12893810e-03, 6.10966329e-03,
          8.81111715e-03, 7.21403514e-04, -9.31608593e-05,
          -7.13308982e-04, -1.12735648e-02, -1.52202053e-02,
          -6.50806539e-03, 2.73328600e-03, 3.72345909e-03,
          1.16511225e-03, -1.22914277e-02, -7.79722631e-03,
          1.34702772e-03, 1.20390940e-03, 3.47258960e-04, 5.02217845e-05,
          9.93623398e-03, 2.94349040e-03, 5.71657671e-04,
          -9.59679857e-03, -3.51838488e-03, 7.47587718e-03,
          3.75119247e-03, 1.59597211e-03, 2.41477904e-03, 2.36380612e-03,
          -3.52367386e-03, 3.00517445e-03, 1.18154082e-02,
          6.95319334e-03, 3.53420759e-03, 5.26277674e-03, 2.63758027e-03,
          -1.04378629e-03, -7.62035977e-03, 1.12896285e-03,
          1.12896285e-03, 3.73927969e-03, 1.33067789e-03,
          -1.06630812e-03, 6.88366126e-04, 9.69802786e-04,
          1.36776257e-03, -7.62208644e-03, -8.24856758e-03,
          4.63745091e-03, 3.77221545e-03, -2.89489958e-03,
          -7.53961690e-03, -6.64948602e-04, -2.02465034e-03,
          -1.44825724e-03, -6.07133843e-03, -7.50174001e-03,
          -8.80908035e-03, -1.10171475e-02, -7.50850327e-03,
          -8.54868256e-03, -6.93603768e-04, 4.58785566e-03,
          9.92188975e-03, 6.75554201e-03, -8.57887603e-03,
          -5.04168635e-03, -7.24650500e-03, -6.66085351e-03,
          -1.33575732e-02, -7.12940935e-03, -5.20817749e-03,
          1.10509405e-02, 9.26877558e-03, 7.89749809e-03,
          -4.65092156e-03, -9.72407591e-03, -4.41072555e-03,
          -1.44015215e-02, -8.11795611e-03, -8.46895203e-03,
          8.48369021e-03, 7.32197799e-03, 5.38048160e-04, 2.73389230e-03,
          -3.41962161e-03, -2.06384854e-03, -1.16155120e-02,
          -2.14759936e-03, -6.52218284e-03, -1.85746903e-04,
          5.28167747e-03, 4.60314332e-03, -6.26159133e-03,
          -5.90460189e-03, -4.96428413e-03, -1.26352683e-02,
          -5.02443174e-03, -7.00506708e-03, 9.49757453e-03,
          5.34733757e-03, 3.07635451e-03, -8.17258563e-03,
          -8.08020588e-03, -4.34675300e-03, -1.39028281e-02,
          -1.56625407e-03, -2.94046709e-03, 9.24743619e-03,
          7.85396900e-03, 1.33732222e-02, -2.29161093e-03,
          -8.38076137e-03, -4.16895701e-03, -1.49895838e-02,
          -3.76142189e-03, -1.49767753e-02, -6.66346401e-03,
          1.15610864e-02, 1.24528538e-02, -1.44020282e-03,
          -6.26920676e-03, -4.30394243e-03, -1.09127471e-02,
          -7.81156076e-03, -1.17587345e-02, -8.56675301e-03,
          8.11202824e-03, 1.29367355e-02, 3.07440571e-03,
          -5.90675161e-04, -1.85877969e-03, -4.37967479e-03,
          -1.51312891e-02, -1.37801645e-02, -7.85763003e-03,
          6.71103364e-03, 4.61420277e-03, -7.13020054e-05,
          4.28584986e-04, 6.73965202e-04, 1.52336608e-04,
          -7.92167149e-04, -9.50916577e-03, -9.81184840e-03,
          4.61420277e-03, 5.20174950e-03, -1.04362583e-02,
          -1.64942089e-02, -3.93991452e-03, -1.77147592e-06,
          7.36162241e-04, 4.42315999e-04, 1.71837502e-03, 9.72109195e-03,
          1.08531835e-02, -8.94241035e-03, -1.64574198e-02,
          -1.48558887e-02, -5.04796486e-03, -3.47004971e-03,
          -4.42174217e-03, -2.86721368e-03, 1.79148484e-02,
          8.69186874e-03, 5.41142514e-03, -8.73831380e-03,
          -4.24657203e-03, -1.03654489e-02, -4.50991234e-03,
          -1.16283512e-02, -1.12346904e-02, -1.23665365e-03,
          7.01860432e-03, 9.18854959e-03, -6.38589216e-03,
          -4.41843923e-03, -1.27178961e-02, -5.19617088e-03,
          -1.06375758e-02, -1.08103156e-02, -1.15549064e-03,
          4.50987864e-04, 7.20657641e-03, 6.78060064e-03,
          -1.99209736e-03, -7.65596284e-03, 1.57780561e-03,
          -6.14741584e-03, -6.10041060e-03, -1.10774795e-02 ]
      - [ -6.71202457e-03, 2.08368013e-03, 6.67845039e-03,
          -5.34259109e-03, 2.97156337e-04, -1.36866816e-04,
          -1.25320876e-04, -2.27625336e-04, -2.92097637e-03,
          4.93384257e-04, 9.13255475e-03, 1.09619414e-02,
          -1.21053983e-03, -2.38223420e-03, -3.37956753e-03,
          -3.37044802e-03, -5.80502069e-03, -9.99563839e-03,
          -5.07799152e-04, 1.51094515e-02, 1.48229103e-03,
          9.75155563e-04, 8.26077521e-05, 7.94757507e-04,
          -1.67715340e-03, -8.47299583e-03, -9.21891816e-03,
          -2.57965364e-03, 4.92061954e-03, -1.60254270e-03,
          -8.96095153e-05, 1.85376871e-03, 3.13806185e-03,
          6.56959508e-03, -5.98149665e-04, -3.34438100e-03,
          -3.67428147e-04, 1.05812587e-03, -4.48924256e-03,
          -3.15167499e-03, 9.63530620e-04, -7.26041908e-04,
          3.73112061e-03, 3.60783166e-03, -3.67428147e-04,
          8.04176740e-03, 1.49674453e-02, 5.34038525e-03, 2.03907047e-03,
          2.45581870e-03, -8.41366302e-04, -1.22429933e-02,
          -1.01231774e-02, 3.45283079e-05, 1.81393363e-02,
          1.00817764e-02, 7.29315216e-03, 4.34937916e-04,
          -5.25632175e-03, -1.54569848e-02, -1.28189940e-02,
          -6.78141555e-03, 1.61137022e-02, 9.26508103e-03,
          1.73058256e-03, -4.74868948e-03, -2.93594529e-03,
          -8.85554682e-03, -1.15652094e-02, -1.11906007e-02,
          5.03843976e-03, 1.07445596e-02, 3.37191089e-03, 1.52275339e-03,
          -3.42193921e-03, 2.45346967e-03, -9.73475352e-03,
          -3.27624148e-03, -8.29410646e-03, 5.46747353e-03,
          4.70670639e-03, 6.32665493e-03, -6.16047019e-03,
          -6.95049390e-03, -4.29695239e-03, -1.26478299e-02,
          -2.38760654e-03, -2.70609790e-03, 6.45045005e-03,
          8.40048399e-03, 4.92751505e-03, -5.89950616e-03,
          -8.97730887e-03, -4.74019488e-03, -8.26690905e-03,
          -1.38858357e-03, -4.05724440e-03, 4.18751827e-03,
          7.04044988e-03, 8.37169494e-03, -1.88502669e-03,
          -9.89158172e-03, -7.84657616e-03, -7.87758734e-03,
          -7.71750405e-04, -2.07744027e-03, 7.16057140e-03,
          7.99434260e-03, 1.38602359e-02, 3.93943815e-03,
          -1.10797975e-02, -1.56300105e-02, -1.02820257e-02,
          5.25025604e-03, 9.10178851e-03, 1.35947485e-02, 1.39119625e-02,
          1.14480024e-02, 3.52224655e-04, -1.46591505e-02,
          -1.69987697e-02, -1.63128097e-02, 1.51124666e-03,
          1.00647882e-02, 1.70658734e-02, 1.54503444e-02,
          -8.41120165e-03, -8.73063225e-03, -9.21157748e-03,
          -1.00074774e-02, -8.46581534e-03, -1.08151063e-02,
          8.68772622e-03, 8.68772622e-03, 2.34634918e-03,
          -5.08761732e-03, 6.65008370e-03, 2.28304649e-03,
          2.28304649e-03, -1.09696444e-02, -3.10908491e-03,
          -1.61652092e-03, -1.97587325e-03, -2.73686182e-03,
          -2.44575879e-03, 6.30900380e-04, 2.84873153e-04,
          1.42594858e-03, 4.98903508e-04, -2.09144806e-03,
          6.47369889e-04, 5.12867002e-04, -1.63540489e-03,
          9.92686604e-04, 9.92686604e-04, 1.97529048e-03, 2.38822657e-03,
          -2.92550743e-04, -5.28727483e-04, -4.03256534e-04,
          -2.68182764e-03, -9.26666055e-03, 2.58905906e-03,
          1.65193044e-02, -4.27503779e-04, -8.91438336e-04,
          -1.91123853e-03, -1.60172139e-03, -4.34557535e-03,
          -1.73154529e-02, -2.17413320e-03, 1.66826248e-02,
          1.37849003e-02, -2.84202606e-03, -3.97250196e-03,
          -5.27824415e-03, -1.19248321e-02, -1.70735009e-02,
          -1.60828363e-02, 5.48429647e-03, 1.66716781e-02,
          9.08352062e-03, -1.37331418e-03, -2.51598703e-03,
          -1.06738023e-02, -1.56849902e-02, -1.50368307e-02,
          -1.09844543e-02, 1.00922994e-02, 2.17236802e-02,
          4.86154156e-03, 4.44100675e-04, -3.18151154e-03,
          -1.94116794e-02, -1.95512660e-02, -1.27612567e-02,
          3.41168675e-03, 2.14034114e-02, 1.58074237e-02,
          -5.39712957e-04, -4.88074962e-03, -7.81642459e-03,
          -1.81002803e-02, -1.61042344e-02, -1.13336165e-02,
          -7.79033697e-04, 1.50882686e-02, 8.67514778e-03,
          -2.71964585e-03, -9.32738744e-03, -6.93222415e-03,
          -1.38280904e-02, -5.84669784e-03, -1.02310041e-02,
          -2.72701029e-03, 9.46620479e-03, 9.61393490e-03,
          -9.59931780e-03, -1.04467738e-02, -6.31121453e-03,
          -1.32783940e-02, -2.38383235e-03, -4.27971594e-03,
          -1.94768747e-03, 9.26726684e-03, 3.26454709e-03,
          -1.08894026e-02, -8.99913348e-03, -6.31360570e-03,
          -1.30689815e-02, -2.70664506e-03, -6.32018689e-03,
          6.27520541e-03, 7.65963178e-03, 8.53965897e-03,
          -7.45227979e-03, -1.46123087e-02, -1.04838032e-02,
          -1.44016296e-02, -6.42994465e-03, -5.78723941e-03,
          9.52994172e-03, 1.48094120e-02, 4.31480678e-03, 2.36318703e-03,
          -4.60907258e-03, -1.48015087e-02, -1.33731319e-02,
          1.00842258e-02, 1.27117839e-02, 1.46072675e-02, 1.33822160e-02,
          9.19746514e-03, 7.07826205e-03, 5.73119894e-03,
          -1.49197131e-02, -8.68314318e-03, 8.77942052e-03,
          1.06119625e-02, 1.06878160e-02, 8.79055262e-03, 1.73244870e-03,
          -4.86698264e-04, -2.25151749e-03, -1.86434872e-02,
          -1.62818749e-02, -5.55122551e-03, 1.54574541e-02,
          1.89154763e-02, 5.38781565e-03, -2.34202971e-03,
          -5.01131359e-03, -1.60480698e-03, 4.94599342e-03,
          4.94599342e-03, -1.09632546e-02, -3.95480543e-03,
          -3.61525593e-03, -1.07850111e-03, -5.76168392e-03,
          -2.96591991e-03, -6.31660107e-04, -6.31660107e-04,
          7.03337835e-03, 1.32570800e-03, -5.77108985e-05,
          -5.60453744e-04, -6.64735155e-04, -8.71732249e-04,
          -1.46483595e-04, 4.77037439e-03, 5.09921554e-03,
          5.49771823e-03, 2.12880503e-03, 1.09027489e-03,
          -5.57450159e-03, -7.96072930e-03, 3.45400232e-03,
          1.34478174e-02, 7.60966493e-03, 2.74261017e-03, 7.00237136e-03,
          -9.39105230e-04, -5.68427611e-03, -1.21658323e-02,
          -2.46444973e-03, 1.62072666e-02, 1.41265616e-02,
          1.01116858e-02, 3.32647143e-03, 6.30453089e-03,
          -1.71494056e-02, -1.51821347e-02, -1.23420423e-02,
          9.82699916e-03, 1.35937789e-02, 1.19062802e-02, 1.03757111e-02,
          1.33698503e-03, -1.96194998e-03, -1.53544052e-02,
          -1.10163437e-02, 2.51951907e-03, 1.09947249e-02,
          1.40687861e-02, 1.26499310e-02, 5.41327242e-03,
          -4.51772939e-03, -1.03382608e-02, -1.93093754e-02,
          4.96436330e-03, 1.22895762e-02, 1.35167427e-02, 1.21750450e-02,
          1.12948548e-02, 7.87581969e-03, 1.07143575e-03,
          -1.11919828e-02, -1.70187708e-02, -6.83231093e-03,
          4.08487814e-03, 1.19614387e-02, 2.32320745e-03, 5.29473508e-03,
          -6.69384666e-04, -4.88223415e-03, -1.80414144e-03,
          -1.79704127e-03, -1.36442680e-03, -3.11180134e-03,
          1.20412232e-03, 2.13660486e-03, -6.41156826e-03,
          -5.79573261e-03, -7.36470753e-03, 1.49198715e-03,
          -2.05616932e-03, 4.62403009e-03, 3.81457922e-03,
          3.96651821e-03, 1.72421033e-03, -1.18986117e-02,
          -7.83615839e-03, -3.40730441e-03, -4.81320685e-03,
          1.59418653e-03, 3.60301929e-03, 1.09169940e-02, 5.41355414e-03,
          3.87202227e-03, -4.04160330e-03, -9.12862457e-03,
          -1.30639104e-02, -4.54910612e-03, 8.64929520e-03,
          6.29095500e-03, 1.09847737e-02, 8.02199077e-03, 5.53706544e-04,
          -2.08717911e-03, -2.11373027e-02, -1.88271664e-02,
          9.37100500e-03, 1.99391842e-02, 1.03008617e-02, 8.13869014e-03,
          2.84466776e-03, 1.04303670e-03, 6.79869438e-04,
          -1.52054261e-02, -1.21627953e-02, 2.98244762e-03,
          1.93813406e-02, 5.30466205e-03, 2.62959814e-03, 1.22859713e-03,
          1.66252011e-03, 8.28084187e-04, -1.52377822e-02,
          -1.89562645e-02, 9.11140407e-04, 1.44304670e-02,
          1.66777726e-02, 1.26421135e-02, 1.87627703e-03,
          -8.68275936e-04, -1.65269454e-03, -4.71533230e-03,
          -3.83515796e-03, -1.32176292e-03, 8.07818491e-03,
          2.95419456e-03, 1.03220744e-04, -5.65035793e-04,
          -5.89835923e-04, -1.79016078e-03, -1.47713034e-03,
          -6.21904107e-03, -4.48580878e-03, 1.19747808e-02,
          1.00060040e-02, 9.17063968e-04, -4.06720355e-04,
          1.99202317e-04, -2.22765328e-03, -3.48325731e-04,
          -1.65796990e-03, -1.99880241e-03, 4.11701680e-04,
          7.65987439e-04, 3.12338176e-04, 1.82123238e-03, 2.49935617e-03,
          3.66441440e-03, 4.60543483e-03, -9.13316268e-04,
          -3.20011028e-03, -8.56981054e-03, -2.01006676e-03,
          -9.09814553e-05, -2.73425976e-04, 1.23871006e-02,
          9.73807462e-03, 1.24381250e-02, 7.34710554e-03,
          -7.73967197e-03, -1.68698784e-02, -9.28503182e-03,
          5.97836310e-03, 1.17011014e-02, 1.11137172e-02, 1.07922489e-02,
          1.05604660e-02, 7.67606776e-03, 3.20834084e-03,
          -1.41198207e-02, -1.35452077e-02, 1.13713620e-02,
          1.12304874e-02, 1.31216981e-02, 1.14280879e-02, 9.77164414e-03,
          4.36694780e-03, -3.44769959e-03, -1.39715225e-02,
          -8.86403117e-03, 5.32925222e-03, 1.23593761e-02,
          1.26286941e-02, 1.17185703e-02, 1.12678381e-02, 3.91561119e-03,
          4.08398965e-03, -1.11392373e-02, -4.79308655e-03,
          -7.26411864e-03, 4.20878315e-03, -2.23654773e-04,
          1.29288090e-02, 1.18155377e-02, 4.91718389e-03, 3.85148590e-03,
          9.03173990e-04, -2.36462057e-03, -1.28587903e-02,
          -9.34590865e-03, -5.74278692e-03, -1.70363102e-03,
          9.70982946e-03, 5.95864933e-03, 1.07018854e-02, 3.75826331e-03,
          3.89788067e-03, -3.90202831e-03, -7.62679894e-03,
          -6.28971588e-03, -1.00947944e-02, -6.27851696e-04,
          2.34484300e-03, 8.78174976e-03, 1.24838855e-03, 5.94526576e-03,
          9.85784736e-03, 9.56045557e-03, 1.84504583e-03,
          -5.68924891e-03, -8.42822529e-03, 2.98222131e-03,
          9.66292061e-03, 3.31058167e-03, 8.34655389e-03, 6.83608511e-03,
          1.01260450e-02, 2.12252513e-03, -3.28231626e-03,
          -4.76959720e-03, -4.76959720e-03, 1.44686112e-02,
          1.13508077e-02, 1.35334814e-03, 1.37149094e-04, 7.86757155e-04,
          -1.19710038e-03, -9.57772322e-03, -7.06498558e-03,
          -2.53767567e-03, 1.40854781e-02, 9.73622128e-03,
          6.46012079e-04, 2.45519535e-04, -2.12067200e-04,
          3.71325831e-03, 4.96810426e-05, -1.60528719e-02,
          -6.45212876e-03, 1.55420117e-02, 1.57830678e-02,
          1.08616315e-02, 4.37323144e-03, 2.40615173e-03, 1.10492227e-03,
          4.37556155e-05, -3.81703046e-03, -1.70509405e-02,
          -4.20174655e-03, 3.96162271e-03, 1.62368305e-02,
          7.30250776e-03, 5.03877702e-04, 2.58579646e-04,
          -2.31367856e-04, -8.24819901e-04, -1.83282644e-02,
          -1.06871286e-02, 4.97992057e-03, 1.52521003e-02,
          1.56067358e-02, 4.75498755e-03, -5.11282496e-03,
          -7.91891385e-03, -1.01189511e-02, -6.59635430e-03,
          -1.20132184e-02, -3.43624759e-03, 3.19831120e-03,
          7.66115496e-03, 3.68525204e-03, 4.25240770e-03,
          -6.24502683e-03, -1.06187342e-02, -4.33927681e-03,
          -1.29611958e-02, -3.98472557e-03, -8.03213753e-03,
          7.69212004e-03, 6.45137392e-03, 2.04440299e-02, 5.38472040e-03,
          -9.26537614e-05, -1.63982715e-03, -8.08886439e-03,
          -1.77793633e-02, -1.69923473e-02, -9.16239154e-03,
          1.85368713e-02, 2.08070129e-02, 1.10873803e-02, 2.64165364e-03,
          8.51115619e-04, -3.35238595e-03, -2.10845843e-02,
          -2.08841786e-02, 1.77503956e-04, 2.05717981e-02,
          1.94197651e-02, 7.55164400e-03, 1.19165506e-03,
          -1.01358548e-03, -5.27916662e-03, -1.86525583e-02,
          -1.51639469e-02, -4.99918964e-03, 1.73469391e-02,
          1.88486166e-02, 9.96018294e-03, 1.07225124e-03, 2.33068014e-04,
          -2.59806577e-04, -6.91931089e-03, -1.74270552e-02,
          -1.23451231e-02, 6.12003356e-03, 2.53339228e-03,
          6.21708529e-03, 2.22194637e-03, 8.92388460e-04, 9.71336034e-04,
          1.10223800e-06, -1.71028660e-03, -1.29581373e-02,
          2.53339228e-03, 4.31603083e-04, -3.88599606e-03,
          1.82509737e-03, 9.18624399e-04, 1.46975101e-03, 1.15651917e-03,
          9.23380547e-04, 3.34137282e-03, 4.31603083e-04,
          -3.98087408e-03, -4.26309649e-03, -2.00493191e-03,
          5.40256515e-05, 8.34719904e-05, 9.06803834e-05, 3.28341353e-04,
          2.02503754e-03, 1.70478076e-02, 5.04892087e-03, 1.88125449e-03,
          -1.40902996e-02, -2.25185812e-03, -9.82555561e-04,
          -6.90296816e-04, -3.82736238e-04, -1.90776205e-04,
          3.67600122e-03, 1.22758164e-03, 1.70487992e-03, 1.70487992e-03,
          -2.01332057e-03, -3.16260965e-03, -2.81627430e-03,
          -2.29330827e-03, -3.55954911e-03, -4.45461692e-03,
          -2.33186292e-03, -4.65868972e-03, -3.62627534e-03,
          1.05448179e-02, 1.12601686e-02, 1.69218623e-03, 9.93748079e-04,
          1.66265829e-03, 4.51627973e-04, 5.68853738e-03, 2.01532990e-03,
          -3.37290810e-03, -3.37290810e-03, 8.40993039e-03,
          3.02185561e-03, 1.82577490e-03, 1.55112764e-03, 2.45617819e-03,
          -7.60941207e-03, -1.08490419e-02, -1.12466970e-02,
          -1.11555168e-02, -1.11560514e-02, 5.28734783e-03,
          9.51424520e-03, 9.05365404e-03, -1.39921613e-03,
          4.15624818e-03, -1.56795373e-03, -1.38380202e-02,
          -1.57550592e-02, -1.46601144e-02, 3.90567677e-03,
          1.40677607e-02, 1.57292746e-02, 1.54609298e-02, 2.67732586e-03,
          -9.95500572e-03, -1.26857283e-02, -7.91748427e-03,
          -8.78248457e-03, 1.59944023e-03, 7.06472259e-04,
          7.69036543e-03, 7.48593081e-03, 6.87929802e-03,
          -5.43125346e-03, -8.46616272e-03, -4.84291604e-03,
          -8.28014314e-03, 2.47953716e-03, -6.12441031e-03,
          3.44153680e-03, 7.40478002e-03, 1.54352095e-02, 5.23529900e-03,
          -5.45461057e-03, -8.99730995e-03, -1.31353391e-02,
          -1.12278964e-02, -1.23055400e-02, -5.44117158e-03,
          1.16497763e-02, 1.97886676e-02, 1.08788041e-02, 1.88281282e-03,
          -2.16530333e-03, -8.44923686e-03, -1.82569455e-02,
          -1.79779008e-02, -1.07271010e-02, 1.70119386e-02,
          2.14974750e-02, 8.47222842e-03, 1.02653180e-03, 1.32478168e-03,
          2.61792069e-04, -1.18114799e-02, -1.91382207e-02,
          -1.42426193e-02, 1.65434387e-02, 1.45162176e-02,
          8.30634963e-03, 1.44864910e-03, 2.02083495e-03,
          -1.69570011e-03, -4.94865887e-03, -1.65369529e-02,
          -1.36570344e-02, 4.19091899e-03, 2.65697087e-03,
          9.14018601e-03, -1.05638639e-04, -5.86519018e-04,
          -1.08341035e-03, -1.95176830e-03, -6.49001682e-03,
          -1.40345367e-02, 2.65697087e-03, 1.95337762e-03,
          -1.67734467e-03, -4.62095859e-03, -2.00457126e-03,
          -2.09344202e-03, -1.48866465e-03, -3.66067584e-03,
          -2.19098688e-03, 8.89728311e-04, -1.76000595e-03,
          -1.76000595e-03, 2.60701054e-04, -1.17790268e-03,
          1.13656977e-04, 6.15903758e-04, -1.64260145e-03,
          -1.65246392e-03, 6.20999234e-03, -3.02384282e-03,
          -3.02384282e-03, 5.45353279e-04, 2.12394609e-03,
          5.14446478e-03, 2.33110064e-03, 1.26402665e-04, 1.92248821e-03,
          7.75616569e-03, -5.37051586e-04, -5.65203233e-03,
          2.38423864e-03, 6.77380851e-03, 3.96743137e-03, 4.39602416e-03,
          2.57770857e-03, 3.17053520e-03, 9.45065822e-03, 1.10511594e-02,
          -6.50165370e-04, -9.81171522e-03, -4.27442632e-04,
          4.95076005e-04, 9.52734496e-04, 1.44419167e-03, 2.19609705e-03,
          4.24577575e-03, -1.82798493e-03, 7.17149535e-03,
          2.56469566e-03, -2.66368152e-03, -1.14245238e-02,
          -4.57545416e-03, -2.70345644e-03, -2.84643332e-03,
          -7.21970620e-03, -9.58629884e-03, -1.19174989e-02,
          -1.29747754e-02, -5.76493749e-03, 1.01832952e-03,
          5.74711664e-03, 1.05207218e-02, 8.23224615e-03, 3.99266463e-03,
          -6.70619775e-03, -1.34866610e-02, -1.40746478e-02,
          -1.43963220e-02, -1.11964662e-02, -2.62931711e-03,
          2.31404859e-03, 1.65925305e-02, 1.32033071e-02, 5.62331593e-03,
          -5.15276706e-03, -1.02164270e-02, -4.79914993e-03,
          -1.23445056e-02, -3.63818766e-03, -8.26948881e-03,
          5.75217698e-03, 4.57568374e-03, 6.05024630e-03,
          -3.65073839e-03, -9.46859550e-03, -3.93542508e-03,
          -1.20658847e-02, -2.31104251e-03, -8.44224915e-03,
          1.79796608e-03, 8.37004464e-03, 8.92568380e-03,
          -4.30139434e-03, -4.68578562e-03, -5.90463588e-03,
          -1.40402326e-02, -6.64735213e-03, -9.61975195e-03,
          5.29886922e-03, 8.39394983e-03, 9.34285019e-03,
          -3.02408217e-03, -1.94314320e-03, -1.54110661e-03,
          -1.16739012e-02, -7.10256724e-03, -1.01513546e-02,
          -5.62489149e-04, 9.45419725e-03, 1.89074129e-02,
          3.47314775e-03, 5.74004313e-04, 1.46093327e-04,
          -3.37500800e-03, -5.50943473e-03, -1.77751444e-02,
          -1.24317454e-02, 8.22468009e-03, 1.65835358e-02,
          4.64954274e-03, 2.75187683e-03, 1.29098375e-03, 8.36825406e-04,
          7.92520004e-04, -8.37775040e-03, -1.33096976e-02,
          1.12604885e-03, 8.42162222e-03, 5.94087597e-03, 1.63905777e-03,
          3.07645678e-04, 4.41956625e-04, 4.57013870e-04, 9.09375318e-04,
          -1.20486626e-02, 1.35082999e-04, 1.01677608e-03,
          -3.77195259e-03, 3.92807211e-04, 6.21604791e-04,
          -7.66958765e-05, 3.87125532e-04, 3.17141938e-04,
          1.66465831e-03, 1.01677608e-03, -5.15106949e-04,
          -1.30990073e-02, -1.16066010e-04, 4.56240086e-04,
          4.01300640e-04, 6.12790347e-04, 3.63355502e-04, 1.70712336e-03,
          1.08558899e-02, 4.66029276e-04, -1.40935173e-02,
          -7.12401932e-03, -8.99971419e-05, 3.35757242e-04,
          5.31166792e-04, 3.56885546e-04, 1.12311938e-03, 1.82429850e-02,
          4.66542877e-03, -2.33404525e-03, -1.29464660e-02,
          -3.41494940e-03, -2.10793107e-03, -1.00028806e-03,
          -2.31028930e-03, -1.12671277e-03, 5.84175717e-03,
          6.18675491e-03, 5.62183652e-03, -8.99474695e-03,
          -6.94721146e-03, -9.05237719e-03, -2.53499974e-03,
          -6.04034727e-03, -4.38967999e-03, -3.90279130e-03,
          1.76754768e-03, 4.42177802e-03, 9.36042983e-03,
          -3.53762461e-03, -1.02096330e-02, -2.64744204e-03,
          -3.96877620e-03, -3.91039532e-03, -7.68400915e-03 ]
      - [ -1.23746775e-03, 1.04108239e-02, 1.40158152e-02,
          -5.07804053e-03, -1.71015691e-02, -7.72482902e-03,
          -1.05326651e-02, -8.50846618e-03, -1.29327765e-02,
          4.68606455e-03, 4.68606455e-03, 1.33561052e-03,
          -9.05879494e-03, -1.05228107e-02, -3.41980718e-03,
          -3.47381388e-03, -5.84815769e-03, -2.99412454e-03,
          -8.66425165e-04, -1.37451501e-03, -1.23867262e-02,
          -5.25732932e-04, 4.20425599e-03, 5.00618853e-03,
          4.60282946e-03, 4.75586718e-03, 6.81347679e-03,
          -2.70556635e-03, -5.63498167e-03, -9.07138176e-03,
          3.37477587e-03, 4.73923795e-03, 5.86414384e-03, 9.75407939e-03,
          7.26057310e-03, 1.79207772e-02, -4.34151478e-03,
          -8.16735812e-03, -6.64300751e-03, -9.88417305e-05,
          3.58460960e-03, 1.48478965e-03, 7.32432120e-03, 1.16847595e-02,
          2.24760082e-02, -6.45183399e-03, -7.83202797e-03,
          2.60421727e-03, 2.50274711e-03, 3.56159196e-03, 5.76121639e-03,
          5.51284617e-03, 8.80479254e-03, 1.81152001e-02,
          -6.23182510e-04, -8.72999430e-03, 3.19165527e-03,
          -5.53864799e-03, -3.53639780e-06, 7.01802710e-05,
          3.59179312e-03, 8.44092388e-03, 6.25998341e-03, 8.60823598e-03,
          -2.90201278e-03, -1.15911774e-02, -7.47259706e-03,
          -3.47846001e-03, -5.06228162e-03, -4.83611180e-03,
          4.06962400e-03, 7.45803909e-03, 3.28383199e-03,
          -6.22886326e-03, -1.23536971e-03, 3.78248352e-03,
          5.02959301e-04, -2.62514385e-03, -8.79667886e-03,
          -1.09964819e-03, 4.59519308e-03, 2.14593066e-03,
          -1.45780947e-03, 5.12839621e-03, 4.66407830e-04,
          1.21864735e-03, -3.18594757e-05, -4.04770905e-03,
          -8.18856061e-03, 2.14593066e-03, 2.90410453e-03,
          -5.84927807e-03, -7.82944914e-03, 1.68635772e-04,
          -3.26846796e-03, -4.00344329e-03, -4.58750129e-03,
          2.68107373e-03, 3.81588889e-03, 9.24912281e-03, 7.48968823e-03,
          1.29067886e-03, 2.64715636e-03, 3.78560764e-03, 2.81510991e-03,
          -5.49190212e-03, -5.64320199e-03, -3.98160843e-03,
          1.09613389e-02, 9.32706520e-03, 6.52191509e-03, 5.29197045e-03,
          1.01888524e-02, 9.61133838e-03, -3.40770162e-03,
          -8.19177087e-03, -8.19177087e-03, 1.42783551e-02,
          8.32399353e-03, 3.26733617e-03, 1.38155697e-03, 1.18490867e-03,
          -5.81859052e-03, -1.04832845e-02, -3.34411417e-03,
          6.10631937e-03, -5.46450447e-03, -1.11358007e-03,
          -3.48196016e-03, -5.65343071e-04, -1.10297278e-02,
          -1.92639604e-02, 5.63491834e-03, 6.94195786e-03,
          2.01983610e-03, -1.80795230e-02, -1.09073101e-03,
          1.86080136e-03, 2.02694964e-02, 3.35019454e-03,
          -2.78190040e-04, -1.33767747e-03, -2.23528664e-03,
          -5.00968797e-03, -1.54201053e-02, -6.37862412e-03,
          5.38026448e-03, 1.94046609e-02, 1.19265355e-02, 4.19888087e-03,
          5.28194895e-03, 4.59619937e-03, 2.64218869e-03,
          -3.61488736e-03, -3.61488736e-03, 7.26980111e-03,
          6.04644930e-03, 2.13533104e-03, 9.36480414e-04, 4.72097250e-04,
          4.07956468e-05, 3.30680725e-03, 8.81182496e-03, 3.17707332e-03,
          -1.91301573e-02, -1.11589292e-02, -5.51443873e-03,
          -5.67388255e-03, -4.91238479e-03, -4.72439034e-03,
          1.19959041e-02, 1.32732932e-02, 3.93241923e-03,
          -1.38503611e-02, -1.45707205e-02, -1.18808402e-02,
          -1.47607140e-02, -1.43597946e-02, -8.42754263e-03,
          1.79539733e-02, 8.50951392e-03, -3.84838297e-03,
          -1.47589101e-02, -1.13660553e-02, -1.10728005e-02,
          -1.44515764e-02, -6.26518903e-03, -1.33172580e-04,
          1.77783929e-02, 1.64911840e-02, -2.19044834e-03,
          -2.14450974e-02, -2.23379228e-02, -1.64488032e-02,
          -5.23471227e-03, -2.13027102e-04, 8.56697466e-03,
          2.14889534e-02, 1.73563473e-02, -1.76671091e-02,
          -2.13782210e-02, -2.21067164e-02, -2.57074647e-03,
          -3.40345141e-04, 2.43108851e-04, 7.03491969e-03,
          2.71910429e-02, 4.63041151e-03, -1.68480445e-02,
          -1.01367338e-02, -1.24886120e-03, -6.40661980e-04,
          1.80679723e-04, -3.19098821e-04, 2.92259827e-03,
          7.60688353e-03, 2.60957214e-03, -4.63282596e-03,
          -1.33641792e-04, -1.27339779e-04, 3.60375328e-04,
          1.05099309e-04, 6.51687733e-04, -5.22551732e-03,
          2.60957214e-03, 3.54629336e-03, -1.49202077e-02,
          -2.37454288e-03, -1.36376126e-04, 2.16881424e-04,
          5.46896947e-04, -1.41735072e-04, -9.45892498e-06,
          4.13602218e-03, 1.36753852e-02, 6.32169598e-04,
          -1.85042063e-05, 1.48526116e-04, 7.83573487e-04,
          5.46659227e-04, -6.10026205e-03, -7.83545058e-03,
          -1.10748806e-03, -1.02219259e-04, 1.82758330e-03,
          1.86373119e-03, 3.31822084e-03, 8.25967756e-04, 1.86382025e-03,
          -3.34500382e-03, -1.42520317e-03, -1.14622444e-03,
          7.00280489e-03, 7.56170135e-03, 7.81329069e-03, 4.20067180e-03,
          9.23504960e-03, -5.42054744e-03, -6.91588875e-03,
          -6.07845373e-03, 7.16389040e-04, 3.49814934e-03,
          7.27879524e-04, -2.81574379e-04, -1.74680469e-03,
          -1.45479068e-02, -1.16210021e-02, 5.97199192e-04,
          2.16862783e-02, 6.42368104e-03, -1.65078957e-02,
          -2.47517265e-02, -9.81156249e-03, 2.30407603e-02,
          2.54722517e-02, 4.13848739e-03, 9.06933041e-04, 1.21409714e-04,
          -7.23942416e-04, -2.17099525e-02, -1.29455393e-02,
          2.99150730e-03, 1.74443461e-02, 2.04925872e-02,
          -5.07849385e-04, -2.20163097e-03, -3.30554787e-03,
          -6.72294665e-03, -3.67040397e-03, -3.27190827e-03,
          -2.26291688e-03, 8.13665800e-03, 7.27614621e-03,
          2.13502743e-03, 2.95910914e-03, 9.27904213e-04, 6.62994059e-03,
          1.64365978e-03, 6.25674904e-04, 5.61820203e-03, 2.41381186e-03,
          8.01845174e-03, -3.52436351e-03, -3.66070657e-03,
          -7.82909058e-03, 6.71198650e-04, 1.71958022e-02,
          1.61987003e-02, 1.24983704e-02, 2.65191612e-03,
          -5.81981242e-03, -1.93097685e-02, -1.45282755e-02,
          -9.64356866e-03, 8.62216856e-03, 1.35675138e-02,
          9.77326278e-03, 6.91879960e-03, -6.48694346e-03,
          -6.01597084e-03, -1.85750816e-02, -5.55410422e-03,
          6.56041317e-03, 1.15561141e-02, 1.74890812e-02, 1.59782916e-02,
          1.56110420e-03, -1.84983220e-02, -1.00718644e-02,
          -1.78753044e-02, 8.69720057e-03, 1.40563343e-02,
          1.69009101e-02, 1.43092219e-02, 5.89999510e-03,
