%YAML:1.0
---
opencv_ml_svm:
   format: 3
   svmType: C_SVC
   kernel:
      type: LINEAR
   C: 1.5000000000000000e+00
   term_criteria: { iterations:10000000 }
   var_count: 945
   class_count: 2
   class_labels: !!opencv-matrix
      rows: 2
      cols: 1
      dt: i
      data: [ 47, 64 ]
   sv_total: 1
   support_vectors:
      - [ -3.55289108e-03, -8.46130773e-03, -1.06812213e-02,
          2.74431333e-03, 1.11637469e-02, 9.64690745e-03, 1.06317913e-02,
          1.08207185e-02, 9.20377579e-03, -8.01880471e-03,
          -9.74450074e-03, -1.00506926e-02, 8.33414868e-03,
          1.18019944e-02, 7.60832941e-03, 1.08947782e-02, 1.16441352e-02,
          6.59819879e-03, -1.58440077e-03, -3.84788658e-03,
          1.31157611e-03, 5.88500034e-03, 3.97620862e-03,
          -1.51004759e-03, 4.04367107e-04, -1.32094661e-03,
          -2.12178123e-03, 1.05141904e-02, 7.75091676e-03,
          9.11401305e-03, 6.11062720e-03, -5.00231795e-03,
          -9.49309487e-03, -8.96769296e-03, 4.81262512e-04,
          9.01362859e-03, 6.27298420e-03, 5.18032024e-03, 2.31730379e-03,
          -2.04522605e-03, -2.25469749e-03, -5.63323451e-03,
          -5.09122154e-03, 2.73828482e-04, 6.95594214e-03,
          -5.41558606e-04, -6.16822718e-03, -7.23311538e-03,
          -7.76261929e-03, 4.20418195e-03, 9.25359130e-03,
          9.81792063e-03, 1.01754600e-02, 9.28105135e-03,
          -7.59886997e-03, -8.32500216e-03, -9.61059425e-03,
          6.38561696e-03, 1.23818880e-02, 9.36606713e-03, 1.00696534e-02,
          1.24299275e-02, 4.96332813e-03, -6.37930864e-03,
          -6.55276468e-03, -5.47950482e-03, 3.92792933e-03,
          1.03474408e-02, 8.18432961e-03, 8.63033719e-03, 8.89667030e-03,
          -4.03659797e-05, -4.30313824e-03, -2.35708011e-03,
          3.85714369e-03, 6.37987582e-03, 6.21270854e-03, 3.45918257e-03,
          3.46962688e-03, 4.91860155e-05, -5.49235241e-03,
          -4.55496251e-04, 5.57393814e-03, 5.75809088e-03,
          2.46694940e-03, -7.80815026e-04, 6.03274268e-04,
          -2.06374633e-03, -4.10314370e-03, -4.52351850e-03,
          2.46545090e-03, 1.30275721e-02, 3.20153288e-03,
          -7.73654552e-04, -4.24485747e-03, -3.06747202e-03,
          -4.86277370e-03, -9.68799647e-03, -9.15270392e-03,
          2.25526292e-05, 1.34292375e-02, 1.15231844e-02, 7.04183709e-04,
          -5.38526149e-03, -3.36896558e-03, -5.87489735e-03,
          -1.05446968e-02, -1.75041314e-02, 2.22436409e-03,
          1.43282637e-02, 1.72359012e-02, 1.13303377e-03,
          -3.57025978e-03, -1.79617712e-03, -1.21154040e-02,
          -1.78288762e-02, -1.34072006e-02, 1.66691989e-02,
          1.89495981e-02, 1.81941520e-02, 4.90773935e-03, 6.53306674e-03,
          -6.47070992e-04, -1.94323547e-02, -1.67816225e-02,
          -9.63727944e-03, 1.20884674e-02, 1.31746866e-02,
          1.36696575e-02, 1.17741153e-02, 9.41959023e-03, 7.40919844e-04,
          -1.40168378e-02, -1.41303074e-02, -2.78217369e-03,
          1.07871704e-02, -2.26099160e-03, -4.09260206e-03,
          -5.36767906e-03, -3.14373523e-03, -4.69144993e-03,
          6.96995575e-03, 9.81400907e-03, 1.12929856e-02,
          -2.05622916e-03, -3.14930337e-03, -3.01921973e-03,
          -2.34910101e-03, -1.16951391e-03, 2.91671581e-03,
          4.86735161e-03, 5.92977460e-03, 2.21690279e-03,
          -7.04431161e-03, -6.73894677e-03, -7.62177026e-03,
          1.93412381e-03, 5.83930267e-03, 8.54012929e-03, 8.97484459e-03,
          9.24801920e-03, 8.05277843e-03, -1.13814473e-04,
          -4.46355203e-03, -3.36304610e-03, -3.47016891e-03,
          -2.92273611e-03, -2.01868289e-03, 8.04529525e-03,
          1.13272844e-02, 1.19222766e-02, 6.87752850e-03, 1.36501272e-03,
          -1.23995007e-03, -4.08479758e-03, -3.67266964e-03,
          -6.39881333e-03, 1.71904673e-03, 7.35113770e-03,
          6.67158002e-03, 1.28563866e-02, 8.42062477e-03,
          -4.61273640e-03, -7.11046625e-03, -6.87943911e-03,
          -6.93699857e-03, 8.82219337e-03, 1.05460193e-02,
          1.15863010e-02, 5.83788473e-03, 3.49283830e-04,
          -8.65076727e-04, -4.37365705e-03, -6.19604578e-03,
          -5.65634249e-03, -3.78253841e-04, 4.49957838e-03,
          7.58010149e-03, 3.60421883e-03, 3.61687597e-03, 3.34643945e-03,
          -2.06185365e-03, -5.93943195e-03, -3.33303493e-03,
          -5.44143096e-03, -4.82457737e-03, -1.68747082e-03,
          1.53756689e-03, 2.64953426e-03, 1.09579889e-02, 1.29590312e-03,
          -1.65272946e-03, -1.20986812e-03, -2.11898983e-03,
          -4.74704010e-03, -1.52536836e-02, 9.77614312e-04,
          4.31447756e-03, 1.32820802e-02, -1.48391540e-04,
          -1.11662445e-03, -6.77098404e-04, -1.75096781e-03,
          -6.86299056e-03, -1.63120404e-02, 1.01883872e-03,
          1.44668100e-02, 6.45190338e-03, 1.09484536e-03, 2.39666362e-04,
          -2.77233630e-04, -6.06808811e-04, -1.15927095e-02,
          -1.10113323e-02, -3.25968093e-03, 1.24090388e-02,
          1.21352347e-02, 2.33190251e-03, 3.42446915e-03,
          -5.37605025e-04, 3.19107960e-04, -7.57278828e-03,
          -8.22934601e-03, 2.70655961e-03, 1.10886879e-02,
          1.02417497e-02, -3.51601397e-03, -2.30582128e-03,
          -4.53321496e-03, -8.21241923e-03, -1.24615356e-02,
          -2.61494867e-03, 7.94183929e-03, 1.69220604e-02,
          1.26326978e-02, -6.60326052e-03, -1.15694571e-02,
          -1.12175858e-02, -1.41063053e-02, -1.40908863e-02,
          -1.05278194e-02, 1.90441255e-02, 2.04107407e-02,
          1.84761547e-02, -2.66007800e-03, -1.75179951e-02,
          -1.80517603e-02, -1.79673731e-02, -1.52417570e-02,
          5.27664553e-04, 1.28099285e-02, 1.13790408e-02, 6.83814380e-03,
          -1.19702602e-02, -6.59195520e-03, -9.20534227e-03,
          4.05040663e-03, 8.28125421e-03, 1.14648901e-02, 9.95728839e-03,
          7.54482346e-04, -4.13375581e-03, -5.92279201e-03,
          -3.77476984e-03, -3.44022224e-03, 4.30997694e-03,
          7.79064326e-03, 9.13784560e-03, -2.04638392e-03,
          -2.79171276e-03, -4.58284747e-03, -4.40697139e-03,
          -2.21644738e-03, 4.72612958e-03, 1.12783732e-02,
          8.52738600e-03, 8.21604766e-03, -4.27608797e-03,
          -4.17060032e-03, -5.21454541e-03, -2.28558248e-03,
          6.22882182e-03, 8.60337168e-03, 8.09323322e-03, 6.14318438e-03,
          9.32334515e-04, 6.63751736e-03, 2.27566366e-03, 1.22580107e-03,
          -6.03909930e-03, -5.86399157e-03, -8.47045518e-03,
          -2.90835556e-03, 2.98938667e-03, 7.45649356e-03,
          1.99689381e-02, 1.96265932e-02, 1.79536007e-02,
          -1.51406704e-02, -1.84639208e-02, -1.78289581e-02,
          7.75003107e-04, 2.64046527e-03, 6.83339359e-03, 1.53344786e-02,
          1.30550507e-02, 1.01241115e-02, -1.28004346e-02,
          -1.64560899e-02, -1.66964829e-02, -1.27008352e-02,
          -8.36875383e-03, 3.11309495e-03, 7.52833812e-03,
          1.46936839e-02, 8.45238939e-03, -2.09144643e-03,
          -8.16227868e-03, -1.08264387e-02, -1.51148625e-02,
          -1.54506685e-02, -5.99935930e-03, 2.33802828e-03,
          1.16352998e-02, 1.26222065e-02, 1.34920143e-03, 2.30205012e-03,
          -1.51062536e-03, -5.20621473e-03, -1.46622146e-02,
          -1.18111642e-02, -3.22386459e-03, 4.03063325e-03,
          1.61163062e-02, 3.68767977e-03, 4.39199759e-03, 1.72388623e-03,
          1.89338380e-03, -5.73725253e-03, -9.42169596e-03,
          -4.18741675e-03, 1.20002348e-02, 1.60605684e-02,
          4.88253590e-03, 4.17285180e-03, 7.16381241e-04, 1.57758070e-03,
          -8.41801707e-03, -9.55472048e-03, -2.02735187e-03,
          5.04228752e-03, 1.70322489e-02, 3.32846586e-03,
          -5.47489850e-04, -6.64047431e-04, -1.00174453e-03,
          -7.02378945e-03, -1.66706499e-02, 5.31245256e-03,
          5.31245256e-03, -2.83228303e-03, -1.24716610e-02,
          -8.16177484e-03, -4.09287028e-03, -4.47604340e-03,
          -5.74180810e-03, -1.22576568e-03, 9.68367606e-03,
          7.04835914e-03, 5.02111157e-03, -1.09530333e-02,
          -1.34150153e-02, -8.85756500e-03, -7.48496596e-03,
          -3.65313166e-03, -3.83504271e-03, 1.31014828e-02,
          4.91926819e-03, 1.28408545e-03, -6.98352745e-03,
          -8.38692766e-03, -1.09913042e-02, 9.73696879e-05,
          5.92241623e-03, 9.10926145e-03, 1.19389994e-02, 1.14848586e-02,
          3.12720635e-03, -9.47818812e-03, -7.33055407e-03,
          -7.18141627e-03, 4.76792548e-03, 9.47438460e-03,
          1.03154005e-02, 1.30834850e-02, 1.23362578e-02, 6.98641222e-03,
          -9.65703372e-03, -7.05004949e-03, -1.30809117e-02,
          5.50217088e-03, 1.02834301e-02, 1.00487676e-02, 1.57632343e-02,
          1.56252086e-02, 8.49384628e-03, -1.25287157e-02,
          -9.79399960e-03, -1.44792525e-02, -1.46812503e-03,
          4.36510192e-03, 1.13883400e-02, 9.09317285e-03, 1.16353473e-02,
          1.93810649e-03, -1.16264625e-02, -1.15532652e-02,
          -7.67371897e-03, -7.69908214e-03, -7.53433350e-03,
          -5.06127346e-03, 1.68040246e-02, 1.41674792e-02,
          -7.39630591e-03, -1.24705350e-02, -1.43677182e-02,
          -1.46689191e-02, -1.32283345e-02, -7.17183994e-03,
          -2.17205845e-03, 2.32742745e-02, 2.34757420e-02,
          1.01619791e-02, -1.07521256e-02, -1.76213495e-02,
          -1.79195870e-02, -1.55505231e-02, -1.40815349e-02,
          6.39689853e-04, 5.63099096e-03, 1.35391615e-02, 1.54802185e-02,
          6.94149523e-04, -9.50521510e-03, -1.25569142e-02,
          -1.09633999e-02, -1.03784762e-02, -5.95936691e-03,
          -2.86896387e-03, 6.49213651e-03, 1.25380410e-02,
          4.14778851e-03, 3.84077034e-03, 1.96029316e-03,
          -2.27868138e-03, -9.10890289e-03, -3.57434526e-03,
          2.07343069e-03, 8.88352655e-03, 1.19712977e-02, 1.64078444e-03,
          -3.57947592e-03, -8.65184935e-04, -3.09741660e-03,
          -1.49934944e-02, -1.01320427e-02, 3.92325222e-03,
          4.95689502e-03, 7.07068015e-03, -5.75779006e-04,
          -7.98949040e-03, -1.09548378e-03, -5.39961318e-03,
          -9.78176668e-03, -1.11357393e-02, 3.26064811e-03,
          6.70482917e-03, 4.21165116e-03, -6.86953019e-04,
          -5.11371763e-03, -1.86736463e-03, -7.10880058e-03,
          -1.45403547e-02, -1.95088645e-03, 1.50162226e-03,
          7.41391210e-03, 1.07933432e-02, 4.62299259e-03,
          -2.48604873e-03, -1.93578727e-03, -7.47981854e-03,
          -1.37067828e-02, -1.01878969e-02, 1.25871866e-03,
          4.76409541e-03, 6.51890226e-03, 7.93215446e-03,
          -1.13756291e-03, -2.32446846e-03, -1.03111016e-02,
          -8.28448404e-03, -8.45825823e-04, 4.63133818e-03,
          6.18599355e-03, 1.53629063e-03, -2.85686576e-04,
          -2.09884322e-03, -6.95012882e-03, -5.43847028e-03,
          -1.42479455e-03, 3.79226659e-03, 1.08021731e-02,
          2.95341364e-03, -3.91910085e-03, -2.50781234e-03,
          -1.92277646e-03, -5.85896149e-03, -3.85623123e-03,
          7.47849001e-03, 1.09356781e-02, 1.77421570e-02, 1.71158016e-02,
          1.28716873e-02, -8.46922770e-03, -1.27248187e-02,
          -1.47540113e-02, -1.40400259e-02, -5.65167516e-03,
          9.26701538e-03, 2.08298285e-02, 2.15950031e-02, 8.03228002e-03,
          -7.46363029e-03, -1.66592840e-02, -1.73218939e-02,
          -1.70928407e-02, -1.31056607e-02, 2.95747304e-03,
          1.50222760e-02, 2.38234084e-02, 1.11111095e-02,
          -3.15176183e-03, -1.48653062e-02, -1.57740936e-02,
          -1.58258323e-02, -1.56129915e-02, -1.12879667e-02,
          -2.26228600e-04, 1.72313061e-02, 1.32315261e-02,
          -5.34177525e-04, -1.99227346e-04, -2.03570072e-03,
          -5.40020224e-03, -1.17452685e-02, -1.85971931e-02,
          -3.74310836e-03, 1.52209029e-02, 1.33554516e-02,
          4.00403887e-03, 3.63396294e-03, -1.63905998e-03,
          2.12193263e-04, -6.72417274e-03, -1.39053715e-02,
          2.48282892e-03, 7.73769338e-03, 1.66606642e-02, 3.19673074e-03,
          1.55356447e-05, -6.62770169e-03, -1.17955431e-02,
          -1.26503510e-02, -8.06333125e-03, 1.93557190e-03,
          1.56440455e-02, 1.63338780e-02, 1.54997362e-03, 1.28108673e-04,
          -2.29202514e-03, -7.91156851e-03, -1.87637154e-02,
          -1.54612185e-02, 4.42714139e-04, 9.64771863e-03,
          9.25291330e-03, 2.67268129e-04, -6.30002876e-04,
          -2.74024555e-04, -1.95871084e-03, -1.52468914e-02,
          -4.18509170e-03, -3.18313454e-04, 1.29210949e-02,
          1.71869472e-02, 1.20392768e-03, 3.57397250e-04,
          -2.77585059e-04, -2.13104417e-03, -1.66529771e-02,
          -1.25738150e-02, -2.20162957e-03, 2.07077921e-03,
          1.62503086e-02, 6.61603408e-03, 2.77213263e-03, 2.53734225e-03,
          1.15566538e-03, -5.69292530e-03, -9.79802851e-03,
          -6.16023270e-03, 7.82477576e-03, 1.18201859e-02,
          6.71737036e-03, 9.75942425e-03, 4.52556740e-03, 6.68349909e-03,
          -6.27069967e-03, -7.55750714e-03, -6.24050293e-03,
          1.65012071e-03, 8.33944418e-03, 9.04394407e-03, 1.10575277e-02,
          5.03224693e-03, 5.68236364e-03, -5.09315217e-03,
          -7.41089135e-03, -1.21970917e-03, 1.61390752e-04,
          -1.55357865e-03, 5.94527635e-04, 2.23885849e-03,
          -1.16604590e-03, -7.20198208e-04, -8.59331107e-04,
          -1.02167751e-03, 1.06644165e-03, 2.43285974e-03,
          1.63346413e-04, -1.36424042e-03, -1.19223034e-04,
          -2.50247354e-03, -1.61056302e-03, -6.27873349e-04,
          5.53074642e-04, 1.05444640e-02, 8.85718130e-03, 4.15070215e-03,
          -1.07703814e-02, -5.56953158e-03, -8.75029247e-03,
          3.36027611e-03, 1.00995759e-02, 9.51413158e-03, 1.34573225e-02,
          2.25272011e-02, 2.25416124e-02, 8.13740492e-03,
          -2.30400916e-03, -2.04848610e-02, -2.07747128e-02,
          -2.04921234e-02, -3.17842048e-03, 1.80701334e-02,
          2.02383827e-02, 1.47948610e-02, 3.06782941e-03,
          -2.29662168e-03, -1.06390687e-02, -1.74563359e-02,
          -1.60924178e-02, -8.81151855e-03, 1.04449608e-03,
          1.26846135e-02, 1.22862980e-02, 3.07619991e-03, 3.46520543e-03,
          -3.75411357e-04, -8.85770377e-03, -1.52554940e-02,
          -8.11483897e-03, -1.17616367e-03, 9.86159686e-03,
          8.99719913e-03, 1.41481799e-03, -9.60027741e-04,
          1.17119914e-03, -1.18383352e-04, -8.06205254e-03,
          -9.07988194e-03, 3.82615835e-04, 1.11808162e-02,
          8.04450456e-03, 1.48296414e-04, -2.42715166e-03,
          -2.16797553e-03, -3.27559514e-03, -1.15297344e-02,
          -1.12517131e-02, -1.35463092e-03, 1.01653067e-02,
          1.79985557e-02, 1.28972018e-03, -4.37504146e-03,
          -1.03707798e-03, -2.61838175e-03, -1.19714178e-02,
          -1.94819514e-02, 1.55898946e-04, 1.30111529e-02,
          1.82204489e-02, 2.61578849e-03, -3.58608580e-04,
          -9.39478748e-04, -2.67837709e-03, -1.82242114e-02,
          -1.52244512e-02, -2.46299477e-03, 2.07999095e-04,
          7.01216981e-03, 2.60626804e-03, 5.62113803e-03, 5.20897936e-03,
          2.70017842e-03, -4.13993001e-03, -3.44355404e-03,
          -5.73240034e-03, 2.16629240e-03, 8.76897573e-03,
          5.04556531e-03, 8.51479359e-03, 4.64383746e-03, 1.25099020e-03,
          -2.11048964e-03, -5.97223034e-03, -6.35564700e-03,
          -1.14481454e-03, 9.26130824e-03, 8.55124090e-03,
          9.00206156e-03, 7.86054228e-03, 3.28088994e-03,
          -3.66202742e-03, -5.84634813e-03, -8.31624307e-03,
          3.01611214e-03, 7.14213401e-03, 6.64144941e-03, 1.03372019e-02,
          8.53263866e-03, 8.50236602e-03, -3.91338253e-03,
          -8.22506566e-03, -7.38482596e-03, -3.46708763e-03,
          6.10813964e-03, 8.84431973e-03, 1.07817007e-02, 6.91119302e-03,
          6.09202776e-03, 4.32711851e-04, -7.45754642e-03,
          -4.72525228e-03, -3.05208657e-03, -2.19021388e-03,
          2.30597239e-03, 4.09995904e-03, 6.10095961e-03, 4.76592919e-03,
          5.74469054e-03, -3.62041546e-03, -5.54563012e-03,
          -4.82718041e-03, -5.13922796e-03, -1.63397763e-03,
          4.42874199e-03, 6.75426936e-03, 5.37730847e-03, 7.78870285e-03,
          7.47606205e-03, -2.33050479e-04, -4.49686917e-03,
          -4.88249538e-03, -5.93638839e-03, -6.45530527e-04,
          4.19859821e-03, 9.16233752e-03, 1.12409210e-02, 1.07388953e-02,
          4.42747399e-03, 8.67131818e-03, 9.57772788e-03, 1.13084400e-02,
          1.90088188e-03, -5.44716651e-03, -9.04246885e-03,
          -7.26104481e-03, -3.60119296e-03, 1.48030957e-02,
          1.90047547e-02, 1.21092647e-02, 2.53531663e-03, 2.25400832e-03,
          -2.12377589e-03, -1.73992869e-02, -1.61571763e-02,
          -3.48730478e-03, 4.99493117e-03, 2.02183016e-02,
          1.98534280e-02, 3.15792672e-03, 8.50567245e-04,
          -8.41051151e-05, -3.63080832e-03, -2.26705298e-02,
          -1.66655742e-02, 1.56814663e-03, 1.65474489e-02,
          1.14699444e-02, 1.09848566e-03, -1.00152381e-03,
          -2.30747813e-04, -6.24796550e-04, -1.84157863e-02,
          -1.21803218e-02, -1.77505193e-03, 6.06360566e-03,
          1.38179176e-02, 1.66334060e-03, 1.02559791e-03,
          -5.13927720e-04, -1.12806687e-04, -5.61656663e-03,
          -1.06749423e-02, -6.22270769e-03, 1.40037145e-02,
          1.61973182e-02, 8.73683300e-03, 4.92772507e-03, 2.25852639e-03,
          2.21822644e-03, -6.60723448e-03, -1.15289176e-02,
          -1.02528185e-02, 5.28736832e-03, 1.20541686e-02,
          8.68689548e-03, 1.12393098e-02, 8.34450033e-03, 9.26959421e-03,
          6.98767893e-04, -1.11211576e-02, -9.12663247e-03,
          2.71396362e-03, 9.61484946e-03, 1.01447441e-02, 1.29022170e-02,
          1.07505592e-02, 9.86252539e-03, -5.86018199e-03,
          -9.15459823e-03, -6.63313037e-03, 5.97261591e-04,
          8.15902092e-03, 9.31125414e-03, 1.11695090e-02, 8.50307290e-03,
          7.88505934e-03, -5.65351918e-03, -8.45166668e-03,
          -8.87057837e-03, -5.10545727e-03, 1.00963097e-02,
          1.07848849e-02, 1.20475478e-02, 9.55920573e-03, 7.22617004e-03,
          -5.94562152e-04, -9.11313388e-03, -1.09243682e-02,
          2.36355653e-03, 9.60835163e-03, 9.39558540e-03, 1.18840961e-02,
          9.65760555e-03, 9.18958895e-03, -3.53715126e-03,
          -9.26098041e-03, -8.96796584e-03, -3.06199468e-03,
          8.01747572e-03, 1.03660710e-02, 1.10030165e-02, 9.79063567e-03,
          8.50690342e-03, 7.06384366e-04, -8.49510171e-03,
          -1.06431209e-02, -9.22527537e-03, 2.93103349e-03,
          1.08679673e-02, 1.22418636e-02, 7.73372361e-03, 9.84802097e-03,
          1.03324316e-02, -3.14954901e-03, -6.62655290e-03,
          -7.00248173e-03, -7.16305338e-03, 4.95452108e-03,
          1.24485129e-02, 9.54205263e-03, 8.59957747e-03, 8.77695531e-03,
          4.16513812e-03, -4.01459122e-03, -6.04883162e-03,
          -6.75067492e-03, -3.20891920e-03, 7.90910237e-03,
          7.64800236e-03, 8.26915260e-03, 7.63156125e-03, 6.38164906e-03 ]
   uncompressed_sv_total: 20
   uncompressed_support_vectors:
      - [ 4.47975218e-01, 2.94310629e-01, 1.53286010e-01, 1.78005248e-01,
          4.47975218e-01, 3.03468913e-01, 2.98509598e-01, 4.05295402e-01,
          3.26947719e-01, 4.27016109e-01, 2.38347247e-01, 1.85579330e-01,
          2.79477417e-01, 4.27016109e-01, 2.51125365e-01, 2.16759026e-01,
          4.11462069e-01, 4.27016109e-01, 4.02354926e-01, 3.88211250e-01,
          4.02354926e-01, 2.19030544e-01, 4.02354926e-01, 1.22801051e-01,
          3.38950157e-01, 1.40616119e-01, 4.02354926e-01, 4.01557028e-01,
          3.78667235e-01, 4.01557028e-01, 4.01557028e-01, 4.01557028e-01,
          8.97010341e-02, 1.59421578e-01, 2.65576720e-01, 3.21892977e-01,
          2.10750356e-01, 2.52156436e-01, 4.27487940e-01, 4.27487940e-01,
          4.27487940e-01, 2.34431013e-01, 3.56584549e-01, 2.02445477e-01,
          3.41172546e-01, 2.27562398e-01, 2.25158542e-01, 4.00301427e-01,
          3.10555100e-01, 4.00301427e-01, 4.00301427e-01, 3.06897551e-01,
          2.72611082e-01, 3.84511411e-01, 2.74339110e-01, 3.25296372e-01,
          2.71501124e-01, 3.28177840e-01, 3.59142303e-01, 3.59142303e-01,
          3.43490779e-01, 3.59142303e-01, 3.59142303e-01, 2.26937458e-01,
          3.18436533e-01, 3.73635054e-01, 3.94134134e-01, 3.94134134e-01,
          3.29225183e-01, 3.94134134e-01, 2.79890180e-01, 2.25397736e-01,
          3.71070296e-01, 3.71070296e-01, 3.71070296e-01, 2.24254772e-01,
          3.71070296e-01, 8.71622637e-02, 3.71070296e-01, 3.71070296e-01,
          3.35031897e-01, 4.82294947e-01, 4.82294947e-01, 2.00875059e-01,
          1.05598196e-01, 2.03597054e-01, 3.86341475e-02, 1.69431880e-01,
          4.56827223e-01, 4.45108712e-01, 6.16670668e-01, 6.16670668e-01,
          3.30945522e-01, 1.18099645e-01, 6.14319481e-02, 9.90413781e-03,
          7.19522014e-02, 1.32742286e-01, 2.88332105e-01, 5.58664024e-01,
          5.58664024e-01, 5.58664024e-01, 2.21756458e-01, 2.41574105e-02,
          0., 6.87652314e-03, 1.21452836e-02, 9.02795494e-02,
          5.10886252e-01, 5.10886252e-01, 5.10886252e-01, 2.54489988e-01,
          9.83933061e-02, 2.74743363e-02, 4.58488911e-02, 3.56434248e-02,
          3.65116030e-01, 4.93742526e-01, 4.93742526e-01, 4.93742526e-01,
          6.01131096e-02, 2.78563112e-01, 2.90443115e-02, 1.64901074e-02,
          2.56679744e-01, 3.39871734e-01, 3.77430469e-01, 3.77430469e-01,
          3.77430469e-01, 1.83720246e-01, 3.77430469e-01, 3.18654031e-01,
          3.77430469e-01, 2.89215982e-01, 2.54992664e-01, 3.95301551e-01,
          3.30337286e-01, 3.95301551e-01, 3.46338421e-01, 3.95301551e-01,
          1.33505061e-01, 2.21222997e-01, 3.36845160e-01, 3.43452990e-01,
          3.65563512e-01, 3.65563512e-01, 2.31790200e-01, 2.03897759e-01,
          3.65563512e-01, 3.65563512e-01, 3.65563512e-01, 3.15002590e-01,
          3.65563512e-01, 2.95556188e-01, 5.03208101e-01, 5.03208101e-01,
          2.25711614e-01, 2.55841613e-01, 1.92713112e-01, 3.83064508e-01,
          1.66613311e-01, 2.70456523e-01, 3.93070668e-01, 3.48393321e-01,
          3.93070668e-01, 3.93070668e-01, 2.36895964e-01, 2.16687754e-01,
          2.28017658e-01, 3.18766057e-01, 3.93070668e-01, 3.62950653e-01,
          3.62950653e-01, 3.62950653e-01, 3.62950653e-01, 2.36956567e-01,
          1.54816732e-01, 3.62950653e-01, 3.54764968e-01, 3.62950653e-01,
          3.96444529e-01, 3.96444529e-01, 3.96444529e-01, 3.96444529e-01,
          3.96444529e-01, 5.40634468e-02, 1.03851669e-01, 1.98297307e-01,
          3.96444529e-01, 4.59933251e-01, 4.59933251e-01, 4.59933251e-01,
          3.96753728e-01, 2.18363971e-01, 9.89249721e-02, 9.93763879e-02,
          6.13859072e-02, 3.63681018e-01, 5.07087409e-01, 5.07087409e-01,
          4.95771527e-01, 1.01214476e-01, 9.53906327e-02, 1.13086261e-01,
          1.39207140e-01, 8.36366490e-02, 4.19958293e-01, 6.40264988e-01,
          6.40264988e-01, 3.99778754e-01, 3.70450467e-02, 2.81234551e-02,
          2.35353364e-03, 3.65732722e-02, 4.67231423e-02, 9.06447321e-02,
          5.99820554e-01, 5.99820554e-01, 5.06704926e-01, 6.27625687e-03,
          1.04642604e-02, 1.37957139e-02, 1.30737871e-02, 3.05190329e-02,
          1.27475992e-01, 6.41053200e-01, 6.41053200e-01, 1.20589763e-01,
          1.01675894e-02, 4.61293682e-02, 2.52657607e-02, 2.61087865e-02,
          4.45012636e-02, 3.89394134e-01, 5.09652257e-01, 5.09652257e-01,
          4.57076937e-01, 9.55790430e-02, 1.38412789e-01, 7.92631507e-02,
          5.70995696e-02, 1.77652732e-01, 4.43962753e-01, 4.55474854e-01,
          4.55474854e-01, 4.55474854e-01, 1.72524646e-01, 1.00215532e-01,
          1.81741193e-01, 1.80106640e-01, 2.45651767e-01, 4.55474854e-01,
          4.06462938e-01, 6.35136247e-01, 6.35136247e-01, 9.97673720e-02,
          6.11499660e-02, 1.15321316e-02, 7.28944456e-03, 1.84704941e-02,
          8.61998871e-02, 5.61172605e-01, 5.61172605e-01, 5.61172605e-01,
          1.90179408e-01, 2.74072550e-02, 1.00958254e-02, 3.52551718e-03,
          1.71775650e-02, 1.11011200e-01, 3.98103207e-01, 3.66325587e-01,
          3.98103207e-01, 3.98103207e-01, 3.41672510e-01, 1.83006734e-01,
          1.76430151e-01, 2.80128270e-01, 3.55723411e-01, 3.77261013e-01,
          2.36367077e-01, 2.06050649e-01, 3.55354428e-01, 3.77261013e-01,
          3.58084023e-01, 2.72213906e-01, 3.77261013e-01, 3.77261013e-01,
          3.81373972e-01, 3.81373972e-01, 3.81373972e-01, 1.45448744e-01,
          3.66750360e-01, 2.70074844e-01, 3.81373972e-01, 2.89387733e-01,
          3.19466114e-01, 3.63383800e-01, 4.05610293e-01, 4.05610293e-01,
          1.35411024e-01, 2.43186921e-01, 2.30688348e-01, 4.05610293e-01,
          4.05610293e-01, 2.74095416e-01, 4.74320620e-01, 4.74320620e-01,
          3.20103079e-01, 2.07051307e-01, 1.39757887e-01, 8.52357894e-02,
          2.98712045e-01, 2.66143233e-01, 4.61635917e-01, 5.54036736e-01,
          5.54036736e-01, 5.54036736e-01, 1.82307899e-01, 9.60288793e-02,
          2.08427552e-02, 3.52165587e-02, 7.90001675e-02, 1.52394280e-01,
          5.55431902e-01, 5.55431902e-01, 5.55431902e-01, 1.16667815e-01,
          1.15818065e-02, 6.71058008e-03, 7.47651374e-03, 2.71939114e-02,
          2.33138606e-01, 5.68888545e-01, 5.68888545e-01, 4.69157577e-01,
          6.29612356e-02, 5.89839183e-02, 2.25833319e-02, 3.51968221e-02,
          2.68823188e-02, 3.42092872e-01, 6.03761137e-01, 6.03761137e-01,
          3.92089427e-01, 2.38725226e-02, 1.89618155e-01, 1.09372279e-02,
          1.15761548e-01, 2.03149781e-01, 1.40951365e-01, 4.84863579e-01,
          4.84863579e-01, 4.84863579e-01, 6.76616728e-02, 1.75661922e-01,
          1.16803177e-01, 1.72335282e-01, 2.10700467e-01, 4.08297539e-01,
          4.82628345e-01, 4.82628345e-01, 4.82628345e-01, 9.60981622e-02,
          2.27100506e-01, 6.42877221e-02, 7.25323483e-02, 2.06528887e-01,
          4.28405941e-01, 4.67609078e-01, 6.13541245e-01, 6.13541245e-01,
          4.44809534e-02, 5.92913963e-02, 1.17999036e-02, 7.93593284e-03,
          4.21845950e-02, 1.21960752e-01, 5.65203428e-01, 5.65203428e-01,
          2.48904794e-01, 2.10049450e-02, 4.15974716e-03, 5.18877199e-03,
          5.60828252e-03, 7.06782937e-02, 5.36637902e-01, 5.61335266e-01,
          5.61335266e-01, 5.61335266e-01, 6.31828979e-02, 6.18759096e-02,
          1.97650660e-02, 3.19436826e-02, 5.36644682e-02, 1.92330450e-01,
          4.49963003e-01, 4.49963003e-01, 4.49963003e-01, 4.49963003e-01,
          1.89627379e-01, 1.77971974e-01, 9.05471966e-02, 1.44794747e-01,
          2.98063636e-01, 3.60122234e-01, 3.60122234e-01, 3.60122234e-01,
          2.23530531e-01, 3.60122234e-01, 2.22982764e-01, 3.60122234e-01,
          3.50315273e-01, 3.54335874e-01, 3.72663438e-01, 3.72663438e-01,
          3.47714901e-01, 3.56602103e-01, 3.72663438e-01, 1.58062622e-01,
          3.14084768e-01, 2.62794733e-01, 3.72663438e-01, 5.52474260e-01,
          5.52474260e-01, 5.06885588e-01, 9.58032683e-02, 1.72786310e-01,
          7.13950917e-02, 6.58759996e-02, 1.04938298e-01, 2.60023117e-01,
          6.68597162e-01, 6.68597162e-01, 2.00755805e-01, 1.64169725e-02,
          5.74636608e-02, 1.86312161e-02, 4.94017117e-02, 9.00796577e-02,
          2.10960194e-01, 6.75094008e-01, 6.75094008e-01, 1.26710445e-01,
          4.20858040e-02, 8.83702748e-03, 2.21414142e-03, 7.95270968e-03,
          1.98510326e-02, 2.51773059e-01, 6.71308458e-01, 6.71308458e-01,
          2.39967614e-01, 4.58895564e-02, 2.92725936e-02, 0.,
          4.89178696e-04, 1.82917397e-02, 1.76369816e-01, 5.32191217e-01,
          5.32191217e-01, 5.32191217e-01, 6.97343424e-02, 1.18952245e-01,
          6.86528161e-02, 3.08348723e-02, 2.26222038e-01, 2.62963831e-01,
          4.56264406e-01, 4.56264406e-01, 4.44371134e-01, 1.93718508e-01,
          2.24729791e-01, 1.29333913e-01, 1.34573624e-01, 2.24894702e-01,
          4.56264406e-01, 5.77600598e-01, 5.77600598e-01, 4.28878784e-01,
          3.26684825e-02, 6.20857067e-02, 4.54582321e-03, 4.25491109e-02,
          1.96893513e-01, 3.12298745e-01, 6.72254503e-01, 6.72254503e-01,
          2.35252261e-01, 1.36957737e-02, 2.29165163e-02, 1.32222497e-03,
          1.32893128e-02, 2.65701991e-02, 1.80265516e-01, 5.43122292e-01,
          5.43122292e-01, 4.06770796e-01, 1.43927494e-02, 4.54472378e-03,
          2.38662586e-03, 1.08575169e-02, 1.59673885e-01, 4.61847335e-01,
          5.17711639e-01, 5.17711639e-01, 5.17711639e-01, 3.52507800e-01,
          7.61160105e-02, 0., 1.41292196e-02, 4.05522473e-02,
          2.42598549e-01, 4.33959156e-01, 4.33959156e-01, 4.33959156e-01,
          3.99697185e-01, 2.11423799e-01, 1.26822695e-01, 1.22083157e-01,
          8.32875222e-02, 4.33959156e-01, 3.60465854e-01, 3.60465854e-01,
          3.60465854e-01, 3.60465854e-01, 3.60465854e-01, 3.60465854e-01,
          2.76986539e-01, 1.00636266e-01, 3.60465854e-01, 3.69360775e-01,
          1.92861661e-01, 1.32917926e-01, 3.50546330e-01, 3.69360775e-01,
          3.69360775e-01, 3.69360775e-01, 3.69360775e-01, 3.69360775e-01,
          5.61794400e-01, 5.61794400e-01, 5.61794400e-01, 7.28604347e-02,
          7.41927251e-02, 6.11905456e-02, 1.38154820e-01, 9.73370820e-02,
          6.65775612e-02, 5.91968179e-01, 5.91968179e-01, 4.93689805e-01,
          3.71752344e-02, 1.87472384e-02, 7.18583027e-03, 2.35188939e-02,
          1.50466189e-02, 2.16661811e-01, 6.58044696e-01, 6.58044696e-01,
          3.33636075e-01, 1.55252488e-02, 1.15836011e-02, 1.26107261e-02,
          8.24165903e-03, 2.87691900e-03, 1.24343328e-01, 5.93194306e-01,
          5.93194306e-01, 4.80970830e-01, 1.64256897e-02, 9.81175825e-02,
          6.71309158e-02, 1.35067515e-02, 2.45804656e-02, 2.09272712e-01,
          5.02826631e-01, 5.02826631e-01, 5.02826631e-01, 2.99350172e-01,
          1.27576500e-01, 2.22454164e-02, 4.02131192e-02, 2.61561666e-02,
          3.57479542e-01, 5.47453821e-01, 5.47453821e-01, 5.47453821e-01,
          1.75951511e-01, 1.04231551e-01, 0., 7.64377369e-03,
          7.05896690e-02, 2.20343962e-01, 5.69733560e-01, 5.69733560e-01,
          5.69733560e-01, 1.87890176e-02, 1.33499252e-02, 9.42496234e-04,
          3.89324530e-04, 2.15842556e-02, 1.39727205e-01, 5.57411671e-01,
          5.57411671e-01, 2.36731946e-01, 1.13685718e-02, 6.76447758e-03,
          6.46461733e-03, 3.06420750e-03, 7.77311251e-02, 5.57411671e-01,
          5.83443761e-01, 5.83443761e-01, 5.31545341e-01, 5.64996488e-02,
          2.61077639e-02, 8.64218548e-03, 5.73854987e-03, 3.64664756e-02,
          1.59716114e-01, 5.30651271e-01, 5.30651271e-01, 4.11854953e-01,
          9.50602368e-02, 2.45787818e-02, 1.48838535e-01, 9.84437987e-02,
          2.21647084e-01, 4.13862973e-01, 4.13105637e-01, 4.13105637e-01,
          3.33536178e-01, 8.74779895e-02, 3.47520560e-01, 1.37317315e-01,
          2.97787219e-01, 3.69732141e-01, 4.13105637e-01, 3.96310449e-01,
          3.96310449e-01, 3.96310449e-01, 3.49829853e-01, 3.96310449e-01,
          8.84652808e-02, 1.54724568e-01, 2.37874359e-01, 3.96310449e-01,
          4.55829859e-01, 4.55829859e-01, 4.55829859e-01, 4.55829859e-01,
          2.17564285e-01, 1.13918386e-01, 8.72107744e-02, 1.54730365e-01,
          2.69192338e-01, 3.96967858e-01, 3.96967858e-01, 3.96967858e-01,
          3.64052534e-01, 3.96967858e-01, 1.24561526e-01, 1.08301274e-01,
          2.19858795e-01, 3.96967858e-01, 4.17143583e-01, 3.30455065e-01,
          3.61672133e-01, 4.17143583e-01, 4.17143583e-01, 1.58352062e-01,
          3.36849570e-01, 1.87226966e-01, 2.45361894e-01, 4.14038390e-01,
          6.02599800e-01, 6.02599800e-01, 2.93175638e-01, 6.73319325e-02,
          4.66169277e-03, 2.27078088e-02, 4.27040718e-02, 5.87847307e-02,
          5.14055192e-01, 5.14055192e-01, 5.14055192e-01, 1.81103960e-01,
          1.97130084e-01, 5.19964658e-02, 2.13708833e-01, 2.11651504e-01,
          1.93073764e-01, 5.65376341e-01, 5.65376341e-01, 4.39636230e-01,
          2.33429581e-01, 2.60811031e-01, 8.03183839e-02, 1.10027492e-01,
          5.92718609e-02, 1.31116554e-01, 5.64520717e-01, 5.64520717e-01,
          2.40333065e-01, 2.83013247e-02, 1.78034380e-01, 1.23487636e-01,
          1.60650626e-01, 4.21048582e-01, 2.19997108e-01, 5.51505625e-01,
          5.51505625e-01, 5.51505625e-01, 7.07654431e-02, 3.74280810e-02,
          2.18363702e-02, 5.82232838e-03, 8.32322761e-02, 2.61094213e-01,
          4.86684918e-01, 6.13117695e-01, 6.13117695e-01, 4.78110090e-02,
          1.30757475e-02, 0., 1.78099505e-03, 2.46333387e-02,
          4.60709669e-02, 4.82905209e-01, 6.08453453e-01, 6.08453453e-01,
          7.87242427e-02, 6.27212375e-02, 2.67322008e-02, 1.43988552e-02,
          5.04179075e-02, 8.18579346e-02, 4.60110158e-01, 4.60110158e-01,
          4.11261588e-01, 1.32531300e-01, 1.49926633e-01, 1.39741853e-01,
          1.70694605e-01, 3.20089251e-01, 4.60110158e-01, 3.81652147e-01,
          3.81652147e-01, 3.81652147e-01, 2.57727742e-01, 3.81652147e-01,
          2.63036609e-01, 7.08734915e-02, 3.56735826e-01, 3.81652147e-01,
          3.58077377e-01, 3.47100466e-01, 3.58077377e-01, 3.58077377e-01,
          2.81233102e-01, 3.50730777e-01, 2.16900036e-01, 3.37514788e-01,
          3.58077377e-01, 3.80217135e-01, 2.93554723e-01, 2.06915542e-01,
          1.83305889e-01, 3.85830373e-01, 3.69104922e-01, 3.85830373e-01,
          3.25818032e-01, 3.85830373e-01, 3.71670723e-01, 3.71351272e-01,
          3.71670723e-01, 3.48151028e-01, 3.71670723e-01, 1.89121887e-01,
          2.52281129e-01, 2.91901499e-01, 3.71670723e-01, 3.86569262e-01,
          3.86569262e-01, 3.86569262e-01, 3.86569262e-01, 3.39131892e-01,
          2.84652889e-01, 1.62312821e-01, 1.63021058e-01, 3.86569262e-01,
          3.65662664e-01, 4.08809334e-01, 4.08809334e-01, 4.08809334e-01,
          3.67555529e-01, 2.89556354e-01, 9.79189053e-02, 1.03821710e-01,
          3.48604172e-01, 3.75434428e-01, 3.37672889e-01, 3.75434428e-01,
          3.73255730e-01, 3.75434428e-01, 2.22913280e-01, 2.94822067e-01,
          2.74091870e-01, 3.29114974e-01, 3.72102618e-01, 3.72102618e-01,
          3.72102618e-01, 2.82900870e-01, 3.72102618e-01, 1.94559634e-01,
          2.33599365e-01, 3.62664700e-01, 3.72102618e-01, 5.08672893e-01,
          5.08672893e-01, 3.70407492e-01, 5.51871061e-02, 1.17589071e-01,
          2.69828457e-02, 8.25454518e-02, 2.38870665e-01, 5.08672893e-01,
          5.48117697e-01, 5.48117697e-01, 5.48117697e-01, 2.55589336e-01,
          5.32115176e-02, 3.54868523e-03, 8.11137818e-03, 1.16344858e-02,
          1.57658905e-01, 6.35823429e-01, 6.35823429e-01, 2.91721851e-01,
          5.95272109e-02, 3.97007205e-02, 2.00703787e-03, 7.27793900e-03,
          4.15984690e-02, 3.05123270e-01, 5.08696496e-01, 5.08696496e-01,
          4.78316635e-01, 9.18462873e-02, 7.65758306e-02, 1.58493370e-02,
          8.24021455e-03, 2.37447582e-02, 4.83121276e-01, 4.93606806e-01,
          4.93606806e-01, 4.93606806e-01, 3.21054071e-01, 1.79682389e-01,
          7.22826421e-02, 6.58991700e-03, 1.46594927e-01, 3.19385558e-01,
          3.59141469e-01, 3.73354524e-01, 3.73354524e-01, 3.32164556e-01,
          3.73354524e-01, 1.86881155e-01, 2.06660822e-01, 3.73354524e-01,
          3.48921627e-01, 3.91788721e-01, 2.04509169e-01, 3.20742399e-01,
          2.85875082e-01, 3.91788721e-01, 3.91788721e-01, 2.35603377e-01,
          3.16479415e-01, 3.91788721e-01, 3.76583904e-01, 3.49989563e-01,
          3.76583904e-01, 3.76583904e-01, 3.76583904e-01, 2.89483160e-01,
          7.25853443e-02, 3.71293962e-01, 2.82055050e-01, 3.38770598e-01,
          3.80193949e-01, 3.80193949e-01, 3.80193949e-01, 3.80193949e-01,
          2.05283329e-01, 1.22275569e-01, 3.76838535e-01, 3.22717279e-01,
          2.78800666e-01, 2.50866383e-01, 2.96371639e-01, 1.50243759e-01,
          4.25670713e-01, 2.39660889e-01, 4.25670713e-01, 4.25670713e-01,
          3.79012883e-01, 3.35615307e-01, 3.32994282e-01, 3.55173111e-01,
          2.50237554e-01, 3.55173111e-01, 2.91523397e-01, 3.55173111e-01,
          3.55173111e-01, 3.47465515e-01, 2.97218651e-01, 3.91566575e-01,
          3.91566575e-01, 3.29314947e-01, 3.91566575e-01, 9.37096626e-02,
          2.81837076e-01, 3.86813551e-01, 3.18574011e-01, 4.27213162e-01,
          4.27213162e-01, 4.27213162e-01, 4.27213162e-01, 4.27213162e-01,
          9.14006904e-02, 7.33994320e-02, 7.41466656e-02, 2.52859354e-01,
          2.40103468e-01, 3.35290462e-01, 3.57159525e-01, 3.05705100e-01,
          3.97471637e-01, 3.06311131e-01, 3.97471637e-01, 3.32584262e-01,
          2.90749222e-01 ]
      - [ 3.93498689e-01, 1.63480580e-01, 3.93498689e-01, 2.37776861e-01,
          3.93498689e-01, 3.59864980e-01, 2.72955149e-01, 2.99053490e-01,
          3.93498689e-01, 2.66749173e-01, 3.82809639e-01, 3.82809639e-01,
          3.23821485e-01, 3.82809639e-01, 2.94197917e-01, 3.82809639e-01,
          2.11160019e-01, 3.20696503e-01, 3.41637284e-01, 3.88367981e-01,
          2.58252442e-01, 1.16683766e-01, 3.88367981e-01, 3.88367981e-01,
          3.19075942e-01, 3.06539565e-01, 3.88367981e-01, 4.03470010e-01,
          2.61993408e-01, 1.30693361e-01, 2.40782619e-01, 4.03470010e-01,
          3.47296625e-01, 3.67567599e-01, 3.28917474e-01, 4.03470010e-01,
          3.69700849e-01, 2.88117856e-01, 3.69700849e-01, 3.69700849e-01,
          3.69700849e-01, 3.69700849e-01, 2.50854522e-01, 1.74052611e-01,
          3.69700849e-01, 2.18584061e-01, 2.32096091e-01, 3.81584227e-01,
          3.81584227e-01, 3.81584227e-01, 3.81584227e-01, 3.81584227e-01,
          2.47077942e-01, 3.24746400e-01, 3.68385285e-01, 3.68385285e-01,
          2.85301775e-01, 2.52230316e-01, 3.68385285e-01, 3.68385285e-01,
          2.87212938e-01, 3.00454021e-01, 3.68385285e-01, 3.81993562e-01,
          2.30823576e-01, 1.67517498e-01, 3.81993562e-01, 3.81993562e-01,
          1.98312104e-01, 3.81993562e-01, 3.81993562e-01, 3.81993562e-01,
          2.79833466e-01, 3.76011372e-01, 3.45431834e-01, 2.57036716e-01,
          3.76011372e-01, 1.60071254e-01, 3.76011372e-01, 3.76011372e-01,
          3.76011372e-01, 4.97297436e-01, 4.97297436e-01, 4.12829280e-01,
          1.57805219e-01, 8.09756368e-02, 1.18368357e-01, 1.14927784e-01,
          1.54957533e-01, 4.97297436e-01, 6.59109950e-01, 6.59109950e-01,
          1.61794052e-01, 4.25228812e-02, 5.56061231e-02, 4.82480973e-02,
          3.96931618e-02, 2.55599748e-02, 2.98217744e-01, 5.73511422e-01,
          5.73511422e-01, 5.73511422e-01, 3.55980806e-02, 1.23396749e-02,
          1.01846142e-03, 2.78383493e-04, 5.83043927e-03, 7.79261813e-02,
          6.10284209e-01, 6.10284209e-01, 4.87161905e-01, 4.37647589e-02,
          6.16606846e-02, 1.69991963e-02, 1.37874177e-02, 5.40240742e-02,
          5.07065542e-02, 5.08718550e-01, 5.08718550e-01, 5.08718550e-01,
          1.51148364e-01, 2.26961538e-01, 2.07098871e-02, 2.52041128e-02,
          8.93870294e-02, 3.67592216e-01, 3.94305229e-01, 3.94305229e-01,
          3.94305229e-01, 3.89464378e-01, 3.39178503e-01, 1.31486088e-01,
          3.11460227e-01, 2.24999070e-01, 3.13026935e-01, 3.73727053e-01,
          3.52201194e-01, 3.73727053e-01, 1.15976587e-01, 3.73727053e-01,
          3.13984364e-01, 2.73499846e-01, 3.55941027e-01, 3.73727053e-01,
          4.02984858e-01, 2.42822558e-01, 2.10286334e-01, 5.70558347e-02,
          3.88897628e-01, 2.97837645e-01, 4.02984858e-01, 4.02984858e-01,
          4.02984858e-01, 3.62987548e-01, 3.82922143e-01, 1.41589984e-01,
          1.77818134e-01, 3.37509096e-01, 3.82922143e-01, 3.35138261e-01,
          3.82922143e-01, 3.82922143e-01, 2.97248542e-01, 4.08446640e-01,
          3.09302002e-01, 4.08446640e-01, 4.08446640e-01, 2.92652011e-01,
          3.15493077e-01, 2.37127513e-01, 2.64572710e-01, 1.95332438e-01,
          3.46622705e-01, 3.53827924e-01, 3.53827924e-01, 3.53827924e-01,
          3.53827924e-01, 3.53827924e-01, 3.01388383e-01, 3.48363072e-01,
          3.73268723e-01, 3.73268723e-01, 3.73268723e-01, 3.21426034e-01,
          3.73268723e-01, 3.21875393e-01, 3.73268723e-01, 2.66445607e-01,
          1.47347957e-01, 4.12309259e-01, 4.12309259e-01, 2.74680406e-01,
          1.21932380e-01, 2.85569847e-01, 1.79506883e-01, 4.08860356e-01,
          3.38567197e-01, 4.12309259e-01, 5.04601061e-01, 5.04601061e-01,
          3.25438321e-01, 6.06808737e-02, 2.02823505e-01, 5.89571409e-02,
          6.46128133e-02, 2.69654125e-01, 5.04601061e-01, 5.92320383e-01,
          5.92320383e-01, 4.98785585e-01, 1.94308888e-02, 5.71261831e-02,
          3.00291390e-03, 1.51727237e-02, 7.96921030e-02, 1.82703927e-01,
          5.54209292e-01, 5.54209292e-01, 5.54209292e-01, 2.09103748e-02,
          5.67344297e-03, 6.58997521e-03, 6.98395539e-03, 5.50759919e-02,
          2.63489753e-01, 5.88738620e-01, 5.88738620e-01, 1.23097718e-01,
          1.41205058e-01, 1.02313142e-02, 1.07359342e-01, 8.55807066e-02,
          6.99289069e-02, 4.91892338e-01, 5.20738721e-01, 5.20738721e-01,
          4.29721385e-01, 8.50044191e-02, 7.38265887e-02, 1.37906611e-01,
          1.05021700e-01, 1.67107478e-01, 4.44018781e-01, 4.72551674e-01,
          4.72551674e-01, 4.72551674e-01, 1.05652690e-01, 1.72097325e-01,
          2.19008345e-02, 1.14678070e-01, 2.18286484e-01, 4.72551674e-01,
          5.19471228e-01, 5.45839012e-01, 5.45839012e-01, 3.29757422e-01,
          6.49992824e-02, 2.91458215e-03, 1.40771074e-02, 3.15077715e-02,
          1.21054538e-01, 5.26102066e-01, 5.75969517e-01, 5.75969517e-01,
          2.21931815e-01, 3.81851010e-02, 0., 1.66185014e-03,
          6.49911875e-04, 5.71705215e-02, 3.79385769e-01, 2.12560028e-01,
          2.04879031e-01, 3.26408833e-01, 2.87822872e-01, 3.79385769e-01,
          3.79385769e-01, 3.79385769e-01, 3.79385769e-01, 4.02114868e-01,
          4.02114868e-01, 3.57019573e-01, 2.94266641e-01, 4.02114868e-01,
          1.42747253e-01, 2.88456827e-01, 1.77644402e-01, 4.02114868e-01,
          3.80273670e-01, 3.78739476e-01, 3.07166874e-01, 3.05902690e-01,
          3.85021538e-01, 2.73410827e-01, 1.83578968e-01, 3.85021538e-01,
          3.39464307e-01, 3.61324757e-01, 3.61324757e-01, 2.64659166e-01,
          3.43397886e-01, 3.61324757e-01, 2.56492674e-01, 3.44972134e-01,
          3.61324757e-01, 3.18444341e-01, 4.11045998e-01, 4.11045998e-01,
          4.11045998e-01, 2.85599858e-01, 2.90971845e-01, 1.55892193e-01,
          2.25310057e-01, 2.80641645e-01, 4.11045998e-01, 5.58482945e-01,
          5.58482945e-01, 5.58482945e-01, 1.83831125e-01, 5.63080758e-02,
          4.37615477e-02, 8.03904757e-02, 4.75736745e-02, 1.05394445e-01,
          4.93748188e-01, 4.93748188e-01, 4.93748188e-01, 1.39324412e-01,
          6.92024874e-03, 9.02239792e-03, 1.00294854e-02, 1.66846775e-02,
          4.93748188e-01, 5.38947761e-01, 5.38947761e-01, 3.60867321e-01,
          1.23875206e-02, 4.64701504e-02, 1.12614632e-02, 6.76430296e-03,
          2.06257533e-02, 5.29671907e-01, 5.45024455e-01, 5.45024455e-01,
          5.45024455e-01, 5.61692268e-02, 9.61765870e-02, 0.,
          6.73642308e-02, 4.77032028e-02, 2.90144652e-01, 4.86281484e-01,
          4.86281484e-01, 4.86281484e-01, 6.24611378e-02, 2.52172023e-01,
          2.88020279e-02, 8.00646544e-02, 1.67825535e-01, 4.27594036e-01,
          4.60617632e-01, 4.60617632e-01, 4.60617632e-01, 1.21520929e-01,
          4.46444005e-02, 1.62088722e-01, 2.32455090e-01, 2.50453949e-01,
          4.46203440e-01, 5.61697781e-01, 5.61697781e-01, 5.61697781e-01,
          9.08580646e-02, 8.39545298e-03, 4.13332582e-02, 3.09861600e-02,
          4.70867865e-02, 1.86188936e-01, 5.48861206e-01, 5.48861206e-01,
          2.96172529e-01, 4.05700020e-02, 1.29901906e-02, 1.00450953e-02,
          6.22256985e-03, 3.31763476e-02, 5.48861206e-01, 5.24529159e-01,
          5.24529159e-01, 5.24529159e-01, 1.47745594e-01, 4.38127778e-02,
          2.75646970e-02, 2.78703067e-02, 5.11142015e-02, 3.76127273e-01,
          4.47278231e-01, 4.47278231e-01, 4.47278231e-01, 4.47278231e-01,
          1.79641098e-01, 2.24339552e-02, 2.44196933e-02, 9.48214531e-02,
          3.91074628e-01, 3.96675080e-01, 3.25641543e-01, 2.08743945e-01,
          3.69468808e-01, 3.45480055e-01, 2.40371481e-01, 3.26243520e-01,
          3.34128052e-01, 3.96675080e-01, 4.10503685e-01, 4.10503685e-01,
          4.10503685e-01, 4.10503685e-01, 2.47007862e-01, 7.93127716e-02,
          1.65583000e-01, 2.42098287e-01, 4.10503685e-01, 6.24511957e-01,
          6.24511957e-01, 2.88732916e-01, 1.03047162e-01, 5.58776669e-02,
          3.25339995e-02, 8.75155106e-02, 1.23732187e-01, 3.04301500e-01,
          6.46979272e-01, 6.46979272e-01, 1.89191118e-01, 9.43975989e-03,
          4.92120460e-02, 1.28733981e-02, 1.65528338e-02, 3.06904763e-02,
          3.41600180e-01, 6.89966977e-01, 6.89966977e-01, 9.37483460e-02,
          1.76669974e-02, 3.17331590e-02, 4.94606700e-03, 6.39562868e-03,
          2.75207534e-02, 1.73414648e-01, 6.20094240e-01, 6.20094240e-01,
          3.14005584e-01, 2.52085440e-02, 1.73397753e-02, 0.,
          4.55264375e-02, 5.12277782e-02, 3.47192258e-01, 5.33564746e-01,
          5.33564746e-01, 5.33564746e-01, 1.58615753e-01, 2.34003589e-01,
          1.04294062e-01, 2.68736836e-02, 1.10952765e-01, 1.91757739e-01,
          4.32009220e-01, 4.32009220e-01, 4.32009220e-01, 8.35971013e-02,
          4.32009220e-01, 1.88797757e-01, 6.62298650e-02, 1.24519378e-01,
          4.32009220e-01, 5.68745315e-01, 5.68745315e-01, 4.98113602e-01,
          1.56177074e-01, 1.07962079e-01, 9.13469959e-03, 3.93123366e-02,
          9.17588323e-02, 2.30576128e-01, 6.24914646e-01, 6.24914646e-01,
          4.14840102e-01, 1.29968803e-02, 5.84372133e-02, 0.,
          2.68378085e-03, 3.85372415e-02, 1.88562065e-01, 5.79486787e-01,
          5.79486787e-01, 2.54978001e-01, 6.35553664e-03, 1.94007419e-02,
          0., 4.98128496e-03, 7.85358176e-02, 5.00979424e-01,
          5.65431476e-01, 5.65431476e-01, 5.65431476e-01, 1.18501402e-01,
          2.16844268e-02, 0., 2.92670578e-02, 3.97641137e-02,
          1.35147929e-01, 4.52019215e-01, 4.52019215e-01, 4.52019215e-01,
          3.32183927e-01, 1.98309332e-01, 5.55692390e-02, 9.73117352e-02,
          1.26369089e-01, 4.52019215e-01, 3.81093472e-01, 3.81093472e-01,
          3.36725831e-01, 2.64838457e-01, 3.40845436e-01, 2.54013836e-01,
          3.23852152e-01, 3.02313507e-01, 3.81093472e-01, 3.67844433e-01,
          3.19824636e-01, 3.53525221e-01, 3.04094642e-01, 3.67844433e-01,
          2.35851973e-01, 2.82345951e-01, 3.67844433e-01, 3.67844433e-01,
          5.34502387e-01, 5.34502387e-01, 5.34502387e-01, 1.57864854e-01,
          5.76170497e-02, 2.10738126e-02, 3.24362665e-02, 1.09936208e-01,
          3.09451908e-01, 6.75506532e-01, 6.75506532e-01, 2.05965996e-01,
          3.85078192e-02, 2.30615512e-02, 3.65921226e-03, 3.40366852e-03,
          1.77308451e-02, 1.89373180e-01, 6.86614692e-01, 6.86614692e-01,
          1.49131030e-01, 1.32423248e-02, 1.70608088e-02, 4.33675665e-03,
          1.75565574e-02, 4.68823425e-02, 1.58223748e-01, 6.44878030e-01,
          6.44878030e-01, 3.16259891e-01, 5.45182005e-02, 7.91232139e-02,
          6.28319457e-02, 6.76266402e-02, 6.42239153e-02, 1.99818268e-01,
          5.14377475e-01, 5.14377475e-01, 4.27979738e-01, 2.66222596e-01,
          1.70479849e-01, 1.20159447e-01, 3.74508947e-02, 2.36338973e-01,
          3.33006322e-01, 5.26819170e-01, 5.26819170e-01, 5.26819170e-01,
          8.56232047e-02, 5.97398318e-02, 9.39959474e-03, 1.06608793e-01,
          1.71795145e-01, 3.32048357e-01, 5.66117644e-01, 5.66117644e-01,
          5.66117644e-01, 7.97057748e-02, 4.77936715e-02, 1.14283925e-02,
          1.27076358e-02, 3.28825079e-02, 1.51224315e-01, 5.42824149e-01,
          5.42824149e-01, 3.14303845e-01, 2.75210794e-02, 2.63611581e-02,
          8.81084055e-03, 2.95926421e-03, 1.01387501e-01, 5.42824149e-01,
          5.61229706e-01, 5.61229706e-01, 5.61229706e-01, 1.31896779e-01,
          1.21154916e-02, 4.55545671e-02, 1.62190869e-02, 7.55125284e-02,
          1.54516190e-01, 4.54186291e-01, 4.54186291e-01, 3.88874203e-01,
          1.65962934e-01, 1.78432971e-01, 2.79820442e-01, 1.21217489e-01,
          2.80695796e-01, 4.47777301e-01, 4.20396328e-01, 4.20396328e-01,
          3.50170344e-01, 8.42683837e-02, 3.90990734e-01, 9.26160812e-02,
          2.83697635e-01, 3.06504488e-01, 4.20396328e-01, 4.28304076e-01,
          4.42778319e-01, 4.42778319e-01, 3.03570688e-01, 4.15629774e-01,
          2.46685632e-02, 1.69729918e-01, 1.67396784e-01, 3.12547058e-01,
          3.47962946e-01, 3.79748613e-01, 3.79748613e-01, 3.79748613e-01,
          3.17715734e-01, 2.66439676e-01, 2.61392206e-01, 2.60718912e-01,
          3.66424948e-01, 3.58727127e-01, 2.60252625e-01, 3.58727127e-01,
          2.91932762e-01, 3.58727127e-01, 3.58727127e-01, 2.67112315e-01,
          3.58727127e-01, 3.58727127e-01, 4.00343627e-01, 4.00343627e-01,
          4.00343627e-01, 4.00343627e-01, 4.00343627e-01, 1.99883923e-01,
          1.76098540e-01, 2.11280614e-01, 2.81108141e-01, 4.51817960e-01,
          6.19875610e-01, 6.19875610e-01, 1.23535022e-01, 3.72887552e-02,
          1.35005508e-02, 3.04128975e-02, 1.11881029e-02, 5.74122146e-02,
          5.83309352e-01, 5.83309352e-01, 3.90593559e-01, 7.45922402e-02,
          1.07414804e-01, 2.86515318e-02, 2.80976683e-01, 8.99356753e-02,
          2.36966968e-01, 5.27095437e-01, 5.27095437e-01, 5.17269254e-01,
          1.29175231e-01, 1.26085058e-01, 6.89302385e-03, 1.34825408e-01,
          1.87516704e-01, 2.92468488e-01, 4.97382253e-01, 4.97382253e-01,
          4.49814230e-01, 1.25153899e-01, 9.48247388e-02, 9.07342732e-02,
          3.62564288e-02, 1.27788007e-01, 4.97382253e-01, 6.46713674e-01,
          6.46713674e-01, 3.25306356e-01, 7.44171739e-02, 4.91807088e-02,
          3.91893908e-02, 7.94311240e-03, 1.10405125e-01, 1.71747267e-01,
          6.30489528e-01, 6.30489528e-01, 4.42213833e-01, 3.79614905e-02,
          5.04033733e-03, 4.14830353e-03, 9.91523173e-03, 2.64377780e-02,
          2.89306268e-02, 5.50207615e-01, 5.50207615e-01, 5.50207615e-01,
          1.25755429e-01, 1.39379606e-01, 3.36964950e-02, 5.60234897e-02,
          1.86339289e-01, 1.09920360e-01, 4.29917067e-01, 4.29917067e-01,
          4.29917067e-01, 1.69618666e-01, 1.33841738e-01, 1.08662948e-01,
          1.14325449e-01, 4.29917067e-01, 4.29917067e-01, 3.98954839e-01,
          3.98954839e-01, 3.98954839e-01, 3.45976681e-01, 2.00997144e-01,
          8.16567838e-02, 1.82817474e-01, 3.98954839e-01, 3.98954839e-01,
          3.83315891e-01, 3.83315891e-01, 3.33202064e-01, 3.83315891e-01,
          3.83315891e-01, 1.38606220e-01, 2.52246678e-01, 2.60099351e-01,
          3.83315891e-01, 3.72789413e-01, 2.96288192e-01, 2.95660853e-01,
          3.44797909e-01, 3.72789413e-01, 2.27419645e-01, 3.72789413e-01,
          3.07539344e-01, 3.72789413e-01, 2.46964902e-01, 2.97329545e-01,
          4.06559050e-01, 2.45455801e-01, 4.06559050e-01, 4.06559050e-01,
          2.71679699e-01, 2.26545095e-01, 4.06559050e-01, 3.65156859e-01,
          3.19116443e-01, 3.83213967e-01, 2.45827481e-01, 3.83213967e-01,
          2.42123798e-01, 3.83213967e-01, 2.54892498e-01, 3.69340956e-01,
          3.45504135e-01, 3.80478263e-01, 3.79031599e-01, 2.35943645e-01,
          3.72798264e-01, 2.07985148e-01, 3.80478263e-01, 3.80478263e-01,
          2.46908754e-01, 4.02029425e-01, 4.02029425e-01, 2.86910236e-01,
          2.73347318e-01, 2.45202288e-01, 2.83777654e-01, 3.38588446e-01,
          4.02029425e-01, 3.14274400e-01, 3.90948743e-01, 3.90948743e-01,
          3.90948743e-01, 2.17240110e-01, 3.52010846e-01, 3.42495233e-01,
          2.32999220e-01, 2.05022529e-01, 3.90948743e-01, 6.18259370e-01,
          6.18259370e-01, 1.34520084e-01, 1.72921140e-02, 6.88997284e-02,
          1.55381458e-02, 9.53586921e-02, 3.88876498e-02, 4.41982925e-01,
          5.73717475e-01, 5.73717475e-01, 5.73717475e-01, 4.48019011e-03,
          3.36198620e-02, 8.45391769e-04, 1.86037552e-02, 5.97747555e-03,
          7.26849362e-02, 6.25953019e-01, 6.25953019e-01, 3.12119424e-01,
          2.22106501e-02, 3.22325677e-02, 0., 1.40538337e-02,
          1.83745213e-02, 3.32611114e-01, 6.58563614e-01, 6.58563614e-01,
          3.05542499e-01, 3.92780639e-02, 1.22254021e-01, 1.14988126e-02,
          1.80088561e-02, 4.91329916e-02, 1.15314640e-01, 5.46896160e-01,
          5.46896160e-01, 5.46896160e-01, 8.16846639e-02, 1.79524601e-01,
          7.31726810e-02, 7.41940364e-02, 8.81153941e-02, 1.99317932e-01,
          3.70903581e-01, 3.70903581e-01, 3.70903581e-01, 1.02979071e-01,
          3.70903581e-01, 2.43704185e-01, 3.70903581e-01, 3.70903581e-01,
          3.17618310e-01, 3.72995406e-01, 3.72995406e-01, 3.72995406e-01,
          3.72995406e-01, 1.90424353e-01, 8.89616609e-02, 3.53870302e-01,
          3.62278908e-01, 3.72995406e-01, 3.59854132e-01, 1.14732310e-01,
          3.24387342e-01, 2.70074815e-01, 3.88066024e-01, 3.20108622e-01,
          3.53275329e-01, 3.83188665e-01, 3.88066024e-01, 3.65673661e-01,
          3.72879714e-01, 2.02892184e-01, 3.33666891e-01, 3.72879714e-01,
          3.39476228e-01, 3.72879714e-01, 3.72879714e-01, 1.96615070e-01,
          3.90825957e-01, 3.90825957e-01, 2.30797932e-01, 9.55489203e-02,
          3.90825957e-01, 2.41169855e-01, 3.90825957e-01, 3.90825957e-01,
          3.34381163e-01, 1.94348261e-01, 3.89122933e-01, 3.89122933e-01,
          2.89167523e-01, 3.89122933e-01, 3.89122933e-01, 2.47554213e-01,
          2.37396717e-01, 3.89122933e-01, 2.98782587e-01, 4.07445967e-01,
          4.07445967e-01, 4.07445967e-01, 4.07445967e-01, 1.39712110e-01,
          2.99178660e-01, 2.72515655e-01, 2.43552566e-01, 3.86817753e-01,
          3.49626005e-01, 3.86817753e-01, 3.86817753e-01, 3.30890983e-01,
          1.58895791e-01, 2.87703872e-01, 2.40572602e-01, 3.86817753e-01,
          3.62114221e-01, 2.58012503e-01, 3.43543291e-01, 2.94781655e-01,
          2.35016078e-01, 3.75234216e-01, 3.75234216e-01, 3.75234216e-01,
          3.40589523e-01 ]
      - [ 3.87026221e-01, 4.12630320e-01, 4.12630320e-01, 2.98875183e-01,
          4.12630320e-01, 2.17791826e-01, 8.83151665e-02, 2.62218297e-01,
          3.49256068e-01, 3.18017572e-01, 1.96180254e-01, 3.95354599e-01,
          1.56326503e-01, 3.95354599e-01, 3.84671450e-01, 3.95354599e-01,
          3.95354599e-01, 2.42481649e-01, 2.93787956e-01, 2.25317925e-01,
          2.91719645e-01, 1.08277634e-01, 4.13940430e-01, 4.13940430e-01,
          4.13940430e-01, 4.13940430e-01, 2.76720256e-01, 3.42037499e-01,
          2.69218296e-01, 3.64476055e-01, 3.32982033e-01, 3.64476055e-01,
          3.64476055e-01, 3.64476055e-01, 3.28933507e-01, 2.37581894e-01,
          2.91962802e-01, 3.82151186e-01, 3.82151186e-01, 3.82151186e-01,
          3.60097975e-01, 2.77580857e-01, 3.82151186e-01, 2.65760273e-01,
          2.22331971e-01, 3.64801258e-01, 3.26531321e-01, 1.69353902e-01,
          2.67920524e-01, 3.64801258e-01, 3.64801258e-01, 3.64801258e-01,
          3.64801258e-01, 3.51952702e-01, 3.82205218e-01, 3.53285223e-01,
          1.21185079e-01, 3.82205218e-01, 3.82205218e-01, 2.84545451e-01,
          2.12873846e-01, 3.82205218e-01, 3.82205218e-01, 3.82952303e-01,
          3.82952303e-01, 3.82952303e-01, 3.82952303e-01, 3.82952303e-01,
          2.72379160e-01, 1.13688730e-01, 1.70715526e-01, 3.82952303e-01,
          2.88575798e-01, 3.97403210e-01, 3.97403210e-01, 3.97403210e-01,
          3.97403210e-01, 7.99011514e-02, 2.87326664e-01, 1.84842020e-01,
          3.97403210e-01, 4.81749773e-01, 4.81749773e-01, 2.25085646e-01,
          3.16195279e-01, 1.17703110e-01, 4.64629568e-02, 2.15493858e-01,
          2.92995363e-01, 4.81749773e-01, 6.47871077e-01, 6.47871077e-01,
          1.19683921e-01, 8.56410637e-02, 5.84906563e-02, 1.22868856e-02,
          6.26335591e-02, 2.06679001e-01, 2.86684632e-01, 6.05114877e-01,
          6.05114877e-01, 4.83440518e-01, 1.25974238e-01, 2.21599508e-02,
          1.48792891e-03, 3.79232573e-03, 3.64765935e-02, 1.01032265e-01,
          5.73408127e-01, 5.73408127e-01, 5.73408127e-01, 6.01542778e-02,
          3.15046869e-02, 0., 3.08229635e-03, 3.67092751e-02,
          4.37644310e-02, 5.39431810e-01, 5.39431810e-01, 5.39431810e-01,
          1.72868609e-01, 1.45664841e-01, 3.20041850e-02, 3.35435085e-02,
          1.24569282e-01, 2.29965344e-01, 4.00428534e-01, 4.00428534e-01,
          4.00428534e-01, 4.00428534e-01, 4.00428534e-01, 8.81220847e-02,
          8.75047520e-02, 1.67379647e-01, 3.88389230e-01, 4.02465791e-01,
          4.02465791e-01, 2.34322265e-01, 4.02465791e-01, 4.02465791e-01,
          2.22494677e-01, 1.94529161e-01, 2.66234994e-01, 3.67329717e-01,
          1.88013583e-01, 1.54783338e-01, 2.57893533e-01, 3.85629177e-01,
          3.85629177e-01, 3.72726083e-01, 3.85629177e-01, 3.85629177e-01,
          3.69549870e-01, 3.87765080e-01, 3.56179625e-01, 2.85979718e-01,
          3.13671172e-01, 4.41479981e-01, 2.23729253e-01, 2.17550203e-01,
          2.25828469e-01, 4.41479981e-01, 3.62999290e-01, 3.62999290e-01,
          3.22467297e-01, 3.62999290e-01, 3.62999290e-01, 3.58597189e-01,
          3.43060702e-01, 2.63873100e-01, 2.22267181e-01, 3.99067611e-01,
          3.99067611e-01, 3.99067611e-01, 3.99067611e-01, 1.94586813e-01,
          1.24979123e-01, 3.25720727e-01, 3.55964959e-01, 2.69637793e-01,
          3.93694490e-01, 3.93694490e-01, 3.11682403e-01, 1.80486023e-01,
          3.93694490e-01, 2.10474864e-01, 3.07519913e-01, 3.78976554e-01,
          3.44772995e-01, 4.16608065e-01, 4.16608065e-01, 2.97930121e-01,
          3.55472714e-01, 2.42253900e-01, 3.53252679e-01, 2.17321247e-01,
          1.71246678e-01, 4.16608065e-01, 4.55379456e-01, 4.55379456e-01,
          4.55379456e-01, 1.53130054e-01, 1.18940778e-01, 1.99495703e-01,
          2.10483551e-01, 2.10409224e-01, 4.55379456e-01, 5.54010391e-01,
          5.54010391e-01, 5.46450257e-01, 7.80483931e-02, 5.64003214e-02,
          5.45338020e-02, 3.24431621e-02, 8.14563110e-02, 2.49139398e-01,
          6.12801015e-01, 6.12801015e-01, 4.80047017e-01, 1.04927216e-02,
          2.90106121e-03, 0., 7.22562836e-04, 3.48391966e-03,
          1.10701822e-01, 6.73000157e-01, 6.73000157e-01, 1.85064524e-01,
          4.06425260e-02, 7.94049427e-02, 0., 5.58657688e-04,
          3.95033741e-03, 2.12605581e-01, 5.54519892e-01, 5.54519892e-01,
          2.57060587e-01, 6.48513511e-02, 1.53691262e-01, 0., 0.,
          3.01465131e-02, 5.33537507e-01, 4.94069248e-01, 4.94069248e-01,
          4.94069248e-01, 9.02336985e-02, 7.90776536e-02, 0.,
          3.25585380e-02, 1.65081635e-01, 4.69089329e-01, 5.66425085e-01,
          5.66425085e-01, 5.66425085e-01, 1.21924438e-01, 3.77806053e-02,
          1.60365645e-02, 1.53196175e-02, 5.87342530e-02, 1.07689783e-01,
          4.92691070e-01, 6.01572871e-01, 6.01572871e-01, 1.58571377e-01,
          3.00494321e-02, 5.26981102e-03, 4.50984016e-03, 1.04736257e-02,
          3.55441831e-02, 3.17915410e-01, 3.38280141e-01, 3.38818729e-01,
          3.15371841e-01, 3.73197168e-01, 3.63897920e-01, 3.68059725e-01,
          2.84290433e-01, 2.80220509e-01, 2.95849711e-01, 2.68634290e-01,
          2.48112902e-01, 3.10992599e-01, 4.17633295e-01, 2.42640719e-01,
          4.17633295e-01, 3.09407443e-01, 4.17633295e-01, 3.83111894e-01,
          3.83111894e-01, 3.16980541e-01, 3.83111894e-01, 3.83111894e-01,
          2.34309196e-01, 3.40178639e-01, 2.51037210e-01, 2.73779273e-01,
          3.69902790e-01, 3.69902790e-01, 3.69902790e-01, 3.69902790e-01,
          3.69902790e-01, 3.69902790e-01, 1.84745491e-01, 2.88356483e-01,
          2.40947157e-01, 4.32633728e-01, 4.32633728e-01, 3.96185964e-01,
          3.12830418e-01, 1.77579239e-01, 3.45706701e-01, 2.34602720e-01,
          1.52596846e-01, 3.70319575e-01, 4.70457941e-01, 4.70457941e-01,
          4.70457941e-01, 4.49551612e-01, 3.17791551e-01, 2.86634974e-02,
          7.46896490e-02, 3.01475376e-02, 1.44609809e-01, 4.90760624e-01,
          4.90760624e-01, 4.90760624e-01, 1.19598404e-01, 1.20760374e-01,
          3.16805989e-02, 1.86787080e-02, 3.84065025e-02, 4.90760624e-01,
          5.70309103e-01, 5.70309103e-01, 4.95975822e-01, 5.06240875e-02,
          9.92816128e-03, 8.35234392e-03, 1.75528659e-03, 2.43467335e-02,
          3.07377875e-01, 6.49342239e-01, 6.49342239e-01, 2.94736892e-01,
          8.70750770e-02, 6.58018291e-02, 5.26827350e-02, 4.37185634e-03,
          5.89470565e-02, 2.12544903e-01, 5.88818491e-01, 5.88818491e-01,
          4.62488294e-01, 3.45025137e-02, 1.44382089e-01, 9.14946385e-03,
          1.17401063e-01, 5.93110286e-02, 2.17691138e-01, 4.86943483e-01,
          4.86943483e-01, 4.68765587e-01, 2.25032732e-01, 2.33781040e-01,
          0., 2.02822946e-02, 6.77799992e-03, 4.42059755e-01,
          4.68490541e-01, 5.52113950e-01, 5.52113950e-01, 3.79471570e-01,
          6.97761029e-02, 0., 0., 2.54077557e-03, 1.28333956e-01,
          5.12341738e-01, 5.12341738e-01, 5.12341738e-01, 6.47863522e-02,
          2.40894570e-03, 3.88081302e-03, 0., 1.82363633e-02,
          4.50388968e-01, 5.68108976e-01, 5.68108976e-01, 5.68108976e-01,
          9.14980173e-02, 3.45050581e-02, 1.07778022e-02, 0.,
          1.06187761e-02, 1.27640918e-01, 4.84693259e-01, 4.84693259e-01,
          4.84693259e-01, 1.77560270e-01, 3.84394109e-01, 1.09747224e-01,
          1.34571895e-01, 1.08316921e-01, 2.63065219e-01, 3.73468250e-01,
          3.57017308e-01, 3.73468250e-01, 3.73468250e-01, 3.26266736e-01,
          2.13185668e-01, 3.51576298e-01, 2.90328830e-01, 3.00960302e-01,
          3.87360364e-01, 2.58550525e-01, 3.24149549e-01, 3.87360364e-01,
          3.87360364e-01, 7.38129616e-02, 3.38398308e-01, 3.87360364e-01,
          3.22575331e-01, 4.80930418e-01, 4.80930418e-01, 2.71565557e-01,
          1.72202170e-01, 2.84540236e-01, 1.41061664e-01, 2.56207258e-01,
          3.77182603e-01, 3.47039670e-01, 6.37700319e-01, 6.37700319e-01,
          2.74091601e-01, 2.01633468e-01, 1.03394322e-01, 6.92690387e-02,
          3.24684195e-02, 6.95528314e-02, 2.07718983e-01, 6.88472986e-01,
          6.88472986e-01, 1.81623966e-01, 3.07930689e-02, 1.12261623e-02,
          1.97714828e-02, 1.16614262e-02, 2.40012705e-02, 9.98626053e-02,
          6.42897666e-01, 6.42897666e-01, 3.57403725e-01, 3.00132632e-02,
          1.26799224e-02, 1.70910358e-02, 7.22128339e-03, 5.55055030e-03,
          1.94351509e-01, 5.45009851e-01, 5.45009851e-01, 5.45009851e-01,
          6.63682073e-02, 1.44112304e-01, 9.41989943e-02, 1.00502586e-02,
          9.78751779e-02, 2.44382903e-01, 4.52365786e-01, 4.52365786e-01,
          4.52365786e-01, 2.11372435e-01, 4.48245883e-01, 1.82673275e-01,
          1.89790223e-02, 5.52419387e-02, 3.14949214e-01, 5.58528841e-01,
          5.58528841e-01, 5.58528841e-01, 9.60015431e-02, 9.83781889e-02,
          1.36275113e-01, 1.28543947e-03, 6.01814166e-02, 1.32176101e-01,
          6.34199619e-01, 6.34199619e-01, 3.70203078e-01, 1.33460686e-02,
          3.03059127e-02, 9.95413493e-03, 1.06298374e-02, 1.23532945e-02,
          2.25251630e-01, 5.44471145e-01, 5.44471145e-01, 3.23555380e-01,
          2.16301605e-02, 1.00411114e-03, 0., 4.41252626e-03,
          6.31106179e-03, 5.44471145e-01, 5.66730201e-01, 5.66730201e-01,
          5.66730201e-01, 1.01230033e-01, 2.18930617e-02, 1.42967654e-02,
          3.63047384e-02, 6.19640164e-02, 1.21253841e-01, 4.32248443e-01,
          4.32248443e-01, 4.32248443e-01, 3.95957232e-01, 1.53105214e-01,
          1.93362117e-01, 7.49104694e-02, 2.17781767e-01, 4.05602276e-01,
          3.23265225e-01, 3.71087700e-01, 3.71087700e-01, 3.71087700e-01,
          3.71087700e-01, 3.71087700e-01, 1.92791626e-01, 3.26364070e-01,
          2.44089514e-01, 3.81432623e-01, 1.20871753e-01, 1.76720962e-01,
          3.46131533e-01, 3.81432623e-01, 3.81432623e-01, 3.21073085e-01,
          3.81432623e-01, 3.81432623e-01, 4.51849759e-01, 4.51849759e-01,
          4.51849759e-01, 2.43716776e-01, 7.43799135e-02, 2.19198138e-01,
          1.54477596e-01, 2.04871684e-01, 4.51849759e-01, 6.37444854e-01,
          6.37444854e-01, 2.21795559e-01, 8.81938189e-02, 6.97310194e-02,
          3.39961834e-02, 2.98328716e-02, 6.48174658e-02, 3.35980684e-01,
          6.95344090e-01, 6.95344090e-01, 1.34761974e-01, 2.71544084e-02,
          5.92486840e-03, 0., 1.50229754e-02, 2.17219871e-02,
          8.01321864e-02, 6.81639075e-01, 6.81639075e-01, 2.22262785e-01,
          5.61350062e-02, 4.43624109e-02, 1.95902754e-02, 4.43392061e-02,
          1.32534178e-02, 8.29839408e-02, 5.78958690e-01, 5.78958690e-01,
          2.39089146e-01, 1.38612434e-01, 1.82867482e-01, 1.85881078e-01,
          1.54669106e-01, 1.19158141e-01, 3.75954717e-01, 5.24406970e-01,
          5.24406970e-01, 4.82011616e-01, 1.25663772e-01, 1.58857599e-01,
          2.43111894e-01, 1.14535294e-01, 7.34914839e-02, 3.06223035e-01,
          5.81140876e-01, 5.81140876e-01, 5.39493918e-01, 3.77226584e-02,
          4.25544493e-02, 3.30139473e-02, 1.07080983e-02, 2.35512424e-02,
          1.50667846e-01, 5.44492900e-01, 5.44492900e-01, 3.17948371e-01,
          2.54398938e-02, 4.21025045e-02, 3.98424603e-02, 6.30931417e-03,
          2.60372763e-03, 5.44492900e-01, 5.72121322e-01, 5.72121322e-01,
          5.72121322e-01, 4.51311842e-02, 1.14280079e-02, 2.06612586e-03,
          0., 1.55453186e-03, 1.00720286e-01, 5.41048706e-01,
          5.41048706e-01, 5.41048706e-01, 2.02799410e-01, 7.96906874e-02,
          1.75837651e-02, 2.25227629e-03, 5.93427792e-02, 2.55110919e-01,
          4.57307011e-01, 4.57307011e-01, 4.57307011e-01, 2.08839282e-01,
          2.17851073e-01, 1.84876993e-01, 1.73103154e-01, 2.08156019e-01,
          4.11700040e-01, 3.80909532e-01, 3.80909532e-01, 3.31813633e-01,
          2.66915441e-01, 3.80909532e-01, 2.52666980e-01, 3.80909532e-01,
          3.80909532e-01, 1.59841627e-01, 3.51294547e-01, 3.61882806e-01,
          3.61882806e-01, 3.18066210e-01, 3.61882806e-01, 3.01164925e-01,
          3.19605529e-01, 2.34789208e-01, 3.61882806e-01, 3.11220139e-01,
          3.32833707e-01, 1.86705783e-01, 2.77083695e-01, 3.63391906e-01,
          3.69116515e-01, 3.69116515e-01, 3.69116515e-01, 3.69116515e-01,
          3.36572737e-01, 1.81870580e-01, 1.65800825e-01, 2.37543359e-01,
          3.91360492e-01, 3.91360492e-01, 3.91360492e-01, 3.91360492e-01,
          3.91360492e-01, 3.69741261e-01, 6.48419797e-01, 6.48419797e-01,
          9.07506198e-02, 3.53022777e-02, 6.02472341e-03, 1.70261953e-02,
          1.59810968e-02, 7.65371323e-02, 6.41920865e-01, 6.41920865e-01,
          3.18564564e-01, 9.51298624e-02, 1.27680674e-01, 0.,
          1.95330121e-02, 5.69322743e-02, 1.97504550e-01, 5.75667202e-01,
          5.75667202e-01, 4.02228117e-01, 1.42519072e-01, 1.57321811e-01,
          0., 9.35527235e-02, 1.74098477e-01, 2.92496979e-01,
          5.09425342e-01, 5.09425342e-01, 5.09425342e-01, 1.04270793e-01,
          1.38830975e-01, 1.05405962e-02, 6.60834163e-02, 1.59048200e-01,
          3.95536304e-01, 6.32159412e-01, 6.32159412e-01, 3.01471323e-01,
          6.32912442e-02, 7.79926106e-02, 6.02926835e-02, 6.43631369e-02,
          9.30115879e-02, 2.77551532e-01, 5.74354887e-01, 5.74354887e-01,
          5.74354887e-01, 1.18779046e-02, 9.13117826e-03, 1.18470909e-02,
          3.37548531e-03, 6.16900949e-03, 6.48069680e-02, 5.66526830e-01,
          5.66526830e-01, 5.66526830e-01, 9.77724716e-02, 1.59183778e-02,
          6.84447866e-03, 1.69998854e-02, 1.92855746e-02, 1.44790530e-01,
          5.19347847e-01, 5.19347847e-01, 3.74660343e-01, 1.27195790e-01,
          1.01863921e-01, 7.88561851e-02, 3.82909440e-02, 1.05056264e-01,
          5.19347847e-01, 4.56612736e-01, 4.56612736e-01, 3.97780031e-01,
          8.61292109e-02, 1.95036337e-01, 2.32863992e-01, 1.17163539e-01,
          3.82844687e-01, 4.00298923e-01, 4.09734964e-01, 4.09734964e-01,
          4.09734964e-01, 2.51915365e-01, 4.09734964e-01, 1.91938758e-01,
          1.74892202e-01, 3.01786274e-01, 3.20018470e-01, 3.67206693e-01,
          3.70645761e-01, 3.70645761e-01, 3.17919284e-01, 3.70645761e-01,
          2.03409493e-01, 3.46728563e-01, 3.70645761e-01, 2.21978083e-01,
          3.20001364e-01, 2.96219349e-01, 4.19956356e-01, 4.19956356e-01,
          4.19956356e-01, 2.35365987e-01, 3.81962955e-01, 1.07333608e-01,
          2.52497047e-01, 1.80304185e-01, 3.52140874e-01, 3.44702661e-01,
          3.85686636e-01, 3.85686636e-01, 3.85686636e-01, 3.85686636e-01,
          2.87522763e-01, 2.07673237e-01, 3.88357133e-01, 3.32574338e-01,
          2.62900174e-01, 2.89030194e-01, 3.56473565e-01, 3.00818473e-01,
          2.50660568e-01, 3.88357133e-01, 3.88357133e-01, 4.23803419e-01,
          3.64728540e-01, 2.69894600e-01, 4.23803419e-01, 4.23803419e-01,
          9.37568843e-02, 1.77165613e-01, 1.76864192e-01, 4.23803419e-01,
          3.89515638e-01, 3.89515638e-01, 3.89515638e-01, 3.14835578e-01,
          3.89515638e-01, 1.69825733e-01, 1.65592641e-01, 2.86553949e-01,
          3.89515638e-01, 5.44334710e-01, 5.44334710e-01, 2.69775033e-01,
          8.64216909e-02, 1.12645142e-01, 0., 2.98069045e-02,
          1.08805336e-01, 5.44334710e-01, 5.60772717e-01, 5.60772717e-01,
          5.60772717e-01, 4.67889272e-02, 5.46293706e-02, 0., 0.,
          3.14478017e-02, 2.11753547e-01, 6.17282212e-01, 6.17282212e-01,
          2.21233755e-01, 4.62516285e-02, 6.97863102e-02, 0.,
          7.22818263e-03, 4.08761203e-02, 4.17235196e-01, 5.58827639e-01,
          5.58827639e-01, 3.16214949e-01, 1.27027526e-01, 8.28087777e-02,
          0., 3.85860689e-02, 1.50344849e-01, 4.71979976e-01,
          5.09582222e-01, 5.09582222e-01, 5.09582222e-01, 1.15045868e-01,
          5.03208488e-02, 7.34078884e-03, 2.05848590e-02, 1.58222809e-01,
          4.17862386e-01, 4.55718756e-01, 4.55718756e-01, 4.55718756e-01,
          2.93694735e-01, 2.87452757e-01, 2.31612459e-01, 2.04024896e-01,
          1.33137614e-01, 3.00878078e-01, 3.85130972e-01, 3.85130972e-01,
          3.85130972e-01, 3.72643590e-01, 3.85130972e-01, 1.83627412e-01,
          2.96982825e-01, 2.62469798e-01, 2.70513415e-01, 3.89784515e-01,
          3.89784515e-01, 3.89784515e-01, 1.99632481e-01, 3.89784515e-01,
          3.37748855e-01, 2.03207240e-01, 3.13764453e-01, 3.07748973e-01,
          3.73476923e-01, 4.14535016e-01, 4.14535016e-01, 1.72760457e-01,
          4.14535016e-01, 3.96286190e-01, 1.00521147e-01, 1.83765143e-01,
          3.31802964e-01, 1.70883402e-01, 4.08049852e-01, 3.07294667e-01,
          1.70867249e-01, 4.54171509e-01, 2.60398269e-01, 3.32828045e-01,
          4.54171509e-01, 2.91558951e-01, 3.82514268e-01, 3.93100172e-01,
          3.93100172e-01, 3.93100172e-01, 3.93100172e-01, 8.73346105e-02,
          2.06960887e-01, 1.63269296e-01, 3.93100172e-01, 3.76761854e-01,
          1.71322614e-01, 3.18428546e-01, 2.76119679e-01, 3.76761854e-01,
          3.59578669e-01, 3.76761854e-01, 3.03563803e-01, 3.76761854e-01,
          2.94738114e-01, 3.23609889e-01, 1.71175405e-01, 3.90263617e-01,
          3.90263617e-01, 3.60813826e-01, 3.23650569e-01, 2.88709104e-01,
          3.90263617e-01, 3.67210656e-01, 4.30205256e-01, 2.41845101e-01,
          3.43291074e-01, 4.30205256e-01, 1.86148629e-01, 2.35141262e-01,
          3.48277748e-01, 3.21135461e-01 ]
      - [ 4.00455028e-01, 3.46025884e-01, 1.88080192e-01, 4.06760603e-01,
          4.06760603e-01, 4.06760603e-01, 3.22258890e-01, 2.10631683e-01,
          1.89433977e-01, 3.70803922e-01, 2.74624109e-01, 3.70803922e-01,
          3.70803922e-01, 3.70803922e-01, 2.47215733e-01, 3.70803922e-01,
          3.70803922e-01, 1.86515629e-01, 3.16764593e-01, 1.52112558e-01,
          1.37728333e-01, 2.97625095e-01, 4.47916329e-01, 2.02242240e-01,
          4.47916329e-01, 4.47916329e-01, 3.48867953e-01, 2.05853373e-01,
          1.86814234e-01, 3.51152390e-01, 3.87202799e-01, 3.87202799e-01,
          3.87202799e-01, 3.87202799e-01, 3.73808175e-01, 2.36879796e-01,
          3.90868515e-01, 3.18193942e-01, 3.12724441e-01, 3.90868515e-01,
          3.90868515e-01, 3.87342930e-01, 1.20860197e-01, 1.45933881e-01,
          3.90868515e-01, 3.86710465e-01, 3.86710465e-01, 1.88057244e-01,
          3.86710465e-01, 3.51263314e-01, 3.18583250e-01, 2.73465812e-01,
          2.50851601e-01, 3.86710465e-01, 3.94299299e-01, 3.94299299e-01,
          1.94816202e-01, 3.94299299e-01, 3.94299299e-01, 9.29711610e-02,
          2.43115574e-01, 3.36153120e-01, 3.94299299e-01, 4.03006554e-01,
          4.07529086e-01, 4.07529086e-01, 2.47596607e-01, 4.07529086e-01,
          3.60619053e-02, 1.32509395e-01, 3.10192108e-01, 3.98613155e-01,
          4.34826463e-01, 4.34826463e-01, 4.34826463e-01, 4.34826463e-01,
          3.79635066e-01, 1.51445335e-02, 3.50409970e-02, 1.43797234e-01,
          2.70374805e-01, 4.94452208e-01, 4.94452208e-01, 3.73246998e-01,
          1.17394984e-01, 1.83622375e-01, 2.10033089e-01, 1.55409515e-01,
          8.08370188e-02, 4.94452208e-01, 6.49697602e-01, 6.49697602e-01,
          3.16085368e-01, 3.58111188e-02, 7.43171871e-02, 4.72047366e-02,
          3.67986634e-02, 5.32772727e-02, 1.90166995e-01, 5.70505798e-01,
          5.70505798e-01, 5.70505798e-01, 1.18543692e-01, 3.66347618e-02,
          2.57347943e-03, 1.82882305e-02, 1.74222402e-02, 4.28166986e-02,
          5.64334095e-01, 5.64334095e-01, 5.64334095e-01, 1.49936408e-01,
          7.09285513e-02, 0., 2.75610294e-03, 4.57068942e-02,
          9.66290236e-02, 6.02911413e-01, 6.02911413e-01, 3.91958207e-01,
          8.19354504e-02, 1.58744544e-01, 2.34555360e-02, 9.48792323e-02,
          9.84570310e-02, 2.49369338e-01, 3.95480782e-01, 3.95480782e-01,
          3.21826607e-01, 1.21680632e-01, 3.95480782e-01, 3.95480782e-01,
          2.52785921e-01, 2.55073428e-01, 3.50837946e-01, 2.71696270e-01,
          3.66746068e-01, 2.77193576e-01, 1.75509512e-01, 3.79316926e-01,
          3.79316926e-01, 3.79316926e-01, 3.23610365e-01, 3.79316926e-01,
          3.16307306e-01, 2.27100983e-01, 1.84876814e-01, 2.63003498e-01,
          4.20236647e-01, 4.20236647e-01, 4.20236647e-01, 4.01547760e-01,
          2.23135680e-01, 3.48060310e-01, 2.07683384e-01, 1.80810496e-01,
          3.20915639e-01, 3.84170681e-01, 3.84170681e-01, 3.84170681e-01,
          3.25355083e-01, 3.84170681e-01, 2.41913304e-01, 3.70769560e-01,
          3.10074210e-01, 3.13708633e-01, 3.70769560e-01, 3.70769560e-01,
          2.36356631e-01, 3.70769560e-01, 3.70769560e-01, 3.66544008e-01,
          3.66544008e-01, 3.66544008e-01, 3.66544008e-01, 3.66544008e-01,
          3.66162419e-01, 2.56918997e-01, 1.61446393e-01, 3.13716799e-01,
          3.73288602e-01, 3.73288602e-01, 1.30217701e-01, 3.73288602e-01,
          3.73288602e-01, 3.73288602e-01, 3.73288602e-01, 2.54185021e-01,
          2.80423969e-01, 4.20482725e-01, 4.20482725e-01, 3.03209096e-01,
          3.23885918e-01, 3.33312511e-01, 1.97289482e-01, 2.38124758e-01,
          2.48637706e-01, 4.20482725e-01, 5.26064336e-01, 5.26064336e-01,
          5.02196372e-01, 9.94071141e-02, 2.14166418e-01, 1.43792219e-02,
          6.47960678e-02, 8.33305418e-02, 3.49226654e-01, 5.69137812e-01,
          5.69137812e-01, 5.69137812e-01, 1.24257825e-01, 2.57030260e-02,
          0., 2.56819231e-03, 5.60663594e-03, 8.01529735e-02,
          6.03727102e-01, 6.03727102e-01, 5.08476496e-01, 1.62017588e-02,
          6.11062767e-03, 6.25645695e-03, 0., 0., 7.81769753e-02,
          6.55345201e-01, 6.55345201e-01, 2.68612623e-01, 1.01496771e-01,
          5.89170046e-02, 1.76315196e-03, 4.02673110e-02, 9.31925792e-03,
          2.16484606e-01, 5.65770805e-01, 5.65770805e-01, 4.73034233e-01,
          1.97596759e-01, 1.33938819e-01, 0., 1.16159029e-01,
          7.50325471e-02, 2.32999787e-01, 4.77703780e-01, 4.77703780e-01,
          4.77703780e-01, 1.68222621e-01, 1.27234057e-01, 0.,
          8.12295377e-02, 1.77029535e-01, 4.77703780e-01, 5.68504572e-01,
          5.68504572e-01, 5.68504572e-01, 5.42419665e-02, 3.49517651e-02,
          2.43692333e-03, 1.24072991e-01, 4.94128279e-02, 5.22046052e-02,
          5.14819264e-01, 6.02224648e-01, 6.02224648e-01, 2.10316554e-02,
          1.83665287e-02, 3.81137477e-03, 2.00737026e-02, 1.04182260e-02,
          4.78885509e-02, 2.89495289e-01, 3.61381680e-01, 3.44947010e-01,
          1.09905750e-01, 4.73417044e-01, 1.96156889e-01, 4.73417044e-01,
          3.10317457e-01, 2.58413792e-01, 4.24428225e-01, 4.24428225e-01,
          4.24428225e-01, 2.55764574e-01, 4.24428225e-01, 1.93842083e-01,
          1.81889802e-01, 2.33684689e-01, 2.90723622e-01, 3.63766342e-01,
          3.63766342e-01, 3.63766342e-01, 3.59272093e-01, 3.63766342e-01,
          2.53834158e-01, 3.63766342e-01, 1.83524504e-01, 3.27942759e-01,
          3.51848274e-01, 3.51848274e-01, 3.51848274e-01, 2.45938078e-01,
          3.51848274e-01, 3.51848274e-01, 2.63474226e-01, 3.51848274e-01,
          3.51848274e-01, 4.02766705e-01, 4.02766705e-01, 4.02766705e-01,
          1.97265372e-01, 2.04426706e-01, 1.47054464e-01, 3.89443755e-01,
          3.05118024e-01, 4.02766705e-01, 4.89677727e-01, 4.89677727e-01,
          4.89677727e-01, 2.38359019e-01, 1.24962375e-01, 2.04882100e-01,
          2.72091806e-01, 1.91482767e-01, 2.25054488e-01, 4.96319979e-01,
          4.96319979e-01, 4.96319979e-01, 2.06519917e-01, 4.26843874e-02,
          1.85314212e-02, 3.19159701e-02, 1.04863003e-01, 4.46331412e-01,
          5.49765229e-01, 5.49765229e-01, 5.49765229e-01, 6.45709485e-02,
          4.10109200e-03, 7.71871163e-03, 7.63382949e-03, 4.73505519e-02,
          2.85023421e-01, 6.32169664e-01, 6.32169664e-01, 3.77248287e-01,
          2.98922360e-02, 6.66548982e-02, 4.99825142e-02, 1.11663598e-03,
          7.96491280e-02, 1.94717780e-01, 5.54404795e-01, 5.54404795e-01,
          4.78816569e-01, 1.09638348e-01, 1.78396612e-01, 6.30143955e-02,
          8.98902938e-02, 1.21337108e-01, 2.82576084e-01, 5.22050977e-01,
          5.22050977e-01, 5.01655757e-01, 1.93130717e-01, 1.34968266e-01,
          4.38718358e-03, 6.52212799e-02, 1.70590002e-02, 3.71447563e-01,
          4.82589304e-01, 4.82589304e-01, 4.82589304e-01, 4.82589304e-01,
          5.29666096e-02, 0., 1.93452067e-03, 1.87682733e-02,
          2.45862991e-01, 5.16222715e-01, 5.16222715e-01, 3.93661916e-01,
          1.93849206e-01, 1.92626994e-02, 0., 2.36972049e-03,
          4.96273115e-02, 5.16222715e-01, 6.14159405e-01, 6.14159405e-01,
          4.65313554e-01, 9.43351462e-02, 4.92860600e-02, 2.55274903e-02,
          6.94559366e-02, 2.31316499e-02, 7.50239789e-02, 5.17739952e-01,
          5.17739952e-01, 5.17739952e-01, 1.49804428e-01, 9.68337208e-02,
          1.21578373e-01, 3.23228717e-01, 1.64637551e-01, 1.11729175e-01,
          3.82670611e-01, 1.96661696e-01, 1.81213826e-01, 3.01293790e-01,
          3.82670611e-01, 3.19232881e-01, 3.82670611e-01, 3.82670611e-01,
          3.82397681e-01, 4.14021969e-01, 4.14021969e-01, 4.14021969e-01,
          1.92016482e-01, 3.50939393e-01, 3.62176560e-02, 2.19106004e-01,
          4.14021969e-01, 3.17583650e-01, 4.75027859e-01, 4.75027859e-01,
          3.74947220e-01, 3.07772100e-01, 1.74955025e-01, 8.79405215e-02,
          2.22802103e-01, 3.02996099e-01, 3.58961135e-01, 6.08013332e-01,
          6.08013332e-01, 3.38123232e-01, 6.25129491e-02, 7.61895329e-02,
          2.93177124e-02, 4.76115383e-02, 1.05282903e-01, 3.41054231e-01,
          6.78634167e-01, 6.78634167e-01, 1.09414600e-01, 1.14780338e-02,
          1.51619418e-02, 8.61748774e-03, 1.62898116e-02, 2.51450986e-02,
          2.42551863e-01, 6.40007198e-01, 6.40007198e-01, 3.93896639e-01,
          1.23030776e-02, 1.58062018e-02, 5.33555774e-03, 2.57142801e-02,
          1.99706219e-02, 1.33220404e-01, 5.20942986e-01, 5.20942986e-01,
          5.20942986e-01, 9.44099054e-02, 2.18037367e-01, 9.76244882e-02,
          1.41689256e-01, 1.91617921e-01, 2.40572840e-01, 4.40159559e-01,
          4.40159559e-01, 4.40159559e-01, 1.76559120e-01, 1.90996990e-01,
          1.34725198e-01, 2.06907377e-01, 3.03359628e-01, 4.40159559e-01,
          5.58475673e-01, 5.58475673e-01, 5.48026681e-01, 4.33828235e-02,
          5.42415529e-02, 3.59440520e-02, 2.20286176e-02, 9.66152698e-02,
          2.33160436e-01, 6.49474740e-01, 6.49474740e-01, 3.12811047e-01,
          9.35518742e-03, 1.84403602e-02, 7.67448824e-03, 6.04942301e-03,
          3.71265486e-02, 2.23895073e-01, 6.66874349e-01, 6.66874349e-01,
          1.61461607e-01, 1.21926349e-02, 1.08848996e-02, 5.92597527e-04,
          2.47315015e-03, 6.21089130e-04, 2.78488576e-01, 5.88284016e-01,
          5.88284016e-01, 5.01537085e-01, 1.77697733e-01, 8.68966430e-02,
          0., 0., 1.19147571e-02, 1.05644099e-01, 4.12810713e-01,
          4.12810713e-01, 4.12810713e-01, 4.12810713e-01, 3.37363839e-01,
          6.98366910e-02, 5.55928536e-02, 1.48427024e-01, 4.12810713e-01,
          3.64658743e-01, 4.28468615e-01, 4.28468615e-01, 4.28468615e-01,
          4.28468615e-01, 8.26439261e-02, 1.28193438e-01, 1.16420999e-01,
          3.02630275e-01, 2.60083854e-01, 4.25452948e-01, 4.25452948e-01,
          3.51929426e-01, 4.25452948e-01, 1.99940801e-01, 3.47767293e-01,
          2.76948243e-01, 1.53632104e-01, 5.17441690e-01, 5.17441690e-01,
          5.17441690e-01, 2.04134896e-01, 1.11479692e-01, 4.32197005e-02,
          9.55514461e-02, 1.39146417e-01, 3.27316374e-01, 6.81029141e-01,
          6.81029141e-01, 1.66949436e-01, 1.11231990e-02, 1.53948050e-02,
          2.88841827e-03, 9.74307861e-03, 3.46629992e-02, 1.89900458e-01,
          6.95663214e-01, 6.95663214e-01, 1.32518589e-01, 1.24934046e-02,
          2.25783437e-02, 1.24945194e-02, 1.77984629e-02, 2.95246635e-02,
          7.47609437e-02, 6.69784963e-01, 6.69784963e-01, 2.37457022e-01,
          1.35246655e-02, 9.15318355e-02, 2.30075922e-02, 4.40427363e-02,
          7.69470036e-02, 1.50840715e-01, 5.69934547e-01, 5.69934547e-01,
          2.56188333e-01, 1.37264222e-01, 2.64695734e-01, 9.71408188e-02,
          7.89399222e-02, 8.93745273e-02, 4.08000767e-01, 5.34485042e-01,
          5.34485042e-01, 5.34485042e-01, 9.53317881e-02, 7.57959262e-02,
          5.81691153e-02, 6.08856454e-02, 1.02093562e-01, 3.24488163e-01,
          5.67610443e-01, 5.67610443e-01, 5.67610443e-01, 8.42429250e-02,
          4.19077389e-02, 1.63705871e-02, 3.74580435e-02, 5.36228679e-02,
          1.19947694e-01, 5.53852141e-01, 5.53852141e-01, 2.70244002e-01,
          1.28835533e-02, 1.61392260e-02, 1.20203905e-02, 9.28794406e-03,
          2.28812043e-02, 5.53852141e-01, 5.58702409e-01, 5.58702409e-01,
          5.58702409e-01, 3.75277810e-02, 3.47410608e-03, 7.59453187e-03,
          2.27328446e-02, 1.71028078e-02, 2.35983774e-01, 5.28936565e-01,
          5.28936565e-01, 5.28936565e-01, 2.99728513e-01, 9.51744094e-02,
          9.41272546e-03, 2.31447238e-02, 7.58279860e-02, 2.23889694e-01,
          4.81511354e-01, 4.81511354e-01, 2.58029431e-01, 4.65827048e-01,
          3.29244941e-01, 7.56076127e-02, 9.10038501e-02, 1.12945192e-01,
          3.35787386e-01, 3.91002744e-01, 3.94642472e-01, 3.94642472e-01,
          3.94642472e-01, 3.94642472e-01, 6.10288680e-02, 1.15821764e-01,
          2.17535973e-01, 3.94642472e-01, 2.77519912e-01, 4.04859692e-01,
          3.64656568e-01, 4.04859692e-01, 4.04859692e-01, 1.39997587e-01,
          1.33395165e-01, 3.04835528e-01, 4.04859692e-01, 3.10717136e-01,
          3.94827217e-01, 3.90463650e-01, 3.94827217e-01, 3.94827217e-01,
          2.76239544e-01, 2.92911857e-01, 2.09291726e-01, 2.71061450e-01,
          2.56818146e-01, 3.46369356e-01, 3.79367083e-01, 8.14496577e-02,
          3.79367083e-01, 3.13451946e-01, 3.79367083e-01, 3.79367083e-01,
          3.60165298e-01, 3.83247674e-01, 6.16460502e-01, 6.16460502e-01,
          2.77535141e-01, 6.36482388e-02, 5.38789202e-03, 1.62768755e-02,
          1.94204655e-02, 7.19098821e-02, 5.32199442e-01, 5.32199442e-01,
          4.19600785e-01, 1.51895106e-01, 1.47656173e-01, 4.58857305e-02,
          1.55880764e-01, 2.13257432e-01, 3.67954135e-01, 5.06839156e-01,
          5.06839156e-01, 3.91138673e-01, 1.86381727e-01, 2.33733699e-01,
          1.61924064e-01, 1.14299729e-01, 1.44135818e-01, 4.22786325e-01,
          6.12404287e-01, 6.12404287e-01, 2.95205027e-01, 5.26247881e-02,
          8.37854892e-02, 8.59980062e-02, 5.98350689e-02, 8.38271379e-02,
          3.58983368e-01, 6.55641496e-01, 6.55641496e-01, 2.18710974e-01,
          1.81340333e-02, 3.95032689e-02, 4.70598927e-03, 2.05183309e-02,
          5.45858368e-02, 2.83859789e-01, 5.75025737e-01, 5.75025737e-01,
          5.75025737e-01, 1.01294927e-02, 9.55720711e-03, 2.40039709e-03,
          3.38005251e-03, 1.03267357e-02, 4.44570147e-02, 5.69540322e-01,
          5.69540322e-01, 5.69540322e-01, 7.04400390e-02, 3.54246683e-02,
          0., 5.98689355e-03, 5.46138287e-02, 1.09311797e-01,
          4.83932734e-01, 4.83932734e-01, 4.83932734e-01, 1.19962037e-01,
          1.48429960e-01, 1.67355295e-02, 3.06142643e-02, 1.44094586e-01,
          4.83932734e-01, 4.37760025e-01, 4.37760025e-01, 4.31793123e-01,
          1.40373662e-01, 3.02076459e-01, 8.72167200e-02, 1.81765556e-01,
          2.87541151e-01, 4.37760025e-01, 4.00153637e-01, 4.00153637e-01,
          4.00153637e-01, 2.49141604e-01, 4.00153637e-01, 2.21551061e-01,
          2.01911420e-01, 2.08477899e-01, 4.00153637e-01, 3.71490568e-01,
          3.80121946e-01, 3.80121946e-01, 3.80121946e-01, 3.80121946e-01,
          1.27506897e-01, 2.39786804e-01, 2.48953864e-01, 3.80121946e-01,
          3.36171716e-01, 3.94955337e-01, 3.96418601e-01, 3.96418601e-01,
          3.96418601e-01, 1.02475256e-01, 2.34607622e-01, 2.21600443e-01,
          3.75428975e-01, 2.26833791e-01, 4.20988142e-01, 4.20988142e-01,
          1.99960008e-01, 4.20988142e-01, 2.69080520e-01, 2.85430074e-01,
          2.91195512e-01, 3.66052538e-01, 3.47758889e-01, 3.49189818e-01,
          3.87615502e-01, 2.63231486e-01, 3.87615502e-01, 2.13955864e-01,
          1.92890435e-01, 3.87615502e-01, 3.87615502e-01, 3.90298963e-01,
          3.90298963e-01, 2.89531231e-01, 3.25979084e-01, 2.29892120e-01,
          3.26007783e-01, 1.93766445e-01, 3.90298963e-01, 3.90298963e-01,
          3.63723069e-01, 3.63723069e-01, 3.63723069e-01, 2.98907071e-01,
          3.63723069e-01, 1.71267211e-01, 3.63723069e-01, 2.89691716e-01,
          3.63723069e-01, 5.36087394e-01, 5.36087394e-01, 3.26974362e-01,
          5.37576228e-02, 1.27615824e-01, 2.82334201e-02, 3.78602333e-02,
          6.44892305e-02, 5.36087394e-01, 5.80371201e-01, 5.80371201e-01,
          5.48023283e-01, 6.18668124e-02, 3.81105691e-02, 2.12744325e-02,
          1.79030723e-03, 1.23989461e-02, 1.19684204e-01, 6.57276690e-01,
          6.57276690e-01, 1.96052462e-01, 1.25230076e-02, 3.05374078e-02,
          1.27502636e-03, 0., 2.20114514e-02, 2.98999369e-01,
          6.26441061e-01, 6.26441061e-01, 1.50461704e-01, 0.,
          7.42294192e-02, 2.66964603e-02, 1.45379547e-02, 2.89349221e-02,
          4.23058629e-01, 4.57111686e-01, 4.57111686e-01, 4.57111686e-01,
          3.39195542e-02, 2.83663213e-01, 1.26169086e-01, 1.79571182e-01,
          1.80327043e-01, 4.54184055e-01, 3.92707199e-01, 3.92707199e-01,
          3.90015900e-01, 1.96935073e-01, 3.01882923e-01, 3.20998818e-01,
          2.26050049e-01, 3.11852396e-01, 3.92707199e-01, 4.26161855e-01,
          4.26161855e-01, 3.57280999e-01, 3.74802232e-01, 4.26161855e-01,
          2.06470713e-01, 1.68249890e-01, 9.81412455e-02, 3.19694698e-01,
          3.74926567e-01, 4.05112654e-01, 3.34752619e-01, 1.30117148e-01,
          4.05112654e-01, 4.05112654e-01, 2.13241547e-01, 2.29520172e-01,
          3.68636668e-01, 3.98616493e-01, 3.19218785e-01, 2.62129337e-01,
          2.85482973e-01, 2.86665589e-01, 3.98616493e-01, 3.10825348e-01,
          2.97371984e-01, 3.98616493e-01, 3.81421804e-01, 3.61304283e-01,
          1.15777045e-01, 3.44925225e-01, 3.81421804e-01, 3.75080258e-01,
          3.63018632e-01, 1.66621327e-01, 3.76928896e-01, 2.55205154e-01,
          3.53466064e-01, 3.68622154e-01, 3.68622154e-01, 3.68622154e-01,
          2.83015579e-01, 2.48818725e-01, 3.47435683e-01, 3.68622154e-01,
          2.67734140e-01, 4.44809109e-01, 4.44809109e-01, 3.82984489e-01,
          4.44809109e-01, 1.77968606e-01, 2.72399843e-01, 1.53764606e-01,
          2.32625678e-01, 3.95799398e-01, 3.65941197e-01, 2.30912700e-01,
          2.89659590e-01, 3.95799398e-01, 2.81165242e-01, 2.30666921e-01,
          3.95799398e-01, 3.50252807e-01, 4.33932215e-01, 4.33932215e-01,
          3.35951686e-01, 3.36484075e-01, 3.05130124e-01, 2.67121732e-01,
          1.14862747e-01, 1.64429054e-01, 4.33932215e-01 ]
      - [ 3.77504736e-01, 3.77504736e-01, 3.77504736e-01, 2.77068734e-01,
          3.77504736e-01, 2.21367851e-01, 3.77504736e-01, 3.35092008e-01,
          2.13593289e-01, 2.85389930e-01, 3.71099234e-01, 2.91977614e-01,
          2.43363321e-01, 3.93417776e-01, 2.75303096e-01, 3.93417776e-01,
          3.93417776e-01, 3.03819925e-01, 3.27577025e-01, 3.92190158e-01,
          3.78474832e-01, 3.92190158e-01, 3.92190158e-01, 3.92190158e-01,
          2.80616462e-01, 1.10529289e-01, 1.98286071e-01, 1.92071721e-01,
          1.96603283e-01, 3.87390465e-01, 2.70297110e-01, 3.87390465e-01,
          3.87390465e-01, 3.65450501e-01, 3.37172657e-01, 3.87390465e-01,
          3.84089798e-01, 2.85268992e-01, 3.84089798e-01, 3.59230429e-01,
          3.84089798e-01, 3.31925541e-01, 2.88186759e-01, 2.42501080e-01,
          3.01877469e-01, 2.03947872e-01, 2.47034714e-01, 2.34963626e-01,
          3.07244986e-01, 3.73995662e-01, 3.01720470e-01, 4.27383184e-01,
          4.27383184e-01, 3.83772880e-01, 2.86716342e-01, 2.18601748e-01,
          2.26709366e-01, 2.84941375e-01, 4.02321160e-01, 2.93172121e-01,
          4.02321160e-01, 4.02321160e-01, 4.02321160e-01, 3.68074626e-01,
          2.56728023e-01, 3.23267996e-01, 2.42250726e-01, 3.68074626e-01,
          3.68074626e-01, 2.99718827e-01, 3.68074626e-01, 3.68074626e-01,
          3.53391111e-01, 3.53391111e-01, 3.53391111e-01, 3.29830557e-01,
          2.41158038e-01, 3.53391111e-01, 3.40567380e-01, 2.98515201e-01,
          3.53391111e-01, 5.27396142e-01, 5.27396142e-01, 4.89332885e-01,
          2.07157195e-01, 1.04023248e-01, 1.45814106e-01, 8.40318948e-02,
          1.29016265e-01, 3.16685557e-01, 6.47796214e-01, 6.47796214e-01,
          2.38502651e-01, 2.82537155e-02, 7.55859166e-02, 0.,
          2.51871757e-02, 1.52014658e-01, 2.59065062e-01, 5.72039664e-01,
          5.72039664e-01, 5.72039664e-01, 7.18651116e-02, 1.72642041e-02,
          0., 2.48858449e-03, 2.04374921e-02, 8.19346532e-02,
          5.65043032e-01, 5.65043032e-01, 5.65043032e-01, 1.00490592e-01,
          8.37234259e-02, 1.83920935e-02, 1.74465252e-03, 2.91794799e-02,
          1.35040879e-01, 5.00974596e-01, 5.00974596e-01, 5.00974596e-01,
          1.61045179e-01, 2.14010701e-01, 8.95960405e-02, 1.28258348e-01,
          1.24987386e-01, 3.60879958e-01, 4.30554628e-01, 4.30554628e-01,
          4.30554628e-01, 3.29861552e-01, 2.79943496e-01, 1.88966483e-01,
          3.35397810e-01, 2.43804291e-01, 2.11541310e-01, 3.81004155e-01,
          3.81895781e-01, 3.81895781e-01, 2.93895930e-01, 3.81895781e-01,
          1.51598811e-01, 2.44529143e-01, 3.40076834e-01, 3.58725131e-01,
          3.77361745e-01, 3.05118114e-01, 3.77361745e-01, 3.22415739e-01,
          2.51539022e-01, 3.24853957e-01, 2.46518716e-01, 3.77361745e-01,
          3.77361745e-01, 3.73635590e-01, 3.08367699e-01, 3.73635590e-01,
          3.73635590e-01, 2.95223027e-01, 3.73635590e-01, 2.02672377e-01,
          2.73726106e-01, 3.73635590e-01, 3.05009544e-01, 3.44230801e-01,
          3.85167688e-01, 3.47432941e-01, 3.85167688e-01, 3.76391679e-01,
          1.35951579e-01, 3.39855254e-01, 3.02577823e-01, 3.72586101e-01,
          3.61202806e-01, 3.72586101e-01, 3.72586101e-01, 3.72586101e-01,
          3.72302592e-01, 2.87297904e-01, 1.03569314e-01, 2.80450612e-01,
          2.84134328e-01, 3.55497360e-01, 3.76251370e-01, 3.76251370e-01,
          3.76251370e-01, 2.01593325e-01, 3.76251370e-01, 3.76251370e-01,
          2.01655462e-01, 4.26450104e-01, 4.26450104e-01, 2.81751037e-01,
          1.86725065e-01, 2.97597766e-01, 3.07026178e-01, 2.46840492e-01,
          3.03564310e-01, 4.26450104e-01, 4.95249748e-01, 4.95249748e-01,
          4.95249748e-01, 5.41028082e-02, 9.28104669e-02, 1.68985620e-01,
          1.49812326e-01, 2.09885374e-01, 3.90697181e-01, 5.93962371e-01,
          5.93962371e-01, 3.93444330e-01, 7.95026049e-02, 3.81893925e-02,
          7.32334331e-02, 3.88073511e-02, 8.08484778e-02, 3.35415363e-01,
          6.13439620e-01, 6.13439620e-01, 4.81065601e-01, 1.54999541e-02,
          8.25522281e-03, 3.33886337e-03, 3.99081130e-03, 1.00765591e-02,
          9.69416797e-02, 6.25950277e-01, 6.25950277e-01, 1.87068403e-01,
          2.96576992e-02, 3.00234426e-02, 1.51547100e-02, 4.29936610e-02,
          1.09908544e-01, 3.98985267e-01, 5.76296508e-01, 5.76296508e-01,
          3.82070869e-01, 6.93758503e-02, 1.29543692e-01, 7.34442323e-02,
          1.26460344e-01, 1.05480514e-01, 3.60450983e-01, 4.99998301e-01,
          4.99998301e-01, 4.99998301e-01, 1.73848897e-01, 2.30918705e-01,
          5.58325313e-02, 1.34495869e-01, 2.08516475e-02, 3.73929620e-01,
          3.92563432e-01, 6.22703671e-01, 6.22703671e-01, 1.21091090e-01,
          7.56703615e-02, 1.52689852e-02, 1.94040034e-02, 3.76247466e-02,
          2.04310313e-01, 4.97204334e-01, 6.09416068e-01, 6.09416068e-01,
          4.03026380e-02, 1.67419184e-02, 3.27999151e-04, 6.15551509e-03,
          1.67377957e-03, 4.45176885e-02, 4.16560620e-01, 2.27010235e-01,
          2.97070235e-01, 1.95724651e-01, 4.16560620e-01, 4.16560620e-01,
          2.53610045e-01, 2.43592218e-01, 4.16560620e-01, 3.68483961e-01,
          3.68483961e-01, 3.67866129e-01, 2.14175045e-01, 3.68483961e-01,
          3.68483961e-01, 3.63696963e-01, 2.99262434e-01, 2.23979920e-01,
          2.18741521e-01, 3.34557444e-01, 2.32581958e-01, 2.77184069e-01,
          3.25056434e-01, 3.99347037e-01, 3.99347037e-01, 3.99347037e-01,
          3.48156124e-01, 3.49605531e-01, 2.96589643e-01, 3.49605531e-01,
          3.17907631e-01, 3.49605531e-01, 3.38945210e-01, 3.49605531e-01,
          3.49605531e-01, 2.85433710e-01, 4.38940853e-01, 4.38940853e-01,
          4.38940853e-01, 3.96814674e-01, 2.23607048e-01, 1.38928071e-01,
          2.24629313e-01, 1.36727154e-01, 3.48844469e-01, 5.20992696e-01,
          5.20992696e-01, 5.20992696e-01, 2.67576158e-01, 1.99434221e-01,
          4.17500027e-02, 3.15320566e-02, 2.32092179e-02, 2.56612062e-01,
          5.25968432e-01, 5.25968432e-01, 5.25968432e-01, 2.42236987e-01,
          1.66478213e-02, 3.25711211e-03, 4.96289227e-03, 4.24770601e-02,
          3.22526962e-01, 5.49761713e-01, 5.49761713e-01, 4.81651634e-01,
          1.09627685e-02, 2.41310876e-02, 0., 1.21436929e-02,
          3.04715522e-02, 3.95306557e-01, 5.54113626e-01, 5.54113626e-01,
          5.01034677e-01, 1.15727365e-01, 9.37288627e-02, 2.84378417e-02,
          2.53161956e-02, 7.97137395e-02, 3.15222353e-01, 5.19913077e-01,
          5.19913077e-01, 5.19913077e-01, 1.57713071e-01, 1.44796699e-01,
          3.69987567e-03, 5.22442907e-02, 5.94724491e-02, 3.62986654e-01,
          5.23187578e-01, 5.23187578e-01, 3.23472619e-01, 8.20992664e-02,
          1.04537621e-01, 4.19349410e-02, 1.24459147e-01, 1.84520751e-01,
          5.23187578e-01, 5.62968135e-01, 5.62968135e-01, 5.62968135e-01,
          1.35481194e-01, 3.30145583e-02, 4.32495996e-02, 5.09502478e-02,
          3.55586596e-02, 1.35657474e-01, 5.14244258e-01, 5.14244258e-01,
          5.14244258e-01, 1.49849309e-02, 1.99756771e-02, 1.69808008e-02,
          3.02362852e-02, 1.00940026e-01, 4.35324878e-01, 5.53678691e-01,
          5.53678691e-01, 5.53678691e-01, 8.73152688e-02, 5.46943918e-02,
          2.29063816e-02, 1.89645607e-02, 4.20212932e-02, 2.48042628e-01,
          2.23073706e-01, 5.89298904e-01, 5.89298904e-01, 2.32781649e-01,
          3.07037234e-01, 9.08324048e-02, 1.30605012e-01, 5.75998165e-02,
          2.69671053e-01, 4.25390810e-01, 4.25390810e-01, 3.52450997e-01,
          2.98022658e-01, 4.25390810e-01, 3.17518920e-01, 2.06132799e-01,
          1.64724573e-01, 2.63431638e-01, 3.69211406e-01, 3.69211406e-01,
          3.45572591e-01, 2.93400347e-01, 3.69211406e-01, 3.01437646e-01,
          2.54504114e-01, 3.69211406e-01, 2.99836725e-01, 4.57708836e-01,
          4.57708836e-01, 4.57708836e-01, 2.87389487e-01, 3.55498075e-01,
          1.02941342e-01, 9.90846753e-02, 2.32110888e-01, 2.89264888e-01,
          6.27134919e-01, 6.27134919e-01, 3.32972318e-01, 7.50322491e-02,
          8.22282434e-02, 6.73002377e-02, 5.30313030e-02, 2.26883903e-01,
          1.58311099e-01, 6.96537554e-01, 6.96537554e-01, 1.24832481e-01,
          2.46589463e-02, 9.83152166e-03, 1.48775466e-02, 1.57564450e-02,
          1.22231245e-02, 7.62284771e-02, 6.62937582e-01, 6.62937582e-01,
          2.80860662e-01, 4.39829230e-02, 7.01012556e-03, 5.78332134e-03,
          1.00823278e-02, 3.52531932e-02, 1.79346189e-01, 5.55477738e-01,
          5.55477738e-01, 5.55477738e-01, 1.07705474e-01, 1.10810131e-01,
          0., 4.70497385e-02, 1.03583612e-01, 1.78783983e-01,
          4.54284906e-01, 4.54284906e-01, 4.54284906e-01, 3.90061066e-02,
          3.13319445e-01, 0., 1.17232457e-01, 2.37758502e-01,
          4.54284906e-01, 4.80390161e-01, 4.80390161e-01, 4.80390161e-01,
          2.38174185e-01, 1.43773824e-01, 1.88575387e-02, 2.63773464e-02,
          6.05949201e-02, 4.69847471e-01, 5.98562419e-01, 5.98562419e-01,
          4.22291964e-01, 4.60990854e-02, 9.56744049e-03, 1.17368926e-03,
          5.43872779e-03, 1.13609377e-02, 3.11066508e-01, 6.17021739e-01,
          6.17021739e-01, 4.28337246e-01, 6.31242199e-03, 7.32697488e-04,
          0., 3.31569137e-03, 1.40588963e-02, 2.20648795e-01,
          5.58958828e-01, 5.58958828e-01, 5.58958828e-01, 2.40919404e-02,
          1.15080578e-02, 0., 5.84496520e-02, 4.69303876e-02,
          2.25347862e-01, 4.17872429e-01, 4.17872429e-01, 4.17872429e-01,
          3.06010190e-02, 2.13467449e-01, 2.59228170e-01, 3.53082001e-01,
          4.17872429e-01, 2.42868781e-01, 3.04263294e-01, 3.72245818e-01,
          3.72245818e-01, 1.57798588e-01, 3.68505716e-01, 3.72245818e-01,
          3.72245818e-01, 3.28371882e-01, 2.84450412e-01, 2.81866133e-01,
          1.77613378e-01, 3.92132610e-01, 1.81761608e-01, 3.92132610e-01,
          3.49528879e-01, 3.92132610e-01, 3.92132610e-01, 3.38833451e-01,
          5.13912141e-01, 5.13912141e-01, 5.13912141e-01, 2.97874242e-01,
          1.52874947e-01, 1.43522575e-01, 1.01329543e-01, 8.77407119e-02,
          2.27784693e-01, 6.64232135e-01, 6.64232135e-01, 1.92329586e-01,
          2.66125910e-02, 2.10711621e-02, 4.45714369e-02, 2.79279146e-02,
          4.78935540e-02, 2.60301650e-01, 6.11295879e-01, 6.11295879e-01,
          4.88486707e-01, 3.51152234e-02, 1.81157067e-02, 4.62334650e-03,
          4.79403557e-03, 1.53992642e-02, 7.79046416e-02, 5.67871332e-01,
          5.67871332e-01, 5.67871332e-01, 9.47716162e-02, 2.76217870e-02,
          1.00489363e-01, 4.52697426e-02, 3.42481248e-02, 6.18936829e-02,
          5.49332619e-01, 5.49332619e-01, 5.15558183e-01, 1.23311849e-02,
          1.45091325e-01, 1.39924482e-01, 7.84145296e-02, 1.22721225e-01,
          2.51375198e-01, 5.70473313e-01, 5.70473313e-01, 5.33842385e-01,
          1.31450579e-01, 6.66388869e-02, 2.02064328e-02, 3.82251590e-02,
          4.83596176e-02, 1.80300146e-01, 5.92643082e-01, 5.92643082e-01,
          5.18752217e-01, 1.13865897e-01, 2.55964473e-02, 0.,
          1.99453440e-03, 2.90641934e-03, 9.43073034e-02, 5.55608034e-01,
          5.55608034e-01, 2.58063078e-01, 1.04008801e-02, 1.18376072e-02,
          1.87198597e-03, 2.96508824e-03, 3.86470705e-02, 5.55608034e-01,
          5.62486172e-01, 5.62486172e-01, 5.62486172e-01, 5.21432385e-02,
          1.47198811e-02, 1.46888127e-03, 7.14938994e-03, 1.11643681e-02,
          2.05176890e-01, 5.06697357e-01, 5.06697357e-01, 5.06697357e-01,
          2.01257750e-01, 5.42610586e-02, 3.07064923e-03, 1.02961414e-01,
          2.60216862e-01, 3.20843369e-01, 4.11459684e-01, 4.11459684e-01,
          4.11459684e-01, 4.32536043e-02, 8.93469453e-02, 2.73824960e-01,
