%YAML:1.0
---
opencv_ml_svm:
   format: 3
   svmType: C_SVC
   kernel:
      type: LINEAR
   C: 1.5000000000000000e+00
   term_criteria: { iterations:10000000 }
   var_count: 945
   class_count: 10
   class_labels: !!opencv-matrix
      rows: 10
      cols: 1
      dt: i
      data: [ 48, 49, 50, 51, 52, 53, 54, 55, 56, 57 ]
   sv_total: 45
   support_vectors:
      - [ -4.12142044e-03, -4.31991328e-04, 4.89603076e-03,
          9.90376808e-03, -1.58154033e-03, 1.42001268e-03,
          -7.08510308e-03, -9.89499316e-03, -1.19886948e-02,
          -1.13367960e-02, 5.25704934e-04, 4.45365021e-03,
          6.82834443e-03, 6.41681720e-04, 3.38231353e-03,
          -9.79017699e-04, -1.25681479e-02, -1.02915047e-02,
          6.39518118e-03, -8.65933471e-05, -3.31857218e-03,
          -7.82857649e-03, -7.92521238e-03, -1.88024377e-03,
          -4.93425701e-04, 2.86121666e-03, 8.49848054e-03,
          2.94245649e-02, -9.00200009e-03, -2.35087592e-02,
          -2.30688695e-02, -2.31190883e-02, -1.12275118e-02,
          -1.86741631e-03, 5.34398295e-03, 3.09050027e-02,
          1.44726438e-02, -1.46039622e-02, -2.18609925e-02,
          -2.26776060e-02, -1.78250447e-02, -6.54283632e-03,
          -1.75089968e-04, 1.31683219e-02, 2.73783505e-02,
          1.11947404e-02, -6.52739499e-03, -6.78668823e-03,
          -7.01924274e-03, -1.08150793e-02, -1.30090602e-02,
          -1.22084077e-02, -7.28348037e-03, 1.05605088e-02,
          2.83452403e-02, 7.87872542e-03, 2.48473720e-04,
          -9.11297835e-03, -2.32962836e-02, -2.38323249e-02,
          -2.25842912e-02, -1.12771476e-02, 2.18321327e-02,
          3.11855096e-02, 6.77841529e-03, 2.93002668e-04,
          -1.48812337e-02, -2.37979870e-02, -2.46134605e-02,
          -2.36754902e-02, -5.36662014e-03, 3.01453639e-02,
          2.02475395e-02, -2.94575794e-03, -9.93291847e-03,
          -1.73604880e-02, -1.97136179e-02, -1.85038764e-02,
          -1.82325691e-02, -1.14828013e-02, 1.92571301e-02,
          1.36393858e-02, -1.09852236e-02, -1.58850066e-02,
          -1.35020064e-02, -1.41324466e-02, -1.29537797e-02,
          -1.22196963e-02, -5.03139012e-03, 1.74594019e-02,
          5.98101737e-03, -2.81954347e-03, -4.33991989e-03,
          -9.89117287e-03, -1.09260976e-02, -7.69924093e-03,
          -3.77664372e-04, 3.55237257e-03, 5.29018603e-03,
          8.19390919e-03, 8.20830371e-03, -1.01016276e-02,
          -1.23327747e-02, -7.14047346e-03, -1.19876377e-02,
          -9.73693468e-03, -1.30715512e-03, 7.07101775e-03,
          5.01918187e-03, 5.66266943e-03, -7.70361070e-03,
          -7.13770045e-03, -9.26844962e-03, -4.84589441e-03,
          -4.38866392e-03, 4.53770068e-03, 2.39520776e-03,
          -6.32077176e-03, -5.91316773e-03, -2.43741786e-03,
          1.32528984e-03, -5.14338398e-03, 4.75029740e-03,
          1.96893769e-03, 2.29770504e-03, -3.03502963e-03,
          -1.46034835e-02, -1.32628679e-02, -7.42254732e-03,
          2.70471326e-03, 4.41668344e-05, 7.81011442e-03, 5.76504786e-03,
          7.15843542e-03, -7.92206731e-03, 2.80546234e-03,
          5.95545582e-03, 1.51268567e-03, -4.60665360e-05,
          -8.68987106e-03, -1.25071388e-02, -1.58588178e-02,
          -1.51133593e-02, -1.42151269e-03, 1.33330363e-03,
          -6.46526692e-03, -5.64118242e-03, -3.83493304e-03,
          -9.07561090e-03, -3.85834952e-03, 7.31853361e-04,
          9.25677479e-04, 7.71615945e-04, 3.72488401e-03,
          -1.13036353e-02, -1.38151236e-02, -1.45095568e-02,
          -6.12515584e-03, 3.85813275e-03, 1.08316569e-02,
          1.18750483e-02, 8.15633405e-03, 1.88312270e-02,
          -1.39543344e-03, -1.52056208e-02, -2.17877906e-02,
          -1.81871392e-02, -1.24844071e-02, -4.41910583e-04,
          2.42035510e-03, 2.99616233e-02, 2.66686268e-02,
          -2.41598391e-04, -1.18941935e-02, -1.72351971e-02,
          -2.24452931e-02, -1.78776644e-02, -1.65680554e-02,
          -6.82174088e-03, 2.33343337e-02, 1.68453101e-02,
          -6.00341987e-03, -1.22558959e-02, -1.28719425e-02,
          -1.56586226e-02, -1.53920604e-02, -1.26640266e-02,
          -1.22015402e-02, 1.62978936e-02, 2.35336423e-02,
          -1.34512465e-02, -1.82969123e-02, -2.44706329e-02,
          -2.30199434e-02, -1.55177685e-02, -3.14501673e-03,
          7.83207547e-03, 3.08880415e-02, 2.90482193e-02,
          -5.58918435e-03, -1.88890509e-02, -2.56858561e-02,
          -2.62231305e-02, -1.53108733e-02, -9.04131588e-03,
          8.30956327e-04, 3.20234559e-02, 2.33546868e-02,
          -9.49814450e-03, -1.40567562e-02, -1.65068489e-02,
          -2.07996611e-02, -1.73977539e-02, -1.79328173e-02,
          -1.16724223e-02, 2.41009779e-02, 1.40325036e-02,
          -8.47120211e-03, -1.51823377e-02, -1.06060859e-02,
          -1.18349185e-02, -1.31660989e-02, -1.36434762e-02,
          -1.44703155e-02, 1.43460324e-02, 8.81812628e-03,
          1.28106144e-03, -1.11674052e-02, -1.39061082e-02,
          -1.32386172e-02, -1.21276742e-02, -1.08624157e-02,
          -6.85150409e-03, 1.11598950e-02, 5.12788165e-03,
          -5.18502528e-03, -1.27096372e-02, -1.12900678e-02,
          -1.36020184e-02, -1.02239288e-02, -1.23206824e-02,
          7.58512644e-03, 9.97949392e-03, -7.68045196e-03,
          -1.03715034e-02, -2.80480017e-03, -4.68643475e-03,
          -7.53472419e-03, -3.17060761e-03, -1.46880664e-03,
          9.52073187e-03, 7.84753542e-03, -2.12321850e-03,
          -5.22789560e-05, 8.99087230e-04, -3.92154232e-03,
          -1.39953969e-02, -1.78881350e-03, -5.36003057e-03,
          -8.41292203e-04, 7.21830456e-03, -2.04767962e-03,
          -1.12145059e-02, -1.26230512e-02, -8.60887114e-03,
          -3.69692873e-03, -5.11050457e-03, 3.67239839e-03,
          1.01037351e-02, 2.21355679e-03, -7.71072600e-03,
          7.59376853e-04, 5.72498469e-03, 6.74316939e-03,
          -4.08748025e-03, -7.09187821e-04, 3.35633731e-03,
          3.99509212e-04, -8.04420281e-03, -2.67696357e-03,
          -4.77516791e-03, -1.62746327e-03, -1.52887800e-03,
          -1.08512852e-03, 7.95697607e-03, 5.47544658e-03,
          2.40827398e-03, 1.78179808e-03, -1.21863848e-02,
          -1.60570741e-02, -5.51637961e-03, -3.27756256e-03,
          1.80135760e-02, 1.69808883e-02, 1.62141472e-02, 6.15446409e-03,
          2.06747930e-03, -1.70831778e-03, -5.96974604e-03,
          -3.11564188e-03, 6.84951618e-03, 1.41826710e-02,
          1.40031567e-02, 9.71315708e-03, -4.23929509e-04,
          -4.99964273e-03, 6.73747761e-03, 8.28039460e-03,
          5.61118359e-04, -2.55783065e-03, 2.31327885e-03,
          -7.50960363e-03, -1.07497042e-02, -6.10811170e-03,
          6.19177520e-03, 7.67624099e-03, 9.94566712e-04,
          -5.80804050e-03, -8.78471695e-03, -4.48424602e-03,
          -7.79663259e-03, 2.02352693e-03, 8.93646292e-03,
          1.00600924e-02, 7.34383753e-03, -5.14902314e-03,
          -8.51673260e-03, -1.43794678e-02, -2.68409052e-03,
          4.58561670e-04, 3.14786797e-03, 1.35332225e-02, 1.89313050e-02,
          1.10350410e-02, -2.71032797e-03, -1.10438699e-02,
          -8.76835082e-03, -7.75667420e-03, 2.58542190e-04,
          -3.15639103e-04, 2.33178478e-04, 1.39421718e-02,
          5.74751897e-03, -2.33921874e-03, -6.61379285e-03,
          -5.89746702e-03, -4.28209221e-03, -4.47136909e-03,
          -9.26101860e-03, -1.29587401e-03, 1.19946776e-02,
          4.98128450e-03, 1.47658994e-03, -6.27801940e-03,
          -6.06369320e-03, -5.60416607e-03, -7.40841439e-04,
          -4.00442863e-03, -3.95516399e-03, 6.30193576e-03,
          3.09075834e-03, 2.42096721e-03, -4.89106355e-03,
          -7.35140697e-04, -6.55943586e-04, -6.16908679e-03,
          -3.79648502e-03, -3.71199241e-03, 3.73495673e-03,
          -1.08416425e-02, -5.18012187e-03, -5.70593309e-03,
          1.88170513e-03, 4.12598765e-03, 2.40180362e-03, 2.01562565e-04,
          5.50397625e-03, 1.78051786e-03, -1.91027876e-02,
          -1.49024436e-02, -7.13882386e-04, 7.90750701e-03,
          1.00400960e-02, 1.23923412e-02, 1.15750264e-02,
          -4.20450186e-03, -1.57326516e-02, -3.73118254e-03,
          -1.24195940e-03, -4.82990472e-05, 2.74985190e-03,
          -1.41154858e-03, 4.28403821e-03, 2.73517193e-03,
          -2.14984553e-04, -1.18184951e-03, -4.01995843e-03,
          -1.24396372e-03, -3.92745191e-04, -2.60102097e-04,
          -9.27502988e-04, 2.51957262e-03, -2.82340916e-04,
          3.03397095e-03, -4.36918461e-04, -1.01356134e-02,
          -6.84220903e-03, -8.69555632e-04, 8.28470197e-03,
          1.46031336e-04, 4.48367093e-03, 8.95603839e-03, 2.06555193e-03,
          -7.62709789e-03, -7.58395111e-03, -4.28475067e-03,
          -4.56375885e-04, -1.22952671e-03, -3.08778044e-03,
          1.14016011e-02, 1.08524375e-02, 8.03768449e-03, 1.44738227e-03,
          -5.82664087e-03, -5.93322469e-03, -7.33615551e-03,
          -2.78033805e-03, 1.66474539e-03, 7.57827191e-03,
          1.78359877e-02, 1.01934886e-02, 1.95099434e-04,
          -4.83373925e-03, -2.69735325e-03, -7.08521437e-03,
          -3.89192812e-03, 3.76635650e-03, 7.11635035e-03,
          1.38453748e-02, 4.80025169e-03, 9.21460742e-04, 1.12785436e-02,
          4.87879850e-03, -5.22283465e-03, -8.58790614e-03,
          -3.52034601e-03, -4.22794139e-03, -4.14903229e-03,
          -1.17455260e-03, 1.14655178e-02, 1.53109087e-02,
          8.23194254e-03, 5.82854124e-03, -6.98106247e-04,
          -1.28279226e-02, -1.50618441e-02, -3.93358013e-03,
          8.29482265e-03, 1.92517359e-02, 3.64489690e-03, 8.41094274e-03,
          3.45857977e-03, 5.75732347e-03, -2.11693929e-03,
          -9.33338609e-03, -2.27539521e-03, -5.34846121e-03,
          6.41590334e-04, -1.16816617e-03, 8.66648834e-03,
          3.67784593e-03, 7.39305746e-03, 7.64870225e-03, 3.01796268e-03,
          -1.23384362e-03, -5.74376388e-03, -4.78825765e-03,
          -7.55425356e-03, -2.63174856e-03, 7.76486332e-03,
          8.09051376e-03, 3.61467502e-03, 2.30397703e-03, 3.67371785e-03,
          4.76378156e-03, -5.60269691e-03, -6.70984201e-03,
          2.45924876e-03, 1.11322934e-02, 8.59014969e-03, 1.03174774e-02,
          8.02747626e-03, 7.54288537e-03, -1.33486120e-02,
          -8.22725892e-03, -9.62490495e-03, -1.55059260e-03,
          8.48674774e-03, 8.38233810e-03, 7.10357074e-03, 7.87019636e-03,
          5.80732571e-03, -2.47070380e-03, -6.73920056e-03,
          -1.60636995e-02, 3.34169529e-03, 1.15340613e-02,
          1.77951399e-02, 1.25667239e-02, 1.21130617e-02, 6.13779947e-03,
          -1.31330490e-02, -1.61464997e-02, -2.33025271e-02,
          -1.86539069e-03, 5.94432279e-03, 1.82691570e-02,
          1.26695177e-02, 1.48850773e-02, 5.46104833e-03,
          -1.12657920e-02, -2.34449096e-02, -1.04070809e-02,
          -9.93467474e-05, 7.83154462e-03, 1.29431617e-02,
          1.43746566e-02, 7.05022505e-03, 5.04959282e-03,
          -9.91339236e-03, -1.11595551e-02, -4.25913930e-03,
          1.28653459e-03, 6.97421469e-03, 1.41936457e-02, 5.72962966e-03,
          6.66138832e-04, -4.44969907e-03, -7.69050978e-03,
          -9.53611080e-03, -1.82060357e-02, -1.34195667e-02,
          -7.93178752e-03, 8.91993847e-03, 9.26912483e-03,
          1.78530198e-02, 1.92170385e-02, 1.77140255e-02,
          -3.15562636e-03, -1.25516849e-02, -1.11577194e-02,
          4.63359663e-03, 3.94534925e-03, 6.23209076e-03, 1.64873898e-02,
          1.88666563e-02, 1.25297969e-02, -1.17616318e-02,
          -1.72997825e-02, -1.68759078e-02, -7.87358731e-03,
          -4.35483875e-03, 4.15175455e-03, 9.37921368e-03,
          2.13254523e-02, 1.46142878e-02, 1.43790862e-03, 9.75458510e-03,
          -1.64250787e-02, -1.98942255e-02, -1.12040583e-02,
          -3.42435390e-03, 8.00946902e-04, 6.41942630e-03,
          1.05365831e-02, 1.19274231e-02, 1.20241083e-02,
          -4.36023064e-03, -1.21579962e-02, -1.28806336e-02,
          -1.11513687e-02, -4.64271801e-03, -5.88040194e-03,
          2.61490303e-03, 9.25786048e-03, 1.04398942e-02, 9.23728105e-03,
          6.17548497e-03, -2.77832476e-03, -1.21421246e-02,
          -9.43489559e-03, -7.37599982e-03, -7.72094028e-03,
          5.67379827e-03, 2.67749012e-04, 1.22220721e-02, 4.29611281e-03,
          3.62236099e-03, 4.18395596e-03, 1.55245163e-03, 5.41337440e-03,
          -1.56431855e-03, -4.74021165e-03, -4.46669478e-03,
          1.62414461e-02, 3.37490975e-03, 2.52187555e-03, 2.86420155e-03,
          8.18370318e-04, 4.46999585e-03, 1.08994413e-02,
          -7.27091264e-03, -6.38555875e-03, 1.25671970e-02,
          9.61739011e-03, 8.95200577e-03, 2.61446415e-03, 1.10593077e-03,
          4.38030064e-03, 9.79943294e-03, -6.38555875e-03,
          -2.15056073e-03, 1.16738975e-02, 7.96473026e-03,
          8.07468779e-03, 4.93545132e-03, 1.80748024e-03, 4.73099714e-03,
          1.46553386e-03, -4.56915423e-03, -7.04770256e-03,
          1.01150665e-02, 6.17278880e-03, 4.92197508e-03, 3.50268092e-03,
          7.14750402e-03, 8.77909735e-03, 1.24802915e-02,
          -7.04770256e-03, -1.11387102e-02, 1.97060369e-02,
          2.08151359e-02, 2.08211001e-02, 1.49887977e-02, 4.30439226e-03,
          4.31811641e-04, -9.60818212e-03, -1.74160749e-02,
          -2.83320025e-02, 1.53939351e-02, 2.36527510e-02,
          2.39981525e-02, 2.05827616e-02, 1.54073955e-02, 5.48364595e-03,
          -1.34113980e-02, -3.18756290e-02, -1.41411684e-02,
          8.53558909e-03, 1.86930820e-02, 1.44673381e-02, 1.71899162e-02,
          1.44857485e-02, 1.03127100e-02, -3.57887102e-03,
          -1.65513027e-02, -3.52502211e-05, 1.54288318e-02,
          1.79347806e-02, 1.56636499e-02, 1.71099771e-02, 7.80179538e-03,
          -8.39004572e-03, -1.57624129e-02, -1.36398608e-02,
          -9.27498471e-03, -1.83301102e-02, -1.85201447e-02,
          -1.32913562e-02, -1.05027240e-02, -6.47144113e-03,
          1.11373616e-02, 2.34922767e-02, 9.96936578e-03,
          -1.50448205e-02, -4.18809662e-03, 1.02420524e-02,
          1.26437014e-02, 1.01263151e-02, 5.88564854e-03, 7.87029415e-03,
          4.43409896e-03, -1.37370117e-02, -5.56833670e-03,
          -8.09750706e-03, -7.94853549e-04, 4.66636848e-03,
          3.06879543e-03, 4.48329840e-03, 6.50018128e-03, 8.33143201e-03,
          4.71909480e-05, 8.42213351e-03, -1.58262625e-02,
          -1.45112537e-02, -5.23045333e-03, -3.93461157e-03,
          -1.41764630e-03, -5.43859648e-03, -2.47249729e-03,
          8.42213351e-03, 4.69634589e-03, -4.44850465e-03,
          -4.20017820e-03, -2.47990456e-03, -2.55040219e-03,
          -2.92952592e-03, -5.79855032e-03, -1.43458927e-02,
          4.69634589e-03, 1.29835238e-03, -2.60575511e-03,
          -1.01492146e-03, -5.01306786e-04, -3.09816125e-04,
          -6.95688883e-04, -1.73730205e-03, -5.19017223e-03,
          1.29835238e-03, 6.01066393e-04, -1.57681759e-03,
          -8.01528164e-04, -1.45713799e-04, -1.60153548e-04,
          -5.56052022e-04, -1.73322915e-04, -1.40073034e-03,
          6.01066393e-04, -9.09772934e-04, -9.92813963e-04,
          -6.97319396e-04, -1.67755206e-04, 6.32331707e-04,
          1.43408659e-04, -8.42718291e-04, -1.51662237e-03,
          5.37517131e-04, -3.70696420e-04, 1.41647039e-03,
          -2.90904543e-04, -1.52466455e-04, -1.03688726e-04,
          5.33870916e-05, -6.67544024e-04, -3.71760619e-03,
          -3.70696420e-04, -3.16884485e-04, 1.79406779e-03,
          -3.51593044e-04, -7.94392254e-05, -2.44942494e-04,
          -3.59127094e-04, -2.01405375e-03, -2.30695424e-03,
          -3.16884485e-04, -5.78842708e-04, -3.01933172e-03,
          -4.39731928e-04, -3.52374016e-04, -2.84349662e-04,
          -7.65960067e-05, -2.42900162e-04, 6.06907438e-03,
          -5.78842708e-04, 7.56204943e-04, 8.73895921e-03,
          4.73019155e-03, 1.49692676e-03, 8.30717909e-04,
          -1.04354505e-04, -1.22464041e-03, -1.74420848e-02,
          3.95279232e-04, -1.18222805e-02, 7.64956698e-03,
          7.97416922e-03, 1.08729936e-02, 1.11325299e-02, 1.46440370e-02,
          1.44843385e-02, 1.07636362e-04, -1.50304846e-02,
          -1.10858688e-02, 1.15543008e-02, 9.71578993e-03,
          5.68109844e-03, 6.85699610e-03, 1.33803375e-02, 9.09013860e-03,
          -5.33494353e-03, -1.39195137e-02, 2.05396675e-02,
          2.93341242e-02, 1.53029766e-02, 1.14063681e-04,
          -1.29588926e-02, -1.99723113e-02, -2.31802091e-02,
          -2.23021153e-02, -1.05120186e-02, -8.71942565e-03,
          7.88067235e-04, -4.36801965e-05, 7.64634507e-03,
          7.93973450e-03, 1.74900680e-03, 9.03961307e-04,
          -1.73974142e-03, -1.16884951e-02, -3.03295720e-02,
          -2.12134980e-03, 1.06229372e-02, 1.48032475e-02,
          1.45095168e-02, 1.49398176e-02, 1.98806636e-02, 6.24377234e-03,
          -1.95480157e-02, -7.40814488e-03, 6.37732493e-03,
          6.37121499e-03, 4.82199481e-03, 4.35300916e-03, 6.12369506e-03,
          1.30477501e-02, 6.74667116e-03, -7.47074652e-03,
          4.42726014e-05, -9.29084083e-04, -2.79809814e-04,
          1.46243940e-04, -3.07944196e-04, -9.87238527e-05,
          -1.36020972e-04, 3.54234042e-04, 4.42726014e-05,
          -1.22272572e-03, 2.80084857e-03, -3.28954688e-04,
          -7.75527878e-05, -1.09457986e-04, -2.30045989e-04,
          -6.03427761e-04, 4.75270953e-03, -1.22272572e-03,
          -6.99370867e-04, 3.22197457e-06, -2.19627382e-05,
          -9.24377528e-05, -2.02507174e-04, -1.83205048e-04,
          -2.80402801e-05, 3.18313367e-03, -6.99370867e-04,
          -4.84492397e-04, 2.95356708e-03, -3.53146424e-05,
          -2.99014928e-08, -6.53721581e-05, 1.01775557e-04,
          1.17773167e-03, 2.99880491e-03, -4.84492397e-04,
          -1.25237263e-03, 4.72836150e-03, 1.94335327e-04,
          -1.62762502e-04, 1.69574411e-03, 8.32273436e-05,
          -1.81371899e-04, 1.24157197e-03, -1.25237263e-03,
          -3.60937847e-04, 4.63105226e-03, 5.86339505e-04,
          -2.51438469e-04, 2.20133021e-04, 4.38154602e-05,
          -1.79905415e-04, -2.95529631e-03, -3.60937847e-04,
          -2.66536744e-03, 1.19089568e-03, -3.52233707e-04,
          -4.30336280e-04, 2.98829080e-04, 9.60023863e-06,
          -6.05859204e-05, 1.20457085e-02, -2.58838641e-03,
          -1.93199041e-04, 4.66956664e-03, 9.42501589e-04,
          -4.22945537e-04, -2.08606012e-04, -2.69075044e-05,
          8.30409524e-04, -1.40535249e-03, -2.34802646e-04,
          -2.31378552e-04, 2.97727692e-03, 5.57649997e-04,
          -2.68410240e-05, 3.68386187e-04, 2.72142515e-05,
          -2.33498926e-04, -1.17873447e-03, -2.31378552e-04,
          -1.46231502e-02, 1.36990594e-02, 1.83674656e-02,
          1.32860318e-02, 6.89107366e-03, 1.13562085e-02, 1.27201071e-02,
          4.04502731e-03, -1.53733427e-02, -2.39760187e-02,
          7.68700987e-03, 1.92912128e-02, 1.80434212e-02, 1.36351315e-02,
          1.41963949e-02, 4.06582188e-03, -1.47889862e-02,
          -2.82935835e-02, 2.71422276e-03, 2.98459106e-03,
          2.98459106e-03, -1.12986343e-03, -3.45319510e-03,
          -6.07404485e-03, -6.82897726e-03, -2.63760658e-03,
          -4.91600204e-03 ]
      - [ -1.16882194e-02, -1.09357974e-02, 8.32597446e-03,
          1.41459452e-02, 1.24770347e-02, 8.58632755e-03, 3.46439751e-03,
          2.74172577e-04, -1.02489097e-02, -1.24437101e-02,
          -5.27470093e-03, 1.55570311e-03, 2.15496495e-03,
          3.95936752e-03, 7.01480452e-03, 7.50713563e-03,
          -1.20531011e-03, -1.17598623e-02, -1.05287007e-03,
          -1.05287007e-03, 1.13684055e-03, 2.35442049e-03,
          -3.58411903e-03, 1.37652294e-03, 3.80227139e-04,
          2.34727748e-03, -2.66287825e-04, 1.33102303e-02,
          -1.36605790e-02, -9.38207377e-03, -7.18151173e-03,
          -8.17842130e-03, -9.42043588e-03, -9.60166659e-03,
          -1.35420859e-02, 1.42958658e-02, 2.41628848e-02,
          -5.76216914e-03, -1.71136279e-02, -1.86831709e-02,
          -1.95220187e-02, -2.06134655e-02, -1.95641834e-02,
          -1.06525468e-03, 2.71532293e-02, 2.39888057e-02,
          -5.79724740e-03, -1.65527426e-02, -2.18750928e-02,
          -2.15080101e-02, -2.17380598e-02, -1.42215416e-02,
          5.29352529e-03, 2.72649378e-02, 1.74177345e-02,
          -6.24461239e-03, -1.23444777e-02, -1.68940499e-02,
          -1.85301173e-02, -1.89246275e-02, -1.66972019e-02,
          -4.72337613e-03, 1.49445599e-02, 1.25620589e-02,
          -1.49589973e-02, -2.01364625e-02, -1.41207334e-02,
          -1.39253279e-02, -9.02051851e-03, -1.11379120e-02,
          3.50155775e-03, 1.73220225e-02, 8.80401116e-03,
          -2.34526936e-02, -2.20924579e-02, -1.32980524e-02,
          -6.03950582e-03, -3.26604256e-03, -2.63922755e-03,
          2.07851478e-03, 2.03394201e-02, 9.93387494e-03,
          -1.36451256e-02, -2.06753984e-02, -1.88426170e-02,
          -1.49720404e-02, -1.11446548e-02, 1.46487029e-03,
          1.43828634e-02, 2.27900930e-02, 6.63922029e-03,
          -1.81393686e-03, -6.65918365e-03, -1.10264961e-02,
          -9.11273714e-03, -5.13453269e-03, 3.62791843e-03,
          4.53010621e-03, 9.82217491e-03, -3.36547941e-03,
          4.94412612e-03, 1.07530400e-03, -4.45802044e-03,
          3.94294038e-03, 2.12659058e-03, 2.01522559e-03,
          -3.75497475e-05, 1.43932586e-03, -1.00550354e-02,
          6.95822574e-03, 3.44682229e-03, 2.42472091e-03, 5.65421954e-03,
          5.32091735e-03, 9.21644550e-03, 1.14970487e-02,
          -8.02461058e-03, -1.49510922e-02, -4.09714179e-03,
          6.99557364e-03, 9.63857211e-03, 1.22306328e-02, 1.74993537e-02,
          1.31889405e-02, -6.41405815e-03, -1.38716036e-02,
          -1.10470345e-02, -1.28633510e-02, -1.04024783e-02,
          -3.57369054e-03, 7.63558457e-03, 7.31091574e-03,
          4.90484247e-03, 4.38279239e-03, -8.76955036e-03,
          -4.24408587e-03, -8.45688395e-04, 1.38378143e-03,
          -9.50299655e-05, 5.63243229e-04, -3.70577560e-03,
          -1.01497145e-02, -6.97340211e-03, 2.34644656e-04,
          -4.82510496e-03, -4.59284661e-03, -3.16308159e-03,
          -2.06982298e-03, 1.69102673e-03, 3.59378476e-03,
          5.84719749e-03, 1.23969905e-04, -2.23696209e-03,
          1.25370489e-03, -1.91246055e-03, -8.03667959e-03,
          -1.16343433e-02, -8.69724434e-03, -2.20288159e-04,
          5.26321260e-03, 5.77206817e-03, 4.89846058e-03, 4.14570794e-03,
          -9.96017456e-03, -9.13823210e-03, -1.08724264e-02,
          -7.80840172e-03, -1.19708152e-03, 1.28042186e-04,
          -1.46674356e-05, 1.64540950e-02, 1.24475099e-02,
          -2.42221951e-02, -2.43066903e-02, -1.51828295e-02,
          -1.03869848e-02, -2.71873316e-03, -2.12678709e-03,
          7.76746543e-03, 2.81285979e-02, 1.55656748e-02,
          -1.25733223e-02, -2.20444091e-02, -1.73077844e-02,
          -1.49200996e-02, -1.12570701e-02, -9.49385203e-03,
          -8.65371339e-03, 1.74327213e-02, 1.35319987e-02,
          -1.99457482e-02, -1.93375889e-02, -1.39458869e-02,
          -1.76721700e-02, -8.51694401e-03, -9.35013779e-03,
          -2.04646401e-03, 1.58996470e-02, 2.14344729e-02,
          -2.32356098e-02, -2.45714039e-02, -2.20601987e-02,
          -1.76680144e-02, -6.37817383e-03, -3.33269569e-03,
          -2.20053007e-05, 2.50385236e-02, 1.17351292e-02,
          -2.34686546e-02, -2.50727460e-02, -1.76571794e-02,
          -1.27114141e-02, -6.31802855e-03, -3.98896495e-03,
          1.23853667e-03, 3.16944905e-02, 7.09650386e-03,
          -1.47501584e-02, -7.47524481e-03, -4.84636147e-03,
          -5.25225746e-03, -5.49447350e-03, -4.51323204e-03,
          -6.34424575e-03, 7.39835529e-03, 1.00417128e-02,
          8.48452933e-03, -8.78094230e-03, -1.42448423e-02,
          -1.78677868e-02, -1.43137639e-02, -1.49086537e-02,
          -7.30907544e-03, 9.96976066e-03, 1.48042483e-04,
          -7.46390643e-03, -1.14112301e-02, -1.64282676e-02,
          -1.47597920e-02, -6.89567206e-03, -2.11189524e-03,
          1.37857217e-02, 8.95216782e-03, -4.06409753e-03,
          -1.18824025e-03, -6.85800053e-03, -4.41495795e-03,
          -2.67093186e-03, -4.63101873e-03, -2.01371918e-03,
          6.90155476e-03, 8.54726695e-03, 5.26956050e-03, 2.22915877e-03,
          1.02828676e-03, -3.21752508e-03, -7.36637320e-03,
          -2.04135315e-03, -7.97817111e-03, -4.72751306e-03,
          2.01036246e-03, 3.64310166e-04, -1.11968461e-02,
          -1.16090924e-02, -7.96287321e-03, -5.84106753e-03,
          -1.42634928e-03, -1.02178450e-03, 1.46053648e-02,
          9.93716996e-03, 3.72877432e-04, -1.34870736e-03,
          1.68657745e-03, 4.40087868e-03, -4.05124761e-03,
          -4.60863765e-03, -1.94660548e-04, -2.70621385e-03,
          3.88326333e-03, 1.05563155e-03, 5.41252724e-04, 1.88737735e-03,
          1.39632111e-03, 7.77960406e-04, -4.61808313e-03,
          -1.87532307e-04, 5.35993022e-04, 2.23576138e-03,
          2.75883731e-03, -4.27345326e-03, 2.91184173e-03,
          -6.45635882e-05, -2.09964835e-03, -1.11192327e-04,
          7.84884542e-05, 3.82207427e-03, 2.57980824e-03, 1.26198661e-02,
          4.98387450e-03, 1.19242090e-04, -2.01453944e-03,
          -4.01438959e-03, -3.68955848e-03, -5.13092056e-03,
          -7.91552570e-03, 3.93078756e-03, 7.88334385e-03,
          6.54256670e-04, -8.91811866e-03, -8.64207186e-03,
          -4.25955467e-03, -7.98027124e-03, -1.18913930e-02,
          3.79428762e-04, 1.54376300e-02, 3.47561645e-03,
          -5.78231458e-03, -1.50147015e-02, -1.30833955e-02,
          -1.13949855e-03, 5.94298728e-03, 7.01512676e-03,
          9.86358617e-03, 1.72222555e-02, -5.86655631e-04,
          -1.42210862e-02, -3.79625615e-03, -1.85795862e-03,
          2.40275357e-03, 5.14522241e-03, 8.69263429e-03, 1.90977901e-02,
          1.13446480e-02, 4.46598930e-03, 9.48149420e-04,
          -1.92722015e-03, -1.03423267e-03, -4.57317289e-03,
          6.79654186e-04, 3.13232769e-03, -3.31073417e-03,
          7.97138922e-03, 1.45975659e-02, 1.55986298e-03,
          -4.96450672e-03, -9.20220837e-03, -6.26059202e-03,
          -1.11737391e-02, -8.08351953e-03, -1.29345665e-03,
          1.16118379e-02, -3.74516845e-03, -2.68891919e-03,
          -4.98555368e-04, -1.20419019e-04, 2.11963360e-03,
          4.14586579e-03, 4.43310849e-03, 1.57270627e-03, 3.09247989e-03,
          1.73686107e-03, -9.78767686e-03, -1.08459974e-02,
          -9.83844325e-03, 4.27241175e-04, -5.30042162e-04,
          7.56964739e-03, 1.49685079e-02, 1.08372346e-02,
          -8.34801700e-03, -1.21034151e-02, -1.19806938e-02,
          -1.38723161e-02, 4.25661216e-04, 7.57599017e-03,
          6.51370967e-03, 1.12513490e-02, 1.19107813e-02, 8.23403767e-04,
          -2.15565320e-03, -7.03293504e-03, -1.31363526e-03,
          5.14552137e-03, 7.29806081e-04, 3.55822325e-04, 9.57739190e-04,
          1.34682911e-03, 5.12873940e-03, 8.85467569e-04,
          -1.21170620e-03, -4.62982789e-05, 1.63201708e-03,
          -3.11247888e-03, -3.80977103e-03, 1.15229317e-03,
          7.00171292e-03, -4.55278350e-04, -2.45108036e-04,
          -2.73826951e-03, 3.37024289e-03, 2.16253288e-03,
          6.97970274e-04, -2.53412686e-03, 6.64877053e-03,
          3.83380614e-03, -1.06555643e-03, 1.29614596e-03,
          5.87198883e-04, 9.20980703e-04, 9.12311312e-04,
          -3.32349120e-03, 2.41725193e-03, -4.89757338e-04,
          6.62702660e-04, 1.72497972e-03, 1.79164181e-03, 7.82756775e-04,
          2.17981127e-04, -1.94789830e-03, -2.96837045e-03,
          1.92713007e-04, 1.44251535e-05, 3.35595687e-03, 2.69724900e-04,
          4.11342364e-03, 7.51149026e-04, 1.28554937e-03,
          -3.32611380e-03, -3.30810715e-03, 5.10332827e-03,
          5.00545744e-03, 4.75116540e-04, 3.94426286e-03, 3.95438960e-03,
          -1.48961623e-03, -1.59635581e-03, -2.92400876e-03,
          -2.92400876e-03, 3.16676358e-03, 4.63927910e-03,
          2.23814906e-03, 6.85713580e-03, -2.35238876e-05,
          -6.64913282e-03, -5.87517070e-03, -1.35982584e-03,
          -2.84228334e-03, 2.18383473e-04, -1.39165320e-03,
          5.53579768e-03, 1.06382696e-02, -8.74661282e-03,
          -1.22325160e-02, -1.17337443e-02, -5.34115406e-03,
          -1.59310061e-03, 5.77446492e-03, 1.55704943e-02,
          2.16632262e-02, 1.31068309e-03, -2.57509807e-03,
          -6.70787087e-03, -5.54441847e-03, 9.32625408e-05,
          -3.38132749e-03, 3.66603583e-03, 7.71639077e-03,
          1.56687777e-02, 1.66253420e-04, -7.49389408e-03,
          -6.56130444e-03, -2.74606491e-03, 7.15733692e-03,
          5.56312548e-03, -2.18078820e-03, 5.04074665e-03,
          5.53956861e-03, 1.44250626e-02, 2.39757122e-03,
          -3.64789553e-03, -7.97440205e-03, -4.93581826e-03,
          -5.52498177e-03, -5.04405983e-03, 3.18040140e-03,
          1.31243756e-02, 4.53187327e-04, 9.60346079e-05,
          -1.04327686e-03, -9.72590037e-03, -3.01920692e-03,
          3.31758824e-03, 1.14295268e-02, 1.01208137e-02, 5.06771076e-03,
          -8.08383990e-03, -1.07025532e-02, 3.06726753e-04,
          3.24932369e-03, 3.07633053e-03, 7.19700148e-03, 1.35252289e-02,
          1.40508832e-02, 1.90739799e-03, -2.18972866e-03,
          -1.66312548e-05, 5.09223389e-03, 2.23336997e-03,
          -1.08887174e-03, -1.26543769e-03, -1.83201302e-03,
          1.29844656e-03, -2.07618577e-03, 3.14766570e-04,
          4.06908896e-03, 6.76316209e-04, 3.44897876e-03,
          -2.43644160e-03, -1.96165987e-03, -9.09659022e-04,
          2.93408986e-03, 1.45966842e-04, 1.32181332e-03, 8.63973575e-04,
          8.73376557e-04, 1.45972054e-03, 4.02400224e-03,
          -7.79884867e-03, 2.22707097e-03, -1.43363250e-05,
          1.39823451e-03, 3.02550569e-03, 3.08559719e-03, 1.00382298e-04,
          1.66762003e-03, -6.26104372e-03, -8.45982414e-03,
          -1.71354890e-03, -1.21131667e-03, 4.06123744e-03,
          -2.33961502e-03, -4.02762555e-04, 1.45106169e-03,
          7.75949564e-03, -6.64255256e-03, -9.48599307e-04,
          9.23939006e-05, -2.09273596e-04, 3.41872685e-04,
          -3.56488104e-04, 5.14109328e-04, -3.47103737e-03,
          -9.33355361e-04, 6.17699174e-04, -1.16554520e-03,
          3.70634673e-03, 2.56854855e-03, -2.74485163e-03,
          1.50814850e-03, 1.39536103e-03, -9.27344488e-04,
          -3.21575045e-03, -2.37681344e-03, -2.06723576e-03,
          3.21100489e-03, 6.67121354e-03, 7.45840743e-03, 1.15837026e-02,
          -5.08709578e-03, -9.37368535e-03, -8.14131740e-03,
          -2.68411986e-03, -3.95899964e-03, 2.49567238e-04,
          2.06094328e-03, 4.89883265e-03, 8.36306065e-03,
          -1.12826526e-02, -1.31756058e-02, -1.42951524e-02,
          -7.17100222e-03, 3.11502395e-03, 2.80094449e-04,
          5.52786235e-03, 8.61725491e-03, 2.49829311e-02,
          -4.56401287e-03, -1.88353974e-02, -2.30419356e-02,
          -1.43756298e-02, -1.06769279e-02, -3.02678964e-04,
          1.58060305e-02, 3.05938646e-02, 1.83031522e-02,
          -2.12813308e-03, -2.01031007e-02, -2.16631237e-02,
          -9.41015687e-03, -1.22122597e-02, -4.67412872e-03,
          1.20046698e-02, 2.09148880e-02, 9.68858320e-03,
          -3.15744965e-03, -1.67048760e-02, -1.36789074e-02,
          -9.95256286e-03, -1.41430311e-02, -1.07070003e-02,
          1.27298702e-02, 1.31829157e-02, 2.90017854e-02, 7.63969636e-03,
          -1.75024569e-02, -1.86223052e-02, -1.93540901e-02,
          -1.50132338e-02, -6.30439073e-03, 1.34255113e-02,
          2.97990795e-02, 2.67339386e-02, 1.16454549e-02,
          -1.64610017e-02, -2.02887878e-02, -1.80590712e-02,
          -1.49430083e-02, -3.09522147e-03, 1.17035927e-02,
          2.58148313e-02, 1.27539290e-02, -3.93554475e-03,
          -1.40819233e-02, -1.42613379e-02, -1.58273224e-02,
          -3.46326589e-04, 9.87145977e-05, 1.07541243e-02,
          1.21792890e-02, 1.98873226e-02, 1.49242822e-02, 4.84159216e-03,
          -1.38851593e-03, -8.91269185e-03, -1.90039743e-02,
          -1.17524583e-02, -4.54148557e-03, 1.06096836e-02,
          3.51206120e-03, 4.24239459e-03, 9.98813100e-03, 1.53087676e-04,
          -1.78195478e-03, -2.69950880e-03, -7.90252816e-03,
          9.14222444e-04, 9.08747839e-04, 4.62009246e-03, 5.28311543e-03,
          4.15131869e-03, -5.91749232e-03, 2.92796339e-03,
          -1.55773712e-03, -1.17126052e-04, 3.06617608e-03,
          2.78058415e-03, 5.46941999e-03, 6.26621861e-03, 2.33833049e-03,
          -3.89869814e-03, -2.30240985e-03, -5.51118096e-03,
          1.54159236e-04, 4.93938103e-04, 3.61201004e-03,
          -6.60003023e-03, -2.84901005e-03, -1.79163204e-03,
          2.54399562e-03, 4.31829365e-03, 1.57058029e-03, 5.30456891e-03,
          3.53057490e-04, -6.40194071e-03, -4.63379174e-03,
          -2.44460814e-03, -1.06054544e-03, -6.82388374e-04,
          3.78215755e-03, 2.22028210e-03, 2.43576802e-03, 1.69815298e-03,
          -7.34555442e-03, 5.14506130e-03, 2.31523882e-03,
          3.28032346e-03, -6.38243230e-03, -1.16665009e-02,
          -1.05363494e-02, -2.75809621e-03, 1.16141199e-03,
          5.32105798e-03, 2.39624968e-03, -1.71391348e-05,
          3.64136540e-05, -9.05469205e-05, -1.76766096e-03,
          -1.96219748e-03, -2.44691130e-03, -6.21440588e-03,
          2.39624968e-03, 1.20230881e-03, -1.63989607e-02,
          -3.07503622e-03, -4.74386336e-03, -1.53607491e-03,
          6.42269806e-05, -1.13857284e-04, 6.77195610e-04,
          9.64712817e-03, 1.35574900e-02, -2.11424790e-02,
          -1.98330916e-02, -1.80735830e-02, -1.52966129e-02,
          -8.54394399e-03, -5.59135759e-03, -2.86044879e-03,
          1.65411010e-02, 1.61474012e-02, -1.56908110e-02,
          -1.58121586e-02, -1.68655757e-02, -1.50630670e-02,
          -1.48450239e-02, -1.44281238e-02, -1.15430187e-02,
          1.88758988e-02, 2.99253711e-03, -2.89092641e-02,
          -1.95194557e-02, -1.01944366e-02, -3.38341575e-03,
          -3.86230694e-03, -3.54642258e-03, 7.37690413e-03,
          2.36386731e-02, 1.46228792e-02, -1.87518187e-02,
          -2.48430707e-02, -2.54040118e-02, -1.25477100e-02,
          -7.22149387e-03, -3.06321052e-03, 5.94897801e-03,
          3.37315947e-02, 1.51178157e-02, -1.71713196e-02,
          -2.37931181e-02, -2.32495200e-02, -1.81374196e-02,
          -8.22561886e-03, -3.94170918e-03, 1.55052822e-02,
          2.16305722e-02, 1.86099280e-02, -1.61811598e-02,
          -1.95211843e-02, -2.02458948e-02, -1.99392773e-02,
          -9.47159529e-03, -1.24074500e-02, 4.72395774e-03,
          2.03877389e-02, 3.18260118e-02, 6.62927330e-03,
          -1.26064774e-02, -1.88718811e-02, -2.25186739e-02,
          -2.35523041e-02, -1.96571723e-02, -7.64981797e-03,
          3.02807353e-02, 2.12999340e-02, 3.14683421e-03,
          -8.09677038e-03, -7.97312986e-03, -1.11222444e-02,
          -7.53035955e-03, 3.64047964e-03, 5.49559155e-03,
          1.99319031e-02, 7.21311569e-03, 8.63240287e-03,
          -5.08354185e-03, -2.48663174e-03, -6.58507086e-03,
          -8.87529831e-03, -2.95851869e-03, 2.34832917e-03,
          6.70312019e-03, 2.01542433e-02, 1.54217500e-02, 2.87427800e-03,
          -1.39292404e-02, -1.84670873e-02, -1.96775850e-02,
          -1.39769511e-02, -8.03124532e-03, 2.51640473e-03,
          -2.95189163e-03, -1.49242522e-03, -1.59983139e-03,
          3.78554710e-03, 1.83559768e-03, 5.47587592e-03, 7.80662522e-03,
          -4.13663546e-03, -1.37262587e-02, -8.04414321e-03,
          -4.76258714e-03, -1.08464155e-03, 3.54760629e-03,
          2.14723521e-03, -1.77837315e-03, 2.67440057e-03,
          2.67440057e-03, -7.98101071e-03, 5.41216508e-03,
          -4.92784427e-03, 6.13587385e-04, 2.93987279e-04,
          -2.38241558e-03, -3.81166441e-03, 2.52147089e-03,
          1.29945041e-03, 7.27696519e-04, 3.34000424e-03,
          -6.20118715e-03, -1.59793405e-03, -2.19342601e-03,
          -4.30482731e-04, -6.44456595e-04, -9.23996035e-04,
          -1.15582030e-02, 3.34000424e-03, 7.68781407e-04,
          -6.33374881e-03, -9.76814990e-05, -5.10833925e-05,
          3.97921947e-04, -7.35315625e-05, -2.26640468e-03,
          3.65695753e-03, 7.68781407e-04, 8.53461493e-03,
          -2.49752197e-02, -9.99847706e-03, -7.45835388e-03,
          -2.07330030e-03, -3.21688107e-03, -4.58760653e-03,
          -6.62121596e-03, 8.53461493e-03, 1.45724732e-02,
          -1.94735043e-02, -2.26333477e-02, -2.26326827e-02,
          -1.39222397e-02, -1.29775666e-02, -6.84477203e-03,
          -1.35212450e-03, 3.16092558e-02, 9.93675832e-03,
          -1.93386525e-02, -2.51951981e-02, -2.02611666e-02,
          -6.40814891e-03, -8.98405560e-04, 1.34352222e-03,
          5.74770290e-03, 3.27363238e-02, 7.33240927e-03,
          -1.91004090e-02, -2.24621240e-02, -1.74656454e-02,
          -5.58424601e-03, -5.05251205e-03, -1.85961428e-03,
          6.24579191e-03, 2.45028697e-02, 9.32276715e-03,
          -1.06331883e-02, -1.64552033e-02, -1.83881503e-02,
          -1.31887821e-02, -8.17757752e-03, -9.80547257e-03,
          1.05176438e-02, 1.18644340e-02, 1.56756639e-02,
          -6.79646619e-03, -1.35756359e-02, -1.12891020e-02,
          -1.86701529e-02, -1.35739585e-02, -1.51147889e-02,
          -2.94171320e-03, 1.31286969e-02, 3.17727774e-02,
          7.61188753e-03, -1.71926115e-02, -2.03141272e-02,
          -2.15583425e-02, -2.27889307e-02, -2.17726324e-02,
          -9.13692813e-04, 3.00684199e-02, 1.84885114e-02,
          8.23193695e-03, 5.01312036e-03, 6.77227043e-04,
          -9.68226418e-03, -7.34744407e-03, -6.57387776e-03,
          -5.88649279e-03, 7.25579122e-03, -1.15075959e-02,
          8.79157707e-03, 1.02413381e-02, 1.27738388e-02, 6.12491043e-03,
          1.82428956e-03, -8.39915127e-03, -1.84874069e-02,
          -2.01726165e-02, 4.55000671e-03, 5.24306670e-03,
          5.24306670e-03, 4.31561703e-03, -3.13160475e-03,
          -9.52958502e-03, -1.08586289e-02, -1.11553799e-02,
          -6.10461738e-03 ]
      - [ -2.24016421e-02, -2.09360067e-02, 1.95425414e-02,
          2.62315292e-02, 2.49132104e-02, 1.15917148e-02, 1.44515361e-03,
          -2.35236390e-03, -1.55536309e-02, -2.46187579e-02,
          -3.63648194e-03, 7.77850254e-03, 1.62622472e-03,
          6.28759898e-03, 1.85205080e-02, 1.50059229e-02,
          -2.67666136e-03, -2.32829154e-02, 8.46827868e-03,
          3.20016174e-03, -2.84440722e-03, -5.75906644e-03,
          -1.07301399e-02, -3.72205768e-03, -1.22165517e-03,
          2.56338529e-03, 2.22314056e-03, 1.59738548e-02,
          -1.84857398e-02, -1.48084685e-02, -9.05886479e-03,
          -3.56375333e-03, -1.11174732e-02, -1.40190609e-02,
          -1.93820205e-02, 1.59738548e-02, 2.76370440e-02,
          -9.92554426e-03, -2.48916522e-02, -2.67027169e-02,
          -1.73058957e-02, -2.65367962e-02, -2.35818271e-02,
          -1.33774988e-03, 3.06439027e-02, 3.47353183e-02,
          -8.72522593e-03, -2.62294635e-02, -2.74330005e-02,
          -2.78199539e-02, -2.81676520e-02, -2.07833331e-02,
          1.10506359e-02, 4.06400897e-02, 2.86904201e-02,
          -8.86686612e-03, -1.56696923e-02, -2.18714029e-02,
          -2.69972105e-02, -2.68175416e-02, -2.18199734e-02,
          -8.83795694e-03, 2.74548847e-02, 2.60949358e-02,
          -1.55022936e-02, -2.34395694e-02, -1.96979810e-02,
          -1.97172873e-02, -1.36472043e-02, -2.32986175e-02,
          -5.75355394e-03, 2.39510052e-02, 2.40035485e-02,
          -1.70582812e-02, -2.28530578e-02, -2.28556599e-02,
          -2.32583880e-02, -1.73772387e-02, -2.06627063e-02,
          -1.36354491e-02, 2.35659145e-02, 2.95820311e-02,
          -5.91675425e-03, -2.31331568e-02, -2.59786714e-02,
          -2.64478251e-02, -2.60878988e-02, -1.30662024e-02,
          6.53238688e-03, 3.00870873e-02, 2.67456248e-02, 9.04405769e-03,
          -1.03933793e-02, -1.76348817e-02, -1.79612841e-02,
          -1.80587508e-02, -2.85611546e-04, 8.93117487e-03,
          2.38159876e-02, 7.91195780e-03, 5.23549085e-03,
          -9.53932665e-03, -1.36481868e-02, -5.58023062e-03,
          -1.38847977e-02, -1.56241544e-02, 4.24687564e-03,
          1.31137818e-02, 3.75540368e-03, -2.16514245e-03,
          -1.04982825e-02, -6.89320406e-03, -5.03598386e-03,
          -2.35723285e-03, -7.51462579e-03, 4.57977969e-03,
          4.44164313e-03, -1.89200463e-03, 4.61060274e-03,
          4.22631943e-04, 1.16538361e-03, 1.16859563e-03, 1.05387077e-03,
          7.10905704e-04, 3.80167156e-04, -6.69874670e-03,
          -6.48121629e-03, 1.44367421e-03, 5.07245911e-03,
          1.32630719e-02, 1.96321700e-02, 6.43002242e-03,
          -1.38425780e-03, -4.56943782e-03, -2.19667312e-02,
          -6.03967579e-03, 1.75387866e-03, 4.66910144e-03,
          2.54900916e-03, -8.84476211e-03, -1.22394124e-02,
          -1.57920104e-02, -5.68458531e-03, 2.82844622e-03,
          -4.34885453e-03, -9.69204865e-03, -1.45652052e-03,
          3.59557499e-03, -2.94009526e-03, 6.48550363e-03,
          4.20349929e-03, -4.04545292e-03, -5.74295409e-03,
          1.12911025e-02, 4.28839540e-03, -7.84014538e-03,
          -1.36285778e-02, -1.40963700e-02, -2.92422599e-03,
          1.31986279e-03, 2.02198105e-04, 6.87282532e-04, 4.68080211e-03,
          -7.07122823e-03, -1.07742976e-02, -1.44080827e-02,
          -1.02898171e-02, -3.43280169e-03, -1.51557266e-03,
          -4.60485276e-03, 1.33481286e-02, 9.13009141e-03,
          -3.46320681e-02, -2.66327802e-02, -1.36706177e-02,
          -5.39308088e-03, -1.69311382e-03, -9.19037906e-04,
          1.02218157e-02, 3.32220979e-02, 1.64710302e-02,
          -1.86032746e-02, -3.23398635e-02, -2.27931943e-02,
          -1.89519022e-02, -7.92439561e-03, -8.94726347e-03,
          -6.87723560e-03, 3.03658433e-02, 1.55474814e-02,
          -2.46037655e-02, -2.02034637e-02, -1.27828456e-02,
          -1.92981623e-02, -1.56768095e-02, -1.75634436e-02,
          -5.68108540e-03, 1.92134138e-02, 1.06979571e-02,
          -1.54468697e-02, -1.08986087e-02, -6.77514728e-03,
          -1.38303451e-02, -1.27964159e-02, -1.55447032e-02,
          -1.51473321e-02, 1.07257636e-02, 1.67440455e-02,
          -1.68464687e-02, -8.47236067e-03, -7.52630504e-03,
          -1.37661975e-02, -1.29500953e-02, -2.12045982e-02,
          -2.42887866e-02, 1.54795572e-02, 1.91018097e-02,
          -3.62547114e-03, -1.46994218e-02, -1.14902593e-02,
          -2.22961530e-02, -2.08836645e-02, -2.22674441e-02,
          -2.27810275e-02, 1.93245318e-02, 2.99667474e-02,
          2.54384000e-02, -1.67443440e-03, -6.76569995e-03,
          -1.69124920e-02, -3.20248567e-02, -3.04752663e-02,
          -1.57040656e-02, 1.30924797e-02, 1.57377534e-02,
          8.50889180e-03, 9.30743932e-04, -3.20514035e-03,
          -1.13831162e-02, -1.87099632e-02, -1.75117124e-02,
          8.33615020e-04, 1.21998405e-02, -3.19977361e-03,
          -6.54531317e-03, -3.11010564e-03, -2.05375068e-03,
          -6.08483190e-03, -1.30632836e-02, -3.59426602e-03,
          1.20390728e-02, 1.61045585e-02, -4.73955472e-04,
          1.08649442e-03, 2.29491573e-03, 2.36623781e-03, 7.18408090e-04,
          -5.37346164e-03, -6.35736110e-03, 1.72714990e-05,
          6.01655513e-04, 6.35733537e-04, -1.36795151e-03,
          -4.78205923e-03, -3.15222387e-05, 9.04318690e-03,
          -1.63597881e-03, -5.26481122e-03, 7.26363505e-04,
          -5.79389045e-04, 9.70062893e-03, 4.21915064e-03,
          4.01313417e-03, 2.42733327e-03, -9.26368218e-03,
          -1.63754746e-02, -3.03294882e-03, 7.12932029e-04,
          8.84587597e-03, 3.52333556e-03, 3.67199956e-03, 4.63017635e-03,
          8.83207656e-03, -6.48313481e-03, -9.32620559e-03,
          -1.77658978e-03, 2.58896314e-03, 3.50086461e-03,
          1.39727409e-03, 1.73217407e-03, 6.23083534e-03, 4.82016290e-03,
          -3.55080212e-03, -5.59708290e-03, -1.59967202e-03,
          -1.14260463e-03, 1.93521264e-03, 1.45754041e-02,
          6.39159326e-03, 3.83003964e-03, -1.99493580e-03,
          -6.22883253e-03, -1.18128844e-02, -8.37471429e-03,
          -4.44719521e-03, 1.22647956e-02, 1.08282883e-02,
          1.32609706e-03, -1.31394789e-02, -1.63837094e-02,
          -8.39120056e-03, -6.29416574e-03, -8.47170223e-03,
          8.37975414e-04, 1.76136252e-02, 7.38771213e-03,
          -3.76798282e-03, -1.68345533e-02, -1.86268911e-02,
          -1.19886436e-02, 2.76311976e-03, 4.64588124e-03,
          1.17674870e-02, 2.38453932e-02, -5.09556197e-03,
          -1.63004231e-02, -1.09764962e-02, -5.82425855e-03,
          2.28284090e-03, 6.56475406e-03, 1.06461849e-02, 2.85850652e-02,
          1.78248156e-02, -2.22091260e-03, 4.83490207e-04,
          9.43646859e-03, 1.10979294e-02, 7.15634506e-03, 7.87727907e-03,
          6.78102951e-03, -4.57503553e-03, -2.12362059e-03,
          1.65965371e-02, 1.81596987e-02, 1.14923054e-02, 7.37825781e-03,
          5.90845570e-03, -8.56006984e-03, -2.01711040e-02,
          -1.38854468e-02, -4.96652094e-04, 2.19195671e-02,
          1.74836311e-02, 9.41336714e-03, 2.35738466e-03,
          -6.31459290e-03, -1.55330589e-02, -2.09871735e-02,
          -1.44462427e-02, 2.57216045e-03, 1.38898147e-02,
          1.43655774e-03, -6.20331429e-03, -8.91732424e-03,
          -5.79241104e-03, -1.36064515e-02, -1.03163952e-02,
          -7.80143077e-04, 7.94378296e-03, 3.44362599e-03,
          -4.47993446e-03, -7.91625213e-03, -1.40987225e-02,
          -8.99175555e-03, -5.26430691e-03, 1.07421190e-03,
          1.25868246e-02, 2.10578348e-02, 3.56549863e-04,
          -1.52284594e-03, -6.73650298e-03, -2.67913449e-03,
          -5.18848829e-04, -1.43512548e-03, 6.17176481e-03,
          1.64121054e-02, 3.84580391e-03, 6.94908760e-03, 4.88522835e-03,
          -1.39904057e-03, 2.15464388e-03, -5.85042033e-03,
          -5.22737950e-03, -2.61188089e-03, 8.65933578e-03,
          1.11306030e-02, 3.52530065e-03, 2.84800626e-04,
          -3.39199393e-03, 5.33930492e-04, -1.71622669e-03,
          -5.66055533e-03, -3.81367654e-03, 7.32217776e-03,
          1.01763345e-02, 8.25024117e-03, 7.24227494e-03, 1.59183837e-04,
          8.38492997e-03, -7.66763464e-03, -1.03410771e-02,
          -2.45386432e-03, -2.41656159e-03, -1.09286229e-04,
          2.80465756e-04, -3.14110331e-03, 1.29897344e-05,
          8.21584370e-03, -1.20129029e-03, -4.47684550e-04,
          -3.95269878e-03, 2.06156564e-03, -7.46539590e-05,
          -2.29853252e-03, -4.42575850e-03, -8.12924234e-04,
          5.05951839e-03, -1.90287177e-03, -1.95220171e-03,
          3.57713387e-03, 2.93855066e-03, 1.80192044e-04, 4.62372787e-03,
          1.07943674e-03, -2.29614577e-03, 5.98691404e-04,
          -3.50819132e-03, -3.78788589e-03, 5.20885037e-03,
          8.93141422e-03, 8.11310299e-03, 6.02305308e-03,
          -5.74152742e-04, -5.56684658e-03, -4.84609511e-03,
          -1.10841822e-03, -1.80251466e-03, -2.61915941e-03,
          9.70942434e-04, 3.97821469e-03, 1.46421017e-02,
          -5.43669844e-03, -1.63499024e-02, -1.56567115e-02,
          -8.22198950e-03, -2.04694225e-03, 6.90769311e-03,
          1.71557255e-02, 2.77993344e-02, 6.73245126e-03,
          -2.99983076e-03, -6.03883946e-03, -9.33543127e-03,
          -7.07279798e-03, -4.11130302e-03, 3.31056304e-03,
          1.07305711e-02, 2.25205831e-02, -1.57606672e-04,
          -7.55852833e-03, -7.70903612e-03, -3.18484078e-03,
          7.94615410e-03, 4.93082730e-03, -2.51554395e-03,
          5.95549215e-03, 4.50757192e-03, 1.70041658e-02, 7.79092591e-03,
          3.16555216e-03, -8.13725032e-03, -4.85016871e-03,
          -1.21687921e-02, -1.22437216e-02, -9.62264137e-04,
          1.20767485e-02, 2.20546350e-02, 1.65707506e-02, 8.32469575e-03,
          -1.12138838e-02, -1.02622304e-02, -1.50261717e-02,
          -1.18937697e-02, -2.18203710e-03, 2.07470711e-02,
          6.23804331e-03, 8.80569126e-03, 7.61204353e-03,
          -1.10442881e-02, -1.07070468e-02, -1.19054085e-02,
          -3.47324787e-03, 3.57996789e-03, 8.60025734e-03,
          4.49879142e-03, 1.26042012e-02, 5.71168726e-03,
          -4.23326483e-03, -4.43157181e-03, -4.23086388e-03,
          -3.09912837e-03, 3.30735859e-03, 4.17282013e-03,
          4.65846795e-04, 1.04722241e-02, 1.78191031e-03, 2.54273089e-03,
          -2.13706470e-03, -2.14473205e-03, -4.35763155e-04,
          -6.63899933e-04, -2.82941299e-04, 2.70774541e-03,
          5.08586038e-03, -3.93538066e-04, 2.99780775e-04,
          2.81286280e-04, -8.01702403e-03, -1.65824516e-04,
          -9.96948529e-06, 3.18127871e-03, 6.24424662e-04,
          -4.94776992e-04, -1.44228083e-03, -3.24553531e-03,
          -2.44440045e-03, -1.01850918e-02, -9.89853055e-04,
          2.33057700e-03, 5.59066283e-03, -1.26532023e-03,
          -4.72999131e-03, -1.06669997e-03, 3.59947048e-03,
          -1.06112016e-02, 9.00103478e-04, 1.92620733e-03,
          2.96962447e-03, 6.82317000e-03, -9.29894624e-04,
          -3.26504395e-03, -8.53770238e-04, 1.75381813e-03,
          2.36112159e-03, 1.84796739e-03, 3.48595274e-03,
          -5.85402735e-03, -1.38291658e-03, 9.60721343e-04,
          -3.42013547e-03, -1.13687979e-03, -4.43316391e-03,
          1.37028762e-03, -8.54276353e-04, 1.19504402e-03,
          4.08718828e-03, 8.57959688e-03, 1.97768342e-02,
          -6.90220064e-03, -9.81660560e-03, -7.64016947e-03,
          -8.66708905e-03, -8.53700377e-03, -3.41530796e-03,
          6.35224720e-03, 1.39218643e-02, 1.29997972e-02,
          -1.48492763e-02, -1.42050674e-02, -1.58338770e-02,
          -1.12476861e-02, -5.37958276e-03, -4.12212918e-03,
          3.87601438e-04, 1.55274207e-02, 2.88612004e-02,
          -7.79624004e-03, -2.33766716e-02, -2.81361807e-02,
          -2.16360353e-02, -1.31278876e-02, -4.94252797e-03,
          1.64359044e-02, 3.44258584e-02, 2.90544387e-02,
          -3.89424292e-03, -2.71366984e-02, -2.73466818e-02,
          -1.61630027e-02, -1.56674869e-02, -6.62763324e-03,
          1.28971338e-02, 3.39795351e-02, 1.68421213e-02, 2.05520246e-05,
          -2.07947325e-02, -2.23415773e-02, -1.71291325e-02,
          -1.46772088e-02, -1.45928999e-02, 1.38289127e-02,
          1.43840453e-02, 3.59228440e-02, 1.30354306e-02,
          -1.04602166e-02, -2.29479671e-02, -3.05573884e-02,
          -2.59427112e-02, -1.22305108e-02, 9.15594306e-03,
          3.61813419e-02, 3.78910936e-02, 1.58548597e-02,
          -2.68622371e-03, -2.03098413e-02, -2.84530688e-02,
          -2.93850433e-02, -1.97433420e-02, 1.87118386e-03,
          3.16742659e-02, 1.46195656e-02, 4.59796749e-03,
          -6.30529318e-03, -1.38934432e-02, -1.83174741e-02,
          -1.31229684e-02, -1.49593512e-02, -1.53307003e-04,
          1.11764437e-02, 1.21783828e-02, 8.96543544e-03,
          -1.68523972e-03, -2.89475452e-03, -9.16062668e-03,
          -9.71909240e-03, -1.32068349e-02, -8.04087613e-03,
          1.14287985e-02, 4.58318414e-03, 3.37383803e-03, 1.97194936e-03,
          2.14970997e-03, 7.37858878e-04, -4.37577441e-03,
          -6.96824910e-03, -4.01830301e-03, 9.93238529e-04,
          4.14129300e-03, 2.26149918e-03, -2.22284533e-03,
          -5.71704563e-03, 5.23576327e-03, 2.15549790e-03,
          -8.80052175e-05, 9.80957178e-04, 2.36624829e-03,
          6.50340458e-03, 4.27092519e-03, 1.83686300e-03,
          -4.68120212e-03, 7.96001754e-04, -6.53509516e-03,
          -1.66424876e-03, -4.31809295e-03, 2.34810566e-03,
          3.04205134e-03, -4.10354836e-03, -5.23582054e-03,
          -2.63202516e-03, -2.14997493e-03, -5.05195325e-03,
          -2.38572783e-03, 3.17907752e-03, -3.55073996e-03,
          -6.24411274e-04, 1.14030088e-03, -1.04765361e-03,
          6.41378923e-04, 3.18533788e-03, 6.37253746e-03,
          -4.07932326e-03, -9.39684920e-03, -6.25008671e-03,
          1.14752576e-02, 9.77323391e-03, 4.33121575e-03,
          -6.43617287e-03, -1.47830546e-02, -1.47496890e-02,
          -6.26107957e-03, -3.58261541e-03, 7.25154765e-03,
          8.37842189e-03, 1.26517160e-04, 1.34815855e-04,
          -3.87210469e-03, -6.62692171e-03, -8.21219105e-03,
          -7.52765313e-03, -8.24613404e-03, 3.31099378e-03,
          1.02344411e-03, -1.27352076e-03, -2.25817203e-03,
          -3.18222097e-03, -2.38703564e-03, -9.79493372e-04,
          -1.50040188e-03, -4.76436922e-03, 1.02344411e-03,
          1.84066910e-02, -1.12920338e-02, -1.37713831e-02,
          -2.11479682e-02, -1.93345044e-02, -1.62880179e-02,
          -1.86696928e-02, -1.64696481e-02, 1.69844981e-02,
          2.01994516e-02, -1.02962963e-02, -1.46127315e-02,
          -1.63503643e-02, -1.63499005e-02, -1.78992264e-02,
          -2.31466983e-02, -2.31148470e-02, 1.80689115e-02,
          5.34395408e-03, -2.21609697e-02, -1.65896192e-02,
          -1.23785697e-02, -6.18275022e-03, -6.19497197e-03,
          -6.66824635e-03, -5.16749627e-04, 9.60903615e-03,
          1.85383931e-02, -1.02880662e-02, -1.91613697e-02,
          -2.48186942e-02, -2.31125634e-02, -2.20782273e-02,
          -1.24634420e-02, -4.69913380e-03, 1.77855790e-02,
          7.69585278e-03, 8.78467038e-03, -1.25696289e-03,
          -6.81182323e-03, -1.39797386e-02, -1.40094077e-02,
          -1.39856180e-02, -1.16211679e-02, 4.01542522e-03,
          3.86899360e-03, -5.85617917e-03, -4.58897382e-04,
          -5.25246141e-04, -1.02673436e-03, -1.23010110e-03,
          -1.97695289e-03, -3.06926924e-03, 1.61620695e-03,
          3.94903682e-03, -1.25963539e-02, -3.09851929e-03,
          -9.45569854e-03, -8.18981137e-03, -2.52881716e-03,
          -3.63363099e-04, 3.97944794e-04, 9.57861170e-03,
          2.14114832e-03, -4.33401624e-03, -1.19198337e-02,
          -1.12449685e-02, -2.39527947e-03, 3.22915963e-03,
          3.16146715e-03, 6.68342225e-03, 7.81129440e-03,
          -3.69396247e-03, 7.75456079e-04, -1.29570579e-03,
          -1.36622787e-03, 3.56982974e-03, 7.53944134e-03,
          1.16295158e-03, -2.82607484e-03, -3.61664279e-04,
          2.94781104e-03, 7.37327570e-03, -7.14069838e-03,
          -8.64275638e-03, -5.71245328e-03, -7.59771978e-03,
          -7.48706423e-03, -3.78653221e-03, -3.40437470e-03,
          1.88958657e-03, -1.72464861e-04, -2.41303630e-03,
          -2.56563281e-03, 5.89448086e-04, 7.80956214e-03,
          3.33540514e-03, -6.47442276e-03, -1.00666042e-02,
          -8.36996175e-03, -7.94766843e-03, -4.62675421e-03,
          1.50074053e-03, 3.44383297e-03, 8.56931880e-03, 5.64325193e-04,
          3.08558054e-04, -7.63122051e-04, 5.38444519e-03,
          -5.73398953e-04, 1.46302930e-03, 2.83746654e-03,
          -6.69501605e-04, 3.90399178e-03, 2.76473002e-03,
          -1.78466120e-03, -2.35794368e-03, 3.39352572e-03,
          -2.48129293e-03, -9.88648389e-04, 4.04639686e-05,
          -9.90486587e-04, -7.32176355e-04, -4.37440409e-04,
          -1.40477158e-02, 3.39352572e-03, 1.39845733e-03,
          -7.80599611e-03, -2.64449161e-03, -2.13400825e-04,
          -1.55962480e-03, -8.89064569e-04, -1.36409490e-03,
          5.52077079e-04, 1.39845733e-03, 2.01736148e-02,
          -2.76084300e-02, -2.10038554e-02, -1.54259065e-02,
          -1.29767237e-02, -1.55179370e-02, -1.80862639e-02,
          -1.58773661e-02, 1.97171643e-02, 2.60553416e-02,
          -2.17355210e-02, -2.65659969e-02, -2.68667955e-02,
          -2.09388305e-02, -1.91913098e-02, -1.70723386e-02,
          -1.02488901e-02, 2.93051824e-02, 1.88085679e-02,
          -6.98734960e-03, -1.66828185e-02, -1.80262793e-02,
          -1.36472061e-02, -1.96971372e-02, -2.18770094e-02,
          -1.14970347e-02, 1.94717310e-02, 2.22801771e-02,
          -6.82863547e-03, -1.05048902e-02, -1.05690090e-02,
          -1.17938276e-02, -1.60255246e-02, -2.21859310e-02,
          -1.66869387e-02, 1.63510200e-02, 3.66483722e-03,
          -2.32555787e-03, -4.07724036e-03, -1.89382490e-03,
          -1.50825491e-03, -3.56195122e-03, -1.01332478e-02,
          -1.08151080e-03, 3.74677079e-03, 3.63039691e-03,
          -5.09909680e-03, -3.89911979e-03, -1.56042364e-03,
          -8.64045462e-04, -1.58054661e-03, -3.42588429e-03,
          -1.41566806e-03, 3.63039691e-03, 4.12825868e-03,
          -5.47430106e-03, -5.07092685e-04, -1.99460262e-03,
          -3.40641662e-03, -5.33439685e-04, -1.70896039e-03,
          -5.08973328e-03, 4.12825868e-03, -3.22382268e-03,
          -2.61086761e-03, 7.26527255e-03, 7.79240904e-03,
          1.24021480e-03, 1.62956549e-03, 6.52648043e-04,
          -1.14852167e-03, -4.23555076e-03, -1.87488571e-02,
          2.49099801e-03, 3.05600744e-03, 6.03946764e-03, 4.11278335e-03,
          3.04328650e-03, -2.43137381e-03, -3.99201363e-03,
          -9.15835239e-03, -5.38629293e-03, -2.04254384e-03,
          6.49203372e-04, 8.78041424e-03, 4.16878611e-03, 3.90423276e-03,
          1.70770563e-05, -7.67373640e-05, -3.94691154e-03 ]
      - [ -4.29664738e-03, -1.26279402e-03, 1.06052170e-02,
          2.13403832e-02, 1.74970995e-03, -2.60407571e-03,
          -1.49557553e-02, -2.33616531e-02, -1.31008150e-02,
          -1.67872272e-02, -7.22898170e-03, 6.07060362e-03,
          1.27650928e-02, 3.01089883e-03, 9.62996390e-03, 6.98708172e-04,
          -1.82593707e-02, -1.67052411e-02, 4.25494323e-03,
          -2.78185820e-03, -4.19849437e-03, 1.02888024e-03,
          -1.06662624e-02, -2.26550526e-03, -3.52243485e-04,
          4.38407948e-03, 2.27840501e-03, 1.14756674e-02,
          -2.84040384e-02, -3.28074098e-02, -9.32292175e-03,
          -8.53029639e-03, -3.14926007e-03, -5.00568142e-03,
          -5.88245038e-03, 3.23012657e-02, 2.84967176e-03,
          -3.07400431e-02, -1.00796884e-02, -1.59792304e-02,
          -1.14026070e-02, -3.57603026e-03, -1.41115207e-03,
          1.81254018e-02, 2.19995547e-02, 1.91110857e-02,
          -7.17740227e-03, -2.32204068e-02, -2.65343562e-02,
          -2.58372203e-02, -2.39960924e-02, -1.18327551e-02,
          1.14168953e-02, 1.95516758e-02, 2.19712909e-02,
          -1.22732446e-02, -2.02477742e-02, -1.49012264e-02,
          -2.23675966e-02, -2.36920733e-02, -2.40655020e-02,
          -1.37880314e-02, 2.34293118e-02, 4.61845612e-03,
          -1.00874882e-02, -4.92994720e-03, -1.49842841e-03,
          -6.02245855e-04, -1.97586161e-03, -6.55088434e-03,
          -9.85922758e-03, 4.61845612e-03, 2.62117828e-03,
          -3.60419205e-03, -2.74659018e-03, -2.45818985e-03,
          -1.73016021e-03, -2.40097684e-03, -3.88052943e-03,
          -1.22251278e-02, 2.62117828e-03, 4.93608322e-03,
          -2.11968720e-02, -7.14407442e-03, -1.06346863e-03,
          -1.04832707e-03, -3.31342308e-04, -6.27350528e-04,
          -7.06948526e-03, 7.66850868e-03, 5.65221440e-03,
          -3.48892156e-03, -4.72480385e-03, -4.12050588e-03,
          -8.43638647e-03, -4.82552778e-03, -8.85377289e-04,
          -2.88426178e-03, 5.71954111e-03, 2.09671464e-02,
          1.18544474e-02, -1.10453162e-02, -1.75776593e-02,
          -5.81572251e-03, -1.29972091e-02, -1.90909561e-02,
          2.30691209e-03, 2.04850230e-02, 9.45148803e-03, 1.03869271e-02,
          -5.93127124e-03, -8.29042215e-03, -7.46880611e-03,
          -8.37972574e-03, -8.02872051e-03, 1.13966840e-03,
          1.03611061e-02, -5.54139307e-03, 8.59149790e-04,
          -4.04799264e-03, -2.68117618e-03, -5.59964497e-03,
          4.07654326e-03, 1.27080153e-03, 7.31978158e-04,
          -4.26873472e-03, -1.26167536e-02, -8.35052133e-03,
          -3.23854899e-03, 1.05541293e-02, 4.98403748e-03,
          7.83060305e-03, 3.62537010e-03, 2.83841789e-03,
          -1.96633562e-02, 3.92296491e-03, 1.38332918e-02,
          1.43259885e-02, -1.66829897e-03, -1.43616758e-02,
          -2.61407960e-02, -1.99060831e-02, -2.65786741e-02,
          -1.92641828e-03, 3.67705827e-04, -1.08022103e-02,
          -5.99049730e-03, 2.03479524e-03, -1.09318318e-02,
          -8.86055699e-04, 7.41538708e-04, -3.41380044e-04,
          -6.37692516e-04, 1.24723623e-02, -1.64338686e-02,
          -1.86034776e-02, -2.01432016e-02, -2.00958587e-02,
          1.00304075e-02, 1.75106283e-02, 1.68292411e-02, 1.39822876e-02,
          2.51702014e-02, -1.14284996e-02, -2.42202450e-02,
          -2.99754664e-02, -2.74360552e-02, -1.63158663e-02,
          -3.12682916e-03, 2.11074343e-03, 4.47908603e-02,
          1.04969852e-02, -2.66172588e-02, -1.92441158e-02,
          -1.56894885e-02, -8.83787312e-03, -1.02414973e-02,
          -7.92251807e-03, 3.25027993e-03, 1.70333348e-02,
          7.43972929e-03, -9.48866550e-03, -7.52814393e-03,
          -7.15693645e-03, -6.72385981e-03, -9.79273207e-03,
          -9.58521012e-03, -9.84069705e-03, 5.77646028e-03,
          1.53215248e-02, -2.32455805e-02, -1.98984258e-02,
          -1.41731342e-02, -1.40255550e-02, -1.84951611e-02,
          -1.69159379e-02, -9.24644060e-03, 1.84584074e-02,
          1.67002045e-02, -2.02642530e-02, -1.57465953e-02,
          -1.88452937e-02, -1.50967436e-02, -1.65053736e-02,
          -1.64757371e-02, -1.30663440e-02, 1.69913154e-02,
          2.54771672e-02, -1.03551047e-02, -2.41504833e-02,
          -2.43975967e-02, -2.41318885e-02, -2.42346246e-02,
          -2.36223508e-02, -1.54726356e-02, 2.51259841e-02,
          1.57895014e-02, -1.60447992e-02, -2.03210078e-02,
          -1.99518446e-02, -1.32744852e-02, -9.93470289e-03,
          -1.15407249e-02, -8.11032765e-03, 1.69623662e-02,
          1.09484466e-02, 9.61440091e-04, -1.06318770e-02,
          -8.48156493e-03, -7.29292119e-03, -1.12311961e-02,
          -9.81199928e-03, -8.17143079e-03, 9.33808275e-03,
          1.91097576e-02, 7.12205609e-03, -9.30711720e-03,
          -1.54472012e-02, -1.35068670e-02, -1.62151325e-02,
          -1.04150949e-02, 5.81633858e-03, 2.07061004e-02,
          -6.56752323e-04, 1.84777007e-03, 4.31907224e-03,
          -6.86421525e-03, -1.40702762e-02, -1.71880126e-02,
          -8.60829279e-03, 1.05798645e-02, 1.94912404e-02,
          1.15051190e-03, 3.90540832e-03, 3.13588581e-03,
          -3.70761869e-03, -1.57434288e-02, -1.06046135e-02,
          -8.92119948e-03, -5.25386189e-04, 6.34506205e-03,
          -1.01347100e-02, -1.13733094e-02, -8.29324313e-03,
          -2.71832733e-03, -3.25849280e-03, 8.86129274e-04,
          -2.60702072e-04, 9.93849989e-03, 2.83917342e-03,
          -6.66414807e-03, -1.50470086e-03, 8.10832717e-03,
          9.54426173e-03, -1.44146557e-03, -3.21004121e-03,
          2.06859387e-03, -6.45094458e-03, -1.00300219e-02,
          -1.12962928e-02, -1.37326773e-02, -8.39343108e-03,
          -5.61533077e-03, 8.93543940e-03, 1.54389627e-02,
          1.45551953e-02, 1.49475103e-02, 1.22752786e-02,
          -3.65791917e-02, -2.98565943e-02, -1.91603100e-03,
          2.12570652e-02, 2.25263909e-02, 2.24953722e-02, 2.13006753e-02,
          7.88220856e-03, -1.24121783e-03, -1.22228183e-03,
          -5.60802035e-03, 7.41144270e-03, 8.40534456e-03,
          3.53877526e-03, -1.95931992e-03, -3.70982918e-04,
          -1.00792935e-02, -1.15402918e-02, 3.89473420e-03,
          1.01460274e-02, 5.51027572e-03, 7.94694060e-04, 2.84735044e-03,
          -1.15938885e-02, -1.83100849e-02, -1.05402321e-02,
          3.89473420e-03, -7.07461126e-03, -2.19574664e-03,
          4.40304074e-03, 9.96161834e-04, 7.49853579e-03, 8.54202639e-03,
          9.26144235e-03, 1.12829199e-02, -4.22157953e-03,
          4.26047063e-03, 4.57685441e-04, -9.05434601e-03,
          -1.83932409e-02, -9.79378633e-03, -1.42882997e-03,
          -1.91159756e-03, 1.28510343e-02, 1.95875131e-02,
          1.43276714e-02, -3.71944392e-03, -1.30525576e-02,
          -8.56102351e-03, -5.96702704e-03, -7.21941749e-03,
          -1.43608991e-02, -5.57185244e-03, 2.02524085e-02,
          3.53319012e-02, 7.36031495e-03, -1.77656468e-02,
          -2.03215927e-02, -1.18949339e-02, -2.09628884e-02,
          -1.85655281e-02, 4.10574116e-03, 3.57280150e-02,
          2.14079805e-02, 6.89066015e-03, -1.68068111e-02,
          -1.98624469e-02, -1.29100513e-02, -1.13271056e-02,
          -1.12306525e-03, 8.46197549e-03, 2.28288285e-02,
          8.90371576e-03, -1.97229907e-03, -9.09074396e-03,
          -9.50105954e-03, -4.38062561e-04, -1.03164157e-02,
          -8.88910145e-03, 2.06292327e-03, 1.06843850e-02,
          3.42822773e-03, 4.24173195e-03, -6.71260525e-03,
          -1.61503050e-02, -3.36204469e-03, -9.14478907e-04,
          -8.54948070e-04, 4.72391956e-03, 1.61632504e-02,
          -3.31845554e-03, 2.79574282e-03, -6.23026351e-03,
          -4.95046610e-03, 2.05299049e-03, 2.10152823e-03,
          1.51475857e-03, 5.13258995e-03, -2.99183768e-03,
          6.26408448e-03, 7.35766022e-03, -1.92188995e-03,
          -4.75278497e-03, -6.17799070e-03, -3.63856135e-03,
          -4.86788806e-03, 8.76264367e-03, 8.77942238e-03,
          -4.42234660e-03, -4.60729236e-03, -1.80234347e-04,
          2.88949872e-04, -3.96775780e-03, 2.79828114e-03,
          1.37169613e-03, 1.84902526e-03, 1.74948800e-04,
          -2.41093412e-02, -1.95555184e-02, 6.19511306e-03,
          1.69211216e-02, 1.26434946e-02, 1.73042212e-02, 1.82386264e-02,
          1.44874221e-02, -1.37116713e-02, -1.00856498e-02,
          -5.97469928e-03, -7.32876547e-03, -4.04152647e-03,
          -8.84558540e-03, 9.68529657e-03, 1.75428372e-02,
          1.87196303e-02, -3.16551630e-03, -2.54298560e-02,
          -1.65077858e-02, -2.56508915e-03, 5.69790555e-03,
          4.84062359e-03, 9.51569341e-03, 1.10179344e-02, 2.14668573e-03,
          -1.17107294e-02, -1.81087125e-02, -1.11460919e-02,
          -1.37922738e-03, 9.37478896e-03, 1.67530514e-02,
          1.12810824e-02, 1.25223910e-02, -3.52611416e-03,
          -1.53294746e-02, 3.43185058e-03, -1.25976698e-03,
          -8.38589855e-03, -8.63293093e-03, -1.37477368e-03,
          -4.14419966e-03, 3.66139668e-03, 3.43216979e-03,
          9.82978474e-03, -9.35450755e-03, -7.58969109e-04,
          3.12676397e-03, 1.29017828e-03, -5.16638160e-04,
          -6.07691659e-03, -9.92409769e-04, 1.05862436e-03,
          7.66072562e-03, -3.91448708e-03, 9.49964952e-03,
          5.26135974e-03, 2.30391463e-03, 3.70088383e-03,
          -2.11793999e-03, 6.56911591e-03, 1.17393695e-02,
          3.00556654e-03, -1.86502258e-03, -6.22328930e-03,
          -6.14516623e-03, -1.54494355e-03, 9.72080883e-03,
          6.05450012e-04, 3.27714183e-03, 1.52554447e-02,
          -5.49270830e-04, 1.23890666e-02, -2.69561564e-03,
          -6.76901080e-03, -7.66256638e-03, -9.35903750e-03,
          -8.59747920e-03, 7.04270133e-05, 2.13903151e-02,
          2.09134575e-02, 1.23459063e-02, 7.66284857e-03, 8.15989624e-04,
          -1.08610038e-02, -8.22299719e-03, -1.36163821e-02,
          8.82941205e-03, 1.09521821e-02, 1.86013952e-02,
          -2.02457048e-03, 3.46588017e-03, 6.32677739e-03,
          -8.22036248e-03, -3.34036304e-03, -8.21796525e-03,
          -1.07095635e-03, 7.48671358e-03, 3.05391010e-03,
          -1.32091541e-03, 1.03840949e-02, 1.82797648e-02,
          4.62650647e-03, 1.08162116e-03, 3.73958680e-03,
          -1.04638571e-02, -1.10759437e-02, -1.06667215e-02,
          -1.53587721e-02, 1.61296707e-02, 8.35460145e-03,
          1.29672308e-02, 5.92985423e-03, 4.56025312e-03,
          -6.81708474e-03, -4.86027403e-03, -1.66896861e-02,
          -8.20558891e-03, 1.36897564e-02, 6.08936697e-03,
          6.76814513e-03, 1.00036776e-02, -4.16985247e-04,
          3.59199708e-03, -3.67848435e-04, -7.10004335e-03,
          -1.03554176e-02, 6.85327686e-03, 8.45089182e-03,
          1.07898712e-02, 7.36958021e-03, 4.78066737e-03, 4.54338826e-03,
          -1.29735544e-02, -9.25375428e-03, -2.41199732e-02,
          -1.81608107e-02, -1.08541688e-02, 1.01925479e-02,
          1.07226465e-02, 1.84859522e-02, 1.89862456e-02, 1.53757902e-02,
          -3.07341013e-03, -1.98263936e-02, -1.50340341e-03,
          6.41868496e-03, 9.45903361e-03, 1.30445883e-02, 1.71966031e-02,
          1.76382847e-02, 7.84002990e-03, -1.89544763e-02,
          -2.55948752e-02, -1.89382453e-02, -1.04152435e-03,
          2.78414763e-03, 5.99187380e-03, 1.23081123e-02, 1.68994330e-02,
          5.84725896e-03, -1.44490814e-02, -6.95819268e-03,
          -2.83780899e-02, -1.23706032e-02, 1.73223438e-03,
          1.21637639e-02, 1.36262467e-02, 1.61594898e-02, 1.44146169e-02,
          -2.87319743e-03, -8.75279889e-04, -1.20747434e-02,
          -1.40905799e-02, -4.42490773e-03, 2.18772702e-03,
          6.43680524e-03, 5.14649693e-03, 1.13708349e-02, 1.15055796e-02,
          1.39956987e-02, 7.97651894e-03, -2.02703220e-03,
          -9.90686752e-03, -8.82916898e-03, -6.34752121e-03,
          -4.11582412e-03, 7.60886725e-03, 1.34497080e-02,
          1.27577856e-02, 1.50931813e-02, -8.14941153e-03,
          -9.59594082e-03, -7.97061622e-03, -9.70550906e-03,
          -1.97161641e-03, 2.02193465e-02, 1.20467721e-02,
          2.85909232e-06, 8.64912756e-03, -7.95054343e-03,
          -7.17433961e-03, -4.17968398e-03, -1.00747980e-02,
          -4.81668115e-03, 2.09149811e-02, 1.28682284e-03,
          1.75762232e-02, 3.59870517e-03, -8.01040046e-03,
          -7.80605245e-03, -1.70104671e-02, -1.38488943e-02,
          -7.67971063e-03, 1.58256833e-02, 1.81943849e-02,
          2.25247107e-02, 2.37416546e-03, -1.19845588e-02,
          -1.28968582e-02, -1.79555118e-02, -2.00076271e-02,
          -5.48395747e-03, 1.14525538e-02, 2.07146406e-02,
          5.21542551e-03, 2.54307245e-03, -8.37967731e-03,
          -1.02873445e-02, -1.09352106e-02, -1.08175282e-03,
          -1.38283765e-03, -2.24939737e-04, 5.21542551e-03,
          -4.06589918e-03, 1.65427402e-02, 1.58437248e-02,
          1.39896218e-02, 5.86215034e-03, -6.59145461e-03,
          -1.23544047e-02, -1.80089623e-02, -8.33933894e-03,
          -2.02005543e-02, 2.40122993e-02, 1.69977061e-02,
          1.73449535e-02, 1.46460710e-02, 7.85268378e-03,
          -2.46071187e-03, -1.61335559e-03, -2.49977633e-02,
          -5.78879192e-03, 1.52324578e-02, 1.18776392e-02,
          6.47684792e-03, 1.16425138e-02, 6.25128113e-03, 3.30143212e-03,
          8.27383995e-03, -9.08225961e-03, -1.62958622e-03,
          8.15607887e-03, 8.21931660e-03, 7.27652386e-03, 6.95104524e-03,
          3.01329582e-03, -8.19584634e-03, -1.30544659e-02,
          -7.32752774e-03, -2.00653169e-02, -6.42262120e-03,
          -6.31193398e-03, 2.62586959e-03, 9.08805430e-03,
          1.56326406e-03, 7.42212497e-03, 4.49082488e-03,
          -5.04844403e-03, -2.11415868e-02, 3.34638613e-03,
          1.10561131e-02, 1.56693980e-02, 1.63226556e-02, 9.33821872e-03,
          1.15459515e-02, 1.50197009e-02, -1.94613785e-02,
          -8.45090859e-03, 3.41521646e-03, 4.98494785e-03,
          -8.61484499e-04, -2.26273318e-03, 4.30609984e-03,
          1.02078579e-02, 2.02079415e-02, 8.78791325e-03, 4.72944789e-03,
          -1.20404800e-02, -1.54511090e-02, -1.50870513e-02,
          -5.44401910e-03, 1.58384826e-03, 2.14206614e-03,
          1.81385633e-02, 1.59991458e-02, 9.03333910e-03,
          -7.62185315e-03, -1.36668943e-02, -1.37323048e-02,
          -4.72892402e-03, -6.59639854e-03, -4.78241174e-03,
          -2.94838869e-03, 9.03333910e-03, 2.00284570e-02,
          -3.87421838e-04, -3.14794807e-03, -1.26678916e-02,
          -1.45567702e-02, -1.45822745e-02, -1.45686520e-02,
          -7.63986446e-03, 1.54990861e-02, 1.57539472e-02,
          4.15931270e-03, -4.50632581e-03, -7.46669946e-03,
          -8.33900739e-03, -1.05885481e-02, -1.50649864e-02,
          -8.16562586e-03, 6.42751763e-03, 1.33653125e-03,
          -1.18078878e-02, -6.58792211e-03, -4.36858227e-03,
          -2.57196929e-03, -2.65675504e-03, -4.38578334e-03,
          7.59482896e-03, 2.40033399e-03, 1.02094961e-02,
          -4.86923195e-03, -1.34858424e-02, -1.42832734e-02,
          -1.44504160e-02, -1.43217510e-02, -7.45383650e-03,
          -3.84498551e-03, 1.25666698e-02, 3.51561885e-03,
          -4.98621818e-03, -8.58780090e-03, -5.39816776e-03,
          -9.14066657e-03, -1.14409188e-02, -7.12060509e-03,
          -2.86350562e-03, 3.51561885e-03, 3.17348773e-03,
          -2.31562345e-03, -2.85348855e-03, -8.94963916e-04,
          -8.07634555e-04, -1.90453348e-03, -4.16423287e-03,
          -7.66653055e-03, 3.17348773e-03, 6.66024920e-04,
          -4.14271932e-03, 9.74879309e-04, -3.87716247e-03,
          -4.10701428e-03, -4.10850113e-03, -5.73217543e-03,
          -4.96544503e-03, 5.43593755e-03, -7.96370767e-03,
          3.45216040e-03, -1.87308481e-03, 6.11100346e-04,
          3.93120991e-03, 9.60496720e-03, 1.42919514e-02, 1.48592042e-02,
          -1.34339118e-02, -1.15219085e-02, 1.95874292e-02,
          2.49585346e-03, 5.59770875e-03, 1.14486623e-03, 1.09499879e-02,
          8.55345372e-03, 6.81855017e-03, -1.60076395e-02,
          1.99427828e-03, 5.71353501e-03, -3.64162988e-04,
          -7.32150860e-04, -7.02890474e-03, -7.97120761e-03,
          -9.20317508e-03, -7.53283780e-03, -1.39285224e-02,
          -3.21045816e-02, -8.49116780e-03, -4.87971725e-03,
          1.40202967e-02, 1.54541489e-02, 2.11057868e-02, 2.52317972e-02,
          -6.03342382e-03, -2.26493422e-02, -4.02969085e-02,
          -1.84837319e-02, 8.80460441e-03, 1.73554234e-02,
          1.80055499e-02, 2.03509349e-02, 2.64763813e-02, 1.29003357e-02,
          -2.47457586e-02, -5.65652270e-03, -1.41986692e-02,
          -6.97607268e-03, 1.52827927e-03, -5.69287548e-03,
          8.01912509e-03, 1.59969404e-02, 1.86063256e-02,
          -1.14139635e-03, 1.17097422e-02, -1.55018428e-02,
          -1.58897527e-02, -5.12924558e-03, -1.45721240e-02,
          -1.44040631e-02, -1.15239127e-02, -3.90887447e-03,
          1.17097422e-02, 9.67652630e-03, -7.64660165e-03,
          -1.61521919e-02, -5.65850455e-03, -1.27916839e-02,
          -1.55519759e-02, -1.75519120e-02, 1.86187553e-03,
          9.67652630e-03, 1.18368659e-02, -1.33593315e-02,
          -7.32263085e-03, -7.30840303e-03, -1.49854459e-02,
          -1.02084801e-02, -1.70954913e-02, -1.31476102e-02,
          9.99099109e-03, 1.29053984e-02, -3.19903879e-03,
          -2.82141287e-03, -3.50743136e-03, -6.85861567e-03,
          -7.50334002e-03, -1.05895428e-02, -2.08532382e-02,
          4.23655566e-03, 1.23738889e-02, 2.83114356e-03,
          -2.13761046e-03, -8.69181845e-03, -1.62518714e-02,
          -2.00993400e-02, -1.97966527e-02, -1.41088357e-02,
          1.23738889e-02, 2.70734914e-02, -5.29290084e-03,
          -1.48596363e-02, -2.27388516e-02, -2.40660459e-02,
          -2.58352477e-02, -2.48144884e-02, -1.45693477e-02,
          2.29892004e-02, 1.93314962e-02, -1.44277811e-02,
          -1.65355355e-02, -1.18933003e-02, -1.18773608e-02,
          -1.28878085e-02, -1.73254292e-02, 5.13255596e-04,
          1.31133040e-02, 8.56096577e-03, -5.71428519e-03,
          -7.61580747e-03, -5.90606453e-03, -7.68951606e-03,
          -4.17150976e-03, -8.08020588e-03, -1.13706952e-02,
          9.61332116e-03, 1.30125955e-02, -1.05578704e-02,
          -1.46076111e-02, -1.34921465e-02, -1.20109553e-02,
          -1.10836690e-02, -1.04357488e-02, -1.36656803e-03,
          1.67060737e-02, -1.96731836e-03, 6.27327317e-05,
          3.92586226e-03, -5.53598162e-03, -7.19047990e-03,
          7.41941738e-04, 7.61061208e-03, 2.96773668e-03,
          -1.78869421e-04, -2.49987617e-02, 7.05951406e-03,
          1.02077210e-02, 7.28429575e-03, 8.49319063e-03, 8.20535515e-03,
          4.04718332e-03, -5.54417493e-03, -2.77710557e-02,
          -5.84612088e-03, -3.05916602e-03, 1.14468755e-02,
          9.06797498e-03, 1.59805771e-02, 6.20280672e-03, 5.91651304e-04,
          -1.72722014e-03, -2.03575585e-02 ]
      - [ -2.25906051e-03, -2.55786651e-03, 7.19460752e-03,
          1.52193345e-02, 1.41093349e-02, -3.03406472e-04,
          -1.65934879e-02, -1.81478560e-02, -1.26697263e-02,
          -2.72708721e-02, 4.50803246e-03, 1.80771574e-02,
          2.05518696e-02, 1.90536343e-02, 1.74484849e-02, 9.56600066e-03,
          -8.08343291e-03, -3.12535837e-02, -1.35713760e-02,
          9.71477572e-03, 1.36842458e-02, 1.15408581e-02, 7.92369805e-03,
          1.16936173e-02, 1.26775280e-02, 8.49056896e-03,
          -1.35713760e-02, 3.70564731e-03, -1.09534580e-02,
          -1.27210701e-03, 7.51920394e-04, 7.73273117e-04,
          1.18273112e-03, 1.70682702e-04, -3.65111674e-03,
          3.70564731e-03, 4.31737490e-03, -5.48389461e-03,
          -3.08247819e-03, -1.09672931e-03, -1.23804653e-04,
          -2.08371156e-03, -3.58729949e-03, -7.68471975e-03,
          4.31737490e-03, 7.05138594e-03, -1.33878468e-02,
          -6.26977207e-03, -3.53515963e-03, -2.20548618e-03,
          -3.67043423e-03, -4.09528334e-03, -1.00681102e-02,
          7.05138594e-03, 1.97562184e-02, -1.05656786e-02,
          -1.56357978e-02, -1.85980089e-02, -1.31560871e-02,
          -1.90653708e-02, -1.79094914e-02, -1.12949917e-02,
          2.66694780e-02, 3.33205126e-02, -4.34025377e-03,
          -1.93242338e-02, -2.11508851e-02, -2.28156187e-02,
          -2.36925669e-02, -1.94453169e-02, 5.57678100e-03,
          3.44084091e-02, 2.62349509e-02, -9.74397268e-03,
          -1.55542800e-02, -1.96031444e-02, -2.08665822e-02,
          -2.06577908e-02, -1.90238543e-02, -8.91024247e-03,
          2.20542271e-02, 1.55707821e-02, -1.14601525e-02,
          -1.32802995e-02, -1.40931560e-02, -1.71120800e-02,
          -1.67789832e-02, -1.11980811e-02, -1.38897414e-03,
          1.62705518e-02, 5.32718049e-03, -6.12077629e-03,
          -3.79962521e-03, -5.29447943e-03, -1.13828946e-02,
          -7.19935633e-03, -2.12547509e-03, 9.55752694e-05,
          6.64367853e-03, 1.55189456e-02, 4.25025541e-03,
          -1.37408031e-02, -2.01510713e-02, -1.54177239e-02,
          -1.73708238e-02, -6.80762483e-03, 1.30437799e-02,
          1.87692735e-02, 1.72892679e-02, -3.72515933e-04,
          -1.42666511e-02, -1.43304076e-02, -1.19246636e-02,
          -1.07427044e-02, -1.02506706e-03, 1.73998252e-02,
          2.24659741e-02, -1.19490372e-02, -1.06927147e-02,
          -5.90233272e-03, -2.97141797e-03, 4.87725949e-03,
          1.15005653e-02, 4.67427354e-03, 3.28399637e-03,
          -5.67327952e-03, -1.48419533e-02, -1.52706401e-02,
          -1.27665438e-02, -1.78503920e-03, 7.56772654e-03,
          1.16482433e-02, 7.10548321e-03, 3.95043055e-03,
          -9.66791715e-03, 1.50164859e-02, 9.85373557e-03,
          4.77245823e-03, -7.51662860e-03, -1.00971516e-02,
          -1.54331848e-02, -1.82890594e-02, -1.81177501e-02,
          2.74012750e-03, 8.81131797e-04, -6.98195724e-03,
          -7.59660779e-03, 1.78384862e-03, 1.22396171e-03,
          2.77347304e-03, 2.56101997e-03, 9.22581239e-04, 8.66641174e-04,
          5.02318190e-03, -2.39490555e-03, -9.61522479e-03,
          -1.26545951e-02, -9.27888975e-03, -2.24691676e-03,
          3.92874610e-03, 8.67380947e-03, 4.15877393e-03, 1.34702688e-02,
          -1.57067797e-03, -1.52143361e-02, -1.90444775e-02,
          -1.78675521e-02, -1.37522807e-02, -1.23122782e-02,
          -1.11772376e-03, 1.92455463e-02, 1.62553396e-02,
          -1.48632722e-02, -1.77198518e-02, -1.33591481e-02,
          -1.11279963e-02, -9.69488919e-03, -1.40308272e-02,
          -1.04086474e-02, 1.49262361e-02, 1.62002370e-02,
          -1.11539988e-02, -1.38699366e-02, -1.14018023e-02,
          -9.59671009e-03, -1.31391818e-02, -1.46846445e-02,
          -1.74907856e-02, 1.55174062e-02, 2.76527163e-02,
          -1.62105933e-02, -1.82214715e-02, -1.77703258e-02,
          -1.83541570e-02, -2.12251153e-02, -1.84024312e-02,
          -4.69916966e-03, 2.88847089e-02, 3.36410739e-02,
          -9.41120647e-03, -1.83075462e-02, -2.23914701e-02,
          -2.42551416e-02, -2.22772788e-02, -1.58941280e-02,
          -3.11748032e-03, 3.58501077e-02, 2.80503016e-02,
          -1.69549473e-02, -1.89031716e-02, -1.82985701e-02,
          -2.27482487e-02, -1.89365614e-02, -1.43186199e-02,
          -6.66184444e-03, 3.01729385e-02, 1.97957605e-02,
          -7.31351180e-03, -1.69554260e-02, -1.17136529e-02,
          -1.81390997e-02, -1.88610610e-02, -1.57196149e-02,
          -1.25615448e-02, 1.64270774e-02, 1.46764712e-02,
          2.82479753e-03, -1.46214757e-02, -1.01656290e-02,
          -1.52401431e-02, -1.58150569e-02, -1.46408044e-02,
          -1.11355809e-02, 1.25995409e-02, 1.67451650e-02,
          -1.23486584e-02, -1.92442127e-02, -2.18408555e-02,
          -2.05587801e-02, -1.72377136e-02, -6.01082854e-03,
          1.85954422e-02, 2.54905857e-02, 1.36508206e-02,
          -7.71209784e-03, -6.80857850e-03, -1.04835704e-02,
          -1.10047190e-02, -9.94124450e-03, -4.95621329e-03,
          1.67287979e-02, 2.48120185e-02, 2.95059569e-03, 9.59092344e-04,
          -1.61276234e-03, -2.54800357e-03, -1.90147222e-03,
          2.02299142e-03, -1.05336607e-02, -5.20177651e-03,
          6.21264568e-03, 3.38383624e-03, -1.50661347e-02,
          -1.39703546e-02, -8.54876917e-03, -1.05786184e-02,
          -7.53121125e-03, -6.36928598e-04, 1.22347018e-02,
          1.43108731e-02, 6.81868102e-03, 3.62695823e-03, 2.90182023e-03,
          3.34083429e-03, -4.50461358e-03, -7.90729094e-03,
          -2.73935893e-03, -4.95076459e-03, 4.24156664e-03,
          6.81820151e-04, -1.94012315e-03, 3.23397154e-03,
          4.28365311e-03, 2.69459421e-03, 1.14500534e-03,
          -1.79518142e-03, -2.35279113e-05, 1.23633875e-03,
          -4.78177611e-03, -6.27399376e-03, 2.42465036e-03,
          1.97266624e-03, 2.51664175e-03, 1.54915254e-03,
          -1.88950018e-03, -3.53182293e-03, 2.79525615e-04,
          1.67154539e-02, 5.89392474e-03, -2.50769284e-04,
          -1.25728315e-03, 8.50965007e-05, -6.35773363e-03,
          -1.15285479e-02, -8.48359335e-03, 9.00446251e-03,
          1.49164852e-02, 2.53936299e-03, -6.10593241e-03,
          -8.46781861e-03, -3.97319905e-03, -4.07813862e-03,
          -1.08349910e-02, -6.75087003e-03, 1.61767304e-02,
          1.05846850e-02, -6.20821724e-04, -2.55952915e-03,
          -5.40752197e-03, -3.41794221e-03, -4.99669323e-03,
          -7.20432587e-03, -3.28283967e-03, 1.09931547e-02,
          1.80357266e-02, 6.41262718e-03, -9.37110931e-03,
          -1.58911329e-02, -1.27711929e-02, -1.27707031e-02,
          -9.27570648e-03, 1.12674953e-02, 2.33215056e-02,
          2.70265210e-02, 5.80377597e-03, -7.36462930e-03,
          -1.53193409e-02, -1.76845044e-02, -1.58783011e-02,
          -6.96988311e-03, 7.58765871e-03, 2.72152256e-02,
          1.81316901e-02, -2.76490860e-03, -1.02778506e-02,
          -1.48485983e-02, -1.02699529e-02, -1.20536843e-02,
          -5.60775772e-03, -1.66384489e-05, 1.55767296e-02,
          5.72863128e-03, -3.76791158e-03, -8.04940239e-03,
          -8.52745585e-03, -9.94120724e-03, -3.88220162e-03,
          -7.16035138e-04, 2.94847274e-03, 7.74287153e-03,
          6.04476780e-03, -5.77000668e-03, -1.05097471e-02,
          -2.12488160e-03, -3.73549503e-03, -4.31875372e-03,
          -1.89751934e-03, 6.09996845e-04, 1.15912249e-02,
          6.35301927e-03, -5.69691788e-03, -1.15551809e-02,
          -1.15682101e-02, -3.84618691e-03, -3.60570895e-03,
          -5.34806692e-04, 1.69486497e-02, 1.94504485e-02,
          2.53734831e-03, -5.77317039e-03, -5.36434399e-03,
          -9.93008027e-04, 1.71831925e-03, 1.25313958e-03,
          1.94030523e-03, 4.64333832e-04, 4.02534520e-03, 1.14802469e-03,
          1.16492520e-04, -1.17568248e-04, 4.63626906e-03,
          -8.03786330e-04, 3.78482090e-03, -3.20888776e-03,
          -7.67099264e-04, 7.91828788e-04, 3.57432896e-03,
          -3.27360164e-03, -3.92155722e-03, -2.63274158e-03,
          -4.38472547e-04, 8.52974830e-04, -6.70566515e-04,
          7.34314136e-03, 8.52023531e-03, 1.76237198e-03, 2.02209875e-03,
          -1.40906777e-04, 1.14492083e-03, -4.59980592e-03,
          -5.53653250e-03, -1.15665421e-03, 1.75335526e-03,
          4.90989257e-03, 1.72932155e-03, -7.17746385e-04,
          1.05098682e-03, 1.88571890e-03, -9.67089203e-04,
          -8.82397289e-04, -1.69403350e-03, -6.14574645e-04,
          1.95659092e-03, -1.73548516e-03, -2.48841569e-03,
          1.66767649e-03, 2.14121048e-03, 9.59418598e-04,
          -1.53800682e-03, -1.43977662e-03, -2.74093659e-03,
          -2.39146966e-03, 6.75909221e-03, 5.49884839e-03,
          -4.89284424e-03, -7.38350151e-04, 6.35396398e-04,
          -1.59031665e-03, -1.24081282e-03, -1.12685270e-03,
          8.40768125e-03, 8.96849763e-03, -4.51238872e-03,
          -8.67047161e-03, -6.54620305e-03, 6.29891735e-03,
          -1.57828443e-03, -2.71900295e-04, 1.13312772e-03,
          1.03344852e-02, 1.35751453e-03, -6.93089841e-03,
          -6.63526356e-03, -3.48568661e-03, 5.15550142e-03,
          2.19534826e-03, -1.44843027e-04, 4.25058475e-04,
          7.58360093e-03, 1.38985524e-02, 6.71540294e-03,
          -6.15024474e-03, -7.63481623e-03, -2.84296018e-03,
          -1.04499655e-02, -1.04019931e-03, 7.19049480e-03,
          1.78865623e-02, 1.80294123e-02, 1.19653670e-02,
          -8.98312835e-04, -1.15578733e-02, -8.78865831e-03,
          -1.33470967e-02, -7.30631547e-03, 1.54301059e-02,
          1.56588666e-02, 9.62959882e-03, 2.60690995e-03, 1.67848158e-03,
          -3.48092942e-03, -6.57615950e-03, -9.50959139e-03,
          -4.51589376e-03, 2.77782092e-03, 5.02269669e-03,
          -4.48652863e-04, 8.73628655e-04, 9.80406185e-04,
          -1.93856726e-03, -3.32568865e-03, -1.08813343e-03,
          1.86891225e-03, -2.66068126e-03, -6.38360143e-05,
          3.06558322e-05, -1.28808327e-03, 3.05800786e-04,
          -3.81353893e-03, -2.05615908e-03, -4.47714655e-03,
          2.63335253e-03, 3.26754595e-03, 1.79292308e-03, 6.94964780e-03,
          6.98808115e-03, -2.39146408e-04, -2.24640500e-03,
          -2.01489660e-03, -2.93817162e-03, -2.23050150e-03,
          5.20558003e-03, 6.12667529e-03, 2.05232118e-05,
          -1.55507191e-03, -5.71633165e-04, 2.60296674e-03,
          -1.14473782e-03, 1.38082731e-04, -6.49165362e-04,
          1.25632505e-03, -1.98969083e-05, -1.69678323e-03,
          -2.44010851e-04, -1.17792668e-04, 3.34240892e-03,
          4.20804601e-03, -2.31277361e-03, -1.72980872e-04,
          -2.31953803e-03, -1.91946269e-03, 6.20431034e-03,
          5.71506610e-03, -1.56869984e-03, -1.53314776e-03,
          -4.30638343e-03, -7.20429281e-03, -3.34898010e-03,
          -2.94353755e-04, 5.11589274e-03, 2.94638285e-03,
          -3.15516652e-03, -2.04934180e-03, -3.06265871e-03,
          -7.70884380e-03, -1.48200209e-03, 1.70121691e-03,
          9.24694818e-03, 1.03547564e-02, 1.28162478e-03,
          -9.92190209e-04, -3.91418999e-03, -8.31322046e-04,
          -1.18239992e-03, 3.69069050e-03, 2.15951400e-03,
          9.08115064e-04, 9.97834373e-04, -4.53703484e-04,
          -7.16747763e-03, -5.57030737e-03, -2.19892128e-03,
          1.56333577e-03, 1.83445576e-03, 3.80439078e-03, 3.68601322e-04,
          5.51970489e-03, 1.81094613e-02, -1.26844998e-02,
          -1.92279145e-02, -1.30819585e-02, -3.64394137e-03,
          -3.23557458e-03, -1.45014914e-04, 1.26887104e-02,
          2.02483498e-02, 2.22673714e-02, -1.10647595e-02,
          -1.26692634e-02, -1.64983794e-02, -1.14503046e-02,
          -5.38101653e-03, -1.01504074e-02, 4.44547366e-03,
          2.22249534e-02, 1.56464577e-02, -7.51677714e-03,
          -1.06927147e-02, -1.44311553e-02, -9.98699199e-03,
          -3.92519357e-03, -8.86505470e-03, -1.24495872e-03,
          1.25177810e-02, 2.76912879e-02, 3.78335500e-03,
          -1.19372997e-02, -1.86950900e-02, -1.57813020e-02,
          -1.93638895e-02, -1.11181084e-02, 5.34430752e-03,
          2.72721518e-02, 2.25207675e-02, 1.50707448e-02,
          -1.13665257e-02, -1.72604602e-02, -1.98751800e-02,
          -2.14829911e-02, -1.35915196e-02, 1.05019500e-02,
          1.55478977e-02, 8.04295763e-03, 7.64404889e-03,
          -4.15362231e-03, -7.73894833e-03, -1.55374827e-02,
          -1.16881272e-02, -7.70736951e-03, -5.52095880e-04,
          7.30151124e-03, 5.21555450e-03, 3.22950364e-04, 1.96653578e-04,
          -1.75688043e-03, -4.67504980e-03, -1.17630074e-02,
          -8.15439969e-03, -1.50698854e-03, 5.21555450e-03,
          4.14148485e-03, -2.45461101e-03, -2.91466131e-03,
          -4.60722996e-03, -6.88622985e-03, -1.15195056e-03,
          -1.33422075e-03, 5.73723810e-04, 4.14994173e-03,
          1.19788097e-02, 8.80924147e-03, -5.25994576e-04,
          -4.88218357e-05, -2.61848024e-03, -1.44682126e-02,
          -1.25384685e-02, -2.67049088e-03, 9.41358600e-03,
          2.81934231e-03, 3.59397428e-03, 2.26539653e-03, 2.44846777e-03,
          1.39828096e-03, -4.23918571e-03, -1.01912376e-02,
          -2.39464547e-03, 5.74637030e-04, 8.29795608e-04,
          1.17505202e-03, 1.13633454e-04, -4.18362819e-04,
          2.34962022e-03, 1.36381146e-04, -1.70792849e-03,
          -3.98535543e-04, 4.70099883e-04, 8.84470157e-03,
          5.80096198e-03, -1.19197113e-03, -4.37662238e-03,
          -9.34168464e-04, -4.57875617e-03, -2.78630969e-03,
          -2.51622288e-03, 6.08339719e-03, 2.54072552e-03,
          -1.12245250e-02, -1.86141245e-02, -1.57410689e-02,
          -1.05884857e-02, -1.10965874e-02, 3.51474900e-03,
          1.58979800e-02, 1.97016615e-02, 5.76416682e-03, 1.97768956e-03,
          -4.44512861e-03, -2.49851495e-03, -1.95357949e-03,
          -4.94346488e-03, -7.16256211e-03, 5.43815200e-04,
          5.31727215e-03, 2.05694009e-02, 5.42515330e-03,
          -7.92099163e-03, -1.11579476e-02, -1.27966227e-02,
          -1.32954577e-02, -1.08816661e-02, 9.78132710e-03,
          2.44226083e-02, 2.95826681e-02, -1.72446971e-03,
          -1.67321395e-02, -1.67162772e-02, -1.70290824e-02,
          -1.83941443e-02, -1.82945002e-02, -7.33773550e-03,
          1.93980839e-02, 2.06048898e-02, 4.62731929e-04,
          -1.21838162e-02, -4.71534487e-03, -8.21289234e-03,
          -8.10612831e-03, -1.90057885e-02, -2.36941855e-02,
          9.41014662e-03, 1.14140892e-02, -1.97376572e-02,
          -1.23101342e-02, -7.80719519e-03, -6.72642700e-03,
          -5.58125321e-03, -8.73424020e-03, -8.82980134e-03,
          8.80901236e-03, 1.80152636e-02, -1.47694955e-02,
          -1.65473297e-02, -1.77875608e-02, -1.95366368e-02,
          -1.85380429e-02, -1.30527094e-02, -6.78561162e-03,
          1.89194214e-02, 4.12026001e-03, -1.38492405e-03,
          -2.06886418e-03, -1.76889857e-03, -6.86633121e-03,
          -9.18605272e-03, -8.28944892e-03, -5.44150220e-03,
          2.80402042e-03, -9.21505678e-04, 3.80764273e-03,
          3.76592070e-04, -2.42939801e-04, -9.06328729e-04,
          -6.23748812e-04, -8.37075931e-04, 4.27170817e-05,
          -9.21505678e-04, -3.06824083e-03, 1.72927498e-03,
          -1.69883224e-05, 1.75493740e-04, -3.63805666e-05,
          -5.19872352e-04, -2.91825185e-04, 1.09136067e-02,
          -3.06824083e-03, -1.64404837e-03, 1.03616505e-03,
          -5.13951876e-04, -3.81012942e-04, -9.48219822e-05,
          5.81091126e-06, -6.81159494e-04, 8.06796458e-03,
          -1.64404837e-03, 3.80163454e-03, -4.57469234e-03,
          -8.89097154e-03, -1.32167516e-02, -6.19601971e-03,
          -2.38491106e-04, -2.71727477e-04, 5.19011694e-04,
          6.85817609e-03, 2.58681714e-03, -3.54742841e-03,
          -1.02127912e-02, -7.72086810e-03, -2.39299890e-03,
          1.88527047e-03, 2.86350772e-03, 3.70662170e-03, 2.69082398e-03,
          -3.74539336e-03, -3.87663185e-03, -5.32149943e-03,
          -2.66673556e-03, 2.51772790e-03, 7.15086656e-03,
          4.87472536e-03, 4.72033024e-03, -2.74160434e-03,
          5.05519425e-03, 6.64816750e-03, -4.29636473e-03,
          -8.17610323e-03, -1.03199715e-02, -1.17136985e-02,
          -7.55895069e-03, -2.42453767e-03, 3.62085365e-03,
          -3.06744641e-03, -8.70101992e-03, -1.08714849e-02,
          -6.69331709e-03, 1.27564860e-03, 5.99813182e-03,
          4.84030508e-03, 2.45707599e-03, -3.69658764e-03,
          -1.87837649e-02, -1.45882033e-02, -4.82644094e-03,
          4.21965169e-03, 1.80770492e-03, 6.72595669e-03, 5.95048955e-03,
          4.79624141e-03, -5.78704895e-03, 1.29967462e-02,
          -1.09889312e-02, -1.36663532e-02, -1.50976945e-02,
          -1.38099361e-02, -1.12858145e-02, 5.16264583e-04,
          1.99016798e-02, 2.38432102e-02, 2.46103536e-02,
          -1.37294792e-02, -2.16939393e-02, -2.19048280e-02,
          -1.71233919e-02, -1.33164236e-02, -7.15060811e-03,
          -4.65565966e-03, 2.30064839e-02, 7.05585442e-03,
          -5.02790418e-03, -4.61136922e-03, -3.95369437e-03,
          -2.72086798e-03, -7.71455839e-03, -7.63425045e-03,
          -1.20381592e-02, 6.35809964e-03, 1.79684795e-02,
          -1.03581254e-03, -3.54712247e-03, -1.01478957e-02,
          -1.47417765e-02, -2.10223552e-02, -2.16653571e-02,
          -1.30511373e-02, 1.56110004e-02, 2.11994201e-02,
          -9.14824195e-03, -1.19800922e-02, -1.43387346e-02,
          -1.22557040e-02, -1.93926822e-02, -1.82432421e-02,
          -1.40137626e-02, 1.61644258e-02, 2.08131527e-03,
          -3.22477514e-04, -5.33649465e-03, -1.54249382e-03,
          -4.47254657e-04, -3.33114318e-03, -2.84510921e-03,
          -9.57465358e-03, 2.08131527e-03, -1.44770939e-03,
          3.21346801e-03, 1.19421852e-03, 2.14895554e-04, 5.68509742e-04,
          -1.95351196e-04, -6.74123221e-05, 3.81940859e-03,
          -1.44770939e-03, -3.84151936e-03, 6.03486924e-03,
          3.01704684e-04, 1.46297723e-04, 3.45351844e-04,
          -6.09260052e-04, 5.49246150e-04, 1.44265313e-02,
          -3.80389020e-03, -2.12654774e-03, 7.04875821e-03,
          1.39291922e-03, 3.76774296e-05, 1.89337632e-04, 4.20386386e-05,
          1.06653455e-03, 6.09502150e-03, -2.12654774e-03,
          -8.83595145e-04, 2.51265778e-03, -1.31381152e-04,
          -8.84320121e-04, 7.57408619e-04, 6.03899025e-05,
          -1.36218837e-03, 3.11544444e-03, -8.83595145e-04,
          -1.36399863e-03, -8.56886501e-04, 2.45480100e-03,
          -2.66810566e-05, -1.62674102e-03, -1.67386793e-03,
          1.50485127e-03, 2.02354859e-03, -1.50586397e-03,
          -1.30657032e-02, 1.38433388e-04, 1.32339972e-03,
          -2.61757668e-04, 1.85859646e-03, 6.65082550e-03,
          4.61690547e-03, 7.91787636e-04, -4.94138571e-03,
          -4.81180847e-03, -3.95709742e-03, -1.69757986e-03,
          7.54247420e-03, 1.23197576e-02, 5.99045260e-03,
          -7.03404308e-04, 3.52535746e-04, -3.48292990e-03 ]
      - [ -3.64612415e-03, -7.89168815e-04, 6.92054676e-03,
          1.05040735e-02, 1.08346040e-03, -6.98310556e-04,
          -1.45903658e-02, -9.43460315e-03, -9.69822798e-03,
          -1.45714469e-02, -1.88102992e-03, 9.72622726e-03,
          1.26350857e-02, -1.61496538e-03, 7.58174155e-03,
          -3.10210697e-03, -1.21095534e-02, -1.74897686e-02,
          -1.91918435e-03, 2.79080844e-03, 1.85636489e-03,
          -2.26700492e-03, -4.45662951e-03, 2.55202712e-03,
          -5.11203078e-04, 7.39838288e-04, 1.48892216e-03,
          9.38721560e-03, -2.38203257e-02, -2.40722671e-02,
          -1.14691844e-02, -6.28335914e-03, -6.81987358e-03,
          -5.17152529e-03, -1.57652888e-03, 2.50000805e-02,
          5.59013337e-03, -2.52847616e-02, -1.38002587e-02,
          -1.42299803e-02, -8.74074921e-03, -1.82569248e-03,
          -6.79563698e-07, 1.06483260e-02, 1.81840118e-02,
          1.38032250e-02, -1.04966853e-02, -1.68541577e-02,
          -1.73512232e-02, -1.62407123e-02, -1.67098250e-02,
          -9.17939469e-03, 6.29410986e-03, 1.43229403e-02,
          1.62516236e-02, -1.51299024e-02, -1.89269669e-02,
          -1.50795542e-02, -8.77222791e-03, -1.63104758e-02,
          -1.67204235e-02, -6.91600470e-03, 2.40362342e-02,
          8.44481681e-03, -1.68422330e-02, -6.76527806e-03,
          -9.34212189e-03, -2.35577440e-03, -3.01381457e-03,
          -5.51511394e-03, -3.37966857e-03, 1.18995262e-02,
          4.62516444e-03, -7.65690533e-03, -3.65001126e-03,
          -2.91403080e-03, -1.56563544e-03, -1.14820187e-03,
          -3.52710159e-03, -1.11341486e-02, 4.62516444e-03,
          2.23570107e-03, -1.59726851e-02, -1.13205891e-03,
          4.79158596e-04, -9.04406304e-04, -4.49528306e-05,
          2.60219420e-03, 1.55769486e-03, 2.23570107e-03,
          -5.44676231e-03, 2.13530683e-03, 7.96878245e-03,
          5.64553170e-03, 5.91036107e-04, 3.70700704e-03, 1.02940286e-02,
          2.28478899e-03, -5.44676231e-03, -5.52427350e-03,
          1.14593552e-02, 4.98374365e-03, 1.58588495e-03, 4.83649736e-03,
          4.68301761e-04, 2.86334916e-03, 5.94768161e-03,
          -5.52427350e-03, -3.23442859e-03, 1.45544088e-03,
          -7.53146922e-03, -5.01344865e-03, 9.76551441e-04,
          -8.44683440e-04, 2.35798676e-03, 2.90445727e-03,
          1.77373833e-04, -7.52156880e-03, -2.48931989e-04,
          -2.11695791e-03, -2.05311272e-03, 3.76943353e-04,
          1.87496084e-03, 1.87496084e-03, 4.45726560e-03,
          -7.09694671e-03, -1.01095662e-02, 1.55979476e-03,
          2.14138511e-03, 6.96208095e-03, 1.06475912e-02, 4.10442939e-03,
          2.45781825e-03, -2.95144087e-03, -1.27617633e-02,
          3.66881979e-03, 7.68994307e-03, 4.10672743e-03,
          -9.80067533e-04, -1.61344185e-02, -9.87438019e-03,
          -1.89839266e-02, -1.28757125e-02, -1.97041756e-03,
          2.76668667e-04, -1.17051760e-02, -7.24793645e-03,
          -5.55086788e-03, -1.27470018e-02, 2.07672268e-03,
          4.88654617e-03, 4.70096339e-03, 4.57422528e-03, 3.09841766e-04,
          -1.27655072e-02, -1.31125199e-02, -1.58597082e-02,
          -1.40784401e-02, 1.03367530e-02, 1.36200413e-02,
          1.12511301e-02, 8.00418295e-03, 2.14574635e-02,
          -1.02597363e-02, -1.94509551e-02, -2.52281018e-02,
          -1.99833177e-02, -9.54811182e-03, -2.99010030e-03,
          5.38740715e-04, 3.56051028e-02, 9.30553116e-03,
          -2.40696948e-02, -2.16177162e-02, -7.77696492e-03,
          -6.88385218e-03, -6.66446332e-03, -3.96708958e-03,
          -1.42422854e-03, 1.65751725e-02, 5.80205000e-04,
          -4.64667380e-03, -1.68192887e-03, -1.75667461e-03,
          -2.14823568e-03, -3.03663453e-03, -2.13916996e-03,
          -2.23302253e-04, -3.94590606e-04, 9.93878581e-03,
          -2.47153081e-02, -1.43296495e-02, -5.54144057e-03,
          -1.81406061e-03, -3.26970569e-03, -7.01662293e-03,
          -8.56501050e-03, 1.01807378e-02, 1.47476336e-02,
          -2.45164428e-02, -1.28605841e-02, -1.01866340e-02,
          -4.89831343e-03, -5.41434484e-03, -8.52108747e-03,
          -1.53726153e-02, 1.62512586e-02, 2.15587765e-02,
          -1.36663327e-02, -2.01881789e-02, -2.10069250e-02,
          -1.81705449e-02, -1.72104333e-02, -1.60284713e-02,
          -9.76760406e-03, 2.22170074e-02, 1.34421960e-02,
          -1.52564691e-02, -2.12160219e-02, -1.96039267e-02,
          -1.84573010e-02, -1.25055034e-02, -1.94637710e-03,
          3.80494772e-03, 2.05101538e-02, -1.08592410e-03,
          1.98271056e-03, -5.53332316e-03, -3.64212366e-03,
          -1.76374428e-03, -3.26683628e-03, 1.42320187e-03,
          2.51384173e-03, -1.15905935e-03, -5.16375480e-03,
          6.97513949e-03, 1.38632138e-03, -2.10978673e-03,
          -4.26781783e-03, -4.47803782e-03, -2.33861012e-03,
          5.30478917e-03, -2.83810441e-05, -2.46230327e-03,
          -1.22898130e-03, 4.52061577e-05, -4.04744502e-03,
          -1.00553669e-02, -9.83238965e-03, -4.61237272e-03,
          8.21847189e-03, 7.49650039e-03, -6.78383687e-04,
          -1.63697801e-03, -5.76711202e-04, 3.28338356e-03,
          -3.67993047e-03, -3.25431873e-04, -6.32788613e-03,
          2.47479673e-03, -1.09252206e-03, -2.09116563e-03,
          -4.19937959e-03, -2.45070783e-03, 1.36057136e-03,
          3.34455073e-03, -2.98891962e-03, -7.37359002e-03,
          2.79580918e-03, 2.92135694e-04, -4.29314096e-05,
          -4.30139899e-03, 2.10139412e-03, 1.15129561e-03,
          -9.87366587e-03, -1.20006222e-03, 8.16082174e-04,
          5.21886069e-03, 1.94240513e-03, -8.72341450e-03,
          -1.12046339e-02, -8.61583650e-03, -3.10871424e-03,
          5.71514107e-03, 1.38958730e-02, 1.53631475e-02, 1.57441329e-02,
          1.42879104e-02, -2.88726278e-02, -2.38197949e-02,
          9.87332594e-03, 2.08571944e-02, 1.86309423e-02, 1.93993952e-02,
          1.91808455e-02, 8.61933734e-03, -1.55924298e-02,
          1.64983760e-06, 4.27195616e-03, 7.62790162e-03, 6.33445103e-03,
