%YAML:1.0
---
opencv_ml_svm:
   format: 3
   svmType: C_SVC
   kernel:
      type: LINEAR
   C: 1.5000000000000000e+00
   term_criteria: { iterations:10000000 }
   var_count: 945
   class_count: 10
   class_labels: !!opencv-matrix
      rows: 10
      cols: 1
      dt: i
      data: [ 48, 49, 50, 51, 52, 53, 54, 55, 56, 57 ]
   sv_total: 45
   support_vectors:
      - [ 5.42382197e-03, 3.85636254e-03, 1.40793168e-03,
          -1.45987622e-04, 5.98913408e-04, -8.55199620e-03,
          -3.84566723e-03, -1.43691222e-03, -2.40921672e-03,
          2.27804948e-02, 1.94093604e-02, 1.24630667e-02, 8.33345018e-03,
          -2.23667435e-02, -2.86230352e-02, -5.58295287e-03,
          6.90062623e-03, 2.03531887e-02, 2.51779053e-02, 2.24525537e-02,
          1.00482684e-02, -7.49491272e-04, -2.39436328e-02,
          -2.21348666e-02, -1.34837860e-02, -2.03143689e-03,
          1.43252024e-02, 3.74695985e-03, 1.68210845e-02, 6.09246641e-03,
          1.01113098e-03, -7.14626443e-03, -6.07851986e-03,
          -8.92427005e-03, -8.70404392e-03, 1.97300268e-03,
          -4.51067550e-04, 5.33035584e-03, -1.24004344e-03,
          1.56517664e-03, -4.20474727e-03, -3.72025417e-04,
          -7.82735064e-04, 3.84747097e-03, -6.55827986e-04,
          -1.38869532e-03, 6.70094136e-03, 7.36937486e-03,
          5.49880497e-04, -6.33031083e-03, -7.52576673e-03,
          -7.66675407e-03, 3.03658168e-03, -2.29961751e-03,
          7.57984584e-04, 1.23812794e-03, 6.40344282e-04, 1.80219754e-03,
          -7.53634097e-03, 2.35753972e-03, -4.17982414e-03,
          -7.60198431e-03, 1.08965836e-03, 2.67421198e-03,
          -5.50833996e-03, -6.52683107e-03, -1.67330704e-03,
          -7.80408084e-03, 7.63883640e-04, 4.44620586e-04,
          -3.56535683e-03, 2.84647872e-03, 8.58777761e-03,
          -4.64096386e-03, -4.72496962e-03, -4.57755197e-03,
          -1.15310121e-02, -6.19112654e-03, -9.42421891e-03,
          -1.36670116e-02, 7.85365608e-03, 4.34689736e-03,
          -5.23580657e-03, -3.13624553e-03, -2.08608527e-03,
          -8.23954865e-03, -4.37713740e-03, -6.08923752e-03,
          -9.10908170e-03, 4.34689736e-03, 7.26299360e-03,
          -1.24738486e-02, -1.26875341e-02, -4.17085504e-03,
          -1.04130227e-02, -2.75940495e-03, -5.04897023e-03,
          -6.26813248e-03, 7.26299360e-03, 7.70199252e-03,
          -9.98807605e-03, -1.54072894e-02, -1.23386467e-02,
          -1.07447291e-02, -1.65075448e-03, -2.01393431e-03,
          1.67111715e-03, 1.28548676e-02, 2.79105753e-02, 3.42986692e-04,
          -1.43512320e-02, -3.30743454e-02, -3.25564407e-02,
          5.14063926e-04, 8.78834166e-03, 2.38137506e-02, 3.10317874e-02,
          1.83010697e-02, -7.41828606e-03, -2.12503616e-02,
          -2.79583242e-02, -2.76348442e-02, -3.17098200e-03,
          1.78923290e-02, 2.90124491e-02, 2.74488088e-02,
          -5.90739772e-03, -3.73892835e-03, -3.40820476e-03,
          -9.01601370e-03, -6.35442324e-03, -4.72245319e-03,
          1.10056931e-02, 1.41802654e-02, 8.25225003e-03, 6.79893699e-03,
          4.22945479e-03, 9.43773147e-03, 6.10737968e-03,
          -3.53175536e-04, -1.35485297e-02, -1.34646855e-02,
          -5.77448634e-03, 1.27995387e-03, 1.39400540e-02,
          2.26741247e-02, 2.31829453e-02, 2.16071047e-02,
          -8.28040473e-04, -1.85824856e-02, -2.17200462e-02,
          -2.17493102e-02, -1.19718043e-02, 3.78535246e-03,
          2.99729798e-02, 1.30108222e-02, 6.80114608e-03,
          -3.11838766e-03, -8.67470820e-03, -1.26590878e-02,
          -2.41701268e-02, -1.19993975e-02, -1.14656624e-03,
          1.23300767e-02, 2.42314488e-03, 8.63436668e-04, 3.27754009e-04,
          1.12539983e-05, 6.57983983e-05, -5.03243273e-03,
          -1.14656624e-03, -5.81572764e-03, 2.91123084e-04,
          3.09966737e-04, 3.54397664e-04, 3.93356255e-04, 1.97648442e-05,
          8.65787826e-03, 1.52716739e-02, -4.52252431e-03,
          -4.46645357e-03, 8.63440894e-03, 2.46331678e-03,
          2.54678685e-04, 1.47129584e-04, -4.43139979e-05,
          1.99651555e-03, 1.16468407e-02, -4.64601209e-03,
          -3.97810836e-05, 6.68302644e-03, 9.04238666e-04,
          1.05491163e-04, 7.80411137e-05, -9.57451812e-06,
          -1.21620404e-04, -3.68798315e-03, -3.97810836e-05,
          -5.88121475e-04, -2.20943987e-03, 8.24615927e-05,
          1.17501986e-04, 9.03630134e-05, 2.56593019e-04, 1.10355904e-03,
          -1.12234405e-03, -5.88121475e-04, 9.86241139e-05,
          2.49140663e-03, 4.04525781e-04, 8.05184245e-05, 6.47992294e-07,
          -1.39133859e-04, -4.85017634e-04, -2.95711006e-03,
          9.86241139e-05, -1.86197436e-03, 3.56304087e-03,
          7.92012434e-04, 1.55723159e-04, 9.58165328e-05,
          -1.23088803e-05, 4.15885093e-04, 4.70612571e-03,
          -1.86197436e-03, -6.73477771e-04, -1.14132150e-03,
          -1.07285923e-04, 2.25698350e-05, 7.75312128e-06,
          6.14765231e-05, 8.20982910e-04, 4.40930482e-03,
          -6.73477771e-04, -3.27269721e-04, -4.14359492e-05,
          -6.20518927e-04, -4.19459131e-04, 1.22480255e-04,
          3.02844710e-04, 6.49304653e-04, 2.31079664e-03,
          -3.27269721e-04, 1.25611972e-04, -2.29283571e-02,
          -2.07886845e-02, -2.18912251e-02, -5.35656884e-03,
          1.56898722e-02, 1.60349328e-02, 2.66665574e-02, 9.46281757e-03,
          -4.01366595e-03, -1.76249407e-02, -2.56930012e-02,
          -1.98888369e-02, -4.07277513e-03, 2.06473060e-02,
          2.34323051e-02, 2.22298279e-02, 1.89533699e-02,
          -3.24409833e-04, 8.86692025e-04, 7.01912912e-04,
          4.78484714e-03, 1.39697897e-03, -5.52154891e-03,
          -1.63258825e-04, -3.00177024e-04, -1.09117141e-03,
          -5.98024949e-03, -8.38618027e-04, 2.78711759e-05,
          1.54211074e-02, 1.27412062e-02, -2.39259051e-03,
          -1.54041788e-02, -1.94667298e-02, -1.50469746e-02,
          -2.19569933e-02, -2.83375802e-03, 1.70204090e-03,
          3.38380970e-02, 3.57972383e-02, -2.40907306e-04,
          -1.75183918e-02, -2.56840903e-02, -2.99992617e-02,
          -1.27991913e-02, 3.90755525e-03, 1.32127805e-02,
          2.52245460e-02, 2.56847553e-02, 1.16280532e-02,
          -6.31325739e-03, -2.33276673e-02, -2.91026533e-02,
          -5.85776940e-03, 4.54799971e-03, 9.00819246e-03,
          8.08366202e-03, 1.31830182e-02, 6.53433613e-03, 5.57798846e-03,
          -5.86959161e-03, -7.79423583e-03, -1.57188019e-03,
          -6.58846833e-03, 5.20304497e-03, 2.11185217e-03,
          7.94667099e-03, 2.42351973e-03, 9.51803941e-03,
          -2.07846076e-03, -1.43309287e-03, -2.84707057e-03,
          5.21407928e-03, 6.38197735e-03, 3.90612870e-03, 8.28388054e-03,
          2.03521177e-03, 5.68067143e-03, -1.75291661e-03,
          -2.84707057e-03, -4.60570771e-03, 1.07256006e-02,
          1.31168924e-02, 3.17544816e-03, 8.77864100e-03, 2.07134685e-03,
          3.21085704e-03, -4.70191939e-03, -4.71653556e-03,
          -3.05446726e-03, 5.38278976e-03, 8.42816941e-03,
          6.09681662e-03, 8.84050410e-03, 3.26962350e-03, 5.62206050e-03,
          -7.88206514e-03, -3.05446726e-03, -6.10095216e-03,
          1.04345223e-02, 8.80805310e-03, 5.49373310e-03, 8.07603635e-03,
          3.54751712e-03, 9.97752789e-03, 5.64671354e-03,
          -6.10095216e-03, -4.17790050e-03, 3.93930962e-03,
          6.72894577e-03, 5.20285498e-03, 1.49798375e-02,
          -8.78244406e-04, 3.82454484e-03, 5.39389066e-03,
          -4.17790050e-03, -5.68886148e-03, 5.50275482e-03,
          7.84904882e-03, 4.77230689e-03, 1.63038969e-02, 7.54787005e-04,
          7.80732324e-03, 7.92260934e-03, -6.48894301e-03,
          -7.49164913e-03, -3.73808551e-03, 4.50769020e-03,
          5.53213805e-03, 1.73290689e-02, 1.03184069e-02, 1.22842835e-02,
          3.73583194e-03, -6.94778748e-03, -3.00301667e-02,
          -2.49431748e-02, -6.68346463e-03, 1.86568629e-02,
          3.31046730e-02, 2.97148991e-02, 7.30128400e-03,
          -3.75049072e-03, -1.93570796e-02, -2.19678693e-02,
          -2.19536312e-02, -2.02001631e-02, 5.44709433e-03,
          2.42531337e-02, 1.66815501e-02, -2.52997782e-03,
          -1.43197542e-02, -1.84709691e-02, -3.84112238e-04,
          -1.28152664e-03, 8.76037288e-04, -5.71318623e-03,
          2.78827804e-03, 6.90068398e-03, -5.79826115e-03,
          -9.00243875e-04, -1.63014847e-04, -2.03256737e-02,
          -3.66994389e-03, -1.50386849e-03, 1.95475053e-02,
          2.61520315e-02, 1.56273190e-02, -7.83024356e-03,
          -1.69187058e-02, -2.25822348e-02, -3.52090821e-02,
          -2.59707915e-03, -3.83518724e-04, 2.00805776e-02,
          3.46460901e-02, 3.00613958e-02, 4.82549472e-03,
          -5.55495080e-03, -3.36293802e-02, -2.13918202e-02,
          -1.48961777e-02, -3.13474052e-03, 8.57799407e-03,
          2.40870602e-02, 2.35518944e-02, 2.04568915e-02, 1.83472876e-02,
          -1.53129008e-02, -1.62205426e-03, -5.21097146e-03,
          3.10464855e-03, 1.98416854e-03, 8.75840615e-03, 5.50748594e-03,
          1.41335689e-02, 6.58266200e-03, -4.92881378e-03,
          2.27885065e-03, -4.80401609e-03, 6.81041181e-03,
          1.56108511e-03, 5.23507455e-03, 3.19618289e-03, 6.22065691e-03,
          -7.74815306e-03, 2.27885065e-03, 1.18188281e-03,
          -4.45399201e-03, 4.69964417e-03, 1.07867736e-03,
          4.87842364e-03, 1.95637462e-03, 3.67974839e-03,
          -2.22533219e-03, 2.63915071e-03, -1.99554325e-03,
          9.14865825e-03, 2.64707464e-03, 7.42240984e-04, 2.92263599e-03,
          9.57800075e-04, 3.83093720e-03, 4.10676142e-03,
          -1.99554325e-03, -9.20233957e-04, 5.75985154e-03,
          2.77167466e-03, 5.34663850e-04, 2.27821409e-03, 2.81318178e-04,
          2.54773698e-03, 3.51088075e-03, -9.20233957e-04,
          -2.72080838e-03, 7.31571810e-03, 2.83277384e-03,
          4.04132792e-04, 1.70696282e-03, 1.03198097e-03, 5.45419287e-03,
          8.55126698e-03, -2.72080838e-03, -3.43982456e-03,
          1.04381209e-02, 4.57708770e-03, 1.15331064e-03, 3.66960838e-03,
          1.03010773e-03, 7.01872632e-03, 8.29255767e-03,
          -3.43982456e-03, -3.66258854e-03, 8.80969968e-03,
          3.93233867e-03, 2.19828915e-03, 4.50310763e-03, 1.47646654e-03,
          2.80309957e-03, 1.31809814e-02, -3.66258854e-03,
          -5.42484550e-03, 1.40070664e-02, 1.11448457e-02,
          9.23496857e-03, 9.08897072e-03, 3.03236395e-03, 1.51355553e-03,
          -1.63715589e-03, -5.42484550e-03, -1.59542821e-02,
          5.97908301e-03, 1.16324751e-02, 2.79928539e-02, 2.57493909e-02,
          6.12357166e-03, -1.02727963e-02, -2.27653608e-02,
          -2.79886350e-02, -1.08359447e-02, -1.88919622e-03,
          4.08561085e-04, 1.47334933e-02, 1.36906141e-02,
          -6.39056414e-03, -1.47579238e-02, -1.86586976e-02,
          -2.06185170e-02, 7.44977384e-04, 4.84562988e-05,
          -2.38536857e-03, 4.03549569e-03, 2.37379316e-03,
          -1.23943074e-03, -6.17826870e-03, 2.81448913e-04,
          6.55056152e-04, -1.86177120e-02, -2.72310665e-03,
          -1.57315645e-03, 5.60430018e-03, 1.88058782e-02,
          1.41184218e-02, 1.08992588e-02, -6.10106181e-05,
          -1.93464421e-02, -1.77136268e-02, -1.21312886e-02,
          -1.20879523e-02, -4.90464969e-03, 1.46660209e-02,
          2.06964444e-02, 2.12152340e-02, 1.56186633e-02,
          -1.04775727e-02, -2.08633929e-03, -1.06918039e-02,
          -5.39431348e-03, -1.61874702e-03, -1.04567898e-03,
          2.02739524e-04, 5.81245497e-03, 1.64331459e-02,
          -2.08633929e-03, 2.74008582e-03, -3.65107064e-03,
          -2.79396842e-03, 1.12533576e-06, -9.71604546e-04,
          -1.08725391e-03, -1.41888775e-03, -5.39946184e-03,
          2.74008582e-03, 2.26706034e-03, -1.25501386e-03,
          -2.23080302e-03, -6.45310269e-04, -1.37547485e-03,
          -5.96019556e-04, -1.42735650e-03, -1.03639690e-02,
          2.26706034e-03, 2.76397332e-03, -6.89401617e-03,
          -5.74601581e-03, -1.71565777e-03, -1.53370248e-03,
          -6.60219055e-04, -2.29929131e-03, -1.06753930e-02,
          6.07758574e-03, 1.06676470e-03, 1.02480780e-03,
          -4.22780262e-03, -5.43206232e-03, -9.77120828e-03,
          -4.41578915e-03, -4.79277223e-03, -4.68047801e-03,
          1.06676470e-03, 1.41225997e-02, -1.51269278e-02,
          -2.10260451e-02, -2.21009478e-02, -1.89998858e-02,
          -5.17971814e-03, -2.02026754e-03, 6.06715539e-03,
          1.40533345e-02, 8.25637206e-03, -2.79777087e-02,
          -1.91131253e-02, -8.85875430e-03, -3.36635462e-03,
          -1.39932986e-03, -7.40740215e-04, 3.26860626e-03,
          1.26262661e-02, 3.50806233e-03, -1.82596054e-02,
          -1.52540545e-03, -1.01527188e-03, -5.96349710e-04,
          -4.86139586e-04, -9.77640157e-05, 1.47675711e-03,
          3.52662220e-03, -5.88343770e-04, -4.92490875e-03,
          -4.94172156e-04, -4.48436069e-04, -2.51029182e-04,
          -1.21723118e-04, -1.70455300e-04, -1.05193711e-03,
          2.13392475e-03, 8.65449780e-04, -1.80874707e-03,
          -3.01586842e-04, -3.27135989e-04, -4.02596575e-04,
          1.12180285e-04, -1.87717698e-04, -3.14752851e-03,
          8.65449780e-04, -8.89084826e-04, 3.17732082e-03,
          1.20418833e-03, 4.48759971e-03, 1.79086172e-03,
          -3.97423794e-03, -4.28533461e-03, -6.32391777e-03,
          -2.78077577e-03, 2.30713375e-03, 2.25159852e-03,
          2.68746936e-03, 7.92442646e-04, 1.19086402e-03,
          -1.28403855e-02, -3.74530628e-03, -3.22585134e-03,
          -2.95109861e-03, 5.42047783e-04, 3.50321177e-03,
          4.45928657e-03, -4.92724497e-03, 4.16431605e-04,
          -2.17250502e-03, 3.48404003e-03, 3.31677473e-03,
          9.57240991e-04, -1.49046211e-02, -2.32440829e-02,
          -1.61720254e-02, -7.22711324e-04, 3.10793868e-03,
          1.53319826e-02, 1.10595189e-02, 9.58400965e-03, 1.68852512e-05,
          4.07215487e-03, -1.45893060e-02, -1.81129687e-02,
          -4.62436490e-03, -7.85735808e-03, -1.28575205e-03,
          3.47629050e-03, 1.10373031e-02, 1.02703832e-02, 5.69782685e-03,
          -8.30856385e-04, -6.15013717e-03, 1.78475911e-03,
          -1.18640671e-02, -5.67448139e-03, -4.33756877e-03,
          1.09650765e-03, 8.75982456e-03, 8.68668221e-03,
          -7.09334342e-03, -1.44676175e-02, 5.15298278e-04,
          -1.16393957e-02, -5.79458661e-04, -2.95345602e-03,
          3.51066096e-03, 1.04383714e-02, 4.53659613e-03, 4.23375424e-03,
          -1.12032890e-02, -2.51362147e-03, -1.25825182e-02,
          -2.32568546e-03, -1.62602274e-03, -2.09999664e-04,
          3.13249510e-03, 8.61198641e-03, 1.84702291e-03,
          -1.30851958e-02, -7.69100431e-03, -1.62535999e-02,
          -8.49182718e-03, -1.01244748e-02, -3.20105278e-03,
          9.98753961e-03, 2.04723179e-02, 1.04966024e-02,
          -6.84503186e-03, -1.14624016e-02, -2.29839999e-02,
          -2.02927720e-02, -1.84521154e-02, -5.28025860e-03,
          1.88340563e-02, 3.12897675e-02, 5.46899810e-03,
          -1.07463729e-02, -2.24036630e-02, -2.28752382e-02,
          -2.32261773e-02, -1.49575127e-02, 4.62916074e-03,
          3.04706059e-02, 1.81118734e-02, -8.19442794e-03,
          -1.28245112e-02, -1.53177511e-02, -1.40638230e-02,
          -1.88287199e-02, -1.82137880e-02, -1.14044603e-02,
          1.74474977e-02, 1.24419329e-03, -5.22934878e-03,
          1.31255772e-03, -2.21528788e-03, -1.13811460e-03,
          -1.45665510e-03, 4.46841266e-04, -6.85415696e-03,
          1.24419329e-03, 3.71910923e-04, -5.52764861e-03,
          7.29863168e-05, -1.30199871e-04, -8.11526843e-04,
          2.12839906e-04, 1.92894775e-03, 8.17120541e-04, 3.71910923e-04,
          7.32646731e-04, -1.76713383e-03, 1.09121669e-03,
          1.28395669e-03, 4.35341499e-04, 1.90309249e-03, 1.44557224e-03,
          -1.95371825e-03, 7.32646731e-04, 9.56407050e-04,
          1.25907280e-03, 4.12861496e-04, -3.77572883e-06,
          1.13388780e-03, 8.79144427e-05, 2.97525345e-04,
          -5.03452169e-03, 9.56407050e-04, -7.02623147e-05,
          1.29324815e-03, 5.39166993e-03, 2.83739227e-03,
          -3.32749070e-04, -1.74756022e-03, -1.73137803e-03,
          -1.99272763e-03, -7.01141404e-03, -3.48220626e-03,
          3.25979758e-03, 3.25979758e-03, -2.36346875e-03,
          -4.64193150e-03, 1.12269830e-03, 5.24111150e-04,
          -5.32516860e-05, -3.65950051e-03, -4.44422942e-03,
          -7.51612615e-03, -7.16035301e-03, -5.24109975e-03,
          -1.31321792e-02, 3.38290329e-03, -2.48103891e-03,
          1.14253582e-02, 4.80025820e-03, 1.75392479e-02,
          -6.88052550e-03, -1.16170514e-02, -7.02854106e-03,
          -2.32866015e-02, -1.07268123e-02, -1.67337302e-02,
          -9.79986973e-03, 1.61198191e-02, 1.60539337e-02,
          -2.24847067e-03, -1.93965882e-02, -1.15143172e-02,
          -2.60927733e-02, -5.87696349e-03, -1.25300810e-02,
          -5.38077811e-03, 1.80324372e-02, 1.71078220e-02,
          -7.89456349e-03, -1.90644693e-02, -7.05203321e-03,
          -2.68711690e-02, -6.02833321e-03, -1.66103207e-02,
          1.12204952e-03, 1.79457385e-02, 9.65886656e-03, 3.22707673e-03,
          -1.88839063e-02, -4.86212503e-03, -2.20349990e-02,
          -9.31888353e-03, -1.31281400e-02, 7.42001785e-03,
          7.53554236e-03, 1.39710456e-02, 2.42606318e-03,
          -1.93213411e-02, -8.03390704e-03, -2.57952157e-02,
          -1.27375489e-02, -1.49145024e-02, 6.35016360e-04,
          1.44089758e-02, 2.27864534e-02, -5.99248242e-03,
          -1.68129541e-02, -9.75746289e-03, -1.96684934e-02,
          -1.37700280e-02, -2.09378563e-02, -1.21150138e-02,
          1.72492079e-02, 3.21794190e-02, -3.47740715e-03,
          -3.04488209e-03, -1.21106394e-03, -8.73116497e-03,
          -2.56115515e-02, -2.71743964e-02, -1.87362954e-02,
          1.62488222e-02, 1.08579136e-02, 3.11820442e-03, 2.31963946e-04,
          4.73156842e-06, -8.99136066e-04, -4.38645342e-03,
          -1.65169332e-02, -2.92584542e-02, 7.88584631e-03,
          -7.06904393e-04, 6.71543647e-03, 5.80913911e-04,
          -9.23917178e-05, -1.55841612e-04, -8.93151955e-05,
          -2.40740279e-04, -2.07701605e-03, -7.06904393e-04,
          -5.28883247e-04, -2.54834216e-04, -1.45988699e-04,
          1.71473202e-05, -2.38386943e-04, 5.88087933e-05,
          3.50871385e-04, 3.07971495e-03, -5.28883247e-04,
          5.22660674e-04, -8.81682092e-04, 2.90653843e-04,
          1.55601796e-04, -4.96151551e-05, 5.73665966e-05,
          1.27361409e-05, -1.49477716e-03, 5.22660674e-04,
          9.14879492e-05, 3.01289721e-04, 1.23769462e-06,
          -8.21861522e-06, -4.27018051e-07, 9.57244556e-05,
          2.49562843e-04, -1.07304554e-03, 9.14879492e-05,
          -3.20433662e-03, 8.28678999e-03, 1.01709599e-02,
          4.58118680e-04, -2.67064279e-05, -3.82028556e-05,
          -3.44278116e-04, -1.28590863e-03, -6.23517483e-03,
          -2.07207445e-03, 3.67800286e-03, -3.89256311e-04,
          -3.62920738e-03, -1.38540390e-05, 6.77183634e-05,
          3.29496281e-04, 5.63161448e-04, -7.96527322e-03 ]
      - [ 6.61708927e-03, 1.51580549e-03, 1.76033447e-03,
          -2.49265484e-03, 4.16498538e-03, -6.25364063e-03,
          -2.76297214e-03, -3.83109809e-03, -5.66027313e-03,
          1.65618956e-02, 1.45658199e-02, 2.69909715e-03,
          -2.69309571e-03, -1.54704796e-02, -1.89393144e-02,
          -1.17685916e-02, -2.60921870e-03, 1.35739679e-02,
          2.13507377e-02, 1.33687453e-02, 3.20454105e-03,
          -6.14602352e-03, -1.92208439e-02, -1.96913574e-02,
          -1.23783546e-02, 1.51266123e-03, 2.06933301e-02,
          1.09797614e-02, 6.85054064e-03, -2.40759226e-03,
          -5.04117738e-03, -1.37201790e-02, -6.90903934e-03,
          -8.79518688e-03, 1.91119718e-04, 9.68822557e-03,
          8.06614943e-03, -3.54100089e-03, -1.18057448e-02,
          -6.34636311e-03, -1.48675591e-02, 1.62513563e-04,
          -3.32241948e-03, 4.64077620e-03, 8.55360087e-03,
          1.97018832e-02, 2.49154936e-03, -1.03689702e-02,
          -1.94982570e-02, -1.97614487e-02, -7.32626533e-03,
          8.43638263e-04, 1.10426294e-02, 2.05411036e-02, 1.45327430e-02,
          -1.27833555e-04, -9.31861531e-03, -1.52978282e-02,
          -1.61128733e-02, -5.98777959e-04, 4.06249892e-03,
          8.11692793e-03, 2.00302135e-02, 5.99296764e-03,
          -9.34843719e-03, -1.23898508e-02, -1.12825846e-02,
          -1.06507381e-02, 1.03706005e-03, 6.50227396e-03,
          9.22154542e-03, 1.21220937e-02, 5.83061657e-04,
          -5.72590251e-03, -1.96957379e-03, 9.01583117e-04,
          7.17057497e-04, 2.80317524e-03, 1.01740449e-03, 3.16488324e-03,
          5.83061657e-04, -9.48451692e-04, -1.45189057e-03,
          5.55558072e-04, 1.95582700e-03, 9.68413195e-04, 4.10802662e-04,
          3.43290530e-03, 1.64490484e-03, -9.48451692e-04,
          -7.47943239e-04, 2.37087673e-03, 2.93390738e-04,
          2.06223398e-04, 1.06666666e-04, 2.30490186e-04, 1.66307949e-03,
          2.67625524e-04, -7.47943239e-04, -1.22466020e-03,
          2.23303563e-03, 1.11818232e-03, 1.40461267e-03, 1.32582127e-03,
          6.41601335e-04, 1.44953676e-03, 1.39918574e-03,
          -1.22466020e-03, -1.76034437e-03, 1.18987460e-03,
          1.94457197e-03, 1.88621914e-03, 1.06864318e-03, 1.03384489e-03,
          2.38542724e-03, 2.65316712e-03, -1.76034437e-03,
          -6.06242986e-03, -1.17077457e-03, 4.54407884e-04,
          -6.44904270e-04, -3.70463566e-03, -1.85548083e-03,
          3.03784409e-03, 4.09012148e-03, 1.01896375e-03,
          -8.66466016e-03, -8.54220270e-05, -6.15943136e-05,
          -3.34329437e-03, -3.49112693e-03, -1.28840457e-03,
          8.29853583e-03, 8.58574640e-03, -9.34500247e-04,
          2.07001437e-03, -3.60336358e-04, 1.54546206e-03,
          1.33661821e-03, 1.27195541e-04, -1.34323462e-04,
          -8.89922158e-05, 6.86048006e-04, 9.76329553e-04,
          1.50598940e-02, 1.48928212e-02, 1.32785579e-02,
          -2.06662505e-03, -1.16335005e-02, -9.02123470e-03,
          -3.55886092e-04, 6.53728785e-04, 4.67017991e-03,
          2.30219271e-02, 2.22358052e-02, 3.44772241e-03,
          -1.45813935e-02, -1.92408692e-02, -1.86791141e-02,
          -6.49036048e-03, -5.24073141e-04, 1.16120931e-02,
          1.58371069e-02, 2.79373396e-03, -1.06291305e-02,
          -9.47436411e-03, -1.59085281e-02, -1.20408079e-02,
          -1.18890377e-02, -3.76231363e-03, 1.47884004e-02,
          1.27697401e-02, -3.16887745e-03, -1.30270636e-02,
          -1.18898619e-02, -1.76768322e-02, -7.35944835e-03,
          -5.64060267e-03, 3.95507505e-03, 1.23393284e-02,
          2.18167696e-02, 6.90731639e-03, -1.57677091e-03,
          -2.08823960e-02, -2.50051599e-02, -1.14180641e-02,
          3.18230450e-05, 1.00390762e-02, 2.18741726e-02, 2.29390413e-02,
          1.06660379e-02, -1.68072467e-03, -2.13784724e-02,
          -2.56530605e-02, -9.58226621e-03, 1.65286940e-04,
          5.03373984e-03, 2.29403973e-02, 1.54396063e-02,
          -8.65684357e-03, -1.38319666e-02, -1.80431101e-02,
          -1.86604261e-02, -7.83137511e-03, 7.04355829e-04,
          7.63839763e-03, 2.15459559e-02, 7.62434164e-03,
          -1.51150106e-02, -1.30218836e-02, -1.31290648e-02,
          -9.93752480e-03, -4.40744538e-04, 1.73416774e-04,
          1.30631530e-03, 1.69395320e-02, 6.34736032e-04,
          -8.33692029e-03, -2.77428702e-03, -2.39580241e-03,
          -8.15288280e-04, -2.62707181e-05, 5.02252136e-04,
          5.25948638e-03, 1.34315016e-03, -3.53012321e-04,
          -1.11019274e-03, -2.85476737e-04, -8.35325336e-05,
          -4.29563479e-05, 4.24611135e-05, 4.21369419e-04,
          2.30743666e-03, -3.53012321e-04, 8.36420950e-05,
          2.20803922e-04, 2.97473802e-04, 1.43111989e-04, 5.37141750e-05,
          1.39724201e-04, 7.03639598e-05, 1.81206124e-04, 8.36420950e-05,
          -1.75172012e-04, 2.53064180e-04, 9.60370598e-05,
          -2.69656797e-04, 2.22953327e-04, -1.83238089e-03,
          -1.11590209e-03, 2.32468988e-03, 1.49504258e-03,
          -1.21570216e-03, 8.10236845e-04, 1.22092187e-03,
          -1.24544883e-03, -1.38173360e-04, -1.38173360e-04,
          -1.38173360e-04, -1.38173360e-04, 1.86389184e-03,
          -5.37503292e-05, 9.75274830e-04, 2.27041310e-03,
          2.11311714e-03, 2.28958111e-03, -4.73765982e-03,
          1.18245480e-04, -1.29033776e-03, -3.02501285e-04,
          -3.23545607e-03, -2.49754335e-03, -1.02539023e-03,
          7.97180983e-04, 2.70138122e-03, -5.23255439e-04,
          -2.41473643e-03, -1.20959652e-03, -3.22293461e-04,
          3.34471522e-04, 1.14989642e-03, 2.48647737e-03, 6.59445254e-03,
          -3.16302897e-03, -3.01166112e-03, -9.57505545e-04,
          -1.70700034e-04, -2.87400617e-05, 9.79705248e-03,
          1.16727231e-02, 9.98776499e-03, -5.21512411e-04,
          -4.79643466e-03, -5.96920028e-03, -6.66864682e-03,
          -4.09573171e-04, 3.31172347e-03, 8.39023571e-03,
          6.03763666e-03, 3.73457698e-03, -6.02044223e-04,
          -3.79436649e-03, -5.58127649e-03, -5.86669054e-03,
          -5.04418369e-03, 4.01070528e-03, 7.38810003e-03,
          2.56193453e-03, -3.37240892e-03, -4.74573718e-03,
          -8.44825711e-03, -4.77584591e-03, -1.66587019e-03,
          2.77077337e-03, 3.93711217e-03, 1.78114437e-02, 1.23661030e-02,
          6.84344117e-03, -1.44491717e-02, -1.70980189e-02,
          -1.10020638e-02, 4.49965009e-03, 5.82988327e-03,
          1.81054901e-02, 1.82086471e-02, 1.37201790e-02, 7.79047841e-03,
          -1.18919378e-02, -1.77762751e-02, -1.12415226e-02,
          5.65743027e-03, 6.84972620e-03, 1.81464739e-02, 1.72867924e-02,
          1.27062555e-02, 8.77722632e-03, -1.30986227e-02,
          -1.64723359e-02, -1.03901234e-02, 4.92575718e-03,
          7.38637149e-03, 1.73599292e-02, 1.61573254e-02, 7.88558088e-03,
          2.96370685e-03, -1.44294258e-02, -1.39300618e-02,
          -8.03456083e-03, 6.72256481e-03, 6.16064062e-03,
          1.88130196e-02, 7.35727325e-03, -3.33264051e-03,
          -5.36907464e-03, -1.24913082e-02, -7.40259234e-03,
          -6.41571870e-03, 1.11948757e-03, 8.39446299e-03,
          1.25745777e-02, 2.63718702e-03, -2.63551134e-03,
          -1.88895268e-03, -3.94474156e-03, 1.65258985e-04,
          -3.55261215e-03, 8.60000320e-04, 1.07111002e-03,
          3.15036625e-03, 1.47879764e-03, -2.14871462e-03,
          7.69975886e-04, -1.71852671e-03, -9.05791530e-05,
          4.57899179e-04, -1.65977771e-03, -1.37012207e-03,
          1.47879764e-03, -1.68593440e-04, -6.36414625e-05,
          6.19869912e-04, 1.73716748e-03, -1.37569313e-03,
          9.51101072e-04, 1.78261369e-04, -5.97086793e-04,
          1.56024320e-03, -2.96633607e-05, 6.85297346e-05,
          7.14208174e-04, 2.17542611e-03, -9.30263603e-04,
          -2.71614590e-06, 2.92379082e-05, 2.20696034e-04,
          -1.74169487e-04, -9.52898972e-06, 4.00454417e-04,
          1.04911847e-03, -5.54706994e-03, 3.08902073e-03,
          6.97277370e-04, -1.63919132e-04, -9.75462535e-05,
          -3.23526125e-04, -6.55816286e-04, -2.91492627e-03,
          -3.96925583e-03, -8.94871773e-04, 2.04062299e-03,
          1.67961780e-03, -3.28877475e-03, -7.38770468e-04,
          1.16597803e-05, -5.13176725e-04, 2.63932307e-04,
          9.92924790e-04, 2.64072581e-03, -1.28872241e-04,
          -8.12273996e-04, -2.18186434e-03, -1.91209966e-03,
          -2.37529748e-03, 4.44573379e-04, 3.74047831e-03,
          2.61547789e-03, -2.67890253e-04, -5.10026759e-04,
          -4.90402163e-04, -8.85947840e-04, -1.02586322e-03,
          -1.99544360e-03, -3.67912254e-03, 2.85264011e-03,
          3.32689076e-03, 3.24726827e-03, 1.25499640e-03,
          -1.63664960e-03, 3.69442068e-03, 3.14249424e-03,
          -3.71596194e-03, -3.22385039e-03, -3.27453250e-03,
          -2.49171222e-04, -3.18021164e-03, 8.56748316e-04,
          4.09022486e-03, 7.31947273e-03, 5.01336716e-03,
          -1.25579431e-03, 9.42669995e-03, -3.24799563e-03,
          -9.37256031e-03, -1.63030252e-02, -1.37245515e-02,
          -3.02912015e-03, 5.82968909e-03, 8.83930922e-03,
          1.25959637e-02, 2.04053931e-02, 5.21583157e-03,
          -4.99634258e-03, -1.94749944e-02, -1.66531224e-02,
          -8.31366517e-03, 2.04716390e-03, 9.25833452e-03,
          2.13294905e-02, 2.06809118e-02, 5.81107475e-03, 7.56863330e-04,
          -1.67255327e-02, -1.71144586e-02, -1.03688417e-02,
          2.14893976e-03, 9.13111679e-03, 2.07669754e-02, 2.19722837e-02,
          8.89916159e-03, 2.31739925e-03, -1.56784616e-02,
          -2.21534278e-02, -9.79408901e-03, 5.14035206e-03,
          7.21894484e-03, 2.19722837e-02, 1.84371378e-02, 4.73530358e-03,
          -2.96338694e-03, -1.71418935e-02, -1.73126590e-02,
          -1.71076115e-02, -3.16587357e-05, 1.19302841e-02,
          1.93648674e-02, 1.09854843e-02, 1.00589823e-04,
          -6.79698680e-03, -1.16371093e-02, -1.10579263e-02,
          -9.05621611e-03, -6.16342667e-03, 2.35382537e-03,
          1.21731395e-02, 1.23275397e-02, 4.87198774e-03,
          -5.16784261e-04, -7.66899157e-03, -1.05633466e-02,
          -1.10884048e-02, -9.69465729e-03, -1.15948811e-03,
          1.18921837e-02, 6.64696284e-03, 4.53799730e-03, 5.29671367e-03,
          4.80918400e-03, -3.28307715e-03, -5.83185814e-03,
          -2.15342292e-03, -6.58176665e-04, 3.26654478e-03,
          2.19784386e-04, 1.02771237e-03, 3.49594071e-03, 6.79531787e-03,
          -4.83279815e-03, -5.15430700e-03, 2.81911204e-03,
          2.03772611e-03, 1.19664901e-05, 9.51537571e-04, 4.74410743e-04,
          1.29565725e-03, -3.12704407e-03, 2.15135422e-03,
          -1.15318777e-04, 7.75207707e-04, 1.11931516e-03,
          6.89650595e-04, -2.54943268e-03, -2.62950733e-03,
          -2.08563614e-03, -4.21140715e-03, 3.00243893e-03,
          3.37909604e-03, 2.40023853e-03, -4.32573911e-03,
          -4.83022304e-03, 1.69181614e-03, -4.01461817e-04,
          -4.21267177e-04, 4.08723572e-04, 8.05016607e-04,
          9.91169829e-04, -4.24102269e-04, -4.24102269e-04,
          -6.73236093e-04, 4.59683040e-04, -1.11646194e-03,
          7.86780511e-05, 4.72712098e-04, 4.51730710e-04, 3.88985092e-04,
          2.41282585e-04, 1.82276557e-03, -1.26204497e-04,
          -2.59928522e-03, 3.88832041e-03, 1.02795206e-03,
          9.62320541e-04, 8.71653494e-04, 8.09662510e-04, 2.64115445e-03,
          6.06703432e-03, -2.59928522e-03, 1.04175655e-04,
          1.70617446e-03, 3.62334307e-04, 3.74049006e-04, 6.11502328e-04,
          4.88394347e-04, 9.95162292e-04, -3.03281820e-03,
          1.04175655e-04, 2.18606833e-03, -1.28436266e-02,
          -7.86833558e-03, -5.27544552e-03, -2.27335538e-03,
          9.84198268e-05, 2.45586562e-04, 1.81979820e-04, 8.49540066e-03,
          8.22117180e-03, -9.92264878e-03, -1.52825564e-02,
          -1.52739184e-02, -1.41598200e-02, -3.50306509e-03,
          -2.02717469e-03, 2.26275204e-03, 1.81636252e-02,
          2.21579242e-02, 9.19225102e-04, -9.08160862e-03,
          -2.11292151e-02, -2.13350188e-02, -1.31101478e-02,
          -7.62420124e-04, 3.67362099e-03, 2.33555101e-02,
          2.49125417e-02, 1.13784650e-03, -3.48006468e-03,
          -2.26625800e-02, -2.37139203e-02, -1.15496600e-02,
          3.97890806e-04, 4.24052170e-03, 2.49327533e-02, 2.23515760e-02,
          -1.16620143e-03, -1.19055090e-02, -2.07214169e-02,
          -2.07575876e-02, -1.21282702e-02, -1.47851219e-03,
          3.24112200e-03, 2.32347939e-02, 1.20115029e-02,
          -1.07086031e-02, -1.24628730e-02, -1.12619605e-02,
          -1.61245856e-02, -7.61882728e-03, -7.69039989e-03,
          -6.89529581e-03, 1.48715340e-02, 1.57883987e-02,
          -6.46150624e-03, -1.18637383e-02, -1.03932610e-02,
          -1.59995854e-02, -1.42269377e-02, -1.19818905e-02,
          -4.34704777e-03, 1.68583170e-02, 1.73540916e-02,
          1.61849800e-02, 1.25023443e-02, 7.19977426e-04,
          -1.93170067e-02, -1.97577570e-02, -4.64459881e-03,
          -6.05970621e-04, 1.74389631e-02, 1.15018347e-02,
          1.69702452e-02, 1.66049860e-02, 6.93408540e-03,
          -1.27742458e-02, -1.22378087e-02, -3.85502033e-04,
          8.85615940e-04, 1.62081327e-03, 8.63982597e-04, 1.90528668e-03,
          3.06984643e-03, 1.70261634e-03, -2.04021856e-03,
          -1.49548275e-03, 3.72995250e-03, 2.66107311e-03,
          7.79265130e-04, -8.84538982e-04, -1.34371361e-03,
          -9.41617938e-04, -2.34339805e-03, 8.61256092e-04,
          3.42343701e-03, -5.74789126e-04, -2.01994274e-03,
          -1.15366792e-03, 3.78271056e-06, 1.96004286e-03,
          1.51443330e-03, 3.17512284e-04, 4.50237771e-04, 8.85638758e-04,
          2.53882864e-03, 3.10787582e-04, -1.21987239e-03,
          -7.15899339e-04, 1.10277069e-04, 3.40322452e-03,
          2.92939204e-03, 3.55305010e-03, 2.03727209e-03, 3.45493318e-03,
          -7.41471013e-04, -7.15899339e-04, -4.32205619e-03,
          -1.22173782e-03, 4.47125593e-03, 4.58006421e-03,
          4.78622690e-03, 4.76238038e-03, 6.47288607e-03, 3.47297243e-03,
          -4.32205619e-03, -4.79806156e-04, 1.08896340e-04,
          1.75418356e-03, 1.52409053e-03, 1.57085143e-03, 2.16725888e-03,
          4.40008100e-03, -2.65095546e-03, -4.79806156e-04,
          -7.28436571e-04, -4.77614813e-03, -1.36475323e-03,
          1.20563927e-04, 4.54493333e-04, 5.72509132e-04, 2.09885370e-03,
          2.25582020e-03, 2.41158437e-03, 1.53505395e-03,
          -6.27812138e-03, -8.16752575e-03, -4.82684607e-03,
          -3.03072971e-04, -2.58791202e-04, 2.36223289e-03,
          6.41247025e-03, 5.47375530e-03, 8.53544474e-03,
          -9.63440724e-03, -1.65117085e-02, -1.60382912e-02,
          -5.18782483e-03, 3.04669229e-04, 7.00184889e-03,
          1.22506022e-02, 1.60871316e-02, 1.95900667e-02,
          -3.44685209e-03, -1.84318833e-02, -1.93028245e-02,
          -1.10865394e-02, 1.18897110e-03, 1.94454403e-03,
          9.48914699e-03, 2.24427450e-02, 1.30378269e-02,
          -6.92298287e-04, -1.40351672e-02, -1.66151188e-02,
          -1.41061340e-02, 1.19017716e-03, 1.89199368e-03,
          9.87876672e-03, 1.78016257e-02, 8.65273830e-03,
          -8.12785979e-03, -1.24827474e-02, -8.16068612e-03,
          -1.20738754e-02, -2.22097640e-03, -5.43666352e-03,
          -6.81184116e-04, 1.16909584e-02, 1.22305639e-02,
          -3.78414115e-04, -8.15029256e-03, -4.38813912e-03,
          -1.36803836e-02, -1.13622090e-02, -1.13701615e-02,
          -1.51745952e-03, 1.04367314e-02, 2.14478783e-02,
          1.17251864e-02, 3.83573910e-03, -2.17582472e-03,
          -2.06006709e-02, -2.00649407e-02, -1.14835585e-02,
          2.44999042e-04, 2.08390988e-02, 1.21472329e-02, 1.55098755e-02,
          1.51169542e-02, 4.74168686e-03, -1.51123693e-02,
          -1.67139117e-02, -1.54666640e-02, -1.24189314e-02,
          6.23912970e-03, -2.18069577e-03, 1.55391241e-03,
          3.06717609e-03, 2.05391319e-03, 2.91432108e-04,
          -3.07020359e-03, -3.17655201e-03, -6.06627017e-03,
          -5.95215149e-03, 2.07255012e-04, -3.53975082e-03,
          -4.00726590e-03, -5.29927784e-04, -1.27138419e-03,
          -2.20573484e-03, 1.94171688e-03, 1.16231851e-03,
          1.78943935e-03, -4.73525404e-04, -1.18163989e-04,
          -8.46653711e-04, -2.53172970e-04, -1.93211366e-04,
          -2.77801446e-04, -5.65959897e-04, 1.46250951e-03,
          -4.73525404e-04, -1.12994225e-03, 2.40257103e-03,
          2.24645832e-03, 3.33806849e-04, 2.88448995e-04,
          -1.41772805e-04, 1.66680562e-04, 7.48626946e-04,
          -1.12994225e-03, -1.31186005e-03, 7.22974073e-04,
          8.20798101e-04, 1.84504242e-04, 2.80829205e-04, 1.98632086e-04,
          1.05711794e-03, 6.19996199e-03, -1.31186005e-03,
          6.86541433e-04, -3.32478294e-03, -2.75592902e-04,
          3.36407284e-05, 2.31846803e-04, 9.60596080e-05, 1.45303155e-03,
          -1.07746152e-03, 6.80839643e-04, -1.06992631e-03,
          -2.79000052e-03, -1.12219108e-03, -3.48575923e-05,
          9.38535668e-05, -6.55312251e-05, 1.67143182e-04,
          3.56373214e-03, 1.31722051e-03, 1.16079091e-03,
          -1.17994836e-02, -1.25022861e-03, -1.12653615e-04,
          -3.22667402e-05, -7.51589141e-06, 1.72362605e-04,
          4.95428080e-03, 3.66250100e-03, 2.45903363e-03,
          -2.11799536e-02, -1.28091872e-02, -4.41367971e-03,
          -7.63820659e-04, -6.79283985e-05, 6.67579588e-04,
          6.52200356e-03, 1.65374856e-02, 9.33380984e-03,
          -1.53026301e-02, -1.86228249e-02, -1.04856817e-02,
          -6.57646079e-03, -5.37454209e-04, -1.62917702e-03,
          -2.37353635e-03, 1.88416857e-02, 1.11791389e-02,
          -8.32578167e-03, -1.41070057e-02, -1.16086863e-02,
          -1.57248080e-02, -3.36765777e-03, -5.82975708e-03,
          -4.12003230e-03, 1.43336141e-02, 1.12040676e-02,
          -9.28595848e-03, -1.29271988e-02, -4.77616349e-03,
          -1.59972776e-02, -4.74450039e-03, -8.65951180e-03,
          -8.04294646e-03, 1.23723187e-02, 1.28669320e-02,
          -9.77260340e-03, -1.25483107e-02, -3.75192938e-03,
          -1.39447125e-02, -8.42103269e-03, -1.22245634e-02,
          -8.09304789e-03, 1.28581608e-02, 1.95696205e-02,
          -1.43694424e-03, -1.79205160e-03, -9.36587807e-04,
          -1.05689652e-02, -1.74335670e-02, -1.77338924e-02,
          -1.56662744e-02, 1.47634540e-02, 7.26445252e-03,
          1.13774594e-02, 5.87277487e-03, 2.10841361e-04,
          -2.06945161e-03, -8.81355256e-03, -1.69823859e-02,
          -1.75109319e-02, 1.97269744e-03, -2.72948564e-05,
          2.74234288e-03, 8.53969809e-03, -7.92684208e-04,
          -1.00635720e-04, -1.75245266e-04, -1.33215426e-03,
          -7.78160198e-03, -1.14413686e-02 ]
      - [ 9.20685381e-03, 3.65925371e-03, 4.25302330e-03,
          -1.75915589e-03, -5.19647170e-03, -5.58677316e-03,
          -4.16330155e-03, -5.30199322e-04, -6.21634186e-04,
          2.22377907e-02, 2.11372953e-02, 1.01457918e-02,
          -8.31072684e-03, -2.01560892e-02, -2.43123323e-02,
          -8.35020933e-03, 1.59659807e-03, 2.01489218e-02,
          2.52414066e-02, 1.68789551e-02, 5.07134292e-03,
          -1.41591495e-02, -2.45556738e-02, -2.39368267e-02,
          -6.53173309e-03, 1.79834629e-03, 2.32964829e-02,
          1.23124076e-02, 7.01776287e-03, -3.57196643e-03,
          -7.16494489e-03, -1.32451439e-02, -1.25777256e-02,
          -5.71028423e-03, -2.47264863e-04, 1.13914777e-02,
          8.23307503e-03, -3.78452241e-03, -9.61565971e-03,
          -1.09725143e-03, -1.10459784e-02, -5.83524676e-03,
          -9.91002005e-03, 3.23083461e-03, 9.78233106e-03,
          1.20466547e-02, -8.15551542e-03, -1.45722236e-02,
          -1.98494196e-02, -1.37095824e-02, -4.60695755e-03,
          -1.88425859e-03, 9.75134037e-03, 2.13633738e-02,
          4.79705865e-03, -6.19499898e-03, -1.18384995e-02,
          -1.13548459e-02, -1.98078854e-03, 4.69821878e-03,
          5.65132732e-03, 1.12100430e-02, 1.04421042e-02, 4.03070869e-03,
          -3.50406393e-03, 1.18260644e-03, 1.37907593e-03,
          1.52961444e-03, -3.20946006e-03, -4.88021970e-03,
          -7.55462237e-03, 4.03070869e-03, 2.03137342e-02,
          1.07330317e-02, 6.04869286e-03, 3.77187808e-03,
          -7.92783406e-03, -1.74473170e-02, -1.80787519e-02,
          -1.31724691e-02, 7.90494494e-03, 2.20594574e-02,
          5.58816316e-03, 3.80440295e-04, -9.53854760e-04,
          -1.61087513e-02, -1.89054590e-02, -1.66099481e-02,
          -7.73185818e-03, 1.37686990e-02, 1.73036382e-02,
          -1.56302762e-03, -9.81366541e-03, -5.30958455e-03,
          -1.98406260e-02, -9.76715982e-03, -1.44949025e-02,
          -1.41656566e-02, 1.33420276e-02, 1.47815580e-02,
          4.54361597e-03, -1.01461047e-02, -1.35964062e-02,
          -2.03256272e-02, -1.14036314e-02, -8.66917707e-03,
          4.47930489e-03, 1.44222267e-02, 2.63955910e-02, 4.09784308e-03,
          -5.39142638e-03, -2.81040594e-02, -2.95035578e-02,
          -4.78195120e-03, 4.95427754e-03, 1.77284032e-02,
          2.63320692e-02, 1.56859141e-02, -7.85476714e-03,
          -1.27156023e-02, -2.67770123e-02, -2.74251178e-02,
          -8.22764647e-04, 1.68184526e-02, 2.51981989e-02,
          2.47654188e-02, -6.66281907e-03, -5.79209672e-03,
          -4.99234302e-03, -4.67617530e-03, -4.27183881e-03,
          -3.87034030e-03, 6.93095010e-03, 1.23385843e-02,
          8.04741867e-03, 5.30658150e-03, 5.12960833e-04, 7.96915591e-03,
          5.28070051e-03, -3.67103866e-03, -7.65791768e-03,
          1.42776687e-03, 2.94416724e-03, 4.47352789e-03, 2.03448161e-02,
          2.03098916e-02, 2.01412123e-02, -3.40732367e-04,
          -1.32249054e-02, -2.04035752e-02, 1.10626733e-03,
          9.76145500e-04, 5.95890777e-03, 2.56014336e-02, 2.49260720e-02,
          3.88730573e-03, -1.50925117e-02, -2.22802386e-02,
          -2.45477986e-02, -4.42590099e-03, -1.45669747e-03,
          9.55238938e-03, 2.25457959e-02, 3.39444075e-03,
          -1.38539262e-02, -1.74281094e-02, -2.00722292e-02,
          -1.49159906e-02, -1.49456365e-02, -2.19054054e-03,
          2.38572713e-02, 1.39638344e-02, -4.10713442e-03,
          -1.43018560e-02, -1.07809324e-02, -2.05333475e-02,
          -8.53556953e-03, -1.40909953e-02, 5.65107446e-03,
          1.51308877e-02, 2.59410795e-02, 5.02378354e-03,
          -1.49529856e-02, -2.76043452e-02, -2.76576057e-02,
          -9.99745261e-03, -4.67995321e-03, 9.80482064e-03,
          2.62294877e-02, 2.07387004e-02, -3.16864322e-03,
          -2.05826871e-02, -2.41948180e-02, -2.41908431e-02,
          -6.02726778e-03, -1.87723315e-04, 5.51138120e-03,
          2.65684295e-02, 1.90713685e-02, -9.51862615e-03,
          -8.49247817e-03, -1.35055268e-02, -2.06098165e-02,
          -1.87755395e-02, -1.29311895e-02, -4.95822029e-03,
          1.90687701e-02, 3.21971029e-02, 4.88969870e-03, 1.08947814e-03,
          -1.05943633e-02, -2.75863651e-02, -2.76971720e-02,
          -1.78455971e-02, -5.87610714e-03, 3.09426282e-02,
          3.01480182e-02, 6.42812112e-04, -3.79907060e-03,
          -1.15069570e-02, -2.73704231e-02, -2.74234731e-02,
          -1.94566306e-02, 6.83445251e-04, 2.97007971e-02,
          2.02504024e-02, -7.72997970e-03, -9.20367427e-03,
          -9.29501653e-03, -2.68517435e-02, -1.34182200e-02,
          -1.83213670e-02, -8.30779597e-03, 2.02207342e-02,
          1.78331118e-02, -5.65966871e-03, -1.47524960e-02,
          -1.34257618e-02, -2.33564619e-02, -1.39805870e-02,
          -1.14722308e-02, -3.49951210e-03, 1.98738948e-02,
          1.98706705e-02, -1.30252356e-05, -2.60457420e-03,
          -2.49196496e-02, -1.91787966e-02, -6.99513452e-03,
          1.36391381e-02, 2.14043390e-02, 2.40439661e-02, 3.31166969e-03,
          6.60882739e-04, 4.23545629e-04, -1.48650706e-02,
          -1.55814113e-02, 8.31193384e-03, 1.92782134e-02,
          1.92902815e-02, 1.70433465e-02, -7.70762214e-04,
          4.43811849e-04, 1.09808112e-04, 4.17623924e-05, 4.78768675e-03,
          -6.28745276e-03, -1.00772851e-03, 1.93665055e-05,
          -2.59673780e-05, 3.07248253e-03, 2.15678057e-03,
          2.05411972e-03, -2.89977761e-03, 5.57356339e-04,
          5.23075869e-04, 1.42857432e-03, 5.02076990e-04, 2.41404190e-03,
          1.19370699e-03, 2.06941087e-03, 3.37443943e-03, 2.39487574e-03,
          -1.84417726e-03, -2.42653070e-03, 2.35842177e-04,
          1.20395242e-04, 4.13351954e-04, 8.27653147e-03, 1.24248127e-02,
          4.29189811e-03, -1.84174709e-03, -3.61303939e-03,
          -4.45894804e-03, -1.15208665e-03, -1.89669617e-03,
          1.74791028e-03, 8.57885089e-03, 6.44735899e-03, 5.43281224e-08,
          -4.68845479e-03, -2.73439335e-03, -5.39105060e-03,
          -2.00656056e-03, -3.27576045e-03, 8.68397858e-03,
          8.68165493e-03, 4.10824362e-03, -2.54376163e-03,
          -7.82813970e-03, -8.20260029e-03, -6.79484010e-03,
          -2.46628479e-04, 9.00734158e-04, 5.20781986e-03,
          2.11099740e-02, 1.44583704e-02, 7.82101508e-03,
          -2.20254920e-02, -1.94677953e-02, -5.31270541e-03,
          3.05131008e-03, 3.81899904e-03, 1.93209723e-02, 2.40797456e-02,
          1.74021907e-02, 9.05961636e-03, -2.49472074e-02,
          -2.37169974e-02, -1.06107793e-03, 1.03054680e-02,
          1.06960665e-02, 2.39434764e-02, 2.39930023e-02, 1.44727090e-02,
          1.20835584e-02, -1.11084031e-02, -2.56208461e-02,
          -1.19352844e-02, 1.04908990e-02, 1.13979075e-02,
          2.39387844e-02, 2.54270751e-02, 1.42406859e-02, 1.07106008e-02,
          -1.06419940e-02, -2.42233146e-02, -1.19265327e-02,
          8.57201964e-03, 1.05074868e-02, 2.54253168e-02, 2.50839628e-02,
          8.96939728e-03, -2.95931444e-04, -1.16218030e-02,
          -1.24043813e-02, -2.64656767e-02, -8.74008890e-03,
          9.74934548e-03, 2.46109273e-02, 1.06480084e-02,
          -1.67527399e-03, -8.91668838e-04, -7.45242648e-03,
          -8.35777912e-03, -1.26112597e-02, -1.14362994e-02,
          3.50401760e-03, 1.33100925e-02, 6.66801119e-03,
          -3.86826461e-03, -1.70625641e-03, -7.43622193e-03,
          -6.65658247e-03, -4.74088686e-03, -2.10870127e-03,
          2.33488274e-03, 8.16729944e-03, 1.05221116e-03,
          -9.59320692e-04, -1.56576210e-03, -3.88281862e-03,
          -5.60142146e-03, 4.76265419e-03, 7.33697228e-03,
          4.16622404e-03, 9.17577092e-03, 1.14993372e-05,
          -4.39844036e-04, -2.31677070e-04, -1.42499269e-03,
          -3.85737303e-03, 7.26922136e-03, 2.26580445e-03,
          6.10793650e-04, 2.65138515e-04, -8.81312299e-04,
          -8.03721254e-04, -5.38833730e-04, -1.17627624e-02,
          3.87812406e-03, 8.42863414e-03, 2.15966604e-04,
          -6.72234281e-04, -9.65719461e-04, 3.37456889e-03,
          1.98139343e-03, -4.94880485e-04, 8.17137538e-04,
          -1.23752817e-03, -7.37520517e-04, -5.38410677e-05,
          -2.65097915e-04, 1.65350421e-03, 6.55222934e-08,
          6.61840197e-04, 1.55827997e-03, 1.01671172e-02,
          -9.17276833e-04, -4.10525966e-03, -2.27409555e-03,
          -2.53029377e-03, -1.28117611e-03, 1.74877976e-04,
          2.92762928e-03, 3.76145658e-03, 4.18477366e-03, 2.95737467e-04,
          -3.29442509e-03, 6.69036526e-04, -2.20468035e-03,
          -2.39440799e-03, -2.25251797e-03, 6.20061182e-04,
          2.77832127e-03, 4.24480671e-03, -1.35829346e-03,
          -2.14555723e-04, 4.21919348e-03, 2.41062162e-03,
          -2.25251797e-03, -9.05389548e-04, -1.21626770e-02,
          -3.40383919e-03, -2.30578100e-03, -6.84051993e-05,
          3.97552783e-03, 7.13847904e-03, 8.34436435e-03, 1.73760788e-03,
          1.40914749e-02, -1.28478669e-02, -1.72632150e-02,
          -2.03663949e-02, -1.84037164e-02, 1.25297112e-03,
          5.37783094e-03, 8.25096015e-03, 2.29409039e-02, 2.72060782e-02,
          -9.40533355e-04, -1.85882226e-02, -2.72707772e-02,
          -2.31842026e-02, -9.90405213e-04, 3.10883368e-03,
          8.30033608e-03, 2.95067243e-02, 2.89933793e-02, 5.64550469e-03,
          -1.31710258e-03, -1.34023009e-02, -2.31443364e-02,
          -2.32208408e-02, -7.93708488e-03, 5.73303131e-03,
          2.90408880e-02, 2.90196370e-02, 8.37173779e-03, 2.61686812e-03,
          -1.62672705e-03, -2.26513855e-02, -2.00917274e-02,
          -1.36423251e-02, -6.64896611e-03, 2.20372286e-02,
          8.60688183e-03, 1.14994524e-02, 4.24984982e-03,
          -5.63587004e-04, -1.24294460e-02, -1.44110499e-02,
          -8.41212180e-03, -5.31182671e-03, 5.66094695e-03,
          1.56637549e-03, 5.06572705e-03, 3.69639602e-03, 1.74466649e-03,
          6.46927278e-04, -2.95339298e-04, -4.58039902e-03,
          -5.36389230e-03, 9.02511994e-04, -2.43623115e-04,
          2.23399303e-03, 4.78976034e-03, 2.26641377e-03,
          -1.96073030e-04, 8.94422585e-04, -2.25155987e-03,
          -3.94495111e-03, -2.43623115e-04, -2.82265199e-03,
          -3.18951393e-03, 1.77500094e-03, 1.01804349e-03,
          1.01804349e-03, 4.43611108e-03, 1.36541552e-03,
          -5.97392325e-04, -4.86449804e-03, 6.30021023e-05,
          7.98647583e-04, 4.86054597e-03, -4.28154878e-03,
          -3.88529943e-03, 7.17639131e-03, 6.46103546e-03,
          2.50906148e-03, 1.63391102e-04, 7.44659454e-04, 7.98121891e-06,
          1.98876811e-03, -5.77746052e-03, 1.66778325e-03,
          3.72893782e-03, 9.28741298e-04, 6.22121035e-04, 6.07060909e-04,
          1.77720096e-03, 3.53502063e-03, 9.10514558e-04,
          -4.38943133e-03, 1.54035326e-04, 1.00431638e-03,
          1.12459285e-03, -3.85145820e-03, -1.07750029e-03,
          4.06602630e-03, 3.23082349e-04, 1.70751358e-04, 1.67432928e-03,
          1.67560857e-03, -5.79303538e-04, 4.92169522e-04,
          -9.20115213e-04, -3.08491895e-03, 1.47310318e-03,
          1.83393457e-03, 7.70539977e-04, 5.12457336e-04, 5.17020584e-04,
          -3.77516757e-04, 2.47270335e-03, -7.03064678e-03,
          1.47310318e-03, -1.08348194e-03, 4.79172077e-03,
          1.24469888e-03, 1.06173265e-03, 7.36638613e-04, 9.01408261e-04,
          2.63046799e-03, -5.74882375e-04, -1.08348194e-03,
          1.01266138e-04, -2.76811887e-03, -1.06606912e-03,
          5.13003324e-04, 5.87385264e-04, 5.94674028e-04, 1.43472338e-03,
          -1.16032141e-03, 2.03972636e-03, 2.49076262e-03,
          -2.20371298e-02, -8.72285664e-03, -2.34333402e-03,
          -1.86055462e-04, 2.31297265e-04, 1.11814195e-04,
          2.24651163e-03, 1.82550419e-02, 9.64118540e-03,
          -1.60876382e-02, -2.26667766e-02, -1.99851729e-02,
          -5.39140822e-03, -5.31016989e-03, -1.59442658e-03,
          3.05157807e-03, 2.41580270e-02, 2.15347242e-02,
          -3.78608657e-03, -9.22864489e-03, -7.13530835e-03,
          -1.34896515e-02, -1.97586920e-02, -1.95676610e-02,
          -1.18005080e-02, 1.34902261e-02, 1.99115332e-02,
          1.18405174e-03, -2.94866099e-04, 3.79888952e-05,
          -4.20866115e-03, -1.11351525e-02, -1.74628384e-02,
          -1.94885768e-02, 6.63958350e-03, 2.12423597e-03,
          1.25068869e-03, 1.48204053e-04, 8.45369686e-06,
          -2.11605351e-04, -4.46643942e-04, -2.79204315e-03,
          -9.29511432e-03, 2.12423597e-03, 3.74633062e-04,
          4.31176974e-04, -2.86008435e-04, 8.96185011e-05,
          -1.63140285e-04, 4.31535482e-05, -3.63435429e-05,
          -2.08367896e-03, 8.75468395e-05, -8.24866001e-04,
          4.28522006e-04, 1.49305174e-06, 5.20185531e-05, 3.26016510e-04,
          1.34289119e-04, 8.25502269e-04, 2.35918444e-03,
          -8.24866001e-04, -1.73133449e-03, 2.61217589e-03,
          3.90357687e-03, 8.33723287e-04, 6.81489066e-04, 6.04083703e-04,
          1.60414260e-04, 9.63583661e-05, -2.79794424e-03,
          -6.59594603e-04, 5.09407779e-04, 5.09407779e-04,
          -1.01672544e-03, -1.06381904e-03, 2.89413286e-03,
          3.05655645e-03, 1.20678951e-03, -2.11663102e-03,
          -3.45765933e-04, 1.91180699e-03, -2.71088886e-03,
          -5.15513215e-03, 2.07145046e-03, 5.29791461e-03,
          2.47336575e-03, 1.20379624e-03, -6.55747936e-05,
          -1.33891951e-03, 1.89951970e-04, 1.90052378e-04,
          6.58575373e-05, -1.12881768e-03, 2.53317459e-03,
          -1.78905961e-03, 4.59621690e-04, -8.31897254e-04,
          3.40353674e-03, -2.63760565e-03, 1.66150404e-03,
          1.03228004e-03, 8.29931407e-04, -1.18775744e-04,
          -1.38978823e-04, -4.13909974e-03, 8.11728416e-04,
          -1.70533767e-03, 3.22339335e-03, 5.35472948e-03,
          3.93005321e-03, 3.78581742e-03, 3.50225787e-03, 4.82345046e-03,
          -5.62422862e-03, -1.70533767e-03, -4.36829403e-03,
          4.61512478e-03, 5.26053179e-03, 5.51266735e-03, 5.29015204e-03,
          5.31349424e-03, 4.89334948e-03, 5.09782520e-04,
          -4.36829403e-03, -2.08371924e-03, 2.95361970e-03,
          2.60942080e-03, 2.26456183e-03, 1.38597505e-03, 2.93964101e-03,
          4.25134460e-03, 5.48670010e-04, -2.08371924e-03,
          -7.90633669e-04, -1.42947184e-02, -1.52051996e-03,
          7.86984107e-04, 1.18505710e-03, 8.59063584e-04, 2.76653701e-03,
          7.59498775e-03, 6.12125918e-03, -3.55372974e-03,
          -1.38181513e-02, 2.13036477e-03, 1.43418997e-03,
          1.18660019e-03, -1.87318248e-04, 3.10325902e-03,
          8.43276363e-03, 1.21097649e-02, 5.75414114e-03,
          -5.87376591e-04, -1.62420527e-03, 9.43418359e-04,
          1.52341067e-03, -2.39689113e-03, 5.07595623e-03,
          -1.34024099e-02, 1.40794122e-03, 4.20626439e-03,
          6.91998843e-03, 4.05774597e-04, 2.05048535e-04,
          -4.56637237e-04, -1.19367172e-03, -2.62199854e-03,
          -1.63066965e-02, 3.81203135e-03, -2.82705785e-03,
          5.57289226e-03, 3.35435709e-03, 1.44633115e-03, 1.22402635e-04,
          2.55507347e-03, 2.73563154e-03, 2.60529749e-04,
          -2.82705785e-03, 1.27169304e-03, -1.90634036e-03,
          -3.95543361e-03, 8.06503580e-04, -9.21372775e-05,
          1.29505375e-03, 2.10843957e-03, 1.45644951e-03, 1.27169304e-03,
          -2.08054390e-03, 3.29230679e-03, 2.19696644e-03,
          2.46037380e-03, 2.72436021e-03, 1.51705812e-03, 2.11639632e-03,
          1.96342706e-03, -2.08054390e-03, -1.00818358e-03,
          -4.90674109e-04, 3.05435364e-03, 1.81763177e-03,
          1.24753988e-03, 1.57206575e-03, 2.20236066e-03, 1.03813410e-03,
          -1.00818358e-03, 2.46301090e-04, 2.46301090e-04,
          2.37069395e-03, 1.97053398e-03, 2.03194586e-03, 1.05484028e-03,
          1.06446992e-03, 3.86295433e-04, -4.46017133e-03,
          4.04200546e-04, 9.97966272e-04, 9.97966272e-04,
          -2.08881521e-03, -1.28103216e-04, 1.35512126e-03,
          2.42700145e-04, 1.30645829e-04, -7.58759794e-04,
          1.85525292e-04, -2.31288187e-03, -2.35323841e-03,
          -2.92033027e-03, 7.03079801e-04, 1.42341014e-03,
          -1.27022364e-03, 8.32351216e-04, 1.58432743e-03,
          9.33236210e-04, 2.08288675e-05, 5.94818266e-04,
          -4.88061924e-05, 5.10946229e-05, -8.33131271e-05,
          -4.84524178e-04, -4.59104264e-03, 9.33236210e-04,
          -7.83358118e-04, 1.55462138e-03, 1.41364930e-03,
          2.73795391e-04, 1.02180071e-04, 4.20223068e-06, 1.47119266e-04,
          7.26728002e-04, -7.83358118e-04, -5.67702344e-04,
          3.78046161e-03, 8.44719470e-04, 2.37226195e-04, 1.87407586e-05,
          2.56382446e-05, 9.76618612e-04, 1.85610959e-03,
          -5.67702344e-04, 2.21860057e-04, 2.44638941e-04,
          2.78339983e-04, 8.58315907e-05, -7.08265434e-05,
          -2.51426700e-05, 1.32531812e-03, -7.71359657e-04,
          2.21860057e-04, -1.48172351e-03, -1.27581675e-02,
          6.99500233e-05, -5.14988324e-06, 4.17218180e-05,
          -1.36088033e-06, 2.70582648e-04, 7.83924107e-03,
          7.80667085e-03, 1.77608314e-03, -2.33847238e-02,
          -3.37620411e-04, -1.24968952e-04, -1.23271457e-04,
          -1.77646798e-05, 2.29598765e-04, 5.13925124e-03,
          1.36608826e-02, 5.92933316e-03, -6.37301384e-03,
          -2.77250045e-04, -6.09645176e-05, -6.84312399e-05,
          -5.04177769e-05, 3.52474395e-04, -1.79850496e-02,
          5.09826886e-03, 3.18553112e-03, 2.66049220e-03, 1.81024923e-04,
          -2.31813556e-05, -4.65029843e-05, 1.86689340e-05,
          -1.49941363e-04, -1.88327767e-02, 3.18553112e-03,
          -5.60958113e-04, 3.72228608e-03, 3.56648205e-04,
          9.22778636e-05, -1.83248176e-05, 5.77943247e-05,
          3.46635934e-04, -6.97293610e-04, -5.60958113e-04,
          9.96161019e-04, -5.68670686e-03, -5.77706378e-04,
          3.28331444e-05, 4.70707673e-05, 1.07283537e-04, 4.05794213e-04,
          2.99227890e-03, 9.96161019e-04, -2.08481943e-04,
          5.56350511e-04, 3.61116312e-04, 2.33514278e-04, 4.52513850e-05,
          4.24603786e-05, 1.14324008e-04, 2.41256063e-03,
          -2.08481943e-04, -1.30860077e-04, 2.89742195e-04,
          2.23047464e-04, 9.84233047e-05, 3.46882625e-05, 1.51284665e-04,
          3.60823848e-04, 1.49377761e-03, -1.30860077e-04,
          -1.38362567e-03, 4.43632202e-03, 1.91624335e-03,
          2.88035051e-04, 8.80700682e-05, 1.29124937e-05,
          -1.95022476e-05, -2.30652324e-04, -2.04884866e-03,
          -5.95353718e-04, 3.47534718e-04, 2.88778509e-04,
          2.49736710e-03, 3.71525384e-04, 2.38967350e-05, 1.95190893e-04,
          6.80056866e-04, -2.03056633e-03 ]
      - [ 1.39939366e-03, 9.52676754e-04, 4.33882559e-03, 7.10729510e-03,
          5.87090803e-03, -2.12508347e-03, -7.14984443e-03,
          -7.47777103e-03, -8.20115954e-03, -2.57497490e-03,
          8.75780731e-03, 3.28917732e-03, 5.52270468e-03, 1.62187358e-03,
          5.27682074e-04, 7.38533156e-04, -7.95121584e-03,
          -4.96023241e-03, -9.57547163e-04, 1.32177702e-05,
          4.98120021e-03, 3.04592564e-03, 1.54847861e-03, 3.08026420e-03,
          1.71148102e-03, -2.12895684e-03, -9.57547163e-04,
          -1.65152224e-03, 6.81609986e-03, 5.56104165e-03,
          4.42502275e-03, 2.86332751e-03, 4.00040625e-03,
          -8.09367630e-05, -4.63448931e-03, -1.65152224e-03,
          -1.26794621e-03, 4.25360282e-04, 9.50853340e-04,
          2.98842415e-03, 2.30254349e-03, 4.24023485e-03, 2.51333485e-03,
          -5.42312220e-04, -1.26794621e-03, -2.18372839e-03,
          -1.59714808e-04, 5.52383391e-03, 2.07615737e-03,
          9.57197219e-04, 4.27101011e-04, 1.64777925e-03, 5.55538340e-03,
          -2.18372839e-03, -1.85486744e-03, 1.47764385e-03,
          5.43213822e-03, 2.87885591e-03, 1.81744026e-03, 3.34682688e-03,
          1.07001269e-03, -5.36306121e-04, -1.85486744e-03,
          3.71167366e-03, -1.57407776e-03, 3.03566285e-05,
          8.56239694e-07, 2.27902131e-03, 5.46660973e-04,
          -5.04940655e-03, -1.06854821e-02, 3.71167366e-03,
          5.47141302e-03, 5.90017857e-03, 1.18166464e-03,
          -3.69366701e-03, -1.26544833e-02, -5.85520733e-03,
          -6.15847902e-03, -8.40438437e-03, 4.66533611e-03,
          1.97469369e-02, 9.66290012e-03, 5.90001279e-03,
          -1.35915736e-02, -1.85343344e-02, -1.95535328e-02,
          -5.97097632e-03, 3.18773906e-03, 1.46283414e-02,
          2.69894768e-02, 6.05172757e-03, -1.47435479e-04,
          -1.56943370e-02, -2.15884205e-02, -2.29893588e-02,
          -8.58233124e-03, 1.41923886e-03, 2.55158637e-02,
          2.12941729e-02, 5.62756788e-03, -3.45317228e-03,
          -1.02882106e-02, -2.07045395e-02, -1.87305734e-02,
          -1.45453187e-02, -1.43572025e-03, 1.88305583e-02,
          1.36598609e-02, -9.98039637e-03, -1.15961805e-02,
          -6.95883250e-03, -1.63537227e-02, -7.57891312e-03,
          -7.94189144e-03, 6.89781853e-04, 1.21703083e-02,
          1.35591021e-03, -9.04130563e-03, -1.00328596e-02,
          -6.76206173e-03, -1.89743806e-02, -3.79268243e-03,
          3.49864084e-03, 1.06418310e-02, 9.24095139e-03,
          -1.43877352e-02, -9.48059000e-03, -1.19336424e-02,
          -9.74069524e-04, -1.64644001e-03, 1.04159666e-02,
          6.01036241e-03, 7.49632716e-03, 1.81381754e-03,
          -8.54856428e-03, 7.94174033e-04, 6.37841271e-03,
          1.64668262e-02, 1.59831196e-02, 6.78948499e-03,
          -1.53428805e-03, -1.60087105e-02, -1.63058527e-02,
          -1.00256819e-02, 1.07932650e-02, 1.71996802e-02,
          1.80898104e-02, 1.76196080e-02, 2.66451319e-03, 5.76042221e-04,
          -4.96759638e-03, -2.22526826e-02, 2.34983221e-04,
          1.10642975e-02, 9.25119407e-03, 5.79653401e-03, 3.34534887e-03,
          6.54519477e-04, -7.48738021e-05, -3.02540464e-03,
          -1.48573900e-02, 1.10797257e-04, 9.56043135e-03,
          2.19409051e-03, 9.63780738e-04, 8.19114211e-04, 6.48717221e-04,
          6.85989391e-04, -8.00141413e-03, 1.10797257e-04,
          -4.63009434e-04, -2.41828430e-03, 8.38441425e-04,
          9.52338858e-04, 5.41071349e-04, 5.46124247e-05, 4.21706494e-03,
          3.06938752e-03, -4.63009434e-04, -1.89749524e-03,
          6.52364804e-04, 1.85193529e-03, 2.18174275e-04, 1.71744134e-04,
          2.65785616e-06, 1.03941222e-03, 7.45231519e-03,
          -1.89749524e-03, 6.43077190e-04, 8.49830825e-03,
          6.53970346e-04, -1.06480315e-04, -1.80020824e-03,
          -1.66151859e-03, -2.95113237e-03, -7.55550526e-03,
          6.15512428e-04, 1.68101899e-02, 1.44907762e-03, 4.93770349e-04,
          -9.54051269e-04, -1.58795770e-02, -1.75683424e-02,
          -1.66186523e-02, -1.14132222e-02, 1.01466002e-02,
          2.33665593e-02, -1.14898791e-03, -4.54161130e-03,
          -1.15807690e-02, -1.95718817e-02, -1.96801145e-02,
          -1.61588881e-02, -9.99127422e-03, 2.09068581e-02,
          2.68089864e-02, 4.22339328e-03, 6.43793974e-05,
          -2.25231797e-02, -3.20092700e-02, -9.75365937e-03,
          6.53501338e-05, 6.92885183e-03, 2.70331334e-02, 2.85737980e-02,
          -1.78060909e-05, -3.67654255e-03, -2.03021280e-02,
          -2.57809535e-02, -2.24759355e-02, -3.17118946e-03,
          4.04259702e-03, 2.85870824e-02, 2.46364959e-02,
          -1.84108340e-03, -9.75595601e-03, -1.20463604e-02,
          -2.23677997e-02, -1.89145431e-02, -1.42429881e-02,
          -5.63720893e-03, 2.37080231e-02, 7.22342264e-03,
          -8.06115661e-03, -1.26024103e-02, -5.78544429e-03,
          -7.70638278e-03, -1.02906837e-03, -1.31484692e-03,
          5.83358388e-03, 7.82469660e-03, -1.03465281e-02,
          -1.22350631e-02, -9.53540485e-03, 3.38962593e-04,
          -1.60310534e-03, 1.03064831e-02, 3.94449243e-03,
          4.64030774e-03, 1.64049445e-03, -1.16884159e-02,
          -9.89457592e-03, -9.83155891e-03, 1.40431011e-02,
          1.17047215e-02, 5.18304482e-03, -1.40663842e-02,
          -1.00945821e-02, -1.18018081e-02, -1.66956577e-02,
          -1.47411581e-02, -7.25666899e-03, 1.42269656e-02,
          2.21088417e-02, 1.15459347e-02, -4.37946385e-03,
          -8.69195443e-03, -1.41767003e-02, -2.24096179e-02,
          -2.02064514e-02, -3.80229717e-03, 2.43526287e-02,
          2.68134512e-02, 9.12585296e-03, -1.87739765e-03,
          -3.44320014e-03, -2.32117418e-02, -1.58249140e-02,
          -2.21533841e-03, 1.07014421e-02, 1.99802741e-02,
          1.83755998e-02, 1.21244499e-02, 4.94834676e-04,
          -6.09099027e-03, -2.29323059e-02, -9.38785449e-03,
          9.87296458e-03, 1.35458009e-02, 1.12984451e-02, 1.35031892e-02,
          8.30210000e-03, 8.10351316e-03, -4.59821289e-03,
          -1.21954596e-02, -4.71942220e-03, -4.95190441e-04,
          9.65785887e-03, 6.46500383e-03, 8.60269088e-03, 2.17776909e-03,
          8.06727074e-03, 5.92338212e-04, -6.49832189e-03,
          -4.97082388e-03, 2.44119391e-03, 8.35248176e-03,
          6.38985075e-03, 7.29901716e-03, 1.44232973e-03, 3.59642855e-03,
          1.82540191e-03, -4.97082388e-03, -2.40180801e-04,
          9.48703557e-04, -6.83173712e-04, -7.82149658e-03,
          -2.34894268e-03, 1.31576392e-03, 5.25287166e-03,
          2.07088585e-03, -3.59318394e-04, 1.51847098e-02,
          5.48348762e-03, -8.18751811e-04, -1.60377137e-02,
          -1.64280515e-02, -6.03241893e-03, 5.47841284e-03,
          8.52330960e-03, 1.85254011e-02, 1.94826555e-02, 1.06734829e-02,
          -1.10947562e-03, -1.57768447e-02, -1.44844400e-02,
          -1.47091551e-02, 2.76794028e-03, 7.24132359e-03,
          2.07375139e-02, 2.38595624e-02, 9.78566520e-03, 7.04477401e-03,
          -7.93086458e-03, -1.36247426e-02, -2.63392441e-02,
          -3.75716435e-03, 7.16755493e-03, 2.37466581e-02,
          2.04220042e-02, 8.59113224e-03, 7.68754585e-03,
          -7.52986642e-03, -6.41352404e-03, -1.90693066e-02,
          -8.52518622e-03, -3.36438022e-03, 8.02429300e-03,
          2.94909207e-03, 5.60395792e-03, 3.80640430e-03, 3.08877369e-03,
          6.48376066e-04, -5.07858023e-03, -5.48856845e-03,
          -9.33139294e-04, 3.66415712e-04, -2.27351859e-02,
          -3.45968781e-03, -3.37273953e-03, 1.56987775e-02,
          1.83483921e-02, 1.69604532e-02, 1.08674972e-03,
          -1.13165621e-02, -1.51856933e-02, -2.41780486e-02,
          -7.58104119e-03, -2.27289670e-03, 1.78068168e-02,
          2.34160759e-02, 1.36547266e-02, -5.41458232e-03,
          -1.58371702e-02, -2.42196899e-02, -2.20943391e-02,
          -7.76921352e-03, -1.48885534e-03, 1.40992878e-02,
          2.20069252e-02, 1.39566101e-02, -7.85380788e-03,
          -1.70355160e-02, -2.30776854e-02, -7.24679744e-03,
          -1.82812996e-02, -1.85978059e-02, 2.03573052e-03,
          1.65775586e-02, 1.85471661e-02, 2.24228948e-03, 6.71089336e-04,
          1.07466872e-03, -2.22616307e-02, -2.22048704e-02,
          -1.51789831e-02, 1.17886364e-02, 2.35656109e-02,
          2.09610015e-02, 6.66420627e-03, 4.38010274e-03,
          -9.04393755e-03, -1.41649386e-02, -9.56940651e-03,
          3.04112583e-03, 9.74752195e-03, 1.79120321e-02, 1.55715700e-02,
          1.26208849e-02, 1.14470394e-02, -1.20249894e-02,
          -5.02320100e-03, 4.39474825e-03, 6.26402907e-03,
          5.40541578e-03, 6.92674611e-03, 3.68306483e-03, 9.21789743e-03,
          6.27208082e-03, -5.02320100e-03, -4.05885512e-03,
          -1.26770430e-03, 5.83785120e-03, 2.71278922e-03,
          5.19058155e-03, 5.71010914e-03, 8.80416669e-03, 5.51735004e-03,
          -2.37564859e-03, -3.13508930e-03, 1.65962824e-03,
          2.53512082e-03, 9.16378805e-04, 3.41128861e-03, 3.58976098e-03,
          5.44661377e-03, 5.94287692e-03, -2.99815484e-03,
          -2.05872068e-03, -5.36678545e-03, -1.40063828e-04,
          -3.28284717e-04, 4.44740942e-03, 3.66295269e-03,
          3.66923539e-03, 5.10975672e-03, 3.76054714e-03, 5.26186777e-03,
          -1.35370465e-02, -1.50108710e-02, -1.44203883e-02,
          -5.26494486e-03, 3.75849195e-03, 3.50498734e-03,
          7.66152889e-03, 1.86933838e-02, 1.32279946e-02,
          -7.48169841e-03, -1.50283193e-02, -1.55016473e-02,
          -1.03777982e-02, -7.05805374e-03, -5.91486366e-03,
          2.41865125e-03, 1.83791853e-02, 2.20006276e-02, 7.91949779e-03,
          2.21330137e-03, -8.41500587e-04, -1.10418219e-02,
          -1.80260763e-02, -1.33955916e-02, -4.04471252e-03,
          6.37676707e-03, 9.89050884e-03, 6.30595023e-03, 4.81412653e-03,
          2.45244429e-03, 2.42662639e-03, -2.68229167e-03,
          -4.42736084e-03, -1.22862207e-02, 3.64530657e-04,
          -5.46536362e-03, 1.33800209e-02, 8.86213314e-03,
          7.35878851e-03, 6.95524737e-03, 3.30526126e-03, 2.18304340e-03,
          2.92902091e-03, -5.46536362e-03, -1.75663810e-02,
          7.57557573e-03, 1.08417729e-02, 2.36148052e-02, 2.36000959e-02,
          9.52592678e-03, 1.57509698e-03, -4.06798115e-03,
          -2.44589467e-02, -2.69529913e-02, 1.29388261e-03,
          9.36573464e-03, 2.38083266e-02, 2.42733657e-02, 1.26818540e-02,
          6.33588387e-03, -8.40637926e-03, -2.78283563e-02,
          -6.15702663e-03, 6.03384455e-04, 4.29236749e-03,
          1.97821334e-02, 2.31118016e-02, 4.73324815e-03,
          -1.55896945e-02, -2.05289051e-02, -2.06890944e-02,
          5.02808532e-03, -3.04745650e-03, -9.20538139e-03,
          -5.02909534e-03, 2.56540067e-03, 2.56540067e-03,
          7.62194162e-04, -2.73421523e-03, 1.84272102e-03,
          2.27251649e-03, -1.32343741e-02, -1.51456883e-02,
          -9.58006922e-03, 1.73951802e-03, 6.56643277e-03,
          5.99371595e-03, 2.94286385e-03, 1.31538336e-03, 2.27397060e-04,
          -9.06861760e-03, -2.55550048e-03, -4.27868974e-04,
          6.96643954e-04, 1.27548375e-03, 3.91930947e-03, 2.79275072e-03,
          2.27397060e-04, 6.72808266e-04, 8.23163253e-04, 1.12359901e-03,
          3.95898271e-04, 1.32531859e-04, 6.70143345e-04, 1.02081838e-04,
          -4.24248399e-03, 6.72808266e-04, 1.96243884e-04,
          1.01136265e-03, 2.53897480e-04, 4.07220912e-04, 2.41035625e-04,
          3.44272063e-04, 6.61009632e-04, -5.81584685e-03,
          1.96243884e-04, 9.69637244e-04, -1.53912569e-03,
          -7.85427983e-04, -5.36856358e-04, -8.78332241e-04,
          -6.30278228e-05, -1.38599542e-03, -7.50790536e-03,
          9.69637244e-04, 3.84085230e-03, -8.24986864e-03,
          -2.86618574e-03, -1.17097434e-03, -5.15106076e-04,
          -2.23539304e-04, -2.88301311e-03, -7.45118177e-03,
          3.84085230e-03, 7.87717290e-03, -1.16243716e-02,
          -3.75192938e-03, -6.71812508e-04, -5.45536284e-04,
          -4.82702832e-04, -9.45171621e-03, -1.48829455e-02,
          7.87072722e-03, 1.05291214e-02, -1.47627732e-02,
          -1.04238912e-02, -4.62684734e-03, -5.80505421e-03,
          -6.91249827e-03, -1.13295782e-02, -1.05087440e-02,
          1.03029069e-02, 8.54899734e-03, -1.81894060e-02,
          -4.73981537e-03, -1.65560062e-03, -1.92119693e-03,
          -2.06528464e-03, -6.23448333e-03, -1.54505065e-02,
          8.54899734e-03, 3.59973265e-03, -1.00233117e-02,
          -2.09740945e-03, -6.53349096e-04, -7.77466747e-04,
          -6.57958211e-04, -1.03217969e-03, -1.10248979e-02,
          3.59973265e-03, 1.84929511e-03, -7.03593018e-03,
          -2.00775103e-03, -5.63392940e-04, -8.99494858e-04,
          -9.12248972e-04, -1.56569295e-03, -6.50943816e-03,
          1.84929511e-03, -5.13823982e-03, 1.54547645e-02,
          1.10305380e-02, 9.66886058e-03, 3.08200717e-03, 6.59948215e-04,
          -2.22042180e-03, -9.04688146e-03, -5.95867820e-03,
          -7.50161987e-03, 2.56817346e-03, 1.03888782e-02,
          1.36077004e-02, 1.48243317e-02, 1.09983142e-03, 1.67597173e-04,
          -9.13468935e-03, -1.92964114e-02, -6.67956984e-03,
          -8.88386089e-03, -6.14801561e-03, 5.76516334e-03,
          1.06532006e-02, 3.39164701e-03, -9.64775495e-03,
          -1.06084375e-02, -8.63356330e-03, -1.41042890e-03,
          -4.82520321e-03, -1.19647034e-03, 9.39629099e-04,
          3.23373615e-03, -5.11700660e-03, -1.95952249e-03,
          8.09604593e-04, 1.84675131e-03, 1.99414184e-03, 2.78543215e-03,
          2.10192753e-03, 1.37047423e-03, 1.58925180e-03, 5.67407988e-04,
          3.46556399e-03, -6.13479037e-03, -5.71645272e-04,
          -4.66042850e-03, 7.93195423e-03, 5.85249020e-03,
          3.51052522e-03, 4.44610696e-03, 3.40404501e-03, 5.39406110e-03,
          2.71868170e-03, -4.66042850e-03, -3.28992005e-03,
          7.11943209e-03, 4.57707653e-03, 3.15584149e-03, 4.53275302e-03,
          4.99850884e-03, 6.76140049e-03, -2.63878785e-04,
          -3.28992005e-03, -6.91241934e-04, -1.03156570e-04,
          4.48592100e-03, 2.33865413e-03, 2.04272545e-03, 3.08217271e-03,
          7.31106568e-03, -4.08272399e-03, -6.91241934e-04,
          -1.79807865e-03, 4.72344749e-04, 2.36209692e-03,
          1.03391451e-03, 1.44944002e-03, 1.04212866e-03, 3.28510185e-03,
          5.26817376e-03, -1.79807865e-03, -1.04233949e-03,
          1.08656427e-02, 2.17266846e-03, 8.33580678e-04, 1.40221626e-03,
          5.79028856e-04, 8.92985961e-04, -5.85781224e-03,
          -1.04233949e-03, 1.48026748e-02, 5.91586996e-03,
          5.57457504e-04, 8.86410300e-04, 9.39318386e-04, 4.36592003e-04,
          -1.08443536e-02, -1.37106329e-02, 1.44020026e-03,
          5.11814514e-03, -5.17974980e-03, 1.19915744e-03,
          1.11448148e-03, 1.92893529e-03, 6.35584700e-04,
          -3.36919003e-03, -1.07227946e-02, 4.63640690e-03,
          -6.91582507e-04, -1.77627094e-02, -2.11574859e-03,
          5.65465249e-04, 8.82658700e-04, 1.97084155e-03, 3.31320544e-03,
          8.14457145e-03, 1.17363175e-02, -4.64128272e-04,
          -1.18452553e-02, -5.60197688e-04, 5.34818864e-05,
          1.93712025e-04, 8.53894860e-04, 2.68460205e-03, 7.63100106e-03,
          5.00427699e-03, -7.26717932e-04, 7.09529733e-04,
          5.11284452e-04, -7.35243702e-07, 3.41094797e-04,
          3.96667834e-04, 3.52759031e-04, 6.62780460e-03,
          -7.26717932e-04, -1.46579742e-03, 9.76034626e-03,
          2.89096986e-03, 3.22324660e-04, 1.41613162e-03, 2.95452774e-04,
          2.90587283e-04, 1.57253258e-03, -1.46579742e-03,
          -3.52554140e-03, 3.05471942e-03, 1.31758936e-02,
          5.87881636e-03, 4.04633256e-03, 1.67701871e-03, 1.60908105e-03,
          7.65271834e-04, -7.82548077e-03, -1.14355944e-02,
          -1.02022639e-03, 2.50614318e-03, 7.83383567e-03,
          1.25107290e-02, 2.13480252e-03, 3.11772921e-04,
          -8.20671383e-04, -7.95322191e-03, -2.90643121e-03,
          -3.99762113e-03, -6.48549758e-03, -3.57194850e-03,
          -7.55710853e-03, -1.53942162e-03, -4.98154107e-03,
          4.56683710e-03, 4.27260483e-03, 5.77274011e-03,
          -2.91082589e-03, -6.70225220e-03, -2.02908134e-03,
          -8.47954396e-03, -4.50596120e-03, -9.28368792e-03,
          -8.63109343e-03, 5.76762855e-03, 4.69819224e-03,
          -1.71807897e-03, -5.33231674e-03, -2.95922230e-03,
          -1.27389384e-02, -2.33485107e-03, -9.33042448e-03,
          -7.65280752e-03, 4.69819224e-03, 5.66556025e-03,
          -6.00142032e-03, -4.73601837e-03, -2.40832078e-03,
          -6.87852455e-03, -1.44297176e-03, -7.96042010e-03,
          -8.72249901e-03, 5.66556025e-03, 3.61390738e-03,
          -8.28157738e-03, -2.09044293e-03, -7.16411159e-04,
          -3.78854643e-03, -1.60964369e-03, -4.18107538e-03,
          -6.21032901e-03, 3.64167267e-03, 3.62338568e-03,
          -1.02566918e-02, -9.39542335e-03, -3.76607012e-03,
          -5.06877154e-03, -1.02646579e-03, -3.65648046e-03,
          -6.70862355e-05, 3.34120495e-03, 5.85172744e-03,
          -4.91548935e-03, -6.79008849e-03, -2.83654477e-03,
          -7.96996802e-03, -8.88394599e-04, -4.16855374e-03,
          -1.42087927e-02, 5.63078653e-03, 1.47473775e-02,
          -1.82622054e-03, -2.11280398e-03, -4.88698599e-04,
          -2.42562732e-03, -4.95751796e-04, -9.35337413e-03,
          -2.00611036e-02, 2.81828595e-03, 6.80097984e-03,
          -1.18394438e-02, -4.77198249e-04, -4.78646980e-05,
          -6.08000322e-04, 5.11147846e-05, -2.06956104e-03,
          -1.75718889e-02, 6.77664718e-03, 1.08155282e-03,
          -2.05070637e-02, -5.60525060e-03, -5.04166237e-04,
          -7.12909852e-04, -3.61331156e-04, -1.95211687e-04,
          3.71667766e-03, 1.51232099e-02, 3.26697878e-03,
          -2.15920750e-02, -6.95888558e-03, -1.86750758e-03,
          -4.20873240e-03, -6.75966847e-04, -2.54794210e-03,
          -4.33868699e-04, 1.04398383e-02, 4.67854971e-03,
          -1.56519841e-02, -7.38431374e-03, -2.53185653e-03,
          -7.38736987e-03, -1.31460454e-03, -4.70780581e-03,
          -1.92289671e-03, 5.16253849e-03, 4.08214284e-03,
          -7.24842213e-03, -6.01375150e-03, -3.37861991e-03,
          -7.76863517e-03, -1.49843306e-03, -5.36237098e-03,
          -9.95547976e-03, 4.08214284e-03, 1.13541808e-03,
          6.81800535e-03, 2.03396054e-03, -3.85667686e-03,
          -6.29249355e-03, -1.87103392e-03, -8.26942269e-03,
          -1.09204147e-02, -1.89816812e-03, 3.46862571e-03,
          7.23310141e-03, 1.00380471e-02, 1.31884284e-04,
          -1.00989807e-02, -4.24483372e-03, -7.27629662e-03,
          -1.21974964e-02, -1.52336936e-02 ]
      - [ -5.26274787e-03, -2.61590740e-05, 5.35954488e-03,
          7.70573691e-03, 1.49646057e-02, 3.27200699e-03, 2.09250534e-03,
          1.85366825e-03, -1.59239210e-02, -5.71378693e-03,
          1.23121915e-02, 4.90454212e-03, 4.48351027e-03, 5.60302753e-03,
          2.15369626e-03, 1.96717121e-03, 3.62520269e-03,
          -6.77593565e-03, -4.10536164e-03, 1.27541078e-02,
          5.62243583e-03, 3.80326901e-03, 2.55492888e-03, 2.26418208e-03,
          3.15903313e-03, 1.26035523e-03, -4.10536164e-03,
          -7.40621937e-03, 1.05361911e-02, 8.03144462e-03,
          6.47107605e-03, 5.32282097e-03, 5.10617997e-03, 6.80396566e-03,
          5.03953733e-03, -7.40621937e-03, -3.05777625e-03,
          1.57287251e-03, 2.79208296e-03, 3.02700070e-03, 2.82169064e-03,
          5.06531913e-03, 4.56936285e-03, 2.15998455e-03,
          -3.05777625e-03, -2.29443400e-03, -2.27555679e-03,
          5.38504031e-03, 1.36501389e-03, 1.02462934e-03, 8.46615236e-04,
          2.31178687e-03, 9.41628963e-03, -2.29443400e-03,
          -3.84339015e-03, 1.20167043e-02, 8.48767441e-03,
          3.54618789e-03, 2.76425062e-03, 3.36452271e-03, 3.68002406e-03,
          9.88701795e-05, -3.84339015e-03, 2.62228725e-03,
          7.49649433e-03, 4.28050710e-03, 1.78802724e-03,
          -9.21458937e-04, -6.60150079e-03, -5.31567447e-03,
          -6.87464559e-03, 2.62228725e-03, 1.84632614e-02,
          9.55863483e-03, 4.17150091e-03, 3.39092547e-03,
          -1.11685172e-02, -1.40311467e-02, -1.55777745e-02,
          -1.12075750e-02, 8.13703425e-03, 1.34455133e-02,
          4.09583980e-03, -2.09153816e-03, -2.30392892e-04,
          -1.33655071e-02, -1.66376475e-02, -1.03419265e-02,
          -3.72443488e-03, 1.11224437e-02, 1.51223484e-02,
          -6.69043791e-03, -1.20116156e-02, -8.30735080e-03,
          -1.72985513e-02, -1.13874162e-02, -9.37129091e-03,
          -4.41469904e-03, 1.61404144e-02, 2.25143787e-02,
          1.20944381e-02, -1.88516744e-03, -1.53367305e-02,
          -1.69072822e-02, -1.83993112e-02, -1.43015934e-02,
          4.99210926e-03, 2.23915409e-02, 2.00357456e-02,
          -4.31562588e-03, -8.29849485e-03, -1.09398579e-02,
          -1.46907028e-02, -1.63439214e-02, -1.14163021e-02,
          8.48791562e-03, 2.08030827e-02, 6.20784331e-03,
          -4.99164872e-03, -1.63321558e-03, -8.06671917e-04,
          -5.10699535e-03, -1.60391573e-02, -7.27459090e-03,
          3.92978406e-03, 9.50767845e-03, 2.03726479e-04, 4.92637977e-04,
          1.05038099e-03, 6.99560437e-03, 7.67945033e-03,
          -3.05802282e-03, -5.37052145e-03, -2.45020632e-03,
          1.21405488e-02, -4.86638444e-03, -5.94142266e-03,
          -7.00708944e-03, 3.85042396e-03, 3.90605559e-03,
          6.38925750e-03, 2.22698739e-03, 2.07927893e-03,
          -2.16488983e-03, -3.09580751e-03, -8.07375298e-04,
          7.44316215e-03, 8.52598343e-03, 8.76864791e-03,
          -4.71076084e-04, -1.01764407e-03, -2.51539121e-03,
          -1.26616517e-02, 2.39053305e-04, 1.19425282e-02,
          5.17945038e-03, 3.89628625e-03, 1.39766419e-03, 5.95258643e-05,
          -4.67325212e-04, -7.87142105e-03, -1.16239088e-02,
          2.19726143e-03, 7.58050010e-04, -1.29389773e-05,
          -5.10463084e-04, -9.09240334e-04, -1.08271185e-03,
          -2.00979668e-03, -7.47347809e-03, 2.19726143e-03,
          3.99024226e-03, -6.48643356e-03, -3.26860463e-03,
          -1.78128527e-03, -2.60342378e-03, -3.22774705e-03,
          -4.49670665e-03, -1.95184222e-03, 3.99024226e-03,
          1.29304233e-03, -2.13485863e-03, 5.21989074e-04,
          -7.99856964e-04, -2.39690184e-03, -3.36121302e-03,
          -2.93276901e-03, 1.24879135e-03, 1.23265199e-03,
          4.67093056e-03, 5.20860124e-03, -3.10572726e-03,
          -5.58621390e-03, -7.37301446e-03, -6.81200949e-03,
          -6.55584829e-03, -1.08522261e-02, 4.67093056e-03,
          1.53702199e-02, 6.41795283e-04, -8.07385892e-04,
          -1.20200031e-02, -2.00669635e-02, -1.92500819e-02,
          -1.01011116e-02, 1.59356903e-04, 1.52609600e-02,
          2.74623968e-02, 4.15360136e-03, 1.31280988e-03,
          -7.78947165e-03, -2.60926634e-02, -2.52745915e-02,
          -9.58921108e-03, -5.55355102e-04, 2.68584397e-02,
          2.41994672e-02, 1.96719007e-03, -4.27842606e-03,
          -1.56521685e-02, -2.18779799e-02, -2.06299089e-02,
          -1.34609910e-02, 9.74749506e-04, 2.37842891e-02,
          1.72349010e-02, -7.48680206e-03, -9.21017304e-03,
          -7.64395436e-03, -1.93191562e-02, -1.36394799e-02,
          -1.46402176e-02, -8.67900997e-03, 1.73378997e-02,
          2.28693113e-02, 2.65859766e-03, -2.83070677e-03,
          -4.35934402e-03, -1.43248634e-02, -2.13590823e-02,
          -2.11623013e-02, -1.21872565e-02, 2.18728147e-02,
          1.79138687e-02, 8.00200447e-04, -9.59060890e-06,
          -2.36630091e-04, -6.32744457e-04, -1.34780724e-02,
          -1.39027666e-02, 5.05134184e-03, 2.21811347e-02,
          2.46694195e-03, 1.04654953e-03, 1.31612807e-03, 1.74013630e-03,
          -3.12588643e-03, -4.56209294e-03, -4.56209294e-03,
          1.00643048e-02, 1.58296544e-02, 3.48718226e-04, 1.30921032e-03,
          3.10917175e-03, 1.00378273e-02, 4.30029538e-03,
          -1.04835453e-02, -1.03951935e-02, -1.00717426e-03,
          2.71220866e-04, -7.20023352e-04, -3.88386310e-03,
          -1.09174410e-02, -2.37938971e-03, 4.36189910e-03,
          5.80209168e-03, -6.48131361e-04, -6.16997073e-04,
          -5.94774145e-04, -1.55184660e-02, -1.53031275e-02,
          -1.39271496e-02, 6.52444409e-03, 1.14102131e-02,
          1.02306232e-02, -5.10994927e-04, -4.52886801e-04,
          -8.34312104e-03, -1.18298158e-02, -8.83008074e-03,
          8.43894668e-03, 1.59336273e-02, 1.76493395e-02, 1.34443967e-02,
          1.17739628e-03, 5.35200570e-06, -1.44140525e-02,
          -9.87236388e-03, 7.53988605e-03, 1.32576376e-02,
          1.11107295e-02, 1.45205911e-02, 7.28315394e-03, 7.81092281e-03,
          9.81440884e-04, -1.13298520e-02, -4.95200092e-03,
          7.65465060e-03, 9.86590236e-03, 8.30358453e-03, 7.62228854e-03,
          3.68016423e-03, 9.70951561e-03, -4.94998880e-03,
          -7.74405804e-03, -1.86275167e-03, 7.43963383e-03,
          1.26670348e-02, 7.33354036e-03, 2.73030344e-03,
          -4.05510329e-03, -1.02795253e-03, -8.71253666e-03,
          -1.93044241e-03, 8.96094553e-03, 1.34345852e-02,
          5.80609078e-03, -3.27096204e-03, -7.68415350e-03,
          -9.96453408e-03, -6.81762025e-03, -7.82451127e-03,
          3.51727474e-03, 1.84689350e-02, 1.44438948e-02, 1.07246293e-02,
          -1.06199179e-02, -1.77277625e-02, -1.45556154e-02,
          5.48215699e-04, 6.20913319e-03, 1.70498062e-02, 2.08002385e-02,
          1.35691511e-02, 1.06266253e-02, -3.91454250e-03,
          -1.96022131e-02, -1.73182059e-02, 6.25489419e-03,
          6.44508796e-03, 2.08081473e-02, 2.10924018e-02, 9.53956135e-03,
          3.26288142e-03, -1.37867592e-02, -1.24920709e-02,
          -2.15134136e-02, -7.97981117e-03, 4.79924073e-03,
          2.09203586e-02, 1.33798504e-02, 3.37061682e-03,
          -2.82530347e-03, -7.09332665e-03, -7.37632578e-03,
          -1.18123991e-02, -9.43623949e-03, 5.61619934e-04,
          1.19029609e-02, 1.17540406e-02, -4.77252761e-03,
          -7.96492957e-03, -7.35648815e-03, -7.64223374e-03,
          -7.10659800e-03, -6.06485177e-03, 4.67980886e-03,
          1.33913774e-02, 2.40332261e-03, -5.35170722e-04,
          -1.28522702e-03, -3.01291374e-03, -6.95389870e-04,
          -3.97640164e-04, -4.21391381e-03, 4.46175225e-03,
          1.10593159e-02, 8.18403860e-05, 1.61824049e-04, 9.31252493e-04,
          1.07296859e-03, 7.99133850e-04, -2.26888550e-03,
          -1.52018573e-03, 5.50321012e-04, 2.40940994e-04,
          -1.51032102e-04, -3.09196679e-04, 1.00199936e-03,
          8.67368130e-04, 3.44715407e-03, -4.57089348e-03,
          -7.71571766e-04, -4.00472229e-04, -9.23587417e-04,
          1.55843585e-03, 1.62788027e-03, -3.96689354e-03,
          -6.71220012e-04, 2.41250661e-03, 1.45626720e-03,
          -2.21251813e-03, -4.37339908e-03, -2.48580473e-03,
          -1.15624431e-03, -1.78563187e-03, -3.38311633e-03,
          -4.90674190e-03, 1.20792002e-03, 4.33367910e-03,
          3.35856783e-03, 1.50365895e-03, 1.73804365e-04,
          -2.75763776e-03, -8.69649369e-03, -6.04770891e-03,
          -7.48107815e-03, -1.27354288e-03, 2.92448117e-03,
          8.09813850e-03, 1.07700052e-02, 8.77683330e-03, 3.98532895e-04,
          -7.47727090e-03, -4.09764703e-03, -2.61644600e-03,
          -2.40376545e-03, -3.21332994e-03, 5.41170081e-03,
          1.14830593e-02, 5.13874460e-04, -1.77540048e-03,
          7.05212587e-04, 1.87494943e-03, -5.10032522e-04,
          3.80023703e-04, 3.83280101e-03, 1.76816096e-03,
          -4.15977091e-03, -2.73699989e-04, 1.10645434e-02,
          5.72055206e-03, 1.70935993e-03, -9.82884597e-03,
          -1.54365627e-02, -1.31327547e-02, -1.32969324e-03,
          1.51403144e-03, 6.94427267e-03, 2.29371525e-02, 1.05965352e-02,
          2.52997084e-03, -1.48494644e-02, -1.93575770e-02,
          -1.54864090e-02, -1.55669986e-03, 8.38684943e-03,
          2.22315658e-02, 2.26698034e-02, 8.04490317e-03, 4.60050302e-03,
          -6.27194112e-03, -1.87458713e-02, -1.97150409e-02,
          -3.23925121e-03, 8.65381304e-03, 2.22529788e-02,
          2.29134876e-02, 8.89136922e-03, 2.83478573e-03,
          -1.30287884e-03, -1.83133744e-02, -1.49013698e-02,
          -9.51844268e-03, -4.35588323e-03, 1.48811368e-02,
          8.61219317e-03, 9.79559869e-03, 4.90878988e-03,
          -1.23328599e-03, -8.16121884e-03, -1.64922960e-02,
          -6.32084999e-03, -1.51948433e-03, 4.68457770e-03,
          8.44242342e-04, 5.58836758e-03, 3.99156986e-03, 1.68290909e-03,
          1.75073545e-03, -8.59097054e-04, -1.35680113e-03,
          -5.64550702e-03, 3.89148627e-04, -1.47320877e-03,
          1.19965487e-04, 2.49460968e-03, 1.32052042e-03, 1.65481376e-03,
          1.42828282e-03, 6.18539518e-04, 3.09282052e-03,
          -1.47320877e-03, -8.87653418e-03, -7.71944271e-03,
          -4.17057658e-03, 4.05420084e-03, 4.05420084e-03,
          6.74035633e-03, 1.63563073e-03, 3.32799915e-04,
          -2.58089835e-03, -1.65115649e-04, -5.40114765e-04,
          -2.74076895e-03, -2.48972885e-03, -1.45815418e-03,
          4.75639384e-03, 4.69207298e-03, 2.63790693e-03, 1.76523274e-04,
          6.75015792e-04, 2.81723856e-04, 2.04377982e-04,
          -4.09568613e-03, 2.30622315e-03, 1.17173663e-03,
          7.32418965e-04, 5.56724903e-04, 7.07135187e-04, 1.41049386e-03,
          1.62172166e-03, -2.59511801e-03, -1.02234092e-02,
          -1.13758503e-03, 3.21207382e-03, 9.59999394e-03,
          2.26126937e-03, -2.18029669e-03, 1.19653828e-02,
          7.15047354e-04, -3.87572567e-03, -2.14255545e-02,
          -1.00640170e-02, 3.99938179e-03, 1.53513681e-02,
          1.63882487e-02, 1.58165284e-02, 2.44701244e-02, 1.17972645e-03,
          -8.43509287e-03, -2.09768601e-02, -2.26356797e-02,
          -1.33360531e-02, 4.03807871e-03, 1.50538692e-02,
          2.45294981e-02, 1.39900371e-02, -2.09359569e-03,
          -1.43105686e-02, -1.64761506e-02, -1.77317243e-02,
          -1.12033943e-02, -3.07232421e-03, 6.09463640e-03,
          1.55396480e-02, 1.32933566e-02, 2.21623387e-03,
          -9.50291101e-03, -7.59088900e-03, -1.72105189e-02,
          -9.46678314e-03, -1.18225077e-02, -8.06967728e-03,
          1.23561751e-02, 2.54894570e-02, 6.13342319e-03,
          -1.75719557e-03, -1.29781952e-02, -2.56038196e-02,
          -2.43364032e-02, -5.67033794e-03, 2.26012751e-04,
          2.51227915e-02, 2.63743959e-02, 5.12636313e-03,
          -9.43207706e-04, -1.33821107e-02, -2.56952755e-02,
          -2.25228034e-02, -8.49627517e-03, -5.07328718e-04,
          2.52027772e-02, 2.29302011e-02, 2.87280511e-03,
          -2.79920525e-03, -1.00266133e-02, -1.77822988e-02,
          -1.78632252e-02, -1.77906733e-02, -1.02599170e-02,
          1.54769896e-02, 1.20712733e-02, 9.01507228e-05,
          -4.72463842e-04, -2.39677858e-04, -4.48279921e-03,
          -1.13041978e-02, -1.33520300e-02, -1.72809232e-02,
          6.35065045e-03, 1.06992351e-03, 4.59296862e-05, 4.26489678e-05,
          2.93280550e-06, -1.35057460e-04, -3.80923011e-04,
          -1.59464113e-03, -4.15906822e-03, 1.06992351e-03,
          2.14702857e-04, -2.47501244e-04, 1.44326725e-04,
          7.14900380e-05, -8.97680511e-05, 6.18172908e-06,
          -1.33516121e-04, -1.50426081e-03, 2.14702857e-04,
          -1.38922886e-04, -1.77909259e-03, -7.04658669e-05,
          -1.03222643e-04, -1.67493054e-05, 1.30332017e-04,
          1.12505390e-04, 4.49146406e-04, -1.38922886e-04,
          -3.01053189e-03, -1.75329484e-03, 2.32240628e-03,
          3.63696017e-03, 4.62176977e-03, 9.62769904e-04,
          -2.82454828e-04, -8.50527023e-04, 1.90890697e-03,
          -4.12015477e-03, 8.02652648e-05, 4.48240840e-04,
          -1.29399612e-03, 3.25649139e-03, 1.98874436e-03,
          2.53581186e-03, -9.65445186e-04, -2.13035336e-03,
          -5.11175138e-04, -8.34848674e-04, -4.36046161e-03,
          -2.05886131e-03, 2.96751224e-03, 7.15554808e-04,
          2.04671314e-03, 1.06086012e-03, -5.59088599e-04,
          -1.05176782e-02, -1.35044288e-02, -1.25460839e-02,
          -9.42750182e-03, -2.61153770e-03, 3.09181702e-03,
          7.49044027e-03, 6.76908903e-03, 3.79549665e-03, 1.07985213e-02,
          -1.55741237e-02, -1.71539336e-02, -1.76561419e-02,
          -1.24898497e-02, 2.27295677e-03, 9.77901928e-03,
          1.95626076e-02, 1.91010498e-02, 1.94819961e-02,
          -3.88847431e-03, -1.56025365e-02, -1.77906938e-02,
          -1.37533946e-02, -2.37097498e-03, 4.54938924e-03,
          8.62743985e-03, 2.23504342e-02, 9.97647271e-03,
          -2.88802199e-03, -9.02092364e-03, -9.79678426e-03,
          -1.26221832e-02, -4.94799484e-03, 1.43482379e-04,
          5.24162455e-03, 1.22792050e-02, 9.44962166e-03, 3.15258862e-03,
          -6.78513525e-03, -7.49042444e-03, -1.58857927e-02,
          -5.89178689e-03, -6.42689969e-03, 1.12463080e-03,
          8.52232147e-03, 2.18912922e-02, 8.72196350e-03, 1.01266161e-03,
          -2.78487941e-03, -1.89323071e-02, -1.92154776e-02,
          -1.59859080e-02, -5.81593765e-03, 1.74684469e-02,
          2.35937610e-02, 1.32240197e-02, 3.48273921e-03, 1.17856730e-03,
          -1.29398908e-02, -1.91110056e-02, -1.65532958e-02,
          -1.11033516e-02, 1.15843490e-02, 2.07420792e-02,
          6.80279220e-03, 6.40342652e-04, 1.44323916e-04,
          -1.23851071e-03, -9.63747408e-03, -1.33624803e-02,
          -8.51913448e-03, 2.62230146e-03, 1.88065588e-03,
          5.52175660e-03, 3.41479084e-04, 3.63959232e-04, 5.51485980e-04,
          -3.89935652e-04, -3.20729334e-03, -8.05548206e-03,
          1.88065588e-03, -3.55185731e-03, 7.50416098e-03,
          3.99465766e-03, 1.70747552e-03, 6.25682937e-04, 2.15985440e-03,
          1.83078588e-03, 4.18261765e-03, -3.55185731e-03,
          -1.41370820e-03, 1.54456415e-03, 9.16851102e-04,
          5.84832218e-04, -3.07867187e-04, 1.08592317e-03,
          2.02166452e-03, 6.34983601e-03, -1.41370820e-03,
          -1.10765127e-03, -1.34840258e-03, 7.56879279e-04,
          2.11256003e-04, 1.11452362e-04, 9.43589490e-04,
          -2.55238381e-04, 1.38549623e-03, -1.10765127e-03,
          -1.42815674e-03, 2.86353310e-03, 3.88560141e-03,
          1.65850529e-03, 6.36451412e-04, 1.84342102e-03,
          -2.82094144e-04, -1.52369216e-03, -1.42815674e-03,
          -7.96490116e-04, -7.96490116e-04, 3.40982620e-03,
          5.11492835e-03, 1.81138178e-03, 1.35599193e-03, 7.01820245e-04,
          2.72768404e-04, -4.00165282e-03, 9.86314379e-04,
          -1.66232593e-03, -1.65164063e-03, -2.24037474e-04,
          5.55775920e-03, 9.24414955e-04, 1.02028593e-04, 1.36545113e-05,
          -2.11263206e-04, -5.50132850e-03, -1.12277810e-02,
          -6.33969437e-03, -7.31191644e-03, -4.04429203e-03,
          -2.51151877e-03, 6.63709873e-03, 1.00595709e-02,
          1.04308510e-02, 8.44987016e-03, -1.68460086e-02,
          -1.83296371e-02, -1.18104834e-02, -7.87226483e-03,
          -2.91605858e-04, -3.35662015e-04, 9.95607860e-03,
          1.91423912e-02, 1.01884445e-02, -1.16887912e-02,
          -1.68637242e-02, -1.40303960e-02, -1.05358539e-02,
          -2.76620360e-03, -4.40248242e-03, -4.08660574e-03,
          1.76813994e-02, 1.47192860e-02, -8.45892914e-03,
          -1.42059429e-02, -1.14754187e-02, -1.87220853e-02,
          -7.89760146e-03, -8.53007194e-03, 5.51817822e-04,
          1.48258852e-02, 1.26211261e-02, -3.55750648e-03,
          -1.00141484e-02, -6.76369807e-03, -2.02047303e-02,
          -5.13129681e-03, -1.20514352e-02, 1.66957069e-03,
          9.97147616e-03, 1.43016512e-02, 1.58220137e-04,
          -5.91377355e-03, -3.50856432e-03, -1.44322952e-02,
          -7.85453524e-03, -1.79686937e-02, -7.78174447e-03,
          9.43387300e-03, 2.26098374e-02, 4.42964630e-03,
          -8.05139425e-04, -6.44800370e-04, -2.54804315e-03,
          -3.33156181e-03, -2.16592606e-02, -1.67070460e-02,
          4.23660874e-03, 1.97152179e-02, 2.72727571e-04,
          -2.14959800e-05, -1.86869274e-05, -1.92481850e-04,
          -4.35243419e-04, -7.24824471e-03, -1.90042220e-02,
          5.11385791e-04, 1.38729415e-03, 1.56658073e-03, 1.19577686e-04,
          3.77257093e-05, 3.07944101e-05, -1.24971062e-04,
          -6.39221689e-04, -9.73236095e-03, 1.38729415e-03,
          -1.42327358e-03, 4.32448322e-03, 3.21077270e-04,
          2.84366561e-05, -1.22640078e-04, 2.65908475e-05,
          2.46721611e-04, 4.25100513e-03, -1.42327358e-03,
          -5.79994114e-04, 1.11650152e-03, -9.03071195e-05,
          -5.44169779e-05, -1.86665802e-05, 2.49617970e-05,
          3.50964110e-04, 3.47844348e-03, -5.79994114e-04,
          -2.13729581e-04, 9.88506246e-04, 2.82154710e-04,
          1.48607694e-04, 2.88290425e-06, 4.48104693e-05, 4.16009061e-05,
          1.69902691e-03, -2.13729581e-04, -1.72827917e-04,
          1.06175384e-03, 2.29583617e-04, 4.92763102e-05, 2.27733271e-05,
          9.11246534e-05, 1.42167875e-04, 1.16114353e-03,
          -1.72827917e-04, -1.24673964e-03, 9.86243016e-04,
          4.99940477e-03, 1.65586534e-04, -1.37553479e-06,
          -7.53161657e-06, -1.43121397e-05, 1.06954321e-04,
          -1.63698569e-03, -1.69781898e-03, 1.17804878e-03,
          8.45914241e-04, 3.36076086e-03, -1.30262662e-04,
          -1.80997304e-04, -7.28169223e-04, -8.44889961e-04,
          -2.15246831e-03 ]
      - [ -2.57456355e-04, 3.31413792e-03, 1.88139878e-04,
          -1.79384858e-03, 3.25671188e-03, -5.28312428e-03,
          -2.00610096e-03, -2.32220697e-03, -5.71449474e-03,
          -1.70150062e-03, 1.53914082e-03, 2.96352827e-03,
          1.58165430e-03, 4.40083211e-03, 1.32560369e-03, 7.08711508e-04,
          -1.20244408e-03, -3.22859851e-03, 3.88412940e-04,
          -2.14468455e-03, 8.08308600e-04, 6.44282787e-04,
          2.39384637e-04, 1.25880726e-03, 1.13666721e-03,
          -8.42289592e-04, 3.88412940e-04, -2.94934871e-04,
          1.70517887e-03, 1.04863301e-03, 1.74958922e-03, 1.68271642e-03,
          1.67783955e-03, -1.10054493e-03, -2.04894971e-03,
          -2.94934871e-04, -1.60204293e-03, 1.92243955e-03,
          1.85100373e-03, 2.06353050e-03, 7.43042561e-04, 4.74166544e-03,
          3.74908792e-03, -3.85722145e-03, -1.60204293e-03,
          -6.04322995e-04, -1.52701174e-03, 5.98970894e-03,
          3.11120966e-04, 7.74017186e-04, 2.55986903e-04, 5.97938488e-04,
          1.01382693e-03, -6.04322995e-04, -1.65818410e-03,
          3.50313447e-03, 5.85542759e-03, 3.22157564e-03, 9.51678259e-04,
          1.91853952e-03, 8.46210518e-04, -4.15943330e-03,
          -1.65818410e-03, 2.58035329e-03, -4.42818785e-03,
          -9.00347019e-04, 9.49482433e-04, 1.49009528e-03,
          -7.58742215e-04, -1.22957269e-03, -5.06699830e-03,
          2.58035329e-03, 1.91945338e-03, 5.19234780e-03, 2.15446134e-03,
          -5.70585078e-04, -4.51571820e-03, -7.51140586e-04,
          -9.22135450e-03, -6.35184441e-03, 1.91945338e-03,
          1.59772485e-03, -4.83304914e-03, -5.66752686e-04,
          -2.23112782e-03, -3.22550628e-03, -3.89172649e-03,
          9.70701687e-04, 3.83990351e-03, 1.59772485e-03, 4.66486003e-04,
          -6.05763867e-03, -3.00031272e-03, -5.77451836e-04,
          -3.20726132e-04, -1.40331604e-03, 1.88117626e-03,
          7.18270836e-04, 4.66486003e-04, -1.39200187e-03,
          3.60187911e-03, 1.49822119e-03, -6.74796465e-04,
          -1.10235451e-04, 6.27377070e-04, 1.05786393e-03,
          3.77998245e-03, -1.39200187e-03, -4.31674300e-04,
          -4.37076436e-04, 1.16489595e-03, 1.50849737e-04,
          1.64469529e-04, 4.48051200e-04, 1.86513469e-03, 2.89695314e-03,
          -4.31674300e-04, -9.59762093e-03, -1.14200742e-03,
          5.60365908e-04, 1.22268946e-04, -4.03645076e-03,
          -4.06507077e-03, 2.66248803e-03, 5.77372173e-03,
          2.69218418e-03, -3.08189820e-03, 3.36612517e-04,
          7.10741035e-04, 3.85961961e-04, -9.07013484e-04,
          -1.10665394e-03, 2.38329914e-04, 1.27036124e-03,
          2.06906721e-03, -1.04420967e-02, -3.60908196e-03,
          7.50737870e-03, 1.70701556e-02, 1.40923280e-02,
          -1.18463242e-03, -7.02496571e-03, -1.35576585e-02,
          -1.65421087e-02, -1.05836606e-02, -3.09508317e-03,
          1.59277786e-02, 1.80429574e-02, 1.84457973e-02, 2.81932554e-03,
          -1.43139823e-05, -6.26241090e-05, -1.02679851e-02,
          -5.00367896e-04, 7.94298388e-03, 5.89521741e-03,
          4.07003658e-03, 2.00167322e-03, 9.31385672e-04, 7.00182791e-05,
          -2.73215733e-06, -8.22170358e-03, -6.27103436e-04,
          5.54392068e-03, 1.23510719e-03, 7.43092853e-04, 8.38773325e-04,
          6.83876977e-04, 7.96426844e-04, -3.02737602e-03,
          -6.27103436e-04, -1.37661782e-03, 4.04032646e-03,
          1.38007698e-03, 1.41803967e-03, 5.57196618e-04, 1.71734806e-04,
          6.33008592e-03, -2.03799456e-03, -1.37661782e-03,
          -2.16682488e-03, 4.13444918e-03, 2.98674894e-03,
          4.64587589e-04, 1.77133741e-04, 3.44698637e-05, 1.65770377e-03,
          3.88017786e-03, -2.16682488e-03, -7.29636056e-04,
          8.49349797e-03, 7.29071442e-04, 4.23949605e-05,
          -4.43056953e-04, -2.70364893e-04, -1.46012026e-04,
          -9.31978400e-04, -7.29636056e-04, 1.53043717e-02,
          2.02749483e-03, 7.12162349e-04, -6.55578682e-04,
          -1.56544428e-02, -1.75079275e-02, -1.66418348e-02,
          -1.17236217e-02, 1.00482227e-02, 2.68999636e-02,
          1.61371240e-03, -2.08176370e-03, -8.27567466e-03,
          -2.13105325e-02, -2.14042757e-02, -2.11114418e-02,
          -1.57009419e-02, 1.98878460e-02, 1.18767070e-02,
          -1.19148726e-02, -1.73287094e-02, -2.04711705e-02,
          -1.92338228e-02, -6.67809974e-03, -4.16546408e-03,
          4.42314846e-03, 2.19789762e-02, 5.72859077e-03,
          -2.41955072e-02, -1.38284331e-02, -1.19954608e-02,
          -7.49398023e-03, -3.36185069e-04, 3.99187906e-04,
          4.35389020e-03, 1.52178053e-02, 1.05967140e-03,
          -6.02263166e-03, -1.42219441e-03, -7.65689125e-04,
          -1.14352573e-04, -7.15653077e-05, -4.25483566e-04,
          -6.66329230e-04, 1.05967140e-03, 7.52398802e-04,
          -1.27109495e-04, -1.40165894e-05, -1.31341605e-03,
          -8.47698248e-04, -1.48834346e-03, -2.93478859e-03,
          2.65200203e-03, 2.34374939e-03, -7.80394184e-04,
          -1.50199048e-03, -1.28955639e-03, -4.10503382e-03,
          -1.56165930e-04, -1.56165930e-04, -1.56165930e-04,
          -1.46340913e-04, 5.78854745e-03, 1.05562085e-05,
          -7.48956343e-04, 6.63669372e-04, 3.79250059e-03,
          2.78348662e-03, -5.45389811e-03, -3.57288838e-04,
          -1.30926073e-03, -1.21902337e-03, -1.54855363e-02,
          -1.19525753e-02, -1.99013227e-03, 1.28796492e-02,
          2.28938907e-02, 1.05187548e-02, -4.28773509e-03,
          -1.05227195e-02, -1.22709293e-02, -2.24089753e-02,
          -2.02477444e-02, -6.93707447e-03, 1.74089726e-02,
          2.59050373e-02, 1.60082988e-02, -9.90356202e-04,
          -1.53186312e-03, -2.06737462e-02, -9.77143738e-03,
          -4.73716343e-03, 9.63775162e-03, 1.93112213e-02,
          1.35543123e-02, 1.21948132e-02, -1.95929105e-03,
          -4.78520384e-03, -1.95530560e-02, -6.19895058e-03,
          6.32392010e-03, 8.82197451e-03, 8.66019260e-03, 1.09116780e-02,
          4.63609211e-03, 3.90844094e-03, -6.08152384e-03,
          -7.60282110e-03, -2.36776634e-03, -2.75186659e-03,
          6.39419723e-03, 6.20375574e-03, 3.60492617e-03,
          -8.48933531e-04, 8.50963779e-03, -3.50510166e-03,
          -5.11416234e-03, -2.64301500e-03, 3.25788325e-03,
          1.09393885e-02, 6.69131102e-03, 1.04621483e-03,
          -5.98588260e-04, 1.39731297e-03, -6.10193843e-03,
          -2.64301500e-03, 2.00066832e-03, 1.65945496e-02,
          9.72604007e-03, -3.95087438e-04, -8.06752499e-03,
          -8.58309679e-03, -5.87593159e-03, -7.49408780e-03,
          7.70282408e-04, 2.19196305e-02, 1.66130867e-02, 1.05965612e-02,
