%YAML:1.0
---
opencv_ml_svm:
   format: 3
   svmType: C_SVC
   kernel:
      type: LINEAR
   C: 1.5000000000000000e+00
   term_criteria: { iterations:10000000 }
   var_count: 945
   class_count: 10
   class_labels: !!opencv-matrix
      rows: 10
      cols: 1
      dt: i
      data: [ 48, 49, 50, 51, 52, 53, 54, 55, 56, 57 ]
   sv_total: 45
   support_vectors:
      - [ 6.36054622e-03, 6.36054622e-03, 6.47450332e-03, 9.22761671e-03,
          -7.99453724e-03, -6.70229644e-03, -2.03936230e-02,
          -1.50078805e-02, 3.44660622e-03, 1.01129506e-02,
          7.08625512e-03, 6.98426506e-03, -1.45152314e-02,
          -1.53728304e-02, -2.18193457e-02, -2.00663991e-02,
          -2.49178289e-03, 1.29730906e-02, 1.17403048e-03,
          -4.52669017e-04, -4.52669017e-04, -2.68727671e-02,
          -1.58673339e-02, -6.07160851e-04, 1.28081581e-03,
          1.29431952e-02, 2.26960275e-02, 4.68120351e-03, 4.68120351e-03,
          -5.60088083e-05, -7.01583549e-03, -1.08042145e-02,
          -5.75810252e-03, -1.42166056e-02, -3.38892057e-03,
          4.68120351e-03, 9.65422578e-03, 9.01803095e-03, 1.08806239e-02,
          -9.66024026e-03, -2.56324951e-02, -2.94577871e-02,
          -1.09935170e-02, 1.65810488e-04, 1.06626851e-02,
          2.95133460e-02, 3.21328267e-02, -2.88063870e-03,
          -2.81278342e-02, -3.29331234e-02, -2.99182162e-02,
          -1.35320770e-02, 3.76433856e-03, 2.38985233e-02,
          1.42017631e-02, 1.87368747e-02, -4.63181501e-03,
          -2.52457336e-02, -1.49841346e-02, -2.57920399e-02,
          -1.79748330e-02, 9.10203066e-03, 1.37204686e-02,
          1.40838930e-02, 1.64197683e-02, -6.64697669e-04,
          -3.06783952e-02, -2.36901864e-02, -2.40814928e-02,
          -1.35344192e-02, 9.93737578e-03, 1.24474531e-02,
          1.00031793e-02, 1.17016034e-02, -1.47558674e-02,
          -1.70277338e-02, -2.13422291e-02, -2.35684067e-02,
          -5.28103160e-03, 1.09433131e-02, 1.39258960e-02,
          1.31963035e-02, 1.06182210e-02, -8.47910810e-03,
          -1.31282117e-02, -2.59328391e-02, -1.50102023e-02,
          -1.12865474e-02, 1.11186253e-02, 8.63875356e-03,
          1.34047251e-02, 8.30509060e-04, -1.06728040e-02,
          -2.18833927e-02, -2.41538864e-02, -1.49894049e-02,
          6.79951208e-03, 9.70336702e-03, 1.09732421e-02, 1.39656980e-02,
          1.56883579e-02, -1.73168797e-02, -3.22367102e-02,
          -2.74078753e-02, -2.12831441e-02, -5.31116826e-03,
          1.52519904e-02, 1.33610396e-02, 1.87612679e-02,
          -7.42774550e-03, -3.46621759e-02, -3.53520550e-02,
          -3.62608321e-02, -2.22454611e-02, 1.13921091e-02,
          1.71996653e-02, 2.24236157e-02, 8.49830266e-03,
          -1.41061225e-03, -2.69583594e-02, -3.43683586e-02,
          -3.57838944e-02, -2.39510592e-02, 2.25307886e-02,
          1.59883276e-02, 1.42871505e-02, -8.70299432e-03,
          -1.84411481e-02, -2.24596411e-02, -1.27267968e-02,
          -3.18943593e-03, 1.47687271e-02, 1.37817394e-02,
          1.39038516e-02, 7.46623287e-03, -2.09467966e-04,
          1.80699918e-02, 1.87129173e-02, 1.90811995e-02,
          -1.17391283e-02, -2.38113329e-02, -3.48215103e-02,
          -2.96123307e-02, -2.32265294e-02, 2.37085670e-02,
          -7.36416038e-03, -7.78658642e-03, -7.78658642e-03,
          -2.25491915e-02, 6.95937895e-04, 2.14190665e-03,
          1.90553013e-02, 2.85482015e-02, 1.16439452e-02,
          -1.46057236e-03, -1.46057236e-03, -1.99285168e-02,
          -2.80879289e-02, -1.10728554e-02, -4.92143724e-03,
          2.34634280e-02, 3.32273208e-02, 9.75762215e-03, 9.71932616e-03,
          1.24111376e-03, -3.43453325e-02, -3.97577919e-02,
          -1.59095339e-02, -1.02020036e-02, 1.60953756e-02,
          1.65770333e-02, 1.67143419e-02, 3.11032240e-03, 1.71005621e-03,
          -2.44032945e-02, -4.15935516e-02, -2.77334452e-02,
          -9.39494278e-03, 2.80921198e-02, 2.63480619e-02,
          2.09082793e-02, 1.67797320e-02, -6.17971690e-03,
          -3.47765870e-02, -4.03749235e-02, -3.39866206e-02,
          -5.29295113e-03, 2.72944700e-02, 3.00960597e-02,
          1.56155461e-02, 1.89541467e-02, -4.35662875e-03,
          -2.88741365e-02, -3.18040401e-02, -3.02937832e-02,
          -2.09672172e-02, 1.23496773e-02, 1.49860419e-02,
          1.69963725e-02, 1.30256563e-02, -2.07887348e-02,
          -3.26616466e-02, -3.30851153e-02, -2.84031648e-02,
          -1.38606364e-02, 1.55422557e-02, 1.94779132e-02,
          1.74617264e-02, 1.57118253e-02, -2.01309510e-02,
          -2.98806056e-02, -3.14529240e-02, -2.69407984e-02,
          -2.11319793e-02, 1.39531102e-02, 1.82811804e-02,
          1.78957954e-02, 6.83630304e-03, -1.24987680e-02,
          -3.20666730e-02, -3.69702354e-02, -2.45841965e-02,
          -1.37482658e-02, 1.57309696e-02, 1.97274722e-02,
          1.44803105e-02, -1.51614717e-03, -2.67561115e-02,
          -2.83282846e-02, -3.08605153e-02, -2.68204585e-02,
          1.07407337e-02, 1.44803105e-02, 1.44803105e-02, 1.14835687e-02,
          1.22185200e-02, -2.03433353e-02, -3.05965897e-02,
          -2.79638916e-02, -2.69074123e-02, -1.12083962e-03,
          1.92560740e-02, 1.30249253e-02, 7.52932532e-03,
          -1.93379186e-02, -2.91110501e-02, -3.00623290e-02,
          -2.53829136e-02, -1.05495297e-03, 1.57731678e-02,
          1.61304064e-02, 1.53093850e-02, -1.83390814e-03,
          1.68900669e-03, -2.49412842e-02, -1.04320096e-02,
          -1.02808205e-02, 7.21916044e-03, 9.11112782e-03,
          1.04463547e-02, 5.43332426e-03, -3.07978839e-02,
          -3.62930857e-02, -2.52074804e-02, -1.54989352e-02,
          1.01593537e-02, 1.58366747e-02, 1.92861650e-02, 1.59967169e-02,
          -1.51770813e-02, -2.72002406e-02, -6.90831523e-03,
          5.75469574e-03, 5.75469574e-03, 1.45143000e-02, 8.22550245e-03,
          -3.29964980e-03, -1.12991221e-02, -8.73481669e-03,
          -2.73643341e-03, -1.60843953e-02, -3.21729458e-04,
          -3.21729458e-04, 1.44469859e-02, 2.11747773e-02,
          4.39788634e-03, -2.16855871e-04, 2.02716474e-04,
          1.16067445e-02, 7.27548078e-03, 1.74528512e-03, 1.51554786e-03,
          -1.94141036e-03, -1.50681175e-02, -9.11399256e-03,
          -9.90978442e-03, 3.93255753e-03, 1.54761570e-02,
          8.70674732e-04, -1.60784256e-02, -3.36315520e-02,
          -3.29403430e-02, -2.06610654e-03, 2.87681594e-02,
          2.94751711e-02, 2.95634363e-02, 5.03070559e-03,
          -4.09761583e-03, -9.79375653e-03, -2.34253630e-02,
          -1.84124559e-02, 8.51707906e-03, 1.47401728e-02,
          2.70009302e-02, 2.97272988e-02, 6.69132103e-04, 6.35070610e-04,
          -2.23338441e-03, -1.42013505e-02, -8.79440550e-03,
          -4.08175495e-03, 1.08875958e-02, 1.15839317e-02,
          7.06496183e-03, 1.16647815e-03, -2.27385026e-04,
          -9.55218391e-04, -7.78958900e-04, -7.05576176e-03,
          -8.74296878e-04, 4.87349433e-04, 6.44443743e-03,
          3.34843178e-03, 2.90487624e-05, -2.60163425e-03,
          9.84564610e-03, -6.47010398e-04, -1.01639493e-03,
          -1.22422690e-03, -3.73424776e-03, -5.51023521e-04,
          2.90487624e-05, -1.11678673e-04, -3.43640475e-03,
          6.05437555e-04, -5.74563676e-03, -3.63075291e-04,
          -7.54553068e-04, 9.75952484e-03, 2.08730809e-03,
          -1.11678673e-04, -2.07742536e-03, 7.56709123e-05,
          5.96342888e-03, -3.07768147e-04, -1.65128405e-03,
          -3.08372336e-03, -1.79965294e-03, 1.61355280e-03,
          4.13613103e-04, 1.46138528e-03, 3.42868106e-03,
          -3.63737741e-03, -1.18597364e-02, -1.34332720e-02,
          -1.29044260e-04, 1.84143358e-03, 5.65163139e-03,
          5.13687870e-03, 1.94650062e-03, 3.56418965e-03,
          -5.16154664e-03, -1.17443129e-02, 4.74777678e-03,
          -3.36876488e-03, 1.00799708e-03, 1.94650062e-03,
          1.94650062e-03, -8.26462824e-03, -1.98461134e-02,
          -2.53580641e-02, -1.84442811e-02, 1.31655699e-02,
          9.63322259e-03, 8.62913206e-03, 1.13571994e-02, 6.53826771e-03,
          -2.95726955e-02, -2.33574100e-02, -2.11424381e-02,
          5.53443516e-03, 2.23421510e-02, 2.26594750e-02, 2.28521768e-02,
          -5.43377269e-03, -3.24439406e-02, -3.40925604e-02,
          -2.09008846e-02, -7.73962261e-03, 6.35895319e-03,
          2.19095442e-02, 2.01057959e-02, 1.43689420e-02,
          -1.93932652e-02, -3.25737409e-02, 2.48905714e-03,
          -3.02990247e-02, -2.94140149e-02, -1.97212235e-03,
          5.11033041e-03, 4.71635200e-02, 2.66174730e-02, 1.41668301e-02,
          1.03766918e-02, -3.82381044e-02, -2.96522081e-02,
          -2.47746278e-02, 1.75205003e-02, 2.44208798e-02,
          3.53616215e-02, -6.57644309e-03, -1.97448637e-02,
          -2.16598809e-02, -2.40733800e-03, -2.21603853e-03,
          -6.80307858e-03, -3.85050126e-03, -1.85437687e-03,
          -1.85437687e-03, 1.22721260e-02, -4.26187908e-04,
          1.41300978e-02, 4.88560973e-03, 6.87445607e-03,
          -7.62542337e-03, -1.73213631e-02, -2.53544492e-03,
          3.17595899e-04, 9.34820157e-03, 2.21104058e-03, 9.07831173e-03,
          8.12227081e-04, -1.79407850e-03, -2.79925088e-03,
          -6.44672022e-04, 3.04334471e-03, 4.22523823e-03,
          2.06361944e-03, -1.24407725e-05, -1.55893841e-03,
          -7.30021717e-03, -7.30021717e-03, 2.29255832e-03,
          1.12645729e-02, 1.65816601e-02, 1.16196778e-02, 4.23183478e-03,
          -6.47564093e-03, -6.42424589e-03, -7.04905810e-03,
          -4.09049634e-03, 8.20384547e-03, 1.12745035e-02,
          1.16153629e-02, 1.31860450e-02, 2.53564445e-03,
          -1.06384745e-02, -7.04905810e-03, -5.56428870e-03,
          -9.42863710e-03, 1.90903188e-03, 1.57748293e-02,
          2.11108010e-02, 7.22282426e-03, 6.51702797e-03,
          -1.06639666e-02, -1.13016050e-02, -1.14519363e-02,
          -1.13685979e-02, -6.37161545e-04, 1.63686536e-02,
          2.27073431e-02, 2.55785901e-02, 6.35250472e-03,
          -1.26486681e-02, -1.01126423e-02, -1.26295565e-02,
          -7.26756826e-03, -4.36733942e-03, 1.62623227e-02,
          2.95000318e-02, 2.03852858e-02, 7.29334599e-04,
          -6.75512897e-03, -9.49649792e-03, -8.23849440e-03,
          -4.51630959e-03, -2.17201025e-03, 1.99264120e-02,
          1.61958411e-02, 2.11870428e-02, 6.51461422e-04,
          -6.54794648e-03, -8.86670500e-03, -1.11580016e-02,
          -1.50456373e-02, -2.38158321e-03, 2.55386867e-02,
          2.92598046e-02, 2.51585096e-02, 3.04315984e-03,
          -9.40296985e-03, -1.15085086e-02, -1.50426254e-02,
          -2.42720786e-02, 1.15456851e-02, 1.81499626e-02,
          2.36902293e-02, 2.20766589e-02, -1.19499571e-03,
          -1.82309654e-02, -1.56063437e-02, -3.61168385e-02,
          -3.15668657e-02, -8.34280439e-03, 2.81261075e-02,
          4.36622947e-02, 3.90328467e-02, -6.91645266e-03,
          -2.94518881e-02, -3.71514559e-02, -2.31618360e-02,
          -2.08847076e-02, 1.17902271e-02, 3.65802236e-02,
          1.44768748e-02, 1.07367747e-02, -1.15590496e-02,
          -2.70517599e-02, -2.96911411e-02, -5.28525515e-03,
          -3.22363563e-02, -3.78998220e-02, -2.07442101e-02,
          5.23429131e-03, 1.54635925e-02, 4.35069166e-02, 1.89783201e-02,
          5.40160481e-03, -3.10672820e-02, -3.16333883e-02,
          -2.61884723e-02, -2.00922973e-03, 1.70312393e-02,
          1.69076324e-02, 1.69076324e-02, -1.41654967e-03,
          -1.31496955e-02, 5.97094977e-03, -5.42548671e-03,
          -2.28598863e-02, -3.42159942e-02, -1.31722179e-03,
          1.68525870e-03, 5.20155719e-03, 1.28737250e-02, 1.95306223e-02,
          7.22839823e-03, 1.46472016e-02, 4.30690357e-03,
          -9.31427442e-03, -2.28447430e-02, -9.81445890e-03,
          -1.78616773e-02, 6.51165517e-03, 6.74020918e-03,
          -2.04721466e-03, -3.03591019e-03, -4.60048532e-03,
          7.65675493e-03, 1.97671857e-02, 1.71610725e-03, 7.33567541e-03,
          -3.63703328e-03, 9.86613682e-04, -5.35122026e-03,
          -1.58526581e-02, -1.45456707e-03, 1.20330676e-02,
          2.77459957e-02, 1.66901387e-02, 7.40775326e-03,
          -3.00373812e-03, -6.75035501e-03, -7.22668320e-03,
          -5.17785735e-03, 9.69774742e-03, 2.29673255e-02,
          1.96876824e-02, 8.04369245e-03, 2.35076179e-03,
          -5.26073948e-03, -7.22668320e-03, -7.39648473e-03,
          -7.39648473e-03, 5.26473764e-03, 1.01824701e-02,
          1.64366942e-02, 1.56694315e-02, 2.50288774e-03, 3.40403104e-03,
          -7.39648473e-03, -4.41165501e-03, -4.41165501e-03,
          -5.16550522e-03, 1.15050757e-02, -1.12574104e-04,
          2.01268289e-02, 6.98296400e-03, -2.00612680e-03,
          -4.41165501e-03, -8.19346576e-04, -3.55424429e-03,
          -7.61740096e-03, 1.27302054e-02, 7.70951342e-03,
          2.03331728e-02, 9.13180178e-04, -5.11346757e-03,
          8.08550860e-04, -2.58248555e-03, -1.12748623e-03,
          9.47352592e-03, 6.77606510e-03, 1.35154417e-02,
          -1.19676685e-03, -4.48966213e-03, -6.97601354e-03,
          9.27254383e-04, 2.69874930e-03, 3.79802193e-03, 1.43267037e-02,
          -3.42608924e-04, -9.44917847e-04, -4.31622844e-03,
          -1.66650508e-02, -4.15939325e-03, 2.69874930e-03,
          -1.01493357e-03, 1.58778706e-03, 1.51150860e-02,
          3.14874984e-02, 1.89709459e-02, -1.21547151e-02,
          -2.46171188e-02, -2.56531797e-02, -6.29074220e-03,
          -2.05240995e-02, 9.78312688e-04, 1.41800214e-02,
          3.36360335e-02, 4.06603962e-02, 2.44320463e-02,
          -1.63698737e-02, -4.06859741e-02, -3.82661335e-02,
          -7.94072449e-03, 2.75025014e-02, 3.71840820e-02,
          1.86321568e-02, 8.70637689e-03, -2.52987687e-02,
          -4.07297835e-02, -3.61479148e-02, -2.61975359e-02,
          -1.37112653e-02, -1.40073085e-02, -1.60575416e-02,
          -3.68890092e-02, -7.71574862e-03, 8.28499720e-03,
          8.30443203e-03, 2.02486478e-02, 7.56769069e-03,
          -1.67853897e-03, -2.22638026e-02, -2.61022169e-02,
          -1.43609131e-02, -2.04746192e-03, 1.38439704e-02,
          1.00211017e-02, 7.65303057e-03, 7.65303057e-03, 1.03135472e-02,
          -8.04245658e-03, -2.81316042e-02, -1.89673249e-02,
          -1.89387780e-02, -1.20193623e-02, 1.41013134e-02,
          1.34127643e-02, 1.03135472e-02, 1.02473004e-02, 1.02473004e-02,
          -1.28458040e-02, -2.17658319e-02, -1.76918674e-02,
          -2.61042416e-02, -1.03264702e-02, 1.02996742e-02,
          1.02473004e-02, 1.41159398e-02, -3.82267055e-03,
          -2.70244349e-02, -2.31486540e-02, -2.08799709e-02,
          -2.83551170e-03, -6.18485129e-03, 1.69997923e-02,
          1.26813361e-02, 9.10468027e-03, 8.87905899e-03,
          -1.52851781e-02, -2.37504561e-02, -2.51102485e-02,
          -1.14606665e-02, -1.37825161e-02, 1.45212822e-02,
          9.10468027e-03, 6.59381784e-03, 5.49235661e-03,
          -4.35982225e-03, -1.05121927e-02, -1.04042860e-02,
          -1.76720154e-02, -1.07774427e-02, 1.17202534e-03,
          6.59381784e-03, 8.33240617e-03, 8.33240617e-03,
          -1.16200782e-02, -1.79677289e-02, -1.33262435e-02,
          -2.20191181e-02, -1.99925695e-02, 9.82941687e-03,
          8.33240617e-03, 7.84521271e-03, 9.32533108e-03,
          -1.07404226e-02, -2.00448241e-02, -2.10813619e-02,
          -1.24448929e-02, -1.05633847e-02, 5.68473013e-03,
          7.84521271e-03, 1.07011329e-02, 9.83225554e-03,
          -1.14194714e-02, -1.16465241e-02, -2.29119137e-02,
          -1.56071922e-02, -2.01603919e-02, 6.65228628e-03,
          9.83225554e-03, 9.11614764e-03, 9.18188971e-03, 2.92642624e-04,
          -1.98039357e-02, -2.11851019e-02, -2.24642381e-02,
          -1.98927112e-02, 4.27656481e-03, 9.11614764e-03,
          5.47360722e-03, 6.96914876e-03, 1.44435083e-02,
          -1.11547252e-02, -7.03998702e-03, -1.35993501e-02,
          -1.34646688e-02, -1.14540141e-02, 5.47360722e-03,
          8.43913178e-04, 8.43913178e-04, 1.16081731e-02, 1.15469377e-02,
          1.06377322e-02, -1.49551798e-02, -9.29791946e-03,
          -1.41068371e-02, 8.43913178e-04, 4.25198069e-03,
          4.25198069e-03, 1.80926565e-02, 1.86133273e-02,
          -1.30539504e-03, -1.21174306e-02, -1.99383143e-02,
          -3.10345534e-02, -4.02748724e-03, 3.43307096e-04,
          1.16567146e-02, 1.11622028e-02, 9.39351786e-03,
          -1.02020763e-02, -3.69300582e-02, -1.37803983e-02,
          -1.12447971e-02, -3.94449616e-03, -1.84178371e-02,
          2.53840513e-03, 1.08851651e-02, 4.34103189e-03,
          -6.92419754e-03, 2.80299247e-03, 2.80299247e-03,
          2.80299247e-03, 2.80299247e-03, 4.10964014e-03,
          -3.36698592e-02, -3.26116756e-02, -7.49082258e-03,
          -2.10418715e-03, 2.65828334e-02, 1.63173024e-02,
          4.10964014e-03, 4.10964014e-03, 4.41311579e-03,
          -6.58645108e-03, -2.67860554e-02, -6.17042976e-03,
          -9.74606629e-03, 1.28997187e-03, 1.01882294e-02,
          6.28378382e-03, 4.37037181e-03, 5.08189900e-03,
          -3.15028685e-03, -2.85386648e-02, -1.20938970e-02,
          -8.15718435e-03, -6.89842599e-03, 6.15787506e-03,
          8.59683752e-03, 5.08189900e-03, 6.95000077e-03,
          -5.05405571e-03, -2.31379401e-02, -1.72897521e-02,
          -6.46325201e-03, -3.77690908e-03, -2.36879350e-05,
          1.08338408e-02, 6.95000077e-03, -3.87924584e-03,
          -3.87924584e-03, 1.58414873e-03, 1.88241096e-03,
          -3.85448174e-03, 1.04199219e-02, 1.37678878e-02,
          -2.55985855e-04, -3.87924584e-03, 5.93945151e-04,
          1.30391004e-03, 5.57345757e-03, 5.07513061e-03, 4.16337309e-04,
          -2.35951552e-03, -3.28793935e-03, -2.46176869e-03,
          5.93945151e-04, 4.44623735e-03, -3.61077418e-03,
          -1.40340747e-02, 6.96195895e-03, -1.87003135e-03,
          -7.30339997e-03, -3.00020608e-03, 4.44623735e-03,
          4.44623735e-03, 3.77767370e-03, -1.20375399e-02,
          -9.26133152e-03, 2.69737584e-03, 7.15079904e-03,
          7.17047276e-03, 9.29331128e-03, -6.89768000e-03,
          3.77767370e-03, 2.02520215e-03, 6.63345307e-03, 3.44868167e-03,
          3.61068145e-04, -6.73737028e-04, -9.37790796e-03,
          -1.08860675e-02, 2.02520215e-03, 2.02520215e-03,
          -5.16108194e-05, 4.84988745e-03, 5.04127285e-03,
          -7.92215765e-03, 3.83670605e-03, -3.21235112e-03,
          -1.00524370e-02, 5.88712655e-03, -5.16108194e-05,
          6.05059834e-03, 1.17665688e-02, -4.11625113e-03,
          -7.90397078e-03, -4.30483930e-03, -9.38877743e-03,
          -1.65508837e-02, -8.36584531e-03, 6.05059834e-03,
          -3.30725859e-04, 4.70751897e-03, 2.51689237e-02,
          -2.34101270e-03, -2.30062971e-04, 8.51957011e-05,
          -1.45559879e-02, -1.79112572e-02, -3.30725859e-04,
          4.96827415e-04, 4.96827415e-04, 1.53847151e-02, 2.02657711e-02,
          -1.32206711e-03, -5.23298373e-03, -4.52558597e-04,
          -1.83934700e-02, -1.20019075e-02, 3.97187192e-04,
          1.52200437e-03, 1.20983738e-03, 1.20983738e-03, 2.51844642e-03,
          9.06951167e-03, -4.34815744e-03, -2.28800904e-03,
          -6.24530017e-03 ]
      - [ 1.15689740e-03, -6.06745295e-03, -6.06745295e-03,
          -6.16775919e-03, -2.44809757e-03, 5.16825542e-03,
          -7.80651608e-05, 1.32855317e-02, 2.10252795e-02,
          1.18831138e-03, 1.18831138e-03, 1.18831138e-03, 6.36931881e-03,
          5.96369244e-03, -1.41206186e-03, 3.48267000e-04,
          -1.11162653e-02, -5.19486982e-03, 1.22880377e-02,
          1.45080257e-02, 2.97107473e-02, -1.09702228e-02,
          -2.88934279e-02, -2.47593485e-02, -3.01287118e-02,
          -1.29827335e-02, 1.03145726e-02, 2.73141563e-02,
          2.02106889e-02, 1.36656836e-02, -2.65005939e-02,
          -3.15956995e-02, -3.11302301e-02, -3.02404650e-02,
          -1.75100483e-03, 1.25706568e-02, 8.15130491e-03,
          1.54678570e-02, 8.09884071e-03, -2.15743370e-02,
          -1.93950087e-02, -2.35866476e-02, -9.56251379e-03,
          -6.57858152e-04, 8.86214152e-03, 8.45744647e-03,
          1.02882991e-02, -7.34777981e-03, -1.64074115e-02,
          -2.12408509e-02, -2.47543473e-02, -1.76292041e-03,
          1.55131388e-02, 8.34343676e-03, 1.32496208e-02, 1.09836292e-02,
          -6.91011501e-03, -2.12468561e-02, -1.68083161e-02,
          -2.05844231e-02, -6.26947917e-03, 8.92372150e-03,
          8.99903383e-03, 1.45776374e-02, 1.20818084e-02,
          -1.35375338e-03, -2.47008912e-02, -2.20753774e-02,
          -2.27599256e-02, -1.13792233e-02, 9.57115181e-03,
          1.14029758e-02, 7.65949069e-03, 6.23469986e-03,
          -1.56557579e-02, -1.92668848e-02, -1.53363245e-02,
          -1.49573581e-02, -2.38839630e-03, 1.27376337e-02,
          1.20454906e-02, -5.36830816e-03, -6.04406651e-03,
          -2.41567940e-02, -1.31776100e-02, -9.40355298e-04,
          5.42360265e-03, 2.05347762e-02, 3.08445226e-02, 1.01612424e-02,
          -6.71914127e-03, -1.76781919e-02, -3.40519845e-02,
          -4.16979147e-03, 7.42247980e-03, 1.87813099e-02,
          3.55848558e-02, 3.75174172e-02, 4.63973871e-03,
          -2.73878966e-03, -3.22524738e-03, -7.59667624e-03,
          -1.05742330e-03, 8.61996552e-04, 6.68732869e-03,
          1.53442807e-02, 6.53004833e-03, -2.73878966e-03,
          4.38539032e-03, -1.50926299e-02, -3.38988714e-02,
          -1.03724059e-02, -7.02569820e-03, 7.74983270e-03,
          2.21078880e-02, 5.11048594e-03, 4.38539032e-03,
          -1.05972367e-03, -6.66879816e-03, -3.12820002e-02,
          -1.45393992e-02, -9.52341035e-03, -4.59258445e-03,
          1.93314534e-02, 6.64106058e-03, 5.45612350e-03, 3.80659150e-03,
          1.30970422e-02, 1.02279829e-02, 6.37363363e-03,
          -1.49091259e-02, -2.91383709e-03, -2.91383709e-03,
          2.94918171e-03, 4.02056379e-03, 2.30502039e-02, 5.61738200e-03,
          1.75671733e-03, 1.75671733e-03, -2.32789740e-02,
          -7.46039068e-03, -1.97477289e-03, -1.86276925e-03,
          5.74289961e-03, 8.39739013e-03, 3.30874627e-03, 2.96978420e-03,
          2.96978420e-03, -1.72908213e-02, -8.13066214e-03,
          -8.58918112e-03, -5.16487239e-03, 2.11896887e-03,
          1.90437026e-02, 8.40657856e-03, 1.22800050e-03,
          -1.34455618e-02, -3.41584869e-02, -2.41744593e-02,
          -5.21842018e-03, 1.65431481e-02, 2.11785734e-02,
          2.30354797e-02, 1.21534159e-02, -1.06294983e-05,
          -3.02935597e-02, -3.44030857e-02, -3.02188359e-02,
          -1.34946546e-02, 1.75199341e-02, 1.62911303e-02,
          8.59179068e-03, 7.85649102e-03, 8.38181097e-03,
          -1.06539428e-02, -2.54243426e-02, -2.73500420e-02,
          -1.75593589e-02, 9.96186212e-03, 1.04339942e-02,
          1.17394850e-02, 1.16811423e-02, -5.23303775e-03,
          -2.18662135e-02, -2.61486936e-02, -2.16093343e-02,
          -7.41013279e-03, 1.45204673e-02, 9.46252886e-03,
          1.19809452e-02, 1.95651334e-02, -5.11003379e-03,
          -2.45283097e-02, -2.76998430e-02, -2.78509837e-02,
          -1.45404916e-02, 1.13690747e-02, 1.21170823e-02,
          1.17598809e-02, 2.87954789e-03, -2.18433719e-02,
          -3.20626758e-02, -1.61557067e-02, -1.75184067e-02,
          -7.99856707e-03, 2.21201517e-02, 2.38939188e-02,
          -2.65636598e-03, -6.36991393e-03, -3.69071439e-02,
          -1.23813963e-02, -2.09915015e-05, 3.05788731e-03,
          8.00038036e-03, 3.30652855e-02, 2.98650693e-02, 6.17915794e-05,
          -1.02679832e-02, -2.89541334e-02, -1.93492789e-02,
          -5.70518197e-03, 6.44159643e-03, 9.80720948e-03,
          3.60538028e-02, 1.48145230e-02, 5.28533664e-03,
          -1.36740496e-02, -3.23012844e-02, -3.07466183e-02,
          -9.49091371e-03, -7.03924056e-03, 2.68954523e-02,
          2.81245708e-02, 8.99076369e-03, 1.04713731e-03,
          -1.95799791e-03, -2.41870768e-02, -5.73683903e-03,
          -4.91082761e-03, 1.14658684e-03, 1.52450735e-02,
          1.04436260e-02, 1.04713731e-03, 2.27774377e-03,
          -1.88636072e-02, -7.54872197e-03, -1.20836927e-03,
          -1.93768982e-02, -2.00313469e-03, 7.24982657e-03,
          7.38287857e-03, 7.24982657e-03, -1.85603523e-04,
          1.60314480e-03, -1.27293523e-02, -1.05986064e-02,
          -8.27006437e-03, 4.52797953e-03, 4.52797953e-03,
          4.93996358e-03, 5.10285795e-03, -2.88552837e-03,
          -7.37155462e-03, -9.51658562e-03, -3.59588228e-02,
          -1.04987063e-02, -6.25150371e-03, 2.59832535e-02,
          3.90204787e-02, 1.37964329e-02, 2.95277941e-03, 5.56943845e-03,
          2.04494316e-03, 2.04494316e-03, 2.04494316e-03,
          -1.52149862e-02, -4.44280868e-03, -1.54702191e-03,
          3.51527077e-03, 2.09919084e-03, 2.74989451e-03, 1.88327441e-03,
          5.63963076e-05, 5.63963076e-05, -4.26762691e-03,
          1.81172532e-03, -6.13018684e-03, 1.31548091e-03,
          8.02241080e-03, -3.34693847e-04, -3.37663316e-03,
          -3.37663316e-03, -5.65227633e-03, -1.14030745e-02,
          1.00693118e-03, 6.46761479e-03, 1.67469345e-02, 5.82754984e-03,
          6.16263365e-03, -1.40039215e-03, -1.20485378e-02,
          -1.59378983e-02, -1.59059241e-02, 3.12225334e-03,
          5.93234459e-03, 6.32596342e-03, 1.98269915e-03, 1.42250033e-02,
          7.27578253e-03, -4.37437231e-03, -8.21375661e-03,
          -8.82478617e-03, -8.24930333e-03, -1.99833279e-03,
          5.37399668e-03, 5.10560581e-03, 2.20251293e-03,
          -3.52707482e-03, -1.06065385e-02, -6.57663331e-04,
          -2.48752860e-03, 5.68936521e-04, 2.98113935e-03,
          3.15445289e-03, 7.59036862e-04, -5.64717548e-03,
          -9.00288858e-03, -7.38067320e-03, -9.55123268e-03,
          1.14206048e-02, 2.04085913e-02, 8.55971873e-03, 6.46272907e-03,
          1.55035416e-02, -2.38498747e-02, -2.15580575e-02,
          -2.44497489e-02, 1.89301297e-02, 2.67340820e-02,
          2.69823745e-02, 3.17395367e-02, 2.64554378e-02,
          -4.59431764e-03, -1.13715027e-02, -1.27532734e-02,
          -1.08339414e-02, 6.58198027e-03, 7.37966457e-03,
          1.86323989e-02, 1.80282351e-02, 8.72678589e-03,
          -6.58225454e-03, -5.60193555e-03, -3.88834905e-03,
          -9.30959452e-03, -8.07103526e-04, 1.34931719e-02,
          1.67664271e-02, 1.01359701e-02, -1.29599764e-03,
          -9.49219055e-03, -1.33541496e-02, -1.99685823e-02,
          -1.72782037e-02, 2.21466250e-03, 2.69339364e-02,
          3.12397331e-02, 2.97178626e-02, 1.72732659e-02,
          -4.23368439e-03, -4.23368439e-03, -1.45442868e-02,
          -1.06200380e-02, 9.16886702e-03, 1.52864568e-02,
          2.78436523e-02, 2.44545192e-03, -3.33711808e-03,
          -8.05369392e-03, -1.57177839e-02, -4.10859659e-03,
          -8.15327652e-03, 3.93741881e-04, 3.93741881e-04,
          2.27072556e-03, 1.34818628e-02, 1.22991633e-02,
          -4.80751321e-03, -4.10120748e-03, -9.53336246e-04,
          1.56629700e-04, -7.63468503e-04, -7.63468503e-04,
          7.24888407e-03, 2.46309885e-03, -1.02525717e-02,
          -6.57921773e-04, -6.30065845e-03, 5.27945405e-04,
          -1.91533379e-02, 2.60029407e-03, 2.60029407e-03,
          1.84000544e-02, 2.72098626e-03, 1.50450843e-03, 3.82841192e-03,
          6.98283408e-03, -5.68808708e-03, 3.96056240e-03,
          3.96056240e-03, 3.96056240e-03, -8.22215807e-03,
          -1.17647694e-03, -1.37513448e-02, -2.23236112e-03,
          3.02830222e-03, 2.67352047e-03, 5.07736159e-03, 3.98223801e-03,
          2.21324433e-03, -2.02330183e-02, -5.62098436e-03,
          -1.01850862e-02, -1.55625632e-03, 9.08852555e-03,
          1.99817098e-03, -1.66195806e-03, -3.45962559e-04,
          -3.45962559e-04, -8.07512738e-03, -7.50368508e-03,
          6.53218525e-03, -5.36021823e-03, 5.87107800e-03,
          -4.30902746e-03, -1.08762765e-02, 3.23855225e-03,
          9.07535572e-03, 5.35471924e-03, -2.99371895e-03,
          -1.51906733e-03, -3.63984174e-04, -2.71743140e-03,
          -2.65243696e-03, -9.51885595e-04, -9.22494684e-04,
          8.20555910e-03, 1.35221414e-03, 1.39294087e-03,
          -3.24014371e-04, -3.97492060e-03, -4.51849448e-03,
          -7.97557738e-03, -4.02103266e-04, 1.57890152e-02,
          4.31334833e-03, 6.04449585e-03, 3.17279948e-03,
          -1.30838866e-03, -4.53681598e-04, -1.75578650e-02,
          -1.75578650e-02, -1.67116821e-02, 1.49432225e-02,
          2.31445953e-02, 2.80409157e-02, 2.53330562e-02, 2.54098251e-02,
          8.67028255e-03, -1.66220572e-02, -1.25794336e-02,
          -1.25794336e-02, 6.09766983e-04, 1.13938656e-02,
          2.43030172e-02, 1.86011195e-02, 1.17005305e-02,
          -3.93854454e-03, -8.66655912e-03, -6.91758888e-03,
          -5.51745156e-03, -3.63965705e-03, 1.13696568e-02,
          1.71999354e-02, 5.84693113e-03, 7.47307157e-03,
          -1.06603783e-02, -1.06407795e-02, -1.68386959e-02,
          -1.11387931e-02, -3.89957591e-03, 2.74772048e-02,
          2.74435300e-02, 2.64455862e-02, 2.12975834e-02,
          -2.50030472e-03, -8.52709822e-03, -1.07037676e-02,
          -9.57152806e-03, -3.41632008e-03, 1.75160784e-02,
          1.15263918e-02, 1.61589663e-02, 1.53966499e-02,
          -7.95046857e-04, -3.62866046e-03, -5.40443743e-03,
          2.10070005e-03, -3.05085123e-05, -6.79545192e-05,
          1.24794082e-03, 1.86535972e-03, 2.97237537e-03, 1.46816066e-02,
          6.21315278e-03, 1.74296871e-02, -8.42044316e-03,
          -8.42044316e-03, -6.62345113e-03, -7.79001787e-03,
          3.17814806e-03, 1.51769780e-02, -5.74491965e-03,
          1.44695665e-03, 1.44578535e-02, 3.56831355e-04,
          -2.51776102e-04, -2.51776102e-04, -7.34153436e-03,
          7.06469233e-04, -8.13912507e-03, 3.71518370e-04,
          1.46451022e-03, 1.92472711e-02, -1.08407543e-03,
          -5.33078797e-03, -5.33078797e-03, -1.56448223e-04,
          1.46846683e-03, 7.43629527e-04, 1.80157158e-03,
          -7.58727605e-04, 2.73095421e-03, 7.24562304e-03,
          1.32960104e-03, -1.90938008e-03, -1.90938008e-03,
          -2.46325019e-03, 1.22639525e-03, -1.19056776e-02,
          -1.30699947e-02, -7.66986934e-03, 5.29069034e-03,
          6.63583865e-03, 6.63583865e-03, 6.63583865e-03,
          -1.22058550e-02, -4.82528005e-03, 4.14259173e-03,
          1.06796091e-02, 6.02604076e-03, -5.81853325e-04,
          1.22705931e-02, -4.37264377e-03, -4.37264377e-03,
          -4.37264377e-03, -2.38279882e-03, -2.58413097e-03,
          1.38918739e-02, 8.91585741e-03, 3.22498789e-04, 3.57816159e-03,
          7.30078062e-03, -2.03975309e-02, -2.58413097e-03,
          -2.58413097e-03, -4.10432369e-03, -5.14950603e-03,
          -1.62605550e-02, -5.69657981e-03, 1.42808892e-02,
          1.67606398e-02, 1.36841163e-02, 9.71656479e-03,
          -3.69599531e-03, -1.55633865e-02, -2.10805181e-02,
          -2.52147540e-02, -1.35099821e-04, 2.51454525e-02,
          2.47150566e-02, 2.70998497e-02, 3.42245325e-02, 2.71883737e-02,
          -6.97802380e-03, -1.13101741e-02, -1.39031438e-02,
          -1.01770768e-02, 2.15364480e-03, 1.00644520e-02,
          1.54243102e-02, 2.49569286e-02, 2.14315895e-02,
          -1.49735226e-03, -1.49735226e-03, -7.91996904e-03,
          -1.97088569e-02, -1.11255199e-02, 2.38844077e-03,
          6.81494689e-03, 2.42111515e-02, 1.57341771e-02,
          -6.71288231e-03, -8.86683539e-03, -2.46946067e-02,
          -2.52998825e-02, 2.00138357e-03, 2.56703757e-02,
          2.95094028e-02, 3.45315449e-02, 2.22922917e-02, 6.15203753e-04,
          -4.71231248e-03, -1.48876878e-02, -1.56087028e-02,
          -1.34762637e-02, 7.22380774e-03, 1.35366255e-02,
          2.20816080e-02, 1.65738277e-02, 9.24333092e-03, 5.90493623e-03,
          3.22541152e-03, -7.56968465e-03, -1.06542492e-02,
          -1.58090908e-02, -4.81700199e-03, -3.58084566e-03,
          1.19654499e-02, 9.62852966e-03, 1.21471845e-02, 5.91296051e-03,
          -1.68543383e-02, -2.57113166e-02, -1.88294053e-02,
          -1.34314774e-02, 4.17146366e-03, 1.46730011e-02,
          2.97701154e-02, 2.90505234e-02, 1.45591879e-02,
          -6.74558897e-03, -2.32461169e-02, -4.17145491e-02,
          -1.44476024e-02, -5.09334088e-04, 2.75041927e-02,
          1.30741159e-02, 2.98374500e-02, 1.26518663e-02,
          -3.29107302e-03, -3.29107302e-03, -1.22467065e-02,
          -1.95921753e-02, -1.13169197e-02, -7.98322912e-03,
          5.06420853e-03, 3.38673592e-02, 3.05677243e-02,
          -2.51606596e-03, -2.51606596e-03, -2.75102891e-02,
          -1.74252857e-02, -1.34443110e-02, -1.80028770e-02,
          2.53443490e-03, 2.98133440e-04, -1.88278616e-03,
          -2.84962775e-03, 2.09594169e-03, -2.65477784e-03,
          -2.65477784e-03, -8.60899687e-04, 7.94860534e-03,
          1.14531070e-03, -4.45802417e-03, -2.45959731e-03,
          -4.53306641e-03, 3.56062618e-03, 5.31385280e-03,
          4.47702769e-04, 4.47702769e-04, 4.47702769e-04, 3.80496238e-03,
          8.47004447e-03, -8.11235979e-04, -1.70269737e-03,
          -9.03213676e-03, -1.45953950e-02, 2.26989388e-03,
          2.26989388e-03, 2.26989388e-03, -4.23369138e-03,
          2.16585062e-02, 9.39089712e-03, 3.64956306e-03,
          -1.81422452e-03, -1.00395856e-02, -5.61234681e-03,
          -5.05955657e-03, -4.23369138e-03, 6.17216714e-03,
          -5.21502458e-03, -2.90744137e-02, -2.12541856e-02,
          -8.44395068e-03, 5.50296437e-03, 1.10882111e-02,
          1.32262651e-02, 6.17216714e-03, 3.51274991e-03, 2.62634875e-03,
          -1.92560405e-02, -2.77234949e-02, -1.40061509e-02,
          -5.63236326e-03, -1.00961339e-03, 2.87745595e-02,
          1.22107370e-02, 5.26942546e-03, 3.68501199e-03,
          -1.72410663e-02, -2.17877105e-02, -1.37165049e-02,
          -1.64002776e-02, 3.64272809e-03, 2.73714252e-02,
          8.25481303e-03, -3.76715267e-04, -1.15384161e-03,
          -2.74321716e-02, -2.51733381e-02, -2.39622477e-03,
          -1.99970324e-03, 6.71873102e-03, 3.87157016e-02,
          1.50472512e-02, 1.39208054e-02, -9.74667899e-04,
          -3.15317847e-02, -3.98105308e-02, -1.98531486e-02,
          -3.87226627e-03, 1.20675666e-02, 2.81258915e-02,
          2.60921270e-02, 1.02625433e-02, 9.97121446e-03,
          -1.30631421e-02, -2.21945383e-02, -2.33447701e-02,
          -1.86616071e-02, -6.42760657e-03, 9.99303721e-03,
          9.97121446e-03, 1.22398688e-02, 1.27954269e-02, 8.93418444e-04,
          -2.09690947e-02, -2.84688305e-02, -2.88382396e-02,
          -1.17281638e-02, 2.14572321e-03, 1.28503097e-02,
          9.65235662e-03, 1.05579635e-02, 1.19986553e-02,
          -1.47664035e-02, -2.33610664e-02, -2.32968219e-02,
          -1.58415083e-02, 7.02596386e-04, 1.02722254e-02,
          3.04070357e-02, 2.61492655e-02, 2.00195853e-02,
          -9.52316634e-03, -2.81273127e-02, -3.29928212e-02,
          -1.55886011e-02, 1.38786910e-02, 2.84895729e-02,
          2.08574403e-02, 3.41397338e-02, 2.25568581e-02, 1.40401197e-03,
          -2.58923657e-02, -3.26350741e-02, -2.97937002e-02,
          -1.31011214e-02, 6.58234581e-04, 7.42546050e-03,
          1.81510057e-02, 9.31678992e-03, 6.36170805e-03,
          -1.02358824e-02, -3.52985002e-02, -1.11986790e-02,
          -3.42002930e-03, -1.07496288e-02, 4.31470602e-04,
          -9.87780560e-03, -1.55082042e-03, -6.48055691e-03,
          -4.62723570e-03, 1.89970783e-03, 1.89970783e-03,
          1.89970783e-03, 5.85008645e-03, 4.60772403e-03,
          -8.41744989e-03, -5.89236896e-03, -5.13814099e-04,
          -3.17423861e-03, 6.35222392e-03, 3.13956756e-04,
          -1.43028714e-03, -1.43028714e-03, 5.66079339e-04,
          1.67817865e-02, 4.86289896e-03, 1.73275778e-03,
          -2.50245398e-03, -9.64310672e-03, -9.07719787e-03,
          -2.99984182e-04, -2.99984182e-04, 1.83755090e-03,
          -6.51169708e-03, -7.41209835e-03, 9.67547065e-04,
          -4.36094450e-03, -2.39078910e-03, 7.67653063e-03,
          1.83755090e-03, 1.83755090e-03, 4.73789824e-03,
          -7.02956342e-04, -1.08559541e-02, -6.44874945e-03,
          -7.74793979e-03, -1.37708392e-02, -3.05042160e-03,
          1.07590258e-02, 4.73789824e-03, -2.39809998e-03,
          -2.39809998e-03, -5.70006948e-03, -1.20385177e-02,
          1.73761640e-04, 7.82301370e-03, 1.24636600e-02, 1.25776930e-02,
          -2.39809998e-03, -4.67270892e-03, -4.67270892e-03,
          -1.35346418e-02, -1.36933941e-02, -9.06647299e-04,
          5.94330439e-03, 1.44956633e-02, 3.22245508e-02, 1.09250154e-02,
          6.69581303e-03, 1.94313267e-04, -2.31651030e-02,
          -2.27055345e-02, -1.14863040e-02, -1.16498172e-02,
          3.95939499e-03, 2.79476549e-02, 9.31770913e-03, 1.33733451e-02,
          4.23368672e-03, -2.23725121e-02, -2.13968363e-02,
          -2.10797489e-02, -2.02496182e-02, 1.81529822e-03,
          1.12595195e-02, 1.34169552e-02, 1.08306138e-02, 1.20280981e-02,
          -4.58978722e-03, -2.73215920e-02, -2.38035098e-02,
          -2.33925469e-02, -1.08062336e-02, 1.26277683e-02,
          1.10197747e-02, 1.35626048e-02, 8.84932373e-03, 6.38942327e-03,
          -2.25877799e-02, -2.16406174e-02, -2.51462441e-02,
          -2.01366376e-02, 9.31956246e-03, 1.50851933e-02,
          1.22823315e-02, 1.38797387e-02, -1.60151161e-03,
          -2.09528711e-02, -2.43869033e-02, -2.51286123e-02,
          -1.39131742e-02, 2.80713453e-03, 1.22823315e-02,
          2.32461765e-02, 1.60703342e-02, 1.11451456e-02,
          -1.03784222e-02, -2.47242395e-02, -2.95632668e-02,
          -2.31623035e-02, -4.53387760e-03, 1.52749931e-02,
          3.22221243e-03, 1.93514545e-02, 3.15750726e-02, 2.89049521e-02,
          -8.06445349e-03, -3.40643153e-02, -2.71317903e-02,
          -1.62301101e-02, -3.71082895e-03, -4.69847582e-03,
          -3.81737994e-03, -3.69187817e-03, 5.08792000e-03,
          1.12999044e-02, 1.19772283e-02, 1.20601403e-02, 1.06247305e-03,
          -9.04685259e-03 ]
      - [ -8.24235613e-05, -8.24235613e-05, -8.24235613e-05,
          2.27976590e-03, -1.50510296e-03, 1.51278088e-02,
          5.59148844e-03, -1.00254314e-02, -2.53477553e-03,
          7.79466098e-03, 1.49797443e-02, 3.59984934e-02, 1.75219681e-02,
          -2.01844610e-02, -3.51154730e-02, -3.08636315e-02,
          -1.54311592e-02, 3.24843451e-03, 2.12081596e-02,
          2.10558325e-02, 2.06053611e-02, -1.38193993e-02,
          -3.21062803e-02, -3.61730084e-02, -3.25726271e-02,
          -1.06989229e-02, 1.83096621e-02, 1.24404468e-02,
          2.22352613e-02, 1.15207573e-02, -2.46516243e-02,
          -2.70159394e-02, -3.24427672e-02, -2.87067108e-02,
          -1.87645608e-03, 1.24404468e-02, 1.17048854e-02,
          9.83035658e-03, 8.03992152e-03, -1.75172854e-02,
          -2.61317417e-02, -2.63027344e-02, -4.74498840e-03,
          2.17816746e-03, 8.40726867e-03, 1.04430495e-02, 1.03536313e-02,
          -8.99461657e-03, -1.95810683e-02, -2.34642867e-02,
          -2.07700972e-02, -6.22631889e-03, 1.27136754e-02,
          1.24905240e-02, 1.00214723e-02, 1.12945894e-02,
          -2.40671751e-03, -2.21552905e-02, -1.59563087e-02,
          -1.91709381e-02, -1.35133173e-02, 1.19070187e-02,
          1.00214723e-02, 1.07669020e-02, 1.07669020e-02,
          -2.44206353e-03, -2.65127718e-02, -2.02352665e-02,
          -1.89327020e-02, -5.07499045e-03, 5.87078091e-03,
          1.07669020e-02, 1.29872905e-02, 1.76139455e-02,
          -1.24746654e-02, -1.88126154e-02, -1.97564345e-02,
          -2.40414124e-02, -8.01749434e-03, 8.81088246e-03,
          1.19263139e-02, 1.25978626e-02, 1.00559648e-02,
          -7.58446939e-03, -1.69542711e-02, -2.61167828e-02,
          -2.01548971e-02, -1.01176118e-02, 1.15791289e-02,
          1.47265550e-02, 1.22592207e-02, -2.31218827e-03,
          -1.86878797e-02, -2.61761378e-02, -2.22960915e-02,
          -1.20459488e-02, 1.01628369e-02, 1.00688636e-02,
          1.75462812e-02, 1.59166921e-02, 1.67792346e-02,
          -1.67735312e-02, -3.01789939e-02, -2.45404486e-02,
          -2.06336621e-02, -6.34429324e-03, 1.23474458e-02,
          1.35469176e-02, 1.65903158e-02, -5.58769470e-03,
          -2.58808695e-02, -3.28601375e-02, -3.12805101e-02,
          -1.90608688e-02, 5.56274178e-03, 1.94953773e-02,
          1.71984360e-02, 3.16174352e-03, -9.03008785e-03,
          -2.23651156e-02, -1.86570249e-02, -1.68694947e-02,
          -1.87475942e-02, 1.64363552e-02, 1.51384063e-02,
          7.80245755e-03, 9.50553827e-03, 3.96950077e-03, 7.30214687e-03,
          3.16535961e-03, -1.36638712e-02, -2.13305862e-03,
          -2.13305862e-03, 4.89142537e-03, 1.43126782e-03,
          5.44795906e-03, 3.46706696e-02, 1.58464052e-02, 6.87659672e-03,
          -1.92031898e-02, -2.93235667e-02, -1.79990418e-02,
          -1.79595985e-02, -1.97610166e-02, 2.94961799e-02,
          3.31312343e-02, 2.87237111e-02, 3.17905494e-03,
          -2.95946151e-02, -4.11085561e-02, -2.70126369e-02,
          -6.79594884e-03, 1.85691305e-02, 2.90797669e-02,
          2.28487719e-02, 1.04006203e-02, -1.19915707e-02,
          -3.89797166e-02, -4.37791608e-02, -1.93318930e-02,
          6.80344738e-03, 2.41806116e-02, 8.66410416e-03, 8.66410416e-03,
          4.71366011e-03, -2.48622075e-02, -2.84501929e-02,
          -2.98179947e-02, -1.46179115e-02, 1.48681421e-02,
          1.50097366e-02, 8.08548275e-03, 8.08548275e-03, 6.77507184e-03,
          -6.55017467e-03, -2.76538394e-02, -3.07763256e-02,
          -1.67841259e-02, 9.97206941e-03, 1.03354240e-02,
          2.46406882e-03, 2.46406882e-03, -1.29347891e-02,
          -1.25386687e-02, -1.35115497e-02, -1.48503091e-02,
          3.23324464e-03, 2.13402137e-02, 4.85395454e-03,
          -2.95839855e-04, -2.95839855e-04, -1.91395637e-03,
          -3.20940372e-03, -3.80604947e-03, -3.29057965e-03,
          3.61969229e-03, 4.64716647e-03, -2.95839855e-04,
          5.65466052e-03, 2.67035756e-02, -3.61104030e-03,
          -1.70092806e-02, -1.19010871e-02, -2.37568468e-02,
          -1.99287441e-02, 4.50586155e-03, 5.65466052e-03,
          2.18080934e-02, 2.50147805e-02, -2.00695004e-02,
          -2.81939227e-02, -2.67545693e-02, -2.95022819e-02,
          -2.19505280e-02, 1.01308255e-02, 1.39616998e-02,
          1.57932062e-02, 1.35358684e-02, -1.60855204e-02,
          -2.92400178e-02, -3.12475301e-02, -2.33447123e-02,
          -1.50227668e-02, 1.28023131e-02, 1.94914788e-02,
          2.00893190e-02, -1.04162167e-03, -2.44372878e-02,
          -2.91572772e-02, -3.14784423e-02, -2.30543315e-02,
          7.90694822e-03, 1.31388055e-02, 1.49030164e-02, 1.29159251e-02,
          1.25511670e-02, -1.88642945e-02, -2.69835107e-02,
          -2.66353264e-02, -2.55758464e-02, -3.71291954e-03,
          1.30131617e-02, 1.39939887e-02, 2.68324912e-02, 5.89808309e-03,
          -4.76654712e-03, -1.76723469e-02, -3.74406241e-02,
          -1.57193784e-02, -1.18406280e-03, 1.22664813e-02,
          2.46044751e-02, 1.95787791e-02, 1.08958064e-02,
          -1.21169649e-02, -1.35360528e-02, -1.89232416e-02,
          -4.75995895e-03, 3.92343703e-04, 1.36313299e-02,
          1.06228413e-02, 2.20565195e-03, -1.05434190e-02,
          -9.77973081e-03, -7.41429674e-03, -1.16343591e-02,
          -6.14396576e-03, -3.14159435e-04, 3.21550369e-02,
          8.42687394e-03, -2.20468407e-03, 2.31768079e-02,
          1.62057020e-02, 1.41162041e-03, 1.41162041e-03,
          -2.37772949e-02, -1.13328705e-02, -1.39115779e-02,
          -3.21280328e-03, 6.97705708e-03, 2.60104928e-02,
          2.62039956e-02, -1.89800211e-03, -2.10174383e-03,
          -2.36024465e-02, -1.50060263e-02, -6.58517005e-03,
          5.56348183e-04, 1.99933331e-02, 1.42186116e-02, 3.64835351e-03,
          -4.70349751e-03, -7.43994489e-03, -3.27727422e-02,
          -1.39302677e-02, 6.76105404e-03, 1.97151452e-02,
          -1.35558646e-03, -1.35558646e-03, -9.08174179e-03,
          -1.52920773e-02, -1.09014194e-02, 9.83620761e-04,
          2.18031704e-02, 1.24836667e-02, 5.03181806e-03,
          -1.18892752e-02, -1.18892752e-02, -1.45464754e-02,
          -1.11410106e-02, 1.77939646e-02, 1.57990046e-02,
          2.13891342e-02, 2.87436917e-02, 1.65162645e-02,
          -1.60400085e-02, -1.60400085e-02, -1.99620500e-02,
          -7.97746144e-03, 2.56840363e-02, 2.57366244e-02,
          3.06764469e-02, 2.96559110e-02, 1.65247601e-02,
          -9.19712149e-03, -9.19712149e-03, -6.54532399e-04,
          1.70865972e-02, 1.91240367e-02, 2.04616785e-02, 1.41163534e-02,
          -9.19712149e-03, -9.19712149e-03, 9.73275490e-03,
          2.24053338e-02, 3.11955865e-02, 1.23809716e-02,
          -1.16215283e-02, -1.42003782e-02, -1.17772734e-02,
          -3.65159824e-03, -3.77230323e-03, 2.32953625e-03,
          1.37277292e-02, 1.34803746e-02, -5.00642275e-03,
          -9.22674034e-03, -1.28685730e-02, -6.74460595e-03,
          5.12860902e-03, 8.67241435e-03, -1.63617299e-03,
          2.35040346e-03, 9.58563574e-03, -5.86220669e-03,
          -4.83702635e-03, -4.19782754e-03, -2.56986218e-03,
          2.87422998e-04, 6.13093982e-03, 1.42446836e-03, 4.52467287e-03,
          4.76364163e-04, -1.27377212e-02, -1.87175963e-02,
          1.03750988e-03, 1.08799906e-02, 5.61154122e-03, 9.81576857e-04,
          3.48582724e-03, 3.91298579e-03, -6.31403551e-03,
          -1.05572445e-02, 1.00859441e-03, -4.05912520e-03,
          5.04748011e-03, 2.03850749e-03, 1.62797514e-03, 1.66609921e-02,
          -4.92889620e-03, -2.33070329e-02, -2.29672417e-02,
          -3.03699635e-03, -3.03699635e-03, 3.08418833e-03,
          1.52342152e-02, 3.00467331e-02, -1.67890496e-04,
          -2.06272205e-04, -1.32544525e-02, -6.36107847e-03,
          -2.04918510e-03, -2.04918510e-03, 2.02456266e-02,
          8.20573978e-03, -5.66487852e-03, -9.70685761e-03,
          1.31987361e-03, 3.89030902e-03, -1.00333327e-02,
          -2.24499585e-04, -2.24499585e-04, 7.81317707e-03,
          1.03123467e-02, -5.60375769e-03, 8.70968960e-03,
          1.28282523e-02, 3.05620790e-03, -3.37266154e-03,
          -3.37266154e-03, -3.37266154e-03, 2.20005648e-04,
          2.87650176e-03, -2.52875849e-03, -7.16154790e-03,
          2.25592894e-03, 2.99152778e-03, 1.36111677e-02, 1.88914291e-03,
          -3.62032239e-04, -1.69048589e-02, -1.18973944e-02,
          -6.60787569e-03, -6.96342578e-03, -1.10914176e-02,
          -7.42146932e-03, 1.45322373e-02, -3.00278392e-04,
          -3.00278392e-04, 3.94187449e-03, 5.57552278e-03,
          9.92810819e-03, -1.80422533e-02, -1.53900674e-02,
          -1.72126051e-02, 1.80577266e-03, 2.98675951e-02,
          2.94814985e-02, 3.31086740e-02, 1.62927024e-02,
          -6.21062296e-04, -8.49010516e-03, -1.10012330e-02,
          -1.13780955e-02, -6.74311258e-03, 1.85242090e-02,
          2.33729314e-02, 2.40727849e-02, 7.32165528e-03,
          -5.46358852e-03, -1.52244978e-03, -1.52244978e-03,
          -2.96222395e-03, -5.12310257e-03, 5.56870596e-03,
          8.01778864e-03, 4.75082826e-03, -2.32161419e-03,
          -2.16395082e-03, -3.45801294e-04, 1.36088149e-03,
          9.78689082e-03, 1.81077805e-03, -5.54681802e-03,
          -6.85800100e-04, -2.04714015e-03, -2.69787665e-03,
          -1.33882222e-05, 2.53259912e-02, 2.04371102e-02,
          1.82368234e-02, 2.25942652e-03, -2.43040435e-02,
          -3.24815512e-02, 2.21361383e-03, 2.08364800e-02,
          2.38034427e-02, 1.62969846e-02, 1.05824247e-02, 8.52623209e-03,
          -2.44501606e-03, -8.76116659e-03, -8.76116659e-03,
          -7.79555412e-03, 5.16335294e-03, 7.53870467e-03,
          -3.81182390e-03, 1.54216052e-03, -4.29771515e-03,
          3.84440203e-03, -3.85683641e-04, -2.64299488e-05,
          2.45785783e-03, 1.28911110e-03, -1.92672992e-03,
          3.68103967e-04, 3.68103967e-04, -2.11824384e-03,
          -5.06230572e-04, -2.30944972e-03, -2.96273013e-03,
          8.18113890e-03, -2.59908644e-04, -5.80286782e-04,
          -5.38950262e-04, -4.09288425e-03, -7.69917062e-03,
          5.06450608e-03, 2.94988300e-03, 4.68596292e-04, 8.18052096e-04,
          1.58502220e-03, -3.65852000e-04, 1.55498274e-02,
          -1.47217116e-03, -7.05774932e-04, -7.16252020e-03,
          -7.16252020e-03, 6.03102380e-03, -4.62535350e-03,
          2.81856256e-03, 1.58560462e-02, -1.46554527e-03,
          7.12561130e-04, -5.65700000e-03, -9.82059355e-05,
          -9.82059355e-05, 9.05701611e-03, 7.11193448e-03,
          -1.02425413e-02, -1.21603068e-02, -5.15758805e-03,
          -3.07545811e-03, 1.21728505e-03, -8.83350847e-04,
          -5.38055494e-04, -5.38055494e-04, 1.23025607e-02,
          -2.31242549e-04, -7.99312908e-03, 2.87130405e-03,
          -1.73743791e-03, -3.92894121e-03, -2.32321341e-02,
          -7.82857358e-04, -7.82857358e-04, 1.93981100e-02,
          1.03262737e-02, 3.53581225e-03, -2.77084764e-02,
          -2.30599530e-02, -1.11951893e-02, 5.21622458e-03,
          1.23627586e-02, 1.15805967e-02, 1.15805967e-02,
          -6.99037593e-03, -1.40638789e-02, -5.21567557e-03,
          -2.11537685e-02, -2.82466840e-02, -1.17782950e-02,
          1.45288464e-02, 4.72224457e-03, 9.20117088e-03, 1.26897609e-02,
          1.07528046e-02, -5.41469082e-04, -9.54305811e-04,
          -1.10198371e-02, -1.72501151e-02, 9.14158009e-05,
          5.85423596e-03, -1.39904630e-04, 1.59367062e-02,
          7.46041164e-03, -5.77031635e-03, -7.08687259e-03,
          -1.55303087e-02, -8.92856531e-03, 1.34574994e-02,
          1.46376872e-02, 1.46620758e-02, 1.52925011e-02,
          -1.76497080e-04, -9.92124202e-04, -9.62694455e-03,
          -8.69368948e-03, 1.39698666e-02, 2.51040068e-02,
          1.39553016e-02, -7.46840937e-03, -2.67386157e-03,
          -2.63490435e-03, 1.52152264e-02, 1.67849101e-02,
          2.28168610e-02, 1.20968660e-02, -1.48758562e-02,
          -1.99934915e-02, -1.50549123e-02, -2.94964947e-03,
          -1.56771450e-03, 2.98824962e-02, 2.12351121e-02,
          4.48489049e-03, 3.23617435e-03, -2.14249436e-02,
          -2.02451609e-02, -2.37194337e-02, 3.23333382e-03,
          1.46226976e-02, 2.46586278e-02, 3.41136679e-02, 1.84666310e-02,
          1.18976822e-02, -1.06008900e-02, -1.81921721e-02,
          -1.65564697e-02, -9.81188938e-03, 3.69708287e-03,
          1.31158612e-03, 9.79924458e-04, 3.34344595e-03, 8.89830105e-03,
          -7.93845020e-03, 2.11732066e-03, -6.00303896e-03,
          -1.73353031e-03, 1.31158612e-03, 4.54378035e-03,
          4.54378035e-03, 5.28136827e-03, -1.07127195e-02,
          -8.05133954e-03, -1.34370970e-02, 6.09166455e-03,
          -4.35536355e-03, 4.54378035e-03, 2.52297567e-03,
          2.52297567e-03, -3.46087082e-03, -1.36205731e-02,
          -1.69008188e-02, -3.50807467e-03, 5.43564279e-03,
          1.44947525e-02, 2.52297567e-03, 6.20410917e-03,
          -2.53116130e-03, -2.53116130e-03, -2.53116130e-03,
          -1.35360425e-02, 5.11486898e-04, 4.22677211e-03,
          1.60595514e-02, 1.68535672e-02, 2.96781585e-03, 4.64235293e-03,
          4.57876548e-03, 4.57876548e-03, 4.57876548e-03,
          -6.25610992e-04, -8.62449128e-03, -1.53216897e-02,
          -1.71769150e-02, -5.14355255e-03, 7.26565579e-03,
          -2.01024232e-03, -2.01024232e-03, -2.01024232e-03,
          5.36139915e-03, -2.32576393e-03, -2.34116521e-03,
          -8.88977782e-04, 2.93075154e-03, -3.25968396e-03,
          -1.06467679e-02, -3.55287567e-02, -1.16703287e-02,
          1.28414726e-03, 2.29530828e-03, 2.41063163e-02, 9.09496192e-03,
          -1.28274562e-03, -1.94917452e-02, -2.55815387e-02,
          -1.65028237e-02, -5.70681784e-03, 1.25140753e-02,
          1.38051482e-02, 1.02143483e-02, 7.57451868e-03, 7.28950789e-03,
          -1.23552587e-02, -2.84529664e-02, -3.35964635e-02,
          -9.58363526e-03, 1.05462701e-03, 2.28489134e-02,
          1.53635787e-02, 9.16252937e-03, -1.60499546e-03,
          -4.73924354e-03, -2.64340900e-02, -2.97175273e-02,
          -2.43046111e-03, 2.14212667e-03, 1.72659401e-02,
          3.72571945e-02, 2.22840272e-02, 3.17606470e-03,
          -8.51723459e-03, -3.40089425e-02, -1.74560975e-02,
          -7.08228955e-03, 8.91743600e-03, 6.22813450e-03,
          2.29958780e-02, 1.21735670e-02, 9.86627769e-03, 8.71773344e-03,
          -1.61795076e-02, -9.56379436e-03, -1.08043682e-02,
          -1.90613624e-02, -1.92675572e-02, 9.86627769e-03,
          9.86627769e-03, 3.93178910e-02, 4.11982648e-02, 2.11983155e-02,
          9.62912943e-03, -2.04391722e-02, -4.58648279e-02,
          -3.53583433e-02, -7.96815194e-03, 1.23031838e-02,
          2.81483103e-02, 3.30474712e-02, 9.72032640e-03,
          -5.44453692e-03, -2.71754358e-02, -4.13215496e-02,
          -3.54530774e-02, 1.24818669e-03, 3.98422359e-03,
          1.58054680e-02, 3.20276134e-02, 8.05859361e-03,
          -1.15364585e-02, -1.66113824e-02, -3.35367583e-02,
          -2.37568952e-02, 3.13682423e-04, 3.59567231e-03,
          7.20594544e-04, 2.24279650e-02, 1.29373716e-02, 9.61617101e-03,
          3.87899956e-04, -8.33530817e-03, -2.75035594e-02,
          -4.47496586e-03, -1.73517992e-03, 1.71488407e-03,
          1.86649757e-03, -4.49019764e-03, 7.78055750e-04,
          -9.89351538e-04, -3.65592143e-03, -2.19475757e-03,
          -1.09765003e-03, 1.71488407e-03, 1.09763649e-04,
          1.09763649e-04, 1.74329834e-05, -4.43928456e-03,
          6.87613944e-03, 6.34173490e-03, -2.28357478e-03,
          2.37820367e-03, 1.09763649e-04, -1.26621942e-03,
          -1.26621942e-03, -1.26621942e-03, -9.21409577e-03,
          1.88381528e-03, 6.64841291e-03, 1.96287641e-03, 1.16388574e-02,
          3.49053473e-04, -1.99517258e-03, -1.99517258e-03,
          -1.99517258e-03, -3.52439680e-03, 1.93717203e-03,
          3.05061840e-04, -3.88249382e-03, -3.53389978e-03,
          1.16292005e-02, -1.37102383e-03, -7.22637109e-04,
          -7.22637109e-04, -7.22637109e-04, 2.92342994e-03,
          -6.80517778e-03, -3.47800599e-03, 2.02788069e-04,
          7.82184862e-03, -9.05566104e-03, 2.50648009e-03,
          1.20859295e-02, 5.45983296e-03, -4.37367707e-03,
          3.18268291e-03, -6.45734763e-05, -6.45734763e-05,
          -6.45734763e-05, -4.35130292e-04, -3.17721665e-02,
          -3.48843224e-02, -5.30960131e-03, -2.94077734e-04,
          2.37257779e-02, 3.40991840e-02, 1.15237487e-02,
          -4.35130292e-04, 3.29402275e-03, -5.68830781e-03,
          -3.33045945e-02, -2.13303044e-02, -5.32180723e-03,
          4.49525518e-03, 2.68641021e-02, 9.88593884e-03, 3.29402275e-03,
          4.04777471e-03, -2.46080523e-03, -3.16815749e-02,
          -3.04537583e-02, -2.54564863e-02, -1.00015635e-02,
          2.42146254e-02, 2.59092525e-02, 1.44606829e-02, 1.46667827e-02,
          3.04147904e-03, -2.59714480e-02, -2.23585926e-02,
          -2.89904978e-02, -2.69672088e-02, 2.33655050e-03,
          1.50616281e-02, 1.45457005e-02, 7.08980020e-03, 7.98305310e-03,
          7.87601061e-03, -1.38069708e-02, -2.35807709e-02,
          -1.61989499e-02, -4.48767515e-03, 5.97875938e-03,
          7.02842278e-03, 2.39869952e-02, 2.28315052e-02, 1.37008037e-02,
          -2.49458733e-03, -2.96246037e-02, -3.34639885e-02,
          -1.95531026e-02, 5.48302232e-05, 7.27713527e-03,
          2.90521309e-02, 2.92243101e-02, 1.15443813e-02, 8.57839175e-03,
          -3.98204289e-03, -1.28753735e-02, -3.47164981e-02,
          -5.10792481e-03, -5.10792481e-03, 6.00160938e-03,
          2.14640275e-02, 6.09129062e-03, 1.32266001e-03, 4.37397091e-03,
          -9.73291753e-04, -1.75452195e-02, -8.49708449e-03,
          -1.01783278e-03, -1.12808566e-03, 3.08364723e-03,
          4.81923716e-03, -1.45221653e-03, -2.92555685e-03,
          -1.57845439e-03, 8.56129020e-07, -1.31101604e-03,
          -1.12808566e-03, -9.56663644e-05, 4.50100284e-03,
          -9.62870836e-04, 1.20942749e-03, -1.08401140e-03,
          -8.52742605e-03, -3.48841865e-03, 3.71487578e-03,
          -9.56663644e-05, 4.69286373e-04, 4.69286373e-04,
          -1.94851737e-02, 7.48133694e-04, -9.82988859e-05,
          3.39809526e-03, 1.06745251e-02, 9.47862305e-03, 4.69286373e-04,
          -4.91171610e-03, -4.91171610e-03, -7.28158699e-03,
          -2.35754717e-03, 6.97706779e-03, 6.63755229e-03,
          1.28840273e-02, 2.50563007e-02, -1.18457945e-03,
          -3.85558349e-03, -3.85558349e-03, -3.88378231e-03,
          1.59484055e-03, -4.81427275e-03, 4.46525723e-04,
          7.14688981e-03, 1.72186922e-02, 4.63494519e-03, 1.98633643e-03,
          2.61387019e-03, 3.62424273e-03, 2.57064844e-03, 2.18682573e-03,
          -5.42304525e-03, -8.17623641e-03, -5.71907917e-03,
          -1.48632715e-03 ]
      - [ 3.43592255e-03, 4.27599251e-03, 4.05315496e-03, 4.15951293e-03,
          -2.62611895e-03, -7.99656473e-03, -1.20779732e-02,
          -5.78347407e-03, 3.56226647e-03, 1.16793029e-02,
          8.13503750e-03, 8.61159898e-03, -6.48865802e-03,
          -1.27068209e-02, -2.04653908e-02, -1.75035596e-02,
          -7.66935805e-03, 6.66620070e-03, 1.26709742e-02,
          9.78212338e-03, 1.14544593e-02, -1.74856745e-02,
          -1.98046993e-02, -1.50291370e-02, -1.50117949e-02,
          -9.51698236e-03, 8.14474933e-03, 1.03043281e-02,
          1.30670117e-02, 6.12961920e-03, -1.77807640e-02,
          -2.22003572e-02, -2.07660738e-02, -1.92901921e-02,
          -2.08931346e-03, 1.01595828e-02, 5.04861260e-03,
          5.04861260e-03, 7.19227502e-03, -1.28531503e-02,
          -1.81899890e-02, -1.54631604e-02, -6.52798032e-03,
          7.39169912e-03, 5.04861260e-03, 3.71768954e-03, 3.55935795e-03,
          -9.12257563e-03, -1.28657520e-02, -1.01462193e-02,
          -3.66843934e-03, 1.01011759e-03, 6.97754556e-03,
          3.71768954e-03, -2.02853302e-03, -2.02853302e-03,
          -1.51302228e-02, -2.92218337e-03, 2.95749470e-03,
          2.17489433e-03, 1.39666093e-03, 1.63592380e-02, 4.15180624e-03,
          -4.20686556e-03, -4.20686556e-03, -9.10795294e-03,
          2.37884087e-05, 4.82205395e-03, 3.73540772e-03, 1.46579780e-02,
          2.16643009e-02, -1.98958893e-04, -4.71992930e-03,
          -4.71992930e-03, -1.67929064e-02, -2.46497197e-03,
          6.36785710e-03, 5.21398382e-03, 1.82365999e-02, 2.07894500e-02,
          -3.08479182e-04, 8.20312998e-04, 1.08569278e-04,
          -9.69950017e-03, -9.75709467e-04, 5.50698081e-04,
          2.48508458e-03, 4.95069078e-04, 1.45600154e-03, 8.20312998e-04,
          2.64052791e-03, -4.42685839e-03, -9.41610895e-03,
          -2.42703897e-03, -6.70833793e-03, -1.08052697e-03,
          6.34307647e-03, 2.64052791e-03, 2.64052791e-03, 1.56978704e-02,
          2.44496949e-02, 6.24605594e-03, -1.45940371e-02,
          -2.51952205e-02, -2.35208180e-02, -1.04325870e-02,
          5.95105905e-03, 1.27359824e-02, 1.64560899e-02, 4.04687785e-03,
          -1.54232970e-02, -2.71506328e-02, -2.54159644e-02,
          -1.75133627e-02, 5.70622215e-04, 1.19409151e-02,
          1.94440354e-02, 6.22556033e-03, -1.72132754e-03,
          -1.37394583e-02, -2.42420956e-02, -2.22175866e-02,
          -1.42328069e-02, 9.81545541e-03, 1.24567216e-02,
          9.11037438e-03, -9.38005163e-04, -6.35073939e-03,
          -1.18257236e-02, -5.61381271e-03, -4.82825469e-03,
          5.69620589e-03, 8.90670810e-03, 8.07160605e-03, 2.72443146e-03,
          2.96561024e-03, 1.42571321e-02, 1.37371412e-02, 1.43082412e-02,
          -7.95972813e-03, -2.01923046e-02, -2.10666787e-02,
          -2.31978204e-02, -1.49898911e-02, 5.00537734e-03,
          5.00537734e-03, 5.55945607e-03, 9.78201535e-03,
          -6.23231754e-03, -1.64089911e-02, -1.80242211e-02,
          -7.13154441e-03, 1.98192382e-03, 2.79043149e-03,
          2.79043149e-03, 6.28005946e-03, 4.42088523e-04,
          -1.39851412e-02, -1.13114398e-02, -7.63539365e-03,
          -3.10087367e-03, 1.57146051e-03, -5.52524347e-04,
          -5.52524347e-04, -5.89535711e-03, -1.20497691e-02,
          -6.23715855e-03, -1.11148067e-04, 4.97255847e-03,
          1.55333970e-02, -5.52524347e-04, -3.77761503e-03,
          -3.77761503e-03, -1.98281673e-03, -3.78765777e-04,
          -1.23654306e-03, 7.60087220e-04, 4.45957528e-03,
          1.55060831e-02, 1.68576906e-03, -2.81707919e-03,
          -2.81707919e-03, -1.35056181e-02, -4.23114572e-04,
          1.18896784e-03, 6.34335214e-03, 1.60751194e-02, 1.75300948e-02,
          -2.51799892e-03, 1.30098360e-03, 1.30098360e-03,
          -1.18242064e-02, -1.34697156e-02, -1.37324934e-03,
          -2.65865674e-04, 3.06657690e-04, 1.44135458e-02,
          2.64818198e-03, 1.15592766e-03, 1.25213948e-04,
          -1.89146288e-02, -6.52636727e-03, -3.86729464e-03,
          -9.77766584e-04, 6.77627977e-03, 1.22904284e-02,
          1.15592766e-03, 2.67994963e-03, 2.42315629e-03,
          -2.13474240e-02, -1.34786889e-02, -9.08097485e-04,
          -1.13911869e-04, 1.68186484e-03, 1.17076077e-02,
          2.67994963e-03, 8.14320706e-03, 3.95380985e-03,
          -3.87175498e-03, -6.39080256e-03, -1.20300986e-02,
          -2.05133371e-02, -1.50920171e-02, 6.62226230e-03,
          8.14320706e-03, 1.19715622e-02, 3.46594048e-03,
          -1.55775193e-02, -1.77629590e-02, -2.38459632e-02,
          -1.81622300e-02, 3.45219043e-03, 9.37622599e-03,
          1.23883402e-02, 2.79417075e-02, 2.88302433e-02, 2.14471691e-03,
          -3.11405752e-02, -3.46882716e-02, -3.22021022e-02,
          -3.19967675e-03, 2.75852941e-02, 2.92118378e-02,
          1.17600746e-02, -9.23646614e-03, -1.26989195e-02,
          -2.29853932e-02, -2.24699862e-02, -7.27340160e-03,
          9.47301928e-03, 1.82198174e-02, 1.93170197e-02,
          -1.15768390e-03, 1.35944365e-03, -1.50302052e-02,
          -6.90176617e-03, -6.63569337e-03, 4.84543666e-03,
          3.17673152e-03, 5.97438635e-03, 5.39645460e-03,
          -1.83786284e-02, -1.56418588e-02, -2.02327892e-02,
          -9.75530129e-03, 6.92723459e-03, 1.33386431e-02,
          9.61740874e-03, 7.49025820e-03, -9.37560108e-03,
          -2.12436859e-02, -4.27806564e-03, 3.64415930e-03,
          8.78999475e-03, 2.62215808e-02, 8.32850393e-03, 1.01978506e-03,
          -1.14278691e-02, -1.96816605e-02, -2.36762799e-02,
          -1.06364666e-02, 5.74557751e-04, 2.34342292e-02,
          3.33297215e-02, 1.67418886e-02, 7.08687771e-03,
          -6.96841534e-03, -2.48442721e-02, -6.26659347e-03,
          -6.26659347e-03, -4.07937029e-03, 2.23476272e-02,
          2.49629933e-02, 7.75513379e-03, 6.56211376e-03, 4.78436006e-04,
          -1.11094592e-02, -4.40063560e-03, -4.40063560e-03,
          -1.02197425e-02, -6.87941792e-04, 3.18999612e-03,
          6.46224571e-03, 1.69483125e-02, 1.31672109e-02,
          -4.40063560e-03, -4.04057419e-03, -4.04057419e-03,
          -5.14894864e-03, 2.71545071e-03, 5.60664432e-03,
          1.40836369e-02, 9.85437538e-03, 3.77222267e-03,
          -2.74460576e-03, -5.93232783e-03, -5.93232783e-03,
          -6.82395045e-03, 1.86369475e-03, 7.45141599e-03,
          1.51532637e-02, 1.56699158e-02, 5.73139638e-03,
          -5.93232783e-03, -8.51404760e-03, -8.51404760e-03,
          -1.09252892e-02, 1.02099311e-02, 1.52223753e-02,
          1.87841877e-02, 1.72877740e-02, 7.73506891e-03,
          -7.94174895e-03, -1.19176451e-02, -1.36162229e-02,
          -5.20165265e-03, 1.51502471e-02, 2.00213753e-02,
          2.01565791e-02, 1.65046025e-02, 1.28078749e-02,
          -6.88749179e-03, -6.42441446e-03, -8.27737525e-03,
          -9.86415241e-03, 6.40397193e-03, 1.62303317e-02,
          1.35812396e-02, 1.26919802e-02, 7.50626298e-03,
          -6.42441446e-03, 3.15904082e-03, 7.44668627e-03,
          1.34772807e-02, -8.28049553e-04, -6.88484497e-03,
          -7.24818883e-03, -4.52853926e-03, 8.23984505e-04,
          1.97954406e-03, 1.74356140e-02, 1.32490452e-02, 1.64354488e-03,
          -1.24850627e-02, -1.79084949e-02, -5.98591985e-03,
          -2.85451044e-03, 6.76950222e-05, 1.25089483e-02,
          2.03566663e-02, 2.03642063e-02, 1.20802531e-02,
          -2.41843369e-02, -1.89133268e-02, -1.52803371e-02,
          8.70460831e-03, 2.02350523e-02, 2.11898759e-02, 2.43354123e-03,
          -1.07684452e-02, -1.23756202e-02, -1.55759268e-02,
          -1.60812913e-03, -1.60812913e-03, 1.21021112e-02,
          1.52151501e-02, 1.32215749e-02, -1.90174598e-02,
          -1.39248017e-02, -1.12892687e-02, 9.29832179e-03,
          1.01322224e-02, 1.10905878e-02, 1.02424109e-02,
          -5.65866474e-03, -1.86813008e-02, -1.99132785e-02,
          -1.67809725e-02, -1.24901393e-02, -2.11441680e-03,
          1.65669918e-02, 2.03050654e-02, 7.06376089e-03,
          -1.02338213e-02, -1.83116738e-02, -1.36102000e-02,
          -1.40443500e-02, -1.16582904e-02, 4.95710643e-03,
          6.10579643e-03, 2.02453155e-02, 1.29218651e-02, 1.05706591e-03,
          -8.31608009e-03, -2.92609036e-02, -2.50676014e-02,
          -2.12185699e-02, 2.41440739e-02, 3.19281034e-02,
          3.36261839e-02, 4.01454978e-03, -8.95677507e-03,
          -2.64145825e-02, -1.42209558e-02, -1.39669180e-02,
          -8.96314532e-03, 1.54142743e-02, 2.22848859e-02,
          2.17251126e-02, 1.58922151e-02, 2.04831449e-04,
          -1.20468233e-02, -8.25324003e-03, -6.97675813e-03,
          -6.79720193e-03, 5.97892096e-04, 1.86225045e-02,
          1.72544327e-02, 1.81388147e-02, -2.61103828e-03,
          -7.21252384e-03, -9.23819002e-03, -1.06066540e-02,
          -6.69820514e-03, 1.31757278e-02, 2.07559131e-02,
          2.16624569e-02, 1.83982570e-02, 4.82897926e-03,
          -1.04079535e-02, -9.64597706e-03, -9.64597706e-03,
          -9.43883602e-03, 1.06963301e-02, 1.94207635e-02,
          2.14303080e-02, 2.22004727e-02, 2.90703913e-03,
          -7.19763990e-03, -5.85775590e-03, -6.11286890e-03,
          -5.78118535e-03, -2.30784668e-03, 8.85206927e-03,
          1.35209570e-02, 1.91301238e-02, 4.47952561e-03,
          -5.22939675e-03, -6.83402689e-03, -1.06373038e-02,
          -2.15193303e-03, 1.07432408e-02, 1.43371020e-02,
          1.33344186e-02, 1.69108249e-02, -2.63705431e-03,
          -1.09206559e-02, -8.72436725e-03, -1.03434818e-02,
          1.41647900e-03, 1.21145062e-02, 1.22187017e-02, 1.67024806e-02,
          1.07645625e-02, -5.53179160e-03, -9.71900858e-03,
          -4.75876871e-03, -2.96173757e-03, -1.00074038e-02,
          -4.56319284e-03, -4.39471425e-03, 1.27529236e-03,
          1.48623353e-02, 1.48316585e-02, 6.54906640e-03, 1.60383135e-02,
          1.36529673e-02, -8.15343205e-03, -8.43248051e-03,
          -1.34608224e-02, -8.54179449e-03, 3.55962967e-03,
          1.22271078e-02, 1.36855384e-02, 1.50598120e-02, 1.33084347e-02,
          5.87915769e-03, 3.91792459e-03, -8.82696453e-03,
          -9.30577610e-03, -5.32793812e-03, -2.89218733e-04,
          6.64450508e-03, -6.93040248e-03, -8.73562228e-03,
          1.02938404e-02, 1.76318977e-02, 7.96924904e-03, 5.73551981e-03,
          -6.14720210e-03, -9.80442949e-03, -8.09267908e-03,
          -2.50814408e-02, -1.96722448e-02, -2.08304846e-03,
          2.64473725e-02, 2.87840217e-02, 2.99180318e-02, 3.00960755e-03,
          -2.57263444e-02, -2.63512488e-02, -2.11254004e-02,
          -1.39283203e-02, 1.13689862e-02, 2.87896730e-02,
          2.08585560e-02, 8.41006357e-03, -9.60036274e-03,
          -1.86931789e-02, -2.30353773e-02, -1.99943203e-02,
          -1.64300911e-02, -4.58860444e-03, 7.48247374e-03,
          9.30352416e-03, 9.30352416e-03, 9.45536327e-03,
          -7.00881705e-03, -1.34111345e-02, -2.93399859e-02,
          -3.08234468e-02, -2.57010069e-02, 1.12371920e-02,
          3.29998471e-02, 3.24284993e-02, 2.87103895e-02, 4.96953214e-03,
          -1.99138969e-02, -9.85372625e-03, -2.05536950e-02,
          -2.38834415e-02, -1.70882989e-03, 2.22812239e-02,
          2.72415690e-02, 2.53659692e-02, 9.23763588e-03,
          -4.63345926e-03, 9.37419609e-05, 9.37419609e-05,
          -5.97083522e-03, -1.02595752e-02, 1.85143354e-03,
          8.30629095e-03, 3.15883243e-03, 4.58759442e-03, 7.40183343e-04,
          5.09976351e-04, -8.26825853e-04, -1.23264333e-02,
          -7.74393277e-03, 5.36844693e-03, -3.06978635e-03,
          1.03360694e-02, 6.15089154e-03, 5.72528574e-04, 2.76608742e-03,
          -2.75185448e-03, -5.04852226e-03, -8.34347028e-03,
          1.99712184e-03, -3.46795586e-03, 2.90230336e-03,
          4.22600936e-03, 2.83040153e-03, 8.01438745e-03, 2.36092322e-03,
          -5.51512046e-03, -1.05215115e-02, -1.23455301e-02,
          -1.25150196e-02, 3.93457664e-03, 1.80178862e-02,
          1.33444322e-02, -1.97808677e-03, -1.97808677e-03,
          4.21910174e-03, -1.19356881e-03, 7.75381865e-04,
          9.71739087e-03, 6.25498185e-04, 1.20467320e-03,
          -1.97808677e-03, -4.96542035e-03, -4.96542035e-03,
          -6.56640064e-03, 1.19371237e-02, 1.09818596e-02,
          1.49927326e-02, 1.03313550e-02, -3.03206965e-03,
          -4.96542035e-03, 1.71329686e-03, 1.13484112e-03,
          -5.46554988e-03, -9.56896693e-03, -8.77883518e-04,
          2.84974929e-03, 7.36174919e-03, 1.30916364e-04, 1.94316881e-03,
          4.35698964e-03, 5.64151816e-03, 1.76623918e-03,
          -1.12249693e-02, -9.90669616e-03, -1.40333865e-02,
          -1.66404829e-03, 2.96527520e-03, 1.31081380e-02,
          1.07286368e-02, 9.38743819e-03, 3.30647291e-03,
          -7.25512812e-03, -1.43990414e-02, -1.79896299e-02,
          -1.25363991e-02, 1.55483221e-03, 7.38054700e-03,
          -1.59041071e-03, 5.03776455e-03, 1.08994478e-02,
          2.09300425e-02, 7.94045534e-03, -1.17188618e-02,
          -1.63101479e-02, -1.37943877e-02, -4.05428512e-03,
          -1.53231369e-02, -8.61075416e-04, 1.04252854e-02,
          2.38257349e-02, 2.24998333e-02, 1.83776878e-02,
          -3.38189793e-03, -2.66580675e-02, -2.56629866e-02,
          -1.31795350e-02, 8.93466361e-03, 1.97434351e-02,
          1.02833789e-02, 9.04094148e-03, -1.34671926e-02,
          -1.82742421e-02, -2.11835336e-02, -2.05633938e-02,
          -1.96262151e-02, -2.53727119e-02, -1.81963854e-02,
          -2.94893654e-03, 1.54096261e-02, 1.66261848e-02,
          6.12782687e-03, 5.89285558e-03, -7.36556435e-03,
          -5.32850856e-03, -1.66802425e-02, -2.26150453e-02,
          -1.35832774e-02, 9.20611806e-03, 1.60965212e-02,
          8.67018942e-03, 1.47705683e-02, 2.15605460e-03, 7.66129512e-03,
          -6.56630378e-03, -1.86858308e-02, -1.99646521e-02,
          -1.30216293e-02, -7.52489967e-03, 1.35510685e-02,
          8.37686844e-03, 7.66129512e-03, 8.80705472e-03, 8.11897591e-03,
          -5.79636777e-03, -1.57120712e-02, -1.96900051e-02,
          -1.89269185e-02, -9.38351080e-03, 8.78307968e-03,
          8.11897591e-03, 1.24488082e-02, 1.30622520e-03,
          -1.78920571e-02, -2.03545783e-02, -1.69173814e-02,
          -1.16110630e-02, -5.96850505e-03, 1.24198887e-02,
          1.19179031e-02, 1.22658545e-02, 9.46567114e-03,
          -1.00831967e-02, -1.88893043e-02, -2.31295861e-02,
          -1.46381361e-02, -1.28054069e-02, 9.84863192e-03,
          1.23341801e-02, 2.00186688e-02, 2.57873014e-02, 7.21867010e-03,
          -1.26459226e-02, -2.66012270e-02, -2.47423686e-02,
          -1.79100912e-02, 2.44342932e-03, 6.81285514e-03,
          1.26205536e-03, 7.85765797e-03, 1.16886152e-02, 1.47126347e-03,
          -3.17717670e-03, -7.06558535e-03, -1.98557898e-02,
          -1.40836905e-03, 1.26205536e-03, 6.86209009e-04,
          -2.38785244e-04, 3.23216175e-03, 1.00245944e-03,
          1.67253951e-03, -1.24128564e-04, -1.59643148e-03,
          -2.64350954e-03, 6.86209009e-04, 3.29809263e-03,
          1.53254056e-02, 9.80548654e-03, 3.47204064e-03,
          -1.14882728e-02, -2.02873591e-02, -1.80356577e-02,
          1.18117174e-03, 3.29809263e-03, 1.36117609e-02, 1.52778253e-02,
          2.62317876e-03, -1.93229914e-02, -2.24623829e-02,
          -2.43382398e-02, -1.51041821e-02, 4.82805120e-03,
          8.06818996e-03, 3.82999936e-03, 2.03393633e-03, 1.90204033e-03,
          -1.70532633e-02, -2.08100434e-02, -6.45022979e-03,
          -1.11646974e-03, 1.43248402e-02, 1.34646203e-02,
          -2.87632784e-03, -2.87632784e-03, 1.05080102e-03,
          4.64155478e-03, 9.89343505e-03, 7.29083130e-03, 6.65611029e-03,
          -1.65269873e-03, -2.87632784e-03, 2.31431186e-04,
          6.95060240e-04, 8.00518133e-03, 1.82393026e-02, 6.26829034e-03,
          3.34957405e-03, -7.44894613e-03, -2.05813088e-02,
          -3.34969372e-03, -1.87042577e-03, 5.15619433e-03,
          5.28014125e-03, 7.83291925e-03, -3.98500729e-03,
          -7.56419031e-03, -4.07075649e-03, -1.08939661e-02,
          -1.33210216e-02, -7.03018857e-03, -1.25097157e-02,
          -8.87322985e-03, -1.44020822e-02, -4.67506377e-03,
          6.31895335e-03, 6.80163736e-03, 7.27346353e-03, 9.09142848e-03,
          9.02673136e-03, -1.29483640e-02, -2.16512438e-02,
          -2.11996790e-02, -1.86823420e-02, -4.42055194e-03,
          9.34858713e-03, 9.50351730e-03, 9.82164219e-03, 1.13050379e-02,
          6.12097792e-03, -1.56494435e-02, -2.22780090e-02,
          -1.96798313e-02, -1.91799179e-02, 2.83151446e-03,
          8.95951036e-03, 1.07252197e-02, 9.69178509e-03, 6.69047609e-03,
          -1.47272507e-02, -1.70745645e-02, -2.13505924e-02,
          -2.13523265e-02, 4.73677879e-03, 7.77585991e-03,
          9.29361582e-03, 1.56606846e-02, 2.96341977e-03,
          -1.96962729e-02, -2.12234128e-02, -2.23460626e-02,
          -1.96334999e-02, -2.86032213e-03, 1.29023204e-02,
          1.39155071e-02, 1.02337571e-02, 4.98673879e-03, 7.02554767e-04,
          -9.85699706e-03, -1.67149436e-02, -1.12989945e-02,
          -2.49106809e-03, 3.77661712e-03, 5.57667809e-03,
          1.04737636e-02, 1.27704078e-02, 5.77775063e-03,
          -9.94363613e-03, -1.78311933e-02, -1.95740797e-02,
          -6.94202166e-03, 3.16393725e-03, 5.15284762e-03,
          7.30486773e-03, 3.97374202e-03, -8.67740344e-03,
          -6.36087637e-03, -9.38803144e-03, -1.73073579e-02,
          -1.21786762e-02, 7.30486773e-03, 7.30486773e-03,
          7.68983550e-03, 3.08780436e-04, -1.27192587e-02,
          -4.75259544e-03, -1.49275474e-02, -8.39769561e-03,
          -1.52464386e-03, 2.02937005e-03, 7.68983550e-03,
          9.24376398e-03, 2.30798963e-02, 6.39577163e-03,
          -9.00816824e-03, -2.28426754e-02, -2.44077519e-02,
          -1.59351360e-02, 4.72319964e-03, 6.09330321e-03,
          4.21785517e-03, 1.05259214e-02, 1.06727742e-02,
          -3.76411760e-03, -1.18352529e-02, -2.46783290e-02,
          -1.47958333e-02, 4.73226374e-03, 4.21785517e-03,
          5.33834100e-03, 3.28958151e-03, -1.20466212e-02,
          -2.24219803e-02, -1.65783018e-02, 5.06796758e-04,
          1.11919511e-02, 1.50878113e-02, 1.10954158e-02, 6.18588692e-03,
          6.18588692e-03, 5.05893212e-03, -1.62568372e-02,
          -1.73701644e-02, -1.00005101e-02, -8.86761863e-03,
          4.83921403e-03, 8.74582399e-03, 6.19187905e-03, 8.05596448e-03,
          1.17294621e-02, 4.41951910e-03, -1.39561053e-02,
          -1.04770167e-02, -1.45557001e-02, -8.93769041e-03,
          -4.56426671e-04, 9.21532046e-04, 1.18328969e-03,
          2.60587805e-03, 9.24121588e-03, 1.03717484e-03,
          -4.67405375e-03, -2.41322629e-03, -7.11583951e-03,
          -2.45241541e-03 ]
      - [ -4.56113508e-03, -4.56113508e-03, -3.26054124e-03,
          4.51503228e-03, 5.86921629e-03, 1.48027372e-02, 8.63565970e-03,
          2.16715108e-03, -3.64270876e-03, -5.17441286e-03,
          -4.86327382e-03, 2.96927020e-02, 1.81045905e-02,
          1.05914753e-02, -6.41728684e-06, -3.78669309e-03,
          -1.21674938e-02, -7.65762292e-03, -4.63464577e-03,
          1.14338519e-02, 3.36837880e-02, 6.74670609e-03, 4.85548656e-03,
          1.14602980e-03, -3.83061403e-03, -2.41437107e-02,
          -4.63464577e-03, -2.45330716e-03, -2.45330716e-03,
          1.52853448e-02, 3.52082448e-03, 9.04100889e-05, 9.46400047e-04,
          -6.60410058e-03, -7.94609427e-04, -2.45330716e-03,
          -3.99915595e-03, -3.99915595e-03, 1.94303610e-03,
          -1.96456350e-03, -9.66984517e-05, 2.74986774e-03,
          1.22321360e-02, 6.77151885e-03, -3.99915595e-03,
          -3.10701085e-03, -2.56156223e-03, 4.68377257e-03,
          8.65929388e-03, 1.73548330e-03, 3.97583144e-03, 7.34820589e-03,
          1.43331732e-03, -3.10701085e-03, 7.94265233e-03,
          1.39825298e-02, 4.02257452e-03, -1.55699775e-02,
          -1.47157405e-02, -2.09340304e-02, -1.43020255e-02,
          6.15647901e-03, 7.94265233e-03, 2.32922640e-02, 1.18342992e-02,
          -3.66043742e-03, -2.47404668e-02, -2.21166909e-02,
          -2.52965800e-02, -1.17047122e-02, 7.64581142e-03,
          1.71859544e-02, 8.13095737e-03, 8.13095737e-03,
          -8.33294727e-03, -1.46499602e-02, -1.60605460e-02,
          -1.84008572e-02, -4.21446515e-03, 8.19344074e-03,
          1.01328930e-02, 8.42904486e-03, 7.90185668e-03,
          -7.85402209e-03, -1.17195938e-02, -2.00738553e-02,
          -1.35019813e-02, -9.19678155e-03, 1.04371496e-02,
          8.42904486e-03, 9.48954467e-03, -2.39179244e-05,
          -1.44514795e-02, -1.98210794e-02, -1.79441515e-02,
          -1.04317134e-02, 7.56188389e-03, 8.82120617e-03,
          8.82120617e-03, 8.62737466e-03, 1.14969155e-02,
          -1.25105353e-02, -2.17172876e-02, -2.16691103e-02,
          -1.68369338e-02, -1.48613806e-04, 8.62737466e-03,
          1.25445602e-02, 2.40604803e-02, -1.89062208e-03,
          -3.08519527e-02, -3.49460393e-02, -3.21161412e-02,
          -1.67788845e-02, 1.70703661e-02, 1.91617887e-02,
          2.47359741e-02, 3.45675554e-03, -7.63305370e-03,
          -2.53426880e-02, -3.19223478e-02, -2.93661542e-02,
          -2.00918014e-03, 3.47657166e-02, 2.55198590e-02,
          6.11886941e-03, -9.64974612e-03, 3.35366279e-03,
          6.20906055e-03, 7.51778297e-03, -6.70008687e-03,
          1.62715069e-03, 1.62715069e-03, 1.62715069e-03, 1.54065725e-03,
          -1.01559423e-03, 1.80560481e-02, 8.79323296e-03,
          8.79323296e-03, -1.42270550e-02, -2.25919392e-02,
          -7.80412089e-03, -9.93203372e-03, -1.59438439e-02,
          4.80952207e-03, 4.80952207e-03, 8.05340614e-03, 1.00387745e-02,
          -8.44039023e-03, -1.05482666e-02, -1.78049579e-02,
          -1.22553771e-02, 7.34478352e-04, 3.07601527e-03,
          3.07601527e-03, 4.14707512e-03, -6.84210379e-03,
          -2.00404599e-03, -2.07610358e-03, -5.54849207e-03,
          -5.12823276e-03, 1.51881995e-03, -1.22928794e-03,
          6.10821240e-04, 1.08711952e-02, 1.62272376e-03,
          -2.01002019e-03, -5.59439836e-03, -6.97782962e-03,
          -1.22928794e-03, -1.22928794e-03, 4.80616745e-03,
          4.80616745e-03, 1.08812926e-02, 2.53951619e-03,
          -1.85578950e-02, -1.94222443e-02, -2.06777137e-02,
          4.80616745e-03, 4.80616745e-03, 1.07336957e-02, 1.03687225e-02,
          -2.95227673e-03, -2.14918274e-02, -2.47827787e-02,
          -2.02888902e-02, -1.06308179e-03, 9.05669853e-03,
          9.02167242e-03, 3.63202095e-02, 2.80416384e-02,
          -1.86178591e-02, -3.56486477e-02, -3.78565155e-02,
          -3.00556794e-02, 2.02366035e-03, 2.69562416e-02,
          3.54782231e-02, 2.66751219e-02, 8.27306509e-03,
          -2.05759164e-02, -3.00573055e-02, -3.24516967e-02,
          -2.81447992e-02, -4.84635774e-03, 2.08538473e-02,
          2.67877411e-02, 1.26093719e-02, 1.39917238e-02,
          -1.75053254e-02, -2.30368953e-02, -1.93165094e-02,
          -2.29523741e-02, -1.74472146e-02, 9.66459233e-03,
          1.52981328e-02, 1.29184034e-02, 1.20507265e-02,
          -1.16067259e-02, -2.46109478e-02, -2.40820087e-02,
          -1.95495300e-02, -1.61119346e-02, 1.34944376e-02,
          1.28275612e-02, 1.14416573e-02, -2.67456495e-03,
          -2.08029021e-02, -2.26078220e-02, -2.23728642e-02,
          -1.73627175e-02, 7.07720127e-03, 1.10655092e-02,
          1.10655092e-02, 1.45403454e-02, 1.60612147e-02,
          -1.75900459e-02, -1.91010181e-02, -2.50927899e-02,
          -2.26078779e-02, -6.65857550e-03, 9.18130577e-03,
          1.15601309e-02, 2.33775191e-02, 1.20246480e-03,
          -2.07031462e-02, -3.35688256e-02, -3.16033848e-02,
          -1.25960959e-02, 2.04382278e-02, 1.58059113e-02,
          2.90838033e-02, 1.50553696e-02, 1.48273762e-02,
          -1.74660981e-02, -2.22663749e-02, -2.03220453e-02,
          -7.22852675e-03, 1.91431362e-02, 2.33040377e-02,
          2.88433023e-02, -4.09236690e-03, -5.74570568e-03,
          -9.80873592e-03, -2.50982735e-02, -7.88609590e-03,
          -2.17940821e-03, 1.10662002e-02, 2.36336030e-02,
          1.20272571e-02, -5.65405842e-03, 2.21841559e-02,
          1.76718030e-02, -5.14799030e-04, -5.14799030e-04,
          -2.04823930e-02, -1.06214723e-02, -3.20170820e-03,
          -6.08681468e-03, -6.11873204e-03, -4.37213137e-04,
          4.29041358e-03, 4.29041358e-03, 4.29041358e-03,
          -9.30669997e-03, -1.85202982e-03, -3.27968295e-03,
          -4.22512228e-03, 1.95677578e-03, 1.95677578e-03,
          1.95677578e-03, 2.61791470e-03, 1.94091618e-03,
          -4.52537043e-03, 5.36183827e-04, -5.32928808e-03,
          -5.99719537e-03, -5.56801399e-03, -2.50917813e-03,
          1.43909035e-02, 1.39585314e-02, 7.23038474e-03, 4.65120794e-03,
          4.20849025e-03, -5.56801399e-03, -5.56801399e-03,
          1.92348608e-07, 2.35665943e-02, 2.51777116e-02, 9.78248473e-03,
          -1.34713752e-02, -1.67588089e-02, -1.38350874e-02,
          2.00238079e-03, 2.53901514e-03, 1.29285920e-02, 1.36766052e-02,
          6.38871500e-03, -1.47541575e-02, -1.10796113e-02,
          -9.61047225e-03, -7.66809052e-03, 7.42520299e-03,
          1.47547359e-02, 2.67789215e-02, 2.39465013e-02, 7.51603488e-03,
          -1.69887878e-02, -2.01657973e-02, -1.92062892e-02,
          4.71182913e-03, 2.45536901e-02, 2.68720016e-02, 6.79046381e-03,
          2.89023417e-04, -3.34015203e-04, -1.50011934e-03,
          -4.33821185e-03, -7.87341036e-03, -4.39022947e-03,
          6.93205791e-03, 9.86866839e-03, 4.84555867e-03,
          -7.51684594e-04, -2.68378807e-03, -3.52960313e-03,
          -3.75950430e-03, -1.64548436e-03, -4.93805681e-04,
          1.06550066e-03, 6.51104515e-03, 2.43093562e-03, 1.23286305e-03,
          -2.99907580e-04, -4.71543008e-03, -4.48159734e-03,
          5.60059911e-04, -9.93855763e-04, 3.09637352e-03,
          1.80347997e-03, 1.81770360e-03, 3.76327336e-03,
          -3.43645876e-03, -1.01268059e-02, -1.28481146e-02,
          1.84154225e-04, 5.94148133e-03, 3.09522520e-03, 2.22778157e-03,
          1.07133843e-03, 4.52754524e-04, -4.62434720e-03,
          -1.28148319e-02, -4.15241439e-03, 2.15900852e-03,
          1.10200793e-02, 4.19521378e-03, 1.07133843e-03, 1.20390560e-02,
          -1.49540894e-03, -3.09450347e-02, -2.48017386e-02,
          -9.24149714e-03, 1.34461345e-02, 2.08962467e-02,
          2.60675102e-02, 2.46620700e-02, -1.01162698e-02,
          -5.09175006e-03, -2.00774502e-02, -6.29402511e-03,
          -2.67430604e-03, 1.28813107e-02, 2.88547818e-02,
          4.28698026e-03, -5.71126072e-03, -9.34039894e-03,
          -5.57522196e-03, -1.73194669e-02, -1.62261259e-02,
          4.00518440e-03, 4.00518440e-03, 2.86924616e-02, 7.23330025e-03,
          -2.82418658e-03, -5.32459700e-04, 4.20173723e-03,
          1.05508894e-03, -8.56984756e-04, -8.56984756e-04,
          -8.56984756e-04, -2.26087592e-04, 3.49544059e-03,
          -1.97105622e-03, -6.37621246e-03, -1.29575992e-03,
          -4.08411864e-03, 2.49814382e-03, 2.52837036e-03,
          1.61232473e-03, -9.48766479e-04, -2.67269183e-03,
          -6.60116924e-03, 1.60976546e-03, 2.27415541e-04,
          5.20855479e-04, -5.55329397e-03, -4.71134949e-03,
          -2.49878503e-03, 1.16125718e-02, -6.06883608e-04,
          7.31270108e-03, -3.10608721e-03, 1.21387071e-03,
          3.96282179e-03, -4.58201440e-03, -3.77465418e-04,
          3.27245845e-03, 5.06189652e-03, -5.84377022e-03,
          -1.02686766e-03, 2.12689135e-02, 2.34441310e-02,
          2.11258177e-02, 4.29194421e-03, -1.69748105e-02,
          -1.75545365e-02, -1.63231958e-02, 1.42201995e-02,
          1.99168306e-02, 1.16052842e-02, 1.06812054e-02, 1.04978401e-02,
          -4.62180050e-03, -1.02669671e-02, -9.25991591e-03,
          -9.77050606e-03, 5.22301579e-03, 1.53014511e-02,
          2.26058215e-02, 2.27659233e-02, 2.30925400e-02, 1.20426062e-02,
          -1.94763727e-02, -1.72170028e-02, -1.76159404e-02,
          4.13204730e-03, 2.28235573e-02, 1.36100659e-02, 1.10625140e-02,
          1.63831208e-02, 1.46099022e-02, -3.64590227e-03,
          -1.56967882e-02, -6.94302982e-03, -9.51255299e-03,
          -3.67628620e-03, 2.02813279e-03, -8.19728011e-04,
          -1.80392782e-03, 3.14150099e-03, 1.59641996e-03,
          9.85487597e-04, -6.22518652e-04, -3.76464869e-03,
          -1.59546523e-03, -3.88939027e-03, 8.13995430e-04,
          -7.27723818e-03, 2.91839312e-03, -1.00011448e-03,
          8.66647903e-03, -1.02602446e-03, 1.08304317e-03,
          7.99192232e-04, -5.73563273e-04, 6.05876965e-04,
          -1.06897380e-04, 5.34887752e-03, -7.54395267e-03,
          -1.93900336e-03, 4.51915711e-03, 9.26388893e-04,
          -9.48285859e-04, -9.89080500e-03, -1.32074943e-02,
          -1.61346495e-02, -2.82965275e-03, 6.52922271e-03,
          1.28272520e-02, 1.59546379e-02, 1.90521888e-02, 1.21238260e-02,
          -1.95532804e-03, -2.22236086e-02, -5.64385345e-03,
          -5.59788337e-03, -4.57539596e-03, 2.70705298e-02,
          1.78702343e-02, 1.66490506e-02, 1.40036559e-02,
          -1.53773325e-02, -1.57124549e-02, -5.21071441e-03,
          7.65248947e-03, 8.38331878e-03, 1.80580616e-02, 5.27040334e-03,
          -1.54617149e-02, -2.08602604e-02, 7.43536730e-05,
          -2.36187433e-03, -1.59733947e-02, -6.26857067e-03,
          -6.07996574e-03, 2.92092636e-02, 1.99653972e-02,
          9.03990678e-03, 1.62545199e-04, -3.76496534e-03,
          -7.61528639e-03, -4.56069689e-03, -1.84953399e-02,
          -1.07455322e-04, -1.07455322e-04, 1.53506529e-02,
          1.38122225e-02, 6.49783388e-03, -6.29892526e-03,
          -7.93381128e-03, -9.86755453e-03, -1.37112727e-02,
          -3.95411160e-03, -3.95411160e-03, 2.36213543e-02,
          1.98444463e-02, 5.95688075e-03, 1.76343601e-02,
          -8.93034227e-03, -2.06444580e-02, -2.94136088e-02,
          -8.42172094e-03, -5.29961754e-03, 2.14027353e-02,
          1.77114811e-02, 2.35299785e-02, 7.46325171e-03, 6.14614366e-03,
          -2.68148328e-03, -1.44991912e-02, -1.10296402e-02,
          -1.01418048e-02, -7.10336817e-03, 5.31131029e-03,
          1.02746915e-02, 2.41835248e-02, 2.18226537e-02, 8.57346784e-03,
          -5.56640420e-03, -1.82263423e-02, -2.33189687e-02,
          -1.21713504e-02, 5.56436228e-03, 2.09348612e-02,
          2.40578000e-02, 1.60542913e-02, 1.78556517e-02, 7.88691826e-03,
          -1.51580377e-02, -1.93935204e-02, -1.51625248e-02,
          2.97093228e-03, 2.15082262e-02, 1.09629417e-02, 1.08961100e-02,
          1.83695778e-02, 2.73193629e-03, -1.06429793e-02,
          -1.68866105e-02, -1.27827963e-02, -3.15321819e-03,
          6.16415963e-03, 1.44793708e-02, 2.75736582e-02, 2.73774192e-02,
          1.64071750e-02, 1.18804807e-02, -1.27088074e-02,
          -2.45952383e-02, -7.47008249e-03, -7.47008249e-03,
          -6.01525791e-03, 3.05243605e-03, 1.26880379e-02,
          1.64861623e-02, 1.22732269e-02, 1.44943036e-02,
          -8.70229676e-03, -6.01525791e-03, -6.01525791e-03,
          -4.15924052e-03, -4.93174139e-03, -1.59050687e-03,
          8.98626447e-03, 1.03254095e-02, 1.57541670e-02, 1.55414706e-02,
          -6.71409117e-03, -4.15924052e-03, -3.99954570e-03,
          -3.99954570e-03, 2.94431299e-03, 1.01247672e-02,
          1.54039795e-02, 8.70643090e-03, 8.40369333e-03,
          -6.73858821e-03, -3.99954570e-03, -3.59520665e-03,
          -3.59520665e-03, -8.83072428e-03, -2.18768027e-02,
          -1.72670267e-03, 5.34805283e-03, 1.08331284e-02,
          2.67392099e-02, 1.83593314e-02, 7.27727485e-04, 2.62762140e-03,
          2.62762140e-03, 2.62762140e-03, -7.07794493e-03,
          -1.51226511e-02, -9.36446153e-03, 4.98372409e-03,
          7.37873279e-03, -9.03503969e-03, -7.99147310e-05,
          2.80335691e-04, 2.80335691e-04, 8.74901656e-03, 7.70188821e-03,
          -2.66957493e-03, -5.67293772e-03, -8.41608550e-03,
          -5.35220001e-03, 3.81325209e-03, -3.92396934e-03,
          -3.92396934e-03, 7.40558561e-03, 3.89803969e-03,
          1.13662216e-03, -1.22333033e-04, 2.69490015e-03,
          -2.83590448e-03, -1.01614064e-02, -1.12420646e-02,
          -2.92338338e-02, -1.10567678e-02, -1.22713717e-03,
          1.13500208e-02, 2.54861079e-02, 8.71093292e-03, 1.44058196e-02,
          -4.22943803e-03, -2.29072440e-02, -3.18231881e-02,
          -1.72584485e-02, -6.61132997e-03, 2.60172300e-02,
          2.30483916e-02, 2.31466461e-02, 2.62209158e-02, 7.35250628e-03,
          -1.98270269e-02, -3.63856107e-02, -3.03685665e-02,
          -2.61848159e-02, 2.17818581e-02, 2.77549867e-02,
          2.38740593e-02, 1.22531373e-02, 1.15993153e-02,
          -6.12701895e-03, -1.87070835e-02, -2.75734309e-02,
          -2.63507906e-02, -8.49799719e-03, 1.14726592e-02,
          1.16691608e-02, 1.95783973e-02, 1.18856532e-02,
          -8.01065378e-03, -2.46764570e-02, -3.07002030e-02,
          -1.67579819e-02, -9.11431666e-03, 8.99681170e-03,
          1.19233727e-02, 3.18908542e-02, 3.69543768e-02, 1.19140595e-02,
          -4.58813563e-04, -1.41015491e-02, -3.57635468e-02,
          -2.92976256e-02, -4.74621356e-03, 1.53185902e-02,
          1.44481780e-02, 3.05703916e-02, 1.47640239e-02, 8.02247133e-03,
          -8.66021588e-03, -2.65108924e-02, -2.87728664e-02,
          -5.23462659e-03, 3.35052231e-04, 1.22897886e-02,
          1.88001990e-02, 3.98226752e-04, -7.47513538e-03,
          -9.67864506e-03, -2.71176044e-02, -2.94991694e-02,
          3.11140429e-05, 5.29582985e-03, 3.41446092e-03, 1.02173993e-02,
          8.67900962e-04, -4.36845096e-03, -7.12054316e-03,
          -1.03621110e-02, -1.74318533e-02, -3.18254548e-04,
          3.41446092e-03, 3.68938316e-03, 3.68938316e-03,
          -8.62880796e-03, -2.40383716e-03, -5.54881990e-03,
          -6.55115722e-03, -8.78343731e-03, 1.28543214e-03,
          3.68938316e-03, 3.67196323e-03, 3.67196323e-03, 4.59659100e-03,
          -6.75222231e-03, -7.88170937e-03, -1.40955728e-02,
          -9.95478779e-03, 6.77156379e-04, 3.67196323e-03,
          4.80700657e-03, 4.80700657e-03, 4.06086212e-03,
          -1.35010956e-02, -1.03798322e-02, -8.17816332e-03,
          -1.05444295e-02, 2.44840467e-03, 6.07201643e-03,
          -5.67198358e-03, -5.67198358e-03, -5.67198358e-03,
          -2.40502856e-03, 7.04355119e-03, 1.06827565e-03,
          8.11142568e-03, 1.15048811e-02, 1.05738407e-02,
          -1.18891150e-03, -2.50710896e-03, -2.50710896e-03,
          -1.28254695e-02, 2.84281396e-03, 3.26095033e-03,
          4.34530759e-03, 9.08884406e-03, 2.24270727e-02,
          -7.19318399e-04, 3.09641543e-03, 3.09641543e-03,
          3.09641543e-03, -3.76478513e-03, -1.23935938e-02,
          -1.12856217e-02, -6.95951609e-03, 6.60765730e-03,
          -1.66180041e-02, -6.86248252e-03, 1.00362431e-02,
          3.08837416e-03, -4.08815162e-04, 7.85178680e-04,
          2.28708540e-03, 4.81549604e-03, 2.28708540e-03, 4.99629276e-03,
          -2.03570221e-02, -3.05219758e-02, -3.18317860e-02,
          -2.27195770e-02, 1.52762402e-02, 3.22510302e-02,
          1.43681699e-02, 1.18064769e-02, 1.58040877e-02, 2.74896505e-03,
          -2.66132094e-02, -3.16967629e-02, -2.81768031e-02,
          -2.29065344e-02, 2.02897433e-02, 2.34155729e-02,
          1.53453257e-02, 1.07038319e-02, 6.44399598e-03,
          -1.60509665e-02, -2.24375427e-02, -2.41496731e-02,
          -2.54971348e-02, 5.04748197e-04, 1.36150857e-02,
          1.07038319e-02, 1.18130557e-02, 4.61114012e-03,
          -1.59954485e-02, -2.33620908e-02, -2.38011871e-02,
          -2.12456733e-02, -3.67159094e-03, 1.24776326e-02,
          1.25706363e-02, 1.07278172e-02, 1.81316286e-02, 3.12998588e-03,
          -7.71354325e-03, -1.79042667e-02, -1.68602020e-02,
          -4.89152363e-03, 1.31208473e-03, 2.89671891e-03,
          1.13824941e-02, 2.93333828e-02, 2.02614609e-02, 8.25632736e-03,
          -7.31541961e-03, -2.77069192e-02, -2.18682662e-02,
          -4.36591310e-03, -8.16434680e-04, 9.97189619e-03,
          1.98946279e-02, 1.12803476e-02, 8.19990784e-03,
          -1.85734080e-03, -1.69474352e-02, -2.29127258e-02,
          1.27531734e-04, 1.27531734e-04, 5.68945101e-03,
          -6.00296655e-04, -5.49609261e-03, 1.28923578e-03,
          -1.36728038e-03, -3.03516863e-03, -1.23235872e-02,
          -5.85635484e-04, 5.68945101e-03, 7.45209036e-05,
          3.57281952e-03, -4.90524992e-03, 1.55876495e-03,
          -3.68199544e-03, 4.27145930e-03, 2.31613382e-03,
          -1.62660377e-04, 7.45209036e-05, -4.24777594e-04,
          2.60347524e-03, 1.14396261e-02, 2.12973286e-03, 2.56573968e-03,
          -2.82132137e-03, -8.12695734e-03, -2.55213468e-03,
          -4.24777594e-04, -6.25096727e-04, -6.25096727e-04,
          -1.45692779e-02, -2.28351704e-03, 2.83912523e-03,
          3.40254256e-03, 8.63230322e-03, 1.26285478e-02, 8.59991123e-05,
          -5.20674651e-03, -5.20674651e-03, -6.87746983e-03,
          -1.58862844e-02, 1.08293910e-03, 3.46617703e-03,
          1.01704448e-02, 1.74740963e-02, 2.09777486e-02, 4.53907717e-03,
          4.53907717e-03, 4.51850891e-03, -5.80252102e-03,
          -1.21866558e-02, -8.69567040e-03, -2.33324710e-03,
          3.97314364e-03, 1.07658957e-03, 2.31101853e-03, 4.30748984e-03,
          3.47869145e-03, 1.92128948e-03, 1.16755697e-03,
          -4.96113906e-03, -1.00580696e-02, -6.89709745e-03,
          1.56437070e-03 ]
      - [ 4.16708644e-03, 2.66664196e-03, 8.72852467e-03, 4.83547710e-03,
          1.66730001e-03, -4.89132106e-03, -1.51104117e-02,
          -1.30872633e-02, 3.34012741e-03, 7.59414490e-03,
          9.34173260e-03, 1.01493020e-02, -1.94399897e-03,
          -1.28330709e-02, -2.37234011e-02, -2.41962895e-02,
          -9.01970360e-03, 1.21890921e-02, 1.48498109e-02,
          2.15704758e-02, 9.97044332e-03, -1.81486588e-02,
          -2.51957234e-02, -2.87245102e-02, -1.80560369e-02,
          -1.17073040e-02, 1.09130405e-02, 1.30144702e-02,
          1.30144702e-02, 7.03262305e-03, -2.02218965e-02,
          -2.71424279e-02, -2.54103914e-02, -2.05250643e-02,
          -5.50187705e-03, 1.39549095e-02, 2.55085551e-03,
          2.55085551e-03, 4.86637029e-04, -1.37785636e-02,
          -1.81189124e-02, -1.15106916e-02, -2.87265796e-03,
          6.43955544e-03, 9.27039888e-03, -3.90559761e-03,
          -4.49107820e-03, -2.41988897e-02, 1.38910755e-03,
          -1.08979410e-03, 2.81666918e-03, 1.28988344e-02,
          2.88971178e-02, 3.09573370e-03, -6.35587657e-03,
          -6.35587657e-03, -1.33225108e-02, 5.10263443e-03,
          1.16463099e-02, 7.85445236e-03, 1.21980868e-02, 2.89029311e-02,
          -2.02153833e-03, -4.84440941e-03, -4.84440941e-03,
          -6.07780600e-03, -1.31050369e-03, 6.54394273e-03,
          2.90888874e-03, 1.45426784e-02, 2.74612494e-02,
          -4.84440941e-03, -1.00002997e-02, -1.00002997e-02,
          3.04161105e-03, 4.26243339e-03, 5.30605623e-03, 3.95159191e-03,
          2.05496475e-02, 1.85400136e-02, -8.46424419e-03,
          2.42608995e-03, 1.37914263e-03, -2.41941772e-03,
          -5.34341780e-05, -1.25573361e-02, -4.28071059e-03,
          -4.46008658e-03, 2.42608995e-03, 2.42608995e-03,
          5.93564822e-04, -1.06400503e-02, 4.22839192e-04,
          1.03484537e-03, 3.62832216e-03, 7.13379588e-03, 1.05188880e-03,
          5.93564822e-04, 5.93564822e-04, -5.57143008e-03,
          1.39453309e-02, 6.42191712e-03, -2.05296930e-03,
          7.20987143e-03, 8.22679419e-03, 3.76037718e-03,
          -5.57143008e-03, -5.57143008e-03, 2.06165225e-03,
          1.22234104e-02, 2.87167815e-04, -1.55218900e-03,
          -1.13416719e-03, 1.03082769e-02, 6.27822068e-04,
          -5.29487384e-03, -5.29487384e-03, 1.67405531e-02,
          1.60287246e-02, 1.18052273e-03, -2.34606559e-03,
          -4.43269219e-03, -2.95642279e-02, -6.96661824e-04,
          4.82221440e-05, 4.82221440e-05, -4.22941288e-03,
          -3.80366948e-03, -1.13835251e-02, 9.81591293e-04,
          -3.14347242e-04, 3.56552680e-03, 3.56552680e-03,
          3.56552680e-03, 3.92139424e-03, -5.01622038e-04,
          1.53647270e-02, 2.21631527e-02, 1.69160608e-02,
          -9.43881273e-03, -2.31287461e-02, -2.73905117e-02,
          -2.81640142e-02, -1.66439563e-02, 8.12059827e-03,
          6.57694414e-03, 8.24136566e-03, 9.37007554e-03,
          -9.31483880e-03, -1.89344864e-02, -2.39766557e-02,
          -1.18749924e-02, 6.29046094e-03, 7.58348964e-03,
          7.58348964e-03, 7.58348964e-03, -1.03213061e-02,
          -1.91349834e-02, -1.88268907e-02, -1.39650963e-02,
          -4.79270285e-03, 7.53676053e-03, -7.80538237e-03,
          -7.80538237e-03, -1.36497309e-02, -1.73849929e-02,
          -4.53860685e-03, -2.61102943e-03, 1.15875350e-02,
          3.21015641e-02, 2.42726374e-02, -1.08651882e-02,
          -1.08651882e-02, -1.28064882e-02, 5.95844910e-03,
          4.15410893e-03, -3.39672551e-05, 5.62901469e-03,
          3.32342535e-02, 2.27611586e-02, -6.17539650e-03,
          -6.17539650e-03, -1.79220345e-02, -1.01802628e-02,
          -2.20581423e-03, 3.08742840e-03, 1.40419258e-02,
          3.02968174e-02, 7.91565049e-03, 4.34144866e-03, 4.34144866e-03,
          -1.06947180e-02, -1.69700570e-02, -1.02400016e-02,
          -1.20927142e-02, -8.01673159e-03, 1.67471301e-02,
          5.36916498e-03, 6.95873704e-03, 6.68977248e-03,
          -1.59309022e-02, -2.80237030e-02, -1.85859296e-02,
          -1.05670793e-02, -6.82593370e-03, 1.84297599e-02,
          9.91214253e-03, -9.35434480e-04, -1.00244465e-03,
          -3.51044945e-02, -2.94236150e-02, -7.13679986e-03,
          1.02787904e-04, 3.21493717e-03, 3.23145166e-02, 3.08748856e-02,
          3.80497053e-03, -4.45471145e-03, -2.30549648e-02,
          -3.57846264e-03, -2.04096688e-03, 4.79113823e-03,
          5.27816033e-03, 1.08914031e-02, 3.80497053e-03,
          -3.16361059e-03, 2.08771159e-03, 1.84986962e-03,
          3.84105602e-03, -3.58538702e-04, 2.89467419e-03,
          1.06781488e-02, -3.16361059e-03, -3.16361059e-03,
          -3.06026684e-03, 1.47653706e-02, 7.03743007e-03,
          4.85851197e-03, 2.76532094e-03, 1.86270673e-03,
          -6.04314217e-03, -3.06026684e-03, -3.06026684e-03,
          1.33490302e-02, 3.48743307e-03, -1.57212606e-04,
          1.40877941e-03, -1.23984097e-02, -1.05169779e-02,
          5.72343881e-04, 5.72343881e-04, 5.72343881e-04, 1.49743110e-02,
          1.26041668e-02, 3.54407748e-05, 1.43373106e-02, 9.06385854e-03,
          -9.74910427e-03, -9.87911783e-03, -9.87911783e-03,
          6.95900572e-03, 8.59669526e-04, -3.05385387e-04,
          1.89110241e-03, 9.00647044e-03, 1.41216386e-02,
          -5.78795420e-03, -5.78795420e-03, -8.04730132e-03,
          1.18825845e-02, -2.00226493e-02, 1.17653271e-03,
          9.50093474e-03, 9.50093474e-03, 1.58778876e-02,
          -1.69901259e-03, -1.17041357e-02, -1.60054546e-02,
          -1.78432185e-02, -2.99371816e-02, -1.41942333e-02,
          -2.43351329e-03, 1.40630659e-02, 3.46657000e-02,
          1.53117841e-02, 4.01950860e-03, -1.12381543e-03,
          -8.66927020e-03, -1.08089615e-02, -1.08089615e-02,
          -1.08089615e-02, 2.56987456e-02, 3.14011835e-02,
          9.57508199e-03, 7.40902824e-03, 8.40450823e-03, 4.03069687e-04,
          -1.04278466e-02, -1.04278466e-02, -1.78042296e-02,
          -3.83199821e-03, 4.65428503e-03, 6.04285393e-03,
          2.20318548e-02, 2.20584553e-02, 1.68766305e-02,
          -7.20069697e-03, -7.20069697e-03, -7.48992711e-03,
          -1.22300978e-03, 1.35511011e-02, 5.88828837e-03,
          4.68765106e-03, 1.57312788e-02, 1.91864197e-03,
          -6.55147422e-04, 5.05377119e-03, 8.78715608e-03,
          6.09119423e-03, -2.63792207e-03, -6.40340894e-03,
          -3.71461152e-03, -6.55147422e-04, -6.55147422e-04,
          -6.82490296e-04, 1.48550887e-03, -3.83315468e-03,
