%YAML:1.0
---
opencv_ml_svm:
   format: 3
   svmType: C_SVC
   kernel:
      type: LINEAR
   C: 1.5000000000000000e+00
   term_criteria: { iterations:10000000 }
   var_count: 945
   class_count: 10
   class_labels: !!opencv-matrix
      rows: 10
      cols: 1
      dt: i
      data: [ 48, 49, 50, 51, 52, 53, 54, 55, 56, 57 ]
   sv_total: 45
   support_vectors:
      - [ -1.14172185e-02, 1.02494704e-02, 1.48203522e-02,
          2.14554295e-02, -1.83992146e-03, -4.03862372e-02,
          9.98455379e-03, -1.67134479e-02, -2.11873669e-02,
          -1.05473176e-02, 8.34315736e-03, 7.36688450e-03,
          2.62851967e-03, -5.59554948e-03, -8.69685318e-03,
          -3.67067419e-02, 1.54546304e-02, -1.98249407e-02,
          3.24233808e-02, -3.78468111e-02, -8.38123611e-04,
          -4.31175567e-02, -2.77752243e-02, -7.49727478e-03,
          -7.40042143e-03, -7.96192978e-03, 3.74106392e-02,
          3.61729786e-02, -1.40492255e-02, -4.52497527e-02,
          -3.83114666e-02, -2.70473883e-02, -1.29213529e-02,
          -2.65195360e-03, -1.44316361e-03, 5.09487614e-02,
          2.78423540e-02, -4.93914410e-02, -3.40459123e-02,
          -2.13866066e-02, -2.05533691e-02, -1.24832541e-02,
          -1.09169064e-02, -7.29535939e-04, 4.02597114e-02,
          2.22971756e-02, 9.32600722e-03, -2.50851549e-02,
          -4.92050312e-03, -1.63609441e-02, -2.43365970e-02,
          -4.08276208e-02, 1.39663015e-02, 1.91192999e-02,
          4.54790071e-02, 4.93539730e-03, -1.50274895e-02,
          -2.09086984e-02, -2.57995352e-02, -3.34659405e-02,
          -3.92537080e-02, -1.41659966e-02, 3.58028673e-02,
          4.15934920e-02, -1.07489135e-02, -1.27742374e-02,
          -2.66615711e-02, -3.23043428e-02, -3.57138105e-02,
          -3.88239175e-02, 3.33820790e-04, 3.69886756e-02,
          3.80895436e-02, -3.81814949e-02, -9.39957157e-04,
          -3.87975238e-02, -2.40831487e-02, -1.58333927e-02,
          -3.50561589e-02, -2.59018857e-02, 3.22748795e-02,
          2.74385903e-02, -1.49249779e-02, -1.68538131e-02,
          -1.64174642e-02, -1.86434165e-02, -8.50856211e-03,
          -2.34600361e-02, 1.09942906e-04, 2.55201086e-02,
          2.13950453e-03, 1.22637041e-02, 6.02859026e-03,
          -4.41969149e-02, -3.09132654e-02, -4.00817161e-03,
          -4.58417013e-02, 2.16984991e-02, 1.86064355e-02,
          -1.10365255e-02, 1.19427545e-02, -5.18741435e-04,
          -9.44135338e-03, -5.36626391e-02, -1.54696694e-02,
          -1.00767687e-02, 1.58584751e-02, 1.38992106e-03,
          -4.59828414e-02, -1.46695590e-02, -4.25523743e-02,
          -4.17486066e-03, -2.45977240e-03, -7.90004432e-03,
          8.76957492e-04, 2.75852010e-02, 1.93574221e-03,
          -6.42450303e-02, -1.04415631e-02, -2.68709492e-02,
          -1.85975693e-02, -1.62668657e-02, 1.04306392e-01,
          3.34021798e-03, -6.90923491e-03, -2.05694232e-02,
          1.73989264e-03, 2.49171313e-02, -5.14587760e-03,
          -2.44900510e-02, 2.22323160e-03, -9.19093341e-02,
          4.32812460e-02, -4.99878637e-02, 3.01667806e-02,
          3.25451791e-02, 7.63277567e-05, 8.28041043e-03, 4.85200901e-03,
          1.95950083e-02, -6.04893500e-03, -1.00309607e-02,
          -7.27833761e-03, -1.36354845e-02, -3.55742127e-02,
          -1.36739556e-02, -4.33784164e-03, 2.03153063e-02,
          2.12590266e-02, 1.83197036e-02, -2.43166499e-02,
          -6.13687700e-03, -1.76479612e-02, -4.73913178e-03,
          -2.76673556e-04, 1.49957528e-02, -1.77843925e-02,
          7.89456349e-03, -3.26923430e-02, 1.68115366e-02,
          1.71400812e-02, 3.01985461e-02, 2.05197744e-02, 4.93837968e-02,
          -2.66146995e-02, -1.03060971e-03, -5.72306029e-02,
          -3.30370516e-02, -2.11942550e-02, 9.05100722e-03,
          3.95556018e-02, 6.02001548e-02, -7.42805377e-02,
          -2.84925308e-02, -2.74419170e-02, -1.61717515e-02,
          -3.33158150e-02, -5.56646986e-03, -4.21619369e-03,
          6.19658381e-02, 2.44120788e-02, -4.15433422e-02,
          -8.18763673e-03, -2.13551093e-02, -1.13908947e-02,
          -2.51141954e-02, -4.13149931e-02, 3.25812586e-02,
          1.46676106e-02, 3.87282968e-02, 2.79933563e-03,
          -3.02638430e-02, -2.87188143e-02, -2.89896633e-02,
          -2.08379291e-02, -1.58866718e-02, 3.99936549e-03,
          3.77827734e-02, 3.72195058e-02, -8.94622295e-04,
          -1.14591671e-02, -3.28931361e-02, -2.78292634e-02,
          -1.62035152e-02, -1.94166508e-02, -2.76697949e-02,
          3.19450647e-02, -2.34884061e-02, 4.51768488e-02,
          -5.10510337e-03, -1.43981660e-02, -3.98724303e-02,
          -9.70300473e-03, -1.49181634e-02, 7.76748545e-03,
          1.66548956e-02, -8.00442696e-03, 3.04697808e-02,
          -2.79366989e-02, -3.81594189e-02, -2.35927310e-02,
          -3.42501365e-02, 3.44556104e-03, -1.27887987e-02,
          2.07689684e-02, 1.88240055e-02, 1.52005665e-02,
          -3.10300682e-02, -1.94091145e-02, -6.52069505e-03,
          -9.39035788e-03, -1.20217083e-02, -1.18912263e-02,
          3.59921576e-03, -2.26072874e-02, -2.88380682e-02,
          -7.11151212e-02, -6.48378488e-03, 4.89379652e-03,
          3.02442275e-02, 2.27807611e-02, -7.78273772e-03,
          2.50654090e-02, -3.17800492e-02, -1.40480120e-02,
          -1.25829102e-02, -1.91749483e-02, 1.51487272e-02,
          1.53840194e-02, 1.62167083e-02, 1.51659884e-02,
          -1.95746701e-02, -2.16302071e-02, -1.84047110e-02,
          3.54898302e-03, 3.55842640e-03, 2.63777282e-02, 1.60170440e-02,
          8.57132138e-04, -2.49674059e-02, -2.43532211e-02,
          -2.53440011e-02, -3.24423909e-02, -1.45159110e-01,
          -1.30841145e-02, 2.41138041e-02, 1.44425318e-01,
          1.33704697e-03, -2.28584860e-03, -1.86581296e-04,
          -2.26789583e-02, -6.12237118e-02, -1.95245109e-02,
          2.94274818e-02, 2.58974731e-02, -4.38767299e-02,
          1.54803738e-01, 6.89390255e-03, -5.43944128e-02,
          -2.25359406e-02, -3.57827246e-02, -3.07354648e-02,
          2.59234048e-02, 2.77610123e-02, 4.10710238e-02, 3.40926349e-02,
          1.42179327e-02, -2.86493078e-02, -1.35431373e-02,
          -4.74181287e-02, -4.99064811e-02, 1.21793372e-03,
          3.91692929e-02, 2.57796831e-02, 3.30513902e-02, 2.82402448e-02,
          8.50413553e-03, 2.21541384e-03, 9.23193432e-03,
          -2.66085658e-02, -2.69045914e-03, 2.28970200e-02,
          6.56178873e-03, 8.68262444e-03, 1.99841354e-02, 7.04688393e-03,
          2.26550940e-02, 1.55364582e-02, -1.36837438e-02,
          -1.21254940e-02, -5.47421025e-03, -2.71127000e-02,
          1.05151739e-02, 1.18351541e-02, 2.39720494e-02, 2.09662598e-02,
          2.26734765e-02, -3.01215006e-03, -1.93179362e-02,
          -2.22237799e-02, -1.75180286e-02, -1.04571749e-02,
          5.12638642e-03, 2.41970327e-02, 1.78194474e-02, 2.34843157e-02,
          -2.07052119e-02, -1.90145373e-02, -1.52539220e-02,
          -7.17278756e-03, 1.69829256e-03, 1.17312586e-02,
          1.51502574e-02, 1.46744400e-02, -4.43748608e-02,
          6.75984146e-03, -1.59664657e-02, -8.45646020e-03,
          -6.12759404e-03, -3.47449002e-03, 4.13500145e-02,
          9.47139319e-03, -1.06920779e-03, 5.16300499e-02,
          9.18375608e-03, 1.10648395e-02, -1.82069372e-02,
          -2.00583576e-03, -3.27009172e-03, -1.94207169e-02,
          1.69955345e-03, 5.52538224e-03, 1.23646352e-02, 4.85365326e-03,
          -1.22455694e-02, 2.35433355e-02, 1.81554133e-04,
          -1.34742446e-03, -9.95101780e-03, -5.52326208e-03,
          -3.59084434e-03, -4.69817501e-03, -8.55617132e-03,
          1.32921115e-02, 9.15285386e-03, 2.32486632e-02,
          -6.36622775e-03, -9.72236693e-03, -1.01757720e-02,
          -6.43621373e-04, -2.10733749e-02, -2.77376045e-02,
          4.84851860e-02, 4.11004126e-02, -3.62957991e-03,
          -2.49549691e-02, -1.95342302e-02, -5.44387847e-02,
          -3.96667980e-02, 3.93719831e-03, 2.38301288e-02,
          3.49920802e-02, 4.15676795e-02, -4.27583698e-03,
          -1.18261715e-02, -3.37870456e-02, -4.64535616e-02,
          -1.22078061e-02, -3.77344294e-03, 3.71101685e-02,
          6.71012094e-03, 8.76761694e-03, 1.51717775e-02,
          -1.25991516e-02, -2.72029471e-02, -4.49808873e-02,
          6.99348450e-02, 7.98925757e-03, 2.23421920e-02,
          -1.98567566e-02, 3.39073613e-02, -5.78944720e-02,
          3.82533744e-02, 5.19148260e-02, -1.15904011e-01,
          -5.07859290e-02, -2.87254602e-02, -3.48443375e-03,
          7.25953327e-03, 1.69343257e-03, -3.59428581e-03,
          5.26868515e-02, 2.57770456e-02, -6.54928312e-02,
          -3.92895751e-02, -1.73751526e-02, -6.10446790e-03,
          -4.39322647e-03, -5.05671725e-02, 6.97563887e-02,
          3.82070020e-02, 3.49934250e-02, -1.78559180e-02,
          -1.38999363e-02, -2.69206651e-02, -9.74532031e-03,
          1.23012683e-03, 3.47963930e-03, 1.15265064e-02, 3.19715738e-02,
          2.87561789e-02, 4.27257270e-04, 1.53967901e-03,
          -2.02266760e-02, -9.51048452e-03, -8.64206161e-03,
          -1.03606125e-02, -1.04442275e-04, 9.56001040e-03,
          -6.96540298e-03, 6.52670348e-03, 1.72736701e-02,
          1.62892521e-03, 4.30367829e-04, -1.59293059e-02,
          -1.09378463e-02, -1.68711338e-02, -8.68809968e-03,
          -9.60449688e-03, 1.50073757e-02, 1.68655496e-02,
          4.21023183e-03, 5.63209178e-03, -3.41961719e-03,
          -1.14190262e-02, -1.86562948e-02, -1.91936921e-02,
          1.20194182e-02, 1.05436295e-02, -1.08770495e-02,
          3.85497436e-02, 1.07674170e-02, 1.71475625e-03,
          -2.37336662e-03, -7.68330880e-03, -3.59612532e-05,
          1.22245988e-02, -1.20963547e-02, -2.03197431e-02,
          8.27165768e-02, 7.42743677e-03, 5.10399276e-03, 4.84524388e-03,
          5.03296359e-03, 3.33726313e-03, 2.09550038e-02,
          -2.20474191e-02, -1.06693874e-03, 1.54834362e-02,
          4.01220564e-03, 3.61604267e-03, 3.65473423e-03, 4.73822607e-03,
          2.03483226e-03, -4.53512464e-03, -1.61238457e-03,
          4.17046109e-03, -2.99147181e-02, 1.33491703e-03,
          4.85756202e-03, 7.82228447e-03, 2.88910861e-03, 2.89501739e-03,
          -1.32777514e-02, 6.62199454e-03, -6.21578563e-03,
          3.29601136e-03, 6.39091479e-03, -1.73644107e-02,
          1.41749009e-02, -1.28603412e-03, 3.31630395e-03,
          -7.35917268e-03, 4.47769538e-02, -2.39321943e-02,
          2.26244424e-02, 1.19467368e-02, 2.05409117e-02, 2.96811704e-02,
          8.88766721e-03, 1.17350947e-02, -1.13971671e-02,
          -3.14474553e-02, -1.78487897e-02, 2.31897719e-02,
          4.35419641e-02, 1.58394761e-02, 2.36025136e-02, 8.38441122e-03,
          -3.96106887e-04, -2.59597432e-02, -4.29844409e-02,
          -1.95909403e-02, 1.16052413e-02, 1.82798114e-02,
          1.72148421e-02, -9.77973032e-05, 1.25560518e-02,
          -6.91737398e-04, 8.46729614e-03, -1.24845644e-02,
          -6.87371492e-02, -1.00015048e-02, 6.99111894e-02,
          -1.76186562e-01, 2.30399184e-02, 5.97165944e-03,
          5.79137430e-02, 1.16976306e-01, -6.47575706e-02,
          -2.35964227e-02, -1.47740468e-02, -8.36016610e-03,
          3.04492470e-03, 1.15735298e-02, 6.03529327e-02, 4.45644148e-02,
          2.78146155e-02, -4.27308157e-02, -4.18155640e-02,
          -1.87458303e-02, -7.75988353e-03, -2.47806474e-03,
          3.03327019e-04, 9.73040704e-03, 3.56926881e-02, 4.16823663e-02,
          -4.72130487e-03, -4.78474796e-03, -2.47786026e-02,
          -1.14653390e-02, -4.65835026e-03, -7.31794676e-03,
          -1.83973426e-03, 3.36450711e-03, 1.94434226e-02,
          3.39687010e-03, 1.18265813e-02, -8.42946768e-03,
          -1.24725904e-02, -1.21296607e-02, -1.15120979e-02,
          -2.30087113e-04, -1.56059191e-02, 9.29436740e-03,
          1.37204947e-02, 1.10999597e-02, -4.82967542e-03,
          -5.45151765e-03, -1.32075427e-02, -1.18058529e-02,
          -9.46747884e-03, -1.27995042e-02, -8.49388260e-03,
          1.10999597e-02, 6.97040651e-03, -9.24188411e-04,
          -4.28797817e-03, -2.77465791e-03, -3.25842225e-03,
          -5.94222220e-03, -6.06373046e-03, -6.69502607e-03,
          6.26879605e-03, -1.18791992e-02, 4.35589887e-02,
          -3.56055476e-04, 1.83529011e-03, -4.00236947e-03,
          -4.69422713e-03, -1.61550276e-03, 6.70816470e-03,
          -1.18791992e-02, 5.61929017e-04, 2.31343936e-02,
          -2.53480952e-03, 1.53819309e-03, -1.68387883e-03,
          -1.22603739e-03, 1.51143002e-03, -1.12061594e-02,
          5.61929017e-04, -1.17709795e-04, 3.73445451e-03,
          -5.23980800e-03, -7.93794577e-04, -1.41417922e-03,
          -2.88687443e-04, -1.23644975e-04, 1.26612671e-02,
          -1.17709795e-04, 3.89188738e-03, 5.55251166e-03,
          -1.54063245e-03, -1.51800225e-03, -7.90670223e-04,
          -2.86950497e-04, 1.21579773e-03, -1.16352756e-02,
          3.89188738e-03, -3.99675453e-04, 1.20371440e-02,
          -7.86335487e-03, 1.36642270e-02, 4.00569197e-03,
          6.99611730e-04, 3.36057856e-03, 2.15572072e-04,
          -7.58605683e-03, 5.95458504e-03, 6.15855772e-03,
          2.96515040e-03, 3.91635261e-02, 4.73116571e-03,
          -4.29117383e-04, -2.13484257e-03, -8.63937940e-03,
          -2.30833087e-02, -3.13159302e-02, 7.79199181e-03,
          5.24882525e-02, 1.76456186e-03, -4.22193203e-03,
          3.85776744e-03, -1.35344518e-02, 7.17930729e-03,
          -2.20739469e-02, -2.23849658e-02, -6.31751912e-03,
          1.05252704e-02, -3.78575549e-02, -1.80742413e-01,
          1.78483114e-01, -4.25312370e-02, 2.15222966e-02,
          2.12222680e-01, -1.00089330e-02, 5.42241428e-03,
          3.34048569e-02, 1.09361662e-02, -1.92287043e-02,
          4.06971686e-02, -4.70937639e-02, 2.88647767e-02,
          -1.33152604e-02, 2.05877777e-02, -1.06508266e-02,
          -4.51374911e-02, 2.92756781e-02, -3.89100201e-02,
          -1.67788751e-02, 3.06357536e-03, 1.92846339e-02,
          1.85566880e-02, 3.36627923e-02, -3.97610627e-02,
          6.17527962e-02, -2.06484683e-02, -2.97516305e-02,
          -6.66245967e-02, -4.44912873e-02, 2.29721889e-02,
          3.17987683e-03, 3.70466821e-02, -1.26475051e-01,
          8.66359323e-02, 3.94801050e-02, -1.03529491e-01,
          3.00762448e-02, -9.71565396e-02, 8.08663592e-02,
          3.45389508e-02, -1.09672463e-02, 7.67041557e-03,
          -5.58255091e-02, -4.97626625e-02, -1.66025370e-01,
          1.20362982e-01, -8.46130848e-02, 1.35486618e-01,
          -1.02241170e-02, -1.12917712e-02, 4.08165865e-02,
          -3.01668309e-02, -1.24015277e-02, -8.23969953e-03,
          -2.47297287e-02, -6.69049919e-02, 5.34745306e-02,
          -1.06034605e-02, -1.40333381e-02, 4.84625436e-02,
          6.27088128e-03, 2.79544480e-02, 3.07079591e-02,
          -4.96684480e-03, -4.40762155e-02, 2.53572520e-02,
          -1.20661808e-02, 1.45724230e-02, -3.04491911e-03,
          -7.77997673e-02, 1.15259148e-01, -1.62563205e-01,
          2.79625095e-02, 6.01234399e-02, 5.20994551e-02, 1.59822796e-02,
          -2.51718820e-03, -5.43065853e-02, -5.13307154e-02,
          4.41357866e-02, -1.39164805e-01, -7.06887171e-02,
          1.26691043e-01, 7.56748691e-02, -4.31198452e-04,
          8.53156578e-03, -3.49800428e-03, -2.66976338e-02,
          -1.55442832e-02, -6.79242238e-03, 1.80515684e-02,
          -2.81305462e-02, -2.14632545e-02, 1.06810890e-02,
          -3.23822629e-03, -4.57908846e-02, -3.97228077e-03,
          -1.13592334e-02, -1.53433095e-04, 1.81079097e-02,
          -7.71315349e-03, 5.21696620e-02, -3.41094891e-03,
          -1.78704062e-03, -8.98203067e-03, 8.57896358e-03,
          -1.33161212e-03, -7.60038907e-04, 3.33528705e-02,
          -6.61330074e-02, 3.23735401e-02, -1.28690049e-03,
          -1.71391796e-02, -5.66600543e-03, 1.34167001e-01,
          1.09658539e-01, -1.46708682e-01, -7.89050609e-02,
          -9.51008871e-02, 3.84754530e-04, -3.93838249e-02,
          1.95300713e-01, -1.21987119e-01, 2.49615654e-01,
          -1.13074176e-01, -1.79443687e-01, 4.85285111e-02,
          -1.14980742e-01, -1.19174486e-02, 1.74933709e-02,
          3.29832174e-02, -2.09153667e-02, 4.10937257e-02,
          3.55168581e-02, -1.27424836e-01, 1.24118663e-01,
          -1.33532032e-01, 1.20628625e-02, 4.41836426e-04,
          -2.94657005e-03, 1.61140323e-01, -1.56631514e-01,
          6.40334114e-02, 1.56651467e-01, 5.27868373e-03,
          -2.49157637e-01, 3.75225879e-02, -1.02329142e-02,
          1.99972391e-01, -1.10706091e-02, -2.02214196e-02,
          3.22682597e-02, -4.18723337e-02, -1.71769172e-01,
          -2.70833559e-02, -1.68283895e-01, 2.45177537e-01,
          7.98601136e-02, -1.94955450e-02, 8.25710222e-03,
          2.73896032e-03, -5.76122068e-02, -4.47529368e-02,
          3.04048974e-02, 7.00995550e-02, -3.93393934e-02,
          -2.27762014e-02, 1.88223161e-02, 2.91251037e-02,
          -1.46154882e-02, -6.71046367e-03, 2.58013867e-02,
          3.71313468e-03, 4.24000770e-02, -1.96823142e-02,
          1.57404272e-03, 2.24645273e-03, 2.36229859e-02, 4.54734871e-03,
          8.11911840e-03, 2.84561259e-03, 7.19668635e-04, 1.78736188e-02,
          -2.25390643e-02, 1.02143176e-02, 5.98536767e-02,
          -4.67250077e-03, -4.33094474e-03, 3.08581349e-03,
          -4.33409994e-04, -4.01009396e-02, -7.06662517e-03,
          8.09140224e-03, -1.96305532e-02, -7.30078842e-04,
          -7.71404058e-03, 1.76769812e-02, -2.61335298e-02,
          7.08264019e-03, 5.49251381e-05, 1.24507826e-02, 1.52564968e-03,
          7.22983927e-02, -9.69200581e-02, -1.87158927e-01,
          2.45017484e-01, -3.66906486e-02, -7.34113753e-02,
          -2.13155970e-02, -3.49531583e-02, 2.19061375e-01,
          1.02749847e-01, 7.66610587e-03, -5.32449968e-02,
          7.03641772e-02, -1.27455831e-01, -6.68449551e-02,
          2.91010141e-01, -2.29479924e-01, 2.17002407e-01,
          2.03158874e-02, 6.01934157e-02, 1.00949354e-01,
          -6.95576221e-02, -8.08407590e-02, 2.84218043e-02,
          7.05668628e-02, -5.67996800e-02, -9.66292918e-02,
          -1.02280438e-01, 1.07803300e-03, -2.22298875e-02,
          -5.63852303e-02, -1.53167907e-03, 1.08339183e-01,
          -3.44571024e-02, 1.16923705e-01, -1.61676500e-02,
          2.73241941e-02, 1.27888426e-01, -2.40353635e-03,
          6.03785925e-02, -2.65151914e-02, -1.03077039e-01,
          5.14769647e-03, -3.89171904e-03, -6.88224938e-03,
          -2.97650713e-02, 8.44917372e-02, 1.82806384e-02,
          1.51886763e-02, 4.95023727e-02, -1.16778724e-01,
          -1.45034725e-02, -9.34134424e-02, 2.44523175e-02,
          4.74268198e-02, -2.68813875e-02, 3.64841484e-02,
          1.04748860e-01, 1.54895531e-02, -1.12065755e-01,
          -2.06735641e-01, 7.96418358e-03, 6.93976060e-02,
          1.06286772e-01, -9.24486816e-02, 1.20433450e-01,
          -5.62012494e-02, -3.46094556e-02, 3.18522267e-02,
          -2.64155120e-02, -1.13282129e-01, 1.09169349e-01,
          5.03082469e-04, 7.17660114e-02, 3.66768823e-03,
          -5.12168556e-02, 2.79233810e-02, -1.00027166e-01,
          -3.69103886e-02, 3.35860252e-02, -3.27855684e-02 ]
      - [ -1.77651532e-02, 2.22125486e-03, 7.18187541e-03,
          2.37507541e-02, 9.41584166e-03, -8.76377337e-03,
          -1.07921017e-02, -7.87405111e-03, -1.01631163e-02,
          -2.79843644e-03, -2.61457055e-03, -2.54428107e-03,
          8.07235111e-03, 6.14084210e-03, 7.87311513e-03,
          -5.40758995e-03, -7.61815067e-03, -5.59659442e-04,
          5.90611342e-03, -2.02949159e-03, -1.15641179e-02,
          -1.16761103e-02, -3.32215242e-03, -1.09538045e-02,
          -2.86688679e-03, 2.70635402e-03, 1.92486178e-02,
          2.41410658e-02, -2.37076636e-02, -3.74736823e-02,
          -2.50912588e-02, -1.53066171e-02, -1.77741311e-02,
          -1.41288089e-02, -5.28484257e-03, 4.19040471e-02,
          3.33281495e-02, -1.74559969e-02, -2.42454950e-02,
          -1.97592173e-02, -1.93963554e-02, -2.03136411e-02,
          -1.28179705e-02, 2.65464862e-03, 3.20059322e-02,
          2.16288958e-02, -4.14713752e-03, -1.60770752e-02,
          -1.36057138e-02, -1.81178004e-02, -1.79810710e-02,
          -1.75047945e-02, -9.62358713e-03, 2.18402352e-02,
          2.82678492e-02, -1.77166034e-02, -1.91173926e-02,
          -1.04077514e-02, -1.42203039e-02, -2.25542225e-02,
          -2.65042447e-02, -1.44626591e-02, 2.67076585e-02,
          2.13901624e-02, -2.95338668e-02, -3.82790938e-02,
          -1.52773680e-02, -1.86228286e-02, -1.03473151e-02,
          -1.72449369e-02, 2.23993161e-03, 3.72373536e-02,
          2.28080191e-02, -1.32438894e-02, -3.35090868e-02,
          -1.81383900e-02, -1.59868766e-02, -1.64759848e-02,
          -1.46078644e-02, 6.36806292e-03, 2.58493498e-02,
          1.44788353e-02, -1.18116755e-02, -2.90123243e-02,
          -1.97107587e-02, -2.45983005e-02, -1.38303321e-02,
          -6.47707237e-03, 6.87921373e-03, 2.55727284e-02,
          3.98145244e-03, -5.47473133e-03, -2.27371268e-02,
          -1.83383841e-02, -1.33898184e-02, -3.27085238e-03,
          7.93707650e-03, 5.15092956e-03, 1.39693422e-02,
          -1.13513634e-04, 3.59390979e-03, -1.45237818e-02,
          -1.05391471e-02, -6.64262939e-03, -3.28343082e-03,
          -3.87355546e-03, 3.53622716e-03, -2.31273050e-04,
          -3.81894666e-03, -7.41870841e-03, -6.48034317e-03,
          -4.94548632e-03, -1.45409945e-02, -6.25251094e-03,
          2.39232043e-03, 5.92934620e-03, 8.17255210e-03,
          -9.53761954e-03, -6.57150988e-03, -9.89798456e-03,
          -7.03716651e-03, -1.05284257e-02, 1.79499481e-03,
          7.25871278e-03, 1.33873038e-02, 1.80083662e-02, 3.52285081e-03,
          -4.01928183e-03, -1.07180895e-02, -2.01300941e-02,
          -1.09717837e-02, 6.27202727e-03, 1.99896377e-03,
          7.17172585e-03, 1.16395950e-02, -7.34175043e-03,
          1.12742959e-02, 8.46045185e-03, 4.78533655e-03,
          -1.66709849e-03, -8.64436943e-03, -1.28283482e-02,
          -1.78468954e-02, -1.10100340e-02, -1.03673199e-02,
          -4.95768990e-03, -1.02393702e-02, -4.92649106e-03,
          1.04192095e-02, 1.54446540e-02, 6.60706591e-03, 1.57073012e-03,
          -5.35951369e-03, 2.41837348e-03, -1.09890979e-02,
          -1.24836545e-02, -1.32620381e-02, 3.07417568e-03,
          1.35287549e-02, 1.11905942e-02, 1.24717569e-02, 1.40240034e-02,
          2.99949050e-02, -1.50899161e-02, -3.72425728e-02,
          -2.67301127e-02, -3.28337215e-03, -6.69135945e-04,
          5.27904253e-04, 3.87069536e-03, 4.97748554e-02, 2.63093356e-02,
          -2.22807135e-02, -3.74395363e-02, -3.71821374e-02,
          -1.53539805e-02, -1.77921576e-03, -5.76791819e-03,
          9.32386436e-04, 3.37208211e-02, 3.26007009e-02,
          -1.35237910e-02, -2.05965098e-02, -3.41309831e-02,
          -2.56777629e-02, -1.87153853e-02, -2.06262544e-02,
          -8.29190016e-03, 3.42224389e-02, 3.77894156e-02,
          -2.05873698e-02, -2.43658032e-02, -2.37555560e-02,
          -2.28627529e-02, -2.12483890e-02, -1.93273630e-02,
          -8.55229609e-03, 4.78047915e-02, 3.53581607e-02,
          -1.90880336e-02, -2.78114062e-02, -1.38118016e-02,
          -1.76144056e-02, -1.93264876e-02, -1.82823893e-02,
          -1.12716081e-02, 3.87775302e-02, 2.15299670e-02,
          -2.20434722e-02, -3.02001741e-02, -1.76035911e-02,
          -1.65076312e-02, -1.05504375e-02, -1.58108491e-02,
          -3.12053110e-03, 2.66456436e-02, 6.58152578e-03,
          -2.81558167e-02, -2.39493530e-02, -1.02530662e-02,
          -3.76014435e-03, 6.03539578e-04, -4.89966478e-03,
          -1.04963090e-02, 1.33876037e-02, 4.66656964e-03,
          -6.65774802e-03, -1.58065371e-02, -8.49212985e-03,
          -3.64546501e-03, -2.70620314e-03, -7.57892942e-03,
          -7.38304015e-03, 3.62364389e-03, 3.52931354e-04,
          7.08884982e-05, -7.20367441e-03, -1.86063509e-04,
          6.42599363e-04, -3.71527206e-03, -6.56544371e-03,
          -2.17554788e-03, 9.82032437e-03, -3.22761014e-03,
          -5.82668371e-03, -1.04425792e-02, 2.92866630e-03,
          4.77596233e-03, -4.83597722e-03, -3.17271566e-03,
          8.09793919e-03, 5.56548219e-03, 2.91427923e-03, 2.46859877e-03,
          4.11786372e-03, 6.98587252e-03, -7.32599571e-03,
          -7.59008434e-03, 7.44229532e-04, 2.20367243e-03,
          7.24428520e-03, -8.12264998e-03, -6.90333778e-03,
          -8.54680408e-03, 2.56626983e-03, -6.22907747e-03,
          -2.19844258e-03, 4.74816887e-03, 9.80077218e-03,
          2.22872887e-02, -1.79769751e-02, -5.33133186e-03,
          1.15197487e-02, 1.01819504e-02, 1.21291932e-02, 1.15785226e-02,
          1.95778348e-02, 1.17751649e-02, -1.32619916e-02,
          -1.82493757e-02, 8.01347755e-03, 1.22099509e-02,
          1.33231701e-02, 9.19938087e-03, 1.02756647e-02, 2.19890643e-02,
          2.20095236e-02, -1.14194276e-02, -8.22409429e-03,
          -2.06859820e-02, -6.51339162e-03, 3.30060627e-03,
          8.91922880e-03, 1.29906368e-02, 1.95067152e-02, 1.94544755e-02,
          1.06276534e-02, 2.67848168e-02, -1.63036417e-02,
          -2.10774634e-02, -1.48256598e-02, 4.48649656e-03,
          -2.12042104e-03, -7.35233491e-03, 2.63650250e-03,
          2.36570090e-02, 2.07618643e-02, -1.58655066e-02,
          -2.39609201e-02, -2.41061170e-02, -1.84908360e-02,
          -1.45142423e-02, -1.12968488e-02, 6.10359944e-03,
          3.52101624e-02, 4.24502082e-02, 2.73418264e-03,
          -1.17498441e-02, -3.53025086e-02, -2.48307940e-02,
          -1.66207645e-02, -1.19269369e-02, -9.76194453e-04,
          3.53789814e-02, 2.89859697e-02, -3.68242268e-03,
          -1.38650741e-02, -2.47321315e-02, -1.86846722e-02,
          -7.59760942e-03, -1.44373777e-03, 5.55617874e-03,
          2.66650580e-02, 7.41881225e-03, 2.25381553e-03,
          -1.43262614e-02, -1.66809596e-02, -2.59847217e-03,
          1.35973922e-03, 5.37713943e-03, 1.50645953e-02, 2.14614645e-02,
          4.19309922e-03, 5.88900363e-03, -8.70624557e-03,
          -1.57899130e-02, 5.26264915e-03, 4.38058982e-03,
          4.44142707e-03, 1.56351354e-03, 1.60368737e-02,
          -6.30810019e-03, 6.15431461e-03, -5.17291436e-03,
          6.13455521e-03, 1.10551929e-02, 7.47346971e-03, 2.66720238e-03,
          4.14932379e-03, 8.36022105e-03, -6.20875368e-03,
          1.15464404e-02, 8.97433516e-03, 1.29212495e-02, 5.60290739e-03,
          3.52880429e-03, 9.28083900e-04, 1.29124394e-03,
          -2.67742341e-03, -7.91441835e-03, 1.91459693e-02,
          2.13120840e-02, 2.13502273e-02, 1.64772961e-02, 5.11799101e-03,
          2.72501237e-03, -6.51212409e-03, -1.68619659e-02,
          -2.06936616e-02, 1.51490597e-02, 2.52189469e-02,
          2.67010964e-02, 1.77200101e-02, 7.59752840e-03, 1.35727238e-03,
          -1.64439697e-02, -2.34180074e-02, -1.01305339e-02,
          1.26086585e-02, 2.86675543e-02, 2.73620766e-02, 1.11932298e-02,
          2.86074542e-03, -1.33841159e-02, -2.01033335e-02,
          -1.36588337e-02, -4.52256715e-03, 3.60510335e-03,
          1.62304956e-02, 3.88821471e-03, -1.10608828e-03,
          -2.96757440e-03, -3.48644587e-03, -1.82019651e-03,
          1.86692015e-03, -2.31411308e-02, -1.28308702e-02,
          8.43997020e-03, 4.14427323e-03, -5.44448476e-03,
          -3.05844378e-03, 2.12037917e-02, 9.83799901e-03,
          -1.39577789e-02, -2.02793796e-02, 5.48629789e-03,
          4.12871409e-03, 2.26830947e-03, -2.97027244e-03,
          3.70838866e-03, 2.14528572e-02, 2.15158034e-02,
          -9.92126577e-03, -1.79222517e-03, -1.91817973e-02,
          7.36972224e-03, 6.22512447e-03, -8.55835737e-04,
          -2.41091033e-03, -1.19852903e-03, 1.81612633e-02,
          1.68250396e-03, 1.74560468e-03, -1.67825613e-02,
          -1.42404642e-02, 4.53307340e-03, 7.93186598e-04,
          7.02032237e-04, -1.25539920e-03, -1.87225771e-04,
          -2.95148002e-05, 9.92324320e-04, -1.52869765e-02,
          -1.01324935e-02, -4.10803407e-03, 3.46817612e-03,
          -1.74641970e-03, 6.34709897e-04, -1.05502542e-04,
          3.44236218e-03, 1.35674924e-02, -1.13599878e-02,
          -1.28728114e-02, -1.86056569e-02, -2.60418281e-03,
          -4.82077198e-03, -8.58583674e-03, -1.11283753e-02,
          2.69074887e-02, 1.43848266e-02, -1.12223916e-03,
          -1.60829946e-02, -2.12905481e-02, -1.35066465e-03,
          3.77173536e-04, 3.64336534e-03, -4.95407963e-04,
          1.93420351e-02, 9.85511951e-03, -6.61041588e-03,
          -1.53038790e-02, -1.34144183e-02, -2.70080171e-03,
          -1.88341516e-03, 2.95109977e-03, 2.00395435e-02,
          1.73388366e-02, 2.03692932e-02, -3.06630996e-03,
          -1.82154942e-02, -1.94992051e-02, -4.44961246e-03,
          5.02802432e-03, 2.86059966e-03, -7.12164445e-03,
          2.25263033e-02, 1.07720541e-02, 3.61505803e-03,
          -8.69243313e-03, -1.12515939e-02, -3.29645420e-03,
          -4.84037213e-03, 1.21815782e-03, -1.10568088e-02,
          1.88545771e-02, 6.87798858e-03, 1.83531623e-02, 1.41828768e-02,
          4.41912794e-03, -5.58695430e-03, -1.16583696e-02,
          4.59712138e-03, -1.16314534e-02, 6.94740005e-03,
          4.81736474e-03, 2.87786238e-02, 3.45558822e-02, 5.82060125e-03,
          -8.31432082e-03, -1.37341861e-02, -1.00371824e-03,
          -9.36227478e-03, -1.33012133e-02, 2.94253277e-03,
          2.38073673e-02, 3.63133773e-02, 5.06115751e-03,
          -3.75427376e-03, -5.04921284e-03, -3.76804359e-03,
          -1.68802105e-02, -1.51960598e-02, 1.47493212e-02,
          2.25432236e-02, 2.72526611e-02, -5.89697622e-03,
          -1.32960426e-02, -1.38829295e-02, -3.15534160e-03,
          -8.17447808e-03, -1.05327286e-03, 1.37377242e-02,
          2.26674173e-02, 1.42335035e-02, -1.06830178e-02,
          -1.17060384e-02, -1.21672545e-02, -5.11845434e-03,
          -2.04171846e-03, 6.72260486e-03, -2.05467176e-02,
          1.40721875e-03, 6.43307762e-03, 5.16837323e-03, 5.31026535e-03,
          1.11274486e-02, 2.43733171e-02, 4.32585366e-03,
          -1.02175856e-02, -4.24838020e-03, 3.90578317e-03,
          4.68243565e-03, 5.93137462e-03, 5.80925075e-03, 2.72529200e-03,
          6.03302009e-03, 1.53510328e-02, -7.25564035e-03,
          -6.31532923e-04, -1.41102285e-03, 1.84655283e-03,
          2.70465878e-03, 6.62194157e-04, -2.46999599e-03,
          -7.50166737e-03, 4.18853667e-03, 1.51393982e-03,
          -5.64026367e-03, 5.63303009e-04, -1.05034225e-04,
          4.13380191e-03, 5.68855880e-03, 5.24783460e-03,
          -1.55020459e-03, 2.19071098e-03, -1.43158587e-03,
          1.37884659e-03, -8.49984027e-03, -5.54628856e-03,
          -9.00066050e-04, 9.82124475e-04, 1.42091725e-04,
          1.37404620e-03, 7.96425063e-03, 1.83535530e-03, 1.04466947e-02,
          -1.90995820e-02, -1.91193093e-02, -1.61774643e-02,
          -3.56548256e-03, -1.85413600e-03, 1.97313190e-03,
          4.79435222e-03, 2.02618148e-02, 1.04099652e-02,
          -1.44672748e-02, -1.82693601e-02, -9.93938185e-03,
          -5.33864694e-03, -4.51589469e-03, -3.13577882e-04,
          3.62839480e-03, 2.30423827e-02, 3.09024658e-03,
          -1.52941979e-02, -1.32859508e-02, -6.96950871e-03,
          -3.01997899e-03, -2.55058054e-03, 1.33535988e-03,
          1.89142618e-02, 1.74225029e-02, 1.31730372e-02,
          -1.62700024e-02, -1.85123589e-02, -1.41933998e-02,
          -7.44798314e-03, -5.93619468e-03, -1.04039558e-03,
          8.13833904e-03, 2.29848139e-02, 2.74151769e-02,
          -7.69561157e-03, -1.59840696e-02, -1.98600944e-02,
          -1.36802541e-02, -9.09924414e-03, -5.98589750e-03,
          -1.23790139e-02, 2.60939039e-02, 1.56304929e-02,
          1.37604773e-02, 5.93853928e-03, -9.25480109e-03,
          -1.66821890e-02, -1.33671556e-02, -9.47351940e-03,
          -1.50752327e-04, 1.29809668e-02, 8.46980698e-03,
          3.16053703e-02, 2.64476109e-02, 8.21673311e-03,
          -1.06939925e-02, -1.74471568e-02, -1.08346902e-02,
          -1.19144814e-02, -9.62115638e-03, -2.51044589e-03,
          1.19081903e-02, 2.32012570e-02, 1.50892679e-02, 1.94105448e-03,
          -4.96911071e-03, 2.26521399e-03, 5.10696927e-03,
          -1.41518256e-02, 1.35325603e-02, 6.50564954e-03,
          3.31460335e-03, -1.38357198e-02, -9.31549724e-03,
          -1.56201131e-03, 5.15982322e-03, 1.18126525e-02,
          1.27385864e-02, 1.26485107e-02, 7.58779701e-03,
          -4.33885492e-03, -1.72460340e-02, -1.41299441e-02,
          -2.82969180e-04, 6.04334474e-03, 3.31441313e-03,
          5.01707988e-03, -8.94193631e-03, -2.70161917e-03,
          -6.05979841e-03, -9.41994891e-04, -2.21811607e-03,
          1.50428740e-02, 6.34691538e-03, -1.96173484e-03,
          -6.46316912e-03, 8.70411843e-03, -5.22646215e-03,
          5.43298153e-03, 6.34237938e-03, 1.05551002e-03,
          -1.95601257e-03, -5.51659707e-03, -1.33995293e-03,
          -3.45653086e-03, 1.14633311e-02, -1.08652073e-03,
          2.35565496e-03, -1.78874237e-03, -3.42737744e-03,
          -1.52866710e-02, -8.14203639e-03, -5.38629154e-03,
          1.44120166e-03, 3.92041216e-03, 5.80398226e-03,
          -5.32001071e-03, -1.52826104e-02, -5.67250093e-03,
          -7.05867633e-03, -8.44735466e-03, -2.50493037e-03,
          3.92041216e-03, 6.84766658e-03, -1.06555624e-02,
          -3.28622432e-03, -5.96753322e-03, -7.16379890e-03,
          -9.49945953e-03, -5.15045039e-03, -1.50941487e-03,
          6.84766658e-03, 9.44822934e-03, -3.26728411e-02,
          -2.33826283e-02, -8.15167557e-03, -3.49007244e-03,
          -5.85692283e-03, 4.57429735e-04, -3.81458295e-03,
          1.93717889e-02, 9.75082535e-03, -2.84920614e-02,
          -2.39713825e-02, -1.39913168e-02, -6.40943320e-03,
          -7.90161605e-04, -4.33994969e-03, -8.26137885e-03,
          2.57795528e-02, 6.32741582e-03, -2.12037805e-02,
          -1.81090608e-02, -6.29266677e-03, -3.30461073e-03,
          -3.75573128e-03, -5.66044077e-03, -1.03455698e-02,
          2.02302188e-02, 1.26666259e-02, -2.40706075e-02,
          -2.14767363e-02, -8.70837830e-03, -6.74477825e-03,
          -3.26463673e-03, -6.58365944e-03, -1.10313371e-02,
          2.29646806e-02, 1.55802220e-02, -2.17275079e-02,
          -2.74984371e-02, -1.39787169e-02, -9.88720451e-03,
          -1.32244378e-02, -7.24577112e-03, 5.64613473e-03,
          1.89148877e-02, 1.48725808e-02, 4.23257210e-04,
          -7.93664437e-03, -2.60851276e-03, -1.09014260e-02,
          -2.03520115e-02, -1.41686052e-02, -1.05326204e-02,
          1.19873416e-02, 9.59089398e-03, 2.05131155e-02, 3.66251869e-03,
          -2.77563580e-03, -1.07102431e-02, -1.09271938e-02,
          -7.82313757e-03, -2.30015460e-02, 2.20306404e-03,
          4.66618408e-03, 7.23142130e-03, 1.26340357e-03, 3.45296459e-03,
          -2.76728789e-03, 1.15494698e-03, 7.52244471e-03,
          9.65034962e-03, -4.28556977e-03, -1.97408046e-03,
          -1.78868952e-03, 5.51663665e-03, 6.08223304e-03,
          5.34211751e-03, 5.67916839e-04, 5.98769356e-03, 3.14337667e-03,
          -1.25127891e-03, 9.93879326e-03, 4.39109188e-03,
          7.44055770e-03, -2.91837053e-03, -4.85187070e-03,
          -5.21678012e-03, -9.34120361e-03, -7.57644651e-03,
          2.15756800e-03, -1.02185747e-02, -1.07661383e-02,
          -1.15158614e-02, -3.81715433e-03, 1.15210209e-02,
          1.74914058e-02, 1.43497633e-02, 5.94990654e-03,
          -4.07503778e-03, -5.73520176e-03, -4.30716109e-03,
          -2.39087525e-03, 1.87827796e-02, 4.60668420e-03,
          -7.62135116e-03, -3.25043045e-04, -1.92273385e-03,
          -1.25648184e-02, 1.12484663e-03, 1.86214002e-03,
          1.62239969e-02, 1.63772772e-03, -1.69201719e-03,
          -1.32973967e-02, -2.01593735e-03, -8.29932932e-03,
          -1.29439374e-02, 1.18202055e-02, 7.80553138e-03,
          2.96580535e-03, -4.13391506e-03, -1.07511459e-02,
          -1.48698408e-02, -1.40209384e-02, -1.67209636e-02,
          1.19610142e-03, 5.92046231e-03, -3.89661174e-03,
          -7.57229235e-03, -1.33474311e-03, -7.90273864e-03,
          -1.51600800e-02, -6.99065509e-04, 2.74263765e-03,
          6.22798130e-03, -7.27362232e-03, -2.43683662e-02,
          -1.80515721e-02, -1.63953081e-02, -7.26321305e-04,
          3.34259938e-03, 1.01883216e-02, 1.74475145e-02, 8.33024643e-03,
          9.58290324e-03, -1.81039423e-02, -2.04006284e-02,
          -1.82258077e-02, -8.97558406e-03, -8.61606468e-03,
          -2.02199750e-04, 8.95112474e-03, 2.33301129e-02,
          8.65585916e-03, -9.92297661e-03, -1.29074454e-02,
          -8.74444190e-03, -1.22841273e-03, -5.85723389e-03,
          -5.95766352e-03, -8.68147053e-03, 1.03868032e-02,
          9.51123051e-03, -1.32570006e-02, -1.37719335e-02,
          -7.35108322e-03, -6.72416482e-03, -3.32984072e-03,
          -8.09400901e-03, -6.83820713e-03, 2.08572429e-02,
          3.62768886e-03, -1.06117446e-02, -1.71839707e-02,
          -7.66263343e-03, -9.74655431e-03, 2.37913569e-03,
          2.08378490e-03, 1.50247896e-02, 4.52899607e-03, 7.85970187e-04,
          -5.86309936e-03, -2.68512871e-03, 3.24062514e-03,
          1.29691570e-03, 3.58446804e-03, 3.69045837e-03,
          -6.92014676e-03, -1.09966577e-03, -9.51082387e-04,
          1.28348591e-02, 2.02364940e-03, 1.58731092e-03,
          -7.81422108e-03, -2.69745360e-03, 1.27956329e-03,
          -9.93579393e-04, -4.27099084e-03, 8.06760881e-03,
          4.76835016e-03, 1.10124219e-02, 3.64483008e-03, 1.80112629e-03,
          -5.30161895e-04, -3.14044533e-03, -8.33763648e-03,
          7.58361770e-04, 3.29767494e-03, 9.61119961e-03, 1.42441392e-02,
          1.18016759e-02, 1.31966826e-03, -7.16501381e-04,
          -8.59937537e-03, -1.41285211e-02, -5.72956493e-03,
          -2.48972501e-04, 2.08293344e-03, 1.23852761e-02,
          1.06998449e-02, 5.88216935e-04, -6.00146537e-04,
          -6.28824998e-03, -6.40404504e-03, -6.95913611e-03 ]
      - [ -1.78538077e-02, -9.31355171e-03, 1.27796931e-02,
          2.84639075e-02, 3.19978446e-02, 5.25615131e-03, 8.75534315e-04,
          3.17551137e-04, -2.50029247e-02, -7.56625505e-03,
          3.24646174e-03, 8.46805458e-04, -1.16367452e-03,
          8.69562291e-03, 8.17385688e-03, -3.13437125e-03,
          -5.88328205e-03, -9.73553210e-03, 3.91412713e-03,
          -8.27578921e-03, -9.37807467e-03, -5.92712825e-03,
          -1.99357746e-03, -1.73676724e-03, 2.37691426e-03,
          -5.69409051e-04, 3.27178370e-03, 2.22415738e-02,
          -2.53525749e-02, -3.22232768e-02, -2.86749192e-02,
          -2.37391572e-02, -1.54956244e-02, -1.18693840e-02,
          -4.74820100e-03, 3.99910510e-02, 4.32364121e-02,
          -1.55060552e-02, -3.53600420e-02, -3.53819504e-02,
          -3.51645909e-02, -2.62212139e-02, -1.42451460e-02,
          -6.58210483e-04, 4.78585102e-02, 2.81337686e-02,
          -1.66568626e-02, -2.96745822e-02, -2.62274705e-02,
          -2.91004051e-02, -2.37830635e-02, -1.28584821e-02,
          -2.87321350e-03, 3.11464146e-02, 1.94438733e-02,
          -1.91700775e-02, -1.88434590e-02, -1.35470591e-02,
          -1.99883711e-02, -1.51210418e-02, -1.94005836e-02,
          -1.83004905e-02, 1.85199659e-02, 2.19283272e-02,
          -1.93592720e-02, -2.34290902e-02, -1.36344591e-02,
          -1.91384703e-02, -1.41580449e-02, -2.09996365e-02,
          -1.53799569e-02, 1.85689162e-02, 2.79619563e-02,
          -5.86695224e-03, -1.98289901e-02, -2.59662475e-02,
          -2.84673721e-02, -2.82029267e-02, -2.45176479e-02,
          -5.48882317e-03, 3.28336619e-02, 3.56546529e-02,
          4.20224649e-04, -2.27805004e-02, -2.40385309e-02,
          -2.96323802e-02, -2.44111754e-02, -2.88729537e-02,
          -3.53194401e-03, 3.75710763e-02, 2.38618311e-02,
          4.50552441e-03, -1.14987278e-02, -1.18191037e-02,
          -1.33213000e-02, -2.37280987e-02, -1.82381030e-02,
          5.48578054e-03, 2.42918469e-02, 1.56388730e-02, 4.83519677e-03,
          -4.83450061e-03, -3.23751988e-03, 2.11957563e-03,
          -1.49703007e-02, -1.06119243e-02, -3.82264174e-04,
          1.37670012e-02, 5.62425144e-03, 1.11817825e-03,
          -1.82541611e-03, 1.13065925e-03, 1.11866910e-02,
          -3.90475267e-03, -1.48407612e-02, -3.69263999e-03,
          1.00434478e-02, 6.67190459e-03, 5.97418146e-03, 3.60039342e-03,
          6.14077179e-03, 7.47386413e-03, -6.41338388e-03,
          -5.40475314e-03, -5.29818051e-03, 1.16048781e-02,
          -3.79117974e-03, 2.00386019e-03, 3.35296779e-03,
          -1.25435239e-03, 7.37066660e-03, 2.80397455e-03,
          -2.90073501e-03, -9.52152302e-04, -3.59081052e-04,
          2.48887832e-03, 8.84163100e-03, 7.70552224e-03, 2.95923627e-03,
          -7.39513477e-03, -2.44788192e-02, -1.09064588e-02,
          -3.88781284e-03, -8.77420977e-03, 7.13564269e-03,
          1.57300718e-02, 1.08125200e-02, 1.34031344e-02,
          -1.27312960e-02, -1.26721933e-02, -4.23505064e-03,
          4.53610905e-03, 3.43589555e-03, -1.27316045e-03,
          -3.93166067e-03, 4.01860161e-04, 2.33783573e-03,
          -5.31051494e-03, -1.24120479e-02, 7.01090612e-04,
          1.07294880e-02, 1.48353120e-02, 9.35004372e-03,
          -1.28340898e-02, -2.37965584e-02, -1.69306770e-02,
          -1.44322691e-02, -1.28183942e-02, -7.81602506e-03,
          -4.24080854e-03, 4.12170216e-02, 2.86315903e-02,
          -2.34686304e-02, -3.46150286e-02, -3.62059250e-02,
          -2.37486847e-02, -6.42740075e-03, -7.18510337e-03,
          -9.91491979e-05, 4.20436747e-02, 1.64128561e-02,
          -2.76084375e-02, -3.33738215e-02, -2.85873823e-02,
          -1.03450930e-02, -6.86627207e-03, -7.85859674e-03,
          2.25915853e-03, 4.26722020e-02, 1.17681492e-02,
          -3.72082293e-02, -2.01755110e-02, -4.04650951e-03,
          -4.44976962e-04, -5.87419432e-04, -2.88813002e-03,
          -3.91575228e-03, 1.61701739e-02, 2.11292952e-02,
          -1.02803586e-02, -2.55497219e-03, -5.31218597e-04,
          -1.98381930e-03, -1.27518456e-02, -2.48341579e-02,
          -2.01888867e-02, 1.26080671e-02, 2.11244728e-02,
          -6.43593012e-05, -7.19634304e-03, -2.72596302e-03,
          -1.43615948e-02, -2.08452772e-02, -2.09554005e-02,
          -2.30220016e-02, 1.28724286e-02, 2.03849580e-02,
          -8.63508228e-03, -1.24978507e-02, -5.62304258e-03,
          -1.11281155e-02, -1.43999476e-02, -2.64860392e-02,
          -1.65488943e-02, 2.27984861e-02, 1.79546624e-02,
          8.10255576e-03, -3.38618737e-03, -1.65963208e-03,
          -1.11335674e-02, -2.12822184e-02, -2.11446993e-02,
          -3.65162850e-03, 2.82551572e-02, 2.11702846e-02,
          1.03124101e-02, 4.00946336e-03, 1.93381682e-03,
          -6.69882679e-03, -1.77726634e-02, -1.47930635e-02,
          2.97001540e-03, 1.70791857e-02, 6.95997803e-03, 4.10174159e-03,
          4.29895055e-03, 9.05503612e-03, -8.89202289e-04,
          -1.38399918e-02, -6.07815757e-03, -8.45464878e-04,
          2.27955412e-02, 7.49390805e-03, 7.00317370e-03, 8.70527700e-03,
          2.09685043e-02, -8.37324187e-03, -1.34343086e-02,
          -2.19739880e-03, 1.22672180e-02, 1.07951192e-02,
          -5.89102879e-03, 4.58796648e-03, 1.48604962e-03,
          3.20736389e-03, 1.76799076e-03, -4.05559642e-03,
          -1.29798963e-03, -2.83997040e-03, 7.03390222e-03,
          9.39285103e-03, 1.24136638e-02, 1.85012035e-02, 1.45887369e-02,
          -1.46692945e-02, -2.12045535e-02, 1.02256658e-02,
          1.27412146e-02, 6.88068848e-03, 7.92676955e-03, 1.00084813e-02,
          1.43303676e-02, 1.02936605e-03, -9.57212131e-03,
          -1.01994472e-02, 5.18582249e-03, 1.48205264e-02,
          1.02638621e-02, 1.15515972e-02, 2.05109734e-03, 1.62371509e-02,
          2.78485171e-03, -1.18254563e-02, -1.20484633e-02,
          5.41465869e-03, 1.22490758e-02, 1.15140723e-02, 1.87390037e-02,
          3.18140280e-03, 1.41781312e-03, 1.52483082e-03,
          -1.55768460e-02, -1.89691670e-02, -1.79062765e-02,
          -7.03829515e-04, 1.15273241e-02, 2.63280030e-02,
          -9.28943511e-03, -2.22272724e-02, -2.72475667e-02,
          -1.23921046e-02, -2.77100457e-03, -2.55262339e-03,
          1.42257158e-02, 2.83394158e-02, 3.30170579e-02,
          -1.23241032e-02, -2.65801903e-02, -3.34958062e-02,
          -1.93211809e-02, 3.77797219e-03, 4.62970743e-03,
          1.99291930e-02, 4.10970561e-02, 1.89952329e-02,
          -9.89235379e-03, -2.25435104e-02, -2.83436049e-02,
          -1.73459053e-02, 8.86145455e-04, 2.81812577e-03,
          1.93866808e-02, 2.59940289e-02, 2.52854861e-02, 1.26690678e-02,
          -1.16704339e-02, -2.81816423e-02, -1.79172847e-02,
          -1.35228951e-02, -1.22136129e-02, 9.22672823e-03,
          2.25369241e-02, 2.97873970e-02, 2.04354394e-02, 5.11267921e-03,
          -2.27944143e-02, -1.94433071e-02, -2.09649708e-02,
          -2.26033349e-02, -4.16300539e-03, 2.78248340e-02,
          2.19460726e-02, 1.64353885e-02, 1.98859768e-03,
          -1.14418622e-02, -1.40450867e-02, -1.60452090e-02,
          -1.56333558e-02, -8.44560936e-03, 1.33120883e-02,
          1.52122127e-02, 1.89917982e-02, 1.31352292e-02,
          -6.98175235e-03, -1.87495258e-02, -1.47932721e-02,
          -2.39384663e-03, 1.57498650e-03, 1.40286889e-02,
          1.43817309e-02, 1.10927932e-02, 1.21391639e-02,
          -4.45539737e-03, -7.70101184e-03, -9.06104874e-03,
          2.12460291e-03, 9.19365883e-03, 9.61961411e-03, 5.34690358e-03,
          7.88931828e-03, 1.54399239e-02, 6.06120843e-03,
          -7.47576682e-03, -7.47576682e-03, 5.77456970e-03,
          9.22262017e-03, 4.65537841e-03, 4.92819306e-03, 7.77129177e-03,
          1.82873234e-02, 1.22973640e-02, -8.18801671e-03,
          -1.28003461e-02, 9.11472179e-03, 6.37088250e-03,
          7.00540422e-03, 5.25359683e-05, 1.96552300e-03, 6.09583873e-03,
          -3.79422540e-03, -6.05530059e-03, -5.88857196e-03,
          4.76300996e-03, 1.17755979e-02, 5.61293121e-03, 3.68680805e-03,
          3.67725478e-03, 1.12123303e-02, 4.81277937e-03,
          -2.32686531e-02, -1.65741611e-02, 1.06993085e-02,
          8.42829887e-03, 3.88937740e-04, 9.55630746e-03, 8.21319968e-03,
          6.38030842e-03, -7.09321257e-03, -1.77399945e-02,
          -5.72561380e-03, 3.04158521e-03, 1.93531951e-03,
          8.70538875e-03, 1.41418763e-02, 2.20813253e-03, 7.63050839e-03,
          -3.98534490e-03, -1.59653202e-02, -1.67043358e-02,
          -1.09929666e-02, 5.36371022e-03, 8.85603484e-03,
          4.29942273e-03, 1.47110585e-03, 2.74222787e-03, 4.31174599e-03,
          -4.62586153e-03, -3.33758001e-03, -7.59825995e-03,
          -8.92366469e-03, -2.88041279e-04, 9.03812703e-03,
          -1.38809513e-02, -1.79752875e-02, -1.63694434e-02,
          -5.82628930e-03, -5.27870562e-03, -2.96614692e-03,
          -5.32834651e-03, 7.86109362e-03, 2.42931712e-02,
          -1.26916906e-02, -2.46774014e-02, -3.18043865e-02,
          -1.90062262e-02, -8.00712127e-03, -4.17466741e-03,
          -4.11883229e-03, 1.79612059e-02, 2.33635940e-02,
          4.20255493e-03, -2.69569904e-02, -3.82698961e-02,
          -2.26268098e-02, -2.33378750e-03, 1.32307864e-03,
          1.26762530e-02, 2.25543901e-02, 2.79448107e-02, 2.88058864e-03,
          -1.94102321e-02, -3.06274313e-02, -3.04605979e-02,
          -1.50247365e-02, -6.43000891e-03, 3.98963830e-03,
          2.04158779e-02, 2.09093746e-02, 8.36956315e-03,
          -1.01108691e-02, -2.24106759e-02, -2.26524975e-02,
          -8.08848161e-03, -8.98921397e-03, -1.31432386e-02,
          1.74868982e-02, 1.66828148e-02, 2.99346307e-03,
          -5.81745757e-03, -1.59952100e-02, -1.07220849e-02,
          -7.60297198e-03, -3.48672247e-03, -4.48144879e-03,
          1.38786212e-02, 1.08162817e-02, 4.23371326e-03,
          -9.36783559e-04, -9.89937037e-03, -1.39163481e-02,
          -9.21272766e-03, -5.12087438e-03, -3.40046454e-03,
          2.11382322e-02, 1.16824335e-03, -3.48372990e-03,
          2.92269443e-03, -7.21314130e-03, -1.41139720e-02,
          1.06273365e-04, 4.33294848e-03, 3.37798987e-03, 4.59339190e-03,
          8.60422850e-03, 1.17440324e-03, 3.66668357e-03,
          -4.60469630e-03, -8.04055016e-03, -3.02832667e-03,
          6.80969656e-03, 2.36126222e-03, 4.24870849e-03, 1.41683137e-02,
          1.66774243e-02, 2.79376772e-03, -8.26276839e-03,
          -9.10706446e-03, -3.48223839e-03, 1.12710632e-02,
          5.19714225e-03, 8.46464932e-03, 7.70783238e-03, 5.33287181e-03,
          4.89572901e-03, -6.20626612e-03, -6.90610148e-03,
          -4.81355144e-03, 4.02200618e-04, 6.16983464e-03,
          5.32464171e-03, 1.86187006e-03, 2.60427059e-03, 6.28920598e-03,
          5.54531347e-03, -1.58128608e-03, 1.35586743e-04,
          -3.81269585e-03, -3.78453545e-03, 2.99339485e-03,
          1.98327713e-02, 6.06129412e-03, 6.72227889e-03, 7.31778424e-03,
          3.89394048e-03, -1.93487317e-03, -1.60532929e-02,
          -5.69982314e-03, -3.22045991e-03, 1.04560312e-02,
          2.73802341e-03, 2.79632886e-03, 8.06274451e-03, 3.91913764e-03,
          -6.88362448e-03, -1.21395094e-02, -2.04955004e-02,
          4.58045956e-03, 2.12395797e-03, 8.29188328e-04, 9.24520427e-05,
          4.11219941e-03, 6.60352409e-03, 4.29792237e-03,
          -5.17035741e-03, -5.90889622e-03, -2.03689071e-03,
          9.50690638e-03, -1.34448456e-02, -1.07806418e-02,
          -1.01582659e-02, -7.41007086e-03, -5.85580664e-03,
          -7.35821621e-03, -6.61919918e-03, 9.50690638e-03,
          1.57594066e-02, -2.09783800e-02, -2.57385653e-02,
          -2.60796063e-02, -1.27204321e-02, -7.41411606e-03,
          -4.71226545e-03, -1.06812073e-02, 1.70523115e-02,
          1.84875783e-02, -1.03307969e-03, -1.64816175e-02,
          -1.52304014e-02, -1.50831006e-02, -1.90967526e-02,
          -2.56469045e-02, -1.79209467e-02, 1.77129358e-02,
          1.06298905e-02, -1.47635222e-03, -7.29158288e-03,
          -1.33550605e-02, -1.29069891e-02, -1.83852296e-02,
          -1.92856696e-02, 1.25119416e-03, 9.41201672e-03,
          1.05403662e-02, -1.06065273e-02, -7.78428512e-03,
          -1.04696983e-02, -1.24784131e-02, -1.02397110e-02,
          -5.34481322e-03, -9.42187291e-03, 1.01476796e-02,
          8.85304995e-03, -1.58323012e-02, -1.35574874e-03,
          -8.01906362e-03, -7.99052510e-03, -7.90643692e-03,
          -7.70220533e-03, -6.13965606e-03, 7.80126965e-03,
          1.53405697e-03, 2.11748597e-03, 1.16126423e-04,
          -6.77685905e-03, -3.22906795e-04, 4.62831726e-04,
          1.03825366e-03, -2.40034322e-04, 1.96536421e-03,
          -5.94417797e-03, -5.91259077e-03, 1.05393259e-03,
          1.03940163e-02, 9.45112482e-03, 3.38219735e-03, 2.88885902e-03,
          4.02999017e-03, 1.94573030e-03, -6.80785161e-03,
          -1.02974530e-02, -5.32036042e-03, 1.00761186e-02,
          1.22328186e-02, 7.94097316e-03, 4.55009472e-03, 4.21698950e-03,
          9.65964515e-03, 4.18926094e-04, -6.30538538e-03,
          -3.24381725e-03, -9.78608709e-03, 6.45514112e-04,
          6.15117559e-03, 1.14807710e-02, 5.55600459e-03, 6.12760289e-03,
          5.03410469e-04, 1.67888368e-03, 3.31257237e-03, 4.35727503e-04,
          -7.23406207e-03, -5.73556777e-03, 6.25009323e-03,
          5.18779410e-03, -1.54343282e-03, 4.25279327e-03,
          5.46042388e-03, 1.98868127e-03, -2.67080264e-03,
          5.42402687e-03, 5.01279766e-03, -6.40573166e-03,
          -3.13628325e-03, 6.45754219e-04, 1.76274199e-02,
          9.36939940e-03, 9.73704178e-03, 8.04719608e-03, 9.35477205e-03,
          5.72053296e-03, -1.75689701e-02, -9.02274530e-03,
          -3.51800787e-04, 8.84734653e-03, 1.05024213e-02,
          7.57761486e-03, 6.14164490e-03, 6.81990897e-03, 5.45837730e-03,
          -7.02168932e-03, -5.21214725e-03, -1.93081878e-03,
          -3.49309249e-03, 7.01976614e-03, 2.89321085e-03,
          7.38648407e-04, 2.65228469e-03, 1.63594191e-03, 3.83398868e-03,
          1.10430531e-02, -3.49309249e-03, 3.69368866e-03,
          -1.53499525e-02, -9.04534757e-03, -4.15894622e-03,
          4.48322826e-05, 1.70818355e-03, 2.63591739e-03, 8.58508889e-03,
          7.03959074e-03, 1.16819264e-02, -3.04416064e-02,
          -2.42449865e-02, -1.58276204e-02, -2.81857606e-03,
          -2.37759948e-03, -2.57834559e-03, -4.20647068e-03,
          2.42060311e-02, 2.61507090e-02, -1.00750774e-02,
          -1.75314397e-02, -1.44561063e-02, -9.16458666e-03,
          -1.58756915e-02, -2.28446014e-02, -1.98664721e-02,
          2.34930161e-02, 1.83401313e-02, -1.92406704e-03,
          -1.06766121e-02, -2.97109154e-03, -2.09502206e-04,
          -3.88231385e-03, -2.22234521e-02, -1.97957233e-02,
          9.66557767e-03, 1.29193887e-02, 1.62863980e-05, 2.14042421e-03,
          -4.92515275e-04, -4.36106930e-03, -1.08844042e-02,
          -1.24376956e-02, -1.25877289e-02, 6.55282335e-03,
          2.12673238e-03, -2.14243867e-03, 1.37319055e-03,
          -2.63406429e-03, -2.11581308e-03, -3.81267793e-03,
          -7.02713104e-03, -1.28678337e-04, 2.12673238e-03,
          -1.44105474e-03, -4.81715938e-03, -1.05207833e-03,
          6.59689482e-04, 1.76487234e-03, 1.14697462e-03, 3.03686177e-03,
          6.24805130e-03, -1.44105474e-03, -1.54822844e-03,
          -7.76049448e-04, -5.38863242e-03, 5.00070956e-03,
          3.72554897e-03, 2.08922406e-03, 4.16738121e-03, 2.13955669e-03,
          6.48873206e-03, -4.58122557e-03, -7.58179324e-03,
          -7.04996055e-03, 3.81875015e-03, 1.05147343e-02,
          1.01116439e-02, 6.51049474e-03, 8.78907274e-03, 4.35681402e-04,
          -3.83561361e-03, -5.12805814e-03, -9.26649850e-03,
          -5.90366963e-03, 4.57451912e-03, 3.99424788e-03,
          5.40079083e-03, 6.16805768e-03, 7.44233001e-03, 2.68438784e-03,
          -5.46037871e-03, -4.10027802e-03, 8.59832298e-03,
          -1.87542010e-03, -1.73789950e-03, 1.13212143e-03,
          2.57725921e-03, 4.95996187e-03, -1.30680588e-03,
          7.95873441e-03, 3.39559885e-03, 8.90036765e-03, 4.90450580e-03,
          -7.71603454e-03, -7.51790404e-03, -2.67778989e-03,
          -5.35150338e-03, -7.66425533e-03, -8.61851615e-04,
          4.03306400e-03, 1.17735732e-02, 1.11002307e-02, 7.79021205e-03,
          -3.74930864e-03, -3.41864745e-03, -1.10920127e-02,
          2.87547754e-03, 1.50451902e-02, 4.67047561e-03, 1.83162116e-03,
          1.03371050e-02, 3.36271012e-03, -4.05424042e-03,
          -9.34848469e-03, -1.11354375e-02, -8.96739424e-04,
          5.17998450e-03, 5.04706579e-04, -3.38515872e-03,
          -4.56809020e-03, 1.79298106e-03, 1.60573842e-03,
          -9.12063115e-06, -8.96739424e-04, 1.60720389e-04,
          -9.97637492e-03, -1.09665170e-02, -2.30260121e-04,
          -7.60353752e-04, 1.61944749e-03, 1.05938772e-02,
          1.84706300e-02, 1.76250804e-04, -1.03688994e-02,
          -1.54341273e-02, 9.48660367e-04, 5.63615817e-04,
          8.04052688e-03, 1.19390693e-02, 1.19622182e-02, 1.24932751e-02,
          -3.95484269e-03, -2.16652825e-03, -1.68490168e-02,
          -4.40052385e-03, -4.52776533e-03, 3.82851553e-03,
          1.09532606e-02, 7.52979936e-03, -3.70138697e-03,
          7.24494783e-03, -2.06606783e-04, -5.61489584e-03,
          -6.41998544e-04, -4.59804505e-05, 8.92727077e-03,
          9.44639090e-03, 4.80426679e-04, -1.58722661e-02,
          -6.20296982e-04, 3.18466523e-03, 5.98607957e-03,
          1.14910640e-02, 5.08100912e-03, 4.74936375e-03, 7.12407520e-04,
          -1.08830361e-02, -1.02603491e-02, -5.61589748e-03,
          -5.14270272e-03, 6.59119291e-03, 5.48863597e-03,
          7.21193291e-03, 3.44082341e-03, 9.66132339e-03, 4.08667885e-03,
          -8.77565425e-03, -5.29769948e-03, -2.62184348e-03,
          1.02669837e-04, 3.18901590e-03, 5.79469791e-03, 7.70999864e-03,
          -2.05728575e-03, -1.09452906e-03, 6.90196874e-03,
          -3.51408916e-03, -1.54525205e-03, 3.87855875e-03,
          -5.78685023e-04, 4.22359630e-03, 1.28771388e-03,
          -2.95925722e-03, 3.87166836e-03, 5.61476545e-03,
          -2.26544915e-03, -5.76048810e-03, 6.42227707e-03,
          3.46694840e-03, 3.19021032e-03, 8.98838695e-03, 4.36620787e-03,
          1.05839921e-03, 7.12742284e-03, -7.69217499e-03,
          -7.42923236e-03, 2.74219224e-03, -3.33502050e-03,
          6.44350005e-03, 1.00210803e-02, 1.13611447e-03,
          -9.78071243e-04, 1.02058507e-03, -2.44237832e-03,
          4.78436996e-04, -6.80701225e-04, 7.71230611e-04,
          1.21469132e-03, 7.68811721e-03, -2.24362314e-03,
          -5.22347516e-04, -2.15460313e-03, -1.05797127e-03 ]
      - [ -5.60216419e-03, 9.41803306e-03, 8.13950505e-03,
          8.11201986e-03, 1.40980573e-03, -1.48595916e-02,
          -1.20828124e-02, -1.42348800e-02, -1.41090602e-02,
          -2.46534683e-03, 6.57896232e-03, 2.26245075e-03,
          1.23055873e-03, -3.31014162e-04, -2.26477510e-03,
          -6.58454886e-03, -5.81172341e-03, -4.61313222e-03,
          8.94578081e-03, -1.40712003e-03, -1.32812141e-02,
          -1.72611754e-02, -1.07968571e-02, -1.37158565e-03,
          7.26025086e-04, 3.95082310e-03, 1.23341680e-02, 2.20014919e-02,
          -2.29786634e-02, -3.10084801e-02, -1.77957937e-02,
          -1.02331862e-02, -5.34760300e-03, -1.67661393e-03,
          3.16896942e-03, 3.17039043e-02, 2.29171682e-02,
          -2.15898249e-02, -3.23310308e-02, -2.47499924e-02,
          -6.95607672e-03, -8.82858760e-04, 9.45295091e-04,
          7.46073108e-03, 3.56953554e-02, 1.69706792e-02,
          -2.60575172e-02, -3.12221553e-02, -1.92204230e-02,
          -1.89068110e-03, -2.26788266e-04, 5.75054146e-04,
          1.06786257e-02, 3.06120049e-02, 2.03201864e-02,
          -2.82195918e-02, -2.16490589e-02, -1.63621679e-02,
          -3.26913153e-03, -4.60015610e-03, -4.31338092e-03,
          -3.59397568e-03, 2.63672117e-02, 1.30212158e-02,
          -1.56448260e-02, -1.24759395e-02, -7.31101586e-03,
          -7.98238534e-03, -1.20720305e-02, -1.16187027e-02,
          -3.84918414e-03, 1.30424127e-02, 1.33367097e-02,
          -7.95563974e-04, 6.68094319e-04, -1.75135874e-03,
          -1.21888379e-02, -1.35434223e-02, -1.54131744e-02,
          -9.90657695e-03, 1.06729642e-02, 2.24600062e-02,
          2.46642367e-03, 4.97408793e-04, -3.09639098e-03,
          -2.20746230e-02, -2.57068705e-02, -2.00677961e-02,
          4.82243113e-03, 2.16379035e-02, 1.32955825e-02, 3.11312522e-03,
          1.19712541e-03, -1.14692328e-02, -1.88584868e-02,
          -1.49635002e-02, -8.87441263e-03, 4.06428240e-03,
          1.76120866e-02, 6.09279471e-03, 8.12133867e-03, 2.69436219e-04,
          -5.13270171e-03, -2.20714528e-02, -1.03540951e-02,
          -4.82115010e-03, 1.21606886e-02, 1.24837868e-02,
          -1.31110419e-05, -5.67017007e-04, -8.68836325e-03,
          -1.16025433e-02, -1.73699576e-02, -1.03875911e-02,
          5.37957624e-03, 1.87800098e-02, 1.26099428e-02,
          -2.59362580e-03, -8.51416867e-03, -1.29530076e-02,
          -1.42795509e-02, -7.04054208e-03, 1.51121081e-03,
          5.81661193e-03, 7.96343479e-03, 1.09919710e-02,
          -1.39217114e-03, -3.53097427e-03, -3.64497653e-03,
          -1.37197357e-02, -3.15289618e-03, 6.84341881e-04,
          3.11635225e-03, 3.54693830e-03, 3.82665871e-03,
          -8.02477356e-03, 4.22749156e-03, 3.61914933e-03,
          2.07283162e-03, 9.22226696e-04, -3.85674392e-03,
          -1.68294727e-03, -9.24427714e-03, -1.11528235e-02,
          -1.34424465e-02, -1.43346423e-02, -1.40533606e-02,
          6.56998390e-03, 1.60956681e-02, 1.70528889e-02, 7.57328095e-03,
          7.45495595e-03, 1.13080593e-03, -1.16038555e-02,
          -1.26155578e-02, -9.12458729e-03, 1.36279929e-02,
          2.02447288e-02, 1.36082117e-02, 9.16094333e-03, 7.05472520e-03,
          1.18707046e-02, 5.82093559e-03, -1.36960139e-02,
          -1.90424100e-02, -1.00634964e-02, 1.49819476e-03,
          7.64566008e-04, 1.94414009e-04, 2.63442192e-03, 2.93219108e-02,
          1.06699057e-02, -1.39572406e-02, -2.68441197e-02,
          -2.11004112e-02, -1.16159972e-02, -3.60839954e-03,
          -1.64381647e-03, 5.55951986e-03, 2.80031227e-02,
          1.63756963e-02, -2.48638373e-02, -2.86179259e-02,
          -1.92561410e-02, -5.40717179e-03, -1.54737663e-03,
          -4.07270622e-03, 2.31575524e-03, 2.63692047e-02,
          1.62703525e-02, -2.51508411e-02, -2.47256011e-02,
          -1.92173123e-02, -1.08225578e-02, -8.90888460e-03,
          -4.81271418e-03, -8.91700038e-04, 2.48644017e-02,
          2.96781100e-02, -9.11390129e-03, -1.75378397e-02,
          -2.29906403e-02, -1.86162069e-02, -1.77961364e-02,
          -6.76374976e-03, 2.05650018e-03, 3.55877653e-02,
          2.46468466e-02, 3.06950347e-03, -8.98514874e-03,
          -1.24518052e-02, -2.91201789e-02, -2.88591012e-02,
          -9.31919087e-03, 5.20008430e-03, 2.43977979e-02,
          2.36274190e-02, 2.65004137e-03, 4.33698820e-04,
          -4.58956975e-03, -2.45080050e-02, -2.70338003e-02,
          -9.93413292e-03, 1.07323881e-02, 3.22562978e-02,
          1.88119877e-02, 5.79982670e-03, 1.12911337e-03,
          -6.95229322e-03, -1.05371587e-02, -1.63113866e-02,
          -1.51328314e-02, 8.01146869e-03, 2.10710242e-02,
          7.44893122e-03, 3.12556978e-03, 3.92878521e-03, 7.10441591e-03,
          -9.50465910e-03, -1.15105240e-02, -9.06170625e-03,
          1.25999358e-02, 1.45758586e-02, -1.72197307e-03,
          -6.91680238e-04, -3.55383963e-03, 9.15594108e-04,
          -4.34040138e-03, -9.57096834e-03, 5.13235573e-03,
          1.30876135e-02, 5.08550787e-03, -6.59276731e-03,
          -8.92575271e-03, -7.30704376e-03, 4.41905577e-03,
          1.57537148e-03, 1.53690402e-03, 3.80274840e-03, 3.60810409e-05,
          -2.23327684e-03, -7.17927190e-03, -6.34876313e-03,
          -1.01301540e-02, -1.03809242e-03, 2.78383284e-03,
          4.97505302e-03, 7.77970348e-03, 2.59229069e-04, 1.15156511e-03,
          -2.94898022e-02, -2.61298306e-02, 3.12606082e-03,
          2.26122104e-02, 2.37438269e-02, 2.23008934e-02, 2.26875842e-02,
          1.58482157e-02, -1.29415914e-02, -2.40947232e-02,
          -2.28214227e-02, -1.96875203e-02, 2.21672077e-02,
          2.39579156e-02, 2.34746356e-02, 2.26745252e-02, 1.99634824e-02,
          -5.41572040e-03, -1.47806313e-02, -3.39180715e-02,
          -2.25734562e-02, 1.45626869e-02, 2.31167059e-02,
          2.29471643e-02, 2.24477388e-02, 1.42688397e-02, 1.00324908e-02,
          -3.49589944e-04, -1.85541045e-02, -1.03536965e-02,
          7.92716909e-03, 7.52469804e-03, 2.04770127e-03,
          -4.91117081e-03, 1.21265394e-03, 4.40658256e-03,
          1.00515131e-02, -6.65464159e-03, -2.72145728e-03,
          -1.74603052e-03, -1.89411629e-03, -6.30717026e-03,
          -1.95714273e-02, -1.12363193e-02, 8.59340001e-03,
          5.68554131e-03, -5.83417946e-03, -3.21868481e-03,
          -1.98895368e-03, -9.50809568e-04, -4.67042066e-03,
          -9.69710760e-03, -9.02420003e-03, 5.68554131e-03,
          2.32980750e-03, -1.11378888e-02, -9.42947902e-03,
          -3.61195486e-03, -1.43382070e-03, -1.73744117e-03,
          5.44594228e-03, 7.82347005e-03, 2.32980750e-03, 1.37360571e-02,
          -9.32228565e-03, -1.96946133e-02, -2.11795419e-02,
          -1.09321168e-02, -5.90267871e-03, 8.01834336e-04,
          1.07825594e-02, 1.75342187e-02, 2.06678268e-02,
          -1.34787289e-04, -1.43272169e-02, -1.98607650e-02,
          -1.85459498e-02, -1.52476663e-02, -2.94232625e-03,
          7.38965767e-03, 2.23330632e-02, 2.60399356e-02, 1.51978675e-02,
          -1.64035195e-03, -2.00544228e-03, -5.26960287e-03,
          -1.65690966e-02, -9.84366983e-03, -1.95063278e-03,
          2.14023814e-02, 1.19045135e-02, 1.14717875e-02, 6.87166210e-03,
          9.07844398e-03, 5.87939704e-03, -5.90995513e-03,
          -1.38530098e-02, -1.08733671e-02, -2.78672390e-03,
          -1.29402382e-03, 1.38071990e-02, 1.91984586e-02,
          2.28128340e-02, 6.62291329e-03, 3.94992623e-03,
          -9.77998693e-03, -9.17233620e-03, -8.55913945e-03,
          -9.12449323e-03, 1.11073311e-02, 1.99411344e-02,
          2.36586221e-02, 1.38335936e-02, 9.52490605e-03,
          -8.73894989e-03, -2.14041118e-02, -1.71724167e-02,
          -1.77666675e-02, 4.71081445e-03, 1.77108962e-02,
          2.36926768e-02, 1.84334703e-02, 6.44059759e-03,
          -1.11105219e-02, -2.23370679e-02, -2.19063535e-02,
          -1.81100667e-02, 6.27688039e-03, 1.01357726e-02,
          1.23437066e-02, 9.76810325e-03, 8.42899270e-03, 4.06184187e-03,
          -1.25853363e-02, -1.17955189e-02, -2.76771188e-02,
          -2.33586356e-02, -5.18999808e-03, 3.73783009e-03,
          5.14195208e-03, 6.22917619e-03, 2.59880237e-02, 1.41339246e-02,
          -1.43314693e-02, -2.14803517e-02, -1.58427786e-02,
          -3.83210275e-03, 8.22789967e-03, 1.04872938e-02,
          1.55713530e-02, 2.59998906e-02, 2.44003478e-02,
          -1.10338526e-02, -1.18285585e-02, -1.59623586e-02,
          -1.52577246e-02, 3.74684087e-03, 9.97591950e-03,
          1.11203743e-02, 1.22689009e-02, 2.01519262e-02,
          -7.03329686e-03, 1.70097779e-03, -9.07916948e-03,
          -8.62613413e-03, -3.11227958e-03, 2.88182776e-03,
          3.21801193e-03, -2.40987027e-03, -5.75974351e-03,
          1.69110810e-03, 4.78455843e-03, 1.49784016e-03, 5.52758866e-04,
          1.14747533e-03, 2.57925619e-03, -1.77480560e-03,
          -1.34020019e-02, -1.61269661e-02, 4.17533889e-03,
          2.66200909e-03, 3.38267721e-03, 3.54811875e-03, 1.23834121e-03,
          2.99559115e-03, 1.17611862e-03, -9.50851385e-03,
          -7.25427922e-03, 2.64012115e-03, -3.91617510e-03,
          4.47970582e-03, 2.70135701e-03, 1.61848741e-03, 2.91196769e-03,
          3.28068552e-03, 2.02998752e-03, 3.14098527e-03,
          -3.45603633e-03, 3.76128429e-03, -3.22238542e-04,
          -3.05980677e-03, -9.11415191e-05, 2.05661310e-03,
          -1.29336165e-03, -5.99607453e-03, -5.23626618e-03,
          2.79896660e-03, 1.00560524e-02, -1.80572905e-02,
          -1.12934597e-02, -5.06875943e-03, -6.21288200e-04,
          -4.38291160e-03, -8.07907432e-03, -5.38412388e-03,
          9.74200200e-03, 8.49792920e-03, -2.42993445e-03,
          -1.10648824e-02, -1.33866165e-02, -2.01265429e-04,
          -3.51431360e-03, -8.89173336e-03, -1.08272303e-02,
          1.61484778e-02, 2.86875363e-03, 5.56881307e-03, 9.05364193e-03,
          9.27961431e-03, -1.72153825e-03, -2.11392273e-03,
          -6.12403592e-03, -1.86175331e-02, -6.45300327e-03,
          1.27574924e-04, 2.23497022e-02, 2.59443931e-02, 1.48235848e-02,
          1.00448504e-02, -1.03664696e-02, -1.26519790e-02,
          -1.67979412e-02, -1.64978933e-02, 5.73957060e-03,
          1.28602292e-02, 2.27567554e-02, 1.77026372e-02, 1.47197396e-02,
          -1.64629566e-03, -1.73042528e-02, -2.65596341e-02,
          -1.98801290e-02, -5.89075731e-03, 1.64772850e-02,
          1.65686421e-02, 1.35067319e-02, 1.00977533e-02, 3.95489903e-03,
          -2.36733491e-03, -1.87508799e-02, -1.55962249e-02,
          -1.56300887e-02, 1.47659704e-02, 1.34709300e-02,
          1.30553748e-02, 9.86916199e-03, 4.64162044e-03, 2.55683996e-03,
          1.80217461e-03, -1.30827650e-02, -2.99874339e-02,
          -2.68817041e-03, 1.75047899e-03, 2.04311544e-03,
          4.94634733e-03, 1.00558437e-02, 2.16054767e-02, 2.38498789e-03,
          -4.72890120e-03, -1.69433374e-02, 3.64612741e-03,
          5.89362904e-03, 8.04495811e-03, 8.08738638e-03, 9.73877590e-03,
          1.34224435e-02, 2.33078729e-02, -1.21302344e-02,
          -8.04643333e-03, 1.30181666e-03, 2.59514013e-03,
          5.23328735e-03, 5.44051500e-03, 5.17806131e-03, 5.75665385e-03,
          9.70784947e-03, -6.52126689e-03, -3.58747016e-03,
          -6.41847146e-04, -1.97765767e-04, 1.96750718e-03,
          3.59440269e-03, 3.45845614e-03, 1.46834936e-03, 4.14075516e-03,
          -1.96693977e-03, -7.05520099e-04, 2.59276852e-03,
          4.85141849e-04, 4.09740896e-04, 7.37995957e-04, 2.18946661e-04,
          2.90673750e-04, 3.44183948e-03, -7.05520099e-04,
          -3.94034781e-04, 3.26751126e-03, 2.03494157e-04,
          3.50024173e-04, 5.19903726e-04, -1.78157512e-04,
          6.45899912e-04, 1.55551534e-03, -3.94034781e-04,
          3.38981580e-03, 1.00265983e-02, 1.33090280e-03, 7.29132385e-04,
          -8.27777039e-05, -5.73769398e-03, -6.55380031e-03,
          -3.73188127e-03, 1.69495365e-03, 1.51680894e-02,
          3.68370814e-03, 1.32021308e-03, 2.65704002e-04,
          -7.89170992e-03, -1.34133846e-02, -1.23633482e-02,
          -7.13389774e-04, 5.66498656e-03, 1.51911927e-02,
          -2.65450333e-03, -4.22991812e-03, -5.55051304e-03,
          -7.24968687e-03, -1.13715315e-02, -1.38003472e-02,
          -1.74606591e-02, 1.00158136e-02, 2.41426080e-02,
          -1.07508404e-02, -1.35595873e-02, -1.27712181e-02,
          -8.20626505e-03, -1.12668080e-02, -1.39939953e-02,
          -1.24912020e-02, 1.71579216e-02, 9.41926334e-03,
          2.02684244e-03, 4.34736768e-03, -5.10842120e-03,
          -3.52219213e-03, -1.08357174e-02, -1.11215524e-02,
          -9.95170977e-03, 7.00825825e-03, -7.21370429e-03,
          6.97548268e-03, 9.76990722e-03, 5.44209639e-03, 4.64807963e-03,
          2.95788748e-03, 2.69196811e-03, 1.17264106e-03,
          -1.47691686e-02, -1.02632521e-02, -6.80851284e-03,
          1.80906802e-02, 1.91759206e-02, 1.66466925e-02, 7.55615998e-03,
          2.88945436e-03, -5.68515854e-03, -1.33291269e-02,
          -9.23597440e-03, 3.06527223e-03, 1.20346453e-02,
          3.48371291e-03, 9.49679501e-03, 1.02561256e-02, 4.54087090e-03,
          3.39453248e-03, -9.93992295e-03, -5.45094116e-03,
          3.98423942e-03, 6.18294626e-03, 3.87408771e-03, 7.21163768e-03,
          3.11071682e-03, 8.79916642e-03, 5.95502323e-03,
          -1.34874014e-02, -1.28549319e-02, -1.67906226e-03,
          1.33949798e-04, 3.49401776e-03, 3.42687941e-03, 1.01358267e-02,
          8.04287847e-03, -6.77857373e-04, -5.90357138e-03,
          -1.03611555e-02, -4.56885248e-03, 3.39237764e-03,
          1.79959391e-03, 1.53243437e-03, 2.80416221e-03, 7.22036883e-03,
          1.19039370e-02, -4.03503561e-03, 1.45026890e-03,
          1.35406770e-03, -8.22937640e-04, -2.05292762e-03,
          -8.46480136e-04, -1.91564485e-03, -7.79755181e-04,
          1.04168116e-03, -1.15642941e-03, 5.85574657e-03,
          -3.18718096e-03, -9.31352563e-03, -6.70011062e-03,
          -6.28189649e-03, -5.14130620e-03, -4.96656541e-03,
          -2.93445279e-04, 4.77217417e-03, 6.12130528e-03,
          -6.13495149e-03, -7.57379970e-03, -7.43045658e-03,
          -5.29657956e-03, -3.45230242e-03, -7.23962719e-03,
          -1.56540668e-03, 5.78986993e-03, 2.11939681e-03,
          -2.27978989e-03, 2.14088452e-03, -1.64330937e-03,
          -3.39777092e-03, -3.67926713e-03, -3.79021978e-03,
          -3.96249350e-03, 3.06758005e-03, 5.75024309e-03,
          3.96611961e-03, 4.03431244e-03, 8.40509718e-04,
          -4.19694465e-03, -8.74561071e-03, -8.02016817e-03,
          -4.80068522e-03, 5.54007711e-03, 1.15450416e-02,
          3.56075866e-03, 4.97860508e-03, 2.86075473e-03,
          -2.80326861e-03, -1.18596246e-02, -1.11857597e-02,
          -5.30220754e-03, 6.10145321e-03, 1.52773578e-02,
          2.26820633e-03, 5.85450605e-03, 1.66066480e-03,
          -1.94098614e-03, -1.17800934e-02, -1.53616089e-02,
          -1.63916349e-02, 6.47677528e-03, 2.07150131e-02,
          -3.02384491e-03, -5.36665972e-03, -7.98796862e-03,
          -7.98623171e-03, -1.24696000e-02, -1.02243135e-02,
          8.00494105e-04, 1.74546614e-02, 6.02807757e-03,
          -3.15784919e-03, -8.63139238e-03, -9.84192360e-03,
          -4.94719902e-03, -7.14370888e-03, -5.95718576e-03,
          -8.46357143e-04, 1.65808666e-02, 2.34659971e-03,
          -1.30531989e-04, -4.98949038e-03, -1.17974449e-02,
          -6.85311574e-03, 1.24497549e-03, 2.78756535e-03,
          2.98107672e-03, 9.45913512e-03, -2.88595725e-03,
          -3.47858062e-03, -4.26234584e-03, -4.93193325e-03,
          4.62712767e-03, 6.19437359e-03, 7.53129460e-03, 8.37017968e-03,
          2.56055174e-03, -8.66245292e-03, -2.40184763e-03,
          1.50270120e-03, 8.06309469e-03, 7.58856023e-03, 6.29118830e-03,
          7.44872959e-03, 8.50981753e-03, -9.29890294e-03,
          -3.76368198e-03, 5.76015748e-03, 2.06036889e-03,
          3.56104691e-03, 8.11141077e-03, 6.28660386e-03, 6.08633412e-03,
          8.45652446e-03, -1.07245976e-02, -6.67023566e-03,
          -7.27747753e-03, -4.17396799e-03, 8.71640723e-03,
          8.62801261e-03, 3.30960704e-03, 4.33486374e-03, 4.96097235e-03,
          -4.72923415e-03, -4.85754712e-03, -6.93598110e-03,
          -3.90585250e-04, 1.01698572e-02, 8.12364556e-03,
          -3.75746097e-03, 2.03347532e-03, 6.33683894e-03,
          -9.35043674e-03, 6.40026876e-04, 7.09821656e-03,
          9.66218393e-03, -4.19146987e-03, -3.39859049e-03,
          -5.79688931e-03, -3.89919942e-03, -7.03366939e-03,
          -9.70589928e-03, 9.79427341e-03, 2.05755397e-03,
          -5.48667740e-03, -1.00516472e-02, -8.43562465e-03,
          -8.28640163e-03, -1.27030499e-02, -1.24817481e-02,
          7.03109009e-03, 5.81315672e-03, -8.98923259e-03,
          -6.52786298e-03, -3.78963235e-03, -4.40201489e-03,
          -7.41238100e-03, -9.01394617e-03, 1.22987281e-03,
          6.03802828e-03, -4.52592783e-03, -1.04632471e-02,
          -6.80224225e-03, -8.25062860e-03, -3.40934750e-03,
          5.79534564e-03, -4.73730406e-03, 1.85968576e-03,
          6.58906717e-03, 4.45268070e-03, -1.00232325e-02,
          -7.58931180e-03, -2.20133015e-03, -7.07669882e-03,
          -8.11412814e-04, 1.81722746e-04, -1.40867138e-03,
          4.22254251e-03, 6.42898399e-03, -4.33217129e-03,
          -2.89515965e-03, -3.06178204e-04, -2.10563000e-03,
          2.01437762e-03, -6.38800021e-03, -6.95282733e-03,
          -6.19180864e-05, 6.08994858e-03, 5.06160222e-03,
          6.50514895e-03, 1.90301763e-03, -1.29889743e-03,
          -6.77261455e-03, -7.19964877e-03, -1.18595650e-02,
          6.66239066e-04, 8.61348398e-03, 2.39269063e-03, 5.38979052e-03,
          6.53076870e-03, 7.93604553e-03, -3.96260672e-04,
          -8.75095185e-03, -4.39759484e-03, -4.70637809e-03,
          -5.06568467e-04, 4.99166141e-04, 2.40518921e-03,
          2.45387550e-03, 7.50839990e-03, 7.59349437e-03, 1.88268372e-03,
          -7.67467450e-03, -7.37266208e-04, -1.32563221e-03,
          -7.02749472e-03, -1.03219217e-02, 1.18694908e-03,
          6.24006847e-03, 3.38100782e-03, 9.18584969e-03, 5.31848706e-03,
          2.23174156e-03, -2.52026744e-04, -2.87886965e-03,
          -6.53139083e-03, -5.77253476e-03, 7.78787676e-03,
          5.64854965e-03, 4.13358724e-03, 4.50879894e-03, 8.87118466e-03,
          -1.11636159e-03, -7.76698522e-04, -2.83503300e-03,
          1.79178710e-03, 9.63307277e-04, 1.14117074e-03, 4.13802220e-04,
          -2.44555785e-03, -8.59117776e-04, 2.77689309e-03,
          -2.77202972e-03, -7.37118535e-04, -1.12010830e-03,
          -2.18744949e-03, -1.08911609e-03, 2.22308282e-03,
          5.04545984e-04, -4.02667007e-04 ]
      - [ -4.36818833e-03, 4.34442051e-03, 8.15189816e-03,
          1.27463974e-02, 5.33952704e-03, -1.68294031e-02,
          -1.84334386e-02, -3.77105153e-03, 9.29622911e-04,
          -1.05210999e-02, 8.85204040e-03, 1.12178754e-02,
          1.31111769e-02, 6.08802214e-03, -6.16786396e-03,
          -8.83055292e-03, 3.60320276e-03, -1.37144635e-02,
          9.60498292e-04, -7.79161579e-04, -7.14418711e-03,
          -7.74178933e-03, 2.67260126e-03, 5.09294169e-03,
          5.78133250e-03, 7.08363391e-03, 2.23285693e-04, 8.25735088e-03,
          -1.27875963e-02, -8.80789757e-03, -4.84526996e-03,
          -1.03925086e-04, -3.28477053e-03, -5.40183159e-03,
          -9.69746895e-03, 8.25735088e-03, 8.35848227e-03,
          1.59187207e-03, -3.25446163e-04, -1.33460888e-03,
          -5.40980184e-03, -1.28240483e-02, -1.46850692e-02,
          -1.30837848e-02, 8.35848227e-03, 1.94688551e-02,
          1.63694809e-03, 7.42846023e-05, -3.02406307e-03,
          -1.39627084e-02, -1.74405817e-02, -1.85886584e-02,
          -1.21563459e-02, 1.26838880e-02, 2.98207365e-02,
          7.03083642e-04, 1.11970049e-03, -5.70236659e-03,
          -1.97052415e-02, -2.42038555e-02, -2.09420975e-02,
          -8.70460365e-03, 2.55535208e-02, 2.38430630e-02,
          9.30264010e-04, -3.95100564e-03, -9.53454711e-03,
          -1.71986539e-02, -2.06766278e-02, -1.99899860e-02,
          -4.20424715e-03, 2.09837463e-02, 1.38834761e-02,
          -1.33000396e-03, -6.47970289e-03, -7.27801444e-03,
          -1.31171234e-02, -1.79052297e-02, -1.47753544e-02,
          -8.84225313e-03, 1.39580127e-02, 1.63542870e-02,
          6.58507633e-04, -1.45678846e-02, -1.54861808e-02,
          -1.62424762e-02, -1.31253749e-02, -1.18984943e-02,
          -4.30642802e-04, 1.33626945e-02, 1.44910179e-02,
          -4.41002659e-03, -1.69918872e-02, -1.76480040e-02,
          -1.67525150e-02, 3.87636042e-04, 9.32094269e-03,
          9.87222325e-03, 1.76031552e-02, 1.23032322e-03,
          -1.30798796e-03, -1.47667443e-02, -1.53079415e-02,
          -1.31667191e-02, 2.32655578e-03, 1.41456211e-02,
          1.84404440e-02, 9.77889635e-03, 2.40397919e-03, 2.19476945e-03,
          -6.31770631e-03, -1.07810944e-02, -7.31071457e-03,
          -3.27498280e-03, 3.02426075e-03, 9.51586105e-03,
          7.72136683e-03, 5.74481906e-03, -8.40420835e-04,
          -5.25586260e-03, -1.15006315e-02, -4.74899262e-03,
          1.14558684e-03, 5.74488519e-03, 8.86289682e-03, 1.11903138e-02,
          -1.58486783e-03, 1.32882642e-03, -1.36273669e-03,
          -9.40555986e-03, -2.35457602e-03, 1.01528293e-03,
          1.27486722e-03, 5.75794373e-03, 1.28297333e-03, 1.82068404e-02,
          2.40351520e-02, 1.85148157e-02, 1.03605939e-02,
          -1.55048892e-02, -2.24519297e-02, -1.64279714e-02,
          -1.02281512e-03, 7.08152167e-03, 1.20366300e-02,
          1.12833986e-02, 5.17075649e-03, 6.37111673e-03,
          -7.09204003e-03, -1.00089433e-02, -1.00565227e-02,
          9.25149489e-03, 1.05141811e-02, 1.44937122e-02, 3.95819172e-03,
          -9.13623534e-03, -1.07961008e-02, -9.15426854e-03,
          -3.45793320e-03, 8.21803603e-03, 1.02712065e-02,
          1.46643799e-02, 1.21261505e-02, 1.17253403e-04,
          -1.01886401e-02, -1.54123576e-02, -1.50425630e-02,
          -1.22205913e-02, -6.83654007e-03, -3.97150498e-03,
          1.78633295e-02, 2.36105472e-02, 1.28427090e-03,
          -2.14721682e-03, -1.92476977e-02, -2.07594037e-02,
          -2.08409559e-02, -1.26070622e-02, -1.88233680e-03,
          2.18031574e-02, 2.78694816e-02, 4.02175006e-04,
          -4.42973338e-03, -1.54449204e-02, -2.35368442e-02,
          -2.36527510e-02, -1.57432370e-02, 1.25975162e-03,
          2.68241204e-02, 2.86995992e-02, -1.73291439e-04,
          -1.16278033e-03, -1.05918068e-02, -2.31989529e-02,
          -2.41977610e-02, -1.22077353e-02, -3.63143557e-03,
          2.48312410e-02, 2.87357792e-02, 3.44596501e-03,
          -3.28880455e-03, -1.49499793e-02, -1.91426668e-02,
          -2.06503943e-02, -1.66071039e-02, -7.61466008e-03,
          2.27431599e-02, 1.91161484e-02, -1.35471718e-03,
          -7.88041297e-03, -1.24419071e-02, -1.67428367e-02,
          -1.73672084e-02, -1.70679539e-02, -7.04374164e-03,
          1.81769617e-02, 1.47982324e-02, -7.52329873e-03,
          -1.15902424e-02, -1.67700984e-02, -1.77566558e-02,
          -1.67235862e-02, -6.68246206e-03, 1.94194727e-04,
          2.04825979e-02, 1.31270690e-02, 6.22724229e-03,
          -4.50745737e-03, -1.73062738e-02, -1.30102187e-02,
          -1.27396211e-02, 6.51683484e-04, 4.42221668e-03,
          1.72860119e-02, 1.30755147e-02, 8.83800723e-03,
          -4.35270881e-03, -1.74630359e-02, -1.41893476e-02,
          -1.32318428e-02, 4.14001988e-03, 1.81153938e-02,
          1.78225301e-02, 5.80399670e-03, 5.00806002e-03, 2.49944511e-03,
          -1.59311779e-02, -1.33421477e-02, -1.14984009e-02,
          1.05438735e-02, 1.80943143e-02, 1.66519899e-02, 1.08908648e-02,
          7.12267403e-03, 3.88593506e-03, -8.51602666e-03,
          -8.84055905e-03, -7.96565413e-03, 4.76639345e-03,
          1.70147438e-02, 1.34199653e-02, 1.76446000e-03, 2.65234034e-03,
          -3.76347540e-04, -2.60479678e-03, -4.44878871e-03,
          -5.20366989e-03, 1.55660848e-03, 7.71221379e-03,
          9.93813761e-03, 8.52602348e-03, 9.76901036e-03, 1.16705000e-02,
          3.56690180e-06, -8.20141006e-03, -8.50251876e-03,
          9.59286932e-03, 7.90879875e-03, 6.79559866e-03, 8.33866093e-03,
          9.40136518e-03, 8.55189841e-03, -4.40211874e-03,
          -9.39270761e-03, -9.20436438e-03, 9.29815602e-03,
          1.41942827e-02, 9.69253387e-03, 6.35014428e-03, 1.58796331e-03,
          7.22928485e-03, -5.46910055e-03, -7.93175213e-03,
          -6.76298188e-03, 9.20204539e-03, 7.53921224e-03,
          6.80019660e-03, 1.89862531e-02, 1.06249126e-02, 7.54551205e-04,
          -6.89775962e-03, -1.12193422e-02, -1.10340137e-02,
          -7.81381596e-03, 4.07566968e-03, 1.24870222e-02,
          2.19465010e-02, 1.26994895e-02, -2.13749986e-03,
          -1.89338718e-02, -1.68905277e-02, -1.27048073e-02,
          1.24420214e-03, 7.25121563e-03, 2.25984864e-02, 2.29380187e-02,
          9.81198158e-03, -4.63956874e-03, -2.42968816e-02,
          -2.18476504e-02, -6.66114967e-03, 4.81429510e-03,
          1.39136510e-02, 2.32871883e-02, 2.05532182e-02, 1.95212732e-03,
          -4.94162319e-03, -2.31688675e-02, -2.27194317e-02,
          -3.01659643e-03, 6.12518471e-03, 1.38998758e-02,
          2.27087047e-02, 1.94844212e-02, 5.04344888e-03,
          -2.79272674e-03, -1.80246998e-02, -1.77530143e-02,
          -1.41679775e-02, -3.00948159e-03, 6.36051269e-03,
          1.95506290e-02, 1.36869093e-02, 4.87973727e-03,
          -6.06083171e-03, -9.20671038e-03, -9.96210799e-03,
          -9.32528637e-03, -4.13931673e-03, -1.94058300e-03,
          1.18927248e-02, 9.97211039e-03, 4.42148186e-03,
          -1.09118619e-03, -5.40319178e-03, -8.47277232e-03,
          -9.05595440e-03, -7.72891473e-03, -3.29645397e-03,
          9.66648478e-03, 9.94337723e-03, 1.17952228e-02, 1.22617651e-03,
          7.38682342e-04, -8.56619328e-03, -1.16950870e-02,
          -4.21504304e-03, 1.06566516e-03, 7.79315969e-03,
          8.57782550e-03, 5.61954547e-03, 7.11721741e-03, 9.80215846e-04,
          -6.73880056e-03, -7.26135913e-03, 1.16506568e-03,
          5.78244263e-03, 6.71972474e-03, 2.91545084e-03, 4.33312589e-03,
          6.20819069e-03, -1.07031909e-03, -1.73663581e-03,
          -3.03771277e-03, -2.51931068e-03, 9.45653860e-03,
          3.09747178e-03, 4.42764396e-03, 7.41070881e-03, 1.01677319e-02,
          8.05964787e-03, -4.39136103e-03, -5.55277709e-03,
          -2.69016391e-03, 5.33771375e-03, 5.79923298e-03,
          5.74607588e-03, 5.65686682e-03, 1.30641656e-02, 1.50075881e-03,
          -6.36285450e-03, -6.04315102e-03, -3.38100339e-03,
          6.13705313e-04, 5.40695246e-03, 2.48591532e-03, 4.07822942e-03,
          -4.27810987e-03, -1.69536918e-02, -1.27974274e-02,
          5.86211774e-03, 2.12401152e-02, 1.53080598e-02, 8.75348598e-03,
          7.87384436e-03, 2.86425930e-03, -4.03441815e-03,
          -1.44871697e-02, -1.42000606e-02, 2.49644602e-03,
          1.68180056e-02, 1.44193666e-02, 1.35564823e-02, 6.79251784e-03,
          -3.88863147e-03, -1.55545212e-02, -1.25523163e-02,
          -4.30416595e-03, 3.26164137e-03, 7.48058362e-03,
          1.03445286e-02, 1.11965360e-02, 1.51382349e-02, 1.60735741e-03,
          -1.35943172e-02, -9.47867800e-03, -9.07866098e-03,
          -7.28499005e-03, -4.79418924e-03, -1.18754467e-03,
          1.29093798e-02, 2.28908714e-02, 5.51017234e-03,
          -5.00551937e-03, -1.35184564e-02, -1.33964177e-02,
          -9.08880867e-03, -5.00296336e-03, -3.04426090e-03,
          1.21355709e-02, 2.26475000e-02, 6.21666154e-03,
          -1.22409558e-03, -1.95141528e-02, -1.52988955e-02,
          -1.16731413e-02, -5.16847288e-03, -1.76649401e-03,
          2.04364192e-02, 1.88605245e-02, 5.31520974e-03,
          -4.07625828e-03, -1.72064919e-02, -1.28407199e-02,
          -8.68553948e-03, -5.43928985e-03, 3.79646686e-03,
          1.20766377e-02, 8.56160372e-03, 6.63295900e-03,
          -3.66576039e-03, -6.73336396e-03, -2.78030406e-03,
          -5.45662548e-03, -2.60361540e-03, 1.44349318e-03,
          8.33973754e-03, 6.15647063e-03, 3.77874775e-03,
          -1.93076406e-03, -3.22322105e-03, -3.21762101e-03,
          6.96639239e-04, 5.97686798e-04, -4.30406770e-03,
          4.35026921e-03, 1.96347130e-04, -2.95351841e-03,
          -3.76083422e-03, -7.81558920e-04, 3.47397383e-03,
          2.15722233e-04, 2.20121103e-04, -3.99204995e-03,
          2.49876920e-03, 2.58325506e-03, 7.00018834e-04,
          -1.24857848e-04, 2.43563275e-03, -2.57324497e-03,
          -5.22677554e-03, 1.26070541e-03, -2.42639706e-03,
          5.11544989e-03, 3.23361042e-03, 5.75187150e-04, 2.53195805e-03,
          -4.02661227e-03, -4.82179876e-03, -1.55908964e-03,
          3.56875663e-03, 1.06401532e-03, -3.25547880e-04,
          4.28371970e-03, -3.11222929e-03, 1.40593713e-03,
          -3.58907296e-03, -4.73139109e-03, 1.14920804e-04,
          6.48780586e-03, 3.53497500e-03, 3.88002302e-03, 7.36689428e-03,
          1.08379852e-02, 6.19519921e-03, -6.69864332e-03,
          -9.08663124e-03, 2.27440119e-04, 1.27065256e-02,
          4.94992919e-03, 3.94196482e-03, -1.31692772e-03,
          6.46669790e-03, -2.09315767e-04, -3.05648218e-03,
          -3.68335494e-03, 1.12681999e-04, 6.69720396e-03,
          3.44942068e-03, -1.29134324e-03, -2.24514608e-03,
          1.76135963e-03, -1.28058512e-02, -1.27278687e-02,
          -9.30745807e-03, 6.99072564e-03, 1.27536925e-02,
          1.12086246e-02, 1.01435473e-02, 5.72932931e-03,
          -1.26639670e-02, -1.24251246e-02, -1.15839047e-02,
          -1.28110161e-03, 6.81909779e-03, 9.97139793e-03,
          1.59913972e-02, 1.29354587e-02, 1.15385195e-02,
          -1.99286677e-02, -2.12202333e-02, -1.46731799e-02,
          2.23563984e-03, 8.60567670e-03, 7.01598963e-03, 1.07200751e-02,
          1.70268770e-02, 1.37589006e-02, -7.67057575e-03,
          -1.36940163e-02, -6.82390109e-03, -2.18176101e-05,
          6.93635491e-04, -1.22929877e-02, -6.98248623e-03,
          1.07817538e-02, 2.78842933e-02, 3.63664166e-03,
          -4.38940572e-03, -4.67529939e-03, -4.64960421e-03,
          -6.25555869e-03, -2.06880923e-02, -1.48960212e-02,
          9.10720415e-03, 2.67661568e-02, 1.61840708e-03,
          -2.79062171e-03, -5.07035200e-03, -7.66405230e-03,
          -1.07600326e-02, -1.94784999e-02, -1.56459138e-02,
          8.98686331e-03, 1.57757588e-02, 3.77029995e-03,
          -1.57919643e-03, -4.27721534e-03, -7.10270554e-03,
          -9.45807900e-03, -1.40004531e-02, -1.68203413e-02,
          1.16325421e-02, 8.55221506e-03, 2.17070221e-03,
          -8.08933808e-04, -4.23491513e-03, -5.44154225e-03,
          -6.62489282e-03, -3.84943630e-03, 9.09436261e-04,
          3.61686596e-03, 1.41025847e-03, 2.14155600e-03, 1.08180812e-03,
          1.78251867e-04, -1.27229944e-03, -1.20049750e-03,
          -2.19736801e-04, -3.79620632e-03, 1.37928419e-03,
          -9.20533967e-06, -4.81787790e-03, 4.02826321e-04,
          1.09200591e-05, 1.13732717e-03, 7.03931655e-05, 1.59631309e-03,
          2.80955504e-03, -9.20533967e-06, -6.57831086e-04,
          -1.18324370e-03, -1.47540052e-03, -2.79962760e-03,
          6.77887001e-04, 2.36427266e-04, 2.05182005e-03, 5.12892008e-03,
          2.32491549e-03, -5.27783157e-03, 1.96204660e-03,
          2.56455829e-03, 2.68533360e-03, 4.35473910e-03, 3.75150377e-03,
          3.42467544e-03, 4.21980023e-03, 4.52014530e-04,
          -9.07577947e-03, -6.84709428e-03, -2.13044370e-03,
          4.88581415e-03, 7.24308006e-03, 8.59040581e-03, 4.06268751e-03,
          3.37339193e-03, 2.98668398e-03, 7.52241444e-03,
          -2.40873103e-03, -2.29054922e-03, -8.82377382e-03,
          -6.96160505e-03, 4.23692865e-03, 6.29748451e-03,
          6.87603233e-03, 5.86485863e-03, 5.29546756e-03,
          -2.14792861e-04, -1.02868798e-04, -1.99843384e-03,
          -5.31327492e-03, -8.28310847e-04, 1.93949067e-03,
          1.96072203e-03, -1.21326267e-03, -6.68182038e-03,
          -2.10144930e-03, -2.63618352e-03, -4.58539138e-03,
          3.47714126e-03, 1.00608263e-02, 4.90581850e-03, 1.01337966e-03,
          -1.21650219e-05, -3.31128528e-03, -1.22035714e-02,
          -7.25914259e-03, -9.27543326e-04, 5.35958214e-03,
          7.78582832e-03, 1.15512656e-02, 1.47319008e-02, 4.17157914e-03,
          1.10234963e-02, -1.34250307e-02, -1.67009421e-02,
          -1.06880469e-02, 3.43134790e-03, 4.74163610e-03,
          5.01221512e-03, 1.38803171e-02, 1.76652744e-02, 9.38279741e-03,
          -1.16667049e-02, -1.38408598e-02, -6.35061925e-03,
          -3.27029754e-03, -3.00126499e-03, -6.03129016e-03,
          -3.17196245e-03, 9.55057610e-03, 2.12434921e-02,
          2.02470599e-03, -8.29231692e-04, -4.30927990e-04,
          -8.85489339e-04, -9.80859040e-04, -1.79656055e-02,
          -1.80681162e-02, 4.34101513e-03, 1.83262564e-02,
          3.27910995e-03, 4.09151800e-03, 3.05852457e-03, 1.31694216e-03,
          -2.43354635e-03, -1.77122653e-02, -1.88440513e-02,
          3.87556409e-03, 8.40541255e-03, 3.71797616e-03, 2.13428680e-03,
          1.82762905e-03, 1.29923655e-03, -4.29401081e-03,
          -6.62898365e-03, -7.72926630e-03, 2.11605197e-03,
          7.65591336e-04, 2.62687611e-03, 1.70779286e-03, 1.54620619e-03,
          1.08927523e-03, 1.37515133e-03, -1.73347158e-04,
          -5.22687053e-03, -3.24435998e-04, -1.03794259e-03,
          2.98260665e-03, 3.24452086e-03, 1.24099606e-03, 7.75525288e-04,
          1.02040486e-03, 1.85217813e-03, -1.78040168e-03,
          -1.07126869e-03, -3.39871901e-03, 1.10792543e-03,
          1.34918129e-03, 5.66964096e-04, 1.28164166e-03, 1.53513474e-03,
          1.71145156e-03, 1.19084949e-02, -3.40291462e-03,
          -1.78361731e-03, -2.77860928e-03, 8.30299337e-04,
          1.06369762e-03, 6.45045599e-04, 7.52198452e-04, 9.47507389e-04,
          8.79791845e-03, -1.69975264e-03, -1.60452467e-03,
          6.09541917e-03, -5.50216110e-03, 1.85369141e-03,
          1.15055032e-03, 1.09089399e-03, 2.28209468e-03, 1.44529494e-03,
          6.35964470e-03, -4.12083883e-03, -5.05574513e-03,
          -4.50315652e-03, 7.60825537e-03, 5.22508472e-03,
          6.56404207e-03, 5.84699446e-03, 5.91971632e-03, 2.76538660e-03,
          -2.66080466e-03, -4.64869477e-03, -8.36140104e-03,
          -2.14737700e-03, -6.99841592e-04, 5.28151868e-03,
          6.44036708e-03, 7.71770580e-03, 6.90735644e-03, 1.75310543e-03,
          3.44231928e-04, -9.54872346e-04, 2.14881310e-03,
          1.06432149e-03, -5.74824517e-04, -2.10176501e-03,
          -4.54586756e-04, -1.82537991e-03, -1.05487648e-02,
          1.39310234e-03, 5.92113798e-03, 9.80035961e-03, 1.29237846e-02,
          8.84461030e-03, 5.89084625e-03, -7.05063203e-03,
          -1.18956454e-02, -1.05322981e-02, -7.85057154e-03,
          -2.56453990e-03, 6.44572172e-03, 1.20149525e-02,
          4.77613416e-03, 6.10149279e-03, 4.95666126e-03,
          -7.21243490e-03, 3.56085016e-03, -9.24434420e-03,
          -9.38063674e-03, -7.39618810e-03, -1.33765675e-03,
          3.35624762e-04, 5.82301198e-03, 7.74391182e-03, 3.77279613e-03,
          9.57506709e-03, -4.24154755e-03, -1.20823281e-02,
          -1.12935174e-02, -5.77686075e-03, -6.98985858e-03,
          -8.23051110e-03, -7.99988210e-03, 1.21565741e-02,
          1.27074784e-02, -6.93051657e-03, -9.68905166e-03,
          -1.10961720e-02, -8.79483670e-03, -5.75090246e-03,
          -5.91510907e-03, -3.68403946e-03, 1.02693411e-02,
          6.54188124e-03, -5.61594591e-03, -3.07694217e-03,
          -1.91413565e-03, -1.59223727e-03, 6.58559875e-05,
          -5.54057816e-03, -8.09421483e-03, 5.00433566e-03,
          2.01936392e-03, 4.93551081e-04, 1.27742311e-03,
          -4.53494868e-05, 2.73056445e-03, 2.29791715e-03,
          -5.18908957e-03, -5.44476882e-03, -1.48288312e-03,
          -3.09621752e-03, -1.77938677e-03, 4.27431567e-03,
          2.42652046e-03, 2.74884328e-03, 4.11255751e-03, 5.34110144e-03,
          -1.40499047e-04, -4.60287463e-03, -4.01966739e-03,
          5.02761872e-03, 3.63326143e-03, 1.52221939e-03, 3.43645061e-03,
          2.28255382e-03, 3.26758157e-03, 4.68063494e-03,
          -4.15105652e-03, -7.27608288e-03, 1.05873374e-02,
          2.78851925e-03, 2.96578975e-03, 4.39896947e-03, 4.88877576e-03,
          1.46671000e-03, 9.78627708e-03, -7.32254004e-03,
          -2.77144415e-03, 5.42507647e-03, 4.51455219e-03,
          5.09060267e-03, 4.48943349e-03, 5.65933716e-03, 7.20997748e-04,
          -3.29309190e-03, -4.43769153e-03, -9.01865191e-04,
          1.44265802e-03, 8.22881353e-04, -9.92858433e-04,
          1.33353379e-03, 5.56771236e-04, 1.07678352e-03,
          -1.03087968e-03, -2.29294339e-04, -2.21950468e-03,
          -6.28380047e-04, 7.64465018e-04, 4.91059711e-03,
          4.39523393e-03, 3.93110514e-03, 1.33583136e-03, 1.48962240e-03,
          -1.88837084e-03, -7.01771723e-03, -5.90865687e-03,
          -3.03593953e-03, -7.30467902e-04, 4.64105699e-03,
          7.32771773e-03, 6.93789078e-03, 3.55753349e-03, 7.21523189e-04,
          -1.89082837e-03, -2.68768170e-03, -3.92420264e-03,
          5.59257157e-03, 5.59160532e-03, 2.44816416e-03,
          -7.48862338e-04, -1.62579003e-03, -2.46622483e-03 ]
      - [ -2.33128318e-03, 7.50698941e-03, 1.10548474e-02,
          9.30832420e-03, 3.86476517e-03, -1.47157693e-02,
          -1.59278363e-02, -1.55347055e-02, -1.41228568e-02,
          -6.68908609e-03, 3.05586145e-04, 5.04914531e-03,
          8.88786186e-03, 1.18093961e-03, 4.37956629e-03,
          -8.92628450e-03, -6.13806304e-03, -8.27708002e-03,
          2.13906006e-03, -5.47835929e-03, -1.21089034e-02,
          -9.02487710e-03, -8.89727089e-04, -3.52862087e-04,
          3.24938889e-03, 9.46410839e-03, 1.77805256e-02, 7.06163561e-03,
          -2.36470867e-02, -2.45972183e-02, -8.36694986e-03,
          -2.91419419e-04, -6.66725158e-04, 1.52342720e-04,
          8.74135923e-03, 2.05568522e-02, 3.51098320e-03,
          -1.63157005e-02, -9.26944334e-03, -1.97804277e-03,
          1.78090500e-04, -5.59254877e-05, -3.46940215e-04,
          8.48674681e-03, 5.49151469e-03, 8.68522655e-03,
          -2.02535838e-02, -2.25852411e-02, -1.80218332e-02,
          -7.58905604e-04, 4.14639886e-04, 8.64394649e-04,
          1.17730871e-02, 1.70732997e-02, 1.50451083e-02,
          -2.56021488e-02, -2.69360896e-02, -2.84386110e-02,
          -5.87974396e-03, -6.65872649e-04, 4.20578814e-04,
          4.94011724e-03, 2.75569297e-02, 9.91244335e-03,
          -2.33046319e-02, -2.59601083e-02, -2.17941310e-02,
          -1.59587129e-03, 2.25292729e-06, 2.72115576e-04,
          1.63555350e-02, 1.95022840e-02, 8.38355743e-04,
          -4.50283429e-03, -8.51985998e-03, -2.99049099e-03,
          2.01437809e-03, 5.18988061e-04, 2.26826384e-03, 1.10702384e-02,
          8.38355743e-04, -3.76538537e-03, 8.07361957e-03,
          2.11477652e-03, 2.49605649e-03, 5.87891031e-04, 2.60631961e-04,
          -8.80733423e-04, 1.12053007e-02, -3.76538537e-03,
          -3.82689503e-03, 8.41652788e-03, 3.97155201e-03,
          1.76205393e-03, -5.15063701e-04, -8.09648912e-03,
          3.80582921e-03, 8.68664868e-03, -2.74989731e-03,
          -1.80329091e-03, 1.36809032e-02, 4.94153379e-03,
          5.33509208e-03, 3.51324561e-03, -3.46778915e-03,
          5.09363692e-03, 6.88345218e-03, -2.44950783e-03,
          4.22987109e-03, 9.84726567e-03, -1.56953771e-04,
          1.98662281e-04, 6.40754076e-03, -3.41164065e-03,
          -1.12002119e-02, -3.15959752e-03, 2.25765957e-03,
          5.02703199e-03, 3.64231691e-03, 1.11618335e-03, 1.63175911e-03,
          2.73867045e-03, -7.54041644e-03, -1.29187072e-03,
          -8.66718590e-04, 1.41572556e-03, -2.07416550e-03,
          -5.25951502e-04, -1.08153292e-03, -2.83412030e-03,
          1.07223513e-02, 4.32175724e-03, -3.79486533e-04,
          3.15663125e-03, -7.79679092e-03, 3.67982313e-04,
          4.25160257e-03, -7.40974385e-04, -3.65135213e-03,
          2.83009349e-03, -2.05518794e-03, -8.54138751e-03,
          -1.11978576e-02, -2.65864702e-03, -1.35238282e-02,
          -1.39626814e-02, -1.75133608e-02, 8.22351500e-03,
          1.48935905e-02, 1.77849494e-02, 1.17623201e-02, 1.13159856e-02,
          6.46264059e-03, -5.44309895e-03, -1.15773361e-02,
          -1.37450621e-02, -8.25156458e-03, 1.14196250e-02,
          1.67887397e-02, 1.29203638e-02, 1.37713123e-02, 9.45794489e-03,
          1.51347574e-02, -7.91759323e-03, -2.30976995e-02,
          -2.12268140e-02, -1.20885698e-02, -5.78458328e-03,
          -2.38042767e-03, -1.93100341e-03, 2.15941761e-02,
          5.37926797e-03, -9.58532002e-03, -1.01550361e-02,
          -5.13753993e-03, -2.38488801e-03, -2.86022411e-03,
          -3.91921448e-03, -7.28809740e-04, 5.64046064e-03,
          9.18731000e-03, -1.39802508e-02, -9.07838251e-03,
          -2.25386024e-03, -1.88567792e-03, -9.34373029e-03,
          -1.36750229e-02, -4.49784566e-03, 9.70863551e-03,
          2.79513020e-02, -1.46370949e-02, -2.24252082e-02,
          -1.94462370e-02, -1.55782942e-02, -1.47783132e-02,
          -1.44132366e-02, -1.09963519e-02, 2.81829778e-02,
          2.37663332e-02, -1.82675011e-02, -2.39509027e-02,
          -2.41271742e-02, -2.28648931e-02, -1.71680264e-02,
          -1.11337230e-02, -3.40654980e-03, 3.60435545e-02,
          1.42534897e-02, -1.57168992e-02, -1.91490445e-02,
          -1.74878370e-02, -1.80704426e-02, -1.16540333e-02,
          5.99109044e-04, 9.10921860e-03, 1.87325384e-02,
          -5.83015382e-04, -9.84445680e-03, -8.30977689e-03,
          -7.41659710e-03, -5.42128086e-03, -6.79258024e-03,
          -2.58447928e-03, 3.93390330e-03, 1.00478744e-02,
          1.09088980e-03, 8.19130428e-03, 3.13737732e-03, 2.69082095e-03,
          3.93837341e-04, -4.24642581e-03, -3.57386004e-03,
          -1.36179512e-03, 2.36136746e-03, 3.28227819e-04,
          1.28228813e-02, 4.76732571e-03, 5.03074517e-03,
          -1.44987169e-03, -7.50158681e-03, -1.45634380e-03,
          1.39416265e-03, -3.21182422e-03, 8.63815367e-04,
          1.34677300e-03, 1.95096282e-03, 2.68020644e-03,
          -6.24657702e-03, -9.79395863e-03, -7.95297849e-04,
          2.46573286e-03, 5.66350715e-03, 9.59796656e-04, 4.59975656e-03,
          4.49659303e-03, 1.14810104e-02, -5.67123294e-03,
          -4.58363537e-03, -2.18172767e-03, 5.35416463e-03,
          2.10092054e-03, 5.06449898e-04, 1.15494465e-03,
          -4.01599286e-03, 5.47523890e-03, 2.45469878e-03,
          1.52931921e-03, -1.46947708e-03, 1.10753914e-04,
          -1.92997861e-03, -1.60646979e-02, -1.70484055e-02,
          -1.20915016e-02, -4.30349307e-03, 1.63303502e-02,
          2.06714980e-02, 1.95358377e-02, 9.36478283e-03, 4.18272335e-03,
          -1.43019641e-02, -1.51635287e-02, -1.08813709e-02,
          -6.21719705e-03, 7.13490602e-03, 1.70079079e-02,
          1.49730137e-02, 1.39602656e-02, 3.14606656e-03,
          -2.10581627e-02, -2.76886579e-02, -1.77714135e-03,
          5.79061918e-03, 1.43037559e-02, 1.82928015e-02, 2.10974943e-02,
          9.80783161e-03, -1.11145545e-02, 3.89849930e-03,
          -7.25161098e-03, -1.60127170e-02, -8.42395891e-03,
          2.56111403e-03, 4.39862628e-03, -1.55291450e-03,
          1.06580637e-03, 4.84321779e-03, 7.14493450e-03,
          -1.61261717e-03, -6.02317508e-03, -1.25758639e-02,
          -6.87889103e-03, -6.22678222e-03, -7.31385453e-03,
          -3.69037827e-03, 7.14493450e-03, 1.54651422e-02,
          1.15311556e-02, 7.62942713e-03, -1.01066679e-02,
          -1.06524033e-02, -1.43173207e-02, -1.24033485e-02,
          1.81939709e-03, 1.11021362e-02, 2.35117991e-02, 7.57294847e-03,
