%YAML:1.0
---
opencv_ml_svm:
   format: 3
   svmType: C_SVC
   kernel:
      type: LINEAR
   C: 1.5000000000000000e+00
   term_criteria: { iterations:10000000 }
   var_count: 945
   class_count: 10
   class_labels: !!opencv-matrix
      rows: 10
      cols: 1
      dt: i
      data: [ 48, 49, 50, 51, 52, 53, 54, 55, 56, 57 ]
   sv_total: 45
   support_vectors:
      - [ 7.15218892e-04, -1.37096224e-03, -1.37096224e-03,
          7.59022078e-03, 4.39939875e-04, -1.06100422e-04,
          -5.49579527e-05, -2.01298637e-04, 1.08921500e-04,
          1.83877181e-02, -1.65378512e-03, -1.31323952e-02,
          -2.05229269e-03, -1.01450598e-04, -1.96089924e-04,
          -8.29562487e-04, -8.61354813e-04, 5.46714896e-03,
          1.07962573e-02, 3.51326843e-03, -1.76605470e-02,
          -5.80262160e-03, -6.20943820e-03, -1.91569549e-03,
          -3.43885552e-03, -5.23306103e-03, 4.29730397e-03,
          2.07886044e-02, 7.39267562e-04, -1.39877545e-02,
          -1.31856585e-02, -1.33791557e-02, -1.40942419e-02,
          -1.31936353e-02, -7.36238807e-03, 1.75231937e-02,
          2.27441844e-02, -5.39078726e-04, -1.29404645e-02,
          -1.66886076e-02, -1.61750428e-02, -1.66886076e-02,
          -1.15646692e-02, -1.42950739e-03, 2.22814381e-02,
          1.17685078e-02, -1.13419108e-02, -1.14849154e-02,
          -8.15505721e-03, -1.10566821e-02, -9.95886978e-03,
          -1.02546643e-02, -9.85990278e-03, 1.28608840e-02,
          1.23048900e-02, -1.20349284e-02, -1.02790846e-02,
          -9.06038471e-03, -1.42094502e-02, -5.77105070e-03,
          -9.95993987e-03, -9.45239235e-03, 1.36323534e-02,
          1.00489976e-02, -1.23821124e-02, -1.13154417e-02,
          -1.15981475e-02, -1.45211602e-02, -8.41412414e-03,
          -8.40363372e-03, -3.25812493e-03, 1.47443432e-02,
          1.12749031e-02, -1.08855972e-02, -9.23199672e-03,
          -1.24208173e-02, -1.23083433e-02, -9.65382438e-03,
          -8.62328336e-03, -6.46507647e-03, 1.25064543e-02,
          8.54962692e-03, -1.10231396e-02, -8.11902992e-03,
          -9.29734297e-03, -1.04460269e-02, -1.01325382e-02,
          -1.03555201e-02, -5.84651344e-03, 1.26174316e-02,
          3.80259100e-03, -1.20206596e-02, -1.06265815e-02,
          -8.94318894e-03, -1.06485384e-02, -9.04381275e-03,
          -9.29757394e-03, 2.67120101e-03, 1.24111790e-02,
          -2.69908225e-03, -8.10675230e-03, -9.92436055e-03,
          -1.07854018e-02, -1.23593640e-02, -9.41123161e-03,
          -1.02665173e-02, 1.04154423e-02, 1.21785626e-02,
          -9.71371215e-03, -1.14434334e-02, -1.18031502e-02,
          -8.31485260e-03, -1.08490074e-02, -8.29534419e-03,
          -1.80804508e-03, 1.16779655e-02, 1.33225042e-02,
          -1.05834734e-02, -9.95387603e-03, -1.10553317e-02,
          -9.22215078e-03, -1.22934738e-02, -6.95573166e-03,
          1.05169816e-02, 1.04400162e-02, 5.26144868e-03,
          -4.30954248e-03, -5.82123362e-03, -7.30426377e-03,
          -8.77515972e-03, -1.08412700e-02, -4.40407963e-03,
          1.07843457e-02, 1.04815606e-02, -1.53579342e-03,
          -4.99276102e-05, -1.22798113e-02, -3.27714672e-03,
          6.08423632e-03, 1.53155494e-02, 1.32962727e-04, 2.48338707e-04,
          4.26838269e-05, 7.96696171e-04, -3.33739771e-03,
          1.14617660e-03, 1.10629736e-03, 6.28924742e-03,
          -5.57859894e-03, -7.43686035e-03, -3.85751924e-03,
          -1.52997358e-03, -6.47365174e-04, 1.52133973e-02,
          4.44181636e-03, -7.75901892e-04, -1.41682960e-02,
          -1.34381987e-02, -8.75171274e-03, -5.35359839e-03,
          -3.39789432e-03, -1.94029344e-05, 1.74731817e-02,
          -3.15368967e-03, -1.96678136e-02, -9.29274037e-03,
          -2.98619200e-03, -1.81674550e-03, -5.06617420e-04,
          -3.80858127e-03, 7.50193512e-03, 1.22200167e-02,
          -6.37909025e-03, -1.50235556e-02, -1.58777609e-02,
          -8.76531098e-03, -1.56975759e-03, -1.08467345e-03,
          -2.44701892e-04, 9.70321242e-03, 8.13757628e-03,
          -5.82140358e-03, -9.22575127e-03, -5.66488365e-03,
          -8.34865868e-03, -6.86229207e-03, -6.97028870e-03,
          -6.98249368e-03, 8.13757628e-03, 9.95564554e-03,
          -7.96188600e-04, -6.66621840e-03, -8.71510804e-03,
          -1.13339787e-02, -6.19001780e-03, -9.07346793e-03,
          -9.50659998e-03, 7.30989687e-03, 9.31403134e-03,
          -8.23562127e-03, -8.53261538e-03, -7.35904882e-03,
          -1.04259942e-02, -1.08815562e-02, -9.31955874e-03,
          -2.35963333e-03, 9.31403134e-03, 7.00694323e-03,
          -1.27870850e-02, -9.17852949e-03, -5.13657182e-03,
          -1.04334913e-02, -6.47511194e-03, -7.85553548e-03,
          -3.46147665e-03, 1.08267730e-02, 8.03948380e-03,
          -1.24187795e-02, -8.99866410e-03, -6.06680987e-03,
          -8.16639606e-03, -7.36208446e-03, -7.96921644e-03,
          -3.42440140e-03, 9.61942971e-03, 1.58498995e-03,
          -8.84902105e-03, -1.05277272e-02, -7.25632394e-03,
          -9.40036215e-03, -7.57257221e-03, -9.49378032e-03,
          4.75201709e-03, 9.98506043e-03, -1.01910774e-02,
          -1.05590746e-02, -1.05802324e-02, -8.58318433e-03,
          -1.04991496e-02, -3.06486106e-03, 4.71157255e-03,
          9.06773005e-03, 6.44120108e-03, -1.23322345e-02,
          -1.00937542e-02, -9.05543938e-03, -7.04621058e-03,
          -8.96021258e-03, 4.58540535e-03, 8.38592090e-03,
          8.99699703e-03, -4.96151391e-03, -1.18545704e-02,
          -9.01145022e-03, -8.87143426e-03, -9.35454760e-03,
          -4.80148289e-03, 8.33228696e-03, 1.03153167e-02,
          7.95204751e-03, -4.65452438e-03, -7.52849411e-03,
          -6.92497939e-03, -1.02081122e-02, -1.31471558e-02,
          -5.99911250e-03, 9.84135084e-03, 7.61960540e-03,
          3.88991809e-03, -7.81698991e-03, -1.23524852e-03,
          -2.17863778e-03, -1.12702418e-02, 4.36603324e-03,
          6.96347002e-03, 3.72753362e-04, -9.55698080e-03,
          -6.19425299e-03, -3.24829947e-03, -5.83421625e-03,
          4.81480220e-03, 7.29997223e-03, 9.57671832e-03,
          -9.04197223e-04, -3.57948081e-03, -6.73191110e-03,
          -5.80327492e-03, -6.95595285e-03, 8.32756795e-03,
          1.21068368e-02, 7.72935525e-03, 5.09864511e-03,
          -2.84768385e-03, -5.75741101e-03, -7.80547969e-03,
          -6.44348282e-03, -1.05373804e-02, 4.61928686e-03,
          9.76771861e-03, 1.11098390e-03, 2.06072582e-03, 3.88252013e-03,
          5.21077216e-03, 6.16599945e-03, -7.27117434e-03,
          -8.48824903e-03, -7.21143465e-03, 1.17551209e-02,
          6.67519774e-03, 6.62893290e-03, 9.83040500e-03, 9.93414689e-03,
          1.06069511e-02, 2.67668720e-03, -1.17002334e-02,
          -9.21354163e-03, 1.30190179e-02, 8.75253882e-03,
          6.58898940e-03, 9.83457547e-03, 7.84508046e-03, 7.65051600e-03,
          4.86971578e-03, -9.21354163e-03, -8.50023143e-03,
          1.33185694e-02, 9.76598822e-03, 6.00860221e-03, 7.90176447e-03,
          9.00980085e-03, 8.31903890e-03, 4.41403640e-03,
          -1.06182154e-02, -9.11400001e-03, 1.11410450e-02,
          7.55154109e-03, 6.52974518e-03, 6.92453515e-03, 7.93165993e-03,
          9.38253477e-03, 8.68740771e-03, -8.83491151e-03,
          -8.56494717e-03, 2.17893650e-03, 6.40954729e-03,
          1.00226011e-02, 7.46515300e-03, 1.02368519e-02, 1.05242291e-02,
          8.37506354e-03, -8.99888854e-03, -8.62367451e-03,
          4.76688659e-03, 6.24093646e-03, 5.89510286e-03, 9.40225925e-03,
          7.64955627e-03, 6.34197565e-03, 1.10531785e-02,
          -7.74289528e-03, -5.57776447e-03, 4.89321817e-03,
          4.49093711e-03, 5.01900353e-03, 8.15481599e-03, 4.58835484e-03,
          9.74880252e-03, 4.76193847e-03, -7.29016401e-03,
          -2.05296949e-02, -2.02915398e-03, -9.86363273e-04,
          5.54051204e-03, 8.21749493e-03, 1.21222306e-02, 1.47110438e-02,
          1.11276787e-02, -1.39554804e-02, -1.71135738e-02,
          -2.02819542e-03, -1.88067730e-03, 6.03820430e-03,
          1.24089243e-02, 1.55728143e-02, 9.40857735e-03,
          -6.59461273e-03, -1.85092259e-02, -3.16658546e-03,
          4.09307424e-03, 4.63362690e-03, 8.28511175e-03, 9.86912753e-03,
          3.68854846e-03, 5.53288148e-04, -8.62695184e-03,
          -9.71201342e-03, -9.95950401e-03, -4.15503420e-03,
          -5.38957212e-03, -9.23506392e-04, 6.42498536e-03,
          7.19806179e-03, 1.55144953e-03, -8.25820770e-03,
          -9.30502452e-03, -4.60457429e-03, 1.07608303e-05,
          4.33890556e-04, 3.85222607e-03, 1.78927612e-02, 1.38106178e-02,
          -6.84635248e-04, -1.85510684e-02, -1.82038117e-02,
          -1.59884840e-02, 1.57641160e-04, 1.23664783e-03,
          3.87230678e-03, 1.33037521e-02, 1.85781736e-02, 1.68520864e-02,
          -3.30451690e-03, -2.29513869e-02, -1.95473209e-02,
          1.34224247e-03, 2.03750818e-03, 2.51096184e-03, 3.57116526e-03,
          1.19004576e-02, 1.58407241e-02, 7.57573731e-03,
          -6.88932324e-03, -6.96932245e-03, 4.53760847e-03,
          3.73688224e-03, 3.50106321e-03, 1.88716990e-03, 2.40342272e-03,
          7.06985965e-03, 9.15572233e-03, -3.30454903e-03,
          -4.97677410e-03, 7.15709943e-03, 5.91994263e-03,
          4.54284204e-03, 5.26622962e-03, 6.96748821e-03, 6.95928279e-03,
          6.37289044e-03, -4.97677410e-03, -7.27806892e-03,
          7.03655696e-03, 5.42348344e-03, 5.07812249e-03, 9.53564327e-03,
          6.00147294e-03, 6.71712775e-03, 9.93119460e-03,
          -6.89387368e-03, -9.38624982e-03, 1.19371330e-02,
          9.79040191e-03, 9.77756735e-03, 7.51115615e-03, 5.97324967e-03,
          8.36919714e-03, 9.35185701e-03, -9.10991989e-03,
          -8.15201085e-03, 1.10357255e-02, 8.13709758e-03,
          6.92260638e-03, 7.91235268e-03, 1.05818585e-02, 1.01973601e-02,
          4.19016788e-03, -8.63178261e-03, -1.08505487e-02,
          4.52762283e-03, 7.85368681e-03, 9.55836941e-03, 1.09604523e-02,
          1.11171035e-02, 1.04479427e-02, 8.55322834e-03,
          -1.00372862e-02, -9.10662115e-03, 8.37438460e-03,
          8.76604300e-03, 7.19737960e-03, 8.51474330e-03, 8.96036346e-03,
          6.14950620e-03, 9.34435893e-03, -7.71633117e-03,
          -7.32684042e-03, 1.51930060e-02, 1.01495758e-02,
          8.00892152e-03, 6.57949131e-03, 8.34001135e-03, 7.22734910e-03,
          2.64429091e-03, -1.15257716e-02, -1.37837194e-02,
          1.48243392e-02, 1.53231639e-02, 1.58979315e-02, 1.00322822e-02,
          7.31441239e-03, 4.84575238e-03, 2.20698281e-03,
          -2.32968535e-02, -1.61330961e-02, 4.49646963e-03,
          9.93048027e-03, 1.44764502e-02, 1.45978583e-02, 6.98830001e-03,
          -4.48471168e-03, -1.37035409e-02, -1.84705146e-02,
          6.31691306e-04, 2.22536922e-03, 7.02616619e-03, 8.69603083e-03,
          7.89445359e-03, -7.71878846e-03, -1.04162730e-02,
          -3.92492302e-03, -2.81010312e-03, -7.31525058e-03,
          -4.40510316e-03, 7.06504972e-04, 7.65183801e-03,
          6.47171307e-03, -7.22883968e-03, -8.54426716e-03,
          -6.81267818e-03, -5.66848228e-03, -1.47553533e-02,
          -2.11128453e-03, -1.16829947e-03, -4.81508527e-04,
          2.91488902e-03, 1.34070190e-02, 1.36518842e-02,
          -2.32080318e-04, -1.67666264e-02, -1.93832833e-02,
          -1.78073649e-03, -9.75993025e-05, -1.50255393e-04,
          1.58383569e-04, 8.47369991e-03, 1.96848400e-02, 8.15271400e-03,
          -1.00708576e-02, -2.03292519e-02, -1.19431480e-03,
          1.64491852e-04, -1.65187870e-04, -1.60936310e-04,
          1.92228908e-04, 1.07558891e-02, 1.70997847e-02,
          -7.41890224e-04, -1.06856823e-02, -1.45709375e-03,
          -7.93098570e-06, 4.59549301e-05, -5.16226683e-05,
          -4.77682152e-05, 2.38416746e-04, 1.60124544e-02,
          -6.92290312e-04, -3.73005494e-03, -4.58537554e-03,
          -3.37223581e-04, -9.89489563e-05, 3.32234922e-05,
          1.05593346e-04, 1.73319277e-04, 3.55024659e-03, 9.74196941e-04,
          6.73033037e-06, -1.59963151e-03, -3.98172851e-04,
          -2.06520799e-05, 1.40586460e-04, 5.51211233e-05,
          7.88346733e-05, 4.09788685e-04, 6.73033037e-06, 3.94251547e-04,
          -2.25843512e-03, -8.30940116e-05, 8.75318947e-05,
          1.30667584e-04, 2.33119019e-04, 3.98748234e-04,
          -1.61743039e-04, 3.94251547e-04, 8.01429211e-04,
          1.32599613e-03, 3.58647434e-04, 1.23863894e-04, 6.03170774e-05,
          2.71849742e-04, -1.70295697e-03, -2.02143262e-03,
          8.01429211e-04, 1.67554000e-03, -1.92597229e-03,
          9.28495065e-05, 3.96444026e-04, 4.70085070e-04, 4.87221725e-04,
          4.09583125e-04, -4.39137162e-04, -2.22299059e-04,
          -2.63278664e-04, -5.36627602e-04, 1.68439990e-04,
          4.23507125e-04, 6.73946633e-04, 7.33149645e-04, 1.75623188e-03,
          7.98315450e-04, -1.00711780e-03, -1.00993842e-03,
          1.73331425e-02, 2.05072761e-03, 1.26924238e-03, 3.16061778e-04,
          6.47104578e-04, 9.42826096e-04, -3.35376221e-03,
          -8.95748474e-03, -2.53100437e-03, 2.02713255e-02,
          1.43426657e-02, 3.50112421e-03, 9.91239562e-04, 1.24485057e-04,
          1.00035832e-04, -2.88647739e-03, -2.33886354e-02,
          -1.12247607e-02, 7.76153570e-03, 1.61440447e-02,
          6.55892072e-03, 3.77065688e-03, -9.71301342e-04,
          -2.74246698e-03, -6.89372607e-03, -1.70639642e-02,
          -8.35031830e-03, 2.40178342e-04, 1.36050535e-03,
          5.50608896e-03, 5.81789820e-04, -6.98294491e-03,
          -5.01371734e-03, -2.96064233e-03, -2.48307781e-03,
          -5.41828526e-03, -6.72913017e-03, 2.39229458e-03,
          8.23813956e-03, -1.18407456e-03, -1.21922977e-02,
          -8.68750550e-03, -4.73743211e-03, -5.03175426e-03,
          -1.23998569e-02, -9.21177864e-03, -9.75912064e-03,
          -6.12386782e-03, -6.61687227e-03, -4.36370214e-03,
          9.28224996e-03, 6.18879264e-03, 1.99951325e-03,
          -1.23507641e-02, -9.91116557e-03, -4.72342875e-03,
          -3.22973658e-03, -8.02545156e-03, -8.58746562e-03,
          -1.73513006e-04, 8.20692815e-03, 6.26294455e-03,
          -7.48095382e-03, -8.63762293e-03, -3.97863099e-03,
          -5.07520977e-03, -7.47024501e-03, -7.00574182e-03,
          -9.07934830e-03, 8.72613862e-03, 7.23542226e-03,
          3.28226271e-03, -8.60138237e-03, -4.88444371e-03,
          -4.27643163e-03, -6.33616699e-03, -4.34107520e-03,
          -7.76919490e-03, -1.81930524e-03, 4.95739141e-03,
          5.12089301e-03, -1.16148693e-02, -9.10609961e-03,
          -6.83158962e-03, -8.45750049e-03, -4.32632677e-03,
          -6.02474622e-03, -5.05921058e-03, 7.64327357e-03,
          6.40895916e-03, -9.45424102e-03, -7.54675129e-03,
          -5.03028138e-03, -3.61286383e-03, -5.35984663e-03,
          -8.66977591e-03, -8.54882784e-03, 6.42306730e-03,
          6.39511039e-03, -1.24460086e-02, -8.57122894e-03,
          -7.77107198e-03, -5.48720546e-03, -4.37875884e-03,
          -3.15467967e-03, -7.32996594e-03, 6.39511039e-03,
          5.87142631e-03, -8.57521035e-03, -3.97463143e-03,
          -4.61809756e-03, -3.87722603e-03, -3.27645033e-03,
          -4.05243412e-03, -1.59631334e-02, 6.05589151e-03,
          7.95629993e-03, -8.63943342e-03, -2.60431739e-03,
          -4.84021101e-03, -5.79456752e-03, -3.66091076e-03,
          -6.75107120e-03, -1.26579953e-02, 5.93353901e-03,
          5.25237247e-03, -9.26630478e-03, -3.59257241e-03,
          -2.71689799e-03, -4.90522943e-03, -4.95856395e-03,
          -5.75920800e-03, -8.53368174e-03, 5.25237247e-03,
          4.91878344e-03, -4.81096189e-03, -4.60543344e-03,
          -3.09010036e-03, -4.87380615e-03, -3.88242630e-03,
          -3.10610840e-03, -8.66500381e-03, 2.28963816e-03,
          1.58118957e-03, 1.33180059e-02, -1.94039661e-03,
          -1.92171347e-03, -2.68586562e-03, -1.49458833e-03,
          -2.54541193e-03, -8.96431413e-03, -9.42952000e-03,
          1.67206570e-03, 1.25796227e-02, 3.27609619e-03,
          -9.12636460e-04, -1.49550068e-03, -1.67875737e-03,
          -3.02186003e-03, -7.95948226e-03, -1.82558820e-02,
          -6.16940670e-03, 4.35237726e-03, 5.76746138e-03,
          -3.80924717e-03, -1.28794520e-03, -2.11968482e-03,
          -2.52827210e-03, -4.81225736e-03, -1.25539135e-02,
          -5.28876670e-03, 2.28513102e-03, 6.83954917e-03,
          5.20832464e-03, -5.89984294e-04, -7.53242662e-03,
          -8.81299842e-03, -8.01475905e-03, -6.40455680e-03,
          -1.33980153e-04, -4.92362771e-03, -6.34345599e-03,
          -4.88166092e-03, -5.72169805e-03, -1.70265744e-03,
          2.01303675e-03, 6.31380314e-03, 5.64196752e-03, 8.50901590e-04,
          -8.09902232e-03, -5.97360590e-03, -5.19262254e-03,
          -1.08647766e-02, -1.03938766e-02, -6.00257330e-03,
          8.91261827e-03, 1.17973369e-02, 4.50530089e-03,
          -8.81915074e-03, -7.96385016e-03, -7.15895696e-03,
          -1.25474287e-02, -1.11954939e-02, -1.08425161e-02,
          4.93731955e-03, 1.10810986e-02, 1.14569599e-02,
          -9.39626899e-03, -1.04755266e-02, -9.80575942e-03,
          -1.03302794e-02, -8.82552005e-03, -9.71558224e-03,
          -3.06305639e-03, 1.08007621e-02, 1.11617763e-02,
          -7.72482157e-03, -9.81518161e-03, -9.75576416e-03,
          -1.33202588e-02, -9.17675998e-03, -1.07170064e-02,
          -4.97971429e-03, 1.04101216e-02, 1.20435245e-02,
          -1.21919261e-02, -1.06412182e-02, -1.00251501e-02,
          -1.10352254e-02, -7.47394655e-03, -1.13944514e-02,
          -5.26537560e-03, 1.04456814e-02, 1.13946926e-02,
          -9.16128140e-03, -8.74551293e-03, -8.67686048e-03,
          -1.23225516e-02, -1.06484015e-02, -1.32773770e-02,
          -6.32180646e-03, 1.28789144e-02, 1.18313543e-02,
          -8.54868535e-03, -1.08138053e-02, -9.48581472e-03,
          -1.00996122e-02, -8.34919978e-03, -1.14989337e-02,
          -1.05108665e-02, 1.11922119e-02, 1.18406052e-02,
          -5.62334293e-03, -1.15667507e-02, -8.47212691e-03,
          -1.11697521e-02, -8.44225567e-03, -1.21508585e-02,
          -1.16471425e-02, 1.24861058e-02, 1.11172358e-02,
          -7.47165736e-03, -1.03788059e-02, -8.73616710e-03,
          -9.84048471e-03, -8.09765514e-03, -1.25165936e-02,
          -1.01329749e-02, 1.12625537e-02, 1.58126168e-02,
          -4.27425280e-03, -8.66032392e-03, -9.47370008e-03,
          -1.45031903e-02, -1.22557813e-02, -1.26197496e-02,
          -1.11769922e-02, 1.40904849e-02, 1.32018887e-02,
          -1.59085204e-03, -1.03505226e-02, -1.27512682e-02,
          -1.37356194e-02, -9.51128919e-03, -7.83088244e-03,
          -8.47907271e-03, 9.06256679e-03, 1.07224490e-02,
          1.18209403e-02, -8.58249702e-03, -9.38702468e-03,
          -1.07818609e-02, -5.62444469e-03, -8.76527186e-03,
          -1.01371752e-02, -3.59436637e-03, 6.96898019e-03,
          8.81177932e-03, 5.03280945e-03, -5.75358095e-03,
          -1.00217210e-02, -3.72799323e-03, -8.88943952e-03,
          -7.56312208e-03, -7.08946493e-03, -8.57751758e-04,
          2.47443700e-03, 4.72780922e-03, -1.57929992e-03,
          -8.23486224e-03, -5.36532025e-04, -8.23303941e-04,
          -1.11970608e-03, -2.62437388e-03 ]
      - [ 5.55213168e-03, 7.73870852e-03, 7.01892772e-04,
          -1.03916731e-02, -6.18932443e-03, -1.00362499e-03,
          1.67142789e-05, 1.08508402e-06, -1.10518085e-04,
          1.11558652e-02, 9.39158536e-03, -1.51050522e-03,
          -1.13544576e-02, -1.03514269e-02, -8.86136480e-03,
          -7.91812688e-03, -6.46658894e-03, -3.57128261e-03,
          1.90854128e-02, 1.86096095e-02, -7.77753210e-03,
          -1.41291441e-02, -1.33845247e-02, -1.41329858e-02,
          -7.66381575e-03, -2.74939439e-03, 6.13771193e-03,
          1.30065056e-02, 6.01153495e-03, -5.27809607e-03,
          -1.17837591e-02, -1.26474388e-02, -1.23889130e-02,
          -8.10679235e-03, -6.27424987e-03, 8.99802521e-03,
          1.26360161e-02, -4.66288300e-03, -6.94415439e-03,
          -7.17585394e-03, -1.09910881e-02, -7.57990172e-03,
          -1.05187409e-02, -1.10294688e-02, 9.09048971e-03,
          1.10411737e-02, -5.20621054e-03, -7.15589384e-03,
          -7.90575426e-03, -9.54735465e-03, -9.97826364e-03,
          -1.10654570e-02, -8.81858822e-03, 1.07741635e-02,
          1.01130856e-02, -9.60712787e-03, -9.88782290e-03,
          -7.20283156e-03, -8.30109883e-03, -6.17324607e-03,
          -6.46056049e-03, -8.26739334e-03, 9.95581597e-03,
          9.13438573e-03, -1.26792127e-02, -1.30407065e-02,
          -9.55428556e-03, -7.32469279e-03, -3.50715220e-03,
          -4.12184885e-03, -2.65740720e-03, 1.46525884e-02,
          7.22036045e-03, -1.65807754e-02, -1.61612704e-02,
          -3.75486817e-03, -1.83739804e-03, -5.81563974e-04,
          -7.10683875e-04, 1.62026298e-03, 1.60508230e-02,
          -7.27244013e-04, -1.84766762e-02, -6.30479027e-03,
          -4.25730337e-04, -1.78186136e-04, -8.56513652e-05,
          2.01935618e-05, 3.89520149e-03, 1.89403631e-02,
          -3.94548522e-03, -1.87732428e-02, -2.34848354e-03,
          -8.36087420e-05, 3.24745924e-05, 9.41043108e-05,
          1.39043492e-04, 1.21909473e-02, 1.38304392e-02,
          -1.44390287e-02, -9.59483813e-03, -3.38122372e-05,
          4.68478465e-05, 2.28160075e-04, -1.92701700e-05,
          9.39341960e-04, 1.80663038e-02, 4.26700478e-03,
          -1.61257442e-02, -1.99998077e-03, -9.88504507e-06,
          1.80404008e-04, 1.23284088e-04, 1.01833360e-03, 4.65558516e-03,
          6.78796740e-03, 1.55239517e-03, -4.63344250e-03,
          -1.56712136e-04, 2.28115794e-04, 2.17710010e-04,
          -1.72013068e-03, -5.41562447e-03, 5.61219035e-03,
          3.02180415e-03, -2.33036303e-03, 1.42009929e-03,
          5.73618396e-04, 6.64891209e-04, 2.18380432e-04,
          -6.73565315e-03, -4.70750453e-03, 7.76198693e-04,
          6.73975889e-03, 2.92623229e-03, 5.32470702e-04, 9.50653758e-03,
          1.34454342e-04, -1.63600349e-03, -6.75232848e-03,
          -2.34568724e-03, -5.70749071e-05, -6.44198226e-05,
          -4.59392846e-04, 6.73834281e-03, 1.49485050e-02,
          -3.75073380e-03, -7.48861860e-03, -1.63380566e-04,
          -4.41193930e-04, 1.20217868e-04, 1.50513792e-04,
          3.06270085e-04, 1.75927412e-02, 1.71501841e-02,
          -9.11915209e-03, -1.75062995e-02, -8.99083354e-03,
          -1.35870907e-03, -6.34937140e-04, -3.40687751e-04,
          9.04371671e-04, 9.00754146e-03, 8.58988799e-03,
          -8.72173999e-03, -1.07555380e-02, -1.18539007e-02,
          -7.92174973e-03, -6.40822900e-03, -5.00090374e-03,
          3.10448534e-03, 9.10554361e-03, -5.11037397e-05,
          -7.27293594e-03, -8.07204470e-03, -9.81444772e-03,
          -9.64452792e-03, -7.79515132e-03, -7.70022348e-03,
          7.03181373e-03, 1.07766567e-02, -5.03587956e-03,
          -8.03016778e-03, -5.67732379e-03, -7.81774055e-03,
          -7.20885443e-03, -9.45481751e-03, -8.72258749e-03,
          9.17542446e-03, 1.20283375e-02, -1.06328223e-02,
          -1.27302725e-02, -9.88518074e-03, -6.17361069e-03,
          -5.02462918e-03, -4.36729938e-03, -2.75763520e-03,
          1.32517926e-02, 1.58152245e-02, -1.36872875e-02,
          -1.75594073e-02, -8.14367458e-03, -1.81795540e-03,
          -9.10851115e-04, -5.55699924e-04, 3.44254868e-03,
          1.71302650e-02, 1.56608969e-02, -1.84186287e-02,
          -1.93485226e-02, -2.29970249e-03, 1.13464761e-04,
          2.65345559e-04, 4.23475198e-04, 5.84702939e-03, 1.95889268e-02,
          4.71413042e-03, -1.73972994e-02, -1.52678397e-02,
          -4.43576981e-04, 4.19861826e-05, 2.59057706e-04,
          4.83571348e-04, 6.37911446e-03, 1.92513727e-02,
          -7.96228927e-03, -1.90605670e-02, -3.86394747e-03,
          9.13778695e-06, -5.38940767e-05, 2.44399635e-05,
          1.42182992e-03, 1.75825674e-02, 1.59740914e-02,
          -1.52166924e-02, -1.17771700e-02, -1.27808060e-04,
          1.67047892e-05, -1.26941930e-04, 2.27389042e-03,
          8.00602790e-03, 8.01884383e-03, 4.48062876e-03,
          -6.24827063e-03, 6.90539659e-04, 2.21808744e-03,
          1.65488024e-03, -7.86096556e-04, 1.88005611e-03,
          1.45489012e-03, 1.24983676e-03, -4.33119386e-03,
          1.38371473e-03, 2.91076000e-03, 2.60907249e-03,
          -2.03881459e-03, -7.27875018e-03, -6.29945472e-03,
          4.44745598e-03, 8.36770050e-03, 1.50235766e-03,
          -6.04223933e-05, -4.25101258e-04, -4.99750837e-04,
          -7.23059662e-03, -9.67654027e-03, -1.54926034e-03,
          9.48210247e-03, 9.42548364e-03, 4.90383594e-04,
          -4.94318338e-05, -5.41948015e-04, 1.33927341e-03,
          -1.89342478e-03, -1.05391676e-03, 2.24715425e-03,
          -7.34210801e-07, -1.41364639e-04, -1.00128142e-04,
          5.13142848e-04, 6.91418257e-03, -7.96056935e-04,
          -2.16689240e-03, -2.88302870e-03, 3.31508368e-03,
          3.20697716e-03, 3.35451012e-04, 9.64257415e-05, 7.91784190e-03,
          7.51080737e-03, -2.23946781e-03, -6.56958576e-03,
          -3.11802025e-03, 8.80491396e-04, 9.15559474e-04,
          -2.83830264e-03, -8.49390402e-04, 3.73848272e-03,
          7.15406518e-03, 1.70266069e-03, -5.73949143e-03,
          -5.12260944e-03, -2.84689246e-03, -3.85121512e-03,
          -3.60208168e-03, 1.87302195e-03, 3.72631219e-03,
          1.30686804e-03, -7.26217229e-04, -5.65220136e-03,
          -2.88288156e-03, 8.60389322e-04, -9.59887693e-04,
          -1.41046732e-03, 3.06674279e-03, 2.00193119e-03,
          -7.78665300e-04, -3.23627354e-03, -2.27942457e-03,
          5.70357719e-04, 5.90661832e-04, 7.53243861e-04,
          -1.85027113e-03, 3.83351883e-03, 7.99819548e-03,
          -7.50924647e-03, -9.52207297e-03, -2.60736793e-03,
          6.93503907e-03, 5.87832741e-03, 6.33022608e-03, 7.68048549e-03,
          1.01663982e-02, 1.12830717e-02, -7.87096936e-03,
          -1.12918271e-02, 4.76677262e-04, 5.17147966e-03,
          5.36804646e-03, 5.71961794e-03, 1.02256937e-02, 1.26594640e-02,
          1.13746803e-02, -1.30188614e-02, -1.38924122e-02,
          2.85668485e-03, 6.92635216e-03, 7.62669556e-03, 7.54455617e-03,
          9.19557363e-03, 1.25327297e-02, 5.27948700e-03,
          -1.04931919e-02, -1.34076932e-02, 3.32027720e-03,
          5.66025265e-03, 5.93836838e-03, 6.49043266e-03, 1.25108510e-02,
          1.23678306e-02, -4.80483752e-03, -1.42792435e-02,
          -4.77678329e-03, 2.11459515e-03, 4.93657449e-03,
          3.67528107e-03, 9.06073023e-03, 1.18504688e-02, 7.13264337e-03,
          -1.30755547e-02, -8.38190038e-03, -1.22207159e-03,
          4.36337432e-03, 3.02341604e-03, 3.91583750e-03, 5.85527718e-03,
          4.39018290e-03, -3.06272879e-03, -2.12731212e-03,
          -1.07892454e-04, 1.01974478e-03, 6.28167391e-03,
          -1.52866624e-03, -1.44545134e-04, 2.83950916e-03,
          -6.18816528e-04, -3.44201992e-03, 4.10994608e-03,
          6.28899364e-03, 6.96484325e-03, -5.94431011e-04,
          -4.67863819e-03, -4.77919448e-03, 6.64695678e-03,
          6.87490031e-03, 3.99796339e-03, -9.26300054e-05,
          1.96491121e-04, 5.81304193e-04, -3.24925012e-03,
          -4.38298658e-03, 6.56211283e-03, 6.41067605e-03,
          8.01831658e-04, 8.07493634e-05, -3.35355551e-04,
          -9.11033021e-06, -1.85950230e-05, -1.66708266e-03,
          -1.96396559e-03, -1.96396559e-03, 9.12479311e-03,
          5.77138926e-05, -3.53300624e-04, 1.38203195e-05,
          1.66590078e-04, 1.09447690e-03, -2.74458854e-03,
          -4.98444540e-03, -1.98773993e-03, 5.48606552e-03,
          7.29916058e-03, 5.58068932e-05, -2.31313356e-03,
          -3.93275358e-03, -2.10294151e-03, -3.72773223e-03,
          -7.00783730e-03, -1.56284997e-03, 2.51313276e-03,
          5.15940925e-03, 3.93158197e-03, 6.47035311e-04,
          -2.68678623e-03, -4.57480364e-03, -4.45467094e-03,
          -5.06936433e-03, -2.37163017e-03, -3.20998253e-04,
          3.30872810e-03, 4.81417682e-03, 4.55368398e-04,
          -4.88890801e-03, -6.10623322e-03, -3.90533754e-03,
          3.23742465e-03, 2.16156151e-03, 2.81146169e-03, 4.64940118e-03,
          6.46108249e-03, 7.49315508e-03, -9.17932298e-03,
          -1.07622305e-02, 5.31119818e-04, 5.30222291e-03,
          5.67517988e-03, 6.63361698e-03, 1.04927784e-02, 1.07341018e-02,
          1.00561175e-02, -9.98712610e-03, -1.03997849e-02,
          2.78042024e-03, 8.97875242e-03, 6.41412707e-03, 8.29735771e-03,
          7.72922998e-03, 1.16241053e-02, 1.15235960e-02,
          -4.60469630e-03, -1.34899598e-02, -7.78903777e-04,
          7.16165733e-03, 7.66564393e-03, 6.54961774e-03, 8.81972443e-03,
          1.11606205e-02, 9.57797281e-03, -5.88904181e-03,
          -1.27328727e-02, 3.55771685e-04, 8.45515728e-03,
          7.67488778e-03, 7.76682515e-03, 9.57048219e-03, 1.06592746e-02,
          2.88439915e-03, -7.29258033e-03, -7.60750705e-03,
          5.20867645e-04, 6.13261247e-03, 3.10122524e-03, 1.53037289e-03,
          5.60261915e-03, 1.00010475e-02, 9.50478017e-04,
          -3.74331168e-04, -9.07273323e-04, 2.04461906e-03,
          -1.68734128e-04, 1.10662123e-03, -2.07017921e-03,
          -1.04712916e-03, 6.51572715e-04, -1.74483494e-03,
          6.79140585e-03, 6.78460300e-03, 4.43904800e-03,
          -1.87331240e-03, -5.97079750e-03, -6.06456725e-03,
          -3.42969014e-03, -5.57743665e-03, -3.49789858e-04,
          2.74860626e-03, 1.05476007e-02, 7.30722537e-03,
          -1.91726361e-03, -1.03081269e-02, -2.62762792e-03,
          -5.95589285e-04, -5.08475176e-04, 3.89791769e-03,
          3.53962509e-03, 7.07817264e-03, 4.44534561e-03,
          -2.47120322e-03, -9.16840509e-03, 3.29246907e-03,
          2.89326906e-03, 3.75699811e-03, 3.41266394e-04, 5.39045897e-04,
          2.02050875e-03, 2.66590342e-03, -1.50123867e-03,
          -3.22181336e-03, 1.79556140e-03, 1.41971293e-04,
          7.62920477e-04, -3.12132266e-04, 2.89626332e-05,
          4.81429088e-05, -5.58730499e-05, -6.62350748e-03,
          -1.00017444e-03, 2.79925810e-03, 4.48152144e-03,
          -2.20248839e-05, 2.77396844e-04, 2.14819433e-04,
          3.48146423e-04, 1.54007193e-05, -4.44452977e-03,
          -6.01161318e-03, 9.00264597e-04, 4.57597245e-03,
          3.21099791e-03, -5.06906025e-03, -3.60044854e-04,
          -1.94477587e-04, -2.98704719e-04, -6.14205142e-04,
          -5.10618789e-03, -2.04469659e-03, 2.00071768e-03,
          2.93983449e-03, -5.46722347e-03, -1.24562019e-02,
          -2.54589808e-03, -9.57217999e-04, -1.21528737e-03,
          -1.22053211e-03, -9.25710192e-04, 8.30134470e-03,
          2.95669958e-03, -3.04153329e-03, -1.70028936e-02,
          -8.14480241e-03, -8.42271256e-04, -5.17787885e-05,
          -1.17685624e-04, -9.34947893e-05, 8.30128510e-03,
          1.61555428e-02, 9.94447060e-03, -1.65296178e-02,
          -1.81923620e-02, -4.18212789e-04, 1.84889053e-04,
          1.99093891e-04, 7.11680914e-04, 7.50154536e-03, 1.81328095e-02,
          1.74138658e-02, -1.66603699e-02, -1.90789960e-02,
          -1.51609920e-03, 2.00339520e-04, 4.98844252e-04,
          1.22581143e-03, 3.70882708e-03, 1.91103574e-02, 1.85811501e-02,
          -1.09733408e-02, -2.07726583e-02, -8.72794073e-03,
          -3.79245728e-04, 3.55513243e-04, 3.20288789e-04,
          4.52759909e-03, 1.89950932e-02, 1.66009702e-02,
          -1.04108574e-02, -1.64291561e-02, -1.43509172e-02,
          -4.11123596e-03, -7.39701849e-04, -1.48485496e-03,
          3.92901991e-03, 1.75615530e-02, 9.16851778e-03,
          -8.06763954e-03, -1.26643442e-02, -1.01518584e-02,
          -7.92693160e-03, -6.15923200e-03, -4.00055479e-03,
          3.43158405e-04, 1.17721371e-02, 8.10622703e-03, 5.11864200e-03,
          -8.66849720e-03, -9.21321288e-03, -9.85148177e-03,
          -5.85601479e-03, -5.96682308e-03, -6.85125729e-03,
          3.62608442e-03, 1.22001506e-02, 1.13842497e-02, 8.98968987e-03,
          -8.50694627e-03, -1.39491502e-02, -1.21532548e-02,
          -6.86718291e-03, -5.72540238e-03, -3.88519652e-03,
          3.25548020e-03, 1.55422753e-02, 1.54357543e-02,
          -2.91387178e-03, -1.28760776e-02, -9.95027274e-03,
          -1.70592603e-03, -4.63720789e-04, 6.00426400e-04,
          2.00140034e-03, 7.65752373e-03, 1.48474909e-02, 5.70724253e-03,
          -1.12820445e-02, -1.61849484e-02, 5.70750621e-04,
          8.90227035e-04, 2.11238884e-03, -1.02334765e-04,
          3.98923614e-04, 1.34459930e-02, 9.00368672e-03,
          -6.23639906e-03, -1.47734908e-02, -1.88294624e-03,
          -4.55355534e-04, -2.94288446e-04, 6.08825125e-04,
          1.20707489e-04, 7.42933335e-05, 1.51996428e-05,
          -8.54999933e-04, -4.30192798e-03, -3.67522618e-04,
          5.89768868e-04, 7.58294575e-03, 5.59000764e-04, 1.59221381e-04,
          1.19555036e-04, 0., -3.50962800e-04, -3.59861110e-03,
          -5.92554454e-03, 8.00012436e-04, 6.43960154e-03,
          -5.47657441e-03, -4.46099693e-05, 2.30639780e-05, 0.,
          1.55453614e-04, -2.07604113e-04, -6.60373643e-03,
          2.49896827e-03, 3.03634489e-03, -1.33581366e-03,
          -9.15547460e-03, -7.19857999e-05, -2.71342742e-06,
          6.93976690e-05, -1.48488436e-06, 5.39013236e-05,
          5.08034136e-03, 1.93608052e-03, -1.66411244e-03,
          -1.83730256e-02, -1.64349342e-03, -7.77697494e-07,
          -2.66431089e-05, 0., -1.35823982e-04, 7.25635421e-03,
          1.37778614e-02, 5.82374632e-03, -1.93841178e-02,
          -1.18326833e-02, -1.64351426e-04, 3.39971812e-05,
          1.61907847e-05, 1.03225793e-04, 6.10702392e-03, 1.84733849e-02,
          1.63663402e-02, -1.85766760e-02, -1.91511866e-02,
          -2.84379371e-03, -2.56743544e-04, -4.88925298e-06,
          2.27620330e-04, 1.64324010e-03, 1.94288567e-02, 1.76567491e-02,
          -1.69234984e-02, -1.75844692e-02, -9.98052023e-03,
          -1.60067005e-03, -1.04429433e-03, -1.23518857e-03,
          -1.03671139e-03, 1.89261418e-02, 1.23437224e-02,
          -1.21572539e-02, -1.28617501e-02, -9.19564627e-03,
          -7.57963397e-03, -3.51985870e-03, -5.60624432e-03,
          -4.70517064e-03, 1.43004367e-02, 9.50918533e-03,
          -7.22452346e-03, -9.56660509e-03, -7.32974429e-03,
          -9.57450178e-03, -7.07365433e-03, -7.37690227e-03,
          -6.54227613e-03, 9.23626870e-03, 1.00560524e-02,
          -1.37994450e-03, -8.40980932e-03, -6.53694430e-03,
          -7.50208367e-03, -5.51853795e-03, -8.76789261e-03,
          -1.05286855e-02, 5.08667575e-03, 1.41681079e-02,
          1.26728080e-02, -2.86713801e-03, -1.17706675e-02,
          -1.34971691e-02, -1.35147376e-02, -7.24014919e-03,
          -4.86909039e-03, 2.08555418e-03, 1.78392697e-02,
          1.73950996e-02, 5.46946982e-03, -1.25042889e-02,
          -1.44809345e-02, -1.49699077e-02, -7.45535782e-03,
          -1.05304911e-03, 1.55236619e-03, 2.77874153e-03,
          1.46729648e-02, 1.19133051e-02, -7.46420026e-03,
          -1.39502799e-02, -1.31222298e-02, -3.67339770e-03,
          -1.88682438e-03, -1.22720422e-03, 2.41220463e-03,
          9.99821071e-03, 1.23919630e-02, -1.03622267e-03,
          -8.72851722e-03, -1.04328981e-02, 9.61737940e-04,
          3.25688685e-04, 1.92196760e-03, 6.09836355e-03, 2.97726784e-03,
          1.39380340e-03, 1.76737912e-03, 1.50458014e-03, 2.11542239e-03,
          -5.19736018e-03, -3.01345321e-03, 3.52560612e-03,
          6.40140194e-03, 1.71401619e-03, 4.51481144e-04, 1.23085279e-03,
          1.52465247e-03, 2.49121280e-04, -4.85908054e-03,
          -9.04576737e-04, 5.72878867e-04, 2.18275981e-03,
          8.70509073e-04, 1.20587094e-04, 1.15659437e-04,
          -1.70274507e-04, 8.03986477e-05, -3.70904047e-04,
          -2.29802588e-03, 8.63204303e-04, -5.54852071e-04,
          -2.46159709e-03, 6.43738458e-05, 8.20586081e-07,
          -4.62320284e-04, 8.38589403e-05, 8.96079000e-05,
          1.63499021e-03, 6.68467430e-04, -1.48002885e-03,
          -1.80377662e-02, -8.78485851e-04, -8.35890296e-06,
          -6.93423091e-04, 5.26318472e-05, 7.35568974e-05,
          5.64163690e-03, 1.22845704e-02, 2.26041023e-03,
          -1.86301116e-02, -8.85001849e-03, -4.43091645e-04,
          -5.48950164e-04, -1.70612926e-04, -4.81754578e-05,
          6.06149947e-03, 1.81009211e-02, 8.02190602e-03,
          -1.50996046e-02, -1.60702541e-02, -4.87296144e-03,
          -4.63415496e-03, -1.54364307e-03, -2.02885829e-03,
          1.23960967e-03, 1.47668598e-02, 1.03313578e-02,
          -1.16179837e-02, -1.22814169e-02, -8.77870619e-03,
          -8.74959491e-03, -5.32385893e-03, -5.44554042e-03,
          -5.58716478e-03, 1.28738191e-02, 1.05041489e-02,
          -9.59674641e-03, -1.13580581e-02, -7.70422211e-03,
          -1.00008696e-02, -5.60590997e-03, -7.56075885e-03,
          -6.13624835e-03, 1.01231253e-02, 9.78051126e-03,
          -6.92795450e-03, -8.17668065e-03, -3.84070445e-03,
          -9.08622611e-03, -8.06220621e-03, -8.81680939e-03,
          -9.81159229e-03, 8.67321249e-03, 1.13280285e-02,
          -2.03359150e-03, -4.17544134e-03, -4.36677318e-03,
          -9.98011231e-03, -7.95234554e-03, -1.19964797e-02,
          -1.16472216e-02, 6.05596555e-03, 1.28473071e-02,
          5.16634202e-03, -3.84715549e-03, -7.70576252e-03,
          -1.02059431e-02, -1.10258274e-02, -1.00626526e-02,
          -9.93558485e-03, 2.72761006e-03, 1.57644600e-02,
          1.79357156e-02, 1.45301409e-03, -3.03624407e-03,
          -8.47443286e-03, -1.42225232e-02, -1.31305661e-02,
          -9.52928606e-03, -2.00148299e-03, 7.92913884e-03,
          8.42746254e-03, 6.80590747e-03, -4.74229641e-03,
          -4.33701742e-03, -6.19616825e-03, -6.29482511e-03,
          -6.88629877e-03, -3.66712827e-03, 1.59427419e-03,
          -5.87978575e-05, -2.36148946e-04, -3.46749066e-03,
          -6.03026571e-03, 1.07655290e-03, 4.35767742e-03,
          4.71715722e-03, 3.93820507e-03 ]
      - [ 2.13038083e-03, 1.11484872e-02, 1.09264776e-02,
          -7.88409356e-03, -1.18878251e-02, -1.11744832e-02,
          -1.18777053e-02, -9.57742427e-03, -6.89633563e-03,
          2.04174630e-02, 2.10216828e-02, 1.10055925e-02,
          -7.16804061e-03, -1.93208829e-02, -2.00846717e-02,
          -1.34806512e-02, -3.52761964e-03, 1.26468122e-03,
          1.27558149e-02, 1.16687752e-02, -7.56037328e-03,
          -1.16155874e-02, -1.39502566e-02, -1.39834918e-02,
          -9.10345279e-03, -6.22969680e-03, -1.86042232e-03,
          8.48868210e-03, 1.61951536e-03, -1.02338279e-02,
          -7.72361457e-03, -6.87664654e-03, -3.20321461e-03,
          -9.89648234e-03, -1.20213758e-02, 3.18690203e-03,
          1.02967471e-02, -4.25153319e-03, -8.05990677e-03,
          -8.98252614e-03, -1.13524152e-02, -9.10683721e-03,
          -1.12893460e-02, -1.06767546e-02, 9.32540931e-03,
          7.89039768e-03, -5.23093529e-03, -6.77965255e-03,
          -9.13585443e-03, -9.97073762e-03, -6.13001501e-03,
          -6.70061121e-03, -1.05338506e-02, 7.89039768e-03,
          8.69403686e-03, -4.51732567e-03, -9.37238149e-03,
          -4.79416642e-03, -8.63574725e-03, -5.28754480e-03,
          -1.08497143e-02, -1.30033232e-02, 8.15281831e-03,
          1.11316722e-02, -1.11136846e-02, -1.02953855e-02,
          -7.40835955e-03, -9.13413242e-03, -6.27052318e-03,
          -1.01335719e-02, -1.11664394e-02, 1.09860161e-02,
          1.30957058e-02, -1.04629761e-02, -9.33154114e-03,
          -8.87087919e-03, -1.20239193e-02, -9.36365500e-03,
          -1.24922786e-02, -7.84457847e-03, 1.34216733e-02,
          9.83480364e-03, -1.19082918e-02, -1.28656421e-02,
          -1.08406022e-02, -1.07140625e-02, -5.06674126e-03,
          -9.28909890e-03, -4.43496695e-03, 1.26383826e-02,
          5.71150472e-03, -1.26484381e-02, -1.31050600e-02,
          -9.36275255e-03, -1.14500644e-02, -8.13040324e-03,
          -6.51945034e-03, 7.86411297e-03, 1.34639405e-02,
          4.38116433e-04, -7.21004419e-03, -1.07464492e-02,
          -1.72975883e-02, -1.60457492e-02, -1.41706606e-02,
          -3.29909800e-03, 2.08480898e-02, 2.15073172e-02,
          -3.48004117e-03, -5.43674966e-03, -1.09628197e-02,
          -1.50111690e-02, -1.24387452e-02, -9.76096280e-03,
          7.23912055e-03, 1.91153139e-02, 1.68458186e-02,
          -6.41061412e-03, -5.47058042e-03, -5.50389336e-03,
          -5.58909448e-03, -9.33752861e-03, -4.20287531e-03,
          5.57043124e-03, 7.19195558e-03, -1.52612466e-03,
          2.54492415e-03, 1.94364681e-03, 1.15653616e-04,
          -1.41239434e-03, -9.51717887e-03, -6.21411065e-03,
          2.52158823e-03, 1.12763988e-02, 4.84159216e-03, 2.19535991e-03,
          1.60449911e-02, 1.93332713e-02, -3.52236233e-03,
          -1.61119699e-02, -7.67346844e-03, -9.76425654e-05,
          8.83279156e-08, 2.94144731e-04, 1.12651912e-02, 1.85583849e-02,
          1.84781421e-02, -8.76980834e-03, -2.08124593e-02,
          -8.17690976e-03, -4.31502354e-04, 7.03495389e-05,
          2.80905137e-04, 1.47763928e-02, 1.30993426e-02,
          -2.23703086e-04, -1.29019553e-02, -1.59104001e-02,
          -1.35850459e-02, -9.23758186e-03, -4.96356189e-03,
          -3.04818433e-03, 6.21098001e-03, 1.53311028e-03,
          -1.58294197e-02, -5.67003246e-03, -5.54080727e-03,
          -5.76228695e-03, -4.90793260e-03, -5.70492819e-03,
          6.93944609e-03, 1.86492410e-03, -7.75480038e-03,
          -9.61775985e-03, -2.66519166e-03, -7.96931330e-04,
          -7.01011217e-04, -1.36531994e-03, -5.35030966e-04,
          1.27486475e-02, 3.16729187e-03, -1.25962188e-02,
          -1.33907516e-03, -1.55112284e-04, -5.10779682e-05,
          5.10379905e-04, 6.69496600e-04, -2.35973252e-03,
          7.05949124e-03, 8.61853175e-03, 2.70667928e-03, 1.03383885e-04,
          4.44862788e-04, -3.60599253e-04, -1.68304762e-03,
          -1.59967430e-02, -1.33629041e-02, 5.59869129e-03,
          1.77017264e-02, 3.34791769e-03, -2.36188970e-03,
          -2.01609801e-03, -5.71834296e-03, -1.66848954e-02,
          -1.69244893e-02, -1.24706849e-02, 1.35652833e-02,
          1.05331456e-02, -7.36416178e-03, -7.30807846e-03,
          -7.89881404e-03, -1.04421675e-02, -1.05685722e-02,
          -1.15446923e-02, -4.57947096e-03, 1.17375003e-02,
          7.44283292e-03, -8.54886603e-03, -7.55968085e-03,
          -1.07758958e-02, -1.12464158e-02, -6.83657359e-03,
          -8.10599700e-03, -1.81361299e-03, 1.10324342e-02,
          2.73230113e-03, -1.08856596e-02, -1.02749374e-02,
          -6.12733886e-03, -1.08164977e-02, -1.18233096e-02,
          -7.61042442e-03, 9.56551265e-03, 8.49520694e-03,
          -3.78048723e-03, -6.63478067e-03, -7.38097029e-03,
          -1.16696525e-02, -1.65344700e-02, -9.49845556e-03,
          5.17317792e-03, 1.38852689e-02, 1.20066600e-02, 6.47380133e-04,
          3.80922505e-03, 1.19922042e-03, -3.83227807e-03,
          -1.47315403e-02, -5.35091152e-03, 8.38296209e-03,
          1.68863833e-02, 6.77801250e-03, 1.28785509e-03, 4.73879604e-03,
          3.57114710e-03, -6.89557847e-03, -1.25249084e-02,
          -5.45816822e-03, 8.77944008e-03, 1.06615387e-02,
          2.70955474e-03, 3.15771846e-04, -1.28938327e-05,
          -1.05083360e-04, -1.18635921e-02, -9.07987636e-03,
          4.01721429e-03, 1.41606405e-02, 1.05481856e-02, 1.25141279e-03,
          3.41598789e-04, 1.98437111e-03, 1.08505925e-02, 4.91324393e-03,
          -4.66450583e-03, -6.86034886e-03, 4.71091509e-04,
          3.03957058e-05, 2.82256253e-04, 5.46058254e-05, 9.88408551e-03,
          1.49953067e-02, 7.80332973e-03, -7.98949227e-03,
          -1.20728258e-02, 2.22516898e-03, -1.16776864e-04,
          -2.09271704e-04, 7.14283902e-03, 1.25501567e-04,
          1.25501567e-04, -1.30928622e-03, -6.32699998e-03,
          -3.99763836e-03, -2.10952968e-03, -4.45729034e-04,
          8.28605727e-04, 9.62129049e-03, -5.76990424e-03,
          -1.39292292e-02, 1.95028528e-03, 5.43970149e-03,
          3.60839395e-03, 5.31585980e-03, 6.57871319e-03, 1.27257146e-02,
          8.00315931e-04, -1.04919001e-02, -8.19238555e-03,
          3.28879897e-03, 7.76805403e-03, 7.87072163e-03, 8.36480595e-03,
          1.20481160e-02, 1.47599466e-02, -6.03798870e-03,
          -7.23598944e-03, 3.18463612e-03, 6.91036601e-03,
          7.57626211e-03, 8.91579967e-03, 9.08628572e-03, 7.54061202e-03,
          1.48235145e-03, 5.00198826e-03, 9.29636694e-03, 9.25489329e-03,
          6.31210022e-03, 9.10304859e-03, -6.45845849e-03,
          -7.47232372e-03, -4.78683598e-03, -3.56641067e-05,
          1.39184929e-02, 1.22955805e-02, 1.02524301e-02, 5.94033394e-03,
          4.94460482e-03, -1.51512334e-02, -1.54670822e-02,
          4.12732409e-03, 1.34560904e-02, 1.62194669e-03,
          -1.04887295e-03, -4.14427166e-04, 3.31763388e-03,
          -3.79519392e-04, -4.19787457e-03, -2.54254206e-03,
          1.71652564e-03, 2.26559886e-03, 1.82335929e-03,
          -2.96284270e-04, -1.56167976e-03, -1.92132534e-03,
          -3.18530574e-03, -2.03151419e-03, -8.34509847e-04,
          3.90479341e-03, 2.04539718e-03, 4.68925311e-04,
          -7.43004028e-03, -4.23664879e-03, -2.62898044e-03,
          -2.58788560e-03, -2.61100521e-03, 3.03798215e-03,
          2.73505202e-03, 3.30224074e-03, -4.63005062e-03,
          -5.45435259e-03, -8.30183737e-03, -1.62277243e-03,
          -5.40577527e-03, 8.23932001e-04, 9.76345316e-03,
          8.13509524e-03, 7.41327531e-05, 1.31467136e-03, 1.35229144e-03,
          -2.08226149e-03, -4.27476363e-03, -5.24914172e-03,
          3.43077350e-03, 1.27450330e-02, 5.39175514e-03, 2.43942952e-03,
          6.50058640e-03, 7.86283426e-03, 4.56731115e-03,
          -9.24722198e-03, -6.56924490e-03, 1.68584590e-03,
          1.09310951e-02, 5.71400160e-03, 3.56794777e-03, 2.76696315e-04,
          3.81953025e-04, -1.01311007e-05, -6.11420162e-03,
          -3.19565670e-03, 1.09589975e-02, 6.45209430e-03,
          1.31121569e-03, 1.06729800e-04, -6.91442401e-05,
          4.92282288e-06, 1.99114045e-04, -5.54511207e-04,
          -2.39554932e-03, -2.39554932e-03, 9.20658279e-03,
          -1.07962667e-04, -1.86103134e-04, -8.44029151e-03,
          -5.19050425e-03, 2.53781164e-03, 6.03279797e-03,
          -2.27736332e-03, 1.81178737e-03, 2.27895263e-03,
          -7.71529798e-04, -8.59840307e-03, -1.13853235e-02,
          -1.43605098e-02, -1.30471038e-02, 4.51533357e-03,
          4.38873097e-03, 8.21892638e-03, 1.38747655e-02, 1.29678166e-02,
          8.15757550e-03, 1.12148738e-02, -1.22735584e-02,
          -1.54032176e-02, 5.63141610e-03, 3.90420971e-03,
          2.09571328e-03, 8.91305320e-03, 1.54156657e-02, 1.57462526e-02,
          -4.87827323e-03, -1.11105172e-02, -5.64564858e-03,
          5.41758118e-03, 5.43574337e-03, 4.63241199e-03, 9.49863065e-03,
          1.34959389e-02, 1.22921867e-02, -1.93562754e-03,
          -3.52844177e-03, 7.35971518e-03, 7.23250024e-03,
          7.84011278e-03, 6.59525953e-03, -1.12660760e-04,
          -1.89859397e-03, -1.97865046e-03, 9.06557776e-03,
          1.02808066e-02, 9.23148263e-03, 9.89044458e-03, 4.07419959e-03,
          -1.21084889e-02, -8.36689491e-03, -3.05540767e-03,
          4.35494399e-03, 1.40483836e-02, 1.23020727e-02, 8.84279609e-03,
          7.05496827e-03, 2.06896779e-03, -1.44547569e-02,
          -1.42409606e-02, 9.80220269e-03, 1.40081635e-02,
          7.01617915e-03, 5.26011596e-03, 3.60854669e-03, 7.47312838e-03,
          -3.41588719e-04, -8.41353461e-03, -7.18218507e-03,
          -2.41767993e-04, 4.75841435e-03, 2.06262968e-03,
          5.88371593e-04, 1.84864155e-04, 2.19414127e-03, 1.24993839e-03,
          -4.36418457e-03, -4.41796798e-03, -4.37569898e-03,
          2.74591683e-03, 5.51616889e-04, 1.00784248e-03, 2.99506099e-03,
          1.94718782e-03, -5.15819702e-04, -5.51081088e-04,
          -3.86320311e-03, -5.42126782e-03, -1.76418037e-03,
          -1.38275465e-03, 7.24167097e-04, -8.33298080e-04,
          -2.06612726e-03, 4.73044859e-03, 2.23031151e-03,
          1.31441525e-03, 1.63627858e-03, -3.93183844e-04,
          3.52679257e-04, -1.13672623e-03, -1.13889540e-03,
          -3.80351907e-03, 8.35518818e-03, 3.19816777e-03,
          1.88717176e-03, 3.25451751e-04, 3.69307149e-04, 3.80521035e-03,
          3.14586679e-03, -6.09072484e-03, -3.90936213e-04,
          2.42324648e-04, -5.42942376e-04, 2.29258277e-03,
          2.16868403e-03, 2.88634025e-03, 4.52118053e-04, 5.43834292e-04,
          -2.00382364e-03, -5.89258736e-04, -3.00960906e-04,
          1.17345713e-03, 1.57255516e-03, 1.24838567e-04, 7.21608812e-04,
          -1.18705025e-03, -1.17250944e-04, -3.09218711e-04,
          -8.45709466e-04, -1.07740369e-02, -3.46396328e-03,
          8.09651148e-03, 1.15385773e-02, -7.54334789e-04,
          -1.47813056e-02, -6.85880380e-03, -7.72124389e-04,
          1.11522764e-04, -1.52530021e-03, 1.83091930e-03,
          6.36498583e-03, 5.13031380e-03, -8.58635269e-03,
          -1.67825539e-02, -1.87061504e-02, -1.42077813e-02,
          -5.93900586e-05, -3.21872038e-04, 3.21361411e-04,
          1.37093598e-02, 1.77244749e-02, 9.03305877e-03, 6.10530470e-03,
          -2.20760517e-02, -1.89968627e-02, 1.45201266e-04,
          -1.00664089e-04, 3.31314513e-05, 4.38559626e-04,
          1.70510728e-02, 2.04934385e-02, 8.11048201e-04,
          -2.08199061e-02, -1.13630369e-02, -1.40839416e-04,
          -2.98627565e-04, 4.14548340e-05, 4.00179386e-04,
          9.45193786e-03, 1.92310847e-02, 7.21600186e-03,
          -8.47818237e-03, -3.95225477e-04, -1.73495537e-05,
          4.60619685e-06, -7.60513777e-03, -1.34649398e-02,
          -6.74840203e-03, 7.21600186e-03, 2.25299075e-02,
          4.36440343e-03, 6.26593886e-04, 3.22113774e-04,
          -6.18654885e-04, -1.40587911e-02, -2.12503374e-02,
          -1.32731376e-02, 2.08091680e-02, 2.22257283e-02,
          5.48945600e-03, 4.02500271e-04, 2.23188006e-04,
          -1.34702795e-03, -1.93355586e-02, -1.96294729e-02,
          -1.16228471e-02, 2.07215939e-02, 1.93259548e-02,
          5.34893246e-03, 1.64576573e-04, 1.75694484e-04,
          -3.91036010e-04, -7.69913476e-03, -1.72170885e-02,
          -1.36874896e-02, 7.41611654e-03, 3.01335123e-03,
          -1.47704233e-03, -2.21058424e-03, -8.78111226e-04,
          -1.85673416e-03, -2.02370924e-03, -2.43020547e-03,
          -9.23877954e-03, 2.18473282e-03, 3.78652383e-03,
          7.80001399e-04, -3.87887121e-03, -1.42567477e-03,
          -1.06407329e-03, -5.54572092e-04, -1.46186212e-04,
          -7.17760355e-04, -5.71023347e-03, 8.75563920e-03,
          -2.02221586e-03, -2.42787506e-03, -4.89930389e-04,
          -1.53023680e-03, -2.54467333e-04, -6.02960790e-06,
          -4.69148326e-05, 4.67897917e-04, 4.57416009e-03,
          -1.00143312e-03, -8.84827459e-04, 3.04328301e-03,
          4.31874432e-05, -1.25046805e-04, 5.51595993e-04,
          1.02589642e-04, 1.37647393e-03, 1.69447833e-03, 4.05826280e-03,
          9.11142502e-04, -9.62704944e-04, -1.72266271e-04,
          -4.52062668e-05, 3.96961346e-04, 7.45140656e-04,
          1.89442246e-03, -9.59298108e-04, -1.85130932e-03,
          -1.57084156e-04, -6.95224444e-04, 2.63287756e-03,
          2.74193211e-04, -3.35395045e-04, -9.40303609e-04,
          -6.69849105e-04, -5.58962766e-03, -1.86942034e-05,
          -1.38001460e-05, 5.86275382e-05, -3.42048611e-03,
          -9.70520172e-03, 4.37068148e-03, 4.37068148e-03,
          -3.40945064e-03, -1.74020939e-02, -1.86435618e-02,
          -1.17944984e-03, -1.53373094e-05, -6.15498648e-05,
          3.02100321e-04, 9.01479833e-03, 1.46129942e-02, 4.81931632e-03,
          -6.86675077e-03, -2.29749344e-02, -1.73066258e-02,
          -9.80896511e-05, 3.32086754e-04, 8.33428930e-06,
          8.14087165e-04, 2.21089460e-02, 2.24361196e-02, 1.26723275e-02,
          -2.33727302e-02, -1.96552537e-02, -1.91573333e-03,
          -2.72848207e-04, -7.82310308e-05, -4.50776351e-05,
          1.02156159e-02, 2.04722304e-02, 6.11566519e-03,
          -1.68736167e-02, -1.42983012e-02, -5.73303597e-03,
          -7.33355619e-03, -2.07143906e-03, -4.17975988e-03,
          4.33631008e-03, 1.27811674e-02, 1.46530140e-02,
          -4.71250294e-03, -4.02614800e-03, -4.59614629e-03,
          -8.18623789e-03, -1.43819349e-02, -1.56986769e-02,
          -1.00781675e-02, 1.31945731e-02, 2.26968694e-02,
          8.63193767e-04, 4.16693772e-04, 1.01262165e-04,
          -2.67691299e-04, -7.17056263e-03, -2.18960438e-02,
          -2.03000885e-02, 2.03671157e-02, 2.31221598e-02,
          4.18702548e-04, 2.90426506e-05, 0., -1.59102288e-04,
          -7.69441889e-04, -2.13607196e-02, -2.07861457e-02,
          1.16396090e-02, 1.77932009e-02, 1.30753976e-03,
          -8.71501688e-05, 2.85372744e-06, -2.37419386e-04,
          -1.96365974e-04, -1.07467715e-02, -2.08405033e-02,
          3.67274322e-03, 1.40566402e-03, 3.00367479e-03, 1.73422650e-05,
          1.08289851e-06, -1.08406683e-04, -1.46502507e-05,
          -5.55431703e-04, -9.82587133e-03, 1.40255864e-03,
          4.94376337e-03, -7.38166226e-03, -6.36661774e-04,
          -3.98910488e-05, -4.74952030e-05, -3.91934664e-05,
          -4.49485451e-05, 4.12312394e-04, -3.26131471e-03,
          1.59132876e-03, -1.98150333e-03, -6.74608629e-03,
          -2.50974335e-05, -2.33687679e-04, 1.13247052e-05,
          1.20926103e-04, 7.88428879e-05, 6.83022430e-03, 1.16317738e-02,
          -3.24072789e-05, -1.16752535e-02, -1.14367530e-03,
          1.38927629e-04, -1.81247902e-04, 7.70322731e-05,
          6.10682400e-05, 1.68377685e-03, 2.99951551e-03, 4.50975960e-03,
          -1.05915125e-04, -6.20118761e-03, -7.58017006e-04,
          -9.08030706e-05, 1.50393571e-05, -1.33005960e-04,
          -1.98858354e-04, -4.46115388e-03, 2.66165566e-03,
          2.64748000e-03, 5.50281431e-04, 1.67453522e-03,
          -2.13556760e-03, -2.67255440e-04, -3.00930627e-03,
          -4.29861480e-03, -5.50098717e-03, 2.58104713e-03,
          1.78521394e-03, 1.76676537e-03, 2.52807490e-03, 2.84126028e-03,
          2.32398557e-03, -3.28736758e-04, -6.71260234e-04,
          -9.90851223e-03, -1.67917609e-02, -8.19183071e-04,
          8.68177274e-04, 2.20705732e-03, 1.00754306e-03, 2.48086709e-03,
          1.82861444e-02, 2.39896355e-03, -4.31543542e-03,
          -2.00734232e-02, -1.18183754e-02, -1.72739953e-03,
          -9.21203580e-04, -1.08140369e-03, -6.25621062e-04,
          1.28966337e-02, 1.96165890e-02, 9.88167804e-03,
          -1.57076959e-02, -1.60366539e-02, -9.29540489e-03,
          -9.16365720e-03, -3.29659181e-03, -3.41357570e-03,
          2.00441945e-03, 1.39598250e-02, 8.22811201e-03,
          -9.79384035e-03, -8.88670050e-03, -7.75891915e-03,
          -1.23304557e-02, -8.97811167e-03, -8.58333614e-03,
          -4.39828169e-03, 1.20197749e-02, 1.33802313e-02,
          -8.45721085e-03, -7.24025210e-03, -6.95433840e-03,
          -1.23196440e-02, -1.16434786e-02, -1.24449963e-02,
          -5.57369879e-03, 1.01084691e-02, 1.73278302e-02,
          -3.90885537e-03, -3.40353115e-03, -2.72111990e-03,
          -5.77302417e-03, -9.92708933e-03, -1.78173110e-02,
          -1.44095300e-02, 9.33069736e-03, 2.10120752e-02,
          6.76999451e-04, -1.81006195e-04, -3.85996042e-04,
          -4.32918750e-04, -1.07996992e-03, -1.28800673e-02,
          -2.11770516e-02, 3.13588558e-03, 1.02376305e-02,
          2.00830936e-03, 7.11148277e-06, 2.41952475e-05,
          -1.36460410e-04, -5.08289631e-05, -7.67139718e-04,
          -1.94011517e-02, 1.78528077e-03, 2.77032028e-03,
          2.85506737e-03, -8.26652249e-05, 2.36682990e-06,
          -5.61877212e-04, 0., -2.74218164e-05, -9.91846155e-03,
          7.55055167e-04, 2.25335290e-03, -1.75061869e-03,
          3.64835396e-05, 3.48178437e-05, -3.96826537e-04,
          -6.17839532e-06, -1.95918274e-05, -7.98310386e-04,
          -4.66935989e-03, 4.74713044e-04, -6.32967753e-03,
          -8.07351200e-04, -1.20200741e-04, -7.47236307e-04,
          -5.11347389e-05, -1.46328908e-04, 2.07028090e-04,
          9.24804714e-03, 1.55067339e-03, 1.01319596e-03,
          -9.44175199e-03, 3.44439351e-04, -7.00434321e-04,
          -2.37257293e-04, -5.89490170e-04, -2.33644430e-04,
          3.36371362e-03, 1.05370022e-02, 5.47394855e-04,
          -1.74451002e-03, -5.52467629e-03, -6.39964594e-03,
          -2.39289482e-03, -1.16650003e-03, -2.01483886e-03,
          2.41016760e-03, 1.12116546e-03, 3.97434086e-03,
          -1.02904474e-03, -1.74066203e-03, -4.67205467e-03,
          -1.54988293e-03, 5.46062656e-04, 1.41959917e-03,
          -1.37005316e-03 ]
      - [ -2.05752112e-05, 5.59703214e-03, 8.18504952e-03,
          -2.22451868e-03, -5.94722154e-03, -9.38632898e-03,
          -7.56279891e-03, -8.87458213e-03, -8.37537739e-03,
          5.43436036e-03, 6.14617160e-03, -3.15063726e-03,
          -9.58187226e-03, -7.68751232e-03, -4.27717343e-03,
          -3.30787897e-03, -5.52488025e-03, -5.95185952e-03,
          3.84665118e-03, 4.36111214e-03, -3.96498619e-03,
          -4.16015321e-03, -4.52352548e-03, -3.66313197e-03,
          -1.78425969e-03, -3.16516752e-03, -6.69801375e-03,
          1.68679468e-03, -5.12954872e-03, -7.11339817e-04,
          -1.19675498e-03, -4.58707917e-04, -5.76706196e-04,
          -2.80303322e-03, -4.54842113e-03, 6.15538983e-03,
          6.36456010e-04, -1.37428688e-02, -1.24238373e-03,
          -5.71842946e-04, -1.24010956e-04, -3.44476575e-04,
          -5.41871705e-04, -8.26350821e-04, 1.53037123e-02,
          -4.28036321e-04, -1.62732136e-02, -7.68594095e-04,
          -4.20560391e-05, 3.34673445e-04, -1.59738029e-05,
          1.89190294e-04, 2.20491132e-03, 1.90711375e-02,
          -6.86113272e-05, -1.72033980e-02, -7.20200769e-04, 0.,
          -1.87121434e-04, -1.93587275e-05, -2.98692476e-06,
          7.45689555e-04, 1.73820909e-02, 1.25637895e-03,
          -1.70204975e-02, -8.44598690e-05, 0., -1.16716616e-03,
          -7.67287293e-06, 3.44649670e-05, 1.96861476e-03,
          9.40191559e-03, 3.28882510e-04, -8.14112183e-03,
          -1.87213707e-04, 0., -1.60423527e-03, -6.81072241e-04,
          -2.77796178e-03, -4.99192579e-03, 4.39320924e-03,
          8.39269534e-03, 1.55703296e-04, -6.00719395e-05,
          -2.95222935e-06, -6.07026974e-03, -1.01161711e-02,
          -1.16390856e-02, -8.72825738e-03, 8.09777901e-03,
          1.33099500e-02, 1.21522229e-04, -2.29230209e-04,
          -3.70266789e-04, -1.30987559e-02, -1.72345750e-02,
          -1.68633945e-02, 9.37068556e-03, 1.74354613e-02,
          -1.36325590e-03, -4.44604736e-03, -2.68383836e-03,
          -4.86429129e-03, -1.33624310e-02, -1.62674859e-02,
          -1.38743436e-02, 1.57489944e-02, 1.57329850e-02,
          -1.00301784e-02, -9.50849149e-03, -5.66872489e-03,
          -4.63262573e-03, -1.12041300e-02, -4.25633043e-03,
          3.38036014e-04, 9.50101111e-03, 8.98043159e-03,
          -9.74381063e-03, -9.36278701e-03, -7.34814955e-03,
          -5.43566048e-03, -8.90603755e-03, -5.46919997e-04,
          6.13796897e-03, 7.24643422e-03, 3.43274733e-04,
          -5.59419999e-03, -5.00529120e-03, -8.05839710e-03,
          -6.42211549e-03, 6.37377845e-04, 3.48080858e-03,
          6.40524039e-03, 4.89978259e-03, -3.24136228e-03,
          -1.75323412e-02, -7.18632014e-03, 1.38146915e-02,
          1.12494500e-02, 6.33694604e-03, -1.37648149e-03,
          -1.19095959e-03, -1.63620512e-03, -3.50580318e-03,
          -1.01459706e-02, -3.97334853e-03, 1.54560180e-02,
          6.00456353e-03, 3.04639386e-03, -1.55101385e-04,
          1.39947895e-06, -1.57544244e-04, -2.22818507e-03,
          -9.16766876e-04, -9.16766876e-04, 7.97913782e-03,
          1.87784419e-04, -8.29671771e-05, -1.38063013e-04,
          -1.03372608e-04, 9.85448060e-05, -3.26517597e-03,
          -3.01627908e-04, -4.81089437e-03, 2.89122225e-04,
          -1.77434558e-05, -7.25454765e-06, -2.42814840e-05,
          -1.17566393e-04, -5.20287394e-05, 8.29066057e-03,
          -1.90334249e-04, -7.94357155e-03, 5.91087562e-04,
          1.10355970e-04, 6.04921079e-05, 4.60503215e-05, 3.81066435e-04,
          1.56133331e-03, 1.10227093e-02, -4.66962287e-04,
          -1.49380295e-02, -2.38690595e-03, 2.98766856e-04,
          1.99677626e-04, 9.99877928e-04, 9.73092509e-04, 3.29543231e-03,
          1.87384877e-02, -1.51665008e-04, -1.51132308e-02,
          -4.73210021e-05, 1.08210510e-03, 6.16583857e-04,
          4.73249384e-04, 5.14331216e-04, 3.23780067e-03, 1.41540878e-02,
          -8.08486540e-04, -2.48488504e-03, 1.71497406e-04,
          1.03208906e-04, -1.45777803e-05, -2.76291452e-04,
          -8.66724527e-04, 2.83586467e-03, 4.34383610e-03,
          4.43760119e-03, -2.22995854e-03, -1.25514867e-03,
          -3.39164911e-03, -5.50349196e-03, -9.17533133e-03,
          -9.65374894e-03, -5.83025068e-03, 6.90000411e-03,
          1.72276441e-02, 6.10243471e-04, -4.82141739e-04,
          -6.30466407e-03, -1.39789116e-02, -1.44801484e-02,
          -1.37276687e-02, -2.85158260e-03, 1.58179607e-02,
          1.19232079e-02, 4.51042761e-05, -2.34148596e-04,
          -1.25867722e-03, -2.00642105e-02, -2.02286690e-02,
          -1.72726496e-03, 1.77616365e-02, 1.79517251e-02,
          -7.73401582e-04, -2.25791358e-03, -1.89528370e-03,
          -5.05743083e-03, -1.81919169e-02, -1.14075802e-02,
          5.95968682e-03, 1.22208567e-02, 1.32128894e-02,
          -8.07842333e-03, -3.69544770e-03, -2.01592874e-03,
          -2.88690114e-03, -7.66033307e-03, 5.51446341e-04,
          4.41589160e-03, 6.84527820e-03, -2.61084700e-04,
          -5.60639286e-03, -4.81590210e-03, -4.04750090e-03,
          -5.47978794e-03, -2.68007885e-03, 5.42384898e-03,
          5.64170536e-03, 1.83168240e-03, -6.92411000e-03,
          -8.18457734e-03, -9.25863534e-03, -1.01686791e-02,
          -8.23276583e-03, 8.80466541e-04, 7.69941555e-03,
          5.53003745e-03, -8.55497492e-04, -8.05893168e-03,
          -1.68765225e-02, -1.49147958e-02, 1.20354898e-03,
          1.05352011e-02, 1.47774592e-02, 7.09148636e-03,
          -1.18751358e-03, -1.83358719e-03, -4.58300719e-03,
          -2.02850029e-02, -9.25976969e-03, 1.32248132e-02,
          1.52818663e-02, 1.06107313e-02, 6.80095376e-03, 4.67199320e-03,
          3.09230498e-04, -3.60509660e-03, -7.14338757e-03,
          -5.86136989e-03, 1.41433841e-02, 4.14457126e-03,
          4.35236702e-03, 4.43961611e-03, 4.04786039e-03, 4.27231099e-03,
          -1.48003327e-03, -4.01179306e-03, -4.09599254e-03,
          5.64101338e-03, 1.93136779e-03, 4.18265257e-03, 2.72756978e-03,
          3.15007358e-03, 4.11500502e-03, 9.19051189e-03,
          -6.97591901e-03, -7.59027200e-03, 6.03792444e-03,
          2.75463588e-03, 5.38167870e-03, 4.73461999e-03, 6.94425870e-03,
          1.07815117e-02, 1.21933213e-02, -7.77981011e-03,
          -8.48916266e-03, 3.13292677e-03, 3.45819560e-03,
          6.00860687e-03, 7.93320034e-03, 8.30715988e-03, 1.01247765e-02,
          9.66883171e-03, -5.48677752e-03, -6.36996701e-03,
          -4.11311816e-03, 4.15590452e-03, 7.37111643e-03,
          5.12440782e-03, 5.63293183e-03, 9.23951529e-03, 8.88994802e-03,
          -4.16494580e-03, -6.92037819e-03, 1.74788258e-03,
          3.44114401e-03, 5.79762831e-03, 6.07619900e-03, 6.35391986e-03,
          1.04250675e-02, -1.52041874e-04, -5.32815291e-04,
          -1.08802160e-02, -9.06390045e-03, 8.69110867e-04,
          1.61604444e-03, 4.38717613e-03, 5.82738034e-03, 5.03176590e-03,
          6.71989145e-03, 9.22637712e-03, -6.08410966e-03,
          -9.22979135e-03, -6.35598041e-03, -3.86737636e-03,
          -2.20698956e-03, 4.90313489e-03, 1.23050213e-02,
          1.24879237e-02, 1.12175625e-02, 3.86892166e-03, 2.32972484e-03,
          -3.94935196e-04, -6.01674709e-03, -1.05037047e-02,
          6.96064788e-04, 4.16216394e-03, 1.16397422e-02,
          -3.54609382e-03, 7.39345269e-04, 2.96935253e-03,
          8.30556639e-03, 1.10505265e-03, -2.83551030e-03,
          9.41852981e-04, 4.99361719e-04, -7.01670488e-03,
          -1.31481066e-02, 1.15697645e-03, 1.56164833e-03,
          1.02706179e-02, 9.42023937e-03, 1.25917271e-02, 5.20176580e-03,
          -7.03340862e-03, -1.37783280e-02, -4.85900615e-04,
          9.03402548e-03, 7.85023533e-03, 8.32917541e-03, 8.66343640e-03,
          5.06249210e-03, -4.30654502e-04, -1.02637457e-02,
          -1.03499116e-02, -6.18489040e-03, -5.57654025e-03,
          -6.32625772e-03, 3.53497174e-03, 7.89539143e-03,
          5.42104989e-03, -4.66214260e-03, -8.41499679e-03,
          -9.47801303e-03, -1.39600718e-02, -1.38269579e-02,
          -3.08320159e-03, 8.36208463e-03, 1.53773427e-02,
          1.42723266e-02, 1.84248411e-03, -1.16294641e-02,
          -1.39543209e-02, -2.04170290e-02, -1.94578879e-02,
          2.19288748e-03, 7.53337052e-03, 1.00083835e-02, 1.53452083e-02,
          1.52524542e-02, 1.04144691e-02, -1.84215559e-03,
          -1.73143968e-02, -1.55434245e-02, 4.16653836e-03,
          2.50698929e-03, 4.74355789e-03, 8.35404638e-03, 1.39920237e-02,
          1.38822841e-02, 8.75306688e-03, -6.35246234e-03,
          -8.62726290e-03, -3.28600104e-03, 3.15000885e-03,
          2.26430316e-03, 1.87099460e-04, 6.20936975e-03, 1.23444442e-02,
          6.13163505e-03, -1.19073933e-03, -7.47083826e-03,
          -3.82833276e-03, 1.02487719e-03, 1.06005359e-03,
          1.35519449e-03, 4.11414634e-03, 4.13606549e-03, 2.89157336e-03,
          4.36612638e-03, 9.13368713e-04, -6.13336870e-03,
          -6.70336839e-03, -3.86770442e-03, -3.12612765e-03,
          4.13750205e-03, 7.65126524e-03, 7.72010023e-03, 5.31747472e-03,
          -2.01083836e-03, -2.76627252e-03, -2.06924742e-03,
          -3.09860753e-03, -4.51801531e-03, 1.74905383e-03,
          4.96216165e-03, 1.11761335e-02, -2.42286362e-03,
          -4.20702249e-03, -9.67848406e-04, -6.52442221e-04,
          1.87133928e-03, 6.90882187e-03, 3.77261755e-03, 7.11074937e-03,
          -9.85316728e-05, -6.94821076e-03, -6.67068688e-03,
          -1.89753075e-03, 9.74733848e-03, 8.10964964e-03,
          8.71532224e-03, 8.48368742e-03, 7.50728603e-03,
          -4.18516761e-03, 7.01855228e-04, -1.05766598e-02,
          -7.72503344e-03, 5.34136780e-03, 2.01129937e-03,
          6.04584720e-03, 1.07905304e-03, 6.54127728e-03, 8.41369014e-03,
          7.22839870e-03, 1.01678297e-02, 5.40779345e-03, 1.07901525e-02,
          -8.69238807e-04, -2.90121697e-03, -9.06163547e-03,
          -7.28360936e-03, -3.46897839e-04, -3.83571093e-03,
          1.26873516e-02, 1.33753410e-02, 1.45825222e-02, 9.40278918e-03,
          8.76242353e-04, -4.38748579e-03, -1.45817678e-02,
          -1.71471294e-02, -1.14845922e-02, 1.87096826e-03,
          1.16964439e-02, 1.63923912e-02, 1.52127752e-02, 2.33745654e-04,
          -3.60066886e-03, -1.46554476e-02, -1.61402803e-02,
          -2.34624464e-03, 3.20183998e-03, 4.33790917e-03,
          1.51933711e-02, 9.39458702e-03, -7.85722584e-03,
          -9.06473491e-03, -8.64476338e-03, -6.33626385e-03,
          -1.84264232e-03, -1.09968847e-03, -3.47950472e-03,
          1.26500335e-02, 5.45612257e-03, -8.23323987e-03,
          -1.08137205e-02, -9.46624950e-03, -4.55486635e-03,
          -1.46494582e-02, -1.44648189e-02, -3.09567130e-03,
          -1.68252341e-03, 7.49853300e-03, 1.21507822e-02,
          1.45678278e-02, 2.37045530e-03, -1.39247645e-02,
          -1.62912738e-02, -1.63304079e-02, -6.64470112e-03,
          -4.09040693e-03, -3.78727517e-03, 6.37260126e-03,
          1.40616717e-02, 1.28261084e-02, -4.81374422e-03,
          -1.22971190e-02, -1.27523802e-02, -5.83608495e-03,
          -6.26555504e-03, -4.61920956e-03, -5.54529624e-03,
          5.68779511e-03, 1.13723660e-02, 5.17050643e-03, 5.32395614e-04,
          -1.01808775e-02, -1.03932675e-02, -1.07236458e-02,
          -7.05911359e-03, -7.64691178e-03, -5.47254132e-03,
          8.94273445e-03, 9.92091466e-03, 6.94739446e-03,
          -7.32672494e-03, -9.50065441e-03, -8.36375635e-03,
          -1.12382732e-02, -9.07918345e-03, -1.05433185e-02,
          8.10147394e-05, 1.05754351e-02, 1.73221212e-02,
          -2.04148982e-03, -5.23083098e-03, -8.71294085e-03,
          -1.27576059e-02, -1.29011841e-02, -1.25364270e-02,
          -6.90677343e-03, 1.47135062e-02, 1.77925825e-02,
          3.58202565e-03, -2.47966789e-04, -4.38072253e-03,
          -8.42577405e-03, -1.32041648e-02, -1.28889000e-02,
          -1.06841410e-02, 6.88853022e-03, 7.92004727e-03,
          5.12366183e-03, 2.84138718e-04, -8.39809014e-04,
          -1.54065469e-03, -2.97423406e-03, -9.74601228e-03,
          -1.04285963e-02, 2.79385922e-03, 1.21560749e-02,
          6.37827069e-03, 2.18315312e-04, -2.57909502e-04,
          -5.58997155e-04, -9.38111637e-03, -1.09737916e-02,
          -7.94883538e-03, 2.57766293e-03, 1.65226888e-02,
          3.67380999e-05, -3.33770993e-03, -8.64601403e-04,
          -5.47409942e-03, -1.59067903e-02, -1.53836049e-02,
          -3.13728140e-03, 1.19839963e-02, 9.82811674e-03,
          5.17538656e-03, -1.13894483e-02, -7.63546349e-03,
          -3.71270766e-03, -3.76795535e-03, -6.84822584e-03,
          2.04037315e-05, 8.57204013e-03, 1.10333588e-03,
          -8.68658302e-04, 5.06613310e-03, -4.84054646e-04,
          3.65172309e-04, 1.35908660e-04, -1.87258629e-05,
          -1.85619388e-03, -7.26657035e-03, -1.15278494e-02,
          4.58075618e-03, 1.30256126e-02, 1.07521303e-02, 5.19095547e-03,
          -1.78300019e-03, 1.61953474e-04, -2.95167672e-03,
          -1.59851070e-02, -1.14927981e-02, -4.58037946e-03,
          4.96760663e-03, 1.04459813e-02, 2.12813099e-03,
          -6.82777306e-03, -2.26896978e-03, 2.59325432e-04,
          -5.45869628e-03, -4.11614962e-03, -7.15232594e-03,
          -6.17578917e-04, 5.92474081e-03, 2.04311498e-03,
          -1.09929480e-02, -3.97014571e-03, -2.71831383e-03,
          -1.34343118e-03, -1.03004808e-02, -1.05589116e-02,
          -9.57942568e-03, -9.47657228e-03, -7.91645609e-03,
          -3.16902506e-03, 1.10287825e-02, 9.63203516e-03,
          1.72875225e-04, -9.44178365e-03, -9.93960723e-03,
          -1.04324566e-02, -9.00053140e-03, -8.88767559e-03,
          -7.76193058e-03, 7.39244279e-04, 1.12988902e-02,
          9.68518294e-03, -6.65373914e-03, -6.95832446e-03,
          -7.17185624e-03, -8.35043937e-03, -9.02105775e-03,
          -9.88159608e-03, -1.01515390e-02, 9.76769999e-03,
          1.02634132e-02, 7.07013113e-03, -9.69622843e-03,
          -9.71982442e-03, -1.05602890e-02, -7.66087743e-03,
          -7.38153979e-03, -9.25745908e-03, 1.16932730e-04,
          9.97271668e-03, 8.19706265e-03, -9.04404838e-03,
          -9.81731899e-03, -1.03271129e-02, -8.88998900e-03,
          -8.49001762e-03, -1.08262636e-02, 2.72317295e-04,
          1.07069453e-02, 1.18476013e-02, -9.24989488e-03,
          -1.01961344e-02, -9.72973835e-03, -9.10419691e-03,
          -8.93117487e-03, -9.47411824e-03, -5.85492281e-03,
          1.05875190e-02, 1.08343912e-02, -5.00893826e-03,
          -5.27643180e-03, -6.37740688e-03, -5.55812195e-03,
          -5.51904272e-03, -1.02508785e-02, -1.35664605e-02,
          6.62794337e-03, 7.53921783e-03, -3.48188402e-03,
          -1.30752241e-03, -2.80980463e-03, -3.69074848e-03,
          -1.06740044e-02, -9.95507091e-03, -1.16265872e-02,
          6.55597076e-03, 1.68839116e-02, 4.55045869e-04,
          -7.98198453e-04, -1.87140284e-03, -4.23562573e-03,
          -1.57747883e-02, -1.55067574e-02, -1.35037834e-02,
          1.47497142e-02, 1.42898299e-02, -4.16037673e-03,
          -5.48521010e-03, -8.02805298e-04, -2.80572800e-03,
          -1.07774585e-02, -1.43688088e-02, -1.36682615e-02,
          1.16040241e-02, 1.77003741e-02, -6.70101075e-03,
          -1.61344390e-02, -9.55660548e-03, -5.37187036e-04,
          -3.74306575e-03, -3.77611467e-03, -3.80722666e-03,
          7.50350440e-03, 1.15345037e-02, 2.38123047e-03,
          -1.47322053e-02, -8.48388020e-03, -1.03019353e-04,
          -1.75658613e-04, 1.91790514e-05, -5.86181937e-04,
          -2.66477535e-03, 1.55749940e-03, 5.13087632e-03,
          5.99404983e-03, 1.59322785e-03, 6.89400942e-04,
          -3.84361978e-04, 1.48975405e-05, -2.67752376e-03,
          -1.43098310e-02, -1.46353152e-02, 5.90575626e-03,
          7.76667846e-03, 3.59308114e-03, 2.13598413e-03, 2.41408015e-05,
          -1.38155679e-04, -9.76188632e-04, -1.03738215e-02,
          -7.88936485e-03, -4.48875967e-03, 2.80840299e-03,
          4.82218293e-03, 6.49072323e-03, -4.80347691e-04,
          -2.21324991e-03, -4.26164921e-03, -5.26366103e-03,
          -2.26666732e-03, -3.93900229e-03, -6.33329386e-03,
          -7.11024599e-03, -6.64629368e-03, -7.06395041e-03,
          3.16080940e-03, 6.54230826e-03, 4.73627076e-03,
          -4.01132647e-03, -7.81734567e-03, -8.53414461e-03,
          -4.52069100e-03, -7.91890547e-03, -8.12278967e-03,
          -6.86243782e-03, 9.43994801e-03, 9.54137929e-03,
          3.05330916e-03, -5.30687114e-03, -6.31068880e-03,
          -7.27429520e-03, -1.09110689e-02, -8.29293579e-03,
          -7.88910594e-03, 3.92124988e-03, 7.50725111e-03,
          9.50926915e-03, -7.99650047e-03, -8.51405691e-03,
          -1.03225252e-02, -1.10551184e-02, -7.65865343e-03,
          -8.01963732e-03, -3.00746900e-03, 1.00115202e-02,
          9.25538968e-03, -1.04418723e-02, -8.75958614e-03,
          -1.11974254e-02, -1.02318646e-02, -5.48533117e-03,
          -9.64660943e-03, -2.70979502e-03, 1.05210301e-02,
          1.07116848e-02, -7.51291588e-03, -8.43522232e-03,
          -8.67832080e-03, -1.13772638e-02, -9.34021641e-03,
          -9.33145545e-03, -3.52390530e-03, 8.84006638e-03,
          1.02662239e-02, -6.04569959e-03, -6.65350677e-03,
          -7.34697701e-03, -9.02642775e-03, -9.98431258e-03,
          -1.12035405e-02, -7.93829281e-03, 1.18643781e-02,
          1.16402041e-02, -5.98302158e-03, -7.25306710e-03,
          -6.31445879e-03, -8.75083636e-03, -1.01774624e-02,
          -1.15232710e-02, -1.09427553e-02, 9.85524990e-03,
          1.55866873e-02, 2.42658702e-04, -4.47165268e-03,
          -4.47832095e-03, -5.39602293e-03, -9.51077789e-03,
          -1.25573818e-02, -1.30586885e-02, 8.11819453e-03,
          8.52927286e-03, -4.23743669e-03, -1.62349502e-03,
          -8.80307052e-04, -1.51615019e-03, -4.47109342e-03,
          -9.92772449e-03, -1.49535909e-02, 7.00077554e-03,
          6.75552152e-03, -4.92342515e-03, -1.25191370e-02,
          -1.82378013e-03, -1.12885551e-03, -7.60274241e-04,
          -2.67663412e-03, -5.34063205e-03, 1.48449885e-03,
          1.07228234e-02, -3.31435609e-03, -1.44029763e-02,
          -7.14399619e-03, -6.99285185e-03, -6.04241667e-03,
          -1.69019366e-03, -1.13216962e-03, 7.02742347e-03,
          7.80631555e-03, 6.42671948e-03, -7.39641115e-03,
          -7.86128081e-03, -8.98832828e-03, -7.01818615e-03,
          -5.56797208e-03, -6.98761595e-03, -3.59441945e-03,
          3.61482520e-03, 3.16188438e-03, 4.53892164e-03,
          -5.69601543e-03, -6.57462329e-03, -2.78270734e-03,
          -3.89250391e-03, -3.72736831e-03, -4.15051542e-03,
          -3.10912984e-03, 4.79746930e-04, 1.98507519e-03,
          3.96464812e-03, -4.75099590e-03, -2.02112715e-03,
          -1.95645145e-03, 1.06394745e-03, -2.40641949e-03 ]
      - [ -6.02909084e-03, 3.61293997e-03, 3.62016680e-03,
          -4.63099591e-03, -3.81606328e-03, 9.75860021e-05,
          1.03238504e-04, -2.24884170e-05, -4.73245652e-03,
          5.44374401e-04, 7.58471293e-03, 5.97216189e-03,
          -3.47283960e-04, -6.66380278e-04, 2.32818456e-05,
          -1.32496178e-04, -5.35226660e-04, -1.71524920e-02,
          4.75136767e-04, 1.15692439e-02, -5.21315669e-04,
          -8.01581245e-06, -3.37610231e-06, 3.14270401e-05,
          -6.36083787e-05, -2.73879006e-04, -1.32986531e-02,
          -3.63339466e-04, 1.07655311e-02, -3.46534071e-04,
          1.19111028e-05, -2.62139492e-05, 0., -2.26933320e-04,
          -5.02719451e-03, -4.56105219e-03, 6.53779972e-03,
          5.44868177e-03, -2.46318901e-04, 0., -3.59328813e-04,
          -5.21478360e-05, -8.69370764e-04, -1.28387520e-02,
          -1.17296434e-03, 1.95768587e-02, 3.89871583e-03,
          3.66664281e-05, -1.00489333e-05, -7.53196946e-04,
          -1.06520327e-02, -1.66130643e-02, -1.55009534e-02,
          6.16373401e-03, 2.01917794e-02, 2.28214171e-03,
          -1.01835211e-03, -1.56752544e-03, -7.98529759e-03,
          -1.85469799e-02, -1.85053106e-02, -1.11118145e-02,
          1.80319212e-02, 1.13083841e-02, -7.88030773e-03,
          -9.26183537e-03, -7.78356986e-03, -1.07471030e-02,
          -1.13975080e-02, -1.04558300e-02, -6.82234997e-03,
          1.05654504e-02, 9.66080930e-03, -1.14541333e-02,
          -1.03616454e-02, -9.67243128e-03, -1.07609862e-02,
          -8.33177101e-03, -8.74852296e-03, -2.63473811e-03,
          1.17612146e-02, 9.37033258e-03, -1.07719526e-02,
          -1.19454898e-02, -1.01240110e-02, -1.11111272e-02,
          -6.46639569e-03, -7.42376829e-03, -3.03919800e-03,
          1.23780770e-02, 4.98787779e-03, -9.29168798e-03,
          -7.65864039e-03, -9.27542616e-03, -8.87458306e-03,
          -8.75051226e-03, -9.24417097e-03, 3.16679408e-03,
          9.58495308e-03, -1.86896091e-03, -1.09026227e-02,
          -1.13003338e-02, -1.35180689e-02, -1.26523450e-02,
          -9.80357826e-03, -4.08313936e-03, 1.49683775e-02,
          1.33124348e-02, 2.90736964e-04, -4.67729289e-03,
          -1.54620046e-02, -1.74594540e-02, -1.66027509e-02,
          -4.67833743e-04, 1.30674271e-02, 1.90390199e-02,
          1.88722480e-02, -7.79101485e-03, -1.12697920e-02,
          -1.32481279e-02, -1.38838356e-02, -9.69221443e-03,
          3.24651506e-03, 1.54681122e-02, 1.22872945e-02, 1.52678240e-05,
          8.70876305e-04, 1.52631709e-03, 7.17782357e-04,
          -6.37870841e-03, -6.83861924e-03, -3.27544939e-03,
          2.39146198e-03, 6.96500065e-03, 5.08443569e-04, 2.08903250e-04,
          1.02643808e-02, 6.74551353e-03, -3.10758618e-03,
          -1.23348907e-02, -9.32810945e-04, -2.51299149e-04,
          -7.63068747e-05, -7.74133718e-04, 3.23293119e-04,
          2.61413516e-03, 1.65442307e-03, -4.66629863e-03,
          -3.53720970e-03, -6.60529331e-05, -2.37584914e-04,
          -5.99188243e-05, -3.14236316e-03, 4.32393467e-03,
          4.95736860e-03, -2.36759987e-03, -2.47719092e-03,
          -6.19578233e-04, 2.22426181e-07, -2.66985997e-04,
          -1.44027255e-03, -1.53418910e-02, 1.49484549e-03,
          1.65057909e-02, 3.07862647e-04, 2.52882346e-05,
          -5.02505172e-05, -9.87840467e-04, -3.45641281e-03,
          -1.31462654e-02, -4.51926468e-03, 1.80979706e-02,
          1.17676938e-02, 4.51326952e-04, 9.16177814e-05,
          -4.31883585e-04, -1.21216802e-02, -1.52737452e-02,
          -1.35419993e-02, -5.35145984e-04, 2.05785241e-02,
          6.49152929e-03, -1.03651682e-05, 7.86351229e-05,
          -1.33666527e-02, -1.77681502e-02, -1.74364336e-02,
          -3.39360745e-03, 1.90417431e-02, 2.09674891e-02,
          6.03077700e-03, 2.50598387e-04, -1.11470014e-04,
          -1.98360160e-02, -1.98611636e-02, -9.29859374e-03,
          2.35644006e-03, 2.08554007e-02, 1.62304491e-02,
          -3.81432124e-04, -7.99717288e-03, -8.56341608e-03,
          -1.53206531e-02, -1.55943623e-02, -8.94537382e-03,
          -1.89272338e-03, 1.43013215e-02, 8.16523377e-03,
          -1.02146482e-02, -9.20592248e-03, -1.02415644e-02,
          -9.72751062e-03, -8.38472228e-03, -7.05375988e-03,
          -2.40205161e-04, 1.07998876e-02, 7.18702842e-03,
          -9.53938439e-03, -9.89121664e-03, -7.85905030e-03,
          -7.77054531e-03, -6.97027519e-03, -9.92442854e-03,
          -1.84084941e-03, 1.02126114e-02, 5.37942583e-03,
          -8.56359676e-03, -8.36447161e-03, -7.57993525e-03,
          -9.74867772e-03, -1.13560539e-02, -7.94462953e-03,
          6.16086973e-03, 7.80156394e-03, -5.95825072e-03,
          -7.67640211e-03, -1.08877774e-02, -1.44627765e-02,
          -1.42659852e-02, -4.30372683e-03, 9.90412198e-03,
          1.15316343e-02, 9.40527581e-03, 7.42548786e-04, 4.09972901e-03,
          1.42974756e-03, -1.75359938e-02, -1.65111069e-02,
          9.47973784e-03, 1.44232279e-02, 1.59995370e-02, 5.27914893e-03,
          9.71049245e-04, 4.36336733e-03, 1.00546132e-03,
          -1.84913576e-02, -1.43779153e-02, 5.22419158e-03,
          1.66931711e-02, 1.39217610e-02, 3.33625334e-03, 1.71914653e-04,
          4.97829096e-05, -6.42152503e-04, -1.93523448e-02,
          -7.07978848e-03, 1.00106467e-02, 1.37075298e-02,
          9.75659396e-03, 8.31253536e-04, 2.98784494e-06, 1.92763226e-03,
          9.30906460e-03, -2.43695313e-03, -1.87290984e-03,
          -1.77039730e-03, 3.12442535e-05, -7.67042366e-05,
          -5.38798522e-05, -5.18191606e-04, 5.85944904e-03,
          8.22984090e-04, -1.88767666e-03, -4.67447890e-03,
          6.59681763e-03, 2.12744297e-03, 1.38951087e-04,
          -8.69611358e-06, 2.62424187e-03, 2.87347520e-03,
          2.37269420e-03, -6.22828398e-03, -1.00180192e-03,
          2.49404227e-03, 1.01427524e-03, -2.71593430e-03,
          -8.09764024e-03, 2.66134413e-03, 1.27226943e-02,
          6.76241191e-03, 1.68600015e-03, -1.35213975e-03,
          -8.11057072e-03, -7.27468310e-03, -7.25419121e-03,
          -1.60579628e-03, 1.38372853e-02, 1.16414195e-02,
          6.39985874e-03, 2.64980178e-03, -7.65274512e-03,
          -8.92649312e-03, -9.39667691e-03, 2.84621213e-03,
          1.08106621e-02, 1.23556256e-02, 1.19600212e-02, 7.60405604e-03,
          6.54648896e-03, -1.11364741e-02, -1.22275818e-02,
          -1.05500745e-03, 1.07071707e-02, 1.15261590e-02,
          1.26609961e-02, 1.06137404e-02, 8.93017650e-03, 4.87828953e-03,
          -1.10587478e-02, -1.28550855e-02, 2.59038573e-03,
          1.00161843e-02, 1.25470720e-02, 7.62321055e-03, 6.37009973e-03,
          4.23366297e-03, 8.15309701e-04, -6.61318377e-03,
          -9.37917829e-03, -4.76742163e-03, 6.73822826e-03,
          8.03428516e-03, 2.09793658e-03, -4.77474788e-03,
          -2.78716534e-03, 1.70225080e-03, 5.35919469e-07,
          -1.28480408e-03, 1.20725483e-03, 1.30313251e-03,
          1.53687759e-03, 3.63350124e-03, -8.64692905e-04,
          -1.74256321e-03, -9.32144118e-04, -2.48547434e-03,
          -3.77880200e-03, -3.98933515e-03, 2.14364054e-03,
          4.93790815e-03, 4.79959184e-03, -2.72962381e-03,
          -2.44554086e-03, -4.77757817e-03, -2.64225597e-03,
          -5.60551835e-03, 2.65456969e-03, 1.99433533e-03,
          2.18137959e-03, -2.47922423e-03, -5.57935517e-03,
          -1.30754504e-02, -6.55158237e-03, -4.30050073e-03,
          8.12586024e-03, 1.15059642e-02, 1.08577646e-02, 3.32795014e-03,
          1.22057914e-03, 1.11151033e-03, -1.39394747e-02,
          -6.59715105e-03, -3.37718427e-03, 1.63390040e-02,
          1.30791618e-02, 4.83482191e-03, 2.43225601e-03, 6.42672693e-03,
          7.47676753e-03, -1.77325215e-03, -1.30720967e-02,
          -6.18219282e-03, 1.22441044e-02, 1.11120781e-02,
          8.18969775e-03, 7.17157172e-03, 2.70346791e-04, 3.69366637e-04,
          -7.61346146e-03, -1.03134159e-02, -1.07287627e-03,
          1.72120966e-02, 6.35197805e-03, 1.45497720e-03, 2.53397971e-04,
          8.02321956e-05, 2.11218285e-04, 5.21489244e-04,
          -8.60790629e-03, -2.65852176e-03, 5.13652992e-03,
          1.18077258e-02, 5.22041635e-04, 6.23524902e-05,
          -6.22196676e-05, 6.99566561e-04, 2.97465525e-03,
          -1.20127322e-02, -7.24176457e-03, 5.67888329e-03,
          1.59169193e-02, 8.59063305e-03, 2.50637939e-04,
          -1.61698961e-03, -2.37657296e-04, 2.05716351e-04,
          -7.81034771e-03, -8.66449717e-03, -2.13566422e-03,
          7.84711260e-03, 9.46089439e-03, 5.63450437e-03, 6.36105193e-03,
          5.57156978e-03, 1.39625557e-03, -3.32786841e-03,
          -9.24091786e-03, -1.17462557e-02, -5.06996782e-03,
          4.16368106e-03, 7.75170838e-03, 1.38169955e-02, 9.52859502e-03,
          6.35267794e-03, -1.96651276e-03, -1.39879212e-02,
          -1.48412939e-02, -3.66809807e-04, 1.26335928e-02,
          1.38554648e-02, 1.34450858e-02, 9.02994629e-03, 6.62782043e-03,
          5.90465823e-03, -1.10208970e-02, -1.20120682e-02,
          -3.45358672e-03, 1.28102116e-02, 1.33447926e-02,
          1.16646299e-02, 1.04108080e-02, 1.00705167e-02, 9.49650817e-03,
          6.37201767e-04, -1.37185296e-02, -1.06532136e-02,
          6.94978284e-03, 1.21455425e-02, 1.09083513e-02, 1.02622388e-02,
          8.80213734e-03, 6.29594177e-03, 3.34029691e-03,
          -1.02465432e-02, -1.06561799e-02, -3.48497857e-03,
          8.98032263e-03, -9.35911812e-05, 1.16111839e-03,
          3.04214889e-03, 5.65288123e-03, 1.94530527e-03, 7.51178712e-04,
          -1.73880160e-03, -2.88636610e-03, -2.35040067e-03,
          4.63921227e-04, -4.04336164e-03, -2.27670046e-03,
          5.00060734e-04, 4.15375363e-03, 1.67197024e-03,
          -1.47504942e-03, -1.52298866e-03, 1.19029637e-03,
          -1.06768659e-03, -3.20992171e-04, -1.19131210e-03,
          2.92320456e-03, 4.18830523e-03, -3.91201291e-04,
          1.48622566e-04, -2.34348467e-03, 4.65816556e-04,
          2.99254269e-03, 3.97015065e-05, -3.83237144e-03,
          -1.97423995e-03, 9.04303882e-03, 3.48847639e-03,
          1.87606912e-03, 1.89626263e-03, 4.59155155e-04, 2.13492152e-04,
          2.12910541e-04, -6.05898909e-03, -4.16984595e-03,
          1.57482140e-02, 4.51398874e-03, 1.30943255e-03, 2.06516968e-04,
          1.94632681e-04, 3.92848114e-03, 2.33231997e-03,
          -1.37771722e-02, -1.88236916e-03, 1.17463525e-02,
          3.01169092e-03, 1.78916112e-03, 2.01910175e-03, 2.50687567e-03,
          -3.69906093e-06, -3.83554609e-04, -1.58883128e-02,
          2.11230654e-04, 1.06702186e-02, 3.58002260e-03, 1.56109303e-03,
          2.07216639e-04, 2.07512159e-04, -1.25194492e-03,
          -4.64404497e-04, -1.42317009e-03, -1.30504062e-02,
          -7.09372992e-03, 1.82573847e-03, 1.20799439e-02,
          6.84687356e-03, -1.45440223e-03, -5.89085219e-04,
          -9.54190968e-04, -2.53421348e-03, -1.45586431e-02,
          -2.16787774e-02, 1.62215100e-03, 1.80790368e-02,
          1.82005502e-02, 5.40459901e-03, -4.42224741e-03,
          -7.01404829e-03, -7.28393998e-03, -1.16264410e-02,
          -1.44574875e-02, -1.33887678e-02, 4.84661153e-03,
          1.26575017e-02, 1.18567748e-02, 4.44650184e-03,
          -7.71224638e-03, -7.17171840e-03, -7.38252234e-03,
          -1.07846893e-02, -8.89374968e-03, -1.09873209e-02,
          5.70173748e-03, 7.32943090e-03, 1.62774045e-02, 1.44817727e-03,
          -1.18211610e-03, -4.52453550e-03, -1.15359183e-02,
          -1.76583529e-02, -1.70150958e-02, 1.27460621e-03,
          1.69037040e-02, 2.03235615e-02, 3.67180980e-03, 2.01931281e-04,
          -4.53945941e-05, -3.07320827e-03, -1.97899435e-02,
          -1.85166206e-02, -2.06918153e-03, 2.02784073e-02,
          2.10619159e-02, 3.82877863e-03, 2.82605004e-04, 2.51047837e-04,
          -1.24148955e-03, -1.42609756e-02, -1.79122128e-02,
          -1.48385400e-02, 2.00802181e-02, 2.07842197e-02,
          5.46199176e-03, 5.56248706e-04, 1.66854079e-04,
          -9.66607258e-05, -2.32355553e-03, -1.97041277e-02,
          -1.51170706e-02, 1.12935752e-02, 8.80645029e-03,
          5.26566012e-03, 3.23794346e-04, 2.41190195e-04, 8.08343611e-06,
          4.14396818e-05, -7.47056585e-03, -1.27266869e-02,
          2.01561069e-03, 2.99739884e-04, -2.17048475e-03,
          -4.66354046e-04, 8.49236858e-06, 3.05387766e-05,
          1.29634966e-04, 3.45785404e-04, -8.17911001e-04,
          -1.11864341e-04, -3.75539501e-04, -3.66949080e-03,
          -3.27754160e-03, 3.10303963e-04, 1.23473990e-04,
          1.03422899e-04, 2.56444619e-04, 2.03734773e-04, 7.34766200e-03,
          7.47673633e-03, -2.14113318e-03, -2.51839822e-03,
          -2.20024187e-04, 4.17277566e-04, 3.68375686e-06,
          -6.25387702e-06, -3.56655983e-05, 7.84738455e-04,
          2.78236577e-03, -1.13922253e-03, -1.17014465e-03,
          1.78595947e-03, 3.06499028e-03, 3.29289760e-04, 2.93426565e-04,
          9.18310907e-05, 1.10963616e-03, 1.20107725e-03, 1.12636935e-03,
          -3.11209843e-03, 1.00947591e-03, 5.37494151e-03,
          2.20506321e-04, 4.03956947e-04, 5.93133271e-04, 1.59825361e-03,
          -3.81583953e-03, -5.33600431e-03, -2.10533082e-03,
          8.38689390e-04, 6.03737682e-03, -5.37822081e-04,
          -6.05839421e-04, -1.17471849e-03, -1.92633027e-03,
          -1.06634116e-02, -8.20354186e-03, -7.52415974e-03,
          -6.56616874e-03, -6.35958696e-03, -2.30886322e-03,
          8.37226491e-03, 7.30551966e-03, -3.09599144e-03,
          -5.44952974e-03, -9.99359228e-03, -1.46720167e-02,
          -1.53257912e-02, -1.48408823e-02, -2.87935860e-03,
          1.08697256e-02, 1.88090038e-02, 1.45986881e-02, 1.21645979e-04,
          -8.92054662e-03, -1.14919227e-02, -1.29452124e-02,
          -1.27964523e-02, -9.89179872e-03, -7.39307515e-03,
          1.34042921e-02, 1.41801564e-02, 1.10290451e-02,
          -9.42593161e-03, -1.01604825e-02, -9.97738354e-03,
          -1.01520363e-02, -9.11237393e-03, -9.73583292e-03,
          -1.20613805e-03, 1.05828093e-02, 1.35123460e-02,
          -5.12994546e-03, -6.31349115e-03, -4.33149049e-03,
          -9.33050178e-03, -1.16609642e-02, -1.42598478e-02,
          -5.39708138e-03, 1.08183455e-02, 2.02939697e-02,
          1.08070986e-03, 1.58507421e-04, -3.30163632e-04,
          -6.45060383e-04, -1.07540973e-02, -1.94485113e-02,
          -1.46307778e-02, 1.75520070e-02, 2.14866884e-02,
          1.24641950e-03, 6.49295864e-04, 3.67634027e-04, 1.68203274e-04,
          -1.48638594e-03, -2.04243623e-02, -1.84353273e-02,
          1.51961697e-02, 1.99551824e-02, 3.57380864e-04,
          -3.39683320e-05, 0., -2.55021063e-04, -1.60190524e-04,
          -1.02954544e-02, -2.08355263e-02, 3.50452820e-03,
          3.98260867e-03, 1.01056765e-03, -1.24069615e-04, 0.,
          -4.35500726e-04, 0., -1.38490845e-03, -1.49547737e-02,
          2.75539095e-03, -7.96021993e-07, 3.80807294e-04,
          -9.87954772e-05, 0., -2.79578933e-04, 0., -1.21218218e-04,
          -4.43671364e-04, 8.76069244e-05, 2.05962895e-03,
          -1.06758019e-02, -7.99165689e-04, 0., -3.56471719e-04, 0.,
          -2.38751963e-04, -5.72826102e-05, 5.77174127e-03,
          7.94118852e-04, -1.80775963e-03, -3.23614152e-03,
          2.74069043e-05, -3.39323131e-04, 8.04882893e-06,
          -1.04848063e-04, 2.43639693e-06, 6.02030614e-03,
          1.14557231e-02, 1.41139390e-04, -1.12870047e-02,
          -1.96310459e-03, 3.45363980e-04, -7.43880764e-06,
          1.48620384e-04, 7.10009626e-05, 1.81860791e-03, 2.55972077e-03,
          1.55999651e-03, 7.14253401e-04, -4.99037001e-03,
          -1.93055355e-04, -1.14207284e-03, -9.49160138e-04,
          -1.17817614e-03, -8.77141429e-04, -5.75700356e-03,
          3.68189765e-03, 3.33723775e-03, 4.28548967e-03,
          -1.19694392e-03, -2.52386439e-03, -4.08392400e-03,
          -7.00056320e-03, -5.01555204e-03, -6.16056938e-03,
          -9.03607812e-03, -7.77372718e-03, -3.59242229e-04,
          -1.76761998e-03, 3.19165038e-03, 7.09115341e-03,
          4.05340549e-03, 1.85837736e-03, -5.65643236e-03,
          -1.27875824e-02, -1.34116560e-02, -1.04702376e-02,
          -6.94079977e-03, -3.30479257e-03, -8.61702836e-04,
          1.49649261e-02, 1.16099166e-02, 7.06874719e-03,
          -9.45227034e-03, -9.66748688e-03, -8.49505607e-03,
          -1.02752624e-02, -9.19389725e-03, -1.04138227e-02,
          1.09788566e-03, 1.14000291e-02, 9.53071937e-03,
          -9.39531531e-03, -8.62440094e-03, -7.32373493e-03,
          -9.41659138e-03, -7.21468916e-03, -1.07296929e-02,
          -6.90307142e-03, 1.07896756e-02, 1.07761677e-02,
          -8.86069704e-03, -7.82181229e-03, -7.82233849e-03,
          -1.14097875e-02, -8.00505280e-03, -9.80477873e-03,
          -6.06594468e-03, 1.02748573e-02, 1.43446326e-02,
          -5.76196890e-03, -7.06830435e-03, -5.61811542e-03,
          -7.37018837e-03, -1.04630897e-02, -1.38508128e-02,
          -6.71010138e-03, 9.52292327e-03, 1.67433750e-02,
          -2.55331839e-03, -1.34012988e-03, -1.40304712e-03,
          -3.66094685e-03, -4.86973114e-03, -1.50620043e-02,
          -1.40397539e-02, 5.16323745e-03, 1.56146167e-02,
          1.88873470e-04, -6.29919406e-04, -1.72585511e-04,
          -1.72423490e-04, -8.65178081e-05, -1.94435194e-03,
          -2.04789881e-02, 6.52170915e-04, 4.31104284e-03,
          2.18849443e-03, 3.78122386e-05, 2.14453007e-06, 2.00851937e-05,
          0., -7.28004525e-05, -1.31338835e-02, 7.47699989e-04,
          5.69020085e-05, -5.59508160e-04, -1.40551838e-05,
          6.00772091e-06, -2.19187685e-04, 0., -1.94856311e-05,
          -9.22602310e-04, 5.69020085e-05, 1.58581580e-03,
          -5.92121622e-03, -1.21367513e-03, -9.13087842e-06,
          -1.46027771e-04, -9.43133182e-06, 5.04550644e-06,
          1.74281377e-04, 2.34538876e-03, 5.01224713e-04,
          -6.57342421e-03, -3.08757043e-03, -4.25611506e-04,
          -3.65253771e-04, -1.34799440e-04, -5.88556213e-05,
          3.31580581e-04, 1.19751161e-02, 3.39580071e-03, 1.67707494e-03,
          -1.05424942e-02, -1.06747099e-03, -9.32587020e-04,
          -1.43328204e-03, -1.49001996e-03, -1.82793138e-03,
          1.91548397e-03, 6.19413611e-03, 3.70912813e-03, 1.70992373e-03,
          -5.53594716e-03, -5.19802189e-03, -4.62917704e-03,
          -5.33093279e-03, -5.44411084e-03, 2.48655764e-04,
          -3.38712736e-04, 1.41717819e-03, 9.26008972e-04,
          3.04176530e-04, -2.22257478e-03, -2.14055576e-03,
          -3.60720704e-04, 1.12946343e-03, -3.59822367e-03 ]
      - [ -2.36098887e-03, 1.18158376e-02, 1.33232754e-02,
          -1.30125193e-03, -1.18413456e-02, -1.65538713e-02,
          -1.36528006e-02, -1.25587890e-02, -1.29578831e-02,
          9.42809042e-03, 8.98060016e-03, -2.49725854e-04,
          -9.90686938e-03, -1.08238757e-02, -1.32524036e-02,
          -1.08543867e-02, -1.05393985e-02, -7.53982598e-03,
          1.19476905e-03, 1.19476905e-03, -5.79664484e-03,
          -3.34568159e-03, -3.18198861e-03, -1.99546106e-03,
          -1.66822539e-03, -3.61928809e-03, 7.20892276e-04,
          -1.80961564e-04, -1.14229182e-02, -5.81251318e-03,
          -1.81363465e-03, -2.90127704e-04, -4.07060375e-04,
          -3.67713306e-04, -2.13108127e-04, 1.91834811e-02,
          1.06461730e-03, -2.23971754e-02, -4.12778324e-03,
          -2.88379466e-04, -4.75865701e-04, -1.19370452e-04,
          -1.69309671e-04, -2.84324895e-04, 2.35700831e-02,
          3.54486355e-03, -2.29210220e-02, -1.39381103e-02,
          -1.07598596e-03, -3.86558659e-03, -8.88297276e-04,
          -6.47337874e-04, 1.87620497e-03, 2.48567164e-02,
          5.63809462e-03, -1.93918925e-02, -1.40494881e-02,
          -1.38669845e-03, -5.38725220e-03, -4.05456434e-04,
          -1.02090521e-03, 2.27939759e-04, 1.08326394e-02,
          6.29833480e-03, -2.19606720e-02, -1.45563800e-02,
          -3.89111927e-04, -9.23972810e-04, 0., -2.12404397e-04,
          2.08208431e-03, 8.26724246e-03, -1.42582910e-04,
          -1.43218767e-02, -7.83525291e-04, -4.76045307e-06,
          -2.18128116e-04, 9.54829466e-06, 4.23957768e-04,
          4.72009135e-03, 3.32095567e-03, 3.40433768e-03, 4.23197926e-04,
          5.51007033e-05, 0., -5.68769115e-04, 3.19836137e-04,
          7.62968994e-05, -7.32575543e-03, 2.06555193e-03,
          1.25185102e-02, 1.53803208e-04, -3.37858473e-05,
          1.89894763e-05, -1.10677164e-03, 4.55670001e-04,
          1.84838165e-04, -7.47703435e-03, -7.75760680e-04,
          4.53382917e-03, -1.12635273e-04, -9.66349762e-05,
          1.38508658e-05, -3.34291435e-05, 1.05539955e-04,
          -4.22014482e-03, -1.00640068e-03, 1.20965217e-03,
          4.78980044e-04, 3.30147363e-04, 3.57679848e-04, 6.34342141e-04,
          1.10799656e-03, 2.34599598e-03, -1.14288656e-02,
          -2.35432549e-03, 1.57498810e-02, -4.18003788e-03,
          -2.52581784e-03, -2.39054766e-03, -2.36159610e-03,
          -2.41947314e-03, -3.69801931e-03, 5.65583585e-04,
          5.65583585e-04, 4.85963048e-03, -9.69983358e-03,
          -9.59579833e-03, -8.44263751e-03, -6.21839426e-03,
          -5.57937333e-03, 2.69189151e-03, 9.13767982e-03,
          1.04388138e-02, -3.65678617e-03, -1.91656668e-02,
          -4.61332314e-03, 7.32409488e-03, 1.70536637e-02,
          5.37834875e-03, -6.04580995e-03, -6.85173739e-03,
          -7.18187680e-03, -8.14569276e-03, -7.07508670e-03,
          -3.23148165e-03, 1.14342035e-03, 1.21814366e-02,
          4.66876570e-03, -8.86402500e-04, -6.78260811e-04,
          -1.19435810e-03, -2.51087011e-03, 8.63700465e-04,
          -1.97916082e-03, 2.80353380e-03, 1.12575945e-03,
          -5.94587582e-05, -5.47719465e-05, -2.18473579e-04,
          -1.07580730e-04, 7.15321919e-04, -9.90771223e-04,
          -6.24556793e-03, -3.46749206e-03, -1.55150447e-05,
          -1.73140754e-04, -4.44492616e-05, -2.64004746e-04,
          5.22835297e-04, 1.11232344e-02, 7.39807310e-03,
          -3.47665697e-03, -1.69570849e-03, -6.51347291e-05,
          -4.07317188e-03, -4.26182058e-03, -8.23687855e-03,
          -1.16192140e-02, 1.03657413e-03, 1.21192439e-02,
          -4.46405588e-03, -1.05409622e-02, -3.87482136e-03,
          -1.82178784e-02, -6.38705213e-03, -1.34544186e-02,
          -9.01877787e-03, 1.41517362e-02, 2.76057497e-02,
          -1.54264562e-03, -2.62811836e-02, -2.61209682e-02,
          -1.45839565e-02, -3.63132567e-04, -2.95584672e-04,
          4.54733521e-03, 2.84764171e-02, 9.47493780e-03,
          -1.46439699e-02, -2.23204903e-02, -1.83613654e-02,
          -2.66089657e-04, 1.37212017e-04, 3.87171545e-04,
          7.50439800e-03, 2.69962437e-02, 2.26454786e-03,
          -1.92173347e-02, -5.45765692e-03, -8.59392283e-04,
          3.19611689e-04, -3.12225573e-04, 1.33265014e-04,
          4.70533734e-03, 5.74435061e-03, 6.29597437e-03,
          -1.33341597e-03, 1.83748343e-04, 1.65999591e-04,
          3.90721339e-04, 6.88231026e-04, -2.01866816e-04,
          -9.74742603e-03, 2.11983384e-03, 1.54111851e-02,
          8.99338775e-05, 1.09007793e-04, 5.64867696e-05, 1.04435327e-04,
          -2.75081780e-04, -3.94912111e-03, -2.84578651e-03,
          -2.84578651e-03, 4.52069798e-04, -6.75207630e-05,
          -1.15883318e-04, 8.40552104e-07, 2.96514118e-05,
          6.21844828e-03, -3.70239140e-03, -2.18253327e-03,
          6.18328620e-03, 1.25999423e-03, 6.50183484e-03, 6.91850670e-03,
          5.01280138e-03, 5.29517047e-03, -2.37512263e-03,
          -6.59975549e-03, -3.49319447e-03, 5.94979757e-03,
          2.11028731e-03, 6.98022218e-03, 7.63928099e-03, 2.87757628e-03,
          5.67021361e-03, -1.34762619e-02, -5.46990894e-03,
          1.05935410e-02, 4.98834532e-03, -5.00687072e-03,
          -4.66896407e-03, -5.12902951e-03, -4.63103084e-03,
          1.80829561e-03, 1.54606052e-04, -2.61165458e-03,
          6.19924581e-03, -2.81493808e-03, -1.50421718e-02,
          -2.38997433e-02, -1.19891232e-02, 1.77991185e-02,
          2.33875513e-02, 1.23185124e-02, -1.28402212e-03,
          -2.58344947e-03, -3.32891499e-03, -2.22267509e-02,
          -1.50294965e-02, -1.87451032e-03, 2.34351326e-02,
          1.83040760e-02, 1.04784276e-02, 5.34554617e-03, 1.97179441e-04,
          -1.35182415e-03, -5.63223241e-03, -7.76752410e-03,
          2.33829650e-03, 9.39328782e-03, 9.68689378e-03, 6.88299071e-03,
          6.00251276e-03, 5.50790597e-03, 2.94001703e-03,
          -3.12028197e-03, -3.23942187e-03, 7.16354745e-03,
          4.07232717e-03, 6.42005680e-03, 2.48937140e-04, 3.61757074e-03,
          3.50566534e-03, -3.57345743e-06, 3.71283153e-03,
          1.14339581e-02, 9.19093378e-03, 3.82061396e-03,
          -5.15018031e-03, -8.84475280e-03, -7.33100623e-03,
          -6.80133744e-05, 2.43726303e-03, 1.52679076e-02,
          1.59793701e-02, 8.48498195e-03, 7.00901914e-03,
          -1.38641046e-02, -1.30637474e-02, -5.55943698e-03,
          6.67216862e-03, 1.26408003e-02, 1.79796536e-02, 1.55315688e-02,
          -7.81209557e-04, -1.74222644e-02, -1.39392298e-02,
