%YAML:1.0
---
opencv_ml_svm:
   format: 3
   svmType: C_SVC
   kernel:
      type: LINEAR
   C: 1.5000000000000000e+00
   term_criteria: { iterations:10000000 }
   var_count: 945
   class_count: 11
   class_labels: !!opencv-matrix
      rows: 11
      cols: 1
      dt: i
      data: [ 47, 48, 49, 50, 51, 52, 53, 54, 55, 56, 57 ]
   sv_total: 55
   support_vectors:
      - [ 1.64013240e-03, -1.12642562e-02, -8.32287129e-03,
          -5.66177676e-03, -1.85362343e-03, 7.55598070e-03,
          1.06319673e-02, 1.02873379e-02, 7.31793046e-03,
          -7.91141856e-03, -5.64093702e-03, -1.25191081e-03,
          3.90618201e-03, 1.20656257e-02, 6.46441570e-03, 1.16715878e-02,
          1.18363062e-02, -8.09482299e-03, -8.51683225e-03,
          -1.94980146e-03, 1.02337059e-02, 1.09140743e-02,
          9.33489203e-03, 3.99822276e-03, 9.78131965e-03, 5.98615827e-03,
          -8.00255220e-03, -9.55274794e-03, 3.59109160e-03,
          2.78519816e-03, 9.18021612e-03, 1.10594435e-02, 8.71404167e-03,
          1.22617884e-02, 9.99183208e-03, -9.55274794e-03,
          -1.28187127e-02, 3.19465157e-03, 5.20724757e-03,
          9.93998442e-03, 1.30113438e-02, 1.34685151e-02, 1.34770349e-02,
          7.23933335e-03, -1.38034141e-02, -9.36598890e-03,
          1.04465308e-02, 6.66555436e-03, 4.34219325e-03, 7.72613240e-03,
          1.25204176e-02, 9.80901346e-03, 6.32212777e-03,
          -9.36598890e-03, -9.76759754e-03, 8.26613978e-03,
          6.71204971e-03, 1.22503415e-02, 1.10202786e-02, 1.23665463e-02,
          8.10337067e-03, 3.22780851e-03, -1.28169497e-02,
          -1.20899780e-02, 1.35453942e-03, 3.54702771e-03,
          3.33231036e-03, 8.36013816e-03, 1.40057961e-02, 1.31204892e-02,
          6.37983764e-03, -7.19415536e-03, -1.02576297e-02,
          8.31931923e-03, 9.82615072e-03, 8.77396110e-03, 4.19636024e-03,
          1.17171314e-02, 9.18364059e-03, 8.04061629e-03,
          -1.02576297e-02, 4.06399457e-04, 1.80144366e-02,
          5.11601986e-03, 1.55585632e-03, 9.13875003e-04, 1.59506570e-03,
          1.89488928e-03, -5.44370478e-03, -1.86773594e-02,
          1.38804608e-03, 1.70481708e-02, -2.59868830e-04,
          4.16114985e-04, -2.62423971e-04, -2.42824772e-05,
          1.51876680e-04, -4.70898254e-03, -1.98165476e-02,
          3.35417758e-03, 1.17684025e-02, -1.44108688e-03,
          -4.43422655e-03, -3.64125846e-03, -1.56587362e-03,
          -2.53832876e-03, -6.42221421e-03, -1.29190739e-02,
          5.95789962e-03, 1.12150414e-02, -7.69554114e-04,
          -6.57823402e-03, -4.26581036e-03, -7.50998547e-03,
          -6.34268299e-03, -5.37353475e-03, -2.03605648e-03,
          3.72478599e-03, 4.34451085e-03, 2.49550538e-03, 1.92275341e-03,
          2.11705011e-03, -4.42505348e-03, -5.86027047e-03,
          -3.64184380e-03, 2.98698200e-03, -1.84380962e-03,
          2.12339987e-03, 1.04567409e-02, 1.77061709e-03,
          -9.24484084e-06, -4.77732858e-04, 6.89036271e-04,
          -2.46886373e-03, -3.95837892e-03, 7.61637092e-03,
          4.94682696e-03, -4.42577386e-03, -7.33897230e-03,
          -6.30961824e-03, -1.51511584e-03, 8.93011689e-03,
          1.13192312e-02, 9.89537593e-03, -6.22158125e-03,
          -7.10282288e-03, -4.94425592e-04, -1.52369859e-04,
          6.35612244e-03, 6.60883961e-03, 6.91809226e-03, 7.59384595e-03,
          4.03388869e-03, -1.20707629e-02, -2.12884368e-03,
          6.69754110e-03, 9.13208630e-03, 8.07660632e-03, 4.57955804e-03,
          4.30107350e-03, 6.77670958e-03, -5.28053893e-03,
          -8.92763212e-03, 4.02865186e-03, 3.24505358e-03,
          5.98268537e-03, 6.59702159e-03, 8.90905224e-03, 7.64018251e-03,
          7.43582426e-03, -7.75289349e-03, -7.85807520e-03,
          6.58605667e-03, 3.17387283e-03, -3.58059217e-04,
          7.11074844e-03, 8.18357244e-03, 8.43284000e-03, 5.17620612e-03,
          -7.82708265e-03, -8.34350009e-03, 3.38944141e-03,
          2.15762667e-03, 1.53790665e-04, 2.91774701e-03, 1.09831123e-02,
          8.85749236e-03, 6.25781715e-03, -6.35014521e-03,
          -4.34747152e-03, 1.14577468e-02, 1.37297641e-02,
          5.78110572e-03, 1.12076080e-03, 9.95975803e-04, 3.36067332e-03,
          -8.19175912e-04, -1.35560492e-02, 3.57844037e-05,
          1.73564386e-02, 4.11953172e-03, 2.15256866e-03, 4.88944643e-04,
          1.69612397e-03, 6.56511867e-04, -3.36823799e-03,
          -1.30408341e-02, 1.79706549e-03, 1.55865671e-02,
          5.44414623e-04, 8.64755595e-04, -9.10284114e-04,
          2.92346405e-04, -3.14536877e-03, -5.45927323e-03,
          -1.69333946e-02, 2.08550226e-03, 1.70333404e-02,
          -1.70943313e-04, -6.52294431e-04, -5.70118136e-04,
          -1.52287784e-03, -2.86183157e-03, -8.51794053e-03,
          -1.96335521e-02, 3.60674137e-04, 1.67997535e-02,
          6.27315603e-03, 5.00103575e-04, -5.46669879e-04,
          -1.62215147e-03, -1.21064798e-03, -4.35374165e-03,
          -1.88684780e-02, 1.23192556e-03, 1.60998236e-02,
          1.08031239e-02, 1.51890062e-03, -1.98218459e-03,
          -2.72823637e-03, -5.38509339e-03, -7.13118352e-03,
          -1.03116892e-02, 1.08988844e-02, 2.01470330e-02,
          2.48878915e-03, -2.10532616e-03, -8.75413232e-03,
          -9.24944878e-03, -9.16047953e-03, -6.30236277e-03,
          -8.29525292e-03, 1.18964370e-02, 1.56140868e-02,
          1.20756263e-03, -1.04493340e-02, -1.13897203e-02,
          -1.28332805e-02, -7.67818280e-03, -5.61099639e-03,
          1.17333224e-02, 1.30141452e-02, 1.40039297e-02, 1.22337909e-02,
          3.76268581e-04, -1.37590040e-02, -9.93671268e-03,
          -5.72635885e-03, -4.99075279e-03, 1.44826132e-03,
          9.20656789e-03, 1.19456081e-02, 1.05457595e-02,
          -1.00742718e-02, -7.64049916e-03, -1.02503039e-02,
          5.85155934e-03, 8.54564551e-03, 1.23378569e-02, 6.62967144e-03,
          4.59802104e-03, -1.61816867e-03, -1.09011745e-02,
          -8.04850552e-03, 3.23891058e-03, 1.27023095e-02,
          1.30782984e-02, 7.09957350e-03, 1.42049720e-03, 1.75460789e-03,
          1.08655891e-03, -1.84727635e-03, -5.03860274e-03,
          -7.93604340e-05, -4.52281791e-04, 2.39668833e-03,
          2.93604610e-03, 2.59859790e-03, 4.63622529e-03,
          -1.89664937e-03, -4.69409488e-03, 4.47442755e-04,
          3.40709998e-03, -3.70365055e-03, -3.77276447e-03,
          2.46265181e-03, 9.90487728e-03, 1.07033690e-02,
          -8.48780794e-04, -5.96577162e-03, -4.97763883e-03,
          -4.62556584e-03, -5.07516833e-03, -8.97643156e-03,
          -7.49157276e-03, 1.03469305e-02, 1.17856693e-02,
          -6.70610229e-03, -6.97460957e-03, -8.91064759e-03,
          -6.48907945e-03, -8.39956850e-03, -1.11727733e-02,
          -1.16267549e-02, 1.01033421e-02, 1.22980671e-02,
          -8.86908919e-03, -7.42386607e-03, -1.01234186e-02,
          -7.82547425e-03, -8.46770406e-03, -1.10796019e-02,
          -1.17522236e-02, 7.94278271e-03, 1.20864492e-02,
          -2.44205282e-03, -4.73313360e-03, -6.76816050e-03,
          -4.36650403e-03, -9.41041298e-03, -1.24353515e-02,
          -1.10809766e-02, 6.91814721e-03, 9.50813293e-03,
          4.19760123e-03, -5.78232156e-03, -9.15644690e-03,
          -6.28542015e-03, -7.04836333e-03, -1.08869663e-02,
          -6.33111876e-03, 1.09674633e-02, 1.05680339e-02,
          -5.96886221e-03, -1.01043992e-02, -1.07694669e-02,
          -6.05894066e-03, -8.86190496e-03, -8.33652914e-03,
          -1.07639534e-02, 1.02606528e-02, 1.21977320e-02,
          -1.58214907e-03, -5.08799357e-03, -9.65224579e-03,
          -7.49761611e-03, -1.00638568e-02, -1.18880961e-02,
          -1.30303716e-02, 1.16816880e-02, 1.67763960e-02,
          -2.54485360e-03, -6.54599676e-03, -9.51637607e-03,
          -1.00132944e-02, -1.07616624e-02, -1.05366251e-02,
          -1.05735688e-02, 1.71533208e-02, 1.84100550e-02,
          1.48084213e-03, -7.74552394e-03, -1.21799922e-02,
          -1.33110397e-02, -6.59621321e-03, -5.69537003e-03,
          -4.51016845e-03, 1.30785825e-02, 1.29829440e-02,
          4.77281492e-03, -3.93216126e-03, -6.47572381e-03,
          -7.76037993e-03, -1.61479856e-03, -4.31513460e-03,
          9.55746509e-03, 1.05897337e-02, 9.77388769e-03, 7.79552385e-03,
          -8.76022317e-03, -5.62361628e-03, -9.69433505e-03,
          4.40507988e-03, 9.30918939e-03, 1.04793031e-02, 8.66571441e-03,
          8.62364750e-03, 5.57424547e-03, -8.20108596e-03,
          -5.94156841e-03, -5.28850127e-03, 3.52452160e-03,
          9.46226064e-03, 1.04298284e-02, 1.37332641e-02, 1.41402129e-02,
          2.72093294e-03, -6.03163242e-03, -5.83667913e-03,
          -1.18455552e-02, -2.04459211e-04, 5.61372796e-03,
          7.20438221e-03, 7.15056853e-03, 1.41866943e-02, 5.13094803e-03,
          -1.01602112e-03, -3.66863213e-03, -6.44660462e-03,
          -6.48095971e-03, -1.10392133e-02, -5.12487208e-03,
          7.10238330e-03, 1.41493175e-02, -4.71647270e-03,
          -5.50258812e-03, -6.54905662e-03, -6.85326941e-03,
          -7.59502454e-03, -7.69205438e-03, -8.09166674e-03,
          7.14091165e-03, 1.58920437e-02, -3.76380957e-03,
          -6.36980077e-03, -8.70540738e-03, -5.24166366e-03,
          -6.22520084e-03, -1.00534512e-02, -1.34832943e-02,
          7.24921050e-03, 1.04261264e-02, -1.67255453e-03,
          -6.48310082e-03, -8.88374727e-03, -6.44129468e-03,
          -5.79533959e-03, -9.20151919e-03, -1.23839453e-02,
          8.77944008e-03, 1.28605869e-02, -3.97842657e-03,
          -5.09348139e-03, -7.59004243e-03, -7.05512706e-03,
          -6.33557094e-03, -9.99118388e-03, -1.50182778e-02,
          7.84045178e-03, 1.60616469e-02, -3.37162334e-03,
          -5.13407169e-03, -6.71353610e-03, -5.17908437e-03,
          -7.16088386e-03, -1.17579373e-02, -1.26321372e-02,
          6.96937926e-03, 1.43022779e-02, -5.22814365e-03,
          -5.62916696e-03, -7.19764829e-03, -4.67165327e-03,
          -6.06841315e-03, -8.65582097e-03, -8.00948683e-03,
          5.54364314e-03, 1.22383097e-02, -6.48195250e-03,
          -6.30310923e-03, -5.77181717e-03, -2.79759220e-03,
          -4.02311981e-03, -5.24460431e-03, -1.07659400e-02,
          2.23610690e-03, 1.02675539e-02, 2.99848733e-03,
          -5.23945608e-04, -5.34013088e-04, -1.33792622e-04,
          -1.21023541e-03, -2.77075247e-04, -9.56619903e-03,
          1.30277814e-03, 1.36121351e-03, 2.77532032e-03, 4.39687166e-03,
          1.19735266e-03, -1.99408480e-03, 5.64662158e-04,
          -3.81939375e-04, -2.68470985e-03, 6.83545414e-03,
          3.55261494e-03, 2.57193903e-03, -6.34647673e-03,
          -6.00877404e-03, -8.48631549e-04, 3.00614745e-03,
          5.42865787e-03, 5.19131543e-03, 7.59697845e-03, 3.33378068e-03,
          2.34654802e-03, -1.72367576e-03, -4.34788177e-03,
          -2.15971959e-03, 3.63095826e-03, 5.92944445e-03,
          3.47287254e-03, 3.07619874e-03, 1.45245958e-02, 1.37930159e-02,
          2.75342725e-04, -5.31887682e-03, -1.22727873e-02,
          1.04138232e-03, 3.48559185e-03, 6.08225586e-03, 1.62257571e-02,
          1.98969580e-02, -2.98365339e-04, -8.66714306e-03,
          -1.15715265e-02, -1.02234948e-02, -1.21736983e-02,
          -7.73442071e-03, -4.29526391e-03, 1.36811137e-02,
          2.06645858e-02, 1.59160013e-03, -4.92169114e-04,
          -7.93093443e-03, -9.81093571e-03, -1.42753273e-02,
          -1.38604352e-02, -1.06504485e-02, 5.53127099e-03,
          1.90822314e-02, 2.77416897e-03, -2.20797467e-03,
          -3.45065421e-03, -3.85125494e-03, -6.00420218e-03,
          -1.42024718e-02, -1.71386395e-02, 1.26305921e-03,
          1.57574899e-02, 1.05665857e-02, -2.10018060e-03,
          -2.17776583e-03, -3.18363891e-03, -4.00293386e-03,
          -5.50726010e-03, -1.39829041e-02, 2.84021464e-03,
          1.54060265e-02, 4.67995740e-03, -2.79501430e-03,
          -3.98823712e-03, -1.62677129e-03, -2.61794263e-03,
          -6.82780286e-03, -1.36175435e-02, 4.98233642e-03,
          1.45521751e-02, -2.51864316e-03, -3.84859997e-03,
          -3.75009351e-03, -3.71665624e-03, -3.57686565e-03,
          -6.47019548e-03, -1.66988689e-02, 4.96133044e-03,
          1.71316881e-02, 1.03524944e-03, -1.24706666e-03,
          -4.34072781e-03, -2.87757302e-03, -5.00136893e-03,
          -7.49088917e-03, -1.72544084e-02, 3.84693895e-03,
          1.38322888e-02, 4.92056319e-03, 1.80118100e-03,
          -1.08114735e-03, -9.07846726e-04, -4.28403169e-03,
          -8.39595124e-03, -1.01576019e-02, -4.59450809e-03,
          9.70955566e-03, 9.86925513e-03, 5.11684641e-03, 6.37444947e-03,
          2.39278167e-03, 6.14962541e-04, 1.67141727e-04,
          -4.93647903e-03, -9.21141170e-03, 7.08379084e-03,
          7.96678197e-03, 8.79202597e-03, 7.07192067e-03, 4.25309595e-03,
          5.17967995e-03, 6.57569338e-03, -1.01179350e-02,
          -9.90200229e-03, 4.02053725e-03, 9.24312882e-03,
          1.00367721e-02, 1.06814774e-02, 2.24209647e-03, 3.47986119e-03,
          3.32222227e-03, -9.67597496e-03, -3.65836406e-03,
          -1.37787557e-03, 1.25440012e-03, 3.28686414e-03,
          6.35762466e-03, 8.13613925e-03, 4.85417573e-03, 2.27486668e-03,
          -2.78323283e-03, -3.84770893e-03, -5.50035574e-03,
          -3.25375190e-03, -6.80300128e-03, 3.12143471e-03,
          9.18802712e-03, 9.41848569e-03, 7.42896646e-03, 2.30239495e-03,
          3.79198533e-03, -3.85740632e-03, -4.88421647e-03,
          -9.30250809e-03, -3.65623459e-03, 4.72122990e-03,
          9.22411494e-03, 8.81706271e-03, 9.55251418e-03, 4.44755470e-03,
          5.03043737e-03, -1.64551975e-03, -7.54964724e-03,
          -6.21030433e-03, 5.63767622e-04, 1.04566496e-02,
          1.10421088e-02, 9.74397082e-03, 7.26023037e-03, 1.59013811e-02,
          1.06290570e-02, 2.44342163e-03, -2.65422068e-03,
          -5.32586034e-03, -7.32085994e-03, -1.14528481e-02,
          -5.28786052e-03, 8.28666519e-03, 2.01125052e-02,
          3.55240167e-03, 2.91796448e-03, 1.01795777e-04,
          -4.19267360e-03, -7.97841605e-03, -1.03271799e-02,
          -1.63695849e-02, 5.91573864e-03, 2.01116931e-02,
          1.88794290e-03, -1.58212715e-04, -1.32600602e-04,
          -2.07554418e-04, -1.92776276e-03, -1.23918550e-02,
          -2.14554984e-02, 1.45370548e-03, 1.96595602e-02,
          8.97832680e-03, -3.52207338e-04, -1.69090228e-04,
          -3.16928257e-04, -7.43710611e-04, -8.05525668e-03,
          -2.08719354e-02, -1.95289927e-03, 1.71264075e-02,
          1.41886910e-02, 1.49379531e-03, -3.53946583e-04,
          1.69041086e-04, 2.14516549e-04, -4.05490212e-03,
          -1.80115793e-02, -1.49249239e-03, 1.68288741e-02,
          6.26459951e-03, -1.03085767e-04, 8.51674937e-04,
          1.98388894e-04, 7.98542111e-04, -1.52884924e-03,
          -1.16097573e-02, -8.65160953e-03, 8.53194576e-03,
          1.13819297e-02, 1.10283485e-02, 5.54053113e-03, 8.34773388e-03,
          1.19440882e-02, 8.47222167e-04, -1.17774913e-02,
          -1.04170553e-02, 9.10898857e-03, 1.18287392e-02,
          1.30505590e-02, 1.21892244e-02, 8.33648071e-03, 3.95663455e-03,
          -2.66610202e-03, -1.34288473e-02, -1.16192540e-02,
          3.13822832e-03, 8.56599677e-03, 6.58827508e-03, 1.14535112e-02,
          1.19133070e-02, 1.07434364e-02, 7.54286721e-03,
          -9.82489344e-03, -1.70391947e-02, 1.23009905e-02,
          1.29878940e-02, 1.36243412e-02, 1.30748376e-02, 5.52686118e-03,
          7.85738043e-03, 4.60309349e-03, -1.99502874e-02,
          -1.40447849e-02, 4.48626606e-03, 1.26468102e-02,
          1.30015397e-02, 1.29445000e-02, 6.48657931e-03, 1.01414043e-02,
          9.95436031e-03, -1.63307227e-02, -1.08568994e-02,
          -2.80093495e-03, 4.41970257e-03, 1.14988601e-02,
          1.16547924e-02, 1.11095561e-02, 1.15966927e-02, 9.56787076e-03,
          -9.27525293e-03, -7.43015949e-03, -7.66873127e-03,
          3.68233654e-03, 2.09980272e-03, 9.48472507e-03, 1.19687291e-02,
          1.20606553e-02, 1.09522156e-02, -5.90041187e-03,
          -8.38254113e-03, -8.13532155e-03, -4.33248840e-03,
          -2.59787543e-03, 1.01923905e-02, 1.12386653e-02,
          1.07675688e-02, 1.30249681e-02, 3.73313762e-03, 1.26254559e-03,
          -5.94798476e-03, -9.34565160e-03, -8.88503715e-03,
          1.14336656e-03, 8.67315102e-03, 1.16875330e-02, 1.20657710e-02,
          5.81121072e-03, 5.12714358e-03, 1.17156934e-02,
          -3.15395789e-03, -1.86552037e-03, -1.89912168e-03,
          -5.91249065e-03, -9.96419135e-03, -6.61747390e-03,
          2.17838422e-03, 5.02533885e-03, 1.65954530e-02,
          -3.25945276e-03, -3.72274546e-03, -3.84469959e-03,
          -2.79791490e-03, -5.86226583e-03, -1.14268633e-02,
          -1.32093495e-02, 3.16061289e-03, 1.16774887e-02,
          6.39174879e-03, 1.22699689e-03, -3.27198394e-03,
          -2.65474687e-03, -4.21985658e-03, -1.04276501e-02,
          -1.40094599e-02, -2.48022331e-03, 5.69982221e-03,
          7.45283952e-03, 4.96790418e-03, 8.68771784e-03,
          -2.75928248e-03, -3.25899542e-04, 6.37445075e-04,
          -1.22688822e-02, -1.12794908e-02, 3.53346491e-04,
          1.20727587e-02, 1.17771374e-02, 9.17264912e-03,
          -2.16012169e-03, -8.91752134e-04, 3.75453010e-03,
          -5.19453827e-03, -8.69328249e-03, 1.84040901e-03,
          5.38042653e-03, -1.60916170e-04, 1.06883571e-02,
          -1.27511530e-03, 7.42419530e-03, 8.18988495e-03,
          -7.42021715e-03, -7.76572805e-03, 1.89609558e-03,
          -6.95812807e-04, -4.21928184e-04, 4.01364639e-03,
          6.03733398e-03, 1.18833845e-02, 9.15876310e-03,
          -6.13318523e-03, -8.28555226e-03, 6.79691695e-03,
          5.80885587e-03, 3.66423046e-03, 6.74513634e-03, 1.00576328e-02,
          4.05574357e-03, 3.09258612e-05, -8.40397272e-03,
          -8.29575397e-03, 5.59555041e-03, 6.82182191e-03,
          1.59558724e-03, 7.01503409e-03, 8.31464957e-03, 5.09684486e-03,
          2.35496066e-03, -6.63684029e-03, -1.23173743e-02,
          8.65158066e-03, 9.25750658e-03, 1.01896739e-02, 6.96573034e-03,
          7.47633679e-03, 6.47242414e-03, -3.85618419e-03,
          -1.46253183e-02, -1.29534286e-02, 5.40226279e-03,
          1.25847282e-02, 7.15655694e-03, 7.31364498e-03, 1.11181289e-02,
          1.47963990e-03, 7.95759785e-04, -1.60270967e-02,
          -7.29077309e-03, -3.86923930e-04, 3.88977909e-03,
          2.92399526e-03, 7.38834729e-03, 9.81825683e-03, 7.77569553e-03,
          5.27407834e-03, -8.08211975e-03, -3.39892390e-03,
          -7.40951952e-03, -1.89854717e-03, 2.12225597e-03,
          4.08468442e-03, 3.96711146e-03, 1.24437977e-02, 9.19219851e-03,
          -3.39892390e-03, -4.04752791e-03, -4.60096309e-03,
          9.38237761e-04, 8.28552898e-03, 7.93424621e-03, 6.08385401e-03,
          7.01125246e-03, 2.78038112e-03, -6.12661056e-03,
          2.91279401e-03, 1.24640530e-03, 2.32898653e-03, 1.87578623e-03,
          -2.18121568e-03, 2.73831259e-03, 5.67451934e-04,
          2.73417565e-04, -5.66489575e-03 ]
      - [ 6.45568501e-03, -5.92803024e-03, -2.60283868e-03,
          -4.73426189e-04, -2.86418595e-03, 5.05135953e-03,
          2.59919022e-03, 2.97419750e-03, 1.42302993e-03, 6.38489984e-03,
          9.01812315e-03, 1.28475344e-02, 5.46336221e-03,
          -2.54227896e-03, -1.23674488e-02, -3.87948425e-03,
          4.65784268e-03, 1.94882974e-03, 6.89169997e-03, 9.50983819e-03,
          8.18063132e-03, 2.55341572e-03, -7.44793657e-03,
          -1.30928559e-02, 2.13295265e-04, 2.43271189e-03,
          1.19365694e-03, 4.64494526e-03, -4.08907887e-03,
          -8.30785371e-03, 4.31887433e-03, -1.30629132e-03,
          -4.11713409e-04, 3.90375429e-03, 2.09194492e-03,
          6.11191790e-04, 1.80492224e-03, -3.20443930e-03,
          -3.17332312e-03, 4.78053349e-04, 1.02342863e-03,
          5.39592747e-03, 3.11220507e-03, -5.10212485e-05,
          -4.02768934e-03, 2.84792995e-03, 3.41683067e-03,
          -4.80607804e-03, -7.65796145e-03, -5.68852387e-03,
          5.24759945e-03, 9.55227355e-04, 2.29897327e-03, 3.26113100e-03,
          -5.29143552e-04, 1.04933511e-03, -1.70895737e-03,
          7.25708809e-03, -3.98745848e-04, 1.08456286e-02,
          1.65018113e-03, -4.20529535e-03, -6.07702881e-03,
          -1.48065898e-04, -6.44605700e-03, -6.17226958e-03,
          -5.80871943e-03, -5.19433245e-03, 6.79049594e-03,
          4.77634370e-03, 3.53183923e-03, 2.83257966e-03, 3.63547332e-03,
          2.46535172e-03, -1.33985421e-03, 2.95433041e-04,
          -9.69881658e-03, 2.16690893e-03, -2.76702037e-03,
          3.48202744e-03, 3.38053703e-03, 1.38737299e-02, 1.35984775e-02,
          -6.85779378e-03, -1.06215067e-02, -1.38961365e-02,
          -1.06765172e-02, -9.05577559e-03, -8.36408976e-03,
          -8.30934569e-03, 1.31845130e-02, 1.67351924e-02,
          -1.23271607e-02, -9.12564434e-03, -1.14713153e-02,
          -1.09486803e-02, -1.16339223e-02, -1.33099500e-02,
          -1.49669126e-02, 1.77355334e-02, 1.52787659e-02,
          -1.36913648e-02, -1.40851950e-02, -1.61220469e-02,
          -1.26761934e-02, -1.13058807e-02, -1.03573324e-02,
          -4.90991957e-03, 1.57918166e-02, 1.35135679e-02,
          -8.85511469e-03, -1.64406151e-02, -1.25322966e-02,
          -9.47469752e-03, -4.34914744e-03, -1.88710575e-03,
          4.77604708e-03, 4.10109665e-03, 1.51091430e-04,
          -4.67993726e-04, 2.20154575e-03, 1.72055722e-03,
          -1.87173762e-04, -1.75916342e-04, 1.09541568e-03,
          5.69955399e-03, -5.34696458e-03, -1.12537481e-03,
          8.81057698e-03, 5.99213643e-03, 2.27552257e-03, 9.53323673e-03,
          1.84142415e-03, -6.46606600e-03, -1.00190165e-02,
          8.63663107e-03, 1.04056075e-02, 5.60745690e-03,
          -1.70060212e-03, -5.47924731e-03, -8.90694186e-03,
          -7.70102371e-04, 7.58326938e-03, 8.59620515e-03,
          7.22360332e-03, 8.97794310e-03, 1.86034963e-02, 1.63054802e-02,
          -1.20467856e-03, -1.33574791e-02, -1.19766826e-02,
          -2.87173502e-03, 2.25408096e-03, -1.21372868e-03,
          1.17195556e-02, 1.19905826e-02, 9.75711085e-03, 2.63222703e-03,
          -5.35395602e-03, -8.11956450e-03, -2.95018335e-03,
          -5.43760136e-04, -3.91469989e-03, 7.03943707e-03,
          1.86335237e-03, 6.38485979e-03, 4.03913343e-03, 1.03274593e-02,
          8.88023898e-03, -1.98424514e-03, -6.43179938e-03,
          -4.46515065e-03, 5.48260659e-03, -6.00600848e-04,
          -6.76386058e-03, 3.39698931e-03, 8.14081263e-03,
          1.04972143e-02, 3.15577863e-03, -5.05903317e-03,
          -7.96066877e-03, 5.30183723e-04, -1.97168696e-03,
          -2.62557203e-03, -2.12203176e-03, 1.29192360e-02,
          8.65487382e-03, 8.31458345e-03, -2.80878833e-03,
          1.65343154e-04, 1.15220770e-02, 1.54296923e-02, 4.37340327e-03,
          -6.38370682e-03, -2.38894322e-03, -1.68867933e-03,
          -3.88984522e-03, -1.24831861e-02, 6.89910632e-03,
          1.92299187e-02, -6.44030108e-04, -6.35485025e-03,
          -1.04117719e-02, -3.56165529e-03, -3.95991327e-03,
          -4.17441828e-03, -1.09093264e-02, 1.06369741e-02,
          1.80521514e-02, -7.12880027e-03, -7.51735223e-03,
          -1.07817315e-02, -6.08255668e-03, -8.91503505e-03,
          -8.98587517e-03, -1.38806421e-02, 1.30586755e-02,
          1.64876338e-02, -1.04377586e-02, -1.02035981e-02,
          -1.16492622e-02, -9.44481138e-03, -8.31322465e-03,
          -1.03229601e-02, -1.59057621e-02, 1.02250073e-02,
          1.67969801e-02, -7.73260603e-04, -1.06950505e-02,
          -1.02718538e-02, -7.51010375e-03, -5.22649521e-03,
          -1.01787774e-02, -1.57760512e-02, 8.15968961e-03,
          1.12680942e-02, 5.11593744e-03, -1.00500975e-02,
          -1.05342027e-02, -8.77570733e-03, -4.70388122e-03,
          -4.40268125e-03, -4.43533715e-03, 1.74076706e-02,
          1.12300031e-02, -1.33413468e-02, -1.74164809e-02,
          -1.33688245e-02, -8.57326761e-03, -4.54303669e-03,
          -2.24578427e-03, -2.27001146e-04, 1.49143422e-02,
          7.55642634e-03, -1.25547498e-02, -1.87497940e-02,
          -1.80588104e-02, -6.18626410e-03, -6.33754022e-03,
          -2.66557396e-03, 1.94746368e-02, 1.37122655e-02,
          1.43641904e-02, 1.18828276e-02, 1.75136060e-03,
          -1.53674381e-02, -1.13663273e-02, -6.80271024e-03,
          -6.23384211e-03, 2.09279824e-03, 9.75425728e-03,
          1.58426668e-02, 1.47457961e-02, 4.48995782e-03,
          -3.87229258e-03, -1.85876396e-02, -8.25935695e-03,
          1.87182112e-03, 9.73144267e-03, 5.91060380e-03, 7.48033775e-03,
          2.80257966e-03, 4.72236192e-03, -7.67738908e-04,
          1.53276639e-03, -1.04128197e-03, 2.24028295e-03,
          -7.43874873e-04, 4.97880246e-05, 9.50146560e-03,
          1.33660072e-02, 9.10618063e-03, 4.21706494e-03, 9.96062905e-03,
          -5.25247888e-04, -8.79340060e-03, -7.16402428e-03,
          -3.11690010e-03, 1.08642634e-02, 8.28198530e-03,
          2.27460708e-03, 9.25938599e-03, 1.66176241e-02, 4.38795798e-03,
          -8.81476700e-03, -7.47566530e-03, 6.63596205e-03,
          2.37745363e-02, 7.32859876e-03, -1.46703504e-03,
          1.59660075e-03, 1.05684751e-03, 2.37635174e-03,
          -1.10292686e-02, -2.04613581e-02, 4.16301703e-03,
          2.24653706e-02, 7.83828087e-04, -4.07844922e-03,
          -4.99589322e-03, -2.53203558e-03, -3.44060385e-03,
          -5.83516667e-03, -2.43540611e-02, 4.79172030e-03,
          2.33532786e-02, -2.08234205e-03, -5.02635166e-03,
          -5.82752842e-03, -3.36086075e-03, -3.29511845e-03,
          -9.21925157e-03, -2.53151115e-02, 3.11249890e-03,
          2.29180474e-02, 5.59339114e-03, -1.58166455e-03,
          -1.88959751e-03, -7.04549428e-04, -6.44637784e-03,
          -9.01412591e-03, -2.27802079e-02, 2.83748889e-03,
          2.09499523e-02, 1.30060846e-02, -2.55981274e-03,
          -1.12065091e-03, -1.37961318e-03, -2.97863595e-03,
          -1.65465064e-02, -1.42797362e-02, 1.10698277e-02,
          2.58035120e-02, -1.50554196e-03, -5.10228798e-03,
          -5.66425035e-03, -5.81438560e-03, -6.09041005e-03,
          -1.48351993e-02, -2.35480350e-02, 6.96683256e-03,
          2.18249951e-02, 2.96805939e-03, -5.54711698e-03,
          -6.67939568e-03, -5.64375892e-03, -5.34864515e-03,
          -1.10911718e-02, -2.49524135e-02, 9.20522679e-03,
          1.61565747e-02, -7.07516214e-04, -4.89892252e-03,
          -6.63103489e-03, -5.10871690e-03, -6.00560615e-03,
          -7.71595724e-03, -2.11258661e-02, 1.24558331e-02,
          1.30224694e-02, 1.33872614e-04, -7.84805417e-03,
          -1.04787564e-02, -3.04923300e-03, -4.53009363e-03,
          -5.02377842e-03, -1.15279611e-02, 7.61608221e-03,
          7.52564054e-03, 1.10675534e-03, -6.98807370e-03,
          -5.24768885e-03, 2.23026640e-04, 2.04899604e-03,
          -2.75908271e-03, 1.43969357e-02, 8.17563199e-03,
          6.35747099e-03, 3.30641074e-03, -1.41845951e-02,
          -3.58307664e-03, -5.38491597e-03, 6.48252573e-03,
          9.52689722e-03, 1.12986872e-02, 8.62317346e-03, 1.23641333e-02,
          8.84906948e-03, 7.92046636e-03, 7.37061398e-03, 2.22203182e-03,
          -4.21101646e-03, -3.88964498e-03, -2.21049180e-03,
          6.65683579e-03, 1.87304951e-02, 4.24024090e-03, 3.28053581e-03,
          1.18279848e-02, -3.53581016e-03, -3.37140192e-03,
          -5.24876639e-03, -4.17390373e-03, -4.35027992e-04,
          2.43074857e-02, 1.35147432e-02, 7.35620363e-03, 6.17863890e-03,
          -4.15115675e-04, -1.95535365e-03, -1.32874567e-02,
          -1.41790165e-02, 2.22409115e-04, 2.39014756e-02,
          3.07437708e-03, 8.01090675e-04, 1.73341448e-03, 1.44649658e-03,
          -2.92168144e-04, -3.46202543e-03, -2.10819934e-02,
          1.21191051e-03, 2.67562568e-02, 3.74588883e-03, 2.48115917e-04,
          -1.98184789e-04, -2.91926233e-04, -8.97936698e-04,
          -8.00591148e-03, -2.72283405e-02, 2.34667343e-04,
          2.62196045e-02, 5.34129422e-03, -1.67527440e-04,
          -3.06871720e-04, -3.22751905e-04, -6.06128073e-04,
          -4.70425142e-03, -2.68673543e-02, 9.34664160e-04,
          2.42847465e-02, 2.45383312e-03, -3.62146588e-04,
          -1.96336172e-04, -2.14538188e-04, -5.13204805e-06,
          -6.11707754e-03, -2.93392409e-02, 2.04658951e-03,
          2.13059001e-02, 4.89964662e-03, -1.01682497e-04,
          -9.04938872e-07, 2.45723902e-04, -2.88621784e-04,
          -7.77955586e-03, -2.55086385e-02, 1.66488392e-03,
          2.09916439e-02, 5.04346937e-03, 6.14644145e-04,
          -5.80291206e-04, -3.84585903e-04, -9.81817488e-04,
          -1.00445496e-02, -1.76904108e-02, 2.16298900e-03,
          2.29649693e-02, 2.21714552e-04, 5.65640163e-04, 8.74158926e-04,
          1.20792502e-04, -1.22420909e-03, -9.13965050e-03,
          -2.03412622e-02, -3.28655867e-03, 1.73382312e-02,
          1.25937928e-02, 8.24730285e-03, 5.99636743e-03, 5.77390287e-03,
          4.26545739e-03, -2.21355073e-03, -1.93588454e-02,
          -8.29787087e-03, 6.50415616e-03, 1.30851381e-02,
          1.51294488e-02, 1.17125465e-02, 6.00848719e-03, 4.63116914e-03,
          -2.44501419e-03, -1.44758029e-02, -1.03283506e-04,
          5.47300419e-03, 7.15966383e-03, 4.49716637e-04, 2.75134249e-03,
          2.61679105e-03, 3.21096438e-03, 1.28427567e-03,
          -4.42091422e-03, 4.72964067e-03, -1.42773287e-03,
          2.03312328e-03, -1.89646860e-04, 2.06899201e-03,
          6.56065205e-03, 5.57752140e-03, 1.86021230e-03,
          -3.47693753e-03, -1.41106849e-03, 1.23130409e-02,
          9.70593095e-03, 1.42693054e-03, 1.29534747e-03,
          -1.15151023e-02, -1.12829695e-03, -2.69334926e-03,
          1.44029828e-03, 1.70319024e-02, 2.55463347e-02,
          -1.52269402e-03, -2.67859618e-03, -6.68037590e-03,
          -4.91462462e-03, -1.54062202e-02, -1.89215429e-02,
          -1.59651414e-02, 8.05808231e-03, 2.30918713e-02,
          -3.05042951e-03, -5.02727972e-03, -4.14795754e-03,
          -4.44074348e-03, -6.50287187e-03, -1.90588869e-02,
          -2.25382652e-02, 4.36919788e-03, 2.14703791e-02,
          2.39418959e-03, -1.07638375e-03, -1.70381879e-03,
          -3.56404600e-03, -4.77895653e-03, -1.52575243e-02,
          -2.52316389e-02, -2.68741842e-05, 1.63707603e-02,
          1.34018641e-02, -2.31144368e-03, -1.39240947e-04,
          -1.18428830e-03, -3.11194710e-03, -2.91226315e-03,
          -2.07459722e-02, 1.53407699e-03, 1.94523502e-02,
          9.77448188e-03, -5.74444537e-04, -2.54780473e-03,
          -2.00308580e-03, -2.60957540e-03, -6.76419260e-03,
          -2.22527441e-02, 3.14840209e-03, 2.07653586e-02,
          1.99000211e-03, -1.26316783e-03, -3.00389202e-03,
          -2.87933345e-03, -2.86290166e-03, -1.04208253e-02,
          -2.58223917e-02, 2.98341224e-03, 2.14674808e-02,
          1.77017157e-03, -6.83395076e-04, -5.31562371e-04,
          -2.10847938e-03, -2.11741286e-03, -8.12137872e-03,
          -2.60737073e-02, 8.70623509e-04, 1.78389773e-02,
          8.10735580e-03, -8.38431151e-05, 3.71848606e-03,
          2.68735201e-03, 5.94782527e-04, -5.93452994e-03,
          -1.73170250e-02, -7.08966190e-03, 3.62836011e-03,
          1.06374444e-02, 3.43973050e-03, 1.45423273e-02, 7.98247196e-03,
          9.00614355e-03, 1.71150768e-03, -7.08966190e-03,
          -1.43061765e-02, 5.15832100e-03, 1.33640319e-02,
          1.53885717e-02, 1.62909497e-02, 8.40741955e-03, 1.04128104e-02,
          4.67664097e-03, -1.54108778e-02, -1.72274988e-02,
          6.70949556e-03, 1.85960326e-02, 1.93021372e-02, 1.91308465e-02,
          5.06313285e-03, 7.18039041e-03, 2.87769851e-03,
          -1.69196539e-02, -1.08012557e-02, 6.51073549e-03,
          6.56295102e-03, 9.08893906e-03, 1.54072922e-02, 1.52678350e-02,
          9.48348828e-03, 2.98234890e-03, -9.83487628e-03,
          -8.66849627e-03, -5.02039352e-03, 1.89750164e-03,
          -1.28743437e-03, 9.24354605e-03, 1.20741064e-02,
          1.24749737e-02, 7.68552907e-03, -1.87057082e-03,
          -3.37796606e-04, -4.30696690e-03, -2.13125302e-03,
          -4.47986741e-03, 3.84502532e-03, 7.46049546e-03,
          9.96874832e-03, 5.77638159e-03, 3.24011780e-03, 4.13254090e-03,
          8.38316325e-03, 6.54058158e-03, -3.52833001e-03,
          -6.45960402e-03, -1.80322037e-03, 4.61484725e-03,
          5.93510410e-03, 8.13520420e-03, 9.45914909e-03, 1.23582184e-02,
          1.02329841e-02, 1.43988326e-03, -6.14843192e-03,
          -6.89010462e-03, -8.81039724e-03, -1.34491902e-02,
          -9.29113291e-03, 1.25133777e-02, 1.58776864e-02,
          -3.51407565e-03, -4.57771448e-03, -9.82255023e-03,
          -6.82784105e-03, -8.01302679e-03, -1.09683871e-02,
          -1.60126016e-02, 1.28994593e-02, 1.99573189e-02,
          -7.32288277e-03, -9.83474124e-03, -9.89470165e-03,
          -8.44029058e-03, -7.79301440e-03, -1.38884671e-02,
          -2.01502927e-02, 8.79013445e-03, 1.73239224e-02,
          1.53276790e-03, -9.75298230e-03, -1.04331095e-02,
          -5.30226994e-03, -9.56414081e-03, -9.28309094e-03,
          -1.79268923e-02, 6.20481418e-03, 1.84025783e-02,
          1.10244304e-02, -4.05844115e-03, -7.63403717e-03,
          -9.04148631e-03, -9.42524616e-03, -1.18083507e-02,
          -1.54778669e-02, 8.38740449e-03, 1.51324878e-02,
          -1.06186722e-03, -4.11172584e-03, -5.06643765e-03,
          -9.93786287e-03, -9.05006845e-03, -9.52809956e-03,
          -4.74813301e-03, -1.31600304e-03, 4.99350438e-03,
          3.83266201e-03, 6.25490956e-03, -3.03084310e-03,
          2.65558809e-03, 9.89784021e-03, -7.54219422e-04,
          -4.35187202e-03, -5.35404030e-03, 7.07138097e-03,
          7.12663122e-03, 6.08458742e-03, 6.13170722e-03, 2.66859215e-03,
          1.41494372e-03, -3.75535013e-03, -5.66848041e-03,
          -2.85652862e-03, -2.72332178e-03, 2.84227566e-03,
          -3.14326353e-05, 6.73536444e-03, 7.96316005e-03,
          6.53050048e-03, 5.36557008e-03, -2.42845993e-03,
          -1.71600524e-02, 7.61734135e-03, 1.12843486e-02,
          1.13905026e-02, 1.52073475e-02, 5.48367947e-03, 8.27771891e-03,
          -2.46004092e-05, -2.02069115e-02, -1.64866801e-02,
          2.93138757e-04, 1.18619585e-02, 1.67834163e-02, 1.79766119e-02,
          8.90153553e-03, 1.39616877e-02, 8.25665891e-03,
          -1.96000859e-02, -1.48296095e-02, -1.22977339e-03,
          6.10664859e-03, 1.53108537e-02, 1.59738697e-02, 1.52321775e-02,
          1.57883931e-02, 9.91884340e-03, -1.17865307e-02,
          -7.32291443e-03, -4.70090145e-03, 4.59459424e-03,
          1.93457468e-03, 1.10710990e-02, 1.26013299e-02, 1.14156120e-02,
          6.96093729e-03, -7.04429951e-03, -7.73494644e-03,
          -5.07090194e-03, 5.20694209e-03, -2.25632172e-03,
          6.44380646e-03, 9.48305055e-03, 8.44631996e-03, 1.13436179e-02,
          -4.81565017e-03, -2.18840595e-03, -4.74471628e-04,
          -5.62119624e-03, -1.44667784e-02, -2.95470306e-03,
          1.21648908e-02, 1.60053875e-02, 1.64277907e-02, 8.13890994e-03,
          7.62036443e-03, 1.10428017e-02, -1.12611465e-02,
          -8.87139048e-03, -1.11502679e-02, -1.09088402e-02,
          -1.32572651e-02, -1.07809121e-03, 7.70902354e-03,
          1.36715984e-02, 1.65769327e-02, -9.12684761e-03,
          -1.17329638e-02, -1.42290378e-02, -1.13535766e-02,
          -1.32026030e-02, -1.39522450e-02, -1.11283138e-02,
          1.31685389e-02, 1.44198649e-02, -1.15656666e-03,
          -4.08274867e-03, -1.46456501e-02, -1.00454232e-02,
          -1.01076216e-02, -1.62658505e-02, -9.03225318e-03,
          4.44238167e-03, 3.31673236e-03, 1.38758693e-03, 7.64639757e-04,
          3.75605770e-03, -2.32040975e-03, -5.09462412e-03,
          -7.43136101e-04, -7.31750624e-03, -3.55409225e-03,
          -7.07598054e-04, 5.42296190e-03, 9.43960343e-03,
          1.73966517e-03, -8.25756509e-03, -6.00000704e-03,
          2.16400204e-03, 7.96349079e-04, 1.25636044e-03, 6.62948994e-04,
          -4.60114301e-04, -9.03572887e-03, 3.14719765e-03,
          -1.06274262e-02, 2.27904483e-03, 7.58218300e-03,
          1.00054569e-03, 1.52039551e-03, -9.84667335e-04,
          -9.73636657e-03, -9.78245679e-03, -8.28804157e-04,
          -1.44824211e-03, 6.34328602e-03, 7.52977980e-03,
          6.18717028e-03, -1.70724397e-03, 4.45265230e-03,
          2.32826965e-03, -4.61165357e-04, 2.97422730e-03,
          7.71467388e-03, -3.45011149e-03, -5.10464609e-03,
          -1.67016359e-03, -3.09007964e-03, 5.94359124e-03,
          9.51741543e-03, 2.43515242e-04, 6.89601852e-03, 6.16256660e-03,
          -2.65209959e-03, -2.08069221e-04, -5.16413152e-03,
          -1.20796068e-02, 8.10318068e-03, 1.30707091e-02,
          1.27805863e-02, 1.28392307e-02, 9.06302407e-03, 7.34928763e-03,
          -5.80904027e-03, -1.51766445e-02, -1.81857962e-02,
          7.59981107e-03, 1.56476460e-02, 1.08896261e-02, 1.51637224e-02,
          1.64016746e-02, 5.07941982e-03, 6.27490866e-04,
          -2.23720744e-02, -1.19954981e-02, -2.10113218e-03,
          7.45888613e-03, 4.75603621e-03, 1.56741682e-02, 1.67940035e-02,
          1.57789532e-02, 1.05755888e-02, -1.29513219e-02,
          -5.73905138e-03, -6.85485639e-03, -1.75935880e-03,
          4.20162221e-03, 4.93881060e-03, 4.42531658e-03, 1.72099229e-02,
          1.21283494e-02, -3.23979696e-03, -2.56094243e-03,
          -4.41504177e-03, 6.91082655e-03, 7.68798543e-03,
          7.80159840e-03, 7.16940500e-03, 1.02182925e-02, 6.83230907e-03,
          -7.81894661e-03, 5.37785375e-03, 4.65462916e-03,
          6.18943991e-03, 2.33215000e-03, -2.48896191e-03,
          8.32683314e-03, 3.54667287e-03, 4.67318390e-03,
          -4.45267372e-03 ]
      - [ 7.65668135e-03, -1.33830216e-03, -1.56639711e-04,
          -4.77281958e-03, -7.05927005e-03, -4.06246836e-04,
          4.52396413e-03, 5.20564849e-03, 6.80953404e-03, 6.10679574e-03,
          9.46887303e-03, 1.11423433e-02, -4.31244355e-03,
          -4.93127014e-03, -9.92224831e-03, 3.94218694e-03,
          9.12635121e-03, 2.01861351e-03, 3.73357884e-03, 3.46670556e-03,
          4.01957426e-03, -1.48909003e-03, -4.00247378e-03,
          -8.69166479e-03, 2.84616044e-03, 2.21966510e-03,
          3.56006203e-03, 2.18783552e-03, -1.08344143e-03,
          -6.07988238e-03, -1.96492928e-03, -8.69488576e-04,
          -2.58532702e-03, 3.55508178e-03, 3.19533958e-03,
          3.83062568e-03, -2.82003917e-03, -6.78577321e-03,
          -5.92695968e-03, -4.72725893e-04, 9.77153191e-04,
          8.47404636e-03, 6.07959321e-03, 3.35828005e-03,
          -1.20837870e-03, 5.44699142e-03, 3.66916787e-03,
          -3.72020784e-03, -1.05587989e-02, -5.88670699e-03,
          2.92381318e-03, 3.93055053e-03, 6.15421915e-03, 8.02901108e-03,
          6.45589735e-03, 7.77613081e-04, -7.55668664e-03,
          -4.61822795e-03, -3.03331134e-03, 7.67334225e-03,
          8.16588011e-03, 6.47639111e-03, 6.65859273e-03,
          -7.84420001e-04, -1.07304156e-02, -1.04238549e-02,
          -7.99341686e-03, 7.04468228e-04, 1.15212230e-02,
          1.29699092e-02, 1.29929753e-02, 7.35184783e-03,
          -5.44882519e-03, -1.22773240e-03, 1.61377422e-03,
          1.36220502e-03, 1.16532354e-03, 1.05351908e-02, 8.58395174e-03,
          8.40995554e-03, -1.88229210e-03, 4.56143986e-04,
          1.36903534e-02, 4.33127023e-03, 1.17131195e-03, 8.74316029e-04,
          2.00412981e-03, 1.96514605e-03, -2.61556939e-03,
          -1.75295621e-02, 1.79027719e-03, 1.36695551e-02,
          -1.11800455e-03, -7.99555928e-05, -7.24978599e-05,
          -3.65516491e-04, -8.36448686e-04, -3.24465032e-03,
          -1.81942321e-02, 3.28844669e-03, 1.60810612e-02,
          -2.35919259e-04, -1.35633152e-03, -1.52940818e-04,
          -1.87545049e-03, -3.86764249e-03, -6.57467172e-03,
          -1.37076834e-02, 5.00669284e-03, 1.64299887e-02,
          4.68920171e-03, 6.99494558e-04, 9.16080680e-05,
          -4.33491170e-03, -3.28121777e-03, -5.04436390e-03,
          -7.49674579e-03, 2.27330066e-03, 1.07424129e-02,
          1.12047568e-02, 1.03195915e-02, 4.88581322e-03,
          -1.72775937e-03, -3.67159327e-03, -7.79773435e-03,
          -4.46531980e-04, -2.22819927e-03, 5.07608661e-03,
          1.32984007e-02, 1.08655114e-02, 4.35818639e-03, 1.76686142e-03,
          -1.92130078e-03, -6.46835100e-03, -7.66912242e-03,
          7.16838613e-03, 7.83410482e-03, -4.10487963e-04,
          -5.81745757e-03, -8.76226276e-03, -1.49209285e-03,
          7.93514494e-03, 9.03997011e-03, 8.86029750e-03, 5.13985148e-03,
          6.37979247e-03, 1.26858708e-02, -3.09764221e-03,
          -5.93710272e-03, -2.49485136e-03, 5.42717287e-03,
          6.94016088e-03, 5.63034276e-03, -3.93176591e-03,
          5.46094263e-03, 7.28046335e-03, -1.05840983e-04,
          -3.31471604e-03, -3.15502146e-03, -2.76697829e-04,
          -3.62679566e-04, 1.84341951e-03, 2.00581318e-03,
          3.33326962e-03, -1.60377740e-03, -7.08113133e-04,
          -3.74979479e-03, 8.21752707e-04, 1.06560253e-03,
          1.90941806e-04, 8.16884916e-04, 1.61900069e-03, 1.00796507e-03,
          -4.88944026e-03, -6.33682264e-03, 5.34539809e-04,
          1.99035695e-03, 2.43586558e-03, 1.92570349e-03, 9.79657285e-04,
          8.01019650e-03, 5.39422501e-03, -1.61231286e-03,
          -1.21747768e-02, -1.10424533e-02, 1.62273610e-03,
          6.56294404e-03, 6.31952938e-03, 9.12994612e-03, 1.52050080e-02,
          1.46278376e-02, 1.13196960e-02, -1.05023813e-02,
          -1.50558092e-02, -9.95691773e-03, 4.83255647e-03,
          5.08694537e-03, 6.54036365e-03, 1.75287686e-02, 1.25372438e-02,
          -4.07711789e-03, -1.41220316e-02, -1.53284650e-02,
          -7.32184621e-03, 1.38452009e-03, 4.56321985e-03,
          6.13795547e-03, 1.05275223e-02, 6.13526115e-03,
          -1.12184985e-02, -1.04760285e-02, -8.25185515e-03,
          8.93778997e-05, -1.11403438e-04, -2.68409640e-04,
          -1.67925574e-03, 3.88233433e-03, 1.19247111e-02,
          -3.32392054e-03, -3.39593366e-03, -1.92131998e-03,
          -1.29593129e-03, -3.22788418e-03, -5.47317741e-03,
          -1.65230297e-02, 1.04100315e-03, 1.47864763e-02,
          5.31116547e-03, 2.18220084e-04, 6.52925693e-04,
          -3.43670981e-04, -8.46738927e-04, -4.96325828e-03,
          -1.70817301e-02, 3.35753965e-03, 1.40689565e-02,
          8.60948302e-03, 7.81165785e-04, -1.56290631e-03,
          -2.71617109e-03, -3.42589524e-03, -7.02080317e-03,
          -7.50305085e-03, 1.02245305e-02, 1.98844541e-02,
          3.25458311e-03, -1.47542998e-03, -5.75385522e-03,
          -6.76234998e-03, -6.14345586e-03, -1.03091700e-02,
          -9.04089957e-03, 1.50161432e-02, 1.63655374e-02,
          3.51543864e-03, -5.24921203e-03, -8.66319332e-03,
          -1.11454073e-02, -1.12909414e-02, -8.24404042e-03,
          7.72615336e-03, 1.33170607e-02, 1.38096958e-02, 1.33360857e-02,
          4.10628878e-03, -1.24236215e-02, -1.18018277e-02,
          -8.38894956e-03, -7.43777491e-03, 1.39361911e-03,
          9.02990904e-03, 1.18246414e-02, 1.06851049e-02,
          -7.02320505e-03, -6.95292419e-03, -1.25964256e-02,
          2.97169853e-03, 5.73264621e-03, 1.21832872e-02, 6.79321354e-03,
          5.98754082e-03, 3.57877067e-03, -8.31244700e-03,
          -1.11988373e-02, 2.04376807e-03, 1.22281238e-02,
          1.26886498e-02, 6.81594526e-03, 3.73130688e-03, 2.12908164e-03,
          4.54610959e-03, -3.51404934e-03, -6.36229804e-03,
          6.94352493e-04, 1.54034453e-04, 1.16950646e-03, 2.61780224e-03,
          3.67647852e-03, 5.10533154e-03, 1.43523875e-03,
          -4.46814997e-03, -1.37189591e-05, 2.24398822e-03,
          -5.28380787e-03, -5.28080529e-03, 1.12319272e-03,
          8.62554926e-03, 1.04570845e-02, 6.49841195e-06,
          -4.67216596e-03, -5.20883314e-03, -6.62531098e-03,
          -5.44422865e-03, -7.33907428e-03, -6.45362167e-03,
          1.87811293e-02, 1.79079846e-02, -2.25534919e-03,
          -1.43135227e-02, -1.58477817e-02, -1.47034852e-02,
          -6.22765673e-03, -3.49035673e-03, -2.62972899e-03,
          2.13114712e-02, 2.10828297e-02, 5.15326799e-04,
          -1.48229226e-02, -1.92614403e-02, -1.57895945e-02,
          -9.69853718e-04, -9.73848291e-05, 4.62119264e-04,
          2.07137223e-02, 1.99244563e-02, 1.73145661e-03,
          -1.83555633e-02, -1.83244441e-02, -9.62171704e-03,
          -1.19693554e-03, -6.81987498e-04, 2.63536186e-03,
          1.28273936e-02, 1.15322275e-02, 4.53226035e-03,
          -1.58409066e-02, -1.54527379e-02, -3.28374840e-03,
          -1.75044534e-03, -2.25437805e-03, 3.66638857e-03,
          8.65146425e-03, 1.13385981e-02, -6.93715643e-03,
          -7.64416251e-03, -7.80185498e-03, -4.40119393e-03,
          -6.85522333e-03, -8.15850310e-03, -1.23598659e-02,
          7.15028495e-03, 1.20468894e-02, -5.85375004e-04,
          -5.56235621e-03, -6.59493916e-03, -9.39159933e-03,
          -7.93707371e-03, -1.04378890e-02, -1.32470559e-02,
          1.13133788e-02, 1.44912517e-02, -2.57805805e-03,
          -7.31159933e-03, -1.01459324e-02, -7.41951726e-03,
          -6.54665940e-03, -9.06307250e-03, -9.65167955e-03,
          1.49755683e-02, 1.73727963e-02, 5.18605579e-03,
          -4.14525997e-03, -1.15715954e-02, -1.13385590e-02,
          -7.03866407e-03, -8.43957346e-03, -7.14969402e-03,
          1.41891791e-02, 1.41810570e-02, 8.20541102e-03,
          -2.44249008e-03, -9.80359316e-03, -7.47679826e-03,
          -1.96559378e-03, -4.85876109e-03, 1.16438912e-02,
          1.04262149e-02, 9.39385407e-03, 5.18336333e-03,
          -1.18803903e-02, -7.43630761e-03, -4.57921345e-03,
          5.55758923e-03, 7.37957237e-03, 9.50886216e-03, 7.60160107e-03,
          5.64343017e-03, 4.05814219e-03, -4.24250076e-03,
          -6.27650134e-03, -6.17736252e-03, 3.86139168e-03,
          8.64110515e-03, 1.01241507e-02, 1.25808641e-02, 1.26039861e-02,
          2.14468921e-03, -4.62233834e-03, -9.79524385e-03,
          -1.48334755e-02, 2.14247778e-03, 8.55632313e-03,
          1.19636571e-02, 8.94918945e-03, 7.47325784e-03, 3.27923684e-03,
          -8.92670767e-04, -7.59977708e-03, -8.93025566e-03,
          -7.54881045e-03, -6.88688457e-03, -1.13989518e-03,
          1.03028975e-02, 8.49733222e-03, -4.29194374e-03,
          -8.63986835e-03, -9.12985206e-03, -4.82577831e-03,
          -9.28357616e-03, -8.40086676e-03, -6.01844676e-03,
          1.05981417e-02, 9.86837037e-03, -6.23440556e-03,
          -7.46248756e-03, -1.18509820e-02, -8.45999829e-03,
          -8.12110584e-03, -8.83363932e-03, -9.00360942e-03,
          1.54131511e-02, 1.38071049e-02, -5.04547404e-03,
          -1.50702922e-02, -1.50116077e-02, -9.92433168e-03,
          -4.09108493e-03, -3.18954163e-03, -3.68693937e-03,
          2.10430752e-02, 2.04610080e-02, -5.87729563e-04,
          -2.03355756e-02, -2.05765143e-02, -7.64274644e-03,
          -1.36697287e-04, -8.61505905e-05, 2.74765771e-04,
          2.09980048e-02, 2.09354069e-02, 3.30446893e-03,
          -1.64384395e-02, -2.10325308e-02, -1.07265096e-02,
          -2.03354357e-04, -1.68802246e-04, 1.96795422e-03,
          1.84212606e-02, 1.83037017e-02, 1.49468391e-03,
          -1.57551784e-02, -1.82904284e-02, -8.56650341e-03,
          -2.74808519e-03, -3.06706200e-03, 4.56385547e-03,
          1.34524098e-02, 1.32188080e-02, -7.01795798e-03,
          -8.06618761e-03, -9.81386472e-03, -9.30722430e-03,
          -9.26993974e-03, -8.79520923e-03, -5.87874884e-03,
          8.02312791e-03, 8.10988434e-03, -1.21211784e-03,
          3.85689142e-04, -6.14872109e-03, -4.18377854e-03,
          -2.88640894e-03, -2.07482884e-03, -4.10493277e-03,
          5.99992601e-03, 5.63748647e-03, 6.41740020e-03, 3.61417443e-03,
          -3.80538986e-03, -7.03386171e-03, -5.38823986e-03,
          -4.75499313e-03, 8.58207641e-05, 8.97833146e-03,
          1.11105666e-02, 1.03702396e-02, -4.63039987e-03,
          -8.20756610e-03, -7.14483997e-03, -2.54404126e-03,
          2.18401523e-03, 2.02271063e-03, 1.05333915e-02, 9.03806277e-03,
          1.00467186e-02, -4.29546740e-03, -7.55846873e-03,
          -5.14066219e-03, 9.42425802e-03, 8.14986043e-03,
          5.04532875e-03, 3.02664656e-03, 1.37397749e-02, 1.24347433e-02,
          -3.66960070e-03, -5.61516080e-03, -9.80680156e-03,
          5.76514099e-03, 3.78859462e-03, 5.62453084e-03, 1.71290152e-02,
          1.59165394e-02, -3.08036571e-03, -1.00442581e-02,
          -1.48743363e-02, -1.19301388e-02, -9.87778604e-03,
          -4.90781246e-03, 1.29816367e-03, 1.90819502e-02,
          2.00325679e-02, 7.55815709e-04, -2.98019033e-03,
          -1.14425840e-02, -1.43575547e-02, -1.41692525e-02,
          -1.38747441e-02, -8.25511198e-03, 9.51717701e-03,
          1.46561014e-02, 6.78918383e-04, -3.52035649e-03,
          -3.26756900e-03, -4.68710624e-03, -7.50164222e-03,
          -1.45419724e-02, -1.48842614e-02, -1.59122996e-04,
          1.36110429e-02, 9.84154269e-03, -1.84218667e-03,
          -2.74357735e-03, -1.23817346e-03, -2.83012562e-03,
          -3.09401425e-03, -1.45442337e-02, 2.09977897e-03,
          1.27167515e-02, 5.14259981e-03, -1.40784006e-03,
          -3.85436788e-03, -2.14872719e-03, -3.04632122e-03,
          -4.74179955e-03, -1.41913891e-02, 7.54611054e-03,
          8.08782782e-03, -9.04087909e-03, -1.13265552e-02,
          -8.28949641e-03, -1.27232342e-03, -5.90594544e-04,
          -8.70233926e-04, -9.83900763e-03, 1.61842722e-02,
          1.28296167e-02, -1.02923531e-02, -1.52265197e-02,
          -1.41139887e-02, -1.19501003e-03, -2.76647450e-04,
          3.74790863e-04, 1.91028070e-04, 1.88647043e-02, 1.78907700e-02,
          2.58414727e-03, -1.47729814e-02, -1.54116768e-02,
          -3.94191174e-03, 7.87656929e-04, 4.64023324e-04,
          6.31987303e-03, 1.02496920e-02, 1.01257833e-02, 8.54415260e-03,
          -6.14725705e-03, -7.41459848e-03, -9.02714022e-03,
          2.48002261e-03, 5.34517504e-03, 1.01276301e-02, 3.13797756e-03,
          5.33518614e-03, 9.55834403e-04, 3.16717871e-03,
          -1.96598982e-03, -6.03781873e-03, -2.69185333e-03,
          1.24519551e-03, 9.02660657e-04, -1.49054627e-03,
          7.55853369e-04, 3.46925016e-03, 4.70102346e-03, 2.48869206e-03,
          -5.13733504e-03, -2.92770378e-03, -2.26269971e-04,
          -1.28141115e-03, 1.53218524e-03, 1.28566229e-03,
          -2.93473969e-03, -1.55631453e-03, 8.53454228e-04,
          1.02346193e-03, 1.52717592e-04, 2.95234355e-03, 2.52171489e-03,
          5.03766304e-03, 5.32290433e-03, 3.12149315e-03,
          -9.56748147e-03, -6.67543849e-03, -9.54047835e-04,
          4.98418417e-03, 6.70374557e-03, 7.63497548e-03, 7.21639674e-03,
          4.50658798e-03, 5.06365811e-03, -1.25130126e-02,
          -7.42086722e-03, -1.67146511e-03, 1.09535139e-02,
          1.13891214e-02, 1.16021698e-02, 4.61551966e-03, 7.58901797e-03,
          9.35819373e-03, -5.93547570e-03, -7.07597611e-03,
          -7.72955921e-03, 1.02066649e-02, 1.03014996e-02,
          1.01223653e-02, 1.53498966e-02, 1.52516048e-02, 1.09749353e-02,
          6.18241938e-06, -7.58101651e-03, -1.12654809e-02,
          -1.09883863e-02, -1.10548558e-02, -3.42205935e-03,
          1.21837538e-02, 1.98033564e-02, 3.26908822e-03, 1.64312334e-03,
          -2.80472217e-03, -3.14182159e-03, -1.11299194e-02,
          -1.56478304e-02, -1.52656687e-02, 6.92020403e-03,
          1.86176505e-02, 1.79352635e-03, -1.41279132e-04,
          -1.17110954e-04, -1.69007573e-04, -1.72845414e-03,
          -1.56840999e-02, -1.90412160e-02, -5.43431728e-04,
          1.84456445e-02, 8.79799668e-03, -9.53197468e-06,
          2.95079826e-05, 5.48785247e-05, -1.29604960e-04,
          -3.25069274e-03, -2.04238370e-02, -2.19079526e-03,
          1.53542841e-02, 1.27007850e-02, 1.59298407e-03, 3.51788593e-04,
          6.27378526e-04, 4.57990333e-04, -1.43099879e-03,
          -1.73254814e-02, 1.70253438e-03, 6.22276682e-03,
          7.26766302e-04, -2.97593791e-03, 3.79188132e-04,
          3.75379808e-04, 1.09606434e-03, -3.67056899e-04,
          -5.90512343e-03, -2.08191480e-03, -2.85029365e-03,
          -2.83901161e-03, 1.54431828e-03, 1.72709639e-03,
          6.57663913e-03, 1.16124023e-02, 4.05189488e-03, 2.07304116e-03,
          6.91274134e-03, 4.03104210e-03, 8.61672219e-04,
          -5.08138165e-03, -1.91549817e-03, 5.80726517e-03,
          4.91389399e-03, 2.29634135e-03, 6.38726680e-03, 6.96978904e-03,
          2.37563066e-03, -1.90684828e-03, -1.05215814e-02,
          -5.42578287e-03, 3.91357159e-03, 7.41438800e-03,
          8.11816379e-03, 8.69768392e-03, -5.68887824e-03,
          1.67487690e-03, 2.09673191e-03, 3.94151313e-03, 6.76316966e-04,
          -1.83660153e-03, 1.43181055e-03, 7.51873478e-04,
          -4.54282854e-03, -1.04157510e-03, -1.50065520e-03,
          3.19887628e-03, 3.25870933e-03, 1.09177164e-03,
          -4.68268385e-03, 1.72184268e-03, 1.88347790e-03,
          -3.89524293e-03, 1.98022719e-03, -4.58483538e-03,
          -2.23739771e-03, -4.60533221e-04, -2.80546286e-04,
          3.29361705e-04, 2.15283269e-03, 2.06627510e-03, 2.17389432e-03,
          5.01146074e-03, -1.25010719e-03, 1.37019216e-03,
          -8.36332981e-03, -3.74656660e-03, -1.60789106e-03,
          2.54328852e-03, 7.17043784e-03, 6.40564039e-03, 3.16506950e-03,
          3.41852824e-03, 7.46966526e-03, -1.01615898e-02,
          -3.31537891e-03, 2.49138381e-03, 2.97432090e-03,
          9.12113953e-03, 4.90609696e-03, 1.30477943e-03, 3.01886816e-03,
          1.21508830e-03, -8.00809544e-03, -5.30673331e-03,
          1.62519317e-03, 9.46349557e-03, 9.86199360e-03, 4.72077681e-03,
          1.01267435e-02, 1.48371989e-02, 5.97653961e-05,
          -1.83281838e-04, -3.37418565e-03, -5.09429909e-03,
          -8.45363829e-03, -8.47853906e-03, 1.18028556e-05,
          3.12502822e-03, 2.01685242e-02, 1.31007901e-03,
          -2.18874673e-04, -2.08695000e-03, -1.60531665e-03,
          -3.54261789e-03, -1.35295689e-02, -1.42015470e-02,
          -7.51029002e-04, 1.87422186e-02, 9.47588403e-03,
          3.36085726e-03, 6.66061096e-05, -6.27878981e-05,
          -1.18434946e-04, -6.63890922e-03, -1.69331599e-02,
          -6.55262638e-03, 1.14550246e-02, 1.05802221e-02,
          9.45390482e-03, 1.31172324e-02, 3.37220356e-03, 2.74311588e-03,
          4.09297273e-03, -1.57780591e-02, -1.39515316e-02,
          4.52573132e-03, 1.20237684e-02, 1.18934186e-02, 1.18245538e-02,
          2.95161805e-03, 4.05965699e-03, 7.60781625e-03,
          -8.21669959e-03, -9.13138501e-03, 8.95816716e-04,
          6.14896789e-03, 1.60364097e-03, 1.30477995e-02, 1.95655320e-03,
          1.04135862e-02, 9.04467516e-03, -7.93156959e-03,
          -6.97632926e-03, -3.04164249e-03, -5.60685853e-03,
          -1.27431215e-03, 9.41618253e-03, 7.82865752e-03,
          1.34241311e-02, 1.30551681e-02, -3.24322935e-03,
          -7.16492301e-04, -2.71822268e-04, -5.32793161e-03,
          -3.93373473e-03, 4.54531331e-03, 1.08646145e-02,
          6.45010639e-03, 5.77208959e-03, 4.25131572e-03, 3.81678808e-03,
          2.18366203e-03, -2.29312951e-04, -9.79686994e-03,
          8.12850976e-06, 4.93411394e-03, 1.50860986e-03, 5.77563606e-03,
          4.37546056e-03, -2.87327101e-03, 6.29621907e-04,
          1.68694789e-03, 3.97993578e-03, -2.61044799e-04,
          3.41715571e-03, 1.62019697e-03, -4.69862064e-03,
          -5.27118286e-03, -1.78784074e-03, 3.49138805e-04,
          2.81858188e-03, 1.55221683e-03, 5.79385960e-04, 5.66425407e-03,
          -3.60508799e-03, -2.20465497e-03, -5.16924402e-03,
          2.74372008e-03, -4.05291142e-03, -4.85151401e-03,
          -6.34620246e-03, -3.08735500e-04, 5.48597705e-03,
          3.68743856e-03, 3.53997527e-03, 3.19890981e-03, 3.86367156e-03,
          -2.75063328e-04, -1.31465110e-03, -1.74964697e-03,
          -3.76580958e-03, -4.59880335e-03, 2.95389211e-03,
          3.63448006e-03, 2.42146570e-03, 4.86186612e-03, 5.45565411e-03,
          7.11369934e-03, 3.43785505e-03, 1.80566905e-03,
          -2.08163587e-03, 1.95679371e-03, -2.18720455e-03,
          -2.25125509e-03, 5.56687033e-03, 5.38699282e-03,
          4.23904927e-03, -1.84735443e-04, -3.47481063e-03,
          2.20894057e-04, -9.99212964e-04, 1.58256502e-04,
          -2.54445174e-03 ]
      - [ 9.07276757e-03, -4.65980294e-04, -5.09119127e-04,
          -7.24824378e-03, -9.28330328e-03, -2.40391423e-03,
          6.76197233e-03, 8.80106632e-03, 9.35375411e-03, 7.18205655e-03,
          8.12372752e-03, 8.75751954e-03, -8.71494319e-03,
          -6.55132718e-03, -4.42051841e-03, 6.73922850e-03,
          1.04148155e-02, 4.18624841e-03, 5.30224806e-03, 2.14667222e-03,
          -3.03027744e-04, -1.26509974e-03, -3.30986665e-03,
          -3.95694561e-03, 1.77662063e-04, 2.32426426e-03,
          1.90840417e-03, 1.99438399e-03, -9.45393462e-04,
          -4.28818353e-03, 5.47518430e-04, 5.36677137e-04,
          -2.23774021e-03, 9.72535927e-04, 1.75161741e-03,
          7.04960432e-04, -3.26161599e-03, -5.67002175e-03,
          -2.60647736e-03, 3.49090435e-04, 2.01626477e-04,
          4.80029127e-03, 5.85488649e-03, 2.94264872e-03,
          -2.32820283e-03, 6.94996677e-04, 2.76148180e-03,
          -3.65168997e-03, -3.11025884e-03, -3.40212788e-03,
          3.18389013e-03, -1.77684269e-04, 2.51277443e-03,
          7.86554650e-04, -9.84136481e-04, -9.84136481e-04,
          -4.84874425e-03, 4.67964122e-03, 5.65102673e-04,
          7.91609939e-03, 1.38661370e-03, -4.22406520e-05,
          -2.97829905e-03, -4.07762080e-03, -4.19266708e-03,
          -2.10492639e-03, 4.40421805e-04, 2.13984423e-03,
          7.92901963e-03, 2.72045052e-03, -5.78372914e-04,
          -5.78372914e-04, 3.48627614e-03, 4.20433190e-03,
          8.94127297e-04, 6.86999585e-04, -5.25556225e-03,
          2.30801501e-03, -2.63885851e-03, -8.82059801e-04,
          -6.85697232e-05, 9.69882403e-03, 1.02663962e-02,
          -3.96979135e-03, -5.46639506e-03, -9.31905489e-03,
          -7.13880686e-03, -6.95607904e-03, -6.53126137e-03,
          -8.13293178e-03, 9.40369722e-03, 1.22366371e-02,
          -7.21088797e-03, -8.21859669e-03, -1.09282406e-02,
          -5.82614914e-03, -8.10723566e-03, -7.81841297e-03,
          -8.39360431e-03, 9.43441689e-03, 1.17289554e-02,
          -7.82433152e-03, -8.94403365e-03, -8.52059387e-03,
          -9.83302947e-03, -6.74089137e-03, -8.13691691e-03,
          -5.15182037e-03, 1.21970493e-02, 1.05841393e-02,
          -5.45480056e-03, -1.21324835e-02, -1.06453281e-02,
          -9.96676181e-03, -6.28868875e-04, 7.13437257e-05,
          4.73547820e-03, 1.00635905e-02, 8.45691375e-03, 3.03838076e-03,
          -4.55369940e-03, -4.80008870e-03, -5.78084076e-03,
          -6.17744372e-05, 4.64463187e-03, 8.95987824e-03,
          5.39084722e-04, 9.31089511e-04, 5.41840773e-03,
          -5.43572591e-04, -1.78110879e-03, 1.06725725e-03,
          1.78253185e-03, 1.47964794e-03, -1.03038538e-03,
          7.87594635e-03, 8.29257816e-03, 4.76667657e-03,
          -9.43671539e-03, -9.74117126e-03, 6.40032405e-04,
          9.86078661e-03, 9.62408632e-03, 9.55314841e-03, 3.62762762e-03,
          5.14250854e-03, 1.17314868e-02, -5.08885738e-03,
          -5.11456281e-03, -1.62703230e-03, 3.36921215e-03,
          5.81387477e-03, 4.51729679e-03, -3.37870140e-03,
          1.89556426e-03, 1.28967292e-03, 1.76998589e-03,
          -2.02606409e-03, -2.85995030e-03, -2.85741454e-03,
          2.32309313e-03, 3.41521343e-03, 1.88760180e-03, 1.90382788e-03,
          -4.29050159e-03, -1.36021595e-03, -2.99384235e-03,
          -3.93598952e-04, 1.71295120e-04, 2.91834585e-03,
          2.27421056e-03, 3.94331198e-03, 3.04851029e-03,
          -1.62868423e-03, -8.87780637e-03, -3.06231389e-03,
          -2.71143159e-03, 4.08624648e-04, 4.07396071e-03,
          3.93077871e-03, 5.77295292e-03, -1.03104243e-03,
          -7.79529754e-03, -1.03343697e-02, -7.32226716e-03,
          2.55714566e-03, 6.03295024e-03, 6.57385308e-03, 7.07805762e-03,
          3.68182920e-03, 2.01356108e-03, 1.23730954e-03,
          -5.70215890e-03, -6.79232692e-03, 1.70290610e-03,
          4.05308325e-03, 2.72986596e-03, 1.15266454e-03, 8.34273268e-03,
          1.06620165e-02, 8.13869065e-06, -1.92371570e-03,
          -6.58913469e-03, -6.33044122e-03, -8.92030355e-03,
          -6.17723446e-03, -4.15374245e-03, 1.73789375e-02,
          1.82698742e-02, -3.20559397e-04, -4.68951417e-03,
          -1.27366101e-02, -1.18353320e-02, -1.24963140e-02,
          -1.10159405e-02, -3.46194813e-03, 1.22166760e-02,
          1.18036764e-02, -8.22210312e-03, -1.02922777e-02,
          -1.11063598e-02, -1.02472361e-02, -7.32554402e-03,
          -9.02192667e-03, -8.60310905e-03, 1.04670599e-02,
          1.17124375e-02, -6.17035083e-04, -6.05829293e-03,
          -1.05568497e-02, -7.21704168e-03, -1.01521984e-02,
          -9.09421779e-03, -5.92736900e-03, 7.67932460e-03,
          9.77374800e-03, 1.25612575e-03, -7.63079571e-03,
          -8.51525087e-03, -6.98681781e-03, -5.02432603e-03,
          -7.90386554e-03, -1.58651872e-03, 1.38059361e-02,
          1.37130069e-02, -6.14469172e-03, -1.23750176e-02,
          -1.22818239e-02, -1.17580583e-02, -4.85913036e-03,
          -1.09623652e-03, 1.24549773e-03, 1.50777893e-02,
          1.37166828e-02, -5.54359867e-04, -1.57626085e-02,
          -1.58874057e-02, -1.27695166e-02, -1.18351995e-03,
          4.34275309e-04, 1.53181460e-02, 1.09180287e-02, 1.06652332e-02,
          7.75452796e-03, -1.19926105e-03, -1.11062033e-02,
          -1.24280145e-02, -4.68884129e-03, -2.00743671e-03,
          2.33910419e-03, 8.67833011e-03, 1.14729041e-02, 1.05451336e-02,
          -6.37362991e-03, -7.80159328e-03, -1.11655621e-02,
          6.36996375e-03, 7.38934055e-03, 1.15573574e-02, 5.67053631e-03,
          5.38533460e-03, 2.71282834e-03, -5.60644036e-03,
          -7.46152876e-03, -2.97216489e-03, 8.11626762e-03,
          9.98359080e-03, 4.92314715e-03, 1.94430025e-03, 4.51237196e-03,
          2.35031033e-03, -3.03162553e-04, -5.06269559e-03,
          2.52534240e-03, -2.84241000e-03, -7.70866289e-04,
          7.41935510e-04, 2.48106592e-03, 1.16699596e-03,
          -2.94483406e-03, -5.70543669e-03, -1.32967450e-03,
          6.26433687e-03, -2.90378253e-03, -1.29376142e-03,
          2.65222113e-03, 7.70676555e-03, 7.96203502e-03,
          -2.90791853e-03, -4.82183835e-03, -6.60495926e-03,
          -3.09559237e-03, -3.42097878e-03, -4.43258276e-03,
          -5.11223869e-03, 1.32365245e-02, 1.47556579e-02,
          -5.43682277e-03, -1.27848266e-02, -1.27157662e-02,
          -1.09176468e-02, -5.79177728e-03, -5.30883577e-03,
          -5.58311353e-03, 1.87829919e-02, 1.78759545e-02,
          -5.20395767e-03, -1.58513188e-02, -1.59622971e-02,
          -1.39591936e-02, -4.26374841e-03, -1.24504988e-03,
          -5.99075283e-04, 1.66047011e-02, 1.61101837e-02,
          1.60424752e-04, -1.02283936e-02, -1.34971347e-02,
          -1.35724787e-02, -1.26026729e-02, -4.31848038e-03,
          -5.30434831e-04, 1.61181614e-02, 1.49404854e-02,
          8.23906250e-03, -1.37076871e-02, -1.51144220e-02,
          -1.35520808e-02, -3.79832461e-03, -1.55260356e-03,
          4.86820005e-03, 1.12054469e-02, 1.00663668e-02,
          -8.28175526e-03, -1.16108237e-02, -1.22581059e-02,
          -4.92930738e-03, -6.21094042e-03, -5.93606848e-03,
          -7.94086792e-03, 7.99992867e-03, 9.11155809e-03,
          -3.33974184e-03, -7.93331396e-03, -1.07112415e-02,
          -3.98826739e-03, -8.26035533e-03, -7.37818517e-03,
          -7.43811438e-03, 9.47794504e-03, 1.01693310e-02,
          -6.07595779e-03, -9.20220464e-03, -9.77774058e-03,
          -4.99155885e-03, -5.87670412e-03, -6.92863157e-03,
          -9.23722051e-03, 1.34056723e-02, 1.20328497e-02,
          -2.51079118e-03, -8.92140716e-03, -1.23336846e-02,
          -1.15272831e-02, -4.96589532e-03, -3.55704990e-03,
          -4.81431698e-03, 1.22210458e-02, 1.22360233e-02,
          5.78891579e-03, -5.47082582e-03, -1.04301563e-02,
          -8.84233974e-03, 1.70174497e-03, 2.45650182e-04,
          1.23855090e-02, 9.19903349e-03, 8.69955122e-03, 6.21661823e-03,
          -9.00989957e-03, -6.77395053e-03, -6.78880420e-03,
          4.22411039e-03, 7.84381758e-03, 9.43505764e-03, 8.49172007e-03,
          8.46828986e-03, 6.25478709e-03, 1.57308983e-04,
          -8.51019472e-03, -7.11208489e-03, 6.78420300e-03,
          1.03002815e-02, 9.90625285e-03, 1.17140003e-02, 1.06360875e-02,
          -2.44448511e-05, -1.44506327e-03, -7.41849933e-03,
          -1.25602754e-02, -2.40609958e-03, 5.35877841e-03,
          9.05745197e-03, 6.34575915e-03, 1.14245852e-02, 3.34536395e-04,
          -5.18823462e-03, -6.49326760e-03, -5.55875385e-03,
          -5.83025068e-03, -7.57755572e-03, -2.76070251e-03,
          7.90544227e-03, 8.98334943e-03, -6.85935328e-03,
          -5.18732052e-03, -8.39739200e-03, -3.88423214e-03,
          -7.10136816e-03, -8.24747514e-03, -5.36403246e-03,
          8.91028531e-03, 9.26307123e-03, -5.73231746e-03,
          -6.63525611e-03, -6.78482978e-03, -4.18377854e-03,
          -7.66296824e-03, -1.02937603e-02, -9.46986210e-03,
          1.10955872e-02, 1.03016514e-02, -6.04341179e-03,
          -1.12932306e-02, -1.11938342e-02, -8.04025214e-03,
          -6.51194202e-03, -4.95669013e-03, -4.88362415e-03,
          1.94883998e-02, 1.70384236e-02, -6.55850163e-03,
          -1.47502860e-02, -1.60179920e-02, -1.17897652e-02,
          -4.31495020e-03, -5.12367929e-04, 1.34772827e-05,
          1.78927723e-02, 1.86189134e-02, 9.68999229e-05,
          -1.44132487e-02, -1.59374885e-02, -1.37972115e-02,
          -4.82828636e-03, -9.64090752e-04, 1.07572472e-03,
          1.70240793e-02, 1.64733827e-02, 1.89310126e-03,
          -7.78763695e-03, -1.59315541e-02, -1.43302865e-02,
          -9.08490364e-03, -3.59711144e-03, 5.10671036e-03,
          8.98888241e-03, 9.46946349e-03, -7.50393141e-03,
          -8.10956396e-03, -1.04716336e-02, -6.49438798e-03,
          -4.92693204e-03, -5.07948687e-03, -5.89256641e-03,
          5.41298045e-03, 6.23398554e-03, 5.86364360e-04,
          -3.13997734e-03, -4.27099224e-03, -1.80136156e-03,
          -3.43139889e-03, -2.38339906e-03, -4.90227714e-03,
          2.23536673e-03, 2.87651760e-03, 2.07390171e-03, 4.87571955e-03,
          -3.71451228e-04, -4.42867447e-03, -2.26441119e-03,
          -4.83307149e-03, -2.41375319e-03, 4.05847421e-03,
          3.54235852e-03, 4.60041454e-03, -5.13699884e-03,
          -6.28469186e-03, -4.36660927e-03, 2.33681081e-03,
          5.69346547e-03, 3.07925814e-03, 7.83252157e-03, 5.45792840e-03,
          2.35058181e-03, -4.70006140e-03, -4.68157837e-03,
          -4.06530779e-03, 7.73962960e-03, 6.80088066e-03,
          4.12215432e-03, 1.60932681e-03, 1.20552545e-02, 6.63702050e-03,
          -4.66733193e-03, -4.03816020e-03, -8.14157911e-03,
          4.96078376e-03, 3.32738529e-03, 5.03412494e-03, 1.35241207e-02,
          1.66980475e-02, 1.78796565e-03, -4.85390238e-03,
          -1.42224757e-02, -1.14705535e-02, -1.10491784e-02,
          -4.51644650e-03, 6.64649822e-04, 1.64894238e-02,
          1.90889183e-02, 1.35391648e-03, -7.50057981e-04,
          -5.27562527e-03, -1.33227799e-02, -1.39581403e-02,
          -1.31020863e-02, -1.19608343e-02, 2.48211692e-03,
          1.77766029e-02, 3.06947134e-03, -9.68926528e-04,
          -1.89430488e-03, -1.95535296e-03, -3.04023293e-03,
          -1.17945476e-02, -1.66633278e-02, 7.68254860e-04,
          1.38658062e-02, 9.36344825e-03, -9.20355727e-04,
          -8.04946103e-05, -7.98424357e-04, -1.95036829e-03,
          -9.09923483e-03, -1.26325944e-02, 2.00330745e-03,
          6.12645270e-03, 5.72637189e-03, -1.54071953e-03,
          -6.86699874e-04, -6.70979905e-04, -5.42813330e-04,
          -2.73483340e-03, -1.33817056e-02, 4.20931447e-03,
          3.75446468e-03, -4.38596914e-03, -3.99751030e-03,
          -2.03122478e-03, -7.27760489e-04, -6.54255913e-04,
          -5.41844580e-04, -1.05036590e-02, 1.17207533e-02,
          6.92098262e-03, -9.62665305e-03, -1.06361508e-02,
          -9.21943691e-03, -3.16511956e-03, -2.73975171e-03,
          -2.48015835e-03, -2.05647331e-04, 1.59363709e-02,
          1.29637327e-02, 3.26350611e-03, -7.25257723e-03,
          -7.25852977e-03, -1.00768693e-02, -1.02977203e-02,
          -6.52708812e-03, 1.08460058e-03, 5.61666209e-03,
          1.08320620e-02, 1.06315641e-02, 5.53049939e-03, 1.46941573e-03,
          -8.42976756e-03, -7.35686347e-03, -3.17686121e-03,
          2.02536653e-03, -6.12480054e-03, 5.27135562e-03,
          8.50155577e-03, 9.55665391e-03, 6.71165995e-03, 1.20996323e-03,
          2.47237203e-03, 1.73552835e-04, -7.84693472e-03,
          -8.83454271e-03, 4.09958465e-03, 9.64287110e-03,
          1.04996338e-02, 9.94634349e-03, 1.35412021e-03, 9.29408940e-04,
          -4.27477760e-04, -8.63543246e-03, -5.16328309e-03,
          3.04122013e-03, 6.16106379e-04, 3.48002580e-03, 8.59188568e-03,
          7.88597856e-03, 3.50153749e-03, 3.49183870e-03,
          -4.85476805e-03, -5.39670885e-03, -7.33115198e-03,
          -1.96980007e-04, -4.45198454e-03, 4.37969388e-03,
          9.76455957e-03, 1.05072595e-02, 1.01486519e-02, 1.67110108e-03,
          -2.89420341e-03, -6.95015164e-03, -5.55338198e-03,
          -8.11260194e-03, -9.59749887e-05, 7.97573011e-03,
          1.02059990e-02, 1.02553088e-02, 8.67583975e-03, 1.30694243e-03,
          2.41590524e-03, -2.61455309e-03, -6.80676056e-03,
          -5.35018882e-03, 4.36281785e-03, 1.02924928e-02,
          1.02264658e-02, 9.42767691e-03, 8.12222715e-03, 1.36212837e-02,
          1.21210618e-02, 6.59934897e-03, -2.01218366e-03,
          -9.81687289e-03, -1.17932139e-02, -1.08382422e-02,
          -4.92618699e-03, 9.18218959e-03, 1.88039113e-02,
          3.20777087e-03, 2.61180941e-03, -4.45752055e-04,
          -2.49160640e-03, -1.08297970e-02, -1.40577303e-02,
          -1.37005262e-02, 2.75958865e-03, 1.79659482e-02,
          1.64540170e-03, -1.47787272e-04, -7.76701316e-04,
          -8.33947910e-04, -1.96341146e-03, -1.37012871e-02,
          -1.70118213e-02, 1.40135607e-03, 1.48616601e-02,
          6.67339982e-03, -2.44963274e-04, -1.68491376e-03,
          -2.02514417e-03, -1.97195192e-03, -8.87852069e-03,
          -1.71807315e-02, 7.33199049e-05, 7.81076076e-03,
          1.04315570e-02, 9.47278633e-04, -3.17558122e-04,
          -2.39196845e-04, -1.98818208e-03, -4.17451141e-03,
          -1.40729742e-02, 1.43979234e-03, 5.90770459e-03,
          1.22153002e-03, -3.72139574e-03, -4.74932278e-03,
          -1.63338846e-03, -9.85536957e-04, -7.05076614e-04,
          -4.39914782e-03, -2.21781526e-03, -7.90980703e-04,
          4.13347356e-04, 5.02276234e-03, 1.22628640e-03, 4.78251465e-03,
          5.72159048e-03, -3.40555981e-03, -2.07073684e-03,
          -3.05646239e-03, 3.51251406e-03, 6.65027369e-03,
          9.51089337e-03, 8.30841158e-03, 4.26658051e-04,
          -2.93066329e-03, -8.26401170e-03, -6.23472501e-03,
          -2.20751113e-04, 2.83673592e-03, 7.07465457e-03,
          4.92680026e-03, 9.77522228e-03, 4.51592356e-03,
          -1.39537803e-03, -4.98142838e-03, -2.15365877e-03,
          -8.49924702e-03, 5.05981082e-03, 9.11952741e-03,
          1.22217620e-02, 1.21303070e-02, 3.07436613e-03, 5.02045685e-03,
          -5.35909180e-03, -1.46859000e-02, -1.16355279e-02,
          5.43396641e-03, 1.08270012e-02, 1.10046072e-02, 1.15797631e-02,
          5.64685138e-03, 9.08648875e-03, 3.12420237e-03,
          -1.36492392e-02, -9.83707886e-03, -3.31888557e-03,
          4.68863733e-03, 1.02785202e-02, 1.00901006e-02, 9.17930529e-03,
          1.04303462e-02, 8.51533655e-03, -8.45285971e-03,
          -7.21984589e-03, -9.14089661e-03, 3.12758377e-03,
          2.85003474e-03, 8.01793579e-03, 9.91703290e-03, 1.04937814e-02,
          9.31387581e-03, -2.48182472e-03, -7.22633954e-03,
          -7.19070621e-03, -1.14557520e-03, -4.90977755e-03,
          6.25364762e-03, 1.04133170e-02, 8.89268983e-03, 1.05206994e-02,
          1.00095931e-03, -9.63452621e-04, -3.80869210e-03,
          -7.38985650e-03, -9.19383951e-03, 2.23442679e-03,
          8.92143976e-03, 1.12775471e-02, 1.22503843e-02, 5.63883362e-03,
          2.28567980e-03, 1.08791236e-02, -4.20860975e-04,
          -5.58059604e-04, -2.83455418e-04, -1.32255896e-03,
          -5.70803462e-03, -7.51321064e-03, 2.35171872e-04,
          1.77505962e-03, 1.76638551e-02, 8.75432859e-04, 1.48602514e-04,
          -7.70306680e-04, 9.75918083e-05, -8.68781295e-04,
          -1.02009242e-02, -1.42881079e-02, -5.16231579e-04,
          1.52968531e-02, 8.24176800e-03, 3.17696831e-03,
          -5.71544049e-04, 3.93384507e-05, -2.60996312e-04,
          -6.17994601e-03, -1.56415645e-02, -6.15019165e-03,
          1.05354963e-02, 9.52468626e-03, 8.46947078e-03, 1.21255890e-02,
          2.83571379e-03, 1.95681606e-03, 2.53850035e-03,
          -1.47731453e-02, -1.29410112e-02, 3.00475094e-03,
          1.05963312e-02, 1.09765744e-02, 1.03049446e-02, 1.95504911e-03,
          3.63746122e-03, 8.00165534e-03, -7.58069986e-03,
          -9.15631652e-03, 4.58137551e-03, 5.83715132e-03,
          1.23511220e-03, 1.06226904e-02, 2.18744201e-04, 1.05732521e-02,
          8.72403383e-03, -8.03485606e-03, -9.27734282e-03,
          2.85434909e-03, 2.10155779e-03, 2.91313231e-03, 9.09330044e-03,
          6.81937207e-03, 1.10864807e-02, 7.89944921e-03,
          -7.77969975e-03, -1.06487386e-02, 5.82942367e-03,
          9.36505850e-03, 7.93676358e-03, 1.16333449e-02, 1.03317080e-02,
          6.08532876e-03, 3.34393000e-03, -1.07530570e-02,
          -1.00843366e-02, 5.30441105e-03, 1.02365743e-02,
          4.80443658e-03, 9.93178319e-03, 8.24381039e-03, 5.71163464e-03,
          5.17611066e-03, -8.62297788e-03, -1.33057814e-02,
          6.80246111e-03, 1.10320589e-02, 1.13055129e-02, 1.13706412e-02,
          8.81922059e-03, 8.35569203e-03, -5.56482060e-04,
          -1.53388781e-02, -1.44900959e-02, 7.19117839e-03,
          1.26906438e-02, 9.16428678e-03, 1.23072937e-02, 1.27789499e-02,
          5.88839082e-03, 3.93519178e-03, -1.71977282e-02,
          -8.47212225e-03, 1.71850051e-03, 5.61266951e-03,
          3.49004916e-03, 1.04387328e-02, 1.07728168e-02, 1.03619155e-02,
          9.11763590e-03, -9.16922931e-03, -5.92581276e-03,
          -1.89711945e-03, 2.36937008e-03, 4.31981077e-03,
          5.53052034e-03, 4.63421829e-03, 1.15803983e-02, 1.03769805e-02,
          -5.74730569e-03, -6.10686420e-03, -2.82028690e-03,
          5.66508016e-03, 8.24851915e-03, 9.17400699e-03, 7.16421800e-03,
          8.28697253e-03, 5.55111980e-03, -9.35649779e-03,
          -1.30945328e-03, -2.29041371e-03, 3.91382229e-04,
          4.72787162e-03, 3.69961699e-03, 6.85407221e-03, 2.05562729e-03,
          3.55809112e-03, -3.91810853e-03 ]
      - [ 3.93905630e-03, -4.83156741e-03, -2.81546894e-03,
          -2.39025243e-03, -3.59123852e-03, 1.91078254e-03,
          1.65685487e-03, 1.39741309e-03, 1.89449219e-03,
          -8.55568517e-03, 1.68209488e-03, 7.69712962e-03,
          5.11682266e-03, 8.61840416e-03, 4.13046731e-03, 5.89481695e-03,
          -7.55809189e-04, -1.15985982e-02, -6.18474046e-03,
          -4.13378846e-04, 5.93705708e-03, 9.31245275e-03,
          7.27900257e-03, 2.41301442e-03, 6.73820172e-03, 5.69129625e-05,
          -6.78235758e-03, -7.23047601e-03, 3.84743413e-04,
          1.92373514e-03, 8.07242561e-03, 1.00112353e-02, 6.93027768e-03,
          1.01261670e-02, 2.64594983e-03, -7.23047601e-03,
          -1.08649544e-02, -3.09961662e-03, 4.06729570e-03,
          9.21282917e-03, 1.27791371e-02, 1.26176132e-02, 1.35257244e-02,
          3.27600050e-03, -1.18486537e-02, -7.91509636e-03,
          1.01283379e-02, 6.73960149e-03, 4.08279942e-03, 7.53654120e-03,
          1.21289603e-02, 9.98940412e-03, 7.28634535e-04,
          -7.91509636e-03, -9.14352853e-03, 8.75060540e-03,
          6.93457806e-03, 1.18122706e-02, 1.07091479e-02, 1.17419120e-02,
          8.52979533e-03, 9.27781337e-04, -1.21897794e-02,
          -9.39473324e-03, 1.30290643e-03, 2.66422844e-03,
          2.73852330e-03, 5.66096045e-03, 1.02145979e-02, 9.28157475e-03,
          2.52283877e-04, -4.50388994e-03, 4.09172894e-03,
          1.01092113e-02, 9.44965798e-03, 8.01103469e-03,
          -3.41010833e-04, 2.93937745e-03, -9.13403521e-04,
          -4.39868355e-03, -3.89168714e-03, 1.84488762e-02,
          2.05083694e-02, 5.06837806e-03, 3.73765535e-04,
          -9.06927511e-03, -1.08541483e-02, -1.21974926e-02,
          -1.36069236e-02, -5.80684422e-03, 1.67315137e-02,
          1.66188832e-02, -6.02457114e-03, -5.86828357e-03,
          -1.22536784e-02, -1.27814636e-02, -1.19944708e-02,
          -1.06434477e-02, -6.15987135e-03, 1.19634224e-02,
          1.08562587e-02, -8.01876467e-03, -9.33146384e-03,
          -1.08839823e-02, -9.06787068e-03, -8.43495037e-03,
          -8.58823676e-03, -5.94515586e-03, 9.42133088e-03,
          1.00030843e-02, -3.83747602e-03, -7.24397041e-03,
          -9.57917050e-03, -7.41222780e-03, -6.83585135e-03,
          -6.62417011e-03, -1.22832222e-04, 3.27624707e-03,
          3.17300530e-03, 3.67758214e-03, 4.91785677e-03, 4.40474658e-04,
          -3.65641527e-03, -6.14977162e-03, -4.17233491e-03,
          -1.20790803e-03, -7.45031750e-03, -4.54219710e-03,
          5.17509412e-03, 4.22965456e-03, 1.51438511e-03, 4.18484444e-03,
          1.50885177e-03, -4.59958240e-03, -8.64486489e-03,
          -7.70394411e-03, 8.95271730e-03, 8.02098773e-03,
          9.91383661e-03, 9.74182971e-03, 7.27289962e-03, 1.43332803e-03,
          -4.98379162e-03, -5.34626795e-03, -1.53306173e-02,
          5.65274386e-04, 1.50251174e-02, 1.52521748e-02, 1.52061954e-02,
          6.86304970e-03, 6.21339399e-03, 4.90953308e-03,
          -1.39825307e-02, -1.51781617e-02, 5.32068359e-03,
          1.19032916e-02, 1.24642178e-02, 1.11135338e-02, 5.41353924e-03,
          5.84736047e-03, 8.54045711e-03, -8.56523495e-03,
          -1.04695167e-02, 6.89968420e-03, 6.04863325e-03,
          8.12407676e-03, 8.15744326e-03, 1.02348514e-02, 1.07919853e-02,
          7.13996682e-03, -9.29597206e-03, -8.59832950e-03,
          4.04700264e-03, 5.18687582e-03, 1.45403622e-03, 9.84184351e-03,
          1.01744328e-02, 1.25462161e-02, 1.02062058e-02,
          -8.56736861e-03, -1.02761639e-02, 8.13635439e-03,
          5.46145067e-03, 2.71418504e-03, 5.52297803e-03, 1.34225423e-02,
          1.28531381e-02, 8.23635887e-03, -8.35533626e-03,
          -4.47211880e-03, 1.53316678e-02, 1.62584949e-02,
          8.35307781e-03, 3.41079384e-03, 2.55676731e-03, 4.29626461e-03,
          -3.53836361e-03, -1.38463201e-02, 7.93543924e-03,
          1.92750897e-02, 4.38410603e-03, 1.29310775e-03,
          -5.45828650e-03, -7.73115316e-03, -7.66093610e-03,
          -6.55181892e-03, -8.59568082e-03, 1.59653611e-02,
          1.99339204e-02, 1.15701859e-03, -3.04795080e-03,
          -1.07086133e-02, -1.10988319e-02, -1.40117938e-02,
          -1.19687468e-02, -8.05626810e-03, 2.12803930e-02,
          2.17527300e-02, 1.61997508e-04, -8.83125700e-03,
          -1.67857558e-02, -1.86931044e-02, -9.87717044e-03,
          -6.23630313e-03, -2.73811398e-03, 1.87759977e-02,
          1.65167339e-02, 1.32993679e-03, -9.87447798e-03,
          -1.53809488e-02, -1.56111857e-02, -7.65408063e-03,
          -7.14220013e-03, -2.17159931e-03, 1.07526565e-02,
          1.04483198e-02, 4.03336389e-03, -8.81254114e-03,
          -1.13688521e-02, -9.86109115e-03, -7.27504632e-03,
          -7.00359093e-03, -1.85277808e-04, 1.04901111e-02,
          1.16796317e-02, -7.07356818e-03, -7.38451164e-03,
          -8.25264957e-03, -7.80315045e-03, -9.43160988e-03,
          -8.58913548e-03, -6.85248012e-03, 6.21790299e-03,
          6.92290487e-03, -4.52027516e-03, -5.67139871e-03,
          -7.74208177e-03, -8.80441722e-03, -1.08985184e-02,
          -1.08633200e-02, 7.72069115e-03, 4.43522632e-03,
          6.15420844e-03, 5.43929543e-03, 6.99387630e-03,
          -5.44396602e-03, -7.15424214e-03, -1.08546494e-02,
          -1.13257142e-02, -5.86835016e-03, -4.86860843e-03,
          2.74967006e-03, 3.54618905e-03, 3.42388218e-03, 6.36790646e-03,
          -1.08706520e-03, 2.24651373e-03, -3.42213991e-03,
          -1.55019935e-03, -9.44717787e-03, -3.91447125e-03,
          -8.48172698e-04, 3.73031572e-03, 6.93040527e-03,
          9.11465194e-03, 7.55322399e-03, 5.55647910e-03,
          -9.48801544e-03, -3.12040956e-03, -9.19005077e-04,
          5.89469541e-03, 4.89468267e-03, 1.79019570e-03, 5.67354495e-03,
          -4.43473837e-04, -9.75103758e-04, -3.12040956e-03,
          -1.66089798e-03, 5.08737378e-03, 1.26334187e-03,
          9.62571707e-04, 4.50526876e-03, 5.89594524e-03,
          -3.44312657e-03, -5.20478981e-03, -1.66089798e-03,
          4.11527930e-03, 1.07287737e-02, 6.43617357e-04,
          -1.73348805e-03, -1.15505955e-03, -6.10247836e-04,
          4.05546452e-05, -9.17941239e-03, -1.16714919e-02,
          7.56702293e-03, 1.20238559e-02, -3.61562730e-03,
          -3.09519912e-03, -6.60267659e-03, -5.07391291e-03,
          -8.00809171e-03, -1.25066843e-02, -1.33496085e-02,
          9.80922207e-03, 1.61455106e-02, -3.03519517e-03,
          -5.26748504e-03, -1.29588684e-02, -1.09941959e-02,
          -1.10744750e-02, -1.05330972e-02, -1.29376547e-02,
          1.79378539e-02, 1.99299864e-02, 4.75879386e-03,
          -3.21055832e-03, -1.57737732e-02, -1.68835502e-02,
          -1.40011441e-02, -6.57459907e-03, -2.10712198e-03,
          1.89077724e-02, 1.91835444e-02, 1.15849413e-02,
          -6.56225113e-03, -1.53745264e-02, -1.86325535e-02,
          -1.05356500e-02, -4.03505424e-03, 4.26465971e-03,
          2.18856446e-02, 2.19204780e-02, 9.42721847e-04,
          -1.37346601e-02, -2.01955643e-02, -1.73476767e-02,
          -6.27968274e-03, -1.24144973e-03, 1.90413513e-04,
          1.61363054e-02, 1.43168801e-02, -2.08339444e-03,
          -1.19597511e-02, -1.52300121e-02, -1.39594916e-02,
          -6.63280208e-03, -4.91836620e-03, -3.30886664e-03,
          1.45115843e-02, 1.20180985e-02, -5.18642878e-03,
          -1.04945190e-02, -1.40289599e-02, -8.89563188e-03,
          -7.99736660e-03, -8.45807604e-03, -5.95652312e-03,
          1.16797918e-02, 1.00354403e-02, -1.91506499e-03,
          -3.30135855e-03, -1.00315968e-02, -7.52831763e-03,
          -1.16106924e-02, -1.05343843e-02, -1.00985179e-02,
          2.44362419e-03, 4.48291330e-03, -2.40550982e-03,
          -4.07065777e-03, -3.43432487e-03, 1.90746051e-03,
          -1.89075514e-03, -6.02203049e-03, 4.30509122e-03,
          4.55177709e-04, 1.19794335e-03, -8.42128007e-04,
          -4.86820517e-03, -8.76973674e-04, -7.21689081e-04,
          3.10382061e-03, 2.89908866e-03, 8.75864818e-04, 1.13994768e-03,
          3.96307465e-03, -2.18879039e-04, -9.36445213e-06,
          -5.96215308e-04, 1.09920255e-03, -1.61092449e-03,
          3.44770466e-04, 6.70878915e-04, 4.95292246e-03, 4.13425732e-03,
          -7.50096561e-03, -6.97448337e-03, -3.29544558e-03,
          -3.80867696e-03, -2.43651029e-03, 4.73775622e-03,
          5.44289825e-03, 6.40403247e-03, 7.44076911e-03,
          -8.77528801e-04, -3.34292324e-03, -5.58825582e-03,
          -7.23993499e-03, -8.91472585e-03, -6.10671984e-03,
          4.19686257e-05, 6.61190553e-03, 8.40088353e-03,
          -5.74594038e-03, -3.32903350e-03, -4.38753748e-03,
          -4.60914010e-03, -6.42829668e-03, -8.88638664e-03,
          -7.95997865e-03, 4.52381046e-03, 1.55663369e-02,
          -1.23201299e-03, -2.61147716e-03, -5.68076083e-03,
          -6.16159337e-03, -4.14836966e-03, -1.06964381e-02,
          -1.63364690e-02, 5.83210075e-03, 1.37859993e-02,
          -2.68083619e-04, -4.01384430e-03, -6.29073847e-03,
          -6.55233720e-03, -6.95546996e-03, -1.14015704e-02,
          -1.36545412e-02, 8.17135163e-03, 1.19198337e-02,
          -5.12702577e-03, -7.32010836e-03, -1.00975800e-02,
          -8.67667235e-03, -7.57974200e-03, -8.10385589e-03,
          -1.36439856e-02, 1.44483410e-02, 1.13621578e-02,
          -6.67965133e-03, -1.05973156e-02, -1.30646564e-02,
          -1.19383745e-02, -3.47957620e-03, -2.63224426e-03,
          -2.38355342e-03, 1.88775491e-02, 1.50089068e-02,
          -5.00106392e-03, -1.40319755e-02, -1.41627975e-02,
          -1.36372959e-02, -7.16360891e-03, -3.32720834e-03,
          6.23503560e-03, 2.11334620e-02, 2.08674762e-02,
          -4.06772271e-03, -6.87739020e-03, -1.78094096e-02,
          -1.67128853e-02, -7.06144050e-03, -1.77314621e-03,
          4.02872171e-03, 1.40919844e-02, 1.49438009e-02, 3.32539249e-03,
          -2.58229021e-03, -8.73279478e-03, -1.01468833e-02,
          -6.69122394e-03, -1.63561746e-03, 1.00202487e-04,
          3.92080564e-03, 7.57628307e-03, 6.86629908e-03, 7.23814080e-03,
          -7.00342585e-04, -7.16967229e-03, -6.71718922e-03,
          -7.02843443e-03, -1.08748837e-03, 8.46985029e-04,
          3.67445545e-03, 3.70482565e-03, -2.98914290e-03,
          -2.46139080e-03, -1.50157069e-03, 1.17494818e-03,
          3.67379258e-03, -5.08720428e-03, -1.74311188e-03,
          -5.41646616e-04, -6.65386964e-04, -6.30859169e-04,
          6.34068740e-04, 5.56729967e-03, 4.39818576e-03, 2.59557250e-03,
          -5.28506562e-03, -8.06314219e-03, 3.34819476e-03,
          4.86813392e-03, 2.70967232e-03, 3.23331612e-03,
          -3.66282673e-03, 4.53871966e-04, -4.64250566e-03,
          -4.39835899e-03, 1.11376438e-02, 1.15826661e-02,
          -7.59128155e-03, -9.31339059e-03, -1.01697575e-02,
          -5.58153493e-03, -7.48911267e-03, -8.23925994e-03,
          -6.37548557e-03, 1.11652846e-02, 1.21402713e-02,
          -9.06835590e-03, -1.22529231e-02, -1.23708155e-02,
          -7.26943184e-03, -8.25098902e-03, -7.65791582e-03,
          -8.59005097e-03, 1.20604150e-02, 7.55587406e-03,
          -1.01145823e-02, -1.49043901e-02, -1.12100961e-02,
          -4.99775913e-03, -3.07382061e-03, -1.76799577e-03,
          -3.29781952e-03, 5.06505836e-03, 5.59813622e-03,
          6.11149182e-04, -8.76060314e-03, -1.64416386e-03,
          -4.69997904e-04, -4.71841893e-04, -5.03465580e-03,
          -7.55756348e-03, 2.17357185e-04, 1.27594881e-02,
          7.98503775e-03, 3.51331313e-04, -1.42082295e-04,
          -1.01820951e-04, -4.18355266e-05, -3.36696231e-03,
          -1.72297377e-02, 5.82501350e-04, 1.75944678e-02,
          2.58266344e-03, -1.82580465e-04, -1.06659892e-04,
          -8.50159049e-05, -3.26714857e-04, -2.59786798e-03,
          -2.06669215e-02, 7.50181440e-04, 1.56589411e-02,
          3.45396856e-03, 6.36215336e-05, 8.38514999e-04, 2.49027420e-04,
          -8.16749933e-04, -3.46446526e-03, -2.05625575e-02,
          3.55335418e-03, 8.11837055e-03, 7.26526196e-04,
          -4.79531940e-03, -1.96395395e-03, 5.50572062e-04,
          8.85593763e-05, -2.49101524e-03, -7.81349838e-03,
          4.04584548e-03, 3.12127662e-03, -1.42079929e-03,
          -2.85815634e-03, 2.40782718e-03, -3.25870165e-03,
          1.93462346e-03, 1.70479179e-03, 3.01949261e-03, 3.17030400e-03,
          6.11276506e-03, 5.57234604e-03, 4.01904341e-03, 2.43744487e-03,
          -3.39114526e-03, -2.55521410e-03, 5.58129570e-04,
          -1.78063137e-03, -6.80790807e-04, 9.65460017e-03,
          1.26897423e-02, 1.19243804e-02, 1.01348124e-02,
          -2.33979453e-03, -3.36526544e-03, -9.93991084e-03,
          -7.31334183e-03, -4.10176069e-03, 6.63999980e-03,
          6.08019484e-03, 7.62961665e-03, 1.12633500e-02, 1.00035574e-02,
          4.26687626e-03, -2.59494409e-03, -7.74377584e-03,
          -9.70787928e-03, 2.18145479e-03, 8.78301542e-03,
          3.15304706e-03, 9.73969512e-03, 1.23792002e-02, 1.14603527e-02,
          8.16701737e-04, -7.08259316e-03, -4.89753392e-03,
          4.26640455e-03, 6.66701328e-03, 4.74242773e-03, 9.85939242e-03,
          7.61766313e-03, 2.69525149e-03, 9.19712184e-04,
          -5.86842978e-03, -8.13232735e-03, 2.45365081e-03,
          7.11976597e-03, 4.57464065e-03, 6.35120878e-03, 9.00542364e-04,
          1.63952215e-03, 1.26789242e-03, -8.59022141e-04,
          8.27892497e-03, 5.33337425e-03, 1.48391689e-03,
          -1.79519167e-03, -6.83154957e-03, -5.70422271e-03,
          -6.18738215e-03, -6.80720527e-03, -1.69906160e-03,
          1.18038896e-02, 1.20218787e-02, -6.46646274e-03,
          -8.35436489e-03, -1.17016574e-02, -1.11368503e-02,
          -7.67584564e-03, -6.53679064e-03, -6.11592270e-03,
          2.11928952e-02, 2.01081261e-02, -5.64887095e-03,
          -1.46144181e-02, -1.48783512e-02, -1.48783512e-02,
          -1.21832946e-02, -8.89365375e-03, -3.29546072e-03,
          1.20591065e-02, 1.55235594e-02, 6.69086003e-04,
          -8.13520607e-03, -8.30722600e-03, -1.08129280e-02,
          -1.24467034e-02, -1.16574112e-02, -1.05700092e-02,
          1.67762919e-03, 1.00304969e-02, 1.07126068e-02,
          -1.55937579e-03, -2.91126641e-03, -1.98294455e-03,
          -3.48850363e-03, -7.84398336e-03, -1.43647185e-02,
          1.04592531e-03, 8.96419305e-03, 4.02245112e-03,
          -1.14739337e-03, -3.14182806e-04, 3.36120138e-04,
          -1.00747775e-05, -3.06554441e-03, -9.06104967e-03,
          -5.07816719e-03, -1.53444416e-03, 4.22982359e-03,
          8.22633039e-03, 4.99253022e-03, 7.57783651e-03, 1.08329589e-02,
          3.61744314e-04, -8.20086990e-03, -2.77859019e-03,
          4.81931306e-03, 5.07508265e-03, 4.10440797e-03, 4.31522867e-03,
          6.60903752e-04, -1.24614709e-03, -6.62864419e-03,
          -4.63647442e-03, 5.69041492e-03, 1.07917108e-03,
          -1.15458482e-04, -5.66712767e-03, -1.36184623e-03,
          -1.76928390e-03, 2.59533641e-04, 4.65808855e-03,
          5.57878846e-03, -4.62409714e-03, 3.18942289e-03,
          2.69128010e-03, 2.88918684e-03, 3.70637747e-03,
          -2.63219397e-03, -9.96573246e-04, -2.35078367e-03,
          -7.13638216e-03, -8.16247705e-03, 3.61445389e-04,
          7.37744430e-03, 9.45957843e-03, 1.13352826e-02, 4.68526268e-03,
          5.94874006e-03, -2.93560303e-03, -9.48426314e-03,
          -8.90490320e-03, -5.38004935e-03, 3.64544196e-03,
          1.10792713e-02, 1.13798911e-02, 9.44400579e-03, 1.09685073e-02,
          1.29975495e-03, -7.48834200e-03, -4.97333892e-03,
          -5.40077919e-03, 3.85445589e-03, 1.61082426e-03,
          9.46015026e-03, 1.01327784e-02, 8.91636778e-03,
          -8.77554936e-04, -4.97333892e-03, -5.03100967e-03,
          2.67697126e-03, 5.85220382e-03, -1.89324375e-03,
          5.92713477e-03, 6.06477028e-03, 2.96406006e-03, 2.73174373e-03,
          -5.03453193e-03, -4.91149211e-03, 2.13474501e-03,
          -2.02935757e-04, -3.72909289e-03, 1.32953026e-03,
          4.36022598e-03, 4.60047275e-03, 7.14186253e-03,
          -6.34004537e-04, 8.22706800e-03, 9.00662970e-03,
          -1.00203184e-02, -8.88762996e-03, -1.01295551e-02,
          -7.64307054e-03, -8.14526342e-03, -1.70183275e-03,
          6.22890936e-03, 1.43623687e-02, 1.32071534e-02,
          -8.62083398e-03, -6.39307033e-03, -1.25513067e-02,
          -9.36602894e-03, -1.09451180e-02, -1.15425522e-02,
          -7.06019392e-03, 1.49475094e-02, 1.77195426e-02,
          7.95029197e-03, 1.45213399e-03, -8.64393543e-03,
          -1.31600378e-02, -1.44275920e-02, -1.45245129e-02,
          -1.08163664e-02, -2.10119542e-05, 1.24191148e-02,
          1.10512646e-02, 9.70838778e-03, 1.19859939e-02,
          -6.98387914e-04, -6.22463319e-03, -8.11982248e-03,
          -1.19990855e-02, -1.46499379e-02, 3.68862925e-03,
          1.24002174e-02, 1.29356459e-02, 1.22101456e-02, 2.66667758e-03,
          3.72485979e-03, 7.00017111e-03, -8.57117400e-03,
          -1.08329048e-02, 3.17642582e-03, 7.62970001e-03,
          2.20415625e-03, 1.32324854e-02, 1.73626817e-03, 1.17339380e-02,
          1.15226256e-02, -9.56113450e-03, -8.78417771e-03,
          5.70797315e-03, 2.68266653e-03, 3.58642358e-03, 9.74832941e-03,
          5.29303541e-03, 7.12590059e-03, 4.03747242e-03,
          -7.15329498e-03, -1.38692278e-03, 1.12673249e-02,
          9.32490174e-03, 7.66749401e-03, 8.92614853e-03, 1.28343271e-03,
          -4.25096788e-03, -6.99747633e-03, -5.13104349e-03,
          -6.91712412e-05, 4.02065925e-03, 4.52108588e-03,
          3.84105626e-03, 6.62019569e-03, -7.92763094e-05,
          -6.21528225e-03, -1.45924021e-03, -1.01681403e-03,
          -9.62759182e-03, -9.07999114e-04, 5.73818805e-04,
          1.09056002e-02, 1.05281305e-02, 6.95083896e-03, 4.29943949e-03,
          -2.48524942e-03, -4.82517108e-03, -1.36393467e-02,
          -1.80505391e-03, 6.56464230e-03, 9.90949199e-03,
          1.33641204e-02, 1.40872588e-02, 4.79748705e-03, 4.81213117e-03,
          -1.21422429e-02, -8.18714965e-03, -3.05515784e-03,
          1.66143151e-03, 3.06338654e-03, 1.15593448e-02, 1.20375985e-02,
          1.20780542e-02, 1.09604392e-02, -6.55348320e-03,
          -6.53541926e-03, -3.85288335e-03, 1.23226177e-03,
          5.39905578e-03, 6.23137737e-03, 5.17615303e-03, 1.39916800e-02,
          1.16828354e-02, -6.53541926e-03, -5.33073489e-03,
          2.73961853e-03, 3.89062334e-03, 4.64814296e-03, 6.54314086e-03,
          7.59351347e-03, 8.90289992e-03, 4.77596698e-03,
          -1.10091753e-02, 2.48720497e-03, 4.87744575e-03,
          4.43131616e-03, 3.16855195e-03, -2.34833526e-04,
          2.81215133e-03, -9.92115354e-04, -4.25686187e-04,
          -6.16776850e-03 ]
      - [ -1.50504033e-03, -7.95633160e-03, -5.01512783e-03,
          1.24546071e-03, 3.56541784e-03, 7.10248295e-03, 7.21321814e-03,
          6.67744037e-03, -1.48974312e-03, -8.60906485e-03,
          4.26664203e-03, 7.67994998e-03, 5.93108404e-03, 7.83058628e-03,
          3.83115583e-03, 6.64198492e-03, 5.87382028e-03,
          -1.06009655e-02, -6.83107506e-03, 5.91300568e-03,
          7.33992364e-03, 7.31839566e-03, 5.75866364e-03, 2.37084855e-03,
          6.27717422e-03, 3.36992694e-03, -7.22227711e-03,
          -6.42831810e-03, 3.97556461e-03, 1.80354191e-03,
          5.86343324e-03, 6.91086054e-03, 5.46141388e-03, 7.93422107e-03,
          6.48483448e-03, -6.42831810e-03, -8.38205032e-03,
          1.65916828e-03, 2.94053438e-03, 6.36245031e-03, 8.53414834e-03,
          8.87308735e-03, 8.60842317e-03, 5.03211142e-03,
          -9.02598258e-03, -2.40849191e-03, 7.36609707e-03,
          3.90149653e-03, 2.40192842e-03, 4.59663244e-03, 7.28068640e-03,
          3.91454855e-03, -2.78668851e-03, -5.06577920e-03,
          3.48980376e-03, 4.89103934e-03, 2.69213924e-03, 6.50831452e-03,
          5.73635986e-03, 4.88500018e-03, -2.53988779e-03,
          -6.19858876e-03, -5.68556739e-03, -2.32233055e-04,
          -2.41944217e-03, -2.59139552e-03, -1.33346359e-03,
          1.02498147e-04, 3.91853414e-03, 8.85743706e-04, 1.70991116e-04,
          4.64596698e-04, -3.73245392e-04, -3.70617599e-05,
          1.04804458e-04, -2.01030081e-04, -3.33009195e-03,
          1.94027473e-03, 4.00753052e-04, 2.41979561e-03, 4.55984264e-05,
          9.53115616e-03, 7.66933756e-03, -2.91260448e-03,
          -6.64710859e-03, -7.47353258e-03, -5.23404265e-03,
          -5.23720542e-03, -5.65581862e-03, -4.05582786e-03,
          1.15356101e-02, 1.23753026e-02, -5.10011893e-03,
          -8.64710007e-03, -9.20632761e-03, -7.91143812e-03,
          -6.55340264e-03, -4.37122723e-03, -2.96776020e-03,
          1.36171896e-02, 1.28245726e-02, -5.60819125e-03,
          -9.29365400e-03, -9.08705406e-03, -9.32205468e-03,
          -7.52839400e-03, -4.60761972e-03, 1.88518700e-03,
          8.99425801e-03, 8.76455847e-03, -8.20282075e-05,
          -4.30766819e-03, -5.87492483e-03, -7.17270235e-03,
          -6.86557917e-03, -5.61876455e-03, 4.30113723e-04,
          6.67237770e-03, 6.71063177e-03, 6.97823241e-03, 7.35950237e-03,
          6.35536481e-03, -1.81177771e-03, -9.51135717e-03,
          -8.71044118e-03, 2.50713201e-03, 6.95519440e-04,
          2.37967656e-03, 7.28799403e-03, 7.36050121e-03, 5.89779532e-03,
          1.08857697e-03, -5.24395611e-03, -6.96878880e-03,
          -1.74796209e-03, -1.56898121e-03, -1.79195835e-03,
          -5.34262508e-03, -4.14211815e-03, 7.10597960e-04,
          6.22124458e-03, 7.89496675e-03, 7.79640395e-03, 5.63399959e-03,
          -6.35901093e-03, -5.31471008e-03, 1.97406136e-03,
          6.14675228e-03, 8.92763957e-03, 4.30195685e-03, 4.39496106e-03,
          3.57561163e-03, -6.21864153e-03, -8.92852247e-03,
          1.46058865e-03, 6.81642070e-03, 8.09415802e-03, 6.68697571e-03,
          3.52266873e-03, 3.78722209e-03, 2.23125285e-03,
          -4.59968066e-03, -7.12983729e-03, 6.09069970e-03,
          3.81715712e-03, 5.44242049e-03, 5.33472374e-03, 7.01434352e-03,
          7.55866105e-03, 5.29444823e-03, -6.36163168e-03,
          -5.52707305e-03, 7.26854475e-03, 3.84610216e-03,
          1.02790049e-03, 6.49569370e-03, 6.64793374e-03, 7.98893068e-03,
          1.66123919e-03, -5.50680654e-03, -1.19706162e-03,
          5.51381055e-03, 3.49676516e-03, 1.13115588e-03, 2.83792941e-03,
          5.76834567e-03, 2.10297736e-03, -2.27502175e-03,
          -2.83727143e-03, 9.35376063e-03, 1.05349831e-02,
          1.06344465e-02, 5.34998300e-03, -1.15503254e-03,
          -5.10810781e-03, -5.87419095e-03, -8.11982900e-03,
          -2.94678356e-03, 1.21468967e-02, 1.22225732e-02,
          1.63188984e-03, -8.81135056e-05, -7.50155374e-03,
          -9.60969552e-03, -8.95006303e-03, -3.70689551e-03,
          1.13303063e-03, 9.00051929e-03, 8.16590991e-03,
          -5.33542829e-03, -5.38623892e-03, -8.18946864e-03,
          -6.35420578e-03, -5.84608736e-03, -5.92462718e-03,
          -3.67793674e-03, 7.98987504e-03, 7.70703983e-03,
          -6.31105015e-03, -7.06032757e-03, -7.68065499e-03,
          -4.99351323e-03, -5.55371679e-03, -6.97381143e-03,
          -7.02823279e-03, 9.74243041e-03, 1.06073730e-02,
          1.19753066e-03, -3.52108665e-03, -7.67482584e-03,
          -8.94066598e-03, -8.24886095e-03, -8.02116189e-03,
          -4.83993394e-03, 1.20881358e-02, 1.23292608e-02,
          7.41605274e-03, 5.50954544e-04, -3.79004283e-03,
          -8.15923791e-03, -1.11249322e-02, -1.11454353e-02,
          3.44228442e-03, 1.39480364e-02, 1.44197335e-02, 2.42517912e-03,
          -2.52614773e-05, -1.66313897e-03, -8.11638962e-03,
          -1.20866736e-02, -1.17471255e-02, 4.26551880e-04,
          1.14058759e-02, 1.17038228e-02, 2.75962660e-03,
          -5.19845344e-04, -5.80767402e-03, -1.14335995e-02,
          -1.12177571e-02, -8.29853211e-03, 9.15674027e-03,
          9.18678474e-03, 9.72504821e-03, 9.29698907e-03, 9.01247840e-03,
          -7.67866196e-03, -1.13691660e-02, -1.18433507e-02,
          -3.09321983e-03, 2.97673652e-03, 6.01281971e-03,
          6.66552130e-03, 7.48091901e-04, -6.55918242e-03,
          -4.76699276e-03, -2.83229933e-03, 5.10425447e-03,
          5.25759673e-03, 8.22239555e-03, -1.85075885e-04,
          -3.82605451e-03, -7.21154781e-03, -5.12035284e-03,
          -1.22525147e-03, 8.67677201e-03, 9.21227038e-03,
          8.84571858e-03, 3.04995803e-03, -3.45495786e-03,
          -1.27633777e-03, 2.26553041e-03, 1.39795337e-03,
          4.25750669e-03, 6.54942216e-03, 4.91176406e-03, 3.26693919e-03,
          -2.59088422e-03, -5.30910352e-03, 7.82465097e-03,
          5.33988746e-03, 2.60823569e-03, 7.13331066e-03, 8.36952124e-03,
          3.70755512e-03, -2.69395183e-04, -5.30910352e-03,
          7.68035464e-03, 1.32243047e-02, 4.85195499e-03, 1.10818527e-03,
          3.33943707e-03, 1.58109923e-03, -7.92776234e-04,
          -9.87939071e-03, -1.08957794e-02, 1.21918665e-02,
          1.40480781e-02, 1.41460600e-03, -7.69816223e-04,
          -3.87058011e-03, -8.73529725e-03, -9.58041102e-03,
          -1.03349257e-02, -8.18379875e-03, 1.42292231e-02,
          1.43798823e-02, 1.18634693e-04, -1.71861483e-03,
          -1.16435969e-02, -1.18505443e-02, -8.50511715e-03,
          -5.77315828e-03, -2.27713888e-03, 1.34779625e-02,
          1.38920825e-02, 3.78442765e-03, -3.05517111e-03,
          -1.31533919e-02, -1.32093225e-02, -4.61808546e-03,
